~o
<STREAMINFO> 1 39
<VECSIZE> 39<NULLD><MFCC_D_A_0><DIAGC>
~s "silst"
<MEAN> 39
 -1.437421e+001 -5.746594e+000 -8.682510e+000 -6.131019e+000 -2.322799e+000 -1.318612e+000 -2.254513e+000 -2.905952e+000 -3.684267e+000 -1.198813e-001 -1.418618e+000 -1.238335e+000 4.367976e+001 2.975310e+000 1.474059e+000 1.010935e-001 -7.684352e-001 -1.327012e+000 -1.707360e-001 -9.241234e-002 -8.497584e-001 -1.678161e+000 -7.507585e-001 -3.014061e-001 -3.128797e-001 -5.170979e-001 1.826869e-001 8.892546e-002 2.032512e-001 -5.259420e-001 -6.047423e-001 -3.421897e-001 -3.034368e-001 1.539828e-001 2.996378e-003 -1.759830e-001 -3.588222e-002 -5.681089e-002 1.070292e+000
<VARIANCE> 39
 3.219406e+001 4.224497e+001 3.599342e+001 3.208999e+001 3.109170e+001 3.184789e+001 3.750792e+001 3.579719e+001 3.543744e+001 3.058846e+001 2.874405e+001 2.423087e+001 4.106218e+001 7.167683e+000 4.631665e+000 3.712585e+000 6.890193e+000 6.154324e+000 5.149249e+000 5.608257e+000 5.636024e+000 5.165433e+000 4.184594e+000 3.747937e+000 3.127671e+000 6.375061e+000 6.441033e-001 9.107801e-001 7.463284e-001 8.081241e-001 9.783812e-001 7.928938e-001 9.362906e-001 9.483753e-001 8.803045e-001 8.099060e-001 6.355231e-001 5.450944e-001 7.832486e-001
<GCONST> 1.352808e+002
~h "b"
<BEGINHMM>
<NUMSTATES> 5
<STATE> 2
<MEAN> 39
 -5.980678e+000 4.521366e+000 -1.660818e+000 -5.864118e-001 -2.378103e+000 -2.735558e+000 -7.452020e+000 -8.670402e+000 -8.966290e+000 -5.048835e+000 -4.004419e+000 -4.724666e+000 3.955860e+001 -1.184244e+000 7.786751e-001 4.752228e-001 9.119707e-001 8.076289e-001 5.271556e-001 7.072464e-001 1.244256e-001 7.427316e-002 -2.733296e-001 -2.085456e-001 9.408605e-002 -1.237371e+000 -6.091691e-002 -1.164236e+000 -3.352349e-001 -9.021117e-001 -5.858365e-001 -3.175011e-001 -8.036589e-002 5.791659e-001 5.396982e-001 4.276902e-001 2.395045e-001 2.474491e-001 1.561924e+000
<VARIANCE> 39
 2.452669e+001 1.684151e+001 1.828800e+001 2.744561e+001 2.333069e+001 3.117134e+001 3.280119e+001 2.935995e+001 3.033603e+001 2.910602e+001 3.082885e+001 2.519611e+001 1.638227e+001 2.648026e+000 5.817962e+000 3.257402e+000 5.101486e+000 3.319182e+000 3.506373e+000 3.699671e+000 4.382032e+000 4.499979e+000 3.526894e+000 3.024990e+000 2.483677e+000 8.617386e+000 4.073592e-001 6.282982e-001 7.407468e-001 8.088479e-001 6.994485e-001 6.642877e-001 8.767285e-001 8.322116e-001 7.937284e-001 7.262990e-001 6.381668e-001 5.230532e-001 7.739596e-001
<GCONST> 1.264724e+002
<STATE> 3
<MEAN> 39
 -1.445767e+001 -7.897501e-001 -3.584066e+000 -1.306801e+000 -1.369857e+000 -1.014716e+000 -2.926661e+000 -2.804061e+000 -3.262449e+000 -1.712531e+000 -1.983637e+000 -1.810327e+000 3.855216e+001 3.111579e-001 -2.011700e+000 -8.663110e-001 -1.858323e+000 -1.177231e+000 -8.342791e-001 -1.205937e-001 7.951112e-001 1.007357e+000 7.105726e-001 5.617124e-001 4.792148e-001 3.559740e+000 8.674222e-001 -4.058508e-001 -1.365365e-001 -8.862745e-001 -6.779085e-001 -3.817787e-001 -5.021891e-001 -1.303620e-001 -1.644422e-001 3.158963e-002 3.328250e-002 -8.887377e-002 1.409956e+000
<VARIANCE> 39
 3.670181e+001 2.260775e+001 1.943933e+001 2.345283e+001 1.730746e+001 2.222323e+001 2.341447e+001 2.844479e+001 2.950353e+001 2.590645e+001 2.024897e+001 1.759538e+001 6.078759e+001 4.194399e+000 3.839329e+000 3.796818e+000 5.503369e+000 3.669376e+000 3.912853e+000 4.054362e+000 4.277183e+000 4.401327e+000 3.644288e+000 3.071881e+000 2.443476e+000 1.122887e+001 6.726466e-001 6.580127e-001 8.350504e-001 8.938329e-001 7.233844e-001 8.357698e-001 7.432064e-001 7.973047e-001 8.358213e-001 7.327071e-001 6.714140e-001 4.858199e-001 1.157791e+000
<GCONST> 1.285434e+002
<STATE> 4
<MEAN> 39
 -6.822425e+000 -7.014324e+000 -6.641219e+000 -1.085762e+001 -8.132442e+000 -6.159223e+000 -6.831399e+000 -3.155568e+000 -2.325431e+000 -4.071773e-001 -7.448637e-001 -1.525823e+000 5.756107e+001 2.530586e+000 -2.616625e+000 -9.284165e-001 -3.728422e+000 -2.533222e+000 -7.583742e-001 -1.236711e+000 5.782067e-001 2.825350e-001 7.292417e-001 3.981572e-001 -1.384927e-002 4.886826e+000 8.081656e-002 4.728433e-001 2.915249e-001 3.563200e-001 2.231124e-001 4.431448e-001 -7.260967e-003 -1.154516e-001 -4.048751e-001 -2.258331e-001 -2.358055e-001 -2.383077e-001 -1.150168e+000
<VARIANCE> 39
 4.382788e+001 2.685115e+001 4.902038e+001 6.331119e+001 3.779366e+001 5.568021e+001 4.537395e+001 3.833909e+001 3.778695e+001 3.388462e+001 3.396663e+001 2.503571e+001 3.293922e+001 5.273593e+000 5.292232e+000 8.420257e+000 7.385209e+000 6.541209e+000 8.169062e+000 7.838382e+000 7.528443e+000 7.467022e+000 5.674387e+000 5.601286e+000 4.206009e+000 6.226653e+000 8.284507e-001 5.935233e-001 5.265961e-001 9.552283e-001 7.541185e-001 7.565163e-001 8.641785e-001 8.679790e-001 8.266701e-001 7.037527e-001 6.610211e-001 5.175272e-001 6.884763e-001
<GCONST> 1.393132e+002
<TRANSP> 5
 0.000000e+000 1.000000e+000 0.000000e+000 0.000000e+000 0.000000e+000
 0.000000e+000 7.012030e-001 2.987970e-001 0.000000e+000 0.000000e+000
 0.000000e+000 0.000000e+000 5.591180e-001 4.408820e-001 0.000000e+000
 0.000000e+000 0.000000e+000 0.000000e+000 4.817621e-001 5.182379e-001
 0.000000e+000 0.000000e+000 0.000000e+000 0.000000e+000 0.000000e+000
<ENDHMM>
~h "d"
<BEGINHMM>
<NUMSTATES> 5
<STATE> 2
<MEAN> 39
 -8.363545e+000 7.569166e-001 1.420734e+000 -6.354225e-002 -6.828464e+000 -7.079324e+000 -7.769614e+000 -5.252526e+000 -5.748800e+000 -5.283226e+000 -6.306005e+000 -4.078952e+000 4.301133e+001 -1.481429e+000 5.217473e-001 -1.448576e-002 3.946355e-001 1.491282e+000 1.160566e+000 6.003810e-001 -2.694390e-001 1.148525e-001 7.468691e-002 6.687552e-002 -4.778747e-002 -1.160823e+000 -1.071059e-001 -1.151186e+000 -2.916696e-001 -1.173763e+000 -5.400770e-001 -9.495365e-002 -7.257927e-002 5.634463e-001 2.555029e-001 3.572833e-001 4.962099e-001 3.355733e-001 1.744474e+000
<VARIANCE> 39
 3.019829e+001 4.771336e+001 3.940119e+001 4.877356e+001 4.966891e+001 3.956672e+001 3.608284e+001 4.039238e+001 4.397481e+001 3.450380e+001 3.221453e+001 2.608516e+001 6.053179e+001 3.151651e+000 8.025544e+000 3.946155e+000 7.274675e+000 5.356441e+000 5.450575e+000 4.996108e+000 5.272591e+000 4.651162e+000 3.958299e+000 3.924224e+000 3.345917e+000 1.081609e+001 5.032393e-001 8.525440e-001 5.980566e-001 8.531867e-001 1.005413e+000 8.454183e-001 9.933362e-001 8.866650e-001 8.369135e-001 7.813793e-001 7.148643e-001 5.770450e-001 1.122720e+000
<GCONST> 1.376394e+002
<STATE> 3
<MEAN> 39
 -1.382215e+001 -5.729433e+000 -1.589208e+000 -4.852908e+000 -4.958301e+000 -3.301013e+000 -4.955533e+000 -2.504518e+000 -3.221633e+000 -2.437625e+000 -2.644908e+000 -1.749519e+000 4.722431e+001 -8.963920e-001 -1.837798e+000 -3.462731e-001 -2.183401e+000 -7.217839e-001 -2.623126e-001 -1.719346e-002 8.323211e-001 5.963443e-001 5.753040e-001 8.777200e-001 7.763395e-001 3.560459e+000 6.202136e-001 -8.086542e-002 6.403546e-002 -4.257582e-001 -8.098041e-001 -6.122131e-001 -4.297838e-001 1.695023e-001 -8.786532e-002 3.075785e-002 -3.558258e-002 -3.919819e-002 1.000458e+000
<VARIANCE> 39
 5.361275e+001 4.987383e+001 4.941768e+001 5.061734e+001 5.280820e+001 4.694045e+001 4.284429e+001 3.387379e+001 3.572110e+001 3.012090e+001 2.455113e+001 2.011798e+001 1.084230e+002 4.701893e+000 4.794134e+000 3.952560e+000 5.561242e+000 4.371336e+000 4.818906e+000 4.833072e+000 4.572894e+000 4.472479e+000 3.629802e+000 3.386543e+000 2.583840e+000 1.074823e+001 7.390857e-001 8.345623e-001 8.655170e-001 1.012478e+000 1.095226e+000 1.141042e+000 1.052847e+000 9.973021e-001 8.893285e-001 7.800300e-001 7.943678e-001 5.920908e-001 1.308027e+000
<GCONST> 1.388429e+002
<STATE> 4
<MEAN> 39
 -1.196450e+001 -8.304330e+000 -1.649232e+000 -1.011884e+001 -1.012110e+001 -8.227371e+000 -7.452943e+000 -1.159505e+000 -2.285688e+000 -1.889859e+000 -2.026547e+000 -5.201507e-001 5.896065e+001 1.331791e+000 -1.119787e+000 -6.157224e-002 -1.466377e+000 -1.809222e+000 -1.245236e+000 -1.225592e+000 9.193451e-001 3.121341e-001 3.996757e-001 1.157849e-001 4.819707e-002 2.935414e+000 5.325029e-001 2.708454e-001 -1.143523e-001 4.649678e-001 7.899562e-002 2.066940e-001 -5.320840e-002 -4.035898e-002 -1.798086e-001 -2.629176e-002 -1.893025e-001 -3.218414e-001 -9.289029e-001
<VARIANCE> 39
 6.478199e+001 4.055273e+001 5.362722e+001 4.676350e+001 5.551106e+001 5.431999e+001 5.460903e+001 4.150835e+001 4.410691e+001 3.113436e+001 2.867397e+001 2.291471e+001 3.757865e+001 8.222672e+000 4.022317e+000 4.936141e+000 5.416278e+000 5.995100e+000 6.304269e+000 7.137804e+000 5.707629e+000 5.485245e+000 4.365883e+000 5.078736e+000 3.665833e+000 7.971708e+000 7.724819e-001 8.215812e-001 7.697719e-001 9.497781e-001 1.178722e+000 1.323011e+000 1.042952e+000 8.770697e-001 8.334105e-001 7.040035e-001 7.279544e-001 5.746391e-001 1.131667e+000
<GCONST> 1.410611e+002
<TRANSP> 5
 0.000000e+000 1.000000e+000 0.000000e+000 0.000000e+000 0.000000e+000
 0.000000e+000 5.423178e-001 4.576823e-001 0.000000e+000 0.000000e+000
 0.000000e+000 0.000000e+000 2.904534e-001 7.095466e-001 0.000000e+000
 0.000000e+000 0.000000e+000 0.000000e+000 3.834940e-001 6.165060e-001
 0.000000e+000 0.000000e+000 0.000000e+000 0.000000e+000 0.000000e+000
<ENDHMM>
~h "f"
<BEGINHMM>
<NUMSTATES> 5
<STATE> 2
<MEAN> 39
 -1.822086e+001 -5.086873e+000 -6.303539e+000 -5.023697e+000 -3.167796e+000 -3.132175e+000 -2.173555e+000 -6.909432e-001 -1.945629e+000 -1.391394e+000 -2.669354e+000 -1.098859e+000 5.236133e+001 -3.914956e+000 -5.414758e-001 -4.105681e-001 6.797726e-001 3.832571e-001 4.115725e-001 6.430681e-001 6.171335e-001 7.062614e-001 3.817213e-001 4.368812e-001 6.081419e-001 -7.636983e-001 5.781506e-001 -4.534566e-001 -2.282130e-001 -5.415925e-001 -4.835736e-001 -2.665366e-001 -4.015219e-001 -7.506007e-002 -1.085025e-001 7.283065e-002 1.782125e-002 -7.377288e-002 3.800181e-001
<VARIANCE> 39
 3.847475e+001 1.751233e+001 1.612051e+001 1.690559e+001 1.619288e+001 2.087170e+001 1.933034e+001 1.979675e+001 2.047921e+001 1.951214e+001 1.631379e+001 1.463159e+001 3.628551e+001 5.355713e+000 2.998211e+000 4.031725e+000 4.513247e+000 3.578405e+000 4.208435e+000 4.184233e+000 3.705696e+000 3.754829e+000 3.312497e+000 3.315101e+000 2.528697e+000 3.087326e+000 7.963198e-001 5.867242e-001 5.558450e-001 6.560800e-001 5.821376e-001 5.696751e-001 6.555679e-001 6.285773e-001 6.148704e-001 5.563767e-001 5.042015e-001 4.408279e-001 5.323097e-001
<GCONST> 1.205629e+002
<STATE> 3
<MEAN> 39
 -2.391204e+001 -8.662756e+000 -9.456599e+000 -6.523625e+000 -4.994105e+000 -4.020568e+000 -3.027313e+000 -2.732610e-001 -1.053215e+000 -1.715610e-001 -1.711932e+000 -1.192647e-001 5.313426e+001 2.317303e-001 -1.532225e-001 -1.366896e-001 -1.315063e-001 -6.996825e-002 -7.076309e-002 -9.025335e-002 -7.374329e-002 2.330899e-002 6.780258e-002 1.990609e-002 -2.270674e-002 1.333319e-001 8.748693e-001 1.625146e-001 1.499304e-001 -1.080716e-001 -2.494822e-002 -5.855373e-002 -1.240497e-001 -9.768961e-002 -1.060335e-001 -8.669026e-002 -6.518635e-002 -1.134196e-001 1.005775e-001
<VARIANCE> 39
 1.012335e+001 1.237322e+001 1.079875e+001 1.225681e+001 1.278419e+001 1.377667e+001 1.452166e+001 1.410105e+001 1.400346e+001 1.389986e+001 1.306883e+001 1.173808e+001 2.307866e+001 2.530086e+000 1.029312e+000 1.207501e+000 1.282722e+000 1.376405e+000 1.466661e+000 1.547008e+000 1.604216e+000 1.578606e+000 1.524967e+000 1.467458e+000 1.312843e+000 1.602739e+000 5.076625e-001 2.488495e-001 3.055201e-001 3.628637e-001 3.620477e-001 4.018483e-001 4.353990e-001 4.035657e-001 3.987205e-001 3.633556e-001 3.656425e-001 3.139396e-001 3.051700e-001
<GCONST> 9.712310e+001
<STATE> 4
<MEAN> 39
 -1.458685e+001 -7.087318e+000 -7.942875e+000 -7.777457e+000 -5.410918e+000 -4.543430e+000 -3.561667e+000 -1.376140e+000 -1.740010e+000 -7.913330e-001 -2.256277e+000 -1.218407e+000 5.427973e+001 5.239366e+000 1.938035e-002 1.080516e-001 -1.672179e+000 -1.356573e+000 -6.400975e-001 -1.450971e+000 -5.287790e-001 -6.543967e-001 -4.476032e-001 -1.162393e-001 -5.703683e-001 1.174811e+000 2.502039e-001 -3.385563e-001 -1.399944e-001 -3.990822e-001 -3.698337e-001 -4.785591e-002 -3.626819e-001 9.142096e-002 -7.706684e-002 -2.706959e-002 9.510630e-002 -1.143742e-002 2.876237e-001
<VARIANCE> 39
 6.797589e+001 2.001539e+001 2.690967e+001 2.844783e+001 2.632172e+001 2.948119e+001 2.700227e+001 2.422240e+001 2.297560e+001 1.931295e+001 1.864183e+001 1.594591e+001 2.721935e+001 4.501138e+000 4.000802e+000 5.508955e+000 5.701449e+000 5.105472e+000 6.264838e+000 6.051713e+000 4.692160e+000 4.718100e+000 3.737441e+000 3.963132e+000 2.944865e+000 4.079633e+000 1.279832e+000 4.891139e-001 5.060762e-001 6.478918e-001 6.645589e-001 7.020806e-001 7.898180e-001 6.919221e-001 6.567712e-001 5.882828e-001 5.044925e-001 4.234193e-001 4.572541e-001
<GCONST> 1.274197e+002
<TRANSP> 5
 0.000000e+000 1.000000e+000 0.000000e+000 0.000000e+000 0.000000e+000
 0.000000e+000 5.461035e-001 4.538965e-001 0.000000e+000 0.000000e+000
 0.000000e+000 0.000000e+000 8.318676e-001 1.681324e-001 0.000000e+000
 0.000000e+000 0.000000e+000 0.000000e+000 5.778064e-001 4.221936e-001
 0.000000e+000 0.000000e+000 0.000000e+000 0.000000e+000 0.000000e+000
<ENDHMM>
~h "g"
<BEGINHMM>
<NUMSTATES> 5
<STATE> 2
<MEAN> 39
 -9.656248e+000 1.950007e+000 7.685469e-001 5.248523e-001 -7.072596e+000 -9.168871e+000 -5.985266e+000 -4.642482e+000 -9.562561e+000 -4.826180e+000 -3.179747e+000 -3.663210e+000 4.101464e+001 -1.219896e+000 -4.550183e-001 -1.523738e+000 3.900718e-001 2.220058e+000 1.189493e+000 -8.928376e-002 -1.286222e-001 1.403312e+000 2.994276e-001 -4.358122e-001 2.660636e-001 -8.421428e-001 1.464571e-001 -1.290228e+000 -5.726747e-001 -1.025372e+000 -2.557968e-001 -4.793380e-002 -6.050911e-002 3.619139e-001 3.300242e-001 5.795356e-001 1.824684e-001 1.829320e-001 1.794075e+000
<VARIANCE> 39
 2.887523e+001 2.722993e+001 3.255181e+001 3.196251e+001 5.190703e+001 5.045657e+001 4.085869e+001 5.542788e+001 4.366671e+001 3.835381e+001 4.058767e+001 2.822106e+001 3.507904e+001 2.724227e+000 1.188286e+001 6.232769e+000 7.314531e+000 6.697439e+000 6.261932e+000 6.324482e+000 8.571865e+000 5.860115e+000 6.361156e+000 4.863031e+000 3.468195e+000 1.183630e+001 5.593741e-001 9.362106e-001 8.285069e-001 9.133478e-001 1.089146e+000 1.151507e+000 1.068377e+000 1.055680e+000 1.001902e+000 9.171757e-001 8.028140e-001 5.982549e-001 1.030708e+000
<GCONST> 1.414867e+002
<STATE> 3
<MEAN> 39
 -1.295588e+001 -1.093426e+001 -1.001420e+001 -5.497180e+000 -1.014703e+000 -6.088058e+000 -5.942718e+000 -1.492236e+000 -2.827989e+000 9.133722e-001 -3.066417e+000 -9.087974e-001 5.061020e+001 6.846748e-001 -1.469365e+000 -9.463221e-001 -1.808878e+000 -2.408669e-001 -5.393188e-001 -8.387392e-001 7.013772e-002 5.962708e-001 9.751434e-001 2.163464e-001 3.672712e-001 3.366015e+000 7.941535e-001 1.009702e+000 9.771932e-001 -5.469250e-003 -9.568528e-001 -4.652384e-001 -3.077310e-001 -2.609189e-001 -6.394840e-001 -4.140952e-001 1.697793e-001 -2.012685e-001 -5.112418e-002
<VARIANCE> 39
 3.350553e+001 5.346546e+001 6.813372e+001 5.222103e+001 5.591644e+001 6.392743e+001 5.748086e+001 4.949807e+001 4.439042e+001 3.673154e+001 3.013774e+001 2.298918e+001 6.717342e+001 4.100365e+000 8.923765e+000 7.583784e+000 6.568110e+000 6.662668e+000 6.718208e+000 5.753719e+000 6.190591e+000 5.828141e+000 4.834684e+000 3.752633e+000 2.948498e+000 7.367534e+000 6.027229e-001 1.448174e+000 1.092795e+000 1.455755e+000 1.140172e+000 1.231622e+000 1.239370e+000 1.304375e+000 1.107292e+000 1.151171e+000 9.715551e-001 6.588423e-001 1.588299e+000
<GCONST> 1.456536e+002
<STATE> 4
<MEAN> 39
 -7.173220e+000 -5.878394e+000 -3.794539e+000 -7.020540e+000 -7.153156e+000 -1.063360e+001 -9.923786e+000 -4.007492e+000 -6.244551e+000 -3.662693e-001 -1.813221e+000 -1.448061e+000 5.594929e+001 2.389399e+000 5.059212e-001 9.238468e-001 -1.138142e+000 -1.938896e+000 -1.022423e+000 -1.573779e+000 7.700211e-002 -5.599250e-001 -5.248725e-001 7.408864e-001 -1.145106e-001 1.601663e+000 2.543232e-002 -2.584277e-001 -2.364134e-001 3.822358e-002 2.039750e-002 2.482401e-001 1.341466e-001 4.139788e-001 7.313721e-002 -2.038316e-001 3.462076e-003 -8.439348e-002 -4.428793e-001
<VARIANCE> 39
 3.441264e+001 3.194417e+001 7.494794e+001 5.620781e+001 8.061482e+001 6.316252e+001 5.934359e+001 5.798952e+001 4.995864e+001 4.368593e+001 4.255951e+001 2.521438e+001 2.872276e+001 4.071078e+000 4.572433e+000 4.663827e+000 6.972584e+000 5.750021e+000 6.834201e+000 7.021657e+000 6.059516e+000 6.607296e+000 6.641008e+000 4.990084e+000 3.470505e+000 2.474251e+000 4.568283e-001 8.673745e-001 8.442430e-001 6.479331e-001 9.777204e-001 9.026000e-001 9.533539e-001 9.173521e-001 9.491934e-001 8.741405e-001 6.394104e-001 5.537793e-001 6.387761e-001
<GCONST> 1.396343e+002
<TRANSP> 5
 0.000000e+000 1.000000e+000 0.000000e+000 0.000000e+000 0.000000e+000
 0.000000e+000 6.664925e-001 3.335076e-001 0.000000e+000 0.000000e+000
 0.000000e+000 0.000000e+000 6.063945e-001 3.936055e-001 0.000000e+000
 0.000000e+000 0.000000e+000 0.000000e+000 4.218413e-001 5.781587e-001
 0.000000e+000 0.000000e+000 0.000000e+000 0.000000e+000 0.000000e+000
<ENDHMM>
~h "k"
<BEGINHMM>
<NUMSTATES> 5
<STATE> 2
<MEAN> 39
 -1.832015e+001 -3.125848e+000 -4.361469e+000 -3.275138e-001 -1.635140e+000 -2.723143e+000 -2.684908e+000 -2.206735e-001 -2.508486e+000 4.888171e-002 -1.135884e+000 -7.677213e-001 3.594651e+001 -1.138916e+000 -1.094057e+000 -1.172334e+000 -3.471800e-001 7.670658e-001 1.313245e+000 5.632772e-001 8.213663e-002 8.982059e-001 5.960132e-001 7.038943e-002 3.226599e-001 -3.986294e-001 6.406620e-001 -7.051182e-001 -1.914262e-001 -9.453890e-001 -6.176123e-001 -6.946042e-001 -2.869696e-001 1.414478e-001 -2.476558e-001 3.194065e-002 -9.115317e-002 -4.569032e-002 2.268244e+000
<VARIANCE> 39
 2.059223e+001 2.209410e+001 2.762514e+001 2.176832e+001 3.257766e+001 3.799730e+001 3.391873e+001 3.659837e+001 3.816543e+001 2.761478e+001 2.358597e+001 1.927798e+001 3.094017e+001 6.240886e+000 5.848818e+000 5.782597e+000 6.583967e+000 7.404429e+000 7.450938e+000 5.781607e+000 5.842713e+000 6.346893e+000 4.144372e+000 4.103922e+000 2.800342e+000 2.134268e+001 6.955585e-001 9.391136e-001 9.265730e-001 8.043427e-001 9.747753e-001 1.063419e+000 9.795027e-001 1.030509e+000 1.024687e+000 7.563677e-001 7.388034e-001 5.159590e-001 1.458449e+000
<GCONST> 1.369765e+002
<STATE> 3
<MEAN> 39
 -1.603907e+001 -1.327709e+001 -1.065235e+001 -8.953545e+000 -3.381595e+000 -5.100726e+000 -4.380435e+000 6.886765e-001 -2.747254e+000 2.728974e+000 -2.169907e+000 -2.001494e-001 5.398120e+001 1.544554e-001 -3.027156e-001 -1.644441e-001 -1.705906e+000 -6.764978e-001 -8.871646e-001 -6.104728e-002 -7.982872e-002 1.895161e-003 2.525079e-001 -1.840766e-001 6.049749e-002 4.012615e+000 -1.259257e-002 1.181214e+000 8.126395e-001 5.332653e-001 -4.929310e-002 2.220950e-002 1.492311e-001 -1.291065e-001 -8.150710e-002 -4.156082e-001 8.764365e-002 -1.084211e-001 -9.647118e-001
<VARIANCE> 39
 2.745774e+001 3.297479e+001 6.458157e+001 4.755487e+001 5.417244e+001 4.997662e+001 5.147331e+001 4.525607e+001 4.177439e+001 3.426112e+001 2.875285e+001 2.247691e+001 5.214693e+001 4.570460e+000 5.785587e+000 4.855806e+000 4.847062e+000 4.257806e+000 4.467263e+000 4.244574e+000 3.939460e+000 4.196298e+000 3.303316e+000 2.954252e+000 2.384881e+000 1.038513e+001 7.761863e-001 7.323418e-001 8.529794e-001 9.648249e-001 1.014377e+000 1.049140e+000 9.626438e-001 9.139751e-001 9.822461e-001 7.652668e-001 6.823848e-001 5.791567e-001 1.831776e+000
<GCONST> 1.375478e+002
<STATE> 4
<MEAN> 39
 -1.605160e+001 -7.003754e+000 -4.536336e+000 -9.363288e+000 -5.185163e+000 -5.055744e+000 -1.470951e+000 -1.147829e+000 -2.968406e+000 4.618745e-001 -2.497964e+000 -6.507536e-001 5.536738e+001 1.779985e+000 7.844079e-001 8.644263e-001 -5.427818e-002 -1.017440e+000 -4.925438e-001 -1.952469e-001 -2.243497e-001 -7.310271e-001 -1.110096e+000 -5.384341e-002 -4.867694e-001 4.603977e-001 5.184209e-001 -3.418301e-001 -2.194025e-001 -5.250470e-002 -2.522219e-001 -6.192363e-002 -3.699283e-001 1.078852e-001 -1.306154e-001 -6.902324e-002 7.145443e-002 -9.637401e-002 -6.508765e-002
<VARIANCE> 39
 4.150562e+001 2.603054e+001 5.838042e+001 4.305210e+001 5.301924e+001 4.816355e+001 4.386250e+001 4.407837e+001 3.806815e+001 3.192398e+001 3.003826e+001 2.244912e+001 4.037831e+001 6.473347e+000 3.966480e+000 3.519157e+000 4.428397e+000 4.987037e+000 5.114138e+000 5.282910e+000 5.051594e+000 5.131600e+000 3.796095e+000 3.984048e+000 2.958930e+000 3.142619e+000 5.569556e-001 5.717180e-001 5.591415e-001 7.483243e-001 7.260447e-001 8.275831e-001 7.841195e-001 8.167352e-001 8.063427e-001 6.919702e-001 6.421714e-001 4.939972e-001 1.076914e+000
<GCONST> 1.336870e+002
<TRANSP> 5
 0.000000e+000 1.000000e+000 0.000000e+000 0.000000e+000 0.000000e+000
 0.000000e+000 7.344204e-001 2.655796e-001 0.000000e+000 0.000000e+000
 0.000000e+000 0.000000e+000 6.163551e-001 3.836449e-001 0.000000e+000
 0.000000e+000 0.000000e+000 0.000000e+000 6.325231e-001 3.674769e-001
 0.000000e+000 0.000000e+000 0.000000e+000 0.000000e+000 0.000000e+000
<ENDHMM>
~h "l"
<BEGINHMM>
<NUMSTATES> 5
<STATE> 2
<MEAN> 39
 -1.815290e+000 -5.409822e+000 -1.056337e+001 -2.182324e+001 -7.664714e+000 -7.352261e-002 -9.024053e+000 -7.706449e+000 -3.548308e+000 7.204608e-001 -5.279046e-001 -3.701390e+000 5.981461e+001 1.173198e+000 6.465234e-001 -4.006322e-001 -2.237382e+000 -2.286919e-001 1.286333e+000 -2.746015e-001 -8.761907e-001 -7.079346e-001 2.052577e-002 6.430950e-001 3.040736e-001 8.215053e-002 -4.117479e-001 -2.311768e-001 1.461098e-001 5.653223e-001 9.007992e-003 -3.365603e-001 1.371197e-001 5.461174e-001 1.459807e-001 -1.671968e-001 -1.628313e-001 1.209357e-001 -1.028825e-001
<VARIANCE> 39
 1.346822e+001 4.770776e+001 4.787143e+001 6.692635e+001 5.664893e+001 7.158750e+001 7.599575e+001 6.002846e+001 6.324896e+001 5.883162e+001 6.640824e+001 4.087500e+001 3.015396e+001 2.650739e+000 3.081511e+000 2.737499e+000 5.504688e+000 4.600945e+000 5.181661e+000 5.633407e+000 5.207317e+000 4.693013e+000 4.611795e+000 4.061795e+000 3.723204e+000 2.440195e+000 4.673395e-001 5.312441e-001 4.285753e-001 7.956830e-001 7.768045e-001 7.642584e-001 8.401741e-001 8.308602e-001 9.826158e-001 8.503159e-001 7.375522e-001 6.380417e-001 2.958201e-001
<GCONST> 1.350271e+002
<STATE> 3
<MEAN> 39
 -4.434813e-001 -2.684013e+000 -1.110920e+001 -2.644737e+001 -9.025571e+000 2.587376e+000 -6.682185e+000 -6.399103e+000 -5.080203e+000 -1.626575e+000 2.701971e-001 -1.267369e+000 5.810518e+001 -1.423314e-001 -7.607496e-002 2.708651e-002 3.346798e-001 2.868918e-001 -2.784818e-001 -2.630887e-001 1.647028e-001 1.860496e-001 1.503706e-001 -1.303463e-001 -2.241592e-001 -4.851466e-002 -3.167722e-001 -3.159575e-001 1.081226e-001 7.140906e-001 1.585459e-001 -3.424575e-001 -7.740957e-002 1.836445e-001 2.933179e-001 1.181945e-001 -2.161442e-001 -2.193212e-001 2.727222e-002
<VARIANCE> 39
 9.645518e+000 3.824565e+001 4.680434e+001 6.433506e+001 6.461415e+001 6.319358e+001 7.556664e+001 6.340800e+001 5.658899e+001 5.723213e+001 5.252482e+001 3.786470e+001 2.668570e+001 6.496569e-001 2.965461e+000 1.500930e+000 3.539957e+000 2.654391e+000 2.737479e+000 3.245390e+000 3.006221e+000 3.492695e+000 3.447726e+000 2.562838e+000 2.538277e+000 1.717003e+000 2.356409e-001 3.345701e-001 3.078890e-001 5.973549e-001 5.547194e-001 5.904905e-001 5.793588e-001 7.147565e-001 6.481711e-001 6.109366e-001 5.606720e-001 4.661807e-001 2.441442e-001
<GCONST> 1.229286e+002
<STATE> 4
<MEAN> 39
 -2.735586e+000 -7.229209e+000 -9.523036e+000 -1.893647e+001 -6.584545e+000 -3.381654e+000 -1.190760e+001 -4.929218e+000 -6.583440e-001 1.371339e+000 -2.526853e+000 -4.925011e+000 6.023692e+001 -1.064173e+000 -9.402099e-001 1.301632e+000 2.545495e+000 -4.939836e-001 -2.061539e+000 -4.296150e-002 1.744082e+000 7.216719e-001 -6.238528e-001 -1.116417e+000 -1.029753e-002 5.082225e-002 -2.577297e-001 1.435138e-001 4.368359e-001 1.563262e-001 -3.872493e-001 3.822111e-003 5.655187e-001 1.922528e-001 -5.194848e-001 -4.396610e-001 1.356659e-001 3.969339e-001 -2.455625e-001
<VARIANCE> 39
 1.162255e+001 4.088134e+001 5.091264e+001 6.707307e+001 4.954413e+001 8.352681e+001 7.915356e+001 6.732232e+001 6.908154e+001 6.449409e+001 6.625752e+001 4.211359e+001 3.869878e+001 1.886720e+000 3.537440e+000 3.800112e+000 5.574745e+000 6.030133e+000 5.358074e+000 5.547381e+000 5.759308e+000 6.529487e+000 5.439284e+000 4.068173e+000 4.588121e+000 3.518339e+000 3.217275e-001 4.103980e-001 3.883060e-001 7.779979e-001 7.334378e-001 8.989323e-001 7.923408e-001 1.025804e+000 1.154705e+000 9.575375e-001 8.217319e-001 6.274748e-001 2.586575e-001
<GCONST> 1.367632e+002
<TRANSP> 5
 0.000000e+000 1.000000e+000 0.000000e+000 0.000000e+000 0.000000e+000
 0.000000e+000 4.898885e-001 5.101115e-001 0.000000e+000 0.000000e+000
 0.000000e+000 0.000000e+000 7.082872e-001 2.917128e-001 0.000000e+000
 0.000000e+000 0.000000e+000 0.000000e+000 5.324464e-001 4.675536e-001
 0.000000e+000 0.000000e+000 0.000000e+000 0.000000e+000 0.000000e+000
<ENDHMM>
~h "m"
<BEGINHMM>
<NUMSTATES> 5
<STATE> 2
<MEAN> 39
 -3.550974e+000 -3.476299e+000 -4.954153e+000 -4.449105e+000 -7.219969e+000 -7.872582e+000 -7.026777e+000 -8.884188e+000 -1.172026e+001 -2.203804e+000 -1.930987e+000 -6.300871e+000 5.151230e+001 1.928362e-001 1.189922e+000 1.025773e+000 1.642161e+000 5.285951e-002 -1.058402e+000 6.329699e-002 -2.098410e+000 -2.276244e+000 3.291863e-001 2.198924e-001 -7.396310e-001 -7.042185e-001 -3.097985e-001 -5.077735e-001 8.147457e-003 -4.828178e-001 -1.774116e-001 2.515276e-001 -5.156314e-002 6.656018e-001 6.426319e-001 -5.860633e-002 -1.116475e-001 2.543227e-001 4.711637e-001
<VARIANCE> 39
 1.120749e+001 2.849476e+001 3.289766e+001 4.914078e+001 4.562117e+001 5.979887e+001 6.062048e+001 6.293483e+001 6.562807e+001 5.718161e+001 7.299847e+001 4.668512e+001 2.559238e+001 4.110495e+000 3.014431e+000 3.554042e+000 3.953968e+000 4.724377e+000 4.064794e+000 5.837829e+000 5.068407e+000 5.614585e+000 4.715631e+000 4.820396e+000 3.752526e+000 4.848314e+000 4.040419e-001 3.828694e-001 6.211255e-001 6.000884e-001 6.562973e-001 6.486496e-001 7.660515e-001 8.001689e-001 9.420228e-001 7.277235e-001 7.584296e-001 5.838100e-001 2.819822e-001
<GCONST> 1.331937e+002
<STATE> 3
<MEAN> 39
 -4.120759e+000 -3.248214e+000 -2.965511e+000 -3.245555e+000 -7.569487e+000 -8.570792e+000 -7.310257e+000 -1.070368e+001 -1.342350e+001 -1.158225e+000 -2.386982e+000 -6.985546e+000 5.148706e+001 -8.158914e-002 -1.132665e-001 8.400156e-002 -1.859573e-001 -1.049272e-001 1.422189e-001 -5.935403e-002 1.946172e-001 3.274269e-001 -1.737466e-001 -1.531502e-001 1.500853e-001 2.439531e-001 -1.057039e-001 -4.088612e-001 -2.721528e-001 -6.471634e-001 -1.138449e-001 3.547241e-001 -4.105377e-003 7.615699e-001 7.928609e-001 -1.595035e-001 -7.332787e-002 2.993324e-001 3.466949e-001
<VARIANCE> 39
 8.450441e+000 2.348214e+001 3.087696e+001 4.931828e+001 5.114028e+001 7.048334e+001 6.546973e+001 6.617855e+001 6.225318e+001 6.164097e+001 8.451542e+001 5.404366e+001 2.009302e+001 9.573257e-001 1.894783e+000 1.519418e+000 2.151301e+000 2.120713e+000 1.969939e+000 2.382951e+000 2.675437e+000 3.180701e+000 2.368284e+000 2.378667e+000 2.014220e+000 2.192434e+000 3.184744e-001 2.873267e-001 4.908263e-001 5.002511e-001 5.754206e-001 5.541672e-001 6.627632e-001 7.112458e-001 8.573194e-001 6.686876e-001 7.016948e-001 5.800261e-001 2.329836e-001
<GCONST> 1.213699e+002
<STATE> 4
<MEAN> 39
 -4.135314e+000 -5.456582e+000 -4.858349e+000 -6.578170e+000 -8.446166e+000 -7.155581e+000 -7.693272e+000 -6.909524e+000 -8.469770e+000 -3.014059e+000 -3.004765e+000 -5.184893e+000 5.428829e+001 -3.771542e-001 -1.610992e+000 -3.341720e-001 -2.379959e+000 -8.739967e-001 1.085046e+000 -9.024936e-002 2.621112e+000 2.419339e+000 -6.208455e-001 -3.697826e-001 9.979032e-001 1.730368e+000 -2.943040e-001 -1.500715e-001 1.344245e-001 -2.825995e-001 -8.191501e-002 1.962862e-001 1.775649e-001 3.584664e-001 3.764078e-002 1.155553e-001 4.531229e-002 8.760876e-002 8.396242e-002
<VARIANCE> 39
 1.381154e+001 3.436597e+001 3.715518e+001 5.628707e+001 4.713689e+001 6.048476e+001 5.545481e+001 6.197971e+001 7.010531e+001 4.871100e+001 6.225211e+001 3.984689e+001 4.002566e+001 2.856137e+000 3.439258e+000 6.062660e+000 5.214507e+000 6.408886e+000 5.074610e+000 5.629760e+000 5.388743e+000 6.710341e+000 5.400655e+000 5.651541e+000 4.171180e+000 3.795727e+000 3.489845e-001 4.873250e-001 5.797019e-001 7.124451e-001 6.781996e-001 6.607157e-001 7.310310e-001 8.983179e-001 1.166467e+000 6.775198e-001 6.808448e-001 5.217851e-001 4.241401e-001
<GCONST> 1.359346e+002
<TRANSP> 5
 0.000000e+000 1.000000e+000 0.000000e+000 0.000000e+000 0.000000e+000
 0.000000e+000 3.884479e-001 6.115521e-001 0.000000e+000 0.000000e+000
 0.000000e+000 0.000000e+000 6.737238e-001 3.262762e-001 0.000000e+000
 0.000000e+000 0.000000e+000 0.000000e+000 4.258418e-001 5.741582e-001
 0.000000e+000 0.000000e+000 0.000000e+000 0.000000e+000 0.000000e+000
<ENDHMM>
~h "n"
<BEGINHMM>
<NUMSTATES> 5
<STATE> 2
<MEAN> 39
 -4.193093e+000 -4.683493e+000 -2.989405e+000 -6.261969e+000 -1.123637e+001 -8.832843e+000 -4.819138e+000 -6.985481e+000 -9.253890e+000 -8.794512e-001 -6.395422e+000 -4.847625e+000 5.320496e+001 1.613128e-001 1.705697e+000 2.168711e-001 1.508332e+000 -1.420036e-001 -4.844192e-001 1.344027e+000 -3.007659e+000 -1.502826e+000 1.270680e+000 -7.417659e-001 -2.136019e-001 -1.740798e+000 -2.919219e-001 -3.271581e-001 1.885555e-002 -4.339308e-001 2.483390e-002 3.037142e-001 -2.105979e-001 6.189640e-001 4.073553e-001 -2.980074e-001 2.036826e-001 1.663038e-001 4.075807e-001
<VARIANCE> 39
 9.709077e+000 3.216017e+001 3.540529e+001 5.253613e+001 4.865096e+001 5.144091e+001 5.523372e+001 7.665163e+001 7.253244e+001 6.064912e+001 6.100157e+001 5.206675e+001 2.597890e+001 1.679574e+000 2.813051e+000 3.953381e+000 3.545864e+000 4.423170e+000 4.765545e+000 4.897288e+000 6.235991e+000 6.023392e+000 4.392450e+000 3.968107e+000 3.433667e+000 2.461507e+000 3.272457e-001 3.981291e-001 4.719654e-001 5.152038e-001 6.818740e-001 6.180454e-001 7.321879e-001 1.021767e+000 8.341925e-001 7.183779e-001 6.263804e-001 5.564866e-001 2.976571e-001
<GCONST> 1.308997e+002
<STATE> 3
<MEAN> 39
 -4.299013e+000 -2.023835e+000 -2.384224e+000 -4.953343e+000 -1.216158e+001 -8.623165e+000 -2.654981e+000 -1.113855e+001 -1.095495e+001 1.972561e-001 -7.297988e+000 -4.280805e+000 5.081817e+001 -3.055409e-001 4.892853e-001 1.532170e-001 2.079933e-001 2.872595e-001 1.574860e-001 -1.017878e-001 -8.742534e-002 3.292247e-002 -2.648694e-001 -1.541574e-002 9.552506e-002 -5.037494e-001 -3.360096e-001 -4.869469e-001 -7.873999e-002 -4.461303e-001 2.619097e-001 2.251083e-001 -4.279768e-001 1.047887e+000 5.620140e-001 -4.136319e-001 2.913152e-001 1.055357e-001 4.338710e-001
<VARIANCE> 39
 8.877810e+000 2.967693e+001 2.908528e+001 5.107452e+001 4.656070e+001 5.012685e+001 5.560934e+001 7.297068e+001 6.568908e+001 6.270791e+001 6.602840e+001 5.414719e+001 2.364181e+001 1.013392e+000 2.093840e+000 1.620245e+000 1.956728e+000 2.437723e+000 2.197950e+000 2.680076e+000 3.674081e+000 2.945398e+000 2.600849e+000 2.274303e+000 2.008191e+000 1.802394e+000 3.369939e-001 5.347301e-001 5.356888e-001 6.469163e-001 7.159525e-001 7.355536e-001 8.034603e-001 1.120360e+000 1.021649e+000 7.879056e-001 7.262073e-001 6.007079e-001 4.146034e-001
<GCONST> 1.248558e+002
<STATE> 4
<MEAN> 39
 -6.004107e+000 -4.040338e+000 -2.559330e+000 -6.344089e+000 -1.016166e+001 -7.903906e+000 -5.989623e+000 -6.542755e+000 -8.085422e+000 -2.454774e+000 -6.614233e+000 -4.067451e+000 5.232527e+001 -1.313186e+000 -1.111022e+000 -3.774517e-001 -1.136443e+000 9.427869e-001 8.804398e-001 -9.306715e-001 2.452779e+000 1.587624e+000 -8.310077e-001 7.319925e-001 2.917813e-001 9.094877e-001 -2.771253e-001 -3.543265e-001 -2.389098e-001 -3.800431e-001 2.159719e-002 2.633056e-001 1.219834e-001 4.715740e-001 2.889042e-001 8.736613e-002 2.467695e-001 1.248955e-001 3.811133e-001
<VARIANCE> 39
 1.758676e+001 5.557448e+001 3.543723e+001 5.390732e+001 4.799589e+001 4.476790e+001 5.418985e+001 7.398216e+001 6.733271e+001 5.406371e+001 4.970898e+001 4.454923e+001 4.838492e+001 3.923600e+000 4.432566e+000 4.413056e+000 4.764747e+000 5.594123e+000 4.930610e+000 5.817107e+000 7.238901e+000 6.527831e+000 5.340460e+000 4.833821e+000 4.077951e+000 4.535820e+000 4.890913e-001 8.161153e-001 5.610258e-001 6.967891e-001 7.445986e-001 7.103704e-001 9.077560e-001 1.304370e+000 1.087212e+000 8.350595e-001 6.876091e-001 6.051380e-001 6.792852e-001
<GCONST> 1.391859e+002
<TRANSP> 5
 0.000000e+000 1.000000e+000 0.000000e+000 0.000000e+000 0.000000e+000
 0.000000e+000 3.330575e-001 6.669425e-001 0.000000e+000 0.000000e+000
 0.000000e+000 0.000000e+000 5.882581e-001 4.117419e-001 0.000000e+000
 0.000000e+000 0.000000e+000 0.000000e+000 4.073219e-001 5.926781e-001
 0.000000e+000 0.000000e+000 0.000000e+000 0.000000e+000 0.000000e+000
<ENDHMM>
~h "p"
<BEGINHMM>
<NUMSTATES> 5
<STATE> 2
<MEAN> 39
 -1.214617e+001 1.399291e+000 -3.296845e+000 -1.830129e+000 -2.419013e+000 -2.447499e+000 -4.815917e+000 -5.215719e+000 -6.008730e+000 -2.963857e+000 -3.198313e+000 -3.031275e+000 3.805044e+001 -3.194625e+000 5.368059e-001 6.307728e-002 1.703556e+000 1.364639e+000 1.457510e+000 1.560177e+000 8.265420e-001 9.816911e-001 3.914127e-001 1.979537e-001 5.510731e-001 -4.156088e+000 -2.593929e-004 -1.061277e+000 -3.195817e-001 -7.777109e-001 -5.069417e-001 -2.453494e-001 -5.559554e-002 5.394673e-001 4.507649e-001 4.104621e-001 2.826637e-001 1.795910e-001 1.469674e+000
<VARIANCE> 39
 3.483212e+001 1.977959e+001 2.187174e+001 2.791456e+001 2.262010e+001 2.472179e+001 2.923820e+001 3.238120e+001 3.434137e+001 2.854286e+001 2.658911e+001 2.199316e+001 2.713677e+001 5.609722e+000 5.277566e+000 5.366760e+000 6.991760e+000 4.500834e+000 5.040234e+000 4.567982e+000 5.249975e+000 5.628090e+000 4.584908e+000 4.223017e+000 3.147060e+000 8.664680e+000 8.781664e-001 7.446573e-001 7.961391e-001 9.748864e-001 7.956617e-001 7.576128e-001 8.111304e-001 8.749357e-001 8.978084e-001 7.701663e-001 6.739717e-001 5.563821e-001 1.190368e+000
<GCONST> 1.329721e+002
<STATE> 3
<MEAN> 39
 -1.957430e+001 -2.232446e+000 -5.226006e+000 -1.202329e+000 -1.493359e+000 2.310010e-001 -1.014759e+000 9.682916e-002 -3.057492e-001 1.031529e+000 7.751921e-002 3.758236e-002 3.265492e+001 -2.173661e-001 -1.068455e+000 -4.765168e-001 -5.415112e-001 -1.978620e-001 -2.149733e-001 2.169567e-001 5.290325e-001 6.992484e-001 4.249672e-001 3.151356e-001 2.909623e-001 1.832938e+000 8.295512e-001 -2.919537e-001 -4.132540e-002 -5.674672e-001 -2.739331e-001 -4.681468e-001 -3.658912e-001 -2.273415e-001 -2.388822e-001 -2.035708e-001 -1.731157e-001 -1.746905e-001 1.948354e+000
<VARIANCE> 39
 4.259959e+000 5.935035e+000 6.294934e+000 9.036756e+000 9.616355e+000 1.142207e+001 1.179710e+001 1.407644e+001 1.373634e+001 1.367185e+001 1.189427e+001 1.157161e+001 1.325829e+001 2.631562e+000 2.003594e+000 1.594054e+000 2.421273e+000 1.756673e+000 2.438071e+000 2.358877e+000 2.872360e+000 2.986453e+000 2.400651e+000 2.085042e+000 1.851733e+000 1.306127e+001 6.023248e-001 3.474476e-001 4.054222e-001 5.298518e-001 4.432326e-001 5.372839e-001 5.207763e-001 4.981884e-001 5.217766e-001 4.601141e-001 4.271897e-001 3.618837e-001 1.076525e+000
<GCONST> 1.046696e+002
<STATE> 4
<MEAN> 39
 -1.423535e+001 -8.792720e+000 -7.764967e+000 -7.504585e+000 -3.255425e+000 -3.160037e+000 -1.937172e+000 -4.035353e-001 -4.499217e-001 1.363548e-001 -1.359527e+000 -8.581993e-001 5.377490e+001 2.107331e+000 -7.952775e-001 -5.798768e-001 -1.395111e+000 -7.123571e-001 -6.357962e-001 -7.963708e-001 -2.751127e-001 -5.117298e-001 -4.667665e-001 -4.827302e-001 -3.682962e-001 2.873780e+000 4.003853e-001 2.919539e-001 1.618169e-002 -3.398061e-002 -2.090520e-001 4.708164e-003 -3.256541e-001 -1.204165e-001 -2.859470e-001 -1.426195e-001 -5.668749e-002 -9.224379e-002 -6.648953e-001
<VARIANCE> 39
 2.579382e+001 2.475858e+001 3.065237e+001 3.595036e+001 3.014743e+001 3.330946e+001 3.368288e+001 3.113482e+001 3.066355e+001 2.613194e+001 2.432832e+001 1.904404e+001 4.057990e+001 4.734661e+000 3.753754e+000 3.578043e+000 4.272647e+000 4.236696e+000 4.611174e+000 4.923654e+000 4.249246e+000 4.379462e+000 3.282600e+000 3.198164e+000 2.388348e+000 1.000546e+001 6.213323e-001 5.995085e-001 5.157994e-001 6.579117e-001 6.871192e-001 7.132316e-001 7.789431e-001 8.088432e-001 8.238670e-001 6.693559e-001 6.178377e-001 4.762412e-001 1.425693e+000
<GCONST> 1.294489e+002
<TRANSP> 5
 0.000000e+000 1.000000e+000 0.000000e+000 0.000000e+000 0.000000e+000
 0.000000e+000 5.375687e-001 4.624313e-001 0.000000e+000 0.000000e+000
 0.000000e+000 0.000000e+000 7.191057e-001 2.808943e-001 0.000000e+000
 0.000000e+000 0.000000e+000 0.000000e+000 7.739614e-001 2.260386e-001
 0.000000e+000 0.000000e+000 0.000000e+000 0.000000e+000 0.000000e+000
<ENDHMM>
~h "r"
<BEGINHMM>
<NUMSTATES> 5
<STATE> 2
<MEAN> 39
 3.333650e+000 -1.045272e+001 -1.652900e+001 -6.849360e+000 -3.316608e+000 -1.107819e+001 -1.777527e+001 5.947136e-001 5.477057e-004 -2.742545e+000 -1.508014e+000 3.210983e-001 5.689573e+001 5.401008e-001 -2.540042e-001 -5.016902e-001 1.978103e-001 1.679835e-001 -3.939710e-001 -7.381817e-001 3.995858e-001 5.062170e-001 -9.637859e-002 -2.113144e-001 5.233833e-002 1.510023e-001 -5.140223e-001 -1.280130e-001 5.978427e-001 7.778513e-002 -4.259067e-001 4.278579e-002 6.027645e-001 1.814612e-001 -1.690550e-001 -5.267183e-002 2.379570e-002 -7.789473e-002 8.867555e-003
<VARIANCE> 39
 1.218058e+001 3.183612e+001 6.534012e+001 4.202817e+001 5.631550e+001 7.350511e+001 8.719670e+001 9.381321e+001 8.581725e+001 4.564999e+001 4.003805e+001 3.507693e+001 2.478390e+001 2.193691e+000 2.373495e+000 3.149054e+000 2.354771e+000 3.406851e+000 4.044921e+000 5.156948e+000 4.685379e+000 3.676044e+000 3.095565e+000 2.501796e+000 2.075935e+000 1.768499e+000 4.023957e-001 3.537611e-001 3.745830e-001 3.520568e-001 4.508214e-001 6.089383e-001 8.615676e-001 7.471696e-001 6.053041e-001 5.051531e-001 4.244332e-001 3.811382e-001 2.265220e-001
<GCONST> 1.255351e+002
<STATE> 3
<MEAN> 39
 2.220287e+000 -1.461751e+001 -1.286574e+001 -5.084191e+000 -7.063739e+000 -1.503799e+001 -1.736097e+001 6.473062e+000 -3.188597e-002 -4.631924e+000 -2.110237e+000 1.076123e-001 5.959861e+001 -7.956764e-001 -2.956961e-001 1.864036e+000 2.968141e-001 -1.537155e+000 -3.206057e-001 1.563225e+000 6.195417e-001 -9.129441e-001 -5.471001e-001 1.519690e-001 -8.414381e-002 4.698565e-002 -5.755630e-001 3.718731e-001 5.453948e-001 -2.650917e-001 -1.413337e-001 6.201670e-001 8.113993e-001 -5.798364e-001 -4.520795e-001 2.047764e-001 1.107954e-001 -1.946289e-001 -2.772802e-001
<VARIANCE> 39
 1.066462e+001 2.658031e+001 7.196831e+001 4.796766e+001 6.682694e+001 8.246833e+001 1.101446e+002 8.305138e+001 9.317130e+001 5.423512e+001 4.450760e+001 3.575743e+001 2.267623e+001 1.127735e+000 2.926235e+000 3.028162e+000 2.766318e+000 4.218120e+000 4.171363e+000 5.009765e+000 5.922261e+000 4.142437e+000 3.501372e+000 3.313865e+000 2.529661e+000 2.657448e+000 3.874142e-001 2.690496e-001 3.666894e-001 4.429386e-001 5.496411e-001 6.173074e-001 8.989602e-001 6.965564e-001 6.772171e-001 5.545622e-001 4.610745e-001 4.062735e-001 2.317235e-001
<GCONST> 1.278393e+002
<STATE> 4
<MEAN> 39
 -1.130751e+000 -1.245483e+001 -8.712030e+000 -4.362134e+000 -8.597813e+000 -1.398282e+001 -1.158865e+001 4.453727e+000 -3.067824e+000 -4.779391e+000 -2.769068e+000 -5.497753e-001 5.657949e+001 -2.091099e+000 1.138540e+000 2.243129e+000 8.903543e-002 -6.006247e-001 1.458923e+000 2.358428e+000 -1.238767e+000 -1.040345e+000 1.642048e-001 -9.560079e-003 -5.117306e-001 -1.439387e+000 -4.380301e-001 2.678387e-001 -3.019866e-002 -3.330331e-001 3.005760e-001 5.961307e-001 9.815115e-002 -3.356169e-001 8.589634e-002 2.750048e-001 4.110680e-002 -1.286785e-001 -1.991527e-001
<VARIANCE> 39
 1.906646e+001 3.877797e+001 7.572968e+001 6.061604e+001 8.508488e+001 8.457002e+001 9.829326e+001 7.737922e+001 9.290891e+001 5.878374e+001 5.128067e+001 3.674349e+001 4.919870e+001 3.411397e+000 4.806465e+000 3.868589e+000 5.270116e+000 5.710492e+000 5.070054e+000 6.679600e+000 6.063030e+000 5.331041e+000 4.064236e+000 3.858926e+000 3.125091e+000 6.528531e+000 4.412080e-001 5.783411e-001 4.837950e-001 6.311373e-001 8.149555e-001 9.586441e-001 1.037849e+000 9.866310e-001 7.857684e-001 7.090163e-001 6.774045e-001 5.206441e-001 4.611304e-001
<GCONST> 1.397195e+002
<TRANSP> 5
 0.000000e+000 1.000000e+000 0.000000e+000 0.000000e+000 0.000000e+000
 0.000000e+000 6.298723e-001 3.701277e-001 0.000000e+000 0.000000e+000
 0.000000e+000 0.000000e+000 4.443203e-001 5.556797e-001 0.000000e+000
 0.000000e+000 0.000000e+000 0.000000e+000 3.361842e-001 6.638158e-001
 0.000000e+000 0.000000e+000 0.000000e+000 0.000000e+000 0.000000e+000
<ENDHMM>
~h "s"
<BEGINHMM>
<NUMSTATES> 5
<STATE> 2
<MEAN> 39
 -2.471621e+001 8.326231e-001 -5.871428e+000 -8.133732e+000 -1.250785e+000 -6.685843e+000 -1.313489e+000 4.869101e-001 -2.093459e+000 -1.536703e+000 -2.361950e+000 -1.157216e-001 5.786414e+001 -4.320262e+000 1.048111e+000 -1.136501e+000 1.197942e-001 1.636761e+000 1.036597e+000 1.282794e+000 8.898794e-001 4.625637e-001 3.870393e-001 8.265731e-001 6.339329e-001 1.542137e-001 8.913352e-001 -5.506194e-001 -1.161355e-002 -1.438523e-001 -4.966674e-001 -5.278739e-002 -4.549040e-001 -8.001519e-002 -1.093118e-001 7.030712e-002 -9.287956e-002 -1.338810e-001 -2.381512e-002
<VARIANCE> 39
 4.457224e+001 2.425032e+001 4.141023e+001 3.299673e+001 3.821180e+001 3.689838e+001 3.549042e+001 3.464586e+001 2.742789e+001 2.533380e+001 2.150250e+001 1.802145e+001 2.097544e+001 4.708539e+000 3.299595e+000 3.767537e+000 4.349094e+000 3.936913e+000 4.339785e+000 4.285619e+000 3.831531e+000 3.799587e+000 3.546137e+000 3.406359e+000 2.502733e+000 1.649273e+000 7.938336e-001 5.524334e-001 6.413281e-001 6.820481e-001 6.414830e-001 7.595859e-001 7.273819e-001 7.135631e-001 5.945579e-001 6.175480e-001 5.583552e-001 4.760413e-001 3.289668e-001
<GCONST> 1.257510e+002
<STATE> 3
<MEAN> 39
 -3.016647e+001 1.432994e+000 -9.478321e+000 -7.885496e+000 1.230942e-002 -5.070727e+000 -2.775164e-001 1.545664e+000 -1.499333e+000 -2.577988e-001 -1.151091e+000 7.116833e-001 5.791856e+001 8.709222e-003 -1.278429e-001 1.480836e-002 -1.130778e-001 -3.358672e-003 -2.079374e-002 -9.420185e-002 2.831431e-002 4.708382e-002 3.988895e-002 -1.602102e-002 -2.387454e-002 -3.381388e-002 5.959886e-001 -2.116624e-001 2.551936e-001 -3.135005e-002 -1.800972e-001 -1.423430e-001 -1.826238e-001 -1.146779e-001 -3.034274e-002 -6.752472e-002 -9.917325e-002 -9.621560e-002 -1.572746e-001
<VARIANCE> 39
 8.049207e+000 2.067076e+001 3.019415e+001 3.925354e+001 3.503577e+001 3.159948e+001 2.876581e+001 2.505188e+001 1.937574e+001 1.700764e+001 1.620703e+001 1.332587e+001 1.724554e+001 9.189160e-001 1.218209e+000 1.182600e+000 1.298607e+000 1.457358e+000 1.631049e+000 1.555558e+000 1.575243e+000 1.506960e+000 1.465372e+000 1.320280e+000 1.215393e+000 6.781006e-001 3.644418e-001 2.285999e-001 2.647002e-001 3.088312e-001 3.308032e-001 3.760362e-001 3.707799e-001 3.582798e-001 3.424925e-001 3.302947e-001 3.055146e-001 2.685419e-001 1.841422e-001
<GCONST> 9.919579e+001
<STATE> 4
<MEAN> 39
 -2.469453e+001 -1.878606e+000 -5.819307e+000 -9.238134e+000 -1.216884e+000 -6.366158e+000 -3.003912e+000 1.095960e+000 -1.055945e+000 -7.376319e-001 -2.129142e+000 -3.398591e-001 5.649135e+001 3.601281e+000 -1.306648e+000 1.065913e+000 8.943762e-002 -1.262533e+000 -2.417865e-001 -1.405916e+000 -7.842362e-001 -1.700116e-001 -7.484541e-002 -3.466909e-001 -5.858275e-001 -1.410086e+000 5.707439e-001 -1.744408e-001 -6.899878e-002 8.512313e-002 -3.207263e-001 1.107921e-001 -1.514810e-001 -1.228954e-001 -1.532294e-001 4.839592e-002 2.617410e-002 -7.168380e-002 -2.339081e-001
<VARIANCE> 39
 4.988149e+001 2.826454e+001 3.921778e+001 3.306094e+001 4.267774e+001 4.281798e+001 4.313029e+001 3.569311e+001 2.905641e+001 2.429734e+001 2.241734e+001 1.890037e+001 2.912820e+001 5.244619e+000 2.835275e+000 3.907852e+000 4.969083e+000 4.870857e+000 5.794924e+000 5.317296e+000 3.965012e+000 3.806385e+000 3.076228e+000 3.369170e+000 2.520809e+000 6.827456e+000 8.737799e-001 5.536302e-001 5.980567e-001 6.758394e-001 7.124041e-001 8.097132e-001 9.670296e-001 7.315428e-001 6.421013e-001 5.705084e-001 5.750734e-001 4.404662e-001 8.949674e-001
<GCONST> 1.304842e+002
<TRANSP> 5
 0.000000e+000 1.000000e+000 0.000000e+000 0.000000e+000 0.000000e+000
 0.000000e+000 6.278532e-001 3.721468e-001 0.000000e+000 0.000000e+000
 0.000000e+000 0.000000e+000 8.338243e-001 1.661756e-001 0.000000e+000
 0.000000e+000 0.000000e+000 0.000000e+000 6.753227e-001 3.246773e-001
 0.000000e+000 0.000000e+000 0.000000e+000 0.000000e+000 0.000000e+000
<ENDHMM>
~h "t"
<BEGINHMM>
<NUMSTATES> 5
<STATE> 2
<MEAN> 39
 -1.439386e+001 -1.816604e+000 -3.403286e+000 -4.623664e+000 -5.993145e+000 -5.483788e+000 -4.999739e+000 -2.443640e+000 -3.058386e+000 -1.270561e+000 -3.213763e+000 -2.397931e+000 4.194967e+001 -1.975106e+000 2.275563e-001 -3.736602e-001 8.883445e-001 1.511797e+000 1.746849e+000 1.197118e+000 3.078312e-001 5.574573e-001 4.074062e-001 6.431626e-001 3.000089e-001 -2.637711e+000 2.259140e-001 -7.462316e-001 -1.848381e-001 -7.286642e-001 -3.212692e-001 -2.993237e-002 2.157924e-002 2.219508e-001 -3.551188e-002 6.135827e-002 1.158718e-001 1.131567e-001 1.404428e+000
<VARIANCE> 39
 4.959593e+001 3.913252e+001 5.312869e+001 5.847947e+001 5.900779e+001 5.359877e+001 4.903058e+001 5.835247e+001 6.210191e+001 5.015253e+001 4.441876e+001 3.633266e+001 6.583614e+001 6.316562e+000 5.839347e+000 5.479023e+000 7.206510e+000 6.521215e+000 5.965276e+000 5.563565e+000 6.804574e+000 6.582315e+000 4.999159e+000 4.772110e+000 3.842123e+000 1.097888e+001 7.437310e-001 8.711853e-001 7.786174e-001 1.134502e+000 1.178830e+000 1.088763e+000 1.030322e+000 1.211553e+000 1.212038e+000 1.044945e+000 9.520591e-001 7.328262e-001 1.657529e+000
<GCONST> 1.465969e+002
<STATE> 3
<MEAN> 39
 -2.001521e+001 -5.242462e+000 -5.357556e+000 -6.601403e+000 -3.537159e+000 -2.114478e+000 -1.271075e+000 2.403325e-001 -1.012851e+000 5.961278e-001 -2.030058e-001 1.350963e-001 4.504688e+001 8.642615e-003 -8.609313e-001 -1.795739e-001 -1.162261e+000 -5.520430e-001 -3.842598e-001 2.897541e-001 2.123855e-001 -6.018828e-002 -5.853252e-002 5.381525e-002 2.216969e-001 2.610329e+000 5.919960e-001 3.929044e-002 1.816124e-001 -1.699287e-001 -4.011857e-001 -4.607153e-001 -3.183383e-001 -1.591115e-001 -2.644886e-001 -2.318882e-001 -2.937815e-001 -1.610028e-001 6.834162e-001
<VARIANCE> 39
 3.451162e+001 3.420638e+001 3.121215e+001 4.860044e+001 3.382554e+001 3.340199e+001 2.711737e+001 2.558356e+001 2.351408e+001 2.107038e+001 1.961268e+001 1.758696e+001 1.548133e+002 4.430841e+000 3.858975e+000 3.574111e+000 5.322693e+000 3.860260e+000 4.435243e+000 3.575625e+000 3.913178e+000 3.667722e+000 3.113919e+000 3.011849e+000 2.426535e+000 1.327931e+001 7.898123e-001 7.898989e-001 7.221293e-001 1.296207e+000 8.177670e-001 8.196590e-001 7.051238e-001 6.989646e-001 6.579841e-001 5.665248e-001 5.439714e-001 4.635333e-001 3.777424e+000
<GCONST> 1.323315e+002
<STATE> 4
<MEAN> 39
 -1.394937e+001 -7.668371e+000 -4.522896e+000 -1.040336e+001 -8.457754e+000 -6.555595e+000 -2.819406e+000 -7.348916e-001 -3.384061e+000 -1.768949e+000 -3.141587e+000 -1.163358e+000 5.459076e+001 2.400136e+000 -6.331939e-001 2.511273e-001 -7.546003e-001 -1.155987e+000 -7.647386e-001 -1.025619e+000 -2.225418e-001 -6.218464e-001 -4.985659e-001 -5.733166e-001 -5.009938e-001 1.892345e+000 2.025384e-001 1.461941e-002 -2.507534e-002 1.124587e-001 3.399201e-002 1.568385e-001 -2.650813e-001 4.741759e-002 6.931344e-002 1.143711e-001 1.413488e-001 -5.244667e-002 -2.742487e-001
<VARIANCE> 39
 6.181749e+001 4.027527e+001 6.222601e+001 5.936036e+001 6.116530e+001 5.919402e+001 5.365460e+001 5.265702e+001 4.715289e+001 3.836532e+001 3.627926e+001 2.925432e+001 5.718718e+001 7.494958e+000 3.562053e+000 4.607563e+000 6.069027e+000 5.886744e+000 5.703308e+000 6.094371e+000 4.890175e+000 4.862160e+000 4.146146e+000 4.182707e+000 3.155063e+000 8.931485e+000 8.673530e-001 6.918836e-001 6.473420e-001 8.851883e-001 8.623191e-001 8.565989e-001 9.291038e-001 8.608444e-001 7.501792e-001 7.019070e-001 6.642261e-001 5.511160e-001 1.298543e+000
<GCONST> 1.406846e+002
<TRANSP> 5
 0.000000e+000 1.000000e+000 0.000000e+000 0.000000e+000 0.000000e+000
 0.000000e+000 4.772152e-001 5.227848e-001 0.000000e+000 0.000000e+000
 0.000000e+000 0.000000e+000 6.663612e-001 3.336388e-001 0.000000e+000
 0.000000e+000 0.000000e+000 0.000000e+000 4.970110e-001 5.029891e-001
 0.000000e+000 0.000000e+000 0.000000e+000 0.000000e+000 0.000000e+000
<ENDHMM>
~h "v"
<BEGINHMM>
<NUMSTATES> 5
<STATE> 2
<MEAN> 39
 -5.403121e+000 -3.385903e+000 -7.393078e+000 -7.211061e+000 -5.705591e+000 -6.424178e+000 -1.019394e+001 -6.820695e+000 -4.905963e+000 -1.300341e+000 -1.543289e+000 -3.054050e+000 5.249475e+001 -2.300339e+000 1.867923e+000 4.068148e-001 1.339280e+000 1.274306e+000 8.489243e-001 1.119835e+000 -5.094318e-001 -5.230726e-001 -6.676443e-001 -4.156289e-001 1.835410e-001 -1.845171e+000 -1.943717e-001 -5.793685e-001 2.091362e-001 -2.595977e-001 -3.435431e-001 -7.291076e-002 1.492999e-001 6.011193e-001 2.431065e-001 3.084189e-002 -1.473778e-001 -7.116183e-003 5.617518e-001
<VARIANCE> 39
 2.691709e+001 1.922619e+001 2.804871e+001 2.878279e+001 1.982667e+001 3.523199e+001 3.014434e+001 2.858928e+001 2.989654e+001 2.925805e+001 3.258258e+001 2.487445e+001 2.799550e+001 3.170303e+000 2.353964e+000 3.060634e+000 3.487701e+000 2.828983e+000 3.803293e+000 4.155256e+000 4.355651e+000 3.442461e+000 3.253578e+000 3.119961e+000 2.324884e+000 2.071468e+000 4.416991e-001 3.968495e-001 4.071581e-001 4.377890e-001 4.762282e-001 4.781450e-001 6.305575e-001 5.992465e-001 5.670696e-001 5.230520e-001 4.904223e-001 4.257356e-001 3.567023e-001
<GCONST> 1.197752e+002
<STATE> 3
<MEAN> 39
 -1.353036e+001 -1.929410e+000 -5.132066e+000 -4.126518e+000 -3.548571e+000 -4.194102e+000 -5.788841e+000 -4.551687e+000 -4.984304e+000 -3.062837e+000 -3.553056e+000 -2.506292e+000 4.971077e+001 -1.051649e+000 -4.333791e-001 -1.093608e-001 -6.172093e-002 1.632168e-002 3.019446e-002 5.917085e-001 6.511074e-001 4.638090e-001 9.050109e-002 4.319382e-002 1.959537e-001 4.085942e-001 1.095163e+000 -7.039342e-001 -2.655549e-001 -7.491779e-001 -6.269729e-001 -4.480253e-001 -4.547744e-001 1.984072e-001 1.746727e-001 2.811166e-001 2.039540e-001 -3.273434e-003 8.471076e-001
<VARIANCE> 39
 4.784012e+001 2.137475e+001 2.504037e+001 2.596285e+001 1.967623e+001 2.630103e+001 2.988599e+001 2.710124e+001 2.551831e+001 2.286414e+001 2.260539e+001 1.858679e+001 3.706938e+001 5.597257e+000 2.079600e+000 2.215315e+000 2.906848e+000 2.395500e+000 2.887106e+000 2.999427e+000 2.611887e+000 2.388612e+000 2.239370e+000 2.218271e+000 1.753983e+000 2.931829e+000 7.209767e-001 6.384995e-001 6.873889e-001 7.076319e-001 6.054394e-001 7.535337e-001 8.654104e-001 8.597386e-001 7.402954e-001 6.255219e-001 5.690662e-001 4.498745e-001 5.731074e-001
<GCONST> 1.212072e+002
<STATE> 4
<MEAN> 39
 -1.010250e+001 -4.836636e+000 -7.288982e+000 -7.550148e+000 -6.237703e+000 -6.583000e+000 -6.997378e+000 -3.706792e+000 -3.347353e+000 -1.701825e+000 -2.153879e+000 -2.011200e+000 5.422586e+001 1.902333e+000 -1.358242e+000 -3.647178e-001 -1.466441e+000 -1.160406e+000 -8.567551e-001 -6.753662e-001 6.961172e-001 3.965154e-001 4.225497e-001 2.719350e-001 3.076018e-002 1.585153e+000 4.254142e-001 -2.233144e-001 1.425787e-001 -1.900776e-001 -1.740876e-001 2.736777e-002 -2.074245e-001 1.424336e-001 -6.375195e-002 1.376446e-002 -2.347288e-002 -7.865937e-002 5.083523e-002
<VARIANCE> 39
 6.420206e+001 2.412452e+001 3.462661e+001 3.248309e+001 2.596463e+001 3.578892e+001 3.870903e+001 3.085155e+001 2.871582e+001 2.501848e+001 2.416065e+001 2.031665e+001 3.205634e+001 7.094363e+000 3.919253e+000 4.192641e+000 5.068041e+000 4.378979e+000 5.041816e+000 5.722679e+000 4.640791e+000 4.163787e+000 3.359348e+000 3.050086e+000 2.607242e+000 5.762454e+000 7.707961e-001 5.477524e-001 4.459812e-001 5.763853e-001 5.644075e-001 6.468006e-001 7.617036e-001 7.008255e-001 6.091698e-001 5.254770e-001 4.777687e-001 4.001001e-001 5.381666e-001
<GCONST> 1.281571e+002
<TRANSP> 5
 0.000000e+000 1.000000e+000 0.000000e+000 0.000000e+000 0.000000e+000
 0.000000e+000 4.907618e-001 5.092382e-001 0.000000e+000 0.000000e+000
 0.000000e+000 0.000000e+000 5.333115e-001 4.666885e-001 0.000000e+000
 0.000000e+000 0.000000e+000 0.000000e+000 3.816816e-001 6.183184e-001
 0.000000e+000 0.000000e+000 0.000000e+000 0.000000e+000 0.000000e+000
<ENDHMM>
~h "w"
<BEGINHMM>
<NUMSTATES> 5
<STATE> 2
<MEAN> 39
 5.614936e-001 -4.837642e-001 -8.944644e+000 -1.539451e+001 -1.082525e+001 -2.552040e+000 -7.501280e+000 -6.002981e+000 -1.166540e+001 -3.444633e+000 -1.085912e+000 -2.100919e+000 5.104070e+001 1.774149e+000 1.280599e+000 -4.971122e-001 -2.396926e+000 -1.775826e+000 6.850793e-001 7.956133e-001 4.196581e-003 -6.834173e-001 -7.149519e-001 -6.525853e-002 1.437999e-001 3.081344e-001 -5.651457e-001 -6.473841e-001 2.664367e-001 1.755240e-001 -1.139910e-001 -2.736547e-001 -5.151714e-002 4.872943e-001 5.590503e-001 2.380287e-001 -6.933956e-002 -7.904658e-002 3.768194e-001
<VARIANCE> 39
 1.258778e+001 2.811815e+001 2.636522e+001 5.033112e+001 4.332766e+001 4.155347e+001 4.940746e+001 4.462000e+001 5.087578e+001 4.299377e+001 4.941609e+001 2.782161e+001 2.619338e+001 3.696410e+000 3.435817e+000 3.875683e+000 5.056530e+000 4.963970e+000 5.401821e+000 6.956448e+000 5.175786e+000 5.286029e+000 4.581998e+000 4.115046e+000 3.065318e+000 5.355524e+000 4.585220e-001 5.411609e-001 6.077657e-001 6.765460e-001 1.171497e+000 8.528356e-001 1.040563e+000 8.103784e-001 8.236402e-001 8.672318e-001 6.533704e-001 5.264226e-001 2.596942e-001
<GCONST> 1.326970e+002
<STATE> 3
<MEAN> 39
 2.562564e+000 3.091205e-001 -9.023118e+000 -2.231309e+001 -1.761702e+001 -7.284257e-001 -4.214603e+000 -1.987330e+000 -7.927877e+000 -4.464831e+000 -1.309903e+000 -2.169286e+000 5.307775e+001 2.169559e-001 -1.037544e+000 -4.282822e-001 -1.131434e+000 -1.708276e-001 8.408129e-001 6.755064e-002 1.027324e-001 3.087943e-001 4.487931e-001 5.380420e-001 2.093028e-001 1.189323e+000 -3.009534e-001 -5.001307e-001 -1.060691e-001 4.118085e-001 6.057860e-001 6.962462e-002 -1.954714e-001 -1.534884e-001 6.892325e-002 2.695461e-001 1.759123e-001 5.450817e-004 1.727987e-001
<VARIANCE> 39
 6.689571e+000 2.816512e+001 3.210915e+001 5.204567e+001 5.035695e+001 5.074577e+001 4.405402e+001 4.544089e+001 5.573832e+001 4.291254e+001 4.128984e+001 2.963422e+001 1.958109e+001 5.473979e-001 2.168733e+000 1.568192e+000 2.500777e+000 3.515438e+000 3.279563e+000 3.254745e+000 2.812230e+000 3.209623e+000 3.033763e+000 2.833593e+000 2.215040e+000 1.541572e+000 2.724261e-001 2.372642e-001 2.640121e-001 5.290685e-001 4.815646e-001 5.522034e-001 5.927703e-001 5.427019e-001 6.658497e-001 5.598463e-001 4.942668e-001 4.453084e-001 1.877461e-001
<GCONST> 1.170523e+002
<STATE> 4
<MEAN> 39
 1.476443e+000 -8.411328e+000 -1.171978e+001 -2.087491e+001 -1.071762e+001 1.698570e+000 -9.107231e+000 -4.875706e+000 -8.021753e+000 1.677197e+000 2.329208e+000 -2.249518e+000 5.947066e+001 -6.191117e-001 -2.144719e+000 1.553748e-001 1.348375e+000 1.172073e+000 -1.094532e+000 -1.459297e+000 4.702294e-001 1.650872e+000 1.230556e+000 -2.715456e-001 -9.966866e-001 1.568307e+000 -3.168104e-001 2.701913e-001 3.971092e-001 5.344668e-001 -1.940629e-001 -6.608794e-001 2.748872e-001 4.887919e-001 3.208023e-001 -4.814510e-001 -5.986580e-001 -1.304623e-001 -3.424242e-001
<VARIANCE> 39
 8.816512e+000 2.865508e+001 4.432818e+001 7.589082e+001 6.056276e+001 8.202950e+001 9.005619e+001 6.098095e+001 6.837886e+001 8.256335e+001 8.168578e+001 4.421835e+001 1.852349e+001 5.024872e-001 1.464848e+000 2.697281e+000 3.101415e+000 3.683574e+000 5.956396e+000 4.920991e+000 5.249371e+000 4.040844e+000 4.585584e+000 4.695979e+000 3.124258e+000 8.191767e-001 2.192182e-001 2.810081e-001 3.365369e-001 5.649028e-001 7.238764e-001 7.385216e-001 1.032761e+000 7.553090e-001 9.467122e-001 1.030157e+000 7.489331e-001 7.498778e-001 1.672602e-001
<GCONST> 1.280529e+002
<TRANSP> 5
 0.000000e+000 1.000000e+000 0.000000e+000 0.000000e+000 0.000000e+000
 0.000000e+000 5.643842e-001 4.356159e-001 0.000000e+000 0.000000e+000
 0.000000e+000 0.000000e+000 7.367628e-001 2.632372e-001 0.000000e+000
 0.000000e+000 0.000000e+000 0.000000e+000 5.479143e-001 4.520856e-001
 0.000000e+000 0.000000e+000 0.000000e+000 0.000000e+000 0.000000e+000
<ENDHMM>
~h "y"
<BEGINHMM>
<NUMSTATES> 5
<STATE> 2
<MEAN> 39
 -9.502863e+000 -3.668050e+000 1.134590e+001 -1.160655e+001 -1.560312e+001 -7.993197e+000 -1.058045e+001 -4.122511e+000 -1.172970e+001 -4.278592e+000 -2.978779e+000 -2.542385e+000 5.572021e+001 -5.653225e-002 3.900848e-001 2.128066e+000 -2.974303e-001 -1.271898e+000 3.747441e-001 -2.379339e-001 -3.627731e-001 -1.361706e+000 -5.059915e-001 3.242578e-001 -1.300322e-001 9.120381e-002 8.745368e-002 -2.244416e-001 -7.912791e-001 -7.067773e-002 3.733117e-001 1.115971e-001 5.248054e-002 9.328821e-002 4.362962e-001 2.840783e-001 4.523425e-002 -2.998759e-002 5.075303e-002
<VARIANCE> 39
 1.902431e+001 4.509533e+001 4.487160e+001 7.291561e+001 4.864537e+001 5.789503e+001 4.224882e+001 6.580059e+001 4.550613e+001 5.279776e+001 5.736293e+001 3.163663e+001 3.044261e+001 3.651635e+000 3.613392e+000 5.079781e+000 3.509722e+000 6.044122e+000 5.215042e+000 4.639858e+000 4.636488e+000 5.234725e+000 4.563346e+000 3.003363e+000 2.364425e+000 3.188573e+000 3.661111e-001 3.788319e-001 4.953298e-001 8.182822e-001 9.253137e-001 1.177189e+000 7.403107e-001 9.395858e-001 7.439160e-001 6.759427e-001 5.218829e-001 4.799207e-001 2.751829e-001
<GCONST> 1.328569e+002
<STATE> 3
<MEAN> 39
 -9.218523e+000 -4.079103e+000 1.396258e+001 -1.277150e+001 -1.886864e+001 -7.071808e+000 -1.061763e+001 -5.824509e+000 -1.267333e+001 -3.191963e+000 -2.161549e+000 -2.374733e+000 5.722166e+001 3.771118e-001 -6.787668e-001 -3.686510e-001 3.211691e-001 -6.018205e-001 -6.539611e-001 3.340790e-001 2.868050e-001 -6.975012e-002 2.355955e-001 4.117424e-001 1.125025e-001 4.613302e-001 8.015269e-002 -1.228393e-001 -3.307295e-001 1.529119e-001 1.242944e-001 -2.409624e-001 4.900929e-002 2.099208e-001 1.036238e-001 -1.049585e-002 6.054948e-002 4.380881e-002 1.885683e-003
<VARIANCE> 39
 1.107142e+001 3.670802e+001 3.617922e+001 8.100345e+001 4.029551e+001 4.381965e+001 4.502701e+001 5.839175e+001 4.221560e+001 6.220118e+001 5.610480e+001 2.982928e+001 2.011613e+001 5.108138e-001 9.179710e-001 1.044389e+000 1.115016e+000 1.347017e+000 1.970266e+000 1.753448e+000 1.818446e+000 1.454510e+000 1.326461e+000 1.204812e+000 1.030754e+000 4.888382e-001 8.008278e-002 1.220081e-001 2.119960e-001 1.764751e-001 3.494963e-001 2.602160e-001 2.766430e-001 2.761002e-001 2.936432e-001 2.590119e-001 2.118987e-001 1.877570e-001 8.415274e-002
<GCONST> 9.984507e+001
<STATE> 4
<MEAN> 39
 -4.718935e+000 -1.146078e+001 6.692306e+000 -7.046945e+000 -2.002374e+001 -1.603723e+001 -8.016811e+000 2.559972e+000 -1.176173e+001 -4.179726e+000 2.784505e+000 -4.096560e-001 6.002853e+001 8.796645e-001 -8.454003e-001 -2.207846e+000 8.423269e-001 1.036895e+000 -1.475853e+000 -6.431959e-001 1.844253e+000 1.087226e+000 -5.520042e-001 5.130793e-002 5.953999e-001 1.443968e-001 -2.845421e-002 2.098325e-001 -2.556787e-001 -1.405171e-001 4.809215e-001 3.591386e-001 -3.365648e-001 -1.801998e-001 4.199404e-001 -1.408162e-003 -3.629138e-001 -4.892544e-002 -1.718532e-001
<VARIANCE> 39
 1.213831e+001 2.639391e+001 5.025520e+001 5.999847e+001 3.763815e+001 5.957801e+001 6.906390e+001 6.385413e+001 5.847586e+001 6.917867e+001 4.355914e+001 3.334134e+001 1.800111e+001 4.741201e-001 8.729963e-001 1.478508e+000 1.446238e+000 1.726558e+000 2.298615e+000 2.873920e+000 2.356452e+000 2.798082e+000 2.005833e+000 1.999092e+000 1.571797e+000 4.772413e-001 8.194344e-002 1.247821e-001 2.541173e-001 2.380990e-001 3.415722e-001 4.048299e-001 3.905307e-001 4.410678e-001 3.850244e-001 4.145989e-001 2.795707e-001 2.839725e-001 6.416536e-002
<GCONST> 1.071013e+002
<TRANSP> 5
 0.000000e+000 1.000000e+000 0.000000e+000 0.000000e+000 0.000000e+000
 0.000000e+000 6.958383e-001 3.041617e-001 0.000000e+000 0.000000e+000
 0.000000e+000 0.000000e+000 8.207325e-001 1.792675e-001 0.000000e+000
 0.000000e+000 0.000000e+000 0.000000e+000 6.942694e-001 3.057306e-001
 0.000000e+000 0.000000e+000 0.000000e+000 0.000000e+000 0.000000e+000
<ENDHMM>
~h "z"
<BEGINHMM>
<NUMSTATES> 5
<STATE> 2
<MEAN> 39
 -1.957056e+001 4.795520e+000 -3.132957e+000 -8.194679e+000 -2.373619e+000 -1.065102e+001 -7.067168e+000 -3.638649e+000 -3.797218e+000 -2.772638e+000 -4.115722e+000 -1.078049e+000 5.684589e+001 -4.408121e+000 1.396339e+000 -7.977657e-001 3.678511e-001 2.257616e+000 1.468722e+000 1.735396e+000 1.153595e+000 5.858371e-001 1.809146e-001 5.762455e-001 3.388572e-001 -2.960812e-001 4.796548e-001 -9.345275e-001 -5.736118e-002 -1.229781e-001 -4.725844e-001 2.709880e-001 4.446794e-002 2.967670e-001 2.531970e-002 1.908190e-001 1.027556e-001 -9.542657e-003 6.856082e-002
<VARIANCE> 39
 4.468376e+001 2.610935e+001 4.450936e+001 4.074397e+001 4.932521e+001 5.121047e+001 4.704215e+001 3.764523e+001 3.162806e+001 3.295533e+001 2.238700e+001 2.109093e+001 2.025584e+001 3.136073e+000 4.600738e+000 3.270069e+000 4.701720e+000 3.489063e+000 4.994575e+000 3.948923e+000 3.997604e+000 3.680225e+000 3.328218e+000 2.970793e+000 2.846051e+000 1.322705e+000 9.643703e-001 5.455066e-001 5.314494e-001 6.736175e-001 7.231918e-001 8.912198e-001 7.708240e-001 7.584323e-001 5.857508e-001 6.115217e-001 5.111495e-001 4.952674e-001 1.994241e-001
<GCONST> 1.269513e+002
<STATE> 3
<MEAN> 39
 -2.891882e+001 1.933589e+000 -7.665325e+000 -8.353206e+000 4.382529e-001 -5.457889e+000 -1.210611e+000 1.268860e+000 -1.448921e+000 -7.112458e-001 -1.707746e+000 2.198963e-001 5.606987e+001 3.254791e-002 -7.591386e-001 -2.146326e-001 -2.687936e-001 -2.059157e-001 3.146767e-002 9.180754e-002 2.589693e-001 2.272619e-001 1.787626e-001 1.254851e-001 4.070074e-002 7.083096e-002 1.184346e+000 -2.405057e-001 3.121186e-001 -4.040714e-002 -4.578542e-001 -3.983233e-001 -5.128050e-001 -3.763895e-001 -1.456719e-001 -9.420922e-002 -1.813801e-001 -1.366498e-001 -1.347021e-001
<VARIANCE> 39
 1.387334e+001 2.609687e+001 4.193443e+001 4.097583e+001 3.726578e+001 3.478291e+001 3.808270e+001 2.934202e+001 2.139133e+001 1.969878e+001 1.818245e+001 1.465417e+001 1.691637e+001 3.282798e+000 1.596969e+000 1.958670e+000 1.704133e+000 2.050543e+000 2.840859e+000 2.488544e+000 2.253090e+000 2.060816e+000 1.888281e+000 1.690019e+000 1.470402e+000 1.065376e+000 6.778932e-001 3.878826e-001 3.964829e-001 4.970699e-001 5.381602e-001 6.507463e-001 6.011254e-001 5.288770e-001 4.731520e-001 4.275951e-001 4.088496e-001 3.482958e-001 3.172957e-001
<GCONST> 1.124917e+002
<STATE> 4
<MEAN> 39
 -1.998682e+001 -1.283107e+000 -4.612908e+000 -9.149082e+000 -2.752240e+000 -8.457642e+000 -5.916173e+000 -1.090268e+000 -1.617562e+000 -1.092383e+000 -3.056074e+000 -9.918815e-001 5.592783e+001 3.846216e+000 -1.793653e+000 3.324870e-001 2.060244e-002 -1.603976e+000 -3.874499e-001 -1.235888e+000 -7.401891e-001 -1.547450e-001 1.719029e-001 -2.827883e-001 -4.125541e-001 -1.077997e+000 2.412644e-001 -7.571655e-002 -1.002903e-001 7.965150e-002 -1.321636e-001 2.623797e-001 7.672136e-002 2.878537e-002 -1.362233e-001 2.338340e-002 5.727581e-002 -4.087039e-002 -2.617637e-001
<VARIANCE> 39
 5.885999e+001 3.734595e+001 4.088804e+001 3.531166e+001 5.041253e+001 5.815372e+001 5.121598e+001 4.135189e+001 3.383076e+001 3.132508e+001 2.569263e+001 2.175949e+001 3.763098e+001 4.297633e+000 3.805703e+000 3.967305e+000 5.339548e+000 5.021122e+000 6.028230e+000 5.649570e+000 4.505710e+000 4.091174e+000 3.508080e+000 3.423345e+000 2.801262e+000 6.451979e+000 1.085008e+000 6.697455e-001 5.295812e-001 6.677067e-001 7.791466e-001 9.272882e-001 8.995349e-001 8.094681e-001 6.884572e-001 6.090455e-001 5.459938e-001 4.620737e-001 6.125325e-001
<GCONST> 1.337552e+002
<TRANSP> 5
 0.000000e+000 1.000000e+000 0.000000e+000 0.000000e+000 0.000000e+000
 0.000000e+000 6.674795e-001 3.325205e-001 0.000000e+000 0.000000e+000
 0.000000e+000 0.000000e+000 7.533513e-001 2.466487e-001 0.000000e+000
 0.000000e+000 0.000000e+000 0.000000e+000 6.173395e-001 3.826605e-001
 0.000000e+000 0.000000e+000 0.000000e+000 0.000000e+000 0.000000e+000
<ENDHMM>
~h "aa"
<BEGINHMM>
<NUMSTATES> 5
<STATE> 2
<MEAN> 39
 -1.017156e+000 -1.581449e+001 -1.319503e+001 -1.663942e+001 -8.082138e+000 -1.161372e+000 -6.994416e+000 6.842371e-001 -1.328835e+000 -7.645624e-001 -2.698152e+000 -6.181268e+000 6.499172e+001 9.085543e-001 -1.467038e+000 -1.527488e+000 -8.877904e-001 8.567921e-001 1.418046e+000 3.367455e-001 -2.624888e-002 1.957986e-001 -9.811439e-002 7.279605e-002 -6.434547e-001 9.764804e-001 -5.564838e-001 3.933888e-001 2.752309e-001 4.543785e-001 2.944425e-001 -6.110687e-002 2.113371e-001 -2.340736e-001 -1.285423e-001 -9.871946e-002 5.848907e-002 3.048587e-001 -5.220962e-001
<VARIANCE> 39
 1.304894e+001 3.136956e+001 4.333665e+001 5.853612e+001 5.890615e+001 9.303914e+001 8.189803e+001 8.155716e+001 7.157220e+001 5.607902e+001 7.517296e+001 4.228769e+001 2.062565e+001 1.984466e+000 1.968101e+000 2.851630e+000 3.460835e+000 3.940007e+000 3.789673e+000 4.554924e+000 4.583584e+000 3.949797e+000 3.315262e+000 3.451990e+000 3.228505e+000 1.260432e+000 3.838370e-001 3.080629e-001 3.590068e-001 5.054873e-001 6.364919e-001 7.866807e-001 9.054251e-001 8.652476e-001 7.005258e-001 6.226625e-001 6.805635e-001 5.163222e-001 2.570208e-001
<GCONST> 1.289315e+002
<STATE> 3
<MEAN> 39
 -2.057620e-001 -1.708791e+001 -1.697926e+001 -1.727597e+001 -3.906327e+000 1.909558e+000 -5.312557e+000 -1.556079e+000 -1.358109e+000 -2.261356e+000 -2.285700e+000 -6.080470e+000 6.502363e+001 3.148538e-002 -9.101681e-002 -2.136997e-001 3.867074e-001 2.973390e-001 -4.399923e-001 -2.511254e-001 2.305981e-001 2.024186e-001 -1.593564e-001 -1.572869e-001 -1.212235e-002 -3.388824e-002 -2.502386e-002 1.938770e-001 1.738792e-001 1.071243e-001 -1.914669e-001 -3.056627e-001 -1.389582e-001 1.343610e-001 2.382180e-003 2.652089e-002 -5.939194e-002 6.034243e-002 -1.514215e-001
<VARIANCE> 39
 1.283426e+001 3.157876e+001 3.483099e+001 5.809560e+001 5.616697e+001 8.718565e+001 8.126726e+001 8.757713e+001 7.519552e+001 5.439740e+001 6.464395e+001 4.365889e+001 1.995824e+001 2.427309e-001 7.060518e-001 8.466039e-001 1.366211e+000 1.445330e+000 2.019249e+000 2.029300e+000 1.966906e+000 1.549937e+000 1.455584e+000 1.415248e+000 1.352269e+000 2.446298e-001 4.605653e-002 1.097330e-001 1.346803e-001 1.868806e-001 2.126858e-001 2.415124e-001 3.080209e-001 2.878618e-001 2.688649e-001 2.575156e-001 2.373916e-001 2.287397e-001 5.065894e-002
<GCONST> 9.988052e+001
<STATE> 4
<MEAN> 39
 -1.242119e+000 -1.521587e+001 -1.445619e+001 -1.433895e+001 -5.743396e+000 -3.093399e+000 -6.409047e+000 5.355031e-001 -5.625962e-001 -1.967552e+000 -4.533195e+000 -6.098036e+000 6.289488e+001 -7.933627e-001 1.917168e+000 1.468715e+000 1.649202e+000 -4.797459e-001 -1.579316e+000 -4.975144e-001 3.618698e-001 -2.689758e-001 4.146821e-002 -1.215795e-001 7.269717e-001 -2.155213e+000 -5.641718e-001 4.456253e-001 4.281159e-001 3.652523e-001 1.680440e-001 1.558218e-001 1.076768e-001 -3.302414e-001 -1.830184e-001 5.297636e-003 1.561617e-001 1.908291e-001 -5.999704e-001
<VARIANCE> 39
 1.473926e+001 3.706038e+001 4.327295e+001 5.397698e+001 5.357248e+001 8.973061e+001 8.303438e+001 7.919572e+001 7.422159e+001 5.880643e+001 6.676682e+001 4.755395e+001 3.064801e+001 2.815340e+000 3.471756e+000 3.252921e+000 4.127961e+000 4.011183e+000 4.226744e+000 5.006311e+000 5.243542e+000 4.403122e+000 4.109392e+000 3.794390e+000 3.399554e+000 4.141103e+000 4.773398e-001 4.685760e-001 3.932396e-001 6.054432e-001 6.268575e-001 8.301808e-001 7.728900e-001 8.098929e-001 7.150540e-001 7.172319e-001 6.490916e-001 5.699902e-001 4.870108e-001
<GCONST> 1.342855e+002
<TRANSP> 5
 0.000000e+000 1.000000e+000 0.000000e+000 0.000000e+000 0.000000e+000
 0.000000e+000 6.412815e-001 3.587185e-001 0.000000e+000 0.000000e+000
 0.000000e+000 0.000000e+000 8.575032e-001 1.424968e-001 0.000000e+000
 0.000000e+000 0.000000e+000 0.000000e+000 6.316664e-001 3.683336e-001
 0.000000e+000 0.000000e+000 0.000000e+000 0.000000e+000 0.000000e+000
<ENDHMM>
~h "ae"
<BEGINHMM>
<NUMSTATES> 5
<STATE> 2
<MEAN> 39
 -4.421245e+000 -1.665112e+001 -5.085400e+000 -1.361242e+001 -1.483193e+001 -7.998701e+000 -3.925663e+000 5.627886e+000 -1.975903e+000 -3.139250e+000 -5.341764e+000 -4.684612e+000 6.608400e+001 -4.122016e-002 -1.277504e+000 3.556707e-003 -7.613685e-001 -1.610075e-001 5.464380e-001 8.663868e-001 9.244488e-001 1.078971e-001 -6.072006e-001 -3.644677e-001 -1.461117e-001 1.114110e+000 -2.905581e-001 4.784258e-001 -7.768420e-002 3.174181e-001 4.314213e-001 1.569748e-001 1.000227e-001 -4.487846e-001 -1.019488e-001 4.035805e-002 8.018526e-002 1.555166e-001 -5.236986e-001
<VARIANCE> 39
 1.462039e+001 3.019468e+001 4.791375e+001 4.771108e+001 5.095320e+001 5.666439e+001 7.792204e+001 6.401111e+001 8.454449e+001 4.881625e+001 4.809254e+001 3.890517e+001 2.007216e+001 1.054462e+000 1.860960e+000 2.127111e+000 2.162549e+000 2.654995e+000 2.671606e+000 3.423437e+000 3.750575e+000 2.951548e+000 2.596923e+000 2.410929e+000 2.245696e+000 1.045072e+000 2.997355e-001 2.673821e-001 3.051802e-001 3.763191e-001 4.633178e-001 4.890569e-001 6.325700e-001 5.538113e-001 5.651419e-001 4.865422e-001 4.592927e-001 3.881156e-001 2.175995e-001
<GCONST> 1.195629e+002
<STATE> 3
<MEAN> 39
 -4.901034e+000 -1.729419e+001 -6.747221e+000 -1.327940e+001 -1.282158e+001 -6.507685e+000 -7.165964e-001 4.696839e+000 -2.158071e+000 -5.172639e+000 -6.403856e+000 -4.053401e+000 6.608880e+001 3.055401e-003 2.885184e-002 -1.780539e-001 5.581705e-002 2.292408e-001 1.114990e-002 2.207115e-002 -6.557039e-002 1.060854e-002 -7.949985e-002 -9.141815e-002 2.253103e-002 -7.826059e-002 2.998913e-002 1.892876e-001 1.450131e-002 6.597397e-002 -6.270029e-003 -1.284079e-001 -1.763079e-001 -6.951945e-002 -1.487694e-002 1.163750e-001 5.900145e-002 -3.353751e-004 -1.691885e-001
<VARIANCE> 39
 1.296050e+001 3.034496e+001 4.715702e+001 4.337968e+001 5.487329e+001 5.526122e+001 6.243340e+001 6.217460e+001 8.599390e+001 4.369480e+001 4.170720e+001 4.178763e+001 2.304768e+001 2.485803e-001 6.186838e-001 9.284995e-001 8.235245e-001 1.210898e+000 1.260766e+000 1.440653e+000 1.308529e+000 1.239226e+000 1.201696e+000 1.155895e+000 9.684600e-001 2.312259e-001 4.384142e-002 1.168688e-001 1.322926e-001 1.456182e-001 1.865892e-001 1.914638e-001 2.210612e-001 2.311587e-001 2.198848e-001 2.004580e-001 1.985823e-001 1.744935e-001 5.419492e-002
<GCONST> 9.342333e+001
<STATE> 4
<MEAN> 39
 -4.568074e+000 -1.393571e+001 -6.461406e+000 -1.203947e+001 -1.226617e+001 -9.478436e+000 -3.630532e+000 4.107846e+000 -2.559046e+000 -3.428097e+000 -5.693045e+000 -3.987131e+000 6.282402e+001 -6.744196e-001 2.498774e+000 6.126170e-001 1.310625e+000 6.223575e-001 -4.049701e-001 -6.651088e-001 -1.081453e+000 -5.971054e-001 5.247227e-001 4.741152e-001 1.827255e-001 -2.644180e+000 -5.586694e-001 5.150766e-001 1.381119e-001 4.117707e-001 3.851334e-001 3.375087e-001 1.475396e-001 -3.457485e-001 -1.057196e-001 -3.078810e-002 9.130631e-002 6.817066e-002 -6.903307e-001
<VARIANCE> 39
 1.277939e+001 3.582072e+001 6.035159e+001 4.614512e+001 5.996440e+001 6.290179e+001 7.176557e+001 6.627557e+001 8.145966e+001 5.698265e+001 6.275529e+001 4.525409e+001 4.020510e+001 2.852483e+000 3.405295e+000 3.020894e+000 3.555927e+000 4.262512e+000 4.155494e+000 4.561500e+000 4.781174e+000 5.032408e+000 4.041795e+000 3.745536e+000 3.136990e+000 4.102921e+000 4.708881e-001 4.871867e-001 4.966252e-001 5.268509e-001 6.553588e-001 7.133057e-001 7.499141e-001 7.727496e-001 8.483289e-001 7.714797e-001 7.708888e-001 5.550753e-001 4.724376e-001
<GCONST> 1.338773e+002
<TRANSP> 5
 0.000000e+000 1.000000e+000 0.000000e+000 0.000000e+000 0.000000e+000
 0.000000e+000 6.057398e-001 3.942603e-001 0.000000e+000 0.000000e+000
 0.000000e+000 0.000000e+000 8.761430e-001 1.238570e-001 0.000000e+000
 0.000000e+000 0.000000e+000 0.000000e+000 7.335336e-001 2.664664e-001
 0.000000e+000 0.000000e+000 0.000000e+000 0.000000e+000 0.000000e+000
<ENDHMM>
~h "ah"
<BEGINHMM>
<NUMSTATES> 5
<STATE> 2
<MEAN> 39
 -3.442102e+000 -1.264513e+001 -8.658757e+000 -1.546045e+001 -9.302145e+000 -4.635003e+000 -1.056113e+001 -3.568643e-002 -1.779403e-001 1.929813e-001 -4.096951e+000 -5.536955e+000 6.346683e+001 1.402252e+000 -1.724194e+000 -5.696074e-001 -1.237323e+000 -2.142382e-001 6.090298e-001 -8.500113e-001 6.528054e-001 9.479682e-001 9.571030e-002 -5.641599e-001 -9.389050e-001 1.403064e+000 -7.544878e-001 5.047304e-001 1.304785e-001 5.302305e-001 4.016037e-001 6.889768e-002 5.142428e-001 -1.728341e-001 -2.495310e-001 -1.133642e-001 9.774333e-002 2.684441e-001 -7.210716e-001
<VARIANCE> 39
 2.437484e+001 3.439195e+001 5.045321e+001 5.374983e+001 5.535304e+001 8.782006e+001 6.745920e+001 6.428115e+001 6.021066e+001 6.347485e+001 7.955117e+001 4.557215e+001 2.918311e+001 3.849948e+000 2.903858e+000 3.113365e+000 4.579920e+000 4.661410e+000 5.503151e+000 5.036479e+000 5.132917e+000 4.764641e+000 4.234127e+000 4.496839e+000 3.531720e+000 2.769428e+000 5.883672e-001 4.490893e-001 4.899251e-001 6.688691e-001 6.993750e-001 9.749327e-001 8.570550e-001 8.867090e-001 7.787222e-001 7.384831e-001 8.382106e-001 6.338733e-001 4.738907e-001
<GCONST> 1.363158e+002
<STATE> 3
<MEAN> 39
 -2.861381e+000 -1.456656e+001 -1.039786e+001 -1.653768e+001 -7.130490e+000 -3.177067e+000 -9.715376e+000 7.132258e-001 1.002128e+000 -8.693125e-001 -5.675413e+000 -6.120292e+000 6.450808e+001 3.177832e-002 3.489582e-001 8.781920e-002 1.942802e-001 1.260858e-001 -1.991899e-001 -3.037497e-002 -1.765929e-001 -1.225848e-001 -1.925367e-002 -5.357095e-002 4.371666e-002 -4.177618e-001 -1.877308e-001 5.223118e-001 2.295285e-001 3.616681e-001 -4.557799e-002 -1.944085e-001 9.892057e-002 -2.650573e-001 -3.394561e-001 2.624345e-002 1.385614e-001 1.957680e-001 -5.287430e-001
<VARIANCE> 39
 1.465209e+001 2.997668e+001 3.951219e+001 5.092544e+001 5.180700e+001 8.334357e+001 7.007069e+001 5.857062e+001 6.562113e+001 6.989611e+001 6.832645e+001 5.066793e+001 2.709468e+001 6.065609e-001 1.230812e+000 1.575705e+000 1.826182e+000 2.058415e+000 2.842919e+000 2.362995e+000 2.593030e+000 2.299192e+000 2.144458e+000 2.241109e+000 2.036098e+000 1.077858e+000 2.334499e-001 2.824632e-001 2.554588e-001 3.752465e-001 4.078101e-001 4.984568e-001 5.507519e-001 5.674801e-001 5.149271e-001 4.546987e-001 4.223054e-001 4.157113e-001 2.467071e-001
<GCONST> 1.170606e+002
<STATE> 4
<MEAN> 39
 -3.331388e+000 -9.774438e+000 -7.982849e+000 -1.345322e+001 -8.062838e+000 -6.337500e+000 -1.026061e+001 -1.519873e+000 -1.264905e+000 4.594877e-002 -4.100572e+000 -4.623432e+000 5.947659e+001 -1.310315e+000 2.759302e+000 1.176250e+000 2.331465e+000 5.911052e-001 -2.853137e-001 7.666172e-001 -1.388032e+000 -1.458532e+000 -4.120782e-001 1.999046e-001 6.873264e-001 -3.213448e+000 -7.288408e-001 2.541496e-001 1.111752e-001 3.463280e-001 2.573116e-001 3.276725e-001 4.420249e-001 -7.993907e-002 -1.242279e-001 -1.341185e-001 -2.058388e-002 6.368439e-002 -4.256746e-001
<VARIANCE> 39
 2.226391e+001 3.932496e+001 4.677937e+001 5.837624e+001 5.067021e+001 8.116977e+001 6.673113e+001 6.631790e+001 6.352049e+001 6.912377e+001 7.310231e+001 4.718739e+001 4.524429e+001 3.769802e+000 3.077134e+000 3.189582e+000 4.424083e+000 4.921063e+000 5.776280e+000 5.627785e+000 5.860161e+000 5.671115e+000 5.502090e+000 4.891171e+000 4.132450e+000 4.671462e+000 5.310699e-001 6.335633e-001 4.810030e-001 7.943482e-001 6.557766e-001 8.986903e-001 7.937019e-001 1.074462e+000 8.347785e-001 8.435149e-001 8.436100e-001 6.380973e-001 7.321110e-001
<GCONST> 1.393349e+002
<TRANSP> 5
 0.000000e+000 1.000000e+000 0.000000e+000 0.000000e+000 0.000000e+000
 0.000000e+000 4.294426e-001 5.705574e-001 0.000000e+000 0.000000e+000
 0.000000e+000 0.000000e+000 7.529492e-001 2.470507e-001 0.000000e+000
 0.000000e+000 0.000000e+000 0.000000e+000 5.032429e-001 4.967571e-001
 0.000000e+000 0.000000e+000 0.000000e+000 0.000000e+000 0.000000e+000
<ENDHMM>
~h "ao"
<BEGINHMM>
<NUMSTATES> 5
<STATE> 2
<MEAN> 39
 6.535511e-001 -9.285886e+000 -1.378838e+001 -2.176952e+001 -1.142415e+001 2.026761e+000 -4.323997e+000 -2.219900e+000 -4.803574e+000 -1.032789e+000 2.868548e-001 -3.440674e+000 6.049960e+001 7.428055e-001 -5.770469e-001 -7.023019e-001 -1.503907e+000 7.122526e-003 1.333503e+000 5.204846e-001 -1.021323e-001 -1.734729e-001 -1.548690e-001 3.530026e-001 5.022176e-002 8.486523e-001 -4.910143e-001 1.158276e-001 1.306693e-001 5.684999e-001 3.714074e-001 -2.391851e-001 -2.512969e-002 3.841237e-002 1.141532e-001 -7.024357e-002 -7.926778e-002 1.576607e-001 -3.177139e-001
<VARIANCE> 39
 1.196003e+001 4.638443e+001 3.985639e+001 6.478687e+001 7.815158e+001 7.754108e+001 8.725456e+001 6.776787e+001 7.278540e+001 7.095119e+001 7.122350e+001 4.539899e+001 2.659178e+001 1.920061e+000 2.195961e+000 2.414958e+000 4.279419e+000 4.533449e+000 4.134995e+000 4.207011e+000 3.951593e+000 3.890402e+000 3.659120e+000 3.444046e+000 3.025478e+000 1.451836e+000 4.565418e-001 3.729783e-001 3.562329e-001 5.581747e-001 6.458800e-001 6.367930e-001 8.273892e-001 6.772873e-001 7.736728e-001 6.465904e-001 6.511673e-001 5.089309e-001 2.522810e-001
<GCONST> 1.300191e+002
<STATE> 3
<MEAN> 39
 8.319706e-001 -1.044664e+001 -1.533625e+001 -2.494433e+001 -9.002074e+000 5.991311e+000 -1.815896e+000 -3.538982e+000 -3.592246e+000 -2.606900e+000 9.862334e-002 -2.763306e+000 6.190556e+001 -2.200726e-002 -1.908901e-001 -1.342501e-001 2.440739e-001 3.985134e-001 -1.436414e-001 -2.553973e-001 -3.221384e-002 1.462151e-001 7.915224e-002 2.840507e-002 -7.604991e-002 1.305482e-001 -2.704153e-002 4.144306e-002 6.208843e-002 2.393241e-001 -1.177538e-002 -2.621766e-001 -1.864953e-001 4.496412e-002 3.764697e-002 7.878959e-002 -4.043112e-002 -5.234937e-002 -8.361436e-002
<VARIANCE> 39
 1.025855e+001 4.149301e+001 3.650651e+001 6.777818e+001 8.670464e+001 7.167847e+001 8.064389e+001 6.117480e+001 6.300184e+001 6.176606e+001 6.008469e+001 4.502168e+001 2.225841e+001 1.966382e-001 9.217719e-001 7.942175e-001 1.657475e+000 1.519212e+000 1.610892e+000 1.707952e+000 1.435804e+000 1.481881e+000 1.541026e+000 1.424660e+000 1.425130e+000 3.036804e-001 3.711662e-002 1.043704e-001 1.180035e-001 1.766558e-001 2.265064e-001 2.311614e-001 2.540583e-001 2.495099e-001 2.526730e-001 2.493656e-001 2.435312e-001 2.232776e-001 4.343074e-002
<GCONST> 9.881132e+001
<STATE> 4
<MEAN> 39
 1.508535e-001 -1.254769e+001 -1.503175e+001 -1.746500e+001 -7.380107e+000 -3.380325e-001 -6.086023e+000 -1.628098e+000 -2.753233e+000 -1.221129e-001 -4.113898e-001 -5.076154e+000 6.198499e+001 -6.072238e-001 5.396343e-001 7.520337e-001 2.335178e+000 2.714258e-001 -1.900912e+000 -9.404907e-001 4.000427e-001 5.129929e-001 9.182211e-002 -6.347871e-001 2.103034e-001 -9.820738e-001 -3.608643e-001 3.222821e-001 3.678355e-001 2.353896e-001 -3.590165e-002 -8.332398e-002 7.867705e-002 -6.980592e-002 -1.330005e-002 -1.258651e-001 -1.146561e-001 2.394085e-001 -3.573326e-001
<VARIANCE> 39
 1.298033e+001 3.975129e+001 3.960801e+001 7.227396e+001 6.020232e+001 8.166438e+001 8.333038e+001 7.063388e+001 7.446227e+001 6.943972e+001 8.508544e+001 5.491400e+001 2.492759e+001 1.996184e+000 3.249350e+000 3.311074e+000 3.712619e+000 4.916699e+000 3.872618e+000 5.484167e+000 4.542512e+000 4.657953e+000 4.281337e+000 3.973297e+000 3.866565e+000 2.239416e+000 4.288158e-001 3.193848e-001 3.370673e-001 5.766459e-001 6.115912e-001 7.286835e-001 8.233239e-001 7.528877e-001 7.435622e-001 7.235164e-001 7.840710e-001 6.672234e-001 2.514097e-001
<GCONST> 1.327902e+002
<TRANSP> 5
 0.000000e+000 1.000000e+000 0.000000e+000 0.000000e+000 0.000000e+000
 0.000000e+000 6.367076e-001 3.632924e-001 0.000000e+000 0.000000e+000
 0.000000e+000 0.000000e+000 8.592607e-001 1.407393e-001 0.000000e+000
 0.000000e+000 0.000000e+000 0.000000e+000 6.366552e-001 3.633448e-001
 0.000000e+000 0.000000e+000 0.000000e+000 0.000000e+000 0.000000e+000
<ENDHMM>
~h "aw"
<BEGINHMM>
<NUMSTATES> 5
<STATE> 2
<MEAN> 39
 -4.024352e+000 -1.801389e+001 -9.242820e+000 -1.378636e+001 -9.274755e+000 -4.849639e+000 -3.912779e+000 3.061485e+000 -2.214720e+000 -3.745423e+000 -7.123469e+000 -4.565400e+000 6.662420e+001 3.656518e-001 -1.381325e+000 -8.184519e-001 -3.661751e-001 7.211499e-001 9.184442e-001 -9.897791e-003 1.222272e-001 4.867100e-001 -4.514389e-001 -5.307376e-001 -3.590454e-001 9.581631e-001 -2.936632e-001 4.894600e-001 2.683743e-002 2.181569e-001 3.081171e-001 1.701709e-001 6.922496e-003 -4.115629e-001 -9.264272e-002 1.124226e-001 2.021216e-001 1.001429e-001 -5.477036e-001
<VARIANCE> 39
 1.345992e+001 2.859856e+001 5.024172e+001 4.624916e+001 6.321284e+001 6.394005e+001 7.813911e+001 7.106746e+001 7.485484e+001 5.205303e+001 4.390232e+001 4.242252e+001 1.697431e+001 1.208835e+000 2.061769e+000 2.011871e+000 2.391289e+000 3.024253e+000 2.833652e+000 3.912117e+000 3.692778e+000 2.808194e+000 2.471500e+000 2.400800e+000 2.386333e+000 1.285702e+000 3.490263e-001 2.897311e-001 2.978514e-001 4.088804e-001 5.230826e-001 4.936520e-001 6.646581e-001 6.663153e-001 6.002203e-001 4.730418e-001 4.471456e-001 4.212738e-001 2.152833e-001
<GCONST> 1.211444e+002
<STATE> 3
<MEAN> 39
 -2.257309e+000 -1.763177e+001 -1.352846e+001 -1.525451e+001 -4.705592e+000 -7.376578e-002 -4.746976e+000 -1.869375e+000 2.495534e-001 -4.098726e+000 -5.636322e+000 -5.452855e+000 6.551284e+001 2.551948e-001 3.896352e-001 -3.984265e-001 -4.766904e-001 2.537937e-001 5.635104e-001 -2.221643e-001 -4.810337e-001 -1.687240e-002 2.512606e-001 3.805550e-001 -4.099095e-002 -3.363276e-001 1.291328e-002 1.746894e-001 7.663717e-002 -1.116159e-002 -1.740847e-001 -1.114891e-001 -1.640674e-002 3.163240e-002 -7.753470e-002 7.770146e-002 7.148932e-002 5.802178e-002 -1.287614e-001
<VARIANCE> 39
 1.318566e+001 3.158255e+001 3.986990e+001 5.475552e+001 5.685199e+001 7.954150e+001 8.316202e+001 6.604748e+001 6.587655e+001 5.537059e+001 5.364552e+001 4.517420e+001 2.270847e+001 2.343270e-001 6.964445e-001 7.351829e-001 1.267944e+000 1.527574e+000 1.490176e+000 1.644829e+000 1.642863e+000 1.604505e+000 1.453808e+000 1.471291e+000 1.351453e+000 2.298206e-001 4.048256e-002 1.001263e-001 1.180973e-001 1.770683e-001 2.090053e-001 2.312250e-001 2.699602e-001 2.544792e-001 2.517197e-001 2.149606e-001 2.385694e-001 2.236332e-001 4.048213e-002
<GCONST> 9.740237e+001
<STATE> 4
<MEAN> 39
 -6.989765e-001 -1.163948e+001 -1.438546e+001 -1.915451e+001 -6.970224e+000 1.435037e+000 -6.351096e+000 -3.815075e+000 -1.690282e+000 -1.786191e-001 -2.591695e+000 -4.956412e+000 6.079806e+001 -4.568987e-001 1.643885e+000 9.977700e-001 1.200376e+000 -7.954639e-001 -1.186233e+000 -1.167007e-001 -2.935931e-001 -5.789858e-001 4.401523e-001 1.574669e-001 3.383810e-001 -1.840355e+000 -4.286853e-001 1.564214e-001 3.884400e-001 6.551844e-001 1.325639e-001 -2.997953e-001 9.125128e-002 -3.307319e-002 -9.416570e-002 -1.424142e-001 -1.675351e-001 5.550122e-002 -3.413758e-001
<VARIANCE> 39
 1.216169e+001 4.096261e+001 3.582943e+001 6.965150e+001 6.259712e+001 8.128290e+001 8.609360e+001 5.666546e+001 6.277242e+001 6.267702e+001 7.228871e+001 4.413813e+001 3.563245e+001 2.062091e+000 2.932581e+000 2.738942e+000 5.617413e+000 4.247526e+000 4.041919e+000 4.510772e+000 4.622397e+000 4.180084e+000 4.006452e+000 3.990680e+000 3.289565e+000 2.723400e+000 3.233185e-001 4.051942e-001 3.616794e-001 6.074966e-001 7.048509e-001 6.631455e-001 7.498981e-001 7.018159e-001 6.946487e-001 6.981795e-001 6.559296e-001 5.431585e-001 3.487500e-001
<GCONST> 1.317053e+002
<TRANSP> 5
 0.000000e+000 1.000000e+000 0.000000e+000 0.000000e+000 0.000000e+000
 0.000000e+000 6.884211e-001 3.115789e-001 0.000000e+000 0.000000e+000
 0.000000e+000 0.000000e+000 8.876822e-001 1.123178e-001 0.000000e+000
 0.000000e+000 0.000000e+000 0.000000e+000 7.535935e-001 2.464065e-001
 0.000000e+000 0.000000e+000 0.000000e+000 0.000000e+000 0.000000e+000
<ENDHMM>
~h "ax"
<BEGINHMM>
<NUMSTATES> 5
<STATE> 2
<MEAN> 39
 -1.721403e+000 -1.035366e+001 -8.939696e+000 -1.094333e+001 -8.647321e+000 -9.054024e+000 -1.257457e+001 -8.802430e-001 -1.081548e+000 -5.176006e-001 -3.070122e+000 -2.990356e+000 5.919092e+001 2.117063e+000 -8.561159e-001 -8.329093e-001 -5.753301e-001 -6.226257e-002 -4.220874e-001 -1.859344e+000 4.557368e-001 4.577991e-001 9.524207e-002 -1.398370e-001 -1.749906e-001 6.053023e-001 -6.766560e-001 4.632624e-001 6.699796e-002 3.228948e-001 3.019161e-001 2.807384e-001 5.115920e-001 -1.101489e-001 -2.480825e-001 -1.272784e-001 1.206153e-001 1.558653e-001 -6.368899e-001
<VARIANCE> 39
 2.149533e+001 3.122077e+001 5.708703e+001 6.790475e+001 5.213266e+001 8.443944e+001 6.812977e+001 6.964272e+001 6.118148e+001 5.894016e+001 5.781276e+001 3.903178e+001 2.230096e+001 5.642865e+000 2.854584e+000 4.118248e+000 4.668691e+000 4.747837e+000 5.714701e+000 6.381917e+000 5.960419e+000 5.027292e+000 4.029236e+000 3.897111e+000 3.192317e+000 2.047856e+000 6.852348e-001 4.661111e-001 4.646014e-001 7.648895e-001 6.296902e-001 8.111396e-001 9.120933e-001 7.996358e-001 8.083811e-001 7.492222e-001 7.167700e-001 5.456299e-001 5.957484e-001
<GCONST> 1.361196e+002
<STATE> 3
<MEAN> 39
 -7.297906e-001 -1.126213e+001 -9.624334e+000 -1.175478e+001 -8.272299e+000 -8.325519e+000 -1.370344e+001 1.820100e-001 -7.099906e-001 -2.634772e-001 -3.153132e+000 -3.371192e+000 5.951405e+001 6.208808e-001 2.856730e-001 -5.050067e-001 2.306346e-001 5.189093e-001 -9.319545e-002 -5.270190e-001 -3.572997e-002 -1.029037e-001 -1.280234e-001 7.114183e-002 1.299090e-001 -5.427398e-001 -8.012072e-001 6.985282e-001 2.492909e-001 4.974972e-001 2.630070e-001 1.599121e-001 7.250679e-001 -3.375324e-001 -3.506705e-001 -1.728073e-001 5.705309e-002 1.588913e-001 -7.234728e-001
<VARIANCE> 39
 1.654853e+001 3.008433e+001 5.892879e+001 6.844464e+001 5.311832e+001 9.395760e+001 7.860448e+001 7.718624e+001 6.713519e+001 6.360463e+001 6.075153e+001 4.481200e+001 2.066555e+001 2.701834e+000 2.134911e+000 3.183644e+000 3.680655e+000 3.456096e+000 4.098458e+000 5.048229e+000 4.501044e+000 4.074781e+000 3.313451e+000 3.172538e+000 2.665701e+000 1.826942e+000 6.917621e-001 4.964738e-001 4.922791e-001 7.739171e-001 6.939588e-001 9.158477e-001 1.027063e+000 9.558416e-001 8.736836e-001 7.967408e-001 7.444335e-001 5.900152e-001 5.112998e-001
<GCONST> 1.336798e+002
<STATE> 4
<MEAN> 39
 -7.553028e-001 -9.032570e+000 -1.001176e+001 -1.037229e+001 -6.976769e+000 -8.617358e+000 -1.334156e+001 -1.280573e+000 -1.490770e+000 -7.500476e-001 -2.541322e+000 -2.582382e+000 5.717929e+001 -6.860285e-001 1.527824e+000 8.180441e-002 1.238805e+000 9.241368e-001 1.223162e-001 6.376746e-001 -5.231897e-001 -6.459539e-001 -5.463854e-001 3.124699e-003 3.537386e-001 -1.805110e+000 -8.053754e-001 3.545402e-001 3.097153e-001 3.012149e-001 8.634828e-002 2.274940e-001 6.416458e-001 -9.913372e-002 -1.702357e-001 -1.076299e-001 -4.893008e-002 4.632984e-002 -4.088474e-001
<VARIANCE> 39
 2.041241e+001 3.679763e+001 6.134314e+001 6.421656e+001 5.304716e+001 9.222351e+001 8.300138e+001 8.228712e+001 6.866396e+001 5.953958e+001 5.566951e+001 4.071204e+001 2.476038e+001 3.908360e+000 3.394817e+000 3.517954e+000 5.560802e+000 3.891337e+000 4.651412e+000 6.008210e+000 5.189674e+000 5.285450e+000 4.237079e+000 3.913501e+000 3.023067e+000 4.662232e+000 5.865818e-001 4.755255e-001 5.230770e-001 6.070899e-001 6.373752e-001 8.347918e-001 9.524836e-001 9.213113e-001 7.568983e-001 7.186329e-001 6.754546e-001 5.448360e-001 4.062716e-001
<GCONST> 1.364720e+002
<TRANSP> 5
 0.000000e+000 1.000000e+000 0.000000e+000 0.000000e+000 0.000000e+000
 0.000000e+000 1.147200e-001 8.852800e-001 0.000000e+000 0.000000e+000
 0.000000e+000 0.000000e+000 2.348837e-001 7.651163e-001 0.000000e+000
 0.000000e+000 0.000000e+000 0.000000e+000 1.817842e-001 8.182158e-001
 0.000000e+000 0.000000e+000 0.000000e+000 0.000000e+000 0.000000e+000
<ENDHMM>
~h "ay"
<BEGINHMM>
<NUMSTATES> 5
<STATE> 2
<MEAN> 39
 -1.506770e+000 -1.611049e+001 -1.404321e+001 -1.792320e+001 -5.284269e+000 1.132647e+000 -5.454982e+000 -2.191684e+000 3.426914e-001 -3.199970e-001 -4.349611e+000 -7.518052e+000 6.500108e+001 1.327146e-001 -1.715076e+000 -9.024068e-002 2.072677e-001 3.409370e-001 9.904402e-002 2.934727e-002 6.162385e-001 8.057663e-001 -4.830796e-001 -9.052426e-001 -5.303484e-001 1.050044e+000 -4.336162e-001 5.035088e-001 4.641425e-001 5.166853e-001 -1.099582e-001 -4.871938e-001 9.325981e-002 1.060462e-001 -2.610976e-001 -1.819953e-001 9.539494e-002 4.390411e-001 -4.850150e-001
<VARIANCE> 39
 1.098843e+001 3.060918e+001 3.462304e+001 5.072333e+001 5.330927e+001 8.098325e+001 6.554211e+001 6.437725e+001 6.160649e+001 6.151879e+001 6.876086e+001 4.380363e+001 1.918670e+001 1.488853e+000 1.816064e+000 2.604052e+000 3.713382e+000 3.111596e+000 4.780434e+000 3.336154e+000 4.024057e+000 3.115524e+000 2.823894e+000 2.895760e+000 3.131391e+000 1.195259e+000 4.018751e-001 2.798891e-001 3.168990e-001 5.369501e-001 6.259564e-001 6.010773e-001 6.253174e-001 6.866990e-001 6.024951e-001 5.645081e-001 6.616817e-001 5.383095e-001 2.019657e-001
<GCONST> 1.245175e+002
<STATE> 3
<MEAN> 39
 -2.698518e+000 -1.830442e+001 -1.213178e+001 -1.384734e+001 -5.950751e+000 -2.807215e+000 -4.399129e+000 6.789397e-001 8.155943e-001 -4.323197e+000 -6.587346e+000 -5.589711e+000 6.564903e+001 -2.284735e-001 8.349527e-002 8.205686e-001 4.132334e-001 -8.277993e-001 -9.788070e-001 2.330219e-001 7.809762e-001 -1.978848e-001 -3.146118e-001 1.602549e-002 3.814571e-001 -6.225109e-002 -5.243794e-003 2.457385e-001 1.317794e-001 -4.764964e-002 -1.868691e-001 -9.161522e-002 -1.804811e-002 -6.353930e-002 -1.596407e-001 1.200955e-001 1.849613e-001 5.793839e-002 -1.428466e-001
<VARIANCE> 39
 1.193480e+001 2.954146e+001 4.053647e+001 4.072289e+001 6.015265e+001 7.481994e+001 6.897585e+001 7.159380e+001 7.381025e+001 5.192245e+001 4.698090e+001 4.798961e+001 2.082203e+001 2.483523e-001 7.620514e-001 1.237475e+000 1.286631e+000 2.051112e+000 2.066933e+000 2.045770e+000 2.216207e+000 1.701084e+000 1.590550e+000 1.643224e+000 1.527036e+000 2.160882e-001 4.076567e-002 1.253490e-001 1.368901e-001 1.690170e-001 2.501418e-001 2.344210e-001 2.823984e-001 3.440647e-001 3.093548e-001 2.763503e-001 2.883412e-001 2.646045e-001 4.876990e-002
<GCONST> 1.007522e+002
<STATE> 4
<MEAN> 39
 -5.163524e+000 -1.239044e+001 -2.122695e+000 -1.186584e+001 -1.550607e+001 -1.151457e+001 -3.159911e+000 3.390372e+000 -4.174048e+000 -2.390621e+000 -3.467658e+000 -2.261394e+000 6.166885e+001 -7.843516e-001 2.315701e+000 1.334399e+000 1.302162e+000 -2.636526e-001 -5.233310e-001 -2.300722e-001 -1.211894e+000 -1.178374e+000 4.174667e-001 7.759776e-001 3.909745e-001 -2.384947e+000 -3.175452e-001 2.850851e-001 -4.628926e-001 2.702875e-001 8.650032e-001 6.256874e-001 -4.287610e-002 -4.471220e-001 1.757162e-001 5.148630e-003 -1.593606e-001 -1.626838e-001 -5.977311e-001
<VARIANCE> 39
 1.327872e+001 4.443967e+001 5.190069e+001 6.055298e+001 5.512915e+001 5.912669e+001 7.543676e+001 7.542946e+001 7.464564e+001 4.970635e+001 5.434097e+001 3.648246e+001 4.012365e+001 1.937822e+000 2.608324e+000 3.444515e+000 4.618675e+000 6.967399e+000 4.924099e+000 4.869479e+000 5.130159e+000 5.232759e+000 4.344574e+000 3.873192e+000 3.702463e+000 4.376971e+000 3.599545e-001 5.209582e-001 5.456946e-001 6.690794e-001 7.560814e-001 7.532817e-001 8.550346e-001 1.090522e+000 1.015979e+000 7.740232e-001 7.132542e-001 5.850417e-001 4.531857e-001
<GCONST> 1.355331e+002
<TRANSP> 5
 0.000000e+000 1.000000e+000 0.000000e+000 0.000000e+000 0.000000e+000
 0.000000e+000 6.559350e-001 3.440650e-001 0.000000e+000 0.000000e+000
 0.000000e+000 0.000000e+000 8.652050e-001 1.347950e-001 0.000000e+000
 0.000000e+000 0.000000e+000 0.000000e+000 7.467664e-001 2.532336e-001
 0.000000e+000 0.000000e+000 0.000000e+000 0.000000e+000 0.000000e+000
<ENDHMM>
~h "ch"
<BEGINHMM>
<NUMSTATES> 5
<STATE> 2
<MEAN> 39
 -2.983790e+001 -5.805824e+000 1.026565e+000 -1.247781e+001 -4.058739e+000 1.584891e+000 -3.766180e+000 2.040142e-001 9.798267e-002 -1.242098e+000 4.719645e-001 1.061022e-001 5.692369e+001 -2.087728e+000 8.599290e-001 1.247010e+000 -1.497363e-001 -7.301269e-001 -2.721549e-003 8.156248e-001 1.461954e-001 2.225281e-001 4.739447e-002 1.414244e-001 1.012666e-001 2.872890e+000 8.574340e-001 1.715614e-001 -1.595234e-002 7.585232e-001 -1.767790e-001 -4.743623e-001 9.990706e-002 -1.068048e-001 -2.996826e-001 -4.331861e-002 -2.390903e-001 -1.154014e-001 -9.143962e-001
<VARIANCE> 39
 2.246565e+001 3.264540e+001 3.403655e+001 2.622539e+001 3.541083e+001 2.151446e+001 2.174369e+001 2.219709e+001 1.872560e+001 1.508314e+001 1.264770e+001 1.043657e+001 2.294851e+001 2.958463e+000 3.052361e+000 2.626122e+000 2.882325e+000 2.503702e+000 2.468297e+000 2.121341e+000 2.146235e+000 1.760999e+000 1.809005e+000 1.434569e+000 1.344331e+000 3.776303e+000 6.856014e-001 7.430364e-001 6.521044e-001 6.189479e-001 5.108133e-001 4.770245e-001 4.850726e-001 4.641672e-001 3.910323e-001 3.828138e-001 3.216386e-001 2.909041e-001 6.992120e-001
<GCONST> 1.131388e+002
<STATE> 3
<MEAN> 39
 -3.044833e+001 -6.020488e+000 2.888033e+000 -1.064668e+001 -7.733702e+000 -7.039221e-001 -8.614357e-001 -3.721661e-001 -5.953344e-001 -8.210012e-001 -2.406830e-001 1.426032e-001 6.095612e+001 1.331723e+000 -4.463786e-001 -1.642669e-001 6.184745e-001 -8.284954e-001 -1.065591e+000 1.876662e-001 -3.906613e-002 -3.477486e-001 -9.168415e-002 -2.863773e-001 -1.212037e-001 1.990032e-002 1.018849e+000 -1.417912e-001 -2.538226e-001 1.229684e-001 8.260108e-002 -2.735440e-001 -3.924542e-001 -1.695640e-002 -1.415669e-001 -1.521664e-001 -1.181971e-001 -7.802811e-002 -6.789777e-001
<VARIANCE> 39
 1.369924e+001 2.439977e+001 2.266487e+001 2.347993e+001 3.881269e+001 2.245364e+001 2.306123e+001 2.162977e+001 1.933907e+001 1.721120e+001 1.576074e+001 1.377041e+001 1.406014e+001 2.602479e+000 1.260010e+000 1.915436e+000 1.869034e+000 2.329645e+000 2.260682e+000 1.883310e+000 2.053278e+000 1.648136e+000 1.646640e+000 1.565000e+000 1.280371e+000 1.975372e+000 5.435442e-001 3.012648e-001 4.520799e-001 3.372424e-001 4.763452e-001 4.721546e-001 4.781408e-001 4.159399e-001 3.855635e-001 3.771390e-001 3.460520e-001 2.953262e-001 3.588552e-001
<GCONST> 1.063993e+002
<STATE> 4
<MEAN> 39
 -1.822647e+001 -8.319480e+000 1.021214e+000 -7.050040e+000 -1.033470e+001 -7.041451e+000 -3.430546e+000 -2.845857e-001 -2.517082e+000 -2.754951e+000 -2.054518e+000 -9.844215e-001 5.816726e+001 5.021036e+000 -6.398948e-001 -6.635892e-001 1.659669e-001 -6.663867e-001 -1.817701e+000 -2.134789e+000 9.504592e-002 -8.198497e-001 -7.258882e-001 -5.059456e-001 -4.037887e-001 -6.560480e-001 3.829456e-002 -1.511795e-001 -2.113756e-001 -5.227947e-001 1.129461e-001 3.626036e-001 -3.870974e-001 9.585896e-002 7.746682e-002 1.513232e-001 1.637209e-001 -1.728981e-003 1.843881e-001
<VARIANCE> 39
 7.110213e+001 2.472441e+001 3.257732e+001 3.763196e+001 4.062987e+001 3.845778e+001 4.159698e+001 3.116989e+001 3.317108e+001 2.487399e+001 2.451029e+001 1.764380e+001 2.324034e+001 3.965340e+000 2.997084e+000 4.299797e+000 4.003911e+000 5.993329e+000 5.972685e+000 6.661239e+000 4.720722e+000 4.800635e+000 3.855643e+000 3.795931e+000 2.664708e+000 4.396914e+000 1.156903e+000 4.343952e-001 5.029827e-001 4.963985e-001 7.380903e-001 7.868769e-001 9.901791e-001 7.615186e-001 6.986669e-001 6.386283e-001 5.447471e-001 4.119248e-001 5.898401e-001
<GCONST> 1.300428e+002
<TRANSP> 5
 0.000000e+000 1.000000e+000 0.000000e+000 0.000000e+000 0.000000e+000
 0.000000e+000 5.657146e-001 4.342854e-001 0.000000e+000 0.000000e+000
 0.000000e+000 0.000000e+000 7.346953e-001 2.653048e-001 0.000000e+000
 0.000000e+000 0.000000e+000 0.000000e+000 6.132062e-001 3.867938e-001
 0.000000e+000 0.000000e+000 0.000000e+000 0.000000e+000 0.000000e+000
<ENDHMM>
~h "dh"
<BEGINHMM>
<NUMSTATES> 5
<STATE> 2
<MEAN> 39
 -1.534145e+001 -1.190531e+000 -6.206498e+000 -3.655364e+000 -3.986377e+000 -4.347933e+000 -3.939524e+000 -3.012847e+000 -2.100084e+000 -1.238478e+000 -2.722276e+000 -2.020601e+000 4.528292e+001 9.358011e-001 -3.698637e-001 -1.169916e-001 -6.151495e-001 -8.865402e-001 -9.656698e-001 -4.531697e-001 1.326427e-001 3.367404e-001 -1.916902e-001 -1.702967e-001 -4.733323e-002 2.557853e+000 6.568966e-001 -5.363050e-001 4.187465e-002 -5.249147e-001 -5.987091e-001 -4.611189e-001 -3.397268e-001 1.692572e-001 1.340969e-001 1.098747e-001 -2.462728e-002 -8.253700e-003 9.469484e-001
<VARIANCE> 39
 4.423167e+001 2.778153e+001 2.367256e+001 2.711289e+001 2.297376e+001 3.061413e+001 3.973934e+001 3.735116e+001 2.958034e+001 2.451247e+001 2.582886e+001 2.543414e+001 7.159032e+001 5.221712e+000 2.895414e+000 3.079878e+000 3.619134e+000 3.728594e+000 4.252691e+000 4.097544e+000 3.690304e+000 3.440108e+000 2.759292e+000 2.712927e+000 2.745019e+000 1.025296e+001 6.718440e-001 6.895639e-001 7.624209e-001 7.680768e-001 6.472983e-001 7.424710e-001 8.568873e-001 7.632374e-001 7.186220e-001 6.062238e-001 6.184654e-001 5.685765e-001 1.296769e+000
<GCONST> 1.295732e+002
<STATE> 3
<MEAN> 39
 -1.033793e+001 -2.927318e+000 -7.043968e+000 -6.874047e+000 -8.343732e+000 -9.095039e+000 -6.281591e+000 -2.765080e+000 -6.653709e-001 -1.520747e+000 -3.160576e+000 -1.970516e+000 5.578830e+001 2.838555e+000 -1.474975e+000 5.956184e-001 -1.802931e+000 -2.341844e+000 -2.103697e+000 -1.842127e+000 4.495024e-001 4.822137e-001 1.351143e-001 -4.327188e-001 -3.375209e-001 4.078550e+000 2.940274e-002 -3.816037e-001 3.743602e-001 -1.392246e-001 -4.091853e-002 2.804043e-001 -4.132041e-002 1.814270e-001 -1.865175e-001 1.734443e-001 5.317597e-003 -3.921598e-002 -5.778363e-001
<VARIANCE> 39
 2.761363e+001 2.164614e+001 2.529373e+001 2.536019e+001 2.818231e+001 3.303008e+001 4.412610e+001 3.319166e+001 3.122276e+001 2.909516e+001 2.524240e+001 2.735378e+001 2.712099e+001 4.004488e+000 3.435634e+000 4.519252e+000 4.159181e+000 4.469375e+000 5.242528e+000 5.762360e+000 5.566179e+000 5.743822e+000 4.190707e+000 4.464196e+000 4.002330e+000 4.868984e+000 5.273575e-001 4.177178e-001 5.132670e-001 5.111918e-001 5.309715e-001 5.643330e-001 6.845137e-001 6.260712e-001 5.927382e-001 5.197595e-001 5.514672e-001 4.597881e-001 7.490742e-001
<GCONST> 1.273914e+002
<STATE> 4
<MEAN> 39
 -5.471895e+000 -6.989513e+000 -5.153633e+000 -1.059491e+001 -1.245436e+001 -1.239518e+001 -9.842877e+000 -1.639847e+000 -1.398231e-001 -4.624133e-001 -4.233477e+000 -2.966816e+000 6.094011e+001 1.905792e+000 -2.071034e+000 8.719726e-001 -1.799577e+000 -1.808075e+000 -1.037721e+000 -1.114800e+000 8.654896e-001 6.791881e-002 3.024525e-001 -3.144790e-001 -2.243803e-001 2.502110e+000 -7.140973e-001 1.800042e-001 4.061472e-002 4.027579e-001 6.026098e-001 7.740367e-001 5.802170e-001 9.382329e-003 -3.420436e-001 -8.320876e-002 1.199641e-001 9.153043e-002 -1.176297e+000
<VARIANCE> 39
 1.328078e+001 2.849922e+001 4.038224e+001 4.351348e+001 4.529900e+001 4.878361e+001 6.040281e+001 5.013630e+001 5.580838e+001 4.614129e+001 4.059718e+001 3.935365e+001 2.343916e+001 2.856230e+000 2.750143e+000 3.942998e+000 3.729740e+000 4.040528e+000 4.832101e+000 6.087103e+000 4.978958e+000 4.960870e+000 3.788692e+000 4.420030e+000 3.264093e+000 2.752354e+000 5.128359e-001 3.745127e-001 4.669851e-001 5.752313e-001 6.078208e-001 6.103959e-001 6.785880e-001 6.759333e-001 6.998645e-001 5.976756e-001 5.417162e-001 5.662887e-001 5.971983e-001
<GCONST> 1.296293e+002
<TRANSP> 5
 0.000000e+000 1.000000e+000 0.000000e+000 0.000000e+000 0.000000e+000
 0.000000e+000 5.989974e-001 4.010026e-001 0.000000e+000 0.000000e+000
 0.000000e+000 0.000000e+000 2.105871e-001 7.894129e-001 0.000000e+000
 0.000000e+000 0.000000e+000 0.000000e+000 2.111657e-001 7.888343e-001
 0.000000e+000 0.000000e+000 0.000000e+000 0.000000e+000 0.000000e+000
<ENDHMM>
~h "ea"
<BEGINHMM>
<NUMSTATES> 5
<STATE> 2
<MEAN> 39
