~o
<STREAMINFO> 1 39
<VECSIZE> 39<NULLD><MFCC_D_A_0><DIAGC>
~h "aa"
<BEGINHMM>
<NUMSTATES> 5
<STATE> 2
<MEAN> 39
 -1.038477e+000 -1.506676e+001 -1.250867e+001 -1.710764e+001 -8.947338e+000 -1.645550e+000 -7.105198e+000 8.131480e-001 -1.504394e+000 -8.356224e-001 -2.490114e+000 -5.415832e+000 6.489400e+001 1.006876e+000 -1.578108e+000 -1.576008e+000 -8.531640e-001 8.072367e-001 1.248243e+000 2.481722e-001 1.769294e-001 2.219735e-001 -1.368289e-002 6.552975e-002 -6.382965e-001 9.771807e-001 -5.482699e-001 3.765882e-001 2.184021e-001 4.904428e-001 3.752014e-001 1.938991e-002 2.428247e-001 -2.523930e-001 -1.384455e-001 -9.882232e-002 2.990805e-002 2.138508e-001 -5.652265e-001
<VARIANCE> 39
 1.456548e+001 3.801094e+001 4.996198e+001 6.787750e+001 6.435787e+001 1.000179e+002 8.344243e+001 7.933189e+001 7.235915e+001 5.594667e+001 7.335851e+001 4.300441e+001 2.122229e+001 2.539722e+000 2.166412e+000 2.848145e+000 3.432393e+000 4.228084e+000 4.342947e+000 4.988793e+000 4.898011e+000 4.090696e+000 3.395023e+000 3.706222e+000 3.284004e+000 1.181655e+000 3.890999e-001 3.229350e-001 3.931874e-001 5.364872e-001 6.954952e-001 9.124950e-001 9.392710e-001 8.492079e-001 7.190647e-001 6.329990e-001 6.749907e-001 5.611594e-001 3.276036e-001
<GCONST> 1.313114e+002
<STATE> 3
<MEAN> 39
 -2.535635e-001 -1.689669e+001 -1.680381e+001 -1.760472e+001 -4.057150e+000 2.145391e+000 -5.130039e+000 -1.719708e+000 -1.274463e+000 -2.230469e+000 -2.304672e+000 -5.985572e+000 6.502927e+001 3.507201e-002 -1.108619e-001 -2.233590e-001 4.162279e-001 3.090123e-001 -4.411663e-001 -2.528887e-001 2.307025e-001 1.978779e-001 -1.504960e-001 -1.518211e-001 -1.462450e-002 -3.274640e-002 -3.056757e-002 2.041852e-001 1.914769e-001 1.202303e-001 -1.990254e-001 -3.167940e-001 -1.424201e-001 1.330238e-001 -6.370161e-005 2.966065e-002 -5.743830e-002 6.167260e-002 -1.602480e-001
<VARIANCE> 39
 1.284956e+001 3.287050e+001 3.538845e+001 5.934387e+001 5.685334e+001 8.750484e+001 8.054877e+001 8.589629e+001 7.421831e+001 5.465507e+001 6.486962e+001 4.484958e+001 1.996031e+001 2.559337e-001 8.058521e-001 9.180587e-001 1.468976e+000 1.589008e+000 2.148792e+000 2.134308e+000 2.059063e+000 1.628358e+000 1.541553e+000 1.485547e+000 1.420936e+000 2.736458e-001 4.835622e-002 1.157217e-001 1.437004e-001 1.963705e-001 2.229863e-001 2.527954e-001 3.216833e-001 3.044863e-001 2.830957e-001 2.705612e-001 2.505662e-001 2.449977e-001 5.475086e-002
<GCONST> 1.015874e+002
<STATE> 4
<MEAN> 39
 -2.837204e+000 -1.295953e+001 -1.249521e+001 -1.262336e+001 -5.758616e+000 -3.781259e+000 -6.118003e+000 1.360420e-001 -9.196653e-001 -2.024842e+000 -4.441622e+000 -5.210043e+000 6.083129e+001 -1.471832e+000 1.987486e+000 1.702159e+000 1.757682e+000 -2.948105e-001 -1.233028e+000 -3.261589e-001 7.073281e-002 -3.564575e-001 7.427994e-002 7.954238e-002 7.461729e-001 -2.306131e+000 -4.800258e-001 1.525125e-001 2.106954e-001 1.300628e-001 1.567479e-001 2.215193e-001 9.663276e-002 -2.575015e-001 -1.174060e-001 1.779863e-002 1.426406e-001 9.872735e-002 -2.939476e-001
<VARIANCE> 39
 3.612657e+001 5.319937e+001 5.980216e+001 6.515611e+001 5.364926e+001 8.210722e+001 7.701931e+001 7.750386e+001 7.084655e+001 5.553672e+001 6.000095e+001 4.494218e+001 5.053945e+001 5.552701e+000 3.705566e+000 3.401561e+000 4.498593e+000 4.571327e+000 5.282506e+000 5.374944e+000 5.863594e+000 5.034464e+000 4.496192e+000 4.279206e+000 3.583814e+000 5.089439e+000 5.780159e-001 7.665560e-001 6.185448e-001 8.226190e-001 6.602292e-001 8.216341e-001 8.251752e-001 9.174545e-001 7.807567e-001 7.399077e-001 6.615402e-001 5.902656e-001 8.552777e-001
<GCONST> 1.405298e+002
<TRANSP> 5
 0.000000e+000 1.000000e+000 0.000000e+000 0.000000e+000 0.000000e+000
 0.000000e+000 6.411405e-001 3.588596e-001 0.000000e+000 0.000000e+000
 0.000000e+000 0.000000e+000 8.599025e-001 1.400975e-001 0.000000e+000
 0.000000e+000 0.000000e+000 0.000000e+000 6.991010e-001 3.008989e-001
 0.000000e+000 0.000000e+000 0.000000e+000 0.000000e+000 0.000000e+000
<ENDHMM>
