~o
<STREAMINFO> 1 39
<VECSIZE> 39<NULLD><MFCC_D_A_0><DIAGC>
~h "ae"
<BEGINHMM>
<NUMSTATES> 5
<STATE> 2
<MEAN> 39
 -4.126505e+000 -1.574574e+001 -5.887421e+000 -1.320245e+001 -1.426922e+001 -8.300031e+000 -4.574510e+000 4.626665e+000 -1.522925e+000 -2.788058e+000 -5.118809e+000 -4.450690e+000 6.563258e+001 1.445271e-001 -1.483343e+000 5.475001e-002 -8.155007e-001 -4.866518e-001 3.298927e-001 8.085781e-001 1.057334e+000 1.827434e-001 -5.246630e-001 -4.171516e-001 -2.807546e-001 1.254525e+000 -3.630475e-001 4.301429e-001 -3.389421e-002 2.601336e-001 4.381789e-001 2.530356e-001 1.865474e-001 -3.670880e-001 -1.340599e-001 2.920122e-003 7.876207e-002 1.574844e-001 -5.407280e-001
<VARIANCE> 39
 1.713058e+001 3.395662e+001 5.426496e+001 5.353812e+001 5.519793e+001 6.329310e+001 8.530378e+001 7.127293e+001 8.592629e+001 5.116337e+001 4.945637e+001 4.002436e+001 2.031109e+001 1.790000e+000 2.149750e+000 2.542018e+000 2.597021e+000 3.366485e+000 3.234487e+000 4.217618e+000 4.008067e+000 3.400686e+000 2.915803e+000 2.689471e+000 2.556952e+000 1.250114e+000 3.525265e-001 3.209214e-001 3.468313e-001 4.420670e-001 5.348630e-001 5.716127e-001 6.790612e-001 6.591933e-001 6.182438e-001 5.356872e-001 4.907072e-001 4.132680e-001 2.662771e-001
<GCONST> 1.247078e+002
<STATE> 3
<MEAN> 39
 -4.873954e+000 -1.728657e+001 -6.763309e+000 -1.333730e+001 -1.281267e+001 -6.500394e+000 -8.121485e-001 4.756544e+000 -2.068913e+000 -5.115459e+000 -6.392948e+000 -4.085321e+000 6.614157e+001 2.893199e-003 4.703765e-002 -1.671059e-001 4.741300e-002 2.219440e-001 4.231424e-003 1.264247e-002 -6.704900e-002 -3.602520e-003 -6.706454e-002 -7.647658e-002 2.068390e-002 -9.458859e-002 2.644768e-002 2.081715e-001 1.994990e-002 7.992905e-002 -2.218007e-003 -1.284538e-001 -1.744887e-001 -8.710557e-002 -2.231410e-002 1.168585e-001 6.432910e-002 4.501581e-003 -1.873219e-001
<VARIANCE> 39
 1.284471e+001 3.022185e+001 4.720784e+001 4.323566e+001 5.517104e+001 5.576941e+001 6.261592e+001 6.274862e+001 8.542516e+001 4.407272e+001 4.211797e+001 4.160358e+001 2.298821e+001 2.601403e-001 6.781753e-001 9.752960e-001 8.657027e-001 1.275492e+000 1.329194e+000 1.519604e+000 1.372909e+000 1.304707e+000 1.275469e+000 1.236135e+000 1.014905e+000 2.510712e-001 4.614971e-002 1.259677e-001 1.385280e-001 1.537228e-001 1.964696e-001 1.991182e-001 2.331460e-001 2.451802e-001 2.322523e-001 2.092252e-001 2.075904e-001 1.834252e-001 6.166886e-002
<GCONST> 9.493988e+001
<STATE> 4
<MEAN> 39
 -5.981284e+000 -1.097451e+001 -5.750981e+000 -1.048492e+001 -1.104570e+001 -9.130977e+000 -3.705586e+000 2.690149e+000 -3.150336e+000 -3.152273e+000 -5.128768e+000 -3.775933e+000 6.024872e+001 -1.289639e+000 2.649660e+000 5.564792e-001 1.467760e+000 9.720700e-001 -6.272831e-003 -4.100060e-001 -1.254683e+000 -6.014205e-001 4.525366e-001 4.958157e-001 2.610666e-001 -2.906036e+000 -4.678231e-001 1.417689e-001 7.479705e-003 1.675114e-001 2.673664e-001 3.245954e-001 1.394955e-001 -1.727991e-001 -5.784153e-003 -3.129288e-002 4.753371e-002 5.687081e-002 -3.129916e-001
<VARIANCE> 39
 2.954279e+001 5.760825e+001 6.155211e+001 5.551218e+001 6.552991e+001 6.349278e+001 6.621912e+001 6.869298e+001 7.904064e+001 5.513552e+001 5.904071e+001 4.255988e+001 6.401006e+001 5.313092e+000 3.501905e+000 3.333541e+000 4.033983e+000 4.989893e+000 5.128438e+000 5.166830e+000 5.454288e+000 5.491712e+000 4.637700e+000 4.452247e+000 3.536664e+000 4.672077e+000 5.582202e-001 9.354308e-001 5.739987e-001 7.748137e-001 7.452312e-001 7.666597e-001 7.969574e-001 9.021031e-001 9.109215e-001 8.015786e-001 7.576342e-001 5.778555e-001 9.872909e-001
<GCONST> 1.405130e+002
<TRANSP> 5
 0.000000e+000 1.000000e+000 0.000000e+000 0.000000e+000 0.000000e+000
 0.000000e+000 6.373616e-001 3.626384e-001 0.000000e+000 0.000000e+000
 0.000000e+000 0.000000e+000 8.807435e-001 1.192565e-001 0.000000e+000
 0.000000e+000 0.000000e+000 0.000000e+000 7.863595e-001 2.136405e-001
 0.000000e+000 0.000000e+000 0.000000e+000 0.000000e+000 0.000000e+000
<ENDHMM>
