~o
<STREAMINFO> 1 39
<VECSIZE> 39<NULLD><MFCC_D_A_0><DIAGC>
~h "ah"
<BEGINHMM>
<NUMSTATES> 5
<STATE> 2
<MEAN> 39
 -3.173246e+000 -1.212660e+001 -8.646284e+000 -1.602347e+001 -9.932522e+000 -4.098209e+000 -1.014888e+001 -3.790167e-001 -9.032231e-001 6.972122e-003 -3.189637e+000 -4.773005e+000 6.349038e+001 1.110314e+000 -1.660470e+000 -5.832300e-001 -8.898082e-001 -5.926140e-002 5.844584e-001 -7.244177e-001 5.631051e-001 9.973879e-001 2.138029e-001 -4.026946e-001 -8.438947e-001 1.154416e+000 -6.910555e-001 4.809020e-001 1.317676e-001 5.176330e-001 3.828113e-001 8.741169e-003 4.249877e-001 -1.525136e-001 -1.672372e-001 -1.117462e-001 -2.206770e-003 1.591846e-001 -6.661780e-001
<VARIANCE> 39
 2.683127e+001 3.875523e+001 5.588932e+001 6.302313e+001 5.866209e+001 9.650238e+001 7.333147e+001 6.778635e+001 6.454074e+001 6.494976e+001 8.245469e+001 4.905676e+001 2.935338e+001 3.740644e+000 2.925840e+000 2.954067e+000 4.740942e+000 4.799992e+000 5.166733e+000 5.239288e+000 5.232792e+000 4.906058e+000 4.344559e+000 4.353137e+000 3.708724e+000 2.315311e+000 6.081024e-001 4.585014e-001 4.963765e-001 6.752796e-001 7.539150e-001 1.071881e+000 9.306388e-001 9.514585e-001 8.180097e-001 7.978480e-001 8.790714e-001 7.209911e-001 4.195123e-001
<GCONST> 1.377476e+002
<STATE> 3
<MEAN> 39
 -2.615674e+000 -1.414549e+001 -1.056599e+001 -1.685269e+001 -7.389695e+000 -2.736892e+000 -9.635364e+000 3.906376e-001 7.986139e-001 -9.341869e-001 -5.034669e+000 -5.922967e+000 6.430991e+001 -1.196066e-002 4.332483e-001 1.585997e-001 2.960755e-001 1.128328e-001 -2.768005e-001 -3.481676e-002 -2.253339e-001 -1.568166e-001 1.601388e-002 -5.759915e-002 6.351605e-002 -5.251620e-001 -1.818603e-001 4.980028e-001 2.370344e-001 3.558588e-001 -4.249160e-002 -1.986915e-001 9.319599e-002 -2.526993e-001 -3.294664e-001 1.349234e-002 1.002611e-001 1.818758e-001 -5.033396e-001
<VARIANCE> 39
 1.481357e+001 3.177588e+001 3.993708e+001 5.656129e+001 5.307616e+001 8.700153e+001 7.078529e+001 6.170123e+001 6.565244e+001 6.973981e+001 7.158071e+001 5.041106e+001 2.729693e+001 6.404140e-001 1.401626e+000 1.639797e+000 2.039056e+000 2.162103e+000 2.944153e+000 2.555182e+000 2.783819e+000 2.509199e+000 2.332798e+000 2.333327e+000 2.199425e+000 1.197935e+000 2.163833e-001 2.842613e-001 2.544573e-001 3.813625e-001 4.078255e-001 4.823729e-001 5.470462e-001 5.824940e-001 5.231937e-001 4.673775e-001 4.387873e-001 4.231656e-001 2.328779e-001
<GCONST> 1.183555e+002
<STATE> 4
<MEAN> 39
 -5.634351e+000 -6.859081e+000 -6.542509e+000 -1.084141e+001 -7.086662e+000 -6.574142e+000 -8.659199e+000 -2.632399e+000 -2.659643e+000 -4.864888e-001 -4.118976e+000 -3.896331e+000 5.671914e+001 -1.939798e+000 2.498730e+000 1.098574e+000 2.227433e+000 6.852161e-001 -3.738664e-003 1.018309e+000 -1.200339e+000 -1.362407e+000 -3.410829e-001 1.820716e-001 6.126107e-001 -3.022876e+000 -5.182475e-001 -1.499777e-001 -7.232685e-002 -2.990629e-002 1.207053e-001 3.140101e-001 2.295368e-001 1.319820e-001 7.707894e-002 -5.684017e-002 8.452042e-004 6.316224e-003 1.359135e-002
<VARIANCE> 39
 4.642183e+001 4.936448e+001 4.618082e+001 6.650593e+001 5.218227e+001 6.924202e+001 6.389795e+001 6.326594e+001 6.358161e+001 5.980635e+001 6.263010e+001 4.173462e+001 6.245915e+001 5.701548e+000 3.706560e+000 3.709358e+000 4.903394e+000 5.151742e+000 6.355527e+000 5.686553e+000 6.731705e+000 6.040286e+000 5.585798e+000 5.098670e+000 4.071313e+000 5.405707e+000 6.273760e-001 8.229761e-001 4.999121e-001 9.291563e-001 6.771271e-001 8.108520e-001 8.454542e-001 1.020315e+000 8.514074e-001 8.194489e-001 7.788205e-001 6.049234e-001 1.018069e+000
<GCONST> 1.422420e+002
<TRANSP> 5
 0.000000e+000 1.000000e+000 0.000000e+000 0.000000e+000 0.000000e+000
 0.000000e+000 4.718589e-001 5.281411e-001 0.000000e+000 0.000000e+000
 0.000000e+000 0.000000e+000 7.806584e-001 2.193416e-001 0.000000e+000
 0.000000e+000 0.000000e+000 0.000000e+000 6.305282e-001 3.694718e-001
 0.000000e+000 0.000000e+000 0.000000e+000 0.000000e+000 0.000000e+000
<ENDHMM>
