~o
<STREAMINFO> 1 39
<VECSIZE> 39<NULLD><MFCC_D_A_0><DIAGC>
~h "ao"
<BEGINHMM>
<NUMSTATES> 5
<STATE> 2
<MEAN> 39
 8.559884e-001 -9.006530e+000 -1.338075e+001 -2.159317e+001 -1.202874e+001 1.108318e+000 -4.700913e+000 -1.540234e+000 -4.590405e+000 -1.352157e+000 1.536087e-001 -3.000120e+000 6.080223e+001 7.495030e-001 -7.069842e-001 -8.152512e-001 -1.332882e+000 1.398781e-001 1.227459e+000 4.083283e-001 -6.574214e-002 -2.075794e-001 -5.598268e-002 4.192519e-001 4.013283e-002 7.605127e-001 -4.822784e-001 1.197223e-001 1.021462e-001 5.253546e-001 3.992659e-001 -1.580982e-001 7.375913e-003 -5.126435e-002 6.248011e-002 -3.495962e-002 -4.539045e-002 1.128505e-001 -3.205572e-001
<VARIANCE> 39
 1.355579e+001 4.835821e+001 4.537003e+001 7.147783e+001 8.191318e+001 8.298986e+001 8.924693e+001 6.981136e+001 7.144184e+001 6.984084e+001 7.045001e+001 4.547697e+001 2.490834e+001 2.363182e+000 2.369942e+000 2.586392e+000 4.260563e+000 4.820676e+000 4.183458e+000 4.923460e+000 4.057738e+000 3.953994e+000 3.741550e+000 3.552959e+000 3.123458e+000 1.201852e+000 4.499976e-001 3.721173e-001 3.608541e-001 6.010869e-001 6.511025e-001 7.088469e-001 8.823971e-001 7.020285e-001 7.828303e-001 6.516236e-001 6.652632e-001 5.167909e-001 2.463200e-001
<GCONST> 1.313075e+002
<STATE> 3
<MEAN> 39
 8.764992e-001 -1.050162e+001 -1.533955e+001 -2.484290e+001 -8.922761e+000 5.886194e+000 -2.076755e+000 -3.469003e+000 -3.676233e+000 -2.422528e+000 2.347144e-001 -2.773137e+000 6.200879e+001 -3.047379e-002 -2.410682e-001 -1.433197e-001 3.560113e-001 4.487192e-001 -2.373218e-001 -3.523504e-001 -3.523509e-002 1.760246e-001 1.451959e-001 4.862164e-002 -1.144513e-001 1.315965e-001 -2.789744e-002 4.465694e-002 8.227090e-002 2.624036e-001 -2.654503e-002 -2.923483e-001 -1.990082e-001 5.997170e-002 6.122689e-002 7.993005e-002 -6.150209e-002 -6.431041e-002 -8.838028e-002
<VARIANCE> 39
 1.029500e+001 4.166076e+001 3.704524e+001 6.753970e+001 8.530550e+001 7.240798e+001 8.127934e+001 6.274832e+001 6.401963e+001 6.212390e+001 6.132391e+001 4.640198e+001 2.185104e+001 2.011417e-001 9.858267e-001 8.689328e-001 1.795673e+000 1.655089e+000 1.734759e+000 1.990186e+000 1.554056e+000 1.619422e+000 1.726149e+000 1.603950e+000 1.557173e+000 3.067739e-001 3.619507e-002 1.087822e-001 1.246358e-001 1.906371e-001 2.379378e-001 2.513052e-001 2.733207e-001 2.657255e-001 2.765119e-001 2.710360e-001 2.707755e-001 2.521161e-001 4.222179e-002
<GCONST> 1.007709e+002
<STATE> 4
<MEAN> 39
 -1.330619e+000 -1.132711e+001 -1.349512e+001 -1.512643e+001 -6.875547e+000 -2.058061e+000 -6.641555e+000 -1.472456e+000 -2.158905e+000 7.534546e-003 -1.067731e+000 -4.517276e+000 6.073643e+001 -1.183798e+000 6.613375e-001 1.123691e+000 2.367115e+000 1.313804e-001 -1.811558e+000 -8.122128e-001 3.204242e-001 4.565928e-001 1.084417e-002 -5.780207e-001 3.339167e-001 -1.081052e+000 -2.915884e-001 1.611020e-001 2.425053e-001 9.503960e-003 -1.040106e-001 2.868095e-002 1.234075e-001 -4.607467e-002 -9.639749e-002 -1.439619e-001 -3.890352e-002 1.870182e-001 -1.861823e-001
<VARIANCE> 39
 3.622620e+001 4.406571e+001 5.665009e+001 8.521848e+001 5.822403e+001 8.152647e+001 8.255756e+001 6.890282e+001 7.097816e+001 6.331179e+001 7.767924e+001 4.851171e+001 3.108178e+001 4.967848e+000 3.370420e+000 3.633000e+000 4.052864e+000 5.167767e+000 4.985557e+000 6.497062e+000 5.179143e+000 5.192304e+000 4.723297e+000 4.456664e+000 4.079717e+000 2.543547e+000 5.151413e-001 4.666444e-001 5.527017e-001 7.787507e-001 7.128946e-001 8.282467e-001 8.937759e-001 8.459353e-001 8.051322e-001 7.992754e-001 7.979730e-001 6.764159e-001 3.998909e-001
<GCONST> 1.389848e+002
<TRANSP> 5
 0.000000e+000 1.000000e+000 0.000000e+000 0.000000e+000 0.000000e+000
 0.000000e+000 6.336905e-001 3.663095e-001 0.000000e+000 0.000000e+000
 0.000000e+000 0.000000e+000 8.607559e-001 1.392441e-001 0.000000e+000
 0.000000e+000 0.000000e+000 0.000000e+000 7.121316e-001 2.878684e-001
 0.000000e+000 0.000000e+000 0.000000e+000 0.000000e+000 0.000000e+000
<ENDHMM>
