~o
<STREAMINFO> 1 39
<VECSIZE> 39<NULLD><MFCC_D_A_0><DIAGC>
~h "aw"
<BEGINHMM>
<NUMSTATES> 5
<STATE> 2
<MEAN> 39
 -3.788481e+000 -1.719794e+001 -9.321399e+000 -1.405899e+001 -9.416354e+000 -4.967703e+000 -4.484709e+000 2.455817e+000 -1.866809e+000 -3.221129e+000 -6.593585e+000 -4.549915e+000 6.639138e+001 4.418888e-001 -1.566763e+000 -7.756652e-001 -4.627593e-001 4.707211e-001 7.926974e-001 8.487797e-002 3.161615e-001 5.584418e-001 -3.824158e-001 -5.651556e-001 -4.234030e-001 1.112055e+000 -3.476890e-001 4.658839e-001 3.288615e-002 2.621464e-001 3.442924e-001 2.343363e-001 8.268116e-002 -3.922870e-001 -1.355204e-001 4.410520e-002 1.668379e-001 1.063828e-001 -6.034164e-001
<VARIANCE> 39
 1.400150e+001 3.280970e+001 5.627532e+001 5.116180e+001 6.440766e+001 7.319680e+001 8.066422e+001 7.413728e+001 7.075670e+001 5.416140e+001 4.694345e+001 4.157884e+001 1.769663e+001 1.781679e+000 2.387333e+000 2.348994e+000 2.875746e+000 3.655940e+000 3.238996e+000 4.056721e+000 4.203119e+000 3.245271e+000 2.787632e+000 2.745542e+000 2.672434e+000 1.429788e+000 3.814873e-001 3.460247e-001 3.425545e-001 4.778118e-001 6.063306e-001 5.872532e-001 6.941657e-001 7.089517e-001 6.345681e-001 5.233540e-001 4.921454e-001 4.488709e-001 2.573996e-001
<GCONST> 1.253009e+002
<STATE> 3
<MEAN> 39
 -2.236928e+000 -1.757341e+001 -1.344854e+001 -1.534773e+001 -4.828344e+000 -1.367984e-002 -4.815075e+000 -1.684549e+000 -1.804012e-002 -3.978411e+000 -5.568776e+000 -5.465319e+000 6.550813e+001 2.602148e-001 3.942570e-001 -3.999686e-001 -4.709176e-001 2.376097e-001 5.616893e-001 -2.298476e-001 -4.630758e-001 -2.506713e-002 2.447234e-001 3.727408e-001 -2.393842e-002 -3.476132e-001 1.205606e-002 1.767913e-001 7.953685e-002 -1.103100e-003 -1.681685e-001 -1.224199e-001 -2.334587e-002 2.597493e-002 -6.954268e-002 7.790287e-002 6.167453e-002 5.731979e-002 -1.322422e-001
<VARIANCE> 39
 1.361191e+001 3.151039e+001 4.027548e+001 5.469515e+001 5.722392e+001 7.917263e+001 8.170976e+001 6.663718e+001 6.638148e+001 5.529109e+001 5.427456e+001 4.466055e+001 2.265975e+001 2.390518e-001 7.436773e-001 7.649094e-001 1.302817e+000 1.606623e+000 1.532821e+000 1.725277e+000 1.706672e+000 1.655212e+000 1.493746e+000 1.536082e+000 1.418766e+000 2.386306e-001 3.981822e-002 1.026752e-001 1.213963e-001 1.847238e-001 2.147308e-001 2.392633e-001 2.798742e-001 2.628351e-001 2.623486e-001 2.205163e-001 2.467375e-001 2.316156e-001 4.073758e-002
<GCONST> 9.829269e+001
<STATE> 4
<MEAN> 39
 -1.565191e+000 -1.033593e+001 -1.321230e+001 -1.736123e+001 -7.129076e+000 1.488052e-001 -6.140778e+000 -4.018026e+000 -2.243509e+000 -1.309961e-001 -2.787967e+000 -4.475358e+000 5.966877e+001 -8.385089e-001 1.703482e+000 1.177901e+000 1.479526e+000 -5.848597e-001 -1.152385e+000 -7.836007e-002 -3.229760e-001 -6.259081e-001 2.813302e-001 8.031724e-002 4.087364e-001 -1.962596e+000 -3.736517e-001 1.060889e-002 2.429345e-001 4.250123e-001 1.657474e-001 -1.643438e-001 6.495028e-002 3.284168e-002 -3.082854e-002 -1.131307e-001 -1.398562e-001 3.404632e-002 -1.841227e-001
<VARIANCE> 39
 2.613624e+001 4.869553e+001 4.564311e+001 8.644444e+001 6.175301e+001 8.187913e+001 7.877061e+001 6.014314e+001 6.552956e+001 6.271030e+001 6.772990e+001 4.346344e+001 4.380058e+001 3.946858e+000 3.235880e+000 3.138664e+000 5.808887e+000 4.817256e+000 4.313438e+000 5.101973e+000 5.290854e+000 4.651583e+000 4.379559e+000 4.329468e+000 3.341430e+000 3.278035e+000 3.937081e-001 5.349194e-001 4.795354e-001 8.616502e-001 7.152035e-001 7.469880e-001 7.828643e-001 7.969934e-001 7.562294e-001 7.487783e-001 6.772903e-001 5.451009e-001 5.054143e-001
<GCONST> 1.370517e+002
<TRANSP> 5
 0.000000e+000 1.000000e+000 0.000000e+000 0.000000e+000 0.000000e+000
 0.000000e+000 6.889932e-001 3.110068e-001 0.000000e+000 0.000000e+000
 0.000000e+000 0.000000e+000 8.914694e-001 1.085306e-001 0.000000e+000
 0.000000e+000 0.000000e+000 0.000000e+000 7.857143e-001 2.142857e-001
 0.000000e+000 0.000000e+000 0.000000e+000 0.000000e+000 0.000000e+000
<ENDHMM>
