~o
<STREAMINFO> 1 39
<VECSIZE> 39<NULLD><MFCC_D_A_0><DIAGC>
~h "ax"
<BEGINHMM>
<NUMSTATES> 5
<STATE> 2
<MEAN> 39
 -1.375995e+000 -1.037845e+001 -8.588365e+000 -1.167647e+001 -9.278894e+000 -9.148396e+000 -1.301803e+001 -1.240056e+000 -1.586665e+000 -3.507669e-001 -2.430663e+000 -2.786838e+000 5.995837e+001 1.840530e+000 -1.094547e+000 -7.840012e-001 -5.471522e-001 -5.695361e-002 -3.886480e-001 -1.620210e+000 6.691579e-001 4.664795e-001 1.087546e-001 -3.723496e-003 -7.982004e-002 5.642313e-001 -7.805971e-001 4.517114e-001 1.511279e-001 3.427621e-001 2.999779e-001 2.975775e-001 5.807812e-001 -7.953008e-002 -2.050067e-001 -1.517458e-001 3.686837e-002 1.184229e-001 -6.118301e-001
<VARIANCE> 39
 2.112313e+001 3.414581e+001 7.008560e+001 7.394959e+001 5.975643e+001 9.158865e+001 7.797453e+001 7.364320e+001 6.870654e+001 6.099451e+001 6.075995e+001 4.037555e+001 1.992789e+001 4.428107e+000 2.653831e+000 3.769866e+000 4.733010e+000 4.700151e+000 5.699008e+000 6.085922e+000 5.939888e+000 4.974780e+000 4.243572e+000 3.824874e+000 3.207711e+000 1.559562e+000 7.688178e-001 4.766941e-001 5.594806e-001 7.769186e-001 7.075939e-001 9.078584e-001 1.082264e+000 8.990458e-001 8.831732e-001 8.014092e-001 7.669512e-001 5.783178e-001 4.953829e-001
<GCONST> 1.372670e+002
<STATE> 3
<MEAN> 39
 5.772001e-001 -1.130458e+001 -1.172152e+001 -1.047267e+001 -7.422018e+000 -9.768411e+000 -1.402812e+001 1.292596e+000 -1.425952e-001 -1.338820e+000 -2.479506e+000 -2.064444e+000 5.883554e+001 9.387996e-002 4.205530e-001 -3.096325e-001 2.728951e-001 5.391348e-001 -6.045203e-002 -1.900578e-001 -2.822588e-002 7.217012e-002 -1.342064e-001 -1.376265e-001 9.646543e-002 -5.817182e-001 -5.288652e-001 4.782830e-001 3.285478e-001 3.026725e-001 4.651347e-002 1.301287e-001 5.432221e-001 -3.108709e-001 -2.908632e-001 -8.035664e-002 -9.430246e-003 3.360401e-002 -4.623196e-001
<VARIANCE> 39
 1.611760e+001 3.270150e+001 6.915604e+001 8.117657e+001 6.334641e+001 1.112918e+002 9.924823e+001 8.938940e+001 7.679401e+001 5.882907e+001 5.428798e+001 4.371619e+001 2.047779e+001 9.564275e-001 1.379265e+000 2.647941e+000 2.487689e+000 2.835354e+000 2.872370e+000 3.329392e+000 3.226630e+000 3.270180e+000 2.722744e+000 2.561139e+000 2.108525e+000 9.890140e-001 4.897354e-001 4.005344e-001 3.688772e-001 5.530502e-001 5.638619e-001 6.838146e-001 8.709866e-001 7.523888e-001 6.540781e-001 5.899681e-001 5.340769e-001 4.490781e-001 3.600068e-001
<GCONST> 1.262359e+002
<STATE> 4
<MEAN> 39
 -3.175763e+000 -6.038640e+000 -8.457342e+000 -1.015265e+001 -6.288878e+000 -7.654473e+000 -1.123080e+001 -2.838318e+000 -2.626324e+000 -8.141919e-001 -2.873744e+000 -2.571844e+000 5.554497e+001 -1.728863e+000 1.752566e+000 6.058328e-001 1.528435e+000 7.509004e-001 3.122439e-001 1.390237e+000 -4.910963e-001 -8.700963e-001 -6.294950e-001 -6.877688e-002 3.174014e-001 -2.100704e+000 -5.121503e-001 1.459217e-002 8.850768e-002 7.675682e-002 1.426989e-002 1.909066e-001 3.175609e-001 8.112866e-002 -2.476167e-003 -7.441513e-003 -1.149119e-002 -3.908770e-003 -1.354281e-001
<VARIANCE> 39
 4.615274e+001 5.036491e+001 5.964686e+001 7.496192e+001 5.623208e+001 8.489417e+001 8.323227e+001 7.783755e+001 6.964593e+001 5.383850e+001 5.014656e+001 3.785553e+001 3.901510e+001 5.236600e+000 3.252208e+000 3.411994e+000 5.312095e+000 4.247224e+000 4.899581e+000 5.314780e+000 5.853132e+000 5.276055e+000 4.462843e+000 4.204703e+000 3.216867e+000 4.816555e+000 6.243207e-001 7.079662e-001 5.116940e-001 7.359630e-001 6.455228e-001 7.904034e-001 9.707825e-001 8.896944e-001 7.971410e-001 7.052758e-001 6.356207e-001 5.375094e-001 6.510409e-001
<GCONST> 1.393724e+002
<TRANSP> 5
 0.000000e+000 1.000000e+000 0.000000e+000 0.000000e+000 0.000000e+000
 0.000000e+000 3.176107e-001 6.823893e-001 0.000000e+000 0.000000e+000
 0.000000e+000 0.000000e+000 5.632457e-001 4.367543e-001 0.000000e+000
 0.000000e+000 0.000000e+000 0.000000e+000 4.389026e-001 5.610975e-001
 0.000000e+000 0.000000e+000 0.000000e+000 0.000000e+000 0.000000e+000
<ENDHMM>
