~o
<STREAMINFO> 1 39
<VECSIZE> 39<NULLD><MFCC_D_A_0><DIAGC>
~h "ay"
<BEGINHMM>
<NUMSTATES> 5
<STATE> 2
<MEAN> 39
 -1.569498e+000 -1.522334e+001 -1.373840e+001 -1.820112e+001 -5.709851e+000 9.488878e-001 -5.208799e+000 -2.292046e+000 1.517163e-001 -2.393453e-001 -4.158338e+000 -6.791999e+000 6.477895e+001 2.829035e-001 -1.763898e+000 -1.903599e-001 2.262513e-001 2.818400e-001 6.463969e-002 -5.331275e-002 5.992404e-001 8.211638e-001 -3.769433e-001 -8.313113e-001 -6.206633e-001 1.022516e+000 -4.429759e-001 4.502211e-001 4.428991e-001 5.144004e-001 -8.271673e-002 -4.401186e-001 9.255600e-002 1.058195e-001 -2.276808e-001 -1.700504e-001 7.908065e-002 3.549110e-001 -4.672557e-001
<VARIANCE> 39
 1.225598e+001 3.662263e+001 3.844965e+001 5.599289e+001 5.562156e+001 8.729884e+001 6.860775e+001 6.577549e+001 6.193378e+001 6.239605e+001 6.789420e+001 4.496972e+001 1.993766e+001 2.191134e+000 1.957570e+000 2.754754e+000 4.075387e+000 3.448278e+000 4.823085e+000 3.546194e+000 4.036720e+000 3.233093e+000 3.088119e+000 3.040886e+000 3.287359e+000 1.106447e+000 4.254969e-001 3.167842e-001 3.470516e-001 5.675721e-001 6.899641e-001 7.059811e-001 6.376954e-001 7.114533e-001 6.212518e-001 5.869501e-001 6.742459e-001 5.905154e-001 2.389646e-001
<GCONST> 1.271890e+002
<STATE> 3
<MEAN> 39
 -2.795188e+000 -1.816203e+001 -1.169122e+001 -1.385582e+001 -6.392062e+000 -3.145276e+000 -4.306171e+000 9.135561e-001 7.278257e-001 -4.307986e+000 -6.416280e+000 -5.501878e+000 6.567018e+001 -2.308832e-001 1.390196e-001 8.591764e-001 3.938884e-001 -8.631924e-001 -9.878167e-001 2.134977e-001 7.421917e-001 -2.307543e-001 -2.585984e-001 6.535822e-002 3.819845e-001 -9.189131e-002 -1.613674e-003 2.452985e-001 1.181036e-001 -4.382269e-002 -1.571516e-001 -7.147717e-002 -3.050459e-002 -8.696080e-002 -1.551450e-001 1.252685e-001 1.740870e-001 5.154235e-002 -1.498844e-001
<VARIANCE> 39
 1.201821e+001 2.978198e+001 4.465857e+001 4.127799e+001 6.311742e+001 7.745969e+001 7.025667e+001 7.219325e+001 7.429875e+001 5.161171e+001 4.738156e+001 4.813252e+001 2.063663e+001 2.583900e-001 8.257650e-001 1.304126e+000 1.344390e+000 2.143677e+000 2.110753e+000 2.148004e+000 2.311487e+000 1.787992e+000 1.701153e+000 1.732146e+000 1.596962e+000 2.318981e-001 4.151377e-002 1.297826e-001 1.457747e-001 1.761396e-001 2.694889e-001 2.464964e-001 2.968036e-001 3.703139e-001 3.242251e-001 2.883045e-001 2.992899e-001 2.728992e-001 5.344518e-002
<GCONST> 1.023017e+002
<STATE> 4
<MEAN> 39
 -6.245705e+000 -1.007192e+001 -1.730825e+000 -1.064189e+001 -1.434780e+001 -1.121990e+001 -3.512296e+000 2.010053e+000 -4.617104e+000 -2.181961e+000 -3.233077e+000 -2.186540e+000 5.958953e+001 -1.197572e+000 2.326674e+000 8.525313e-001 1.360101e+000 4.583545e-001 -5.449968e-003 -1.270294e-001 -1.297346e+000 -9.261141e-001 3.262899e-001 6.026589e-001 3.193803e-001 -2.594761e+000 -2.789691e-001 3.481453e-002 -4.935526e-001 1.048682e-001 6.915799e-001 5.589257e-001 1.458217e-002 -2.303791e-001 2.350328e-001 -1.682594e-002 -1.505630e-001 -1.284556e-001 -3.231085e-001
<VARIANCE> 39
 2.618884e+001 6.029864e+001 5.214702e+001 7.195644e+001 6.308240e+001 5.818703e+001 7.412305e+001 7.797978e+001 7.060490e+001 4.697124e+001 5.241078e+001 3.574073e+001 6.056104e+001 3.653696e+000 2.976773e+000 4.539221e+000 5.041860e+000 8.138032e+000 6.015101e+000 5.153464e+000 5.471722e+000 5.921237e+000 4.497964e+000 4.178524e+000 3.673664e+000 4.861871e+000 4.222057e-001 7.722179e-001 5.707275e-001 8.274178e-001 9.310415e-001 7.826318e-001 8.631998e-001 1.193094e+000 9.905687e-001 7.589979e-001 6.967001e-001 5.994669e-001 8.364408e-001
<GCONST> 1.407348e+002
<TRANSP> 5
 0.000000e+000 1.000000e+000 0.000000e+000 0.000000e+000 0.000000e+000
 0.000000e+000 6.704812e-001 3.295188e-001 0.000000e+000 0.000000e+000
 0.000000e+000 0.000000e+000 8.704888e-001 1.295112e-001 0.000000e+000
 0.000000e+000 0.000000e+000 0.000000e+000 7.843544e-001 2.156456e-001
 0.000000e+000 0.000000e+000 0.000000e+000 0.000000e+000 0.000000e+000
<ENDHMM>
