~o
<STREAMINFO> 1 39
<VECSIZE> 39<NULLD><MFCC_D_A_0><DIAGC>
~h "b"
<BEGINHMM>
<NUMSTATES> 5
<STATE> 2
<MEAN> 39
 -5.221068e+000 3.422572e+000 -2.204685e+000 -1.625874e+000 -3.169900e+000 -3.365103e+000 -7.908255e+000 -8.586718e+000 -8.634199e+000 -4.750220e+000 -3.861322e+000 -4.722376e+000 4.137574e+001 -1.067144e+000 1.180004e+000 5.699777e-001 1.179878e+000 9.483588e-001 6.411108e-001 7.087856e-001 -9.435438e-002 -1.403657e-001 -4.004227e-001 -2.642188e-001 -1.637358e-002 -1.795118e+000 -1.559367e-001 -1.028070e+000 -2.510096e-001 -7.821668e-001 -4.931880e-001 -2.514180e-001 -4.293934e-002 5.731165e-001 4.779837e-001 3.702793e-001 1.864781e-001 2.213049e-001 1.360438e+000
<VARIANCE> 39
 2.301691e+001 2.557288e+001 2.283834e+001 3.571527e+001 2.718002e+001 3.586269e+001 3.529754e+001 3.240216e+001 3.426037e+001 3.194848e+001 3.425193e+001 2.763465e+001 2.741462e+001 3.161931e+000 5.954858e+000 3.693503e+000 5.788145e+000 3.864533e+000 3.825071e+000 4.415980e+000 4.810318e+000 4.687791e+000 3.797530e+000 3.334903e+000 2.756340e+000 9.221428e+000 3.720246e-001 7.791620e-001 7.357836e-001 8.724572e-001 7.279568e-001 6.913772e-001 8.931297e-001 8.385300e-001 8.379573e-001 7.453929e-001 6.621308e-001 5.482759e-001 9.605000e-001
<GCONST> 1.307301e+002
<STATE> 3
<MEAN> 39
 -1.368578e+001 -6.617904e-001 -3.435075e+000 -1.592878e+000 -1.530848e+000 -1.218378e+000 -3.273247e+000 -3.196584e+000 -3.638310e+000 -1.991339e+000 -2.088320e+000 -1.966214e+000 3.964435e+001 1.921938e-001 -2.024062e+000 -8.784980e-001 -1.783127e+000 -1.124346e+000 -7.089937e-001 -9.243024e-002 8.612686e-001 1.000919e+000 7.305331e-001 5.632341e-001 4.442845e-001 3.230352e+000 7.739186e-001 -3.978651e-001 -1.601213e-001 -8.396923e-001 -6.415638e-001 -3.594063e-001 -4.627540e-001 -8.530066e-002 -1.183340e-001 5.126584e-002 6.577577e-002 -5.465577e-002 1.284464e+000
<VARIANCE> 39
 4.030104e+001 2.839042e+001 2.296416e+001 2.960078e+001 2.017284e+001 2.409383e+001 2.547631e+001 2.959654e+001 3.228688e+001 2.756954e+001 2.154265e+001 1.866604e+001 7.154618e+001 4.637583e+000 4.037471e+000 3.889659e+000 5.955690e+000 3.876544e+000 4.070765e+000 4.319711e+000 4.348951e+000 4.547589e+000 3.631852e+000 3.084024e+000 2.562213e+000 1.190248e+001 7.551816e-001 7.579942e-001 8.591724e-001 9.808738e-001 7.609451e-001 8.469298e-001 7.527871e-001 8.146935e-001 8.625596e-001 7.498683e-001 6.767927e-001 4.898393e-001 1.461901e+000
<GCONST> 1.314068e+002
<STATE> 4
<MEAN> 39
 -4.942723e+000 -7.705184e+000 -5.858654e+000 -1.251361e+001 -9.794522e+000 -6.295746e+000 -8.318236e+000 -3.174548e+000 -3.460009e+000 -7.169539e-001 -6.281736e-001 -1.703291e+000 5.850301e+001 2.024160e+000 -1.969606e+000 -5.037344e-001 -3.039679e+000 -2.127093e+000 -4.343722e-001 -1.070107e+000 5.411517e-001 1.540641e-002 5.199010e-001 2.470367e-001 -5.107241e-002 3.499214e+000 -2.383941e-001 5.780981e-001 2.405721e-001 6.067980e-001 4.464085e-001 4.036655e-001 2.057296e-001 -1.152007e-001 -2.483991e-001 -2.194993e-001 -2.666619e-001 -2.003730e-001 -1.232037e+000
<VARIANCE> 39
 4.557215e+001 3.639845e+001 8.529358e+001 8.195703e+001 5.323935e+001 7.299219e+001 6.195009e+001 5.158912e+001 5.398756e+001 4.282054e+001 4.270955e+001 3.071873e+001 3.097062e+001 4.788741e+000 5.407051e+000 7.922155e+000 7.447767e+000 6.578573e+000 7.348969e+000 7.413560e+000 7.275815e+000 7.165388e+000 5.185033e+000 5.029543e+000 3.814411e+000 6.775472e+000 8.428887e-001 6.023047e-001 6.740609e-001 9.122092e-001 8.005064e-001 8.073770e-001 9.509176e-001 8.982929e-001 8.996102e-001 7.246844e-001 6.603206e-001 5.303566e-001 5.808862e-001
<GCONST> 1.425379e+002
<TRANSP> 5
 0.000000e+000 1.000000e+000 0.000000e+000 0.000000e+000 0.000000e+000
 0.000000e+000 7.139995e-001 2.860005e-001 0.000000e+000 0.000000e+000
 0.000000e+000 0.000000e+000 6.273454e-001 3.726546e-001 0.000000e+000
 0.000000e+000 0.000000e+000 0.000000e+000 6.238472e-001 3.761528e-001
 0.000000e+000 0.000000e+000 0.000000e+000 0.000000e+000 0.000000e+000
<ENDHMM>
