~o
<STREAMINFO> 1 39
<VECSIZE> 39<NULLD><MFCC_D_A_0><DIAGC>
~h "ch"
<BEGINHMM>
<NUMSTATES> 5
<STATE> 2
<MEAN> 39
 -3.003590e+001 -5.098851e+000 7.750577e-001 -1.257944e+001 -3.514682e+000 1.044750e+000 -3.665527e+000 2.762957e-001 -3.122526e-001 -1.081765e+000 2.030435e-001 -5.360897e-002 5.708273e+001 -2.056607e+000 5.869686e-001 9.407752e-001 -3.448368e-001 -7.104650e-001 1.095563e-001 8.144537e-001 2.278738e-001 2.708021e-001 1.711443e-001 2.653158e-001 2.027605e-001 2.836894e+000 9.744574e-001 8.731490e-002 6.397651e-003 6.966131e-001 -2.918279e-001 -5.007882e-001 5.234694e-002 -1.365291e-001 -2.955374e-001 -7.210765e-002 -2.474936e-001 -9.619742e-002 -8.215234e-001
<VARIANCE> 39
 2.356712e+001 3.670399e+001 3.501556e+001 2.574602e+001 3.710395e+001 2.391309e+001 2.267212e+001 2.379459e+001 1.982985e+001 1.677119e+001 1.435150e+001 1.137894e+001 2.183842e+001 3.541883e+000 3.299675e+000 2.903653e+000 3.161694e+000 2.868722e+000 2.698397e+000 2.232097e+000 2.452736e+000 2.026037e+000 1.997806e+000 1.720881e+000 1.504419e+000 3.798450e+000 6.348864e-001 7.684850e-001 7.007205e-001 6.741745e-001 5.758294e-001 5.145231e-001 5.211154e-001 5.153532e-001 4.521504e-001 4.304261e-001 3.558841e-001 3.199791e-001 8.080027e-001
<GCONST> 1.163938e+002
<STATE> 3
<MEAN> 39
 -2.976908e+001 -6.414828e+000 2.458503e+000 -1.023418e+001 -8.153779e+000 -1.230275e+000 -6.409703e-001 -3.682851e-001 -6.957301e-001 -8.103912e-001 -3.475932e-001 2.002681e-001 6.091013e+001 1.625635e+000 -4.117077e-001 -2.316523e-001 7.157277e-001 -7.469291e-001 -1.201288e+000 4.576784e-002 -1.711024e-004 -3.810412e-001 -1.620953e-001 -3.163134e-001 -1.517542e-001 -2.013889e-001 9.816195e-001 -1.030001e-001 -2.186787e-001 7.642105e-002 1.134092e-001 -2.420361e-001 -4.536203e-001 -4.239256e-003 -1.248568e-001 -1.549868e-001 -9.758259e-002 -8.121254e-002 -6.163064e-001
<VARIANCE> 39
 1.541490e+001 2.414469e+001 2.528242e+001 2.445414e+001 3.800166e+001 2.386277e+001 2.321927e+001 2.153700e+001 1.945421e+001 1.718667e+001 1.610805e+001 1.403991e+001 1.426241e+001 3.341446e+000 1.269557e+000 2.022526e+000 1.938418e+000 2.479077e+000 2.489254e+000 2.114750e+000 2.147186e+000 1.767611e+000 1.713601e+000 1.615223e+000 1.279695e+000 1.973698e+000 5.730523e-001 3.018908e-001 4.633315e-001 3.420886e-001 4.828615e-001 4.991251e-001 5.381758e-001 4.387867e-001 4.000044e-001 3.955225e-001 3.611519e-001 3.024056e-001 3.806373e-001
<GCONST> 1.081109e+002
<STATE> 4
<MEAN> 39
 -1.578246e+001 -8.330979e+000 3.884996e-001 -7.209687e+000 -1.007665e+001 -7.597128e+000 -4.955123e+000 -4.145063e-001 -2.895240e+000 -3.083815e+000 -2.322363e+000 -1.238772e+000 5.696745e+001 4.712178e+000 -6.622092e-001 -7.952092e-001 -1.592143e-001 -6.020817e-001 -1.411389e+000 -2.165729e+000 4.395379e-002 -7.509330e-001 -4.985325e-001 -3.725699e-001 -3.715626e-001 -7.465085e-001 -3.349560e-001 -1.279382e-001 -1.811160e-001 -4.982454e-001 1.055321e-001 4.438770e-001 -1.137919e-001 9.075423e-002 9.897266e-002 2.210927e-001 1.915609e-001 3.410119e-002 2.983125e-001
<VARIANCE> 39
 7.838759e+001 3.113321e+001 4.440478e+001 4.576630e+001 4.966117e+001 4.683991e+001 5.188038e+001 3.818058e+001 4.257663e+001 2.863443e+001 2.877809e+001 2.033458e+001 4.495495e+001 4.650256e+000 3.436927e+000 4.659444e+000 4.448914e+000 6.140266e+000 6.730237e+000 7.471887e+000 5.063677e+000 5.346541e+000 4.339058e+000 4.065155e+000 2.882860e+000 6.823730e+000 1.105626e+000 4.707152e-001 5.270822e-001 5.305494e-001 7.774505e-001 7.828420e-001 1.049680e+000 7.903822e-001 7.365574e-001 6.423640e-001 5.546973e-001 4.302595e-001 7.107180e-001
<GCONST> 1.352711e+002
<TRANSP> 5
 0.000000e+000 1.000000e+000 0.000000e+000 0.000000e+000 0.000000e+000
 0.000000e+000 6.275487e-001 3.724513e-001 0.000000e+000 0.000000e+000
 0.000000e+000 0.000000e+000 7.563723e-001 2.436277e-001 0.000000e+000
 0.000000e+000 0.000000e+000 0.000000e+000 6.452309e-001 3.547691e-001
 0.000000e+000 0.000000e+000 0.000000e+000 0.000000e+000 0.000000e+000
<ENDHMM>
