~o
<STREAMINFO> 1 39
<VECSIZE> 39<NULLD><MFCC_D_A_0><DIAGC>
~h "d"
<BEGINHMM>
<NUMSTATES> 5
<STATE> 2
<MEAN> 39
 -7.819291e+000 -4.532769e-002 1.346357e+000 -1.020629e+000 -7.540498e+000 -7.597788e+000 -8.012311e+000 -5.053364e+000 -5.775510e+000 -5.188913e+000 -6.140763e+000 -3.836742e+000 4.463879e+001 -1.349573e+000 8.006529e-001 5.869734e-002 6.160845e-001 1.481196e+000 1.055618e+000 5.218514e-001 -3.771289e-001 4.577545e-002 1.613416e-002 -5.306172e-002 -1.409929e-001 -1.438444e+000 -1.221543e-001 -1.053290e+000 -2.768491e-001 -1.055543e+000 -4.670890e-001 -2.281045e-002 -6.670160e-002 5.159273e-001 2.419813e-001 3.463624e-001 4.662044e-001 2.863537e-001 1.537888e+000
<VARIANCE> 39
 2.905021e+001 5.125087e+001 4.253566e+001 5.828357e+001 5.035562e+001 4.051820e+001 3.896813e+001 4.528926e+001 4.786337e+001 3.701722e+001 3.491639e+001 2.865434e+001 6.150212e+001 3.697842e+000 7.194934e+000 4.007082e+000 6.995895e+000 5.704002e+000 5.870125e+000 5.472694e+000 5.269263e+000 4.714962e+000 4.050896e+000 4.018225e+000 3.395858e+000 1.027495e+001 5.051326e-001 9.611181e-001 6.132907e-001 1.012372e+000 1.027133e+000 8.436695e-001 1.010713e+000 9.469835e-001 8.609064e-001 8.014811e-001 7.576110e-001 6.244414e-001 1.434220e+000
<GCONST> 1.396372e+002
<STATE> 3
<MEAN> 39
 -1.401422e+001 -5.268608e+000 -1.454324e+000 -5.081620e+000 -4.923519e+000 -3.361641e+000 -5.182898e+000 -2.605354e+000 -3.310637e+000 -2.573964e+000 -2.722070e+000 -1.727083e+000 4.758253e+001 -9.293796e-001 -1.750306e+000 -4.174234e-001 -1.990075e+000 -7.787574e-001 -1.448648e-001 3.838136e-002 7.914924e-001 6.300699e-001 6.398377e-001 8.482254e-001 6.919479e-001 3.180896e+000 5.686857e-001 -6.504552e-002 6.426029e-002 -3.251646e-001 -7.458153e-001 -5.644295e-001 -3.504871e-001 1.453443e-001 -8.546583e-002 1.947077e-002 -2.597591e-002 -4.044489e-002 8.424339e-001
<VARIANCE> 39
 5.459774e+001 5.174327e+001 4.914153e+001 5.235450e+001 4.940585e+001 4.629067e+001 4.154288e+001 3.388628e+001 3.488848e+001 2.862103e+001 2.397717e+001 1.933385e+001 1.078805e+002 5.840251e+000 5.024964e+000 3.960152e+000 5.536859e+000 4.534785e+000 4.717525e+000 4.898196e+000 4.521212e+000 4.411168e+000 3.531729e+000 3.510314e+000 2.758833e+000 9.472280e+000 7.311826e-001 9.245923e-001 8.544899e-001 1.095240e+000 1.113898e+000 1.223537e+000 1.015530e+000 9.650555e-001 8.348542e-001 7.382671e-001 7.448580e-001 5.616830e-001 1.675835e+000
<GCONST> 1.390723e+002
<STATE> 4
<MEAN> 39
 -1.022957e+001 -8.556607e+000 -1.362457e+000 -9.589928e+000 -1.128707e+001 -8.569598e+000 -8.586020e+000 -1.024434e+000 -2.489904e+000 -1.959067e+000 -2.094680e+000 -8.778707e-001 5.872215e+001 1.349261e+000 -8.941280e-001 -1.470965e-001 -1.034220e+000 -1.512734e+000 -9.222261e-001 -1.035452e+000 8.503771e-001 1.176564e-001 3.334685e-001 1.741096e-001 -2.854742e-002 1.992782e+000 3.187268e-001 2.656371e-001 -1.583365e-001 3.785846e-001 2.578932e-001 2.353857e-001 1.049059e-001 -6.198335e-002 -1.845123e-001 -7.648638e-002 -1.451143e-001 -2.353849e-001 -8.380638e-001
<VARIANCE> 39
 7.650737e+001 4.196263e+001 7.141128e+001 5.156096e+001 6.061460e+001 5.458707e+001 6.460167e+001 4.947673e+001 5.537878e+001 3.710326e+001 3.449251e+001 2.695066e+001 4.028085e+001 6.364512e+000 3.943460e+000 4.981313e+000 5.215685e+000 6.061391e+000 6.273639e+000 6.617917e+000 5.662266e+000 5.271194e+000 4.290786e+000 4.641502e+000 3.442701e+000 6.280545e+000 9.356198e-001 6.949553e-001 6.573508e-001 8.798417e-001 1.025118e+000 1.116512e+000 1.073638e+000 8.649064e-001 8.112358e-001 6.543976e-001 6.895361e-001 5.576222e-001 8.953468e-001
<GCONST> 1.411481e+002
<TRANSP> 5
 0.000000e+000 1.000000e+000 0.000000e+000 0.000000e+000 0.000000e+000
 0.000000e+000 5.676277e-001 4.323723e-001 0.000000e+000 0.000000e+000
 0.000000e+000 0.000000e+000 4.055688e-001 5.944312e-001 0.000000e+000
 0.000000e+000 0.000000e+000 0.000000e+000 5.069960e-001 4.930040e-001
 0.000000e+000 0.000000e+000 0.000000e+000 0.000000e+000 0.000000e+000
<ENDHMM>
