~o
<STREAMINFO> 1 39
<VECSIZE> 39<NULLD><MFCC_D_A_0><DIAGC>
~h "dh"
<BEGINHMM>
<NUMSTATES> 5
<STATE> 2
<MEAN> 39
 -1.411332e+001 -1.885642e+000 -6.795414e+000 -4.925954e+000 -5.278967e+000 -5.756358e+000 -4.957484e+000 -3.348705e+000 -1.779207e+000 -1.332422e+000 -2.877969e+000 -2.062337e+000 4.962343e+001 1.076932e+000 -2.242353e-001 2.239233e-001 -4.786043e-001 -8.460609e-001 -9.517390e-001 -5.142230e-001 1.332278e-001 2.676426e-001 -8.279604e-002 -2.335139e-001 -1.342859e-001 1.943942e+000 5.679577e-001 -4.780576e-001 1.597788e-001 -4.105943e-001 -4.663424e-001 -3.075560e-001 -2.728589e-001 1.836603e-001 5.672352e-002 1.448336e-001 -8.550812e-003 -2.450596e-002 5.219862e-001
<VARIANCE> 39
 4.916132e+001 2.820113e+001 2.630938e+001 2.958595e+001 2.639760e+001 3.328376e+001 4.551834e+001 4.078062e+001 3.126418e+001 2.681351e+001 2.816559e+001 2.783178e+001 5.398819e+001 6.119185e+000 3.537493e+000 3.567965e+000 4.404619e+000 4.824016e+000 4.938350e+000 4.652016e+000 3.949266e+000 3.879593e+000 3.059222e+000 2.994664e+000 2.931840e+000 1.045310e+001 6.982270e-001 7.376367e-001 7.738799e-001 8.502286e-001 7.054470e-001 7.910072e-001 8.772811e-001 7.920539e-001 7.479424e-001 6.231499e-001 6.288432e-001 5.886918e-001 1.641402e+000
<GCONST> 1.328711e+002
<STATE> 3
<MEAN> 39
 -8.008384e+000 -2.991799e+000 -5.673910e+000 -7.323398e+000 -9.730291e+000 -1.044656e+001 -7.975387e+000 -3.223059e+000 -8.768579e-001 -1.255785e+000 -3.702556e+000 -2.680896e+000 5.717932e+001 2.687341e+000 -1.638108e+000 8.452485e-001 -1.756252e+000 -2.224669e+000 -1.775926e+000 -1.745471e+000 5.308923e-001 3.029324e-001 3.314838e-001 -3.234805e-001 -3.477584e-001 3.226226e+000 -2.859312e-001 -3.153513e-001 1.824721e-001 -6.346886e-002 1.627360e-001 4.650280e-001 2.026712e-001 1.804958e-001 -2.092206e-001 9.383711e-002 5.795865e-002 3.705293e-002 -7.351693e-001
<VARIANCE> 39
 2.061908e+001 2.290337e+001 3.038842e+001 3.082107e+001 3.731707e+001 3.668405e+001 4.596177e+001 3.904311e+001 3.970362e+001 3.528599e+001 2.798633e+001 2.762318e+001 2.431637e+001 4.139899e+000 3.439685e+000 5.088684e+000 4.383522e+000 4.556157e+000 5.700555e+000 6.260851e+000 5.749554e+000 6.136103e+000 4.403595e+000 4.972856e+000 4.289308e+000 3.771487e+000 5.349176e-001 4.079394e-001 4.090280e-001 5.086988e-001 5.763739e-001 5.405263e-001 6.540787e-001 6.172732e-001 6.027883e-001 5.104539e-001 4.953881e-001 4.390825e-001 8.565623e-001
<GCONST> 1.287390e+002
<STATE> 4
<MEAN> 39
 -4.970881e+000 -7.930870e+000 -4.455091e+000 -1.119337e+001 -1.303784e+001 -1.194463e+001 -1.038010e+001 -1.569530e+000 -6.660065e-001 -1.730851e-001 -3.896266e+000 -3.137389e+000 6.137231e+001 1.501527e+000 -1.826530e+000 7.158366e-001 -1.590074e+000 -1.462608e+000 -6.468372e-001 -7.800627e-001 7.509889e-001 -7.324766e-002 2.447548e-001 -1.612631e-001 -1.208360e-001 1.893828e+000 -8.191364e-001 3.255388e-001 -8.339163e-002 4.702716e-001 6.900192e-001 7.398652e-001 6.771391e-001 -3.103476e-002 -2.730646e-001 -1.670298e-001 9.300011e-002 1.209805e-001 -1.150669e+000
<VARIANCE> 39
 1.293248e+001 2.894482e+001 5.131968e+001 4.655234e+001 4.869060e+001 5.458510e+001 6.639960e+001 5.727119e+001 6.510110e+001 5.053266e+001 4.949819e+001 4.268658e+001 2.223704e+001 2.771553e+000 2.793105e+000 3.404962e+000 3.685110e+000 3.855405e+000 4.360280e+000 5.514901e+000 4.582003e+000 4.454334e+000 3.579813e+000 3.880404e+000 2.991198e+000 2.813045e+000 5.703347e-001 4.883699e-001 5.532974e-001 6.633197e-001 6.491832e-001 7.390060e-001 8.131394e-001 7.452006e-001 8.502628e-001 6.561452e-001 6.659879e-001 6.017714e-001 6.376380e-001
<GCONST> 1.317847e+002
<TRANSP> 5
 0.000000e+000 1.000000e+000 0.000000e+000 0.000000e+000 0.000000e+000
 0.000000e+000 6.169462e-001 3.830538e-001 0.000000e+000 0.000000e+000
 0.000000e+000 0.000000e+000 7.066381e-002 9.293362e-001 0.000000e+000
 0.000000e+000 0.000000e+000 0.000000e+000 2.441219e-001 7.558781e-001
 0.000000e+000 0.000000e+000 0.000000e+000 0.000000e+000 0.000000e+000
<ENDHMM>
