~o
<STREAMINFO> 1 39
<VECSIZE> 39<NULLD><MFCC_D_A_0><DIAGC>
~h "ea"
<BEGINHMM>
<NUMSTATES> 5
<STATE> 2
<MEAN> 39
 -2.374414e+000 -1.483929e+001 -2.713744e+000 -1.368801e+001 -1.556447e+001 -1.086786e+001 -1.099688e+001 3.438561e+000 -2.910529e+000 -4.847168e-001 -1.254731e+000 -3.515197e+000 6.426242e+001 6.352279e-001 -2.173664e+000 4.344999e-001 -3.950180e-001 -1.172647e+000 -1.037104e+000 -7.027153e-001 1.997343e+000 2.304189e-001 2.322592e-001 1.930140e-001 -1.923992e-001 1.352942e+000 -4.804836e-001 4.788283e-001 -1.643087e-001 4.924714e-001 5.645294e-001 3.125312e-001 5.074167e-001 8.437035e-004 2.143214e-002 -1.212442e-001 4.991971e-003 2.567138e-001 -6.679256e-001
<VARIANCE> 39
 2.172453e+001 3.710952e+001 6.283945e+001 5.931073e+001 5.139928e+001 5.609700e+001 1.170956e+002 8.751811e+001 6.965717e+001 6.073870e+001 7.612805e+001 2.670197e+001 2.079389e+001 2.639251e+000 2.231802e+000 2.486209e+000 4.572704e+000 2.955619e+000 3.340555e+000 6.522843e+000 4.594982e+000 4.641066e+000 3.487106e+000 3.576636e+000 2.836043e+000 1.243556e+000 4.914938e-001 4.259425e-001 3.890880e-001 5.875525e-001 4.734064e-001 8.110027e-001 7.930254e-001 7.725049e-001 7.131277e-001 6.415538e-001 7.695300e-001 5.333519e-001 3.871666e-001
<GCONST> 1.309013e+002
<STATE> 3
<MEAN> 39
 -3.854630e+000 -1.708394e+001 -1.218903e+000 -1.520739e+001 -1.870742e+001 -1.303389e+001 -3.303985e+000 6.354594e+000 -6.758972e+000 5.604258e-001 -2.474480e+000 -3.797559e+000 6.574828e+001 4.567194e-001 -5.629457e-001 -1.021225e+000 9.688854e-001 4.513066e-001 -7.828737e-001 1.178183e-001 1.307365e+000 -1.045987e-002 -6.793859e-001 2.118491e-001 1.551906e-001 -1.042240e-001 8.037149e-002 2.134025e-001 -3.080400e-001 1.711973e-001 3.272946e-001 -3.730067e-002 -2.605528e-001 -1.047273e-001 6.998394e-002 -1.542693e-001 -6.759645e-002 4.663457e-002 -1.938646e-001
<VARIANCE> 39
 1.244030e+001 2.100982e+001 4.354817e+001 4.601254e+001 4.119827e+001 3.746524e+001 1.075831e+002 6.366984e+001 1.049595e+002 4.685818e+001 5.130910e+001 3.227718e+001 1.855920e+001 2.670470e-001 4.221459e-001 1.534070e+000 9.901906e-001 1.184664e+000 2.026127e+000 1.921019e+000 1.859077e+000 1.624521e+000 1.591583e+000 1.362440e+000 1.364868e+000 1.829349e-001 4.418933e-002 1.193119e-001 1.788507e-001 2.346379e-001 1.555450e-001 2.958186e-001 2.742112e-001 3.463679e-001 2.911320e-001 2.741570e-001 2.095056e-001 2.112498e-001 4.793581e-002
<GCONST> 9.757632e+001
<STATE> 4
<MEAN> 39
 6.865268e-001 -1.817963e+001 -8.424808e+000 -7.956970e+000 -1.050380e+001 -1.404441e+001 -1.777517e+001 1.302480e+001 1.929348e+000 -3.846178e+000 3.392043e-001 -1.313954e+000 6.410876e+001 3.548643e-001 1.749523e-001 -1.061621e+000 4.152704e-001 7.781736e-001 2.684146e-002 -1.104874e+000 1.941444e-001 5.773572e-001 -1.496802e-001 -2.451363e-001 1.415479e-001 -2.958558e-001 -1.844844e-002 1.255317e-001 2.070297e-002 -9.225588e-002 2.017467e-002 1.527868e-001 4.114743e-002 -3.073675e-001 -5.649006e-002 1.705626e-001 7.334264e-003 -7.568467e-002 -4.494618e-002
<VARIANCE> 39
 6.703485e+000 3.135461e+001 5.321816e+001 3.147481e+001 4.779055e+001 5.349377e+001 1.241479e+002 6.715225e+001 6.556277e+001 4.967715e+001 4.536962e+001 3.604367e+001 1.899000e+001 2.665212e-001 5.194212e-001 1.683093e+000 9.927209e-001 1.227165e+000 1.499099e+000 1.671880e+000 1.230717e+000 1.308338e+000 1.078725e+000 1.138808e+000 9.231250e-001 1.803970e-001 4.131488e-002 1.082884e-001 1.780103e-001 1.669405e-001 1.847635e-001 1.945418e-001 3.141932e-001 1.965784e-001 2.202856e-001 1.736703e-001 1.865127e-001 1.712994e-001 2.890982e-002
<GCONST> 9.301833e+001
<TRANSP> 5
 0.000000e+000 1.000000e+000 0.000000e+000 0.000000e+000 0.000000e+000
 0.000000e+000 6.312057e-001 3.687943e-001 0.000000e+000 0.000000e+000
 0.000000e+000 0.000000e+000 7.142857e-001 2.857143e-001 0.000000e+000
 0.000000e+000 0.000000e+000 0.000000e+000 7.625571e-001 2.374429e-001
 0.000000e+000 0.000000e+000 0.000000e+000 0.000000e+000 0.000000e+000
<ENDHMM>
