~o
<STREAMINFO> 1 39
<VECSIZE> 39<NULLD><MFCC_D_A_0><DIAGC>
~h "eh"
<BEGINHMM>
<NUMSTATES> 5
<STATE> 2
<MEAN> 39
 -4.106134e+000 -1.346877e+001 -3.355383e+000 -1.346235e+001 -1.509446e+001 -1.065215e+001 -8.226172e+000 3.242068e+000 -2.016548e+000 -1.405000e+000 -3.353195e+000 -2.912069e+000 6.485835e+001 8.942754e-001 -1.940295e+000 -3.150458e-001 -7.208247e-001 -7.773865e-001 -3.199659e-001 -2.577152e-001 1.559302e+000 6.897554e-001 -1.838487e-001 -2.090647e-001 -2.527975e-001 1.421016e+000 -5.863706e-001 4.794870e-001 -1.492245e-001 2.698921e-001 5.714077e-001 3.990140e-001 3.973397e-001 -2.388074e-001 -9.176286e-002 -3.335214e-002 3.399308e-002 9.740967e-002 -6.104504e-001
<VARIANCE> 39
 1.529751e+001 3.282873e+001 5.862373e+001 5.967667e+001 5.708165e+001 6.778207e+001 8.587630e+001 7.053521e+001 8.085793e+001 5.412098e+001 6.090187e+001 4.109321e+001 1.786045e+001 3.022427e+000 2.284370e+000 3.153768e+000 3.397898e+000 4.081925e+000 4.390220e+000 5.764210e+000 4.559058e+000 4.291470e+000 3.590028e+000 3.351505e+000 2.753844e+000 1.372374e+000 4.799461e-001 4.089291e-001 4.336438e-001 5.307269e-001 6.565714e-001 6.851512e-001 7.781831e-001 8.237156e-001 8.243201e-001 6.436751e-001 6.428698e-001 5.166980e-001 3.005167e-001
<GCONST> 1.305710e+002
<STATE> 3
<MEAN> 39
 -3.912771e+000 -1.538022e+001 -5.117682e+000 -1.401255e+001 -1.427313e+001 -9.477489e+000 -6.252589e+000 5.487975e+000 -1.251936e+000 -2.874293e+000 -4.229261e+000 -3.114957e+000 6.557465e+001 1.846289e-001 7.735442e-002 -4.320657e-001 7.586859e-002 3.877134e-001 5.290019e-002 -1.932303e-001 4.725510e-002 4.704937e-002 -1.215736e-001 -3.953926e-002 -1.953179e-003 -2.299610e-001 -1.547423e-002 4.003505e-001 3.888713e-002 1.874195e-001 1.496038e-001 -3.642821e-002 -1.329018e-001 -3.690508e-001 -1.691743e-001 7.352844e-002 6.812982e-002 5.355531e-002 -3.925595e-001
<VARIANCE> 39
 1.489153e+001 2.778487e+001 5.102494e+001 5.801278e+001 5.866430e+001 7.734211e+001 9.559163e+001 7.020433e+001 8.586571e+001 5.447377e+001 5.768857e+001 4.176527e+001 1.964846e+001 4.359716e-001 9.598721e-001 1.768526e+000 1.470773e+000 1.796308e+000 2.017068e+000 2.453461e+000 2.368821e+000 2.154457e+000 1.751222e+000 1.687989e+000 1.508835e+000 4.454132e-001 8.788566e-002 2.003984e-001 2.161170e-001 2.583954e-001 3.050484e-001 3.160271e-001 4.011672e-001 4.376255e-001 3.862815e-001 3.299679e-001 3.154474e-001 2.858922e-001 1.431465e-001
<GCONST> 1.093156e+002
<STATE> 4
<MEAN> 39
 -4.828062e+000 -1.015472e+001 -4.788747e+000 -1.067271e+001 -1.128609e+001 -9.991529e+000 -7.755536e+000 1.757782e+000 -2.753648e+000 -2.432133e+000 -3.899657e+000 -2.701543e+000 5.989500e+001 -1.118849e+000 2.369854e+000 1.953216e-001 1.490702e+000 1.402846e+000 5.723355e-001 2.450374e-001 -1.816816e+000 -8.587510e-001 2.492021e-002 2.122210e-001 2.230545e-001 -2.829595e+000 -4.494217e-001 9.927008e-002 1.557784e-002 5.486372e-002 1.365677e-001 2.871050e-001 2.633851e-001 -6.387495e-002 -4.575318e-003 7.774517e-003 5.452764e-003 -8.220303e-004 -1.869410e-001
<VARIANCE> 39
 3.252150e+001 5.197248e+001 6.392161e+001 6.744357e+001 6.339735e+001 7.450812e+001 8.401189e+001 7.782664e+001 7.904317e+001 5.422482e+001 5.648575e+001 4.047282e+001 5.205518e+001 5.007759e+000 3.168778e+000 3.502675e+000 4.381307e+000 4.847178e+000 5.268261e+000 6.113885e+000 6.112737e+000 5.577878e+000 4.537468e+000 4.417003e+000 3.554942e+000 4.616544e+000 4.863984e-001 8.160233e-001 5.176482e-001 7.449206e-001 7.992054e-001 7.844393e-001 8.352633e-001 1.054029e+000 8.873844e-001 7.075078e-001 6.835614e-001 5.465201e-001 9.650500e-001
<GCONST> 1.406885e+002
<TRANSP> 5
 0.000000e+000 1.000000e+000 0.000000e+000 0.000000e+000 0.000000e+000
 0.000000e+000 5.529287e-001 4.470713e-001 0.000000e+000 0.000000e+000
 0.000000e+000 0.000000e+000 7.907975e-001 2.092025e-001 0.000000e+000
 0.000000e+000 0.000000e+000 0.000000e+000 6.770055e-001 3.229946e-001
 0.000000e+000 0.000000e+000 0.000000e+000 0.000000e+000 0.000000e+000
<ENDHMM>
