~o
<STREAMINFO> 1 39
<VECSIZE> 39<NULLD><MFCC_D_A_0><DIAGC>
~h "er"
<BEGINHMM>
<NUMSTATES> 5
<STATE> 2
<MEAN> 39
 4.463038e-001 -1.419835e+001 -9.892003e+000 -8.867787e+000 -9.486139e+000 -1.389377e+001 -1.518433e+001 3.933659e+000 -2.325204e+000 -2.949765e+000 -1.460150e+000 -1.018710e+000 6.145689e+001 1.673219e+000 -1.291169e+000 -1.454139e+000 8.021163e-002 5.529853e-001 -9.178782e-001 -1.879075e+000 1.484931e+000 8.750763e-001 -2.189041e-001 1.106931e-001 2.069059e-001 5.064693e-001 -7.584642e-001 3.866955e-001 1.922084e-001 1.211936e-001 2.591164e-001 3.722476e-001 4.794227e-001 -2.233896e-001 1.028754e-002 6.118106e-002 -7.556111e-002 -2.916644e-002 -3.503730e-001
<VARIANCE> 39
 2.006989e+001 3.139692e+001 9.529259e+001 6.034911e+001 7.585979e+001 8.474632e+001 1.045077e+002 7.992606e+001 9.965828e+001 6.042707e+001 5.476830e+001 3.975266e+001 1.765956e+001 3.464492e+000 2.359302e+000 3.193700e+000 2.933953e+000 4.393368e+000 3.993030e+000 6.238472e+000 4.925922e+000 4.549446e+000 3.721567e+000 3.021967e+000 2.607159e+000 1.077848e+000 5.584925e-001 3.373270e-001 5.770993e-001 4.834760e-001 6.565033e-001 6.606342e-001 9.015497e-001 7.722824e-001 6.770288e-001 6.193290e-001 5.470393e-001 4.810705e-001 1.936678e-001
<GCONST> 1.314471e+002
<STATE> 3
<MEAN> 39
 2.693944e+000 -1.483874e+001 -1.509605e+001 -6.925477e+000 -5.471559e+000 -1.460605e+001 -1.890799e+001 6.397653e+000 1.631620e+000 -3.537966e+000 -1.707360e+000 -6.105278e-001 6.031906e+001 -3.232916e-002 1.335678e-001 -1.931924e-003 1.894825e-001 1.247906e-001 -5.369618e-002 -9.627344e-002 -1.015963e-002 4.859983e-002 -9.186029e-002 -1.383896e-001 1.115476e-002 -2.315708e-001 -1.780765e-001 1.402689e-001 3.256860e-001 5.007778e-003 -2.077651e-001 1.307080e-001 3.375096e-001 -2.376141e-001 -2.317597e-001 -1.723529e-002 3.927525e-003 -2.501752e-002 -1.180328e-001
<VARIANCE> 39
 1.110225e+001 2.746521e+001 6.794559e+001 4.426508e+001 7.157086e+001 8.735699e+001 1.266840e+002 8.679742e+001 1.064353e+002 5.175515e+001 4.409499e+001 3.431706e+001 2.023045e+001 3.059595e-001 5.892935e-001 1.854643e+000 1.011418e+000 1.991122e+000 1.622585e+000 2.197195e+000 1.934820e+000 1.893828e+000 1.566553e+000 1.365190e+000 1.165924e+000 2.867348e-001 7.303603e-002 1.298163e-001 1.699795e-001 1.779878e-001 2.451504e-001 2.676631e-001 4.056451e-001 3.910347e-001 2.996334e-001 2.762056e-001 2.311591e-001 2.080040e-001 6.398626e-002
<GCONST> 1.032369e+002
<STATE> 4
<MEAN> 39
 -1.920830e+000 -1.093434e+001 -8.419390e+000 -5.358784e+000 -7.555217e+000 -1.342078e+001 -1.373456e+001 2.338652e+000 -2.266624e+000 -4.279826e+000 -3.094923e+000 -7.256036e-001 5.682350e+001 -2.189983e+000 1.810545e+000 1.548164e+000 3.123942e-001 8.300330e-002 1.481947e+000 2.273827e+000 -1.540834e+000 -7.967993e-001 1.089675e-001 -2.220496e-001 -3.359214e-001 -1.773966e+000 -4.483331e-001 1.961665e-001 1.884932e-002 -1.255579e-001 1.963975e-001 3.568161e-001 2.050442e-001 -3.317743e-002 1.865930e-002 1.500600e-001 7.167748e-002 -7.179803e-002 -2.179050e-001
<VARIANCE> 39
 4.266368e+001 4.560373e+001 8.883846e+001 6.720831e+001 7.732738e+001 8.001463e+001 1.117296e+002 8.007796e+001 9.179102e+001 5.666420e+001 4.726060e+001 3.506264e+001 4.375814e+001 4.685794e+000 3.952527e+000 4.067583e+000 5.033272e+000 5.674513e+000 5.782752e+000 7.527159e+000 6.031112e+000 5.398923e+000 4.636722e+000 4.031965e+000 2.949738e+000 4.277112e+000 5.543870e-001 7.422864e-001 6.793975e-001 7.053013e-001 7.956520e-001 8.541142e-001 1.223535e+000 1.017943e+000 7.866017e-001 7.267390e-001 6.787478e-001 5.218108e-001 5.976953e-001
<GCONST> 1.420142e+002
<TRANSP> 5
 0.000000e+000 1.000000e+000 0.000000e+000 0.000000e+000 0.000000e+000
 0.000000e+000 6.176416e-001 3.823584e-001 0.000000e+000 0.000000e+000
 0.000000e+000 0.000000e+000 8.407782e-001 1.592218e-001 0.000000e+000
 0.000000e+000 0.000000e+000 0.000000e+000 7.384635e-001 2.615365e-001
 0.000000e+000 0.000000e+000 0.000000e+000 0.000000e+000 0.000000e+000
<ENDHMM>
