~o
<STREAMINFO> 1 39
<VECSIZE> 39<NULLD><MFCC_D_A_0><DIAGC>
~h "ey"
<BEGINHMM>
<NUMSTATES> 5
<STATE> 2
<MEAN> 39
 -4.134163e+000 -1.390725e+001 -2.603759e+000 -1.344751e+001 -1.585588e+001 -1.048127e+001 -8.598498e+000 3.664313e+000 -9.287078e-001 -1.264107e+000 -2.710528e+000 -3.156864e+000 6.509193e+001 3.062725e-002 -1.037596e+000 1.359208e+000 -5.032421e-001 -1.719852e+000 -6.830622e-001 4.621964e-001 1.163574e+000 -3.579602e-001 -2.639493e-001 3.101791e-001 2.774163e-001 1.002550e+000 -4.095306e-001 5.453569e-001 8.003783e-002 1.629618e-001 2.690119e-001 3.125514e-001 2.692640e-001 -4.684215e-001 -3.608572e-001 5.374194e-002 2.469624e-001 9.256320e-002 -5.441561e-001
<VARIANCE> 39
 1.498089e+001 3.023905e+001 5.534380e+001 6.106882e+001 5.336178e+001 6.454525e+001 8.345341e+001 6.958307e+001 7.939010e+001 5.637103e+001 5.841886e+001 4.042437e+001 1.868885e+001 2.341166e+000 2.558350e+000 2.637764e+000 3.805441e+000 3.306273e+000 4.082071e+000 4.790716e+000 4.717206e+000 4.531990e+000 3.840627e+000 3.541939e+000 2.786546e+000 1.350397e+000 4.069550e-001 3.139856e-001 3.365787e-001 4.969063e-001 6.005145e-001 6.376265e-001 7.117605e-001 8.158062e-001 8.171535e-001 6.982130e-001 6.075670e-001 5.499031e-001 2.390344e-001
<GCONST> 1.286567e+002
<STATE> 3
<MEAN> 39
 -6.576505e+000 -1.224026e+001 3.949310e+000 -1.497139e+001 -2.094765e+001 -1.031931e+001 -5.312991e+000 2.083836e+000 -6.193557e+000 -7.704198e-001 -5.981845e-001 -2.017784e+000 6.466956e+001 -1.754376e-001 5.215740e-001 7.845763e-001 4.192550e-002 -3.712975e-001 1.126124e-001 -1.039136e-001 -6.714650e-001 -7.232409e-001 1.333953e-001 3.104869e-001 -6.603030e-003 -3.814610e-001 3.954731e-002 1.286108e-001 -1.668286e-001 1.993673e-001 2.781238e-001 -5.678963e-003 -1.258487e-001 -9.791820e-002 4.189894e-002 -6.254022e-002 -1.333274e-001 -4.735138e-002 -2.193822e-001
<VARIANCE> 39
 1.266762e+001 2.947768e+001 4.359781e+001 7.193987e+001 3.940768e+001 5.653050e+001 6.858591e+001 7.126218e+001 6.066138e+001 5.289718e+001 6.951088e+001 3.090371e+001 2.035887e+001 2.839520e-001 6.923296e-001 1.142428e+000 9.957067e-001 1.140994e+000 1.288044e+000 1.594427e+000 1.704101e+000 1.910907e+000 1.501671e+000 1.413187e+000 1.119557e+000 2.989168e-001 6.050708e-002 1.316348e-001 1.743086e-001 1.958766e-001 2.349158e-001 2.432531e-001 2.959118e-001 3.122413e-001 2.806756e-001 2.635427e-001 2.496784e-001 2.049979e-001 8.156610e-002
<GCONST> 9.926904e+001
<STATE> 4
<MEAN> 39
 -7.873965e+000 -7.092191e+000 5.203485e+000 -1.010720e+001 -1.726277e+001 -1.048894e+001 -7.130466e+000 -1.808318e+000 -8.837528e+000 -1.887457e+000 -6.159357e-001 -2.020909e+000 5.851274e+001 -1.114024e+000 1.564464e+000 -1.270275e+000 1.587366e+000 2.571400e+000 7.222411e-001 4.408930e-001 -6.981875e-001 3.284982e-001 -3.318707e-001 -5.352367e-001 -1.508947e-001 -2.383436e+000 -3.745686e-001 -2.290118e-002 -4.586493e-001 -4.160002e-002 4.111629e-001 3.073258e-001 2.296032e-001 1.182419e-001 3.537406e-001 9.358365e-002 -3.033480e-002 1.605540e-002 -1.292822e-001
<VARIANCE> 39
 3.238639e+001 4.594773e+001 5.363338e+001 7.925181e+001 6.390643e+001 5.475730e+001 5.886035e+001 7.232813e+001 5.804846e+001 5.375404e+001 6.260846e+001 3.466266e+001 5.001019e+001 5.282076e+000 3.302787e+000 3.911948e+000 4.691276e+000 5.073979e+000 5.267937e+000 5.255773e+000 5.557393e+000 5.276702e+000 4.249793e+000 4.212446e+000 2.971825e+000 4.714855e+000 5.052164e-001 6.605522e-001 5.978801e-001 7.991127e-001 1.064846e+000 7.084244e-001 7.462367e-001 8.723692e-001 8.217630e-001 6.909504e-001 6.817318e-001 5.097283e-001 8.199032e-001
<GCONST> 1.387428e+002
<TRANSP> 5
 0.000000e+000 1.000000e+000 0.000000e+000 0.000000e+000 0.000000e+000
 0.000000e+000 6.730191e-001 3.269809e-001 0.000000e+000 0.000000e+000
 0.000000e+000 0.000000e+000 8.489342e-001 1.510658e-001 0.000000e+000
 0.000000e+000 0.000000e+000 0.000000e+000 7.500000e-001 2.500000e-001
 0.000000e+000 0.000000e+000 0.000000e+000 0.000000e+000 0.000000e+000
<ENDHMM>
