~o
<STREAMINFO> 1 39
<VECSIZE> 39<NULLD><MFCC_D_A_0><DIAGC>
~h "f"
<BEGINHMM>
<NUMSTATES> 5
<STATE> 2
<MEAN> 39
 -1.897937e+001 -5.357172e+000 -6.253088e+000 -4.972675e+000 -3.564890e+000 -3.400125e+000 -2.368956e+000 -8.154228e-001 -2.150836e+000 -1.407334e+000 -2.744814e+000 -1.019335e+000 5.182192e+001 -3.463608e+000 -5.816839e-001 -5.603258e-001 5.251878e-001 3.252464e-001 4.270377e-001 5.580581e-001 6.010601e-001 7.880420e-001 3.824258e-001 4.995807e-001 5.411521e-001 -6.732824e-001 6.490418e-001 -3.917678e-001 -1.824624e-001 -5.242678e-001 -4.340473e-001 -2.469432e-001 -3.423690e-001 -5.935668e-002 -1.113422e-001 8.790982e-002 8.728024e-003 -6.633707e-002 4.051993e-001
<VARIANCE> 39
 3.435963e+001 1.954136e+001 1.923394e+001 1.734997e+001 1.928474e+001 2.297309e+001 2.046323e+001 2.176372e+001 2.334934e+001 2.029770e+001 1.813078e+001 1.503307e+001 3.564118e+001 5.569429e+000 2.862988e+000 3.848690e+000 4.034333e+000 3.513090e+000 4.077449e+000 3.841639e+000 3.607340e+000 3.879725e+000 3.276703e+000 3.241966e+000 2.473043e+000 3.583473e+000 7.776837e-001 5.925326e-001 5.891483e-001 6.906640e-001 6.291251e-001 6.186712e-001 7.014943e-001 6.639115e-001 6.506312e-001 5.880784e-001 5.370868e-001 4.479366e-001 5.443206e-001
<GCONST> 1.218596e+002
<STATE> 3
<MEAN> 39
 -2.370687e+001 -8.681745e+000 -9.398954e+000 -6.485128e+000 -4.880916e+000 -4.018776e+000 -2.977277e+000 -2.947280e-001 -1.049922e+000 -1.705455e-001 -1.696659e+000 -1.403894e-001 5.326947e+001 5.407416e-001 -7.549642e-002 -7.216643e-002 -1.776151e-001 -7.465345e-002 -8.281168e-002 -1.114863e-001 -9.840891e-002 -5.269514e-003 3.346204e-002 2.950533e-003 -5.318852e-002 1.345987e-001 9.286063e-001 1.453089e-001 1.283344e-001 -1.453919e-001 -7.087745e-002 -6.866337e-002 -1.601953e-001 -1.011497e-001 -1.152804e-001 -9.112378e-002 -6.249618e-002 -1.137148e-001 1.052298e-001
<VARIANCE> 39
 1.118067e+001 1.246886e+001 1.130331e+001 1.251528e+001 1.308318e+001 1.395297e+001 1.483427e+001 1.444100e+001 1.413612e+001 1.423900e+001 1.306878e+001 1.172545e+001 2.267775e+001 3.835397e+000 1.152291e+000 1.337650e+000 1.404550e+000 1.454393e+000 1.618414e+000 1.687235e+000 1.699226e+000 1.646857e+000 1.586767e+000 1.518161e+000 1.355789e+000 1.786656e+000 5.033882e-001 2.726294e-001 3.354225e-001 4.009022e-001 3.993019e-001 4.337768e-001 4.790407e-001 4.259838e-001 4.217320e-001 3.860480e-001 3.797444e-001 3.243180e-001 3.215887e-001
<GCONST> 9.950858e+001
<STATE> 4
<MEAN> 39
 -8.940107e+000 -7.746856e+000 -8.081392e+000 -1.003397e+001 -7.209392e+000 -5.439877e+000 -6.119980e+000 -1.852168e+000 -2.745081e+000 -1.389158e+000 -2.292136e+000 -1.790170e+000 5.575577e+001 4.632694e+000 -4.951253e-001 -1.118273e-001 -1.888655e+000 -1.503691e+000 -5.894369e-001 -1.693797e+000 -2.657899e-001 -6.220985e-001 -3.785706e-001 4.297947e-002 -4.634995e-001 1.392369e+000 -6.359386e-001 -2.787763e-001 -8.525782e-002 -4.963638e-002 -6.778457e-002 8.547385e-002 1.908113e-002 1.764556e-001 6.511854e-002 5.502572e-002 9.838007e-002 6.924268e-002 9.902463e-002
<VARIANCE> 39
 8.612843e+001 3.090625e+001 5.827137e+001 5.934626e+001 4.952344e+001 5.647963e+001 5.884421e+001 4.079408e+001 4.245282e+001 3.006516e+001 3.112987e+001 2.360978e+001 4.354971e+001 5.465167e+000 4.462186e+000 6.035149e+000 6.050383e+000 5.577137e+000 6.864366e+000 6.948309e+000 5.678084e+000 5.517910e+000 4.469612e+000 4.411053e+000 3.282266e+000 4.436949e+000 1.493885e+000 5.208855e-001 6.127651e-001 8.663496e-001 8.185585e-001 7.819389e-001 9.979142e-001 7.211567e-001 7.082205e-001 6.007677e-001 5.424822e-001 4.472255e-001 6.394539e-001
<GCONST> 1.380603e+002
<TRANSP> 5
 0.000000e+000 1.000000e+000 0.000000e+000 0.000000e+000 0.000000e+000
 0.000000e+000 5.097432e-001 4.902569e-001 0.000000e+000 0.000000e+000
 0.000000e+000 0.000000e+000 8.386062e-001 1.613938e-001 0.000000e+000
 0.000000e+000 0.000000e+000 0.000000e+000 6.749853e-001 3.250147e-001
 0.000000e+000 0.000000e+000 0.000000e+000 0.000000e+000 0.000000e+000
<ENDHMM>
