~o
<STREAMINFO> 1 39
<VECSIZE> 39<NULLD><MFCC_D_A_0><DIAGC>
~h "g"
<BEGINHMM>
<NUMSTATES> 5
<STATE> 2
<MEAN> 39
 -9.123383e+000 1.463565e+000 3.143101e-001 -1.570283e-001 -7.227533e+000 -8.923776e+000 -5.981154e+000 -4.816926e+000 -9.799654e+000 -4.425298e+000 -3.131083e+000 -3.837333e+000 4.189512e+001 -1.151319e+000 -3.054131e-001 -1.312334e+000 4.207280e-001 2.045207e+000 1.040602e+000 -5.060840e-002 -9.860537e-002 1.300096e+000 2.171487e-001 -4.061420e-001 2.723550e-001 -9.547495e-001 9.141508e-002 -1.176500e+000 -4.885207e-001 -8.908879e-001 -2.069867e-001 -5.633772e-002 -8.159588e-002 3.618874e-001 3.247232e-001 5.081916e-001 1.689119e-001 1.881342e-001 1.616297e+000
<VARIANCE> 39
 3.036027e+001 3.098895e+001 3.779128e+001 3.800093e+001 5.433007e+001 4.965739e+001 4.519227e+001 5.786246e+001 4.762412e+001 4.142010e+001 4.184388e+001 2.936928e+001 3.881547e+001 2.729046e+000 1.096722e+001 6.157663e+000 6.959751e+000 6.709591e+000 6.221382e+000 6.349948e+000 8.319347e+000 5.874748e+000 6.205539e+000 4.653027e+000 3.436521e+000 1.088070e+001 5.551412e-001 1.070773e+000 8.345925e-001 1.009942e+000 1.099787e+000 1.095183e+000 1.076067e+000 1.058813e+000 9.939070e-001 9.212383e-001 7.884352e-001 5.955903e-001 1.240670e+000
<GCONST> 1.425301e+002
<STATE> 3
<MEAN> 39
 -1.296878e+001 -1.053847e+001 -9.825373e+000 -5.595150e+000 -1.076662e+000 -6.272300e+000 -6.021317e+000 -1.604282e+000 -2.790867e+000 9.805492e-001 -3.042662e+000 -8.846468e-001 5.089614e+001 7.192160e-001 -1.207720e+000 -7.199965e-001 -1.743916e+000 -3.830908e-001 -5.732859e-001 -8.423324e-001 5.501531e-002 5.072559e-001 8.523257e-001 2.672054e-001 3.314485e-001 3.228873e+000 7.789729e-001 9.734663e-001 9.399291e-001 1.565008e-002 -9.227305e-001 -4.340879e-001 -2.999054e-001 -2.307428e-001 -6.293917e-001 -4.407783e-001 1.668859e-001 -2.048586e-001 -1.023293e-001
<VARIANCE> 39
 3.496568e+001 5.253382e+001 6.778172e+001 5.043216e+001 5.593446e+001 6.311475e+001 5.671134e+001 4.972102e+001 4.408160e+001 3.666286e+001 3.026291e+001 2.249600e+001 6.621843e+001 4.692047e+000 9.250291e+000 7.798028e+000 6.803300e+000 6.632383e+000 6.493828e+000 5.765535e+000 6.066098e+000 5.711717e+000 4.973241e+000 3.773683e+000 2.909318e+000 7.104719e+000 5.909790e-001 1.379744e+000 1.087496e+000 1.367517e+000 1.142442e+000 1.224387e+000 1.217858e+000 1.290280e+000 1.094718e+000 1.128721e+000 9.391825e-001 6.461092e-001 1.567655e+000
<GCONST> 1.454521e+002
<STATE> 4
<MEAN> 39
 -5.116610e+000 -6.134403e+000 -4.458036e+000 -8.401993e+000 -7.566008e+000 -1.068841e+001 -1.141053e+001 -3.613708e+000 -6.308524e+000 -9.347886e-001 -1.328854e+000 -1.624850e+000 5.655239e+001 2.238343e+000 3.335154e-002 5.375224e-001 -1.323829e+000 -1.712447e+000 -7.556012e-001 -1.434130e+000 3.543944e-001 -4.344165e-001 -4.800778e-001 6.324437e-001 -1.297777e-001 1.544793e+000 -2.393369e-001 -3.879001e-001 -3.106183e-001 1.316432e-001 1.579303e-001 2.978641e-001 3.207919e-001 3.917509e-001 1.624258e-001 -8.604642e-002 -8.504748e-002 -5.931630e-002 -3.809801e-001
<VARIANCE> 39
 4.161090e+001 3.706656e+001 7.955611e+001 7.527828e+001 7.864399e+001 7.547570e+001 7.708967e+001 6.814722e+001 5.523279e+001 4.908024e+001 4.988225e+001 2.877204e+001 2.683378e+001 3.440241e+000 4.459341e+000 4.588099e+000 6.488195e+000 5.622710e+000 7.039437e+000 7.037192e+000 6.117483e+000 6.575619e+000 6.523084e+000 4.693848e+000 3.512171e+000 1.927216e+000 5.110024e-001 6.831962e-001 6.717354e-001 7.106948e-001 8.784788e-001 8.509987e-001 9.441861e-001 9.079230e-001 8.718273e-001 8.200400e-001 6.778023e-001 5.364612e-001 5.175985e-001
<GCONST> 1.399746e+002
<TRANSP> 5
 0.000000e+000 1.000000e+000 0.000000e+000 0.000000e+000 0.000000e+000
 0.000000e+000 7.034607e-001 2.965393e-001 0.000000e+000 0.000000e+000
 0.000000e+000 0.000000e+000 6.345330e-001 3.654670e-001 0.000000e+000
 0.000000e+000 0.000000e+000 0.000000e+000 5.608687e-001 4.391313e-001
 0.000000e+000 0.000000e+000 0.000000e+000 0.000000e+000 0.000000e+000
<ENDHMM>
