~o
<STREAMINFO> 1 39
<VECSIZE> 39<NULLD><MFCC_D_A_0><DIAGC>
~h "hh"
<BEGINHMM>
<NUMSTATES> 5
<STATE> 2
<MEAN> 39
 -1.254275e+001 -8.147913e+000 -2.365913e+000 -9.422522e+000 -6.863260e+000 -2.395633e+000 1.974177e-001 -8.253956e-001 -4.032433e+000 -2.467365e+000 -4.159017e+000 -1.003956e+000 5.581914e+001 -1.206417e-001 -2.839544e-001 -1.779379e-001 5.001158e-002 3.890038e-001 4.959652e-001 7.652465e-001 2.654468e-002 1.112129e-001 -1.538838e-001 -2.384521e-001 -6.683246e-002 1.996275e-001 3.562144e-001 9.227069e-002 -1.270196e-002 -1.114844e-001 -2.851608e-001 -2.194857e-001 -3.771302e-001 -1.429115e-001 -1.568028e-001 -4.741754e-002 8.134465e-003 -1.435615e-001 1.455629e-001
<VARIANCE> 39
 2.981252e+001 4.199334e+001 7.774794e+001 5.370789e+001 7.069981e+001 5.386573e+001 5.410367e+001 6.863549e+001 5.517361e+001 4.484821e+001 4.379765e+001 2.853057e+001 3.144647e+001 2.117110e+000 2.015491e+000 2.805173e+000 2.550299e+000 3.363397e+000 3.208129e+000 4.077109e+000 3.482238e+000 3.506745e+000 3.022165e+000 2.694026e+000 2.234673e+000 1.288434e+000 2.902233e-001 4.516226e-001 4.025619e-001 4.962569e-001 5.604213e-001 5.676434e-001 6.874027e-001 6.398779e-001 6.222404e-001 5.838677e-001 5.496381e-001 4.148676e-001 2.012756e-001
<GCONST> 1.251603e+002
<STATE> 3
<MEAN> 39
 -1.092936e+001 -6.329969e+000 -1.321474e+000 -8.835064e+000 -7.574562e+000 -2.386754e+000 6.416277e-001 -2.163889e+000 -5.156955e+000 -3.186529e+000 -4.865665e+000 -2.051694e+000 5.596381e+001 2.157860e+000 4.052167e-001 -3.956360e-002 -7.476181e-001 -1.459161e+000 -9.818091e-001 -1.294476e+000 -5.315819e-001 -7.329065e-001 -4.693934e-001 -2.463708e-001 -6.059198e-001 1.454373e+000 2.698198e-001 -4.204595e-001 -2.557767e-001 -4.311538e-001 -3.831576e-001 -3.071947e-001 -4.746003e-001 1.410631e-001 4.106655e-002 6.055482e-002 1.923793e-001 1.359454e-002 4.331956e-001
<VARIANCE> 39
 2.669281e+001 4.031231e+001 7.705450e+001 5.493287e+001 7.261797e+001 6.050908e+001 5.817223e+001 7.138896e+001 5.123665e+001 4.747236e+001 4.461521e+001 2.953682e+001 3.287248e+001 2.366308e+000 2.259766e+000 4.021270e+000 2.858370e+000 3.406077e+000 3.425161e+000 4.395602e+000 3.648774e+000 3.910604e+000 2.880107e+000 3.359199e+000 2.197681e+000 1.664221e+000 3.032586e-001 3.318191e-001 3.359652e-001 3.392478e-001 4.781866e-001 4.824834e-001 6.222001e-001 5.132822e-001 5.254596e-001 5.597652e-001 4.388321e-001 3.901291e-001 1.704603e-001
<GCONST> 1.246475e+002
<STATE> 4
<MEAN> 39
 -5.861574e+000 -8.915279e+000 -3.004112e+000 -1.301180e+001 -1.281853e+001 -6.441924e+000 -2.537460e+000 -1.487021e+000 -6.548554e+000 -3.886382e+000 -5.112253e+000 -3.180056e+000 6.257663e+001 1.286864e+000 -1.625331e+000 -9.280111e-001 -1.116707e+000 -1.000881e+000 -7.420790e-001 -9.756110e-001 5.313829e-001 2.200494e-001 -4.523613e-002 2.553058e-001 -2.615434e-001 1.750032e+000 -3.890847e-001 -2.936680e-001 5.017260e-002 9.179889e-002 2.346674e-001 1.695430e-001 8.906095e-002 1.881572e-001 2.543034e-001 1.227819e-001 1.338776e-001 9.129182e-002 -1.495691e-001
<VARIANCE> 39
 1.992604e+001 3.830289e+001 8.620810e+001 6.044685e+001 7.402364e+001 6.620337e+001 7.324918e+001 8.381092e+001 6.178510e+001 5.045203e+001 5.827506e+001 3.144494e+001 2.438518e+001 1.406789e+000 2.002385e+000 2.979213e+000 2.502524e+000 3.448544e+000 3.176923e+000 4.471472e+000 3.536096e+000 3.368127e+000 3.127031e+000 2.535236e+000 2.226202e+000 1.195934e+000 2.731092e-001 3.224523e-001 3.817415e-001 3.324298e-001 4.441825e-001 3.869723e-001 5.484037e-001 4.873093e-001 4.219846e-001 4.076724e-001 3.856874e-001 3.180464e-001 2.043771e-001
<GCONST> 1.222874e+002
<TRANSP> 5
 0.000000e+000 1.000000e+000 0.000000e+000 0.000000e+000 0.000000e+000
 0.000000e+000 7.332406e-001 2.667594e-001 0.000000e+000 0.000000e+000
 0.000000e+000 0.000000e+000 4.225082e-001 5.774918e-001 0.000000e+000
 0.000000e+000 0.000000e+000 0.000000e+000 5.471334e-001 4.528667e-001
 0.000000e+000 0.000000e+000 0.000000e+000 0.000000e+000 0.000000e+000
<ENDHMM>
