~o
<STREAMINFO> 1 39
<VECSIZE> 39<NULLD><MFCC_D_A_0><DIAGC>
~h "ia"
<BEGINHMM>
<NUMSTATES> 5
<STATE> 2
<MEAN> 39
 -9.831110e+000 -6.594694e+000 1.204311e+001 -9.717110e+000 -1.728887e+001 -9.280335e+000 -8.706163e+000 -4.095209e+000 -1.232984e+001 -4.948816e+000 -1.270804e+000 -2.686976e+000 5.743723e+001 1.448634e+000 -1.422727e+000 4.566763e-002 6.765155e-001 -1.258141e+000 -2.383563e+000 -4.154990e-001 1.523899e+000 -9.896490e-001 9.119502e-002 9.770750e-001 3.969328e-001 1.221080e+000 4.558559e-001 -2.424988e-001 -9.396365e-001 3.532464e-001 5.179561e-001 -3.867309e-001 -2.057193e-001 6.166655e-001 3.691186e-001 -1.290549e-001 6.777429e-002 1.427180e-001 -2.682028e-001
<VARIANCE> 39
 1.968997e+001 2.436966e+001 2.722595e+001 8.957668e+001 3.586346e+001 5.291360e+001 4.220041e+001 5.024788e+001 3.956128e+001 5.160990e+001 4.045093e+001 2.915861e+001 1.794803e+001 2.835027e+000 2.318852e+000 4.281308e+000 3.349423e+000 3.824099e+000 6.575675e+000 5.396612e+000 4.992433e+000 3.711422e+000 5.026396e+000 2.642092e+000 1.830605e+000 1.734706e+000 4.372538e-001 2.560110e-001 4.482736e-001 6.934034e-001 7.827652e-001 9.697260e-001 8.817122e-001 7.822958e-001 6.752304e-001 6.812040e-001 4.144893e-001 3.947600e-001 2.811785e-001
<GCONST> 1.266964e+002
<STATE> 3
<MEAN> 39
 -5.504915e+000 -1.137159e+001 9.290770e+000 -5.426486e+000 -1.872017e+001 -1.558065e+001 -1.003476e+001 1.774015e+000 -1.401865e+001 -6.339194e+000 2.745992e+000 -1.200637e+000 5.971998e+001 2.257591e+000 -2.025995e+000 -2.200812e+000 8.462649e-001 6.020073e-001 -2.928682e+000 -1.732500e+000 3.029201e+000 5.013057e-001 -8.404430e-001 1.054957e+000 1.072115e+000 9.004536e-001 -1.688639e-001 2.091536e-001 -6.675161e-001 -2.156242e-001 8.717583e-001 6.339978e-001 -3.961737e-001 -9.656103e-002 9.177075e-001 -1.007672e-001 -4.944393e-001 1.344423e-001 -3.467334e-001
<VARIANCE> 39
 1.073383e+001 1.948896e+001 3.535401e+001 6.497577e+001 3.153743e+001 3.868764e+001 5.650440e+001 4.298283e+001 5.526614e+001 8.783485e+001 3.564489e+001 3.016063e+001 1.383885e+001 1.374119e+000 1.230425e+000 2.855257e+000 2.168533e+000 2.696186e+000 4.211195e+000 6.749184e+000 3.863809e+000 4.179458e+000 3.659368e+000 2.787765e+000 2.337241e+000 4.656271e-001 3.090864e-001 2.595584e-001 4.349927e-001 4.397571e-001 4.241331e-001 6.799861e-001 7.018312e-001 6.085640e-001 5.993243e-001 1.041838e+000 3.849108e-001 3.672149e-001 1.526707e-001
<GCONST> 1.190553e+002
<STATE> 4
<MEAN> 39
 -1.854672e+000 -1.368616e+001 2.844831e+000 -3.940531e+000 -1.481485e+001 -1.855884e+001 -1.526151e+001 5.865635e+000 -8.470982e+000 -8.860750e+000 2.378505e+000 1.362906e+000 6.035557e+001 1.530625e+000 -1.044665e+000 -2.653290e+000 1.374541e-001 1.655836e+000 -9.105965e-001 -2.109331e+000 1.548936e+000 1.772440e+000 -1.203874e-001 -3.256153e-001 6.880224e-001 2.809294e-001 -4.721713e-001 5.134437e-001 1.766402e-001 -1.483054e-001 1.718881e-001 9.049659e-001 3.094136e-001 -7.800027e-001 1.809468e-001 2.623888e-001 -4.241348e-001 -2.148355e-001 -3.841223e-001
<VARIANCE> 39
 1.302782e+001 2.325588e+001 6.035696e+001 5.524191e+001 5.355988e+001 4.520863e+001 9.053857e+001 5.199345e+001 8.209306e+001 6.809164e+001 4.273181e+001 3.241722e+001 1.403852e+001 8.749754e-001 1.153366e+000 2.697215e+000 1.907340e+000 2.627371e+000 3.662101e+000 4.590833e+000 3.854316e+000 3.559142e+000 3.555821e+000 2.326419e+000 1.904085e+000 4.023504e-001 2.492880e-001 2.751027e-001 4.356108e-001 4.349787e-001 5.389388e-001 6.966625e-001 1.109784e+000 7.189859e-001 7.508718e-001 7.185572e-001 4.930290e-001 3.146386e-001 1.215277e-001
<GCONST> 1.200196e+002
<TRANSP> 5
 0.000000e+000 1.000000e+000 0.000000e+000 0.000000e+000 0.000000e+000
 0.000000e+000 5.099338e-001 4.900662e-001 0.000000e+000 0.000000e+000
 0.000000e+000 0.000000e+000 2.649007e-001 7.350993e-001 0.000000e+000
 0.000000e+000 0.000000e+000 0.000000e+000 3.901099e-001 6.098901e-001
 0.000000e+000 0.000000e+000 0.000000e+000 0.000000e+000 0.000000e+000
<ENDHMM>
