~o
<STREAMINFO> 1 39
<VECSIZE> 39<NULLD><MFCC_D_A_0><DIAGC>
~h "ih"
<BEGINHMM>
<NUMSTATES> 5
<STATE> 2
<MEAN> 39
 -5.423773e+000 -1.049280e+001 1.552305e+000 -1.183161e+001 -1.654738e+001 -1.200247e+001 -9.562918e+000 9.599886e-001 -5.515915e+000 -2.612449e+000 -2.080700e+000 -1.514406e+000 6.193556e+001 5.962412e-001 -6.127061e-001 1.251149e-001 -1.530965e-001 -5.092605e-001 -3.673651e-001 -3.198266e-001 6.017985e-001 -1.006690e-002 -1.264211e-001 -1.931760e-002 2.577861e-002 3.408237e-001 -3.336844e-001 4.155013e-001 -2.375309e-001 2.688614e-001 5.130805e-001 2.603304e-001 2.273484e-001 -2.532543e-001 -5.227340e-002 3.337944e-002 -4.006849e-002 -3.008298e-002 -5.492539e-001
<VARIANCE> 39
 1.516815e+001 3.289616e+001 6.109227e+001 6.833131e+001 5.651674e+001 6.198283e+001 7.583665e+001 6.866697e+001 7.415176e+001 5.548559e+001 5.709271e+001 3.631246e+001 2.194929e+001 2.351538e+000 2.020203e+000 2.984750e+000 2.609946e+000 3.758021e+000 3.340231e+000 4.077698e+000 3.671969e+000 3.650421e+000 2.963032e+000 2.702335e+000 2.148649e+000 1.343422e+000 4.496055e-001 3.294726e-001 3.783883e-001 4.554157e-001 5.608709e-001 6.140152e-001 7.299873e-001 6.856093e-001 6.527558e-001 5.423693e-001 4.869511e-001 3.878642e-001 3.302811e-001
<GCONST> 1.260370e+002
<STATE> 3
<MEAN> 39
 -4.785677e+000 -1.067947e+001 1.217341e+000 -1.129482e+001 -1.549623e+001 -1.166706e+001 -1.073774e+001 1.619681e+000 -6.380133e+000 -2.798901e+000 -2.621362e+000 -2.225831e+000 6.060152e+001 -2.736932e-001 1.665505e+000 -4.286156e-001 1.173442e+000 1.186895e+000 2.916497e-001 6.015763e-001 -1.299466e+000 -5.249565e-001 1.172446e-001 -2.936133e-001 -2.919386e-001 -2.001242e+000 -5.984663e-001 7.746308e-001 -3.815288e-001 4.788564e-001 7.195811e-001 3.974926e-001 5.220575e-001 -5.761810e-001 3.070026e-002 1.088958e-001 -6.103045e-002 -4.380254e-002 -8.416316e-001
<VARIANCE> 39
 1.311790e+001 2.965391e+001 5.587515e+001 6.541177e+001 5.605072e+001 6.719052e+001 7.956612e+001 7.147206e+001 8.660327e+001 6.318217e+001 6.818380e+001 4.493666e+001 2.139437e+001 1.881247e+000 2.620988e+000 3.699345e+000 3.970200e+000 4.323486e+000 4.252024e+000 4.945994e+000 5.524387e+000 5.338109e+000 4.486227e+000 3.839811e+000 3.092367e+000 3.213923e+000 6.061829e-001 4.923853e-001 6.227926e-001 7.608113e-001 9.262761e-001 1.031984e+000 1.050316e+000 1.098822e+000 1.170472e+000 9.614281e-001 8.304549e-001 6.691129e-001 5.892587e-001
<GCONST> 1.368855e+002
<STATE> 4
<MEAN> 39
 -8.614390e+000 -2.802842e+000 -1.392717e+000 -6.857451e+000 -9.422789e+000 -1.083512e+001 -7.240911e+000 -3.189293e+000 -5.798653e+000 -2.363324e+000 -3.787088e+000 -2.085422e+000 5.421048e+001 -2.271164e+000 2.046413e+000 -9.777357e-001 1.299214e+000 2.222689e+000 1.467981e+000 1.460856e+000 -9.846382e-001 -4.022713e-002 1.685260e-001 -7.330123e-002 -1.346813e-001 -2.496423e+000 -3.166178e-001 -4.779698e-001 -9.106699e-002 -2.820355e-001 -1.117484e-001 2.617642e-001 4.755324e-002 3.429159e-001 1.734583e-001 8.163326e-002 1.589683e-001 8.904496e-002 2.900469e-001
<VARIANCE> 39
 4.580344e+001 3.974565e+001 4.717828e+001 5.190328e+001 5.881777e+001 5.476620e+001 5.965342e+001 6.393878e+001 6.610577e+001 4.837569e+001 4.832520e+001 3.790192e+001 4.889177e+001 6.591091e+000 3.745524e+000 3.732476e+000 5.437585e+000 4.957719e+000 5.977386e+000 5.817802e+000 7.084608e+000 5.836736e+000 4.846923e+000 4.365091e+000 3.599003e+000 6.367945e+000 5.523866e-001 5.511588e-001 5.230632e-001 5.849987e-001 7.264666e-001 7.566253e-001 7.792882e-001 8.191498e-001 7.900902e-001 7.028660e-001 6.070119e-001 5.065940e-001 5.908316e-001
<GCONST> 1.383423e+002
<TRANSP> 5
 0.000000e+000 1.000000e+000 0.000000e+000 0.000000e+000 0.000000e+000
 0.000000e+000 7.070155e-001 2.929845e-001 0.000000e+000 0.000000e+000
 0.000000e+000 0.000000e+000 4.870573e-001 5.129427e-001 0.000000e+000
 0.000000e+000 0.000000e+000 0.000000e+000 4.464597e-001 5.535403e-001
 0.000000e+000 0.000000e+000 0.000000e+000 0.000000e+000 0.000000e+000
<ENDHMM>
