~o
<STREAMINFO> 1 39
<VECSIZE> 39<NULLD><MFCC_D_A_0><DIAGC>
~h "iy"
<BEGINHMM>
<NUMSTATES> 5
<STATE> 2
<MEAN> 39
 -6.110333e+000 -9.997631e+000 6.079144e+000 -9.789742e+000 -1.806880e+001 -1.255471e+001 -1.117432e+001 2.747810e-001 -9.312087e+000 -4.606244e+000 -2.855808e-001 -1.539065e+000 6.158313e+001 -4.024840e-002 -2.922314e-001 2.550493e+000 -8.539236e-001 -2.382544e+000 3.275629e-001 3.800911e-001 -1.567553e-001 -1.620252e+000 4.376046e-002 5.395527e-001 -2.209204e-001 5.303835e-001 -3.116899e-001 4.133143e-001 -5.359849e-001 -1.799950e-002 6.699316e-001 5.288488e-001 2.175141e-001 -3.502793e-001 2.166509e-001 2.932440e-001 -9.017707e-002 -9.527204e-002 -4.195992e-001
<VARIANCE> 39
 1.821143e+001 3.592463e+001 6.263775e+001 7.180974e+001 5.174633e+001 6.598959e+001 7.550442e+001 8.688770e+001 8.155673e+001 6.834497e+001 5.835909e+001 3.598215e+001 1.673220e+001 3.426350e+000 2.447469e+000 2.633470e+000 4.597520e+000 3.450167e+000 5.274842e+000 6.263793e+000 5.904131e+000 4.695092e+000 4.983531e+000 4.008417e+000 3.063490e+000 1.087041e+000 4.765046e-001 3.394007e-001 5.737278e-001 5.618206e-001 7.269500e-001 6.700938e-001 9.435323e-001 9.972659e-001 1.044433e+000 7.303934e-001 6.519731e-001 4.990793e-001 2.274013e-001
<GCONST> 1.328572e+002
<STATE> 3
<MEAN> 39
 -8.826760e+000 -6.404901e+000 1.084241e+001 -1.421350e+001 -2.129289e+001 -7.699347e+000 -8.663477e+000 -4.936330e+000 -1.184995e+001 -1.874281e+000 -1.689328e+000 -3.045156e+000 6.065856e+001 -8.058260e-002 3.172555e-001 3.458401e-002 2.420100e-002 6.726966e-002 2.701547e-001 2.111565e-001 -2.674169e-001 -1.998801e-002 1.738504e-001 -1.793764e-001 -1.382634e-001 -3.039314e-001 4.386563e-002 3.225608e-002 -5.453152e-001 3.849499e-001 4.597499e-001 -2.297054e-001 7.983901e-002 1.695025e-001 2.548260e-001 -1.153771e-001 -5.568923e-002 6.926876e-002 -2.130771e-001
<VARIANCE> 39
 1.276459e+001 3.499341e+001 3.818376e+001 8.769640e+001 3.686234e+001 6.135270e+001 5.431087e+001 7.532428e+001 5.254790e+001 6.820672e+001 8.027303e+001 3.766223e+001 2.097347e+001 5.137708e-001 1.217276e+000 1.506641e+000 1.675867e+000 1.376414e+000 2.253834e+000 2.080362e+000 2.333661e+000 1.973767e+000 1.819283e+000 1.560449e+000 1.312314e+000 5.389254e-001 1.391899e-001 2.147426e-001 3.389074e-001 3.657818e-001 4.668826e-001 3.950783e-001 4.343187e-001 4.082185e-001 4.445828e-001 4.198474e-001 3.744150e-001 2.756311e-001 1.470160e-001
<GCONST> 1.108382e+002
<STATE> 4
<MEAN> 39
 -8.448665e+000 -5.067142e+000 5.799419e+000 -8.375431e+000 -1.553752e+001 -1.024798e+001 -7.890008e+000 -3.599223e+000 -1.090730e+001 -3.095467e+000 -1.605392e+000 -2.785279e+000 5.707794e+001 -6.985221e-001 1.121611e+000 -2.739023e+000 1.089266e+000 2.779882e+000 3.502377e-001 8.163919e-001 2.416147e-002 1.234574e+000 6.993453e-002 -2.551507e-001 1.963168e-001 -1.661739e+000 -2.617558e-001 -2.709489e-002 -3.612415e-001 -1.803822e-001 2.604241e-001 3.820897e-001 9.537008e-002 7.285135e-002 2.230535e-001 7.442123e-002 1.744502e-002 7.632780e-002 -8.694232e-002
<VARIANCE> 39
 3.599157e+001 4.563712e+001 6.015879e+001 6.946497e+001 6.184935e+001 6.074492e+001 6.670096e+001 7.765202e+001 6.012118e+001 5.490098e+001 6.162511e+001 3.452969e+001 4.183799e+001 5.289685e+000 3.547521e+000 3.422785e+000 5.954551e+000 4.554540e+000 6.210020e+000 5.973800e+000 5.881979e+000 4.860485e+000 5.001791e+000 4.104335e+000 2.965820e+000 4.088228e+000 3.867976e-001 6.280549e-001 7.700759e-001 7.607442e-001 1.089340e+000 8.452859e-001 8.542209e-001 9.815252e-001 8.196734e-001 7.105042e-001 6.022303e-001 4.677801e-001 5.452776e-001
<GCONST> 1.390255e+002
<TRANSP> 5
 0.000000e+000 1.000000e+000 0.000000e+000 0.000000e+000 0.000000e+000
 0.000000e+000 5.816234e-001 4.183766e-001 0.000000e+000 0.000000e+000
 0.000000e+000 0.000000e+000 7.864361e-001 2.135639e-001 0.000000e+000
 0.000000e+000 0.000000e+000 0.000000e+000 6.633582e-001 3.366418e-001
 0.000000e+000 0.000000e+000 0.000000e+000 0.000000e+000 0.000000e+000
<ENDHMM>
