~o
<STREAMINFO> 1 39
<VECSIZE> 39<NULLD><MFCC_D_A_0><DIAGC>
~h "jh"
<BEGINHMM>
<NUMSTATES> 5
<STATE> 2
<MEAN> 39
 -2.696540e+001 -4.723248e+000 1.954011e+000 -1.189861e+001 -4.362643e+000 1.549255e-001 -4.919662e+000 -1.273481e+000 -1.474127e+000 -2.560582e+000 -9.053956e-001 -5.460565e-001 5.655659e+001 -2.708438e+000 2.564138e-001 6.167469e-001 -7.418931e-001 -9.222241e-001 4.532333e-002 9.142261e-001 4.491891e-001 6.283751e-001 6.277003e-001 7.586431e-001 5.650700e-001 2.730025e+000 1.627763e+000 3.684705e-001 2.570313e-001 8.418397e-001 -5.866299e-001 -9.420667e-001 -2.650380e-001 -2.501808e-001 -5.160329e-001 -3.159142e-001 -3.919488e-001 -1.653117e-001 -7.001888e-001
<VARIANCE> 39
 3.503121e+001 3.817789e+001 4.448000e+001 3.341536e+001 3.715183e+001 3.007805e+001 2.489281e+001 2.734093e+001 2.530901e+001 2.098767e+001 1.756176e+001 1.370343e+001 1.805798e+001 4.287221e+000 3.891537e+000 3.551563e+000 3.718128e+000 3.583300e+000 3.792088e+000 2.494517e+000 3.123035e+000 2.647918e+000 2.359930e+000 2.278388e+000 1.702230e+000 3.421868e+000 9.390653e-001 9.616461e-001 8.204027e-001 8.123414e-001 8.965778e-001 8.273447e-001 6.606819e-001 8.080971e-001 6.698261e-001 5.866980e-001 5.222481e-001 3.985651e-001 6.636536e-001
<GCONST> 1.245012e+002
<STATE> 3
<MEAN> 39
 -2.842406e+001 -4.527347e+000 4.971066e+000 -9.566425e+000 -7.703870e+000 -1.463967e+000 -2.387511e+000 -1.382597e+000 -1.088265e+000 -2.299343e+000 -1.102709e+000 -9.678357e-003 5.855906e+001 2.103100e+000 -3.654353e-002 3.814054e-001 7.317795e-001 -1.323508e+000 -1.852670e+000 -4.267924e-001 -2.422699e-001 -6.545441e-001 -4.182139e-001 -2.701353e-001 -5.594324e-002 2.102497e-001 1.494148e+000 -3.068984e-001 -3.261914e-001 1.684891e-001 -4.114459e-002 -4.675253e-001 -5.601769e-001 2.371829e-002 -2.860605e-001 -1.798160e-001 -9.561618e-002 -9.513393e-002 -6.212302e-001
<VARIANCE> 39
 2.718076e+001 3.076002e+001 3.343383e+001 3.184530e+001 3.650634e+001 2.834862e+001 2.886809e+001 2.748203e+001 2.562302e+001 2.044168e+001 1.634445e+001 1.435862e+001 1.630564e+001 5.487982e+000 1.806863e+000 2.878080e+000 2.564333e+000 4.084711e+000 4.488950e+000 2.894304e+000 2.684324e+000 2.661922e+000 2.017204e+000 1.809122e+000 1.399727e+000 3.186359e+000 1.027767e+000 5.151628e-001 5.047221e-001 4.887369e-001 6.231014e-001 7.713838e-001 7.057856e-001 6.130080e-001 5.573830e-001 4.886280e-001 4.178514e-001 3.544598e-001 3.958671e-001
<GCONST> 1.187832e+002
<STATE> 4
<MEAN> 39
 -1.440100e+001 -5.518535e+000 4.456216e+000 -7.510141e+000 -1.253126e+001 -1.055059e+001 -7.625388e+000 -2.539012e+000 -4.785838e+000 -4.747397e+000 -2.084778e+000 -5.411521e-001 5.839343e+001 4.791533e+000 -1.442745e+000 -8.775072e-001 1.566305e-001 -1.117681e+000 -2.284092e+000 -1.831721e+000 5.598593e-001 -7.391168e-001 -3.002687e-001 1.034058e-002 4.669376e-002 -2.963291e-001 -3.235624e-001 -3.394694e-001 -4.795539e-001 -3.253009e-001 5.595964e-001 7.282973e-001 8.717143e-002 3.140184e-001 2.651005e-001 2.419377e-001 8.913406e-002 -3.536119e-003 -2.033586e-001
<VARIANCE> 39
 4.614375e+001 3.032302e+001 3.578338e+001 5.195724e+001 4.129730e+001 4.413449e+001 4.044824e+001 3.557686e+001 3.949634e+001 2.745134e+001 2.297035e+001 1.775100e+001 4.579942e+001 4.073157e+000 3.993478e+000 4.328200e+000 3.840280e+000 6.544552e+000 6.843881e+000 6.542191e+000 5.523180e+000 4.881751e+000 4.455196e+000 3.486320e+000 2.741185e+000 4.980778e+000 9.065625e-001 5.312874e-001 4.690930e-001 5.184453e-001 7.678301e-001 7.839206e-001 9.358169e-001 8.083254e-001 6.227998e-001 5.778310e-001 4.741324e-001 4.076442e-001 6.353396e-001
<GCONST> 1.319331e+002
<TRANSP> 5
 0.000000e+000 1.000000e+000 0.000000e+000 0.000000e+000 0.000000e+000
 0.000000e+000 4.954052e-001 5.045948e-001 0.000000e+000 0.000000e+000
 0.000000e+000 0.000000e+000 6.354858e-001 3.645142e-001 0.000000e+000
 0.000000e+000 0.000000e+000 0.000000e+000 5.251572e-001 4.748428e-001
 0.000000e+000 0.000000e+000 0.000000e+000 0.000000e+000 0.000000e+000
<ENDHMM>
