~o
<STREAMINFO> 1 39
<VECSIZE> 39<NULLD><MFCC_D_A_0><DIAGC>
~h "k"
<BEGINHMM>
<NUMSTATES> 5
<STATE> 2
<MEAN> 39
 -1.720070e+001 -3.264615e+000 -4.470260e+000 -9.848837e-001 -2.392364e+000 -3.636350e+000 -3.092708e+000 -3.224646e-001 -3.124467e+000 -1.568024e-001 -1.273654e+000 -9.632933e-001 3.735669e+001 -1.290936e+000 -7.847487e-001 -1.019450e+000 -9.179885e-002 8.583288e-001 1.330940e+000 5.960033e-001 -1.492075e-002 8.816497e-001 4.982250e-001 5.387177e-002 3.097053e-001 -7.956973e-001 5.061634e-001 -6.655970e-001 -1.734926e-001 -8.365428e-001 -5.242824e-001 -5.391983e-001 -2.258507e-001 1.542079e-001 -1.444818e-001 4.274671e-002 -6.551387e-002 -2.951237e-002 1.999500e+000
<VARIANCE> 39
 3.055108e+001 2.418715e+001 3.508063e+001 2.728655e+001 4.208439e+001 4.803606e+001 4.083377e+001 4.188148e+001 4.476423e+001 3.057930e+001 2.701212e+001 2.163476e+001 4.525941e+001 6.348582e+000 6.225791e+000 6.010175e+000 6.975654e+000 7.585568e+000 7.368409e+000 5.995015e+000 6.041102e+000 6.338124e+000 4.294870e+000 4.236052e+000 2.896282e+000 2.119828e+001 8.001138e-001 9.505837e-001 9.464696e-001 8.879243e-001 1.045997e+000 1.237993e+000 1.013761e+000 1.050794e+000 1.105896e+000 7.790840e-001 7.535520e-001 5.363907e-001 1.868672e+000
<GCONST> 1.409425e+002
<STATE> 3
<MEAN> 39
 -1.659704e+001 -1.256750e+001 -1.003644e+001 -9.137151e+000 -3.437867e+000 -5.164958e+000 -4.011219e+000 6.533127e-001 -2.477613e+000 2.700680e+000 -2.096965e+000 -7.237016e-002 5.452110e+001 5.461227e-002 1.265675e-001 1.539827e-001 -1.389196e+000 -6.077446e-001 -7.577540e-001 6.086666e-002 -1.135425e-001 2.009195e-003 6.377304e-002 -1.426363e-001 4.162206e-002 3.354209e+000 1.128736e-001 1.032035e+000 6.906391e-001 5.081377e-001 -6.097819e-002 4.623015e-002 9.550167e-002 -1.214500e-001 -1.285172e-001 -4.127716e-001 7.048110e-002 -1.320548e-001 -9.857807e-001
<VARIANCE> 39
 2.948663e+001 3.382101e+001 6.227428e+001 4.551805e+001 5.219700e+001 4.866211e+001 4.979812e+001 4.390389e+001 4.039524e+001 3.405213e+001 2.811048e+001 2.194125e+001 4.772094e+001 4.895017e+000 6.135165e+000 4.633588e+000 5.105743e+000 4.223647e+000 4.441224e+000 4.203012e+000 3.826602e+000 4.055387e+000 3.362768e+000 2.919902e+000 2.393811e+000 1.136887e+001 7.820076e-001 7.878298e-001 8.337263e-001 9.250528e-001 9.532599e-001 9.921808e-001 9.248279e-001 8.785483e-001 9.503213e-001 7.500989e-001 6.630372e-001 5.637175e-001 1.647070e+000
<GCONST> 1.370107e+002
<STATE> 4
<MEAN> 39
 -1.208896e+001 -7.082383e+000 -4.447687e+000 -9.911763e+000 -7.163687e+000 -6.238834e+000 -3.213185e+000 -1.320438e+000 -4.526448e+000 -9.261434e-001 -2.463331e+000 -1.499755e+000 5.655755e+001 2.293498e+000 5.359440e-002 4.172436e-001 -5.066875e-001 -1.424064e+000 -6.200472e-001 -7.545610e-001 -6.331456e-002 -7.028506e-001 -9.681806e-001 8.594795e-002 -5.282090e-001 1.064515e+000 6.859086e-002 -4.601851e-001 -2.975054e-001 -9.602896e-002 -3.772834e-002 5.570763e-002 -2.043142e-001 1.752709e-001 1.017234e-001 1.348188e-001 7.482998e-002 7.797304e-003 -5.872541e-003
<VARIANCE> 39
 7.672794e+001 3.350348e+001 6.657314e+001 5.714330e+001 6.513349e+001 6.173815e+001 6.113461e+001 5.770427e+001 4.969224e+001 3.691499e+001 4.110377e+001 2.774551e+001 4.364988e+001 4.890076e+000 4.311948e+000 3.949959e+000 5.081276e+000 5.163136e+000 5.614989e+000 6.045778e+000 5.895877e+000 5.490201e+000 4.338969e+000 4.385830e+000 3.182220e+000 3.412426e+000 9.444049e-001 4.984119e-001 5.380611e-001 6.869712e-001 8.433022e-001 8.174931e-001 8.900422e-001 8.713188e-001 8.598365e-001 6.980119e-001 6.694811e-001 5.209760e-001 7.541156e-001
<GCONST> 1.383720e+002
<TRANSP> 5
 0.000000e+000 1.000000e+000 0.000000e+000 0.000000e+000 0.000000e+000
 0.000000e+000 7.722439e-001 2.277561e-001 0.000000e+000 0.000000e+000
 0.000000e+000 0.000000e+000 6.706800e-001 3.293200e-001 0.000000e+000
 0.000000e+000 0.000000e+000 0.000000e+000 7.105956e-001 2.894044e-001
 0.000000e+000 0.000000e+000 0.000000e+000 0.000000e+000 0.000000e+000
<ENDHMM>
