~o
<STREAMINFO> 1 39
<VECSIZE> 39<NULLD><MFCC_D_A_0><DIAGC>
~h "l"
<BEGINHMM>
<NUMSTATES> 5
<STATE> 2
<MEAN> 39
 -1.692316e+000 -4.532543e+000 -9.846264e+000 -2.192404e+001 -8.202462e+000 -7.531474e-001 -8.872299e+000 -7.760539e+000 -4.431124e+000 8.044648e-003 -5.191017e-001 -2.746541e+000 5.925729e+001 9.447945e-001 2.567223e-001 -3.049489e-001 -1.736646e+000 -2.167717e-001 8.115422e-001 -3.731635e-001 -3.944784e-001 -3.792339e-001 1.045087e-001 3.640571e-001 1.028811e-001 2.046454e-001 -4.762512e-001 -3.164113e-001 1.007918e-001 6.193402e-001 9.858266e-002 -2.539185e-001 1.323806e-001 4.922929e-001 2.490294e-001 -5.336985e-002 -1.754142e-001 -1.819405e-002 -5.271155e-002
<VARIANCE> 39
 1.502473e+001 4.422910e+001 5.041736e+001 7.907718e+001 5.920664e+001 7.945102e+001 7.937206e+001 6.392013e+001 6.159726e+001 6.030703e+001 6.700248e+001 3.959403e+001 2.489524e+001 2.371254e+000 3.637946e+000 3.043731e+000 5.819428e+000 4.645854e+000 5.498616e+000 5.553632e+000 5.538005e+000 4.928958e+000 4.591629e+000 3.958993e+000 3.539841e+000 2.353872e+000 5.075210e-001 5.207198e-001 4.644460e-001 9.511491e-001 8.381032e-001 8.804981e-001 9.714590e-001 9.842101e-001 1.026640e+000 9.065812e-001 7.745723e-001 6.397853e-001 3.118234e-001
<GCONST> 1.366487e+002
<STATE> 3
<MEAN> 39
 -4.008300e-001 -3.433529e+000 -1.136283e+001 -2.591667e+001 -8.936776e+000 2.149943e+000 -6.955448e+000 -5.864523e+000 -4.642568e+000 -1.521751e+000 4.657602e-004 -1.869569e+000 5.835598e+001 -2.103043e-001 -1.908337e-001 6.459725e-002 4.843120e-001 2.975688e-001 -3.480060e-001 -2.733106e-001 2.117792e-001 2.647897e-001 1.402171e-001 -2.086900e-001 -2.572935e-001 8.915960e-003 -2.865195e-001 -2.417933e-001 1.374373e-001 6.491336e-001 1.328573e-001 -3.005648e-001 -3.277988e-002 1.400369e-001 2.107672e-001 4.944040e-002 -1.973787e-001 -1.378729e-001 -4.710531e-003
<VARIANCE> 39
 9.687168e+000 4.295590e+001 4.845563e+001 6.815320e+001 6.724982e+001 6.415453e+001 7.693338e+001 6.244594e+001 5.725784e+001 5.807973e+001 5.577716e+001 4.044970e+001 2.640106e+001 5.238688e-001 2.824337e+000 1.622762e+000 3.115481e+000 2.470545e+000 2.962841e+000 3.062311e+000 3.164291e+000 3.544359e+000 3.148153e+000 2.573109e+000 2.470424e+000 1.463894e+000 1.831049e-001 3.418399e-001 2.974275e-001 5.654656e-001 5.376248e-001 5.745838e-001 5.638835e-001 6.922395e-001 6.459365e-001 6.112653e-001 5.355769e-001 4.707931e-001 2.393054e-001
<GCONST> 1.222722e+002
<STATE> 4
<MEAN> 39
 -4.157407e+000 -6.000344e+000 -7.613213e+000 -1.743460e+001 -7.572042e+000 -4.266164e+000 -1.000067e+001 -4.240027e+000 -3.091025e+000 -4.804279e-001 -2.621825e+000 -3.361476e+000 5.879085e+001 -1.543669e+000 -4.810899e-001 1.424644e+000 2.445067e+000 -2.279993e-001 -1.329094e+000 3.159565e-001 1.093940e+000 1.534579e-001 -4.685929e-001 -6.357548e-001 1.665878e-002 -3.732103e-001 -1.816721e-001 3.554770e-002 1.988971e-001 -3.344804e-002 -1.815054e-001 1.550983e-001 3.006506e-001 5.783662e-002 -1.983078e-001 -1.283552e-001 1.109470e-001 1.546083e-001 -1.438859e-001
<VARIANCE> 39
 2.502396e+001 5.086592e+001 7.682436e+001 8.094229e+001 6.387910e+001 8.702267e+001 7.792850e+001 6.874094e+001 7.053101e+001 6.038544e+001 5.986708e+001 4.190961e+001 4.688513e+001 3.572096e+000 4.208998e+000 4.383924e+000 7.258704e+000 7.139764e+000 6.059828e+000 5.645816e+000 6.667307e+000 7.352622e+000 5.414837e+000 4.367844e+000 3.964686e+000 4.424758e+000 4.053798e-001 4.919898e-001 5.382264e-001 9.880882e-001 8.716611e-001 9.423413e-001 8.706063e-001 1.080967e+000 1.133574e+000 9.673575e-001 7.164612e-001 6.722390e-001 3.585222e-001
<GCONST> 1.422268e+002
<TRANSP> 5
 0.000000e+000 1.000000e+000 0.000000e+000 0.000000e+000 0.000000e+000
 0.000000e+000 4.292848e-001 5.707152e-001 0.000000e+000 0.000000e+000
 0.000000e+000 0.000000e+000 6.971752e-001 3.028248e-001 0.000000e+000
 0.000000e+000 0.000000e+000 0.000000e+000 5.831994e-001 4.168006e-001
 0.000000e+000 0.000000e+000 0.000000e+000 0.000000e+000 0.000000e+000
<ENDHMM>
