~o
<STREAMINFO> 1 39
<VECSIZE> 39<NULLD><MFCC_D_A_0><DIAGC>
~h "m"
<BEGINHMM>
<NUMSTATES> 5
<STATE> 2
<MEAN> 39
 -3.118937e+000 -4.336771e+000 -4.835690e+000 -5.186080e+000 -7.623010e+000 -7.813479e+000 -7.804770e+000 -8.324271e+000 -1.145299e+001 -2.500847e+000 -2.001976e+000 -5.798693e+000 5.245303e+001 -1.015223e-001 1.148058e+000 9.233939e-001 1.537026e+000 1.919011e-001 -8.730037e-001 1.561760e-001 -1.837077e+000 -1.974279e+000 3.305490e-001 2.131424e-001 -5.571934e-001 -8.965651e-001 -3.584852e-001 -4.025345e-001 5.392212e-003 -4.285133e-001 -1.312154e-001 2.664273e-001 5.166032e-002 6.081906e-001 5.789491e-001 -1.823003e-002 -1.215484e-001 2.132283e-001 3.546448e-001
<VARIANCE> 39
 9.322228e+000 2.788144e+001 3.463507e+001 5.266222e+001 4.849575e+001 6.071475e+001 6.303661e+001 7.153330e+001 7.218048e+001 6.020842e+001 7.533849e+001 5.046700e+001 2.088397e+001 2.991130e+000 3.802742e+000 4.035954e+000 4.554402e+000 4.850700e+000 4.091799e+000 5.403336e+000 5.580614e+000 5.917797e+000 4.733694e+000 4.550308e+000 3.782210e+000 4.760862e+000 4.421917e-001 4.047088e-001 6.169454e-001 6.360495e-001 6.840232e-001 6.924155e-001 8.179613e-001 9.377697e-001 1.050276e+000 7.827490e-001 7.810411e-001 6.117913e-001 2.857171e-001
<GCONST> 1.344272e+002
<STATE> 3
<MEAN> 39
 -4.055011e+000 -3.354456e+000 -3.098625e+000 -3.566820e+000 -7.676317e+000 -8.402379e+000 -7.366170e+000 -1.046484e+001 -1.321546e+001 -1.368779e+000 -2.371580e+000 -6.830363e+000 5.177097e+001 -1.841371e-001 -1.902806e-001 3.318501e-002 -3.547813e-001 -1.105136e-001 2.468989e-001 -3.066072e-002 4.366170e-001 5.852073e-001 -2.017509e-001 -1.901500e-001 2.322142e-001 2.749130e-001 -8.458021e-002 -4.083006e-001 -2.621392e-001 -6.285010e-001 -1.358239e-001 3.299330e-001 3.852595e-005 7.368907e-001 7.610965e-001 -1.411043e-001 -7.234308e-002 2.811998e-001 3.574798e-001
<VARIANCE> 39
 8.293282e+000 2.452093e+001 3.103706e+001 5.018731e+001 5.136445e+001 7.118398e+001 6.585450e+001 6.665536e+001 6.196270e+001 6.113258e+001 8.290072e+001 5.370081e+001 2.077567e+001 8.602200e-001 2.038218e+000 1.820107e+000 2.645182e+000 2.283994e+000 2.134145e+000 2.493785e+000 3.224724e+000 3.743880e+000 2.534643e+000 2.537086e+000 2.178549e+000 2.131469e+000 2.931097e-001 2.986513e-001 4.937327e-001 5.009589e-001 5.654603e-001 5.373018e-001 6.487829e-001 6.870512e-001 8.348948e-001 6.584045e-001 6.805312e-001 5.679814e-001 2.555612e-001
<GCONST> 1.223820e+002
<STATE> 4
<MEAN> 39
 -4.872208e+000 -6.718534e+000 -4.524102e+000 -9.207693e+000 -9.378801e+000 -6.319291e+000 -7.831826e+000 -4.250257e+000 -6.915501e+000 -3.552207e+000 -3.233531e+000 -4.203141e+000 5.610023e+001 -7.461575e-001 -1.471556e+000 -1.538241e-001 -2.343225e+000 -7.857963e-001 1.152357e+000 1.594425e-001 2.487978e+000 1.997964e+000 -3.037829e-001 -1.688556e-001 8.907878e-001 1.682446e+000 -1.792254e-001 7.681811e-002 1.116363e-001 6.894977e-002 2.184002e-002 2.571622e-002 1.530791e-001 -8.483621e-002 -2.498695e-001 2.005246e-001 4.853814e-002 -6.359566e-002 -1.034619e-001
<VARIANCE> 39
 2.826357e+001 4.681607e+001 5.770226e+001 6.727879e+001 6.527390e+001 6.721454e+001 5.620230e+001 6.607338e+001 6.445497e+001 4.592743e+001 5.496347e+001 3.664615e+001 4.861690e+001 4.088744e+000 3.260784e+000 6.685557e+000 5.396213e+000 7.158616e+000 5.188108e+000 5.727716e+000 5.690276e+000 7.190552e+000 5.392140e+000 5.358023e+000 4.149587e+000 3.119702e+000 3.265929e-001 6.287619e-001 6.100112e-001 8.376904e-001 7.286401e-001 7.141175e-001 7.422062e-001 1.001904e+000 1.012507e+000 6.680731e-001 6.471030e-001 5.107762e-001 4.998137e-001
<GCONST> 1.389965e+002
<TRANSP> 5
 0.000000e+000 1.000000e+000 0.000000e+000 0.000000e+000 0.000000e+000
 0.000000e+000 4.197907e-001 5.802093e-001 0.000000e+000 0.000000e+000
 0.000000e+000 0.000000e+000 6.990049e-001 3.009950e-001 0.000000e+000
 0.000000e+000 0.000000e+000 0.000000e+000 5.429258e-001 4.570742e-001
 0.000000e+000 0.000000e+000 0.000000e+000 0.000000e+000 0.000000e+000
<ENDHMM>
