~o
<STREAMINFO> 1 39
<VECSIZE> 39<NULLD><MFCC_D_A_0><DIAGC>
~h "n"
<BEGINHMM>
<NUMSTATES> 5
<STATE> 2
<MEAN> 39
 -4.266384e+000 -4.742944e+000 -2.498296e+000 -6.879817e+000 -1.111953e+001 -8.498409e+000 -5.604960e+000 -6.139735e+000 -9.112227e+000 -1.346784e+000 -5.926995e+000 -4.701146e+000 5.335325e+001 2.345219e-001 1.581417e+000 5.976549e-002 1.403131e+000 -1.670001e-002 -4.731898e-001 1.137526e+000 -2.604428e+000 -1.354499e+000 1.060980e+000 -6.466638e-001 -2.339043e-001 -1.667514e+000 -3.229622e-001 -2.954965e-001 -2.992356e-002 -3.588241e-001 1.528174e-002 2.868770e-001 -9.977269e-002 5.126255e-001 3.810283e-001 -2.096907e-001 1.724242e-001 1.509184e-001 3.750623e-001
<VARIANCE> 39
 1.039598e+001 3.030810e+001 3.778589e+001 5.475896e+001 4.979076e+001 5.377398e+001 5.767594e+001 8.054508e+001 7.372579e+001 6.075781e+001 6.242429e+001 4.954482e+001 2.197012e+001 2.285478e+000 3.230294e+000 4.073028e+000 3.875063e+000 4.575870e+000 4.695642e+000 5.231810e+000 6.886777e+000 5.957557e+000 4.567095e+000 3.993577e+000 3.456505e+000 2.683087e+000 3.678911e-001 4.425049e-001 4.798797e-001 5.914631e-001 7.052494e-001 6.804700e-001 8.111680e-001 1.182220e+000 8.876943e-001 7.645796e-001 6.630238e-001 5.487685e-001 3.391210e-001
<GCONST> 1.329296e+002
<STATE> 3
<MEAN> 39
 -4.222924e+000 -2.034775e+000 -2.434314e+000 -5.043185e+000 -1.218206e+001 -8.611960e+000 -2.951619e+000 -1.109921e+001 -1.087859e+001 -3.094706e-002 -7.203751e+000 -4.189852e+000 5.094791e+001 -4.110884e-001 2.964720e-001 1.188999e-001 5.749397e-002 3.809557e-001 2.490206e-001 -2.430445e-001 2.307571e-001 2.150981e-001 -3.716710e-001 8.185419e-002 1.187405e-001 -3.369725e-001 -3.441903e-001 -5.147229e-001 -8.671893e-002 -4.625936e-001 2.479528e-001 2.238642e-001 -4.065116e-001 1.055945e+000 5.725996e-001 -3.822548e-001 2.912624e-001 9.651942e-002 4.716628e-001
<VARIANCE> 39
 8.645136e+000 3.049277e+001 2.832901e+001 5.051514e+001 4.630753e+001 4.953635e+001 5.487454e+001 7.296489e+001 6.533899e+001 6.239553e+001 6.603806e+001 5.454529e+001 2.305680e+001 1.212710e+000 2.371592e+000 1.765687e+000 2.285663e+000 2.711336e+000 2.335635e+000 3.034515e+000 4.528319e+000 3.366312e+000 2.864420e+000 2.525455e+000 2.179556e+000 1.997599e+000 3.468493e-001 5.529345e-001 5.473578e-001 6.381434e-001 7.114921e-001 7.267709e-001 8.171301e-001 1.118618e+000 1.024011e+000 7.982779e-001 7.124573e-001 6.057043e-001 4.307764e-001
<GCONST> 1.264359e+002
<STATE> 4
<MEAN> 39
 -7.430563e+000 -4.863159e+000 -2.436147e+000 -7.909000e+000 -9.454494e+000 -7.106389e+000 -6.982578e+000 -3.963925e+000 -6.613732e+000 -3.081236e+000 -5.542751e+000 -3.801952e+000 5.413678e+001 -1.582727e+000 -1.164511e+000 -4.299680e-001 -1.228830e+000 7.003090e-001 9.230393e-001 -5.209913e-001 2.385891e+000 1.569760e+000 -5.264608e-001 7.375427e-001 3.867196e-001 1.193473e+000 -7.136863e-002 -1.618224e-001 -2.017848e-001 -1.237027e-001 -1.116265e-001 1.142093e-001 2.620219e-001 3.940502e-002 4.230843e-002 2.218215e-001 9.483444e-002 6.505632e-002 1.625510e-001
<VARIANCE> 39
 3.657611e+001 6.516316e+001 4.398951e+001 5.884475e+001 5.832380e+001 4.664144e+001 5.560748e+001 7.073477e+001 6.729444e+001 4.737339e+001 4.535450e+001 3.925829e+001 5.746775e+001 5.581724e+000 4.383494e+000 4.681620e+000 4.698442e+000 5.945234e+000 4.961831e+000 6.063165e+000 7.053667e+000 6.220013e+000 5.196221e+000 4.681396e+000 3.770118e+000 4.086034e+000 4.995412e-001 7.946757e-001 5.434029e-001 7.328469e-001 7.448859e-001 7.209183e-001 8.244531e-001 1.207783e+000 9.822857e-001 7.446520e-001 6.592889e-001 5.691515e-001 6.876572e-001
<GCONST> 1.401455e+002
<TRANSP> 5
 0.000000e+000 1.000000e+000 0.000000e+000 0.000000e+000 0.000000e+000
 0.000000e+000 4.091405e-001 5.908596e-001 0.000000e+000 0.000000e+000
 0.000000e+000 0.000000e+000 6.162693e-001 3.837307e-001 0.000000e+000
 0.000000e+000 0.000000e+000 0.000000e+000 5.239272e-001 4.760729e-001
 0.000000e+000 0.000000e+000 0.000000e+000 0.000000e+000 0.000000e+000
<ENDHMM>
