~o
<STREAMINFO> 1 39
<VECSIZE> 39<NULLD><MFCC_D_A_0><DIAGC>
~h "ng"
<BEGINHMM>
<NUMSTATES> 5
<STATE> 2
<MEAN> 39
 -4.693980e+000 -4.271131e+000 -1.264130e+000 -9.298983e+000 -1.397006e+001 -6.360991e+000 -3.249150e+000 -4.965495e+000 -1.501137e+001 3.322880e-001 -1.016208e+000 -7.525201e+000 5.401401e+001 6.057007e-001 1.252470e+000 -1.634913e+000 1.962879e+000 8.816230e-001 -9.336901e-001 7.793948e-001 -1.824479e+000 -3.002087e-001 6.801745e-001 -6.723213e-001 -2.311111e-001 -1.685163e+000 -1.524431e-001 -2.476948e-001 1.267549e-001 -1.234796e-001 -6.972691e-002 1.010720e-001 -1.441027e-001 2.832501e-001 5.118238e-001 -3.130848e-001 -1.214209e-001 3.191297e-001 2.260382e-001
<VARIANCE> 39
 9.560899e+000 2.346351e+001 4.679526e+001 6.181651e+001 5.112340e+001 6.146973e+001 5.754327e+001 9.780071e+001 6.113095e+001 6.898737e+001 1.084007e+002 4.704421e+001 1.863271e+001 1.056664e+000 1.948066e+000 4.195510e+000 3.761703e+000 5.399273e+000 5.476593e+000 4.793516e+000 6.324988e+000 5.198496e+000 5.053811e+000 4.318876e+000 3.282924e+000 1.181422e+000 1.734148e-001 2.603832e-001 5.616454e-001 5.991585e-001 7.106488e-001 7.932239e-001 6.168135e-001 9.760033e-001 7.683324e-001 7.913945e-001 7.151207e-001 5.185813e-001 1.771375e-001
<GCONST> 1.294359e+002
<STATE> 3
<MEAN> 39
 -3.536843e+000 -2.120936e+000 -4.623819e+000 -5.911766e+000 -1.434778e+001 -7.436490e+000 -1.496225e+000 -1.045850e+001 -1.315478e+001 5.900605e-001 -4.101123e+000 -5.986385e+000 5.136988e+001 -1.211339e-001 6.401958e-001 -1.560059e-001 4.564794e-001 5.609425e-001 -5.386858e-002 -1.252190e-001 5.252495e-003 1.941892e-001 -4.141837e-001 -1.152207e-001 2.529472e-001 -7.940063e-001 -3.744309e-001 -2.473487e-001 3.332807e-001 -4.392036e-001 2.436650e-001 2.334246e-001 -2.977028e-001 6.383305e-001 2.225525e-001 -2.267141e-001 1.585533e-001 1.147642e-001 2.238326e-001
<VARIANCE> 39
 7.955323e+000 2.165513e+001 2.934161e+001 5.793369e+001 5.238839e+001 5.278628e+001 5.606985e+001 7.983671e+001 5.213463e+001 6.611188e+001 9.790818e+001 4.716690e+001 1.804829e+001 7.526299e-001 1.240501e+000 1.809610e+000 2.298330e+000 2.999819e+000 2.574261e+000 2.712778e+000 3.397866e+000 2.715145e+000 2.729306e+000 2.640517e+000 1.998536e+000 1.136462e+000 2.345775e-001 3.707564e-001 5.674072e-001 5.753358e-001 8.226660e-001 7.027828e-001 7.513552e-001 8.868291e-001 7.445797e-001 7.158696e-001 6.448228e-001 4.933130e-001 2.250213e-001
<GCONST> 1.217064e+002
<STATE> 4
<MEAN> 39
 -7.116553e+000 -1.312900e+000 -2.865554e+000 -6.578182e+000 -9.680830e+000 -7.054423e+000 -3.848085e+000 -5.681151e+000 -1.131955e+001 -2.359292e+000 -2.909419e+000 -4.752435e+000 5.032121e+001 -1.807722e+000 -7.851363e-001 -4.011807e-002 -2.884206e-001 1.757236e+000 3.702184e-001 -6.029136e-001 1.695305e+000 1.752171e+000 -4.890622e-001 -2.519528e-002 8.973781e-001 8.556110e-002 -2.122823e-001 -5.753315e-001 -1.761116e-001 -1.737346e-001 -1.517960e-001 7.191875e-002 6.498832e-002 2.282608e-001 3.461474e-001 2.310562e-001 5.696210e-002 1.005548e-001 4.415043e-001
<VARIANCE> 39
 3.044983e+001 3.615791e+001 4.373010e+001 5.826762e+001 6.951936e+001 5.269733e+001 5.986401e+001 8.429961e+001 6.017747e+001 5.283018e+001 6.959882e+001 3.849083e+001 4.317150e+001 4.248625e+000 3.892592e+000 4.487164e+000 5.043384e+000 6.838289e+000 5.477561e+000 6.523058e+000 6.435745e+000 5.428300e+000 5.085963e+000 5.403543e+000 3.538152e+000 3.727059e+000 5.756409e-001 8.111303e-001 6.544645e-001 7.236142e-001 1.024520e+000 8.630307e-001 1.036242e+000 1.057993e+000 9.760298e-001 7.814877e-001 6.975445e-001 5.792893e-001 5.606807e-001
<GCONST> 1.405537e+002
<TRANSP> 5
 0.000000e+000 1.000000e+000 0.000000e+000 0.000000e+000 0.000000e+000
 0.000000e+000 4.733796e-001 5.266204e-001 0.000000e+000 0.000000e+000
 0.000000e+000 0.000000e+000 6.712428e-001 3.287572e-001 0.000000e+000
 0.000000e+000 0.000000e+000 0.000000e+000 5.608108e-001 4.391892e-001
 0.000000e+000 0.000000e+000 0.000000e+000 0.000000e+000 0.000000e+000
<ENDHMM>
