~o
<STREAMINFO> 1 39
<VECSIZE> 39<NULLD><MFCC_D_A_0><DIAGC>
~h "oh"
<BEGINHMM>
<NUMSTATES> 5
<STATE> 2
<MEAN> 39
 1.072715e+000 -1.649247e+001 -1.757768e+001 -1.465516e+001 -8.141256e+000 -2.797243e-001 -3.583084e+000 1.337762e+000 -2.525973e+000 -1.616949e+000 1.796545e+000 -6.027345e+000 6.343417e+001 -7.457613e-001 -1.969085e-001 9.617197e-001 -1.474318e+000 3.769743e-001 1.625750e+000 1.035543e+000 -1.264102e+000 -5.314381e-001 4.027904e-001 -9.538279e-002 -1.211584e+000 5.582422e-001 1.361032e-001 1.153686e-001 -6.368312e-002 1.221070e-001 2.550333e-001 -3.869510e-001 -6.156195e-001 -6.446662e-002 3.887767e-001 1.550951e-001 -4.369029e-001 3.761697e-001 -1.521693e-001
<VARIANCE> 39
 9.341131e+000 4.590005e+001 3.442537e+001 4.801004e+001 7.449900e+001 7.066396e+001 4.896657e+001 6.177698e+001 9.002892e+001 3.580359e+001 5.404702e+001 5.161109e+001 1.829532e+001 2.288337e-001 5.359019e-001 7.484625e-001 2.696603e+000 2.135666e+000 1.958782e+000 4.179863e+000 2.750048e+000 3.216570e+000 1.641110e+000 1.861644e+000 2.250939e+000 1.690042e-001 5.642746e-002 7.725422e-002 1.789847e-001 2.530307e-001 2.138274e-001 3.190060e-001 4.341564e-001 4.691232e-001 2.826712e-001 2.724661e-001 3.356608e-001 3.916340e-001 2.521714e-002
<GCONST> 1.033659e+002
<STATE> 3
<MEAN> 39
 -2.497886e-001 -1.656680e+001 -1.431113e+001 -2.001472e+001 -5.728185e+000 5.073146e+000 -2.164940e+000 -2.015316e+000 -3.994522e+000 9.712561e-001 -1.643678e+000 -4.987466e+000 6.283473e+001 -8.398911e-002 2.118664e-001 5.781440e-001 -3.377508e-001 5.802695e-002 -2.475959e-001 -3.267393e-001 -4.266215e-003 2.886691e-001 3.341554e-001 -4.268433e-001 3.194326e-001 -6.468482e-002 1.867367e-002 7.880691e-002 1.268736e-001 2.865361e-001 -1.812263e-001 -3.873665e-001 -2.638012e-001 2.111509e-001 1.268174e-001 3.410457e-002 1.933112e-002 -4.001324e-004 -1.075446e-001
<VARIANCE> 39
 1.413092e+001 5.486971e+001 5.158867e+001 5.162614e+001 6.054410e+001 4.354533e+001 3.129116e+001 3.883265e+001 4.810401e+001 3.647299e+001 6.302958e+001 4.777529e+001 3.528467e+001 1.510460e-001 3.795310e-001 8.633458e-001 1.096736e+000 7.114995e-001 1.271655e+000 2.149217e+000 1.166928e+000 1.380752e+000 1.321798e+000 1.262033e+000 1.162006e+000 1.095145e-001 4.013757e-002 5.788927e-002 1.212628e-001 1.684658e-001 1.391035e-001 2.183307e-001 3.613854e-001 2.746380e-001 2.067160e-001 2.194311e-001 1.948195e-001 2.360248e-001 3.600635e-002
<GCONST> 9.166319e+001
<STATE> 4
<MEAN> 39
 -1.043529e+000 -1.302555e+001 -6.195035e+000 -1.676871e+001 -8.194190e+000 -2.127181e+000 -9.324785e+000 -1.413452e+000 5.116508e-001 1.297438e+000 -4.298415e+000 -4.143090e+000 5.973404e+001 -7.522115e-001 2.246878e+000 1.761466e+000 2.180504e+000 -3.150481e-002 -1.521127e+000 -1.145638e+000 -3.281684e-001 -9.417619e-001 8.488949e-002 -7.864885e-001 -1.433760e-001 -2.374914e+000 -3.283455e-001 3.292086e-001 4.723682e-002 4.846466e-001 8.292576e-002 1.384800e-002 4.958574e-001 -1.365325e-001 -5.854988e-001 -4.342082e-001 1.829836e-001 8.207545e-002 -3.171299e-001
<VARIANCE> 39
 9.640810e+000 7.231346e+001 5.715851e+001 7.710231e+001 4.255172e+001 4.487329e+001 6.706506e+001 5.613554e+001 6.824879e+001 4.869518e+001 5.706047e+001 4.225243e+001 4.837088e+001 1.295837e+000 6.072242e+000 1.784182e+000 6.138826e+000 5.258667e+000 4.649737e+000 7.642048e+000 3.972705e+000 4.820150e+000 3.970840e+000 3.135798e+000 1.755446e+000 4.601316e+000 1.814847e-001 1.098994e+000 5.080273e-001 1.059486e+000 9.327025e-001 4.655841e-001 9.490971e-001 5.763687e-001 6.086330e-001 7.643072e-001 4.408706e-001 4.000239e-001 9.187649e-001
<GCONST> 1.331743e+002
<TRANSP> 5
 0.000000e+000 1.000000e+000 0.000000e+000 0.000000e+000 0.000000e+000
 0.000000e+000 7.187500e-001 2.812500e-001 0.000000e+000 0.000000e+000
 0.000000e+000 0.000000e+000 8.378378e-001 1.621622e-001 0.000000e+000
 0.000000e+000 0.000000e+000 0.000000e+000 6.896552e-001 3.103448e-001
 0.000000e+000 0.000000e+000 0.000000e+000 0.000000e+000 0.000000e+000
<ENDHMM>
