~o
<STREAMINFO> 1 39
<VECSIZE> 39<NULLD><MFCC_D_A_0><DIAGC>
~h "ow"
<BEGINHMM>
<NUMSTATES> 5
<STATE> 2
<MEAN> 39
 -2.039673e+000 -1.308488e+001 -8.823336e+000 -1.698309e+001 -1.084356e+001 -4.420714e+000 -1.114506e+001 -1.918651e-001 -7.928043e-001 1.433510e+000 -2.965540e+000 -4.597266e+000 6.451882e+001 1.140039e+000 -8.672559e-001 -1.076968e+000 -1.591895e+000 -6.887365e-002 1.745580e+000 -1.972961e-001 -3.861851e-001 1.401607e-001 5.324331e-001 4.267761e-001 -5.353618e-001 6.446949e-001 -5.264056e-001 4.952354e-001 9.710044e-002 2.532452e-001 3.190734e-001 2.468764e-001 4.638638e-001 -3.000744e-001 -3.327065e-001 -1.961568e-001 1.428997e-001 2.753309e-001 -6.241301e-001
<VARIANCE> 39
 1.332366e+001 3.178281e+001 4.632551e+001 6.287204e+001 5.596639e+001 9.242658e+001 7.243254e+001 6.752095e+001 6.304992e+001 6.292391e+001 9.429060e+001 4.619135e+001 1.924674e+001 2.299795e+000 2.725538e+000 2.685316e+000 3.285705e+000 4.833730e+000 4.557025e+000 5.314394e+000 5.330661e+000 4.660674e+000 4.432465e+000 4.563020e+000 3.626933e+000 1.432997e+000 3.979977e-001 3.342025e-001 4.346322e-001 6.004838e-001 7.954584e-001 9.943208e-001 9.179249e-001 9.277277e-001 8.333344e-001 8.196680e-001 7.650034e-001 6.934360e-001 3.204604e-001
<GCONST> 1.331055e+002
<STATE> 3
<MEAN> 39
 -2.085556e-001 -9.751355e+000 -1.129935e+001 -2.146731e+001 -1.089070e+001 2.185394e+000 -8.605454e+000 -4.077317e+000 -3.398460e+000 2.317958e-001 1.325034e-001 -3.102205e+000 6.184018e+001 3.762029e-002 4.914107e-001 1.408660e-001 -4.790105e-002 -1.575671e-001 8.536899e-002 1.168357e-002 -3.626740e-001 -4.271284e-001 -2.390511e-001 3.746794e-002 2.543353e-001 -4.284954e-001 -9.085995e-002 5.252426e-002 1.339421e-001 3.298563e-001 4.660363e-002 -3.267614e-001 -7.894003e-002 1.897099e-002 1.045648e-002 -6.405194e-003 -1.459021e-001 -4.478814e-002 -1.163883e-001
<VARIANCE> 39
 1.014186e+001 4.050755e+001 3.403767e+001 6.998686e+001 6.824789e+001 8.439626e+001 7.266087e+001 6.452399e+001 6.398681e+001 7.409434e+001 9.159338e+001 4.596758e+001 2.242887e+001 2.775312e-001 8.873198e-001 9.187492e-001 1.930481e+000 1.541941e+000 2.280366e+000 2.178493e+000 2.033258e+000 2.229865e+000 2.415596e+000 2.046102e+000 1.886443e+000 3.475144e-001 5.607399e-002 1.559849e-001 1.533729e-001 2.496262e-001 2.967997e-001 3.582160e-001 3.462120e-001 3.672823e-001 3.550458e-001 4.237823e-001 3.635921e-001 3.275129e-001 6.569912e-002
<GCONST> 1.073471e+002
<STATE> 4
<MEAN> 39
 -2.808681e+000 -6.689212e+000 -8.584431e+000 -1.526070e+001 -9.345450e+000 -2.669250e+000 -9.784695e+000 -6.114495e+000 -5.347646e+000 -2.429051e-001 -1.836568e+000 -3.049632e+000 5.808950e+001 -1.747747e+000 1.072738e+000 8.094424e-001 2.327838e+000 9.007739e-001 -1.241563e+000 7.361460e-001 -9.464051e-002 -6.326385e-002 -4.397854e-001 -8.229145e-001 -1.449158e-002 -1.624310e+000 -4.501915e-001 -7.642172e-002 6.284044e-002 7.739301e-002 1.234135e-001 1.082397e-001 1.897376e-001 3.106619e-001 1.650330e-001 -3.263394e-002 1.409736e-002 2.948993e-002 -6.636193e-002
<VARIANCE> 39
 3.618134e+001 5.223700e+001 4.460405e+001 9.846434e+001 6.418459e+001 8.615276e+001 7.429103e+001 6.187519e+001 6.651582e+001 6.697931e+001 8.385471e+001 4.434631e+001 3.944573e+001 4.821253e+000 3.506929e+000 2.810011e+000 4.946116e+000 5.298292e+000 5.442242e+000 5.610698e+000 6.113176e+000 5.402068e+000 5.590402e+000 5.330892e+000 3.787510e+000 3.580303e+000 5.064678e-001 5.835177e-001 4.232331e-001 1.116638e+000 7.837383e-001 8.804096e-001 9.098409e-001 9.734823e-001 9.578688e-001 9.337342e-001 8.760949e-001 6.343026e-001 5.315210e-001
<GCONST> 1.412107e+002
<TRANSP> 5
 0.000000e+000 1.000000e+000 0.000000e+000 0.000000e+000 0.000000e+000
 0.000000e+000 6.751825e-001 3.248175e-001 0.000000e+000 0.000000e+000
 0.000000e+000 0.000000e+000 8.567501e-001 1.432499e-001 0.000000e+000
 0.000000e+000 0.000000e+000 0.000000e+000 7.162593e-001 2.837407e-001
 0.000000e+000 0.000000e+000 0.000000e+000 0.000000e+000 0.000000e+000
<ENDHMM>
