~o
<STREAMINFO> 1 39
<VECSIZE> 39<NULLD><MFCC_D_A_0><DIAGC>
~h "oy"
<BEGINHMM>
<NUMSTATES> 5
<STATE> 2
<MEAN> 39
 1.129028e+000 -8.476076e+000 -1.192746e+001 -2.176563e+001 -1.377410e+001 3.977582e+000 -4.151948e+000 -3.219228e+000 -5.250718e+000 -2.006886e+000 1.625455e-001 -1.782087e+000 5.952335e+001 4.193783e-001 -6.179692e-001 -4.152885e-001 -5.093942e-001 2.757612e-001 6.305262e-001 -4.006167e-001 -2.415754e-001 -9.744102e-002 6.111009e-001 7.420703e-001 -9.300666e-002 5.916029e-001 -2.566172e-001 -9.365799e-002 1.667217e-001 4.976890e-001 2.511825e-001 -3.855107e-001 -1.826989e-001 -1.189113e-002 1.580550e-001 2.213083e-001 -1.054410e-001 -2.078823e-001 -9.273320e-002
<VARIANCE> 39
 1.056012e+001 3.456638e+001 3.511591e+001 8.253457e+001 6.983699e+001 6.919790e+001 6.559461e+001 6.024924e+001 5.799474e+001 5.805565e+001 6.210632e+001 4.233269e+001 1.552549e+001 1.130874e+000 1.825000e+000 1.826916e+000 4.500503e+000 3.312566e+000 3.630769e+000 3.800483e+000 2.897496e+000 3.134219e+000 3.517111e+000 2.896755e+000 2.741257e+000 7.739752e-001 2.058956e-001 2.987003e-001 2.859579e-001 4.707708e-001 4.948758e-001 6.490407e-001 6.606022e-001 6.188105e-001 7.406055e-001 5.441988e-001 6.114449e-001 4.983980e-001 1.542714e-001
<GCONST> 1.221958e+002
<STATE> 3
<MEAN> 39
 2.869035e-001 -1.483805e+001 -1.103495e+001 -1.652336e+001 -9.003811e+000 -1.751796e+000 -1.185427e+001 -1.696272e+000 -1.213642e+000 4.754313e+000 -5.562720e-001 -6.895355e+000 6.298588e+001 -6.367436e-001 -7.588931e-001 1.327206e+000 1.639437e+000 -1.083945e-001 -2.839840e+000 -1.077610e+000 1.703555e+000 1.436935e+000 -1.825973e-001 -1.440616e+000 -5.748304e-001 4.977562e-001 -1.170280e-001 3.878154e-001 3.155672e-001 -2.350183e-001 -4.745741e-001 -7.316837e-002 5.204981e-001 1.723965e-001 -3.382751e-001 -6.613933e-001 -4.526471e-002 5.433026e-001 -1.565922e-001
<VARIANCE> 39
 8.589328e+000 2.103909e+001 3.223606e+001 5.269484e+001 5.287787e+001 7.726508e+001 5.896173e+001 6.915220e+001 6.395820e+001 6.029650e+001 1.040771e+002 3.500289e+001 1.580895e+001 2.680339e-001 9.105626e-001 1.264643e+000 1.960018e+000 2.358450e+000 2.736397e+000 3.938766e+000 2.941944e+000 2.717235e+000 4.200553e+000 2.286211e+000 3.625918e+000 2.350793e-001 4.611093e-002 1.315410e-001 2.266191e-001 2.881738e-001 3.421915e-001 6.561403e-001 4.973123e-001 7.629052e-001 6.630123e-001 5.352366e-001 7.761070e-001 4.094786e-001 3.815404e-002
<GCONST> 1.113276e+002
<STATE> 4
<MEAN> 39
 -4.377855e+000 -1.159447e+001 -3.550222e+000 -1.397990e+001 -1.258886e+001 -1.060224e+001 -9.195868e+000 1.067304e+000 -2.702757e+000 -1.182038e-001 -3.709620e+000 -3.156003e+000 6.246196e+001 -8.108051e-001 1.576410e+000 4.562116e-001 -5.380947e-002 2.514262e-001 2.433199e-001 4.149208e-001 -1.110597e+000 -6.405926e-001 -2.727901e-001 3.274346e-001 3.915925e-001 -8.373410e-001 7.668169e-003 1.769314e-001 -3.534054e-001 -1.178081e-001 3.432761e-001 4.835688e-001 -4.245383e-002 -3.433541e-001 -4.803488e-002 1.934199e-001 1.309348e-001 -9.326552e-002 -1.938337e-001
<VARIANCE> 39
 2.364506e+001 3.988045e+001 5.482751e+001 6.309555e+001 5.570243e+001 7.569028e+001 7.940599e+001 7.929008e+001 7.499988e+001 5.687468e+001 7.455836e+001 3.895522e+001 2.619482e+001 2.621149e+000 1.987459e+000 3.645080e+000 3.211638e+000 5.329957e+000 4.540598e+000 4.851746e+000 4.871334e+000 4.689911e+000 3.701884e+000 3.070058e+000 2.862563e+000 1.643543e+000 2.596242e-001 4.129915e-001 3.778793e-001 4.774447e-001 6.237838e-001 7.084417e-001 7.354291e-001 1.044370e+000 8.405058e-001 6.542572e-001 5.622745e-001 4.981708e-001 2.033845e-001
<GCONST> 1.308625e+002
<TRANSP> 5
 0.000000e+000 1.000000e+000 0.000000e+000 0.000000e+000 0.000000e+000
 0.000000e+000 8.617344e-001 1.382656e-001 0.000000e+000 0.000000e+000
 0.000000e+000 0.000000e+000 7.644628e-001 2.355372e-001 0.000000e+000
 0.000000e+000 0.000000e+000 0.000000e+000 8.218286e-001 1.781714e-001
 0.000000e+000 0.000000e+000 0.000000e+000 0.000000e+000 0.000000e+000
<ENDHMM>
