~o
<STREAMINFO> 1 39
<VECSIZE> 39<NULLD><MFCC_D_A_0><DIAGC>
~h "p"
<BEGINHMM>
<NUMSTATES> 5
<STATE> 2
<MEAN> 39
 -1.196433e+001 7.163029e-001 -3.628866e+000 -2.357981e+000 -3.002590e+000 -3.045681e+000 -4.755169e+000 -5.079743e+000 -5.938512e+000 -2.528894e+000 -3.072751e+000 -3.030375e+000 3.893346e+001 -2.943435e+000 4.970173e-001 -7.422303e-002 1.564812e+000 1.281963e+000 1.362440e+000 1.429532e+000 7.569118e-001 9.755517e-001 3.362300e-001 2.148409e-001 5.050563e-001 -3.820788e+000 -7.263925e-003 -9.604462e-001 -2.677241e-001 -7.166829e-001 -4.321809e-001 -1.723348e-001 -5.845954e-002 4.938284e-001 4.078948e-001 3.333839e-001 2.411957e-001 1.664702e-001 1.372875e+000
<VARIANCE> 39
 3.614397e+001 2.330978e+001 2.585560e+001 3.348535e+001 2.855371e+001 3.132986e+001 3.309657e+001 3.626324e+001 3.856634e+001 3.256906e+001 2.929936e+001 2.414679e+001 3.939594e+001 5.815856e+000 5.733468e+000 5.388577e+000 7.241528e+000 4.955031e+000 5.212068e+000 4.780572e+000 5.636645e+000 5.869978e+000 4.773198e+000 4.358995e+000 3.280980e+000 1.046295e+001 9.345037e-001 7.931658e-001 7.981433e-001 1.043008e+000 8.707751e-001 8.540950e-001 8.423077e-001 9.284865e-001 9.405161e-001 8.242152e-001 7.072658e-001 5.772970e-001 1.437258e+000
<GCONST> 1.366799e+002
<STATE> 3
<MEAN> 39
 -1.932368e+001 -2.839402e+000 -5.348809e+000 -1.704390e+000 -1.623104e+000 -1.234255e-001 -1.095129e+000 1.144238e-001 -2.110975e-001 1.030762e+000 3.050241e-002 3.142521e-002 3.470724e+001 -6.918177e-003 -1.183150e+000 -4.907106e-001 -6.553147e-001 -2.279340e-001 -3.195070e-001 1.291739e-001 4.704520e-001 6.396989e-001 3.482741e-001 2.465131e-001 2.379713e-001 2.405901e+000 8.399159e-001 -2.245432e-001 -4.409548e-002 -5.112853e-001 -2.618358e-001 -4.316613e-001 -3.789157e-001 -2.506317e-001 -2.779190e-001 -2.272473e-001 -1.906126e-001 -1.846762e-001 1.673430e+000
<VARIANCE> 39
 5.940781e+000 9.442081e+000 7.150867e+000 1.154655e+001 1.038760e+001 1.284845e+001 1.236095e+001 1.408567e+001 1.357093e+001 1.378380e+001 1.182900e+001 1.159503e+001 4.360480e+001 2.780815e+000 2.072796e+000 1.633604e+000 2.418063e+000 1.839947e+000 2.506495e+000 2.407352e+000 2.849774e+000 2.928048e+000 2.437299e+000 2.068720e+000 1.863803e+000 1.328165e+001 6.065550e-001 3.878442e-001 4.193972e-001 5.440314e-001 4.549194e-001 5.632597e-001 5.416564e-001 5.145521e-001 5.398951e-001 4.654184e-001 4.332544e-001 3.643708e-001 1.657750e+000
<GCONST> 1.082943e+002
<STATE> 4
<MEAN> 39
 -1.046481e+001 -8.983011e+000 -8.458574e+000 -9.177114e+000 -4.804175e+000 -4.235627e+000 -4.030158e+000 -9.202200e-001 -1.686469e+000 -7.539105e-001 -1.993762e+000 -1.406949e+000 5.567881e+001 2.323182e+000 -6.515956e-001 -5.405431e-001 -1.463545e+000 -1.039498e+000 -6.616887e-001 -1.184712e+000 -2.416945e-001 -6.230458e-001 -4.846510e-001 -3.607101e-001 -3.471833e-001 2.297189e+000 -5.537871e-002 1.626778e-001 8.849855e-002 9.890895e-002 -7.127739e-002 9.441648e-002 -9.415943e-002 6.160520e-003 -6.558593e-002 -3.641541e-003 4.592009e-002 -1.443990e-002 -6.237306e-001
<VARIANCE> 39
 6.076618e+001 3.115708e+001 5.302279e+001 5.731259e+001 4.963813e+001 5.274178e+001 5.947752e+001 4.453419e+001 4.633490e+001 3.372053e+001 3.469038e+001 2.381948e+001 3.759911e+001 4.609293e+000 3.712814e+000 4.218322e+000 4.756299e+000 4.893773e+000 5.115723e+000 5.819287e+000 4.764372e+000 4.875111e+000 3.818782e+000 3.674087e+000 2.648659e+000 7.295498e+000 1.007508e+000 6.813136e-001 5.765734e-001 7.312903e-001 7.773634e-001 7.830821e-001 9.673735e-001 8.582243e-001 9.219697e-001 7.132684e-001 6.496461e-001 4.958812e-001 1.249063e+000
<GCONST> 1.370088e+002
<TRANSP> 5
 0.000000e+000 1.000000e+000 0.000000e+000 0.000000e+000 0.000000e+000
 0.000000e+000 5.966508e-001 4.033492e-001 0.000000e+000 0.000000e+000
 0.000000e+000 0.000000e+000 7.358170e-001 2.641830e-001 0.000000e+000
 0.000000e+000 0.000000e+000 0.000000e+000 8.228955e-001 1.771045e-001
 0.000000e+000 0.000000e+000 0.000000e+000 0.000000e+000 0.000000e+000
<ENDHMM>
