~o
<STREAMINFO> 1 39
<VECSIZE> 39<NULLD><MFCC_D_A_0><DIAGC>
~h "r"
<BEGINHMM>
<NUMSTATES> 5
<STATE> 2
<MEAN> 39
 2.828057e+000 -1.154450e+001 -1.523221e+001 -7.196911e+000 -4.854910e+000 -1.126806e+001 -1.635662e+001 1.382414e+000 -1.111548e+000 -3.084753e+000 -1.452163e+000 -8.262427e-003 5.782940e+001 4.832391e-001 -2.727340e-001 -4.764903e-001 2.029942e-001 1.595564e-001 -3.587818e-001 -6.864434e-001 4.114833e-001 4.678971e-001 -8.271085e-002 -1.618022e-001 5.211595e-002 1.177099e-001 -4.807900e-001 -8.238486e-002 5.290608e-001 5.795323e-002 -3.337182e-001 5.414542e-002 5.136881e-001 1.440916e-001 -1.261987e-001 -2.447032e-002 2.207045e-003 -6.749775e-002 -1.400942e-002
<VARIANCE> 39
 1.321182e+001 3.767671e+001 7.029015e+001 4.402710e+001 6.236152e+001 7.999396e+001 9.633411e+001 1.009312e+002 9.008258e+001 4.653724e+001 4.196136e+001 3.699115e+001 2.734748e+001 2.067687e+000 2.229272e+000 3.187907e+000 2.321840e+000 3.326744e+000 3.789524e+000 4.979496e+000 4.342404e+000 3.478645e+000 2.964188e+000 2.406709e+000 1.991268e+000 1.511290e+000 4.102041e-001 3.508921e-001 3.911330e-001 3.456192e-001 4.855447e-001 6.311249e-001 8.498943e-001 7.372671e-001 5.962763e-001 4.901333e-001 4.200447e-001 3.721208e-001 2.084487e-001
<GCONST> 1.258262e+002
<STATE> 3
<MEAN> 39
 1.833379e+000 -1.525914e+001 -1.221142e+001 -6.131481e+000 -7.926028e+000 -1.450695e+001 -1.573447e+001 6.475886e+000 -1.274641e+000 -4.060966e+000 -1.924684e+000 -7.191551e-001 6.026380e+001 -8.895424e-001 -6.962425e-002 1.788914e+000 1.492534e-001 -1.241588e+000 -7.813539e-002 1.447918e+000 2.250598e-001 -7.912291e-001 -2.972362e-001 1.639033e-002 -1.842435e-001 -1.071496e-001 -5.356379e-001 4.322656e-001 4.685268e-001 -1.850236e-001 -4.091661e-002 5.595542e-001 6.886818e-001 -5.772264e-001 -3.467102e-001 1.491049e-001 1.932536e-002 -1.435996e-001 -3.398639e-001
<VARIANCE> 39
 1.122143e+001 2.948452e+001 7.916795e+001 5.117930e+001 7.338821e+001 9.084864e+001 1.184306e+002 8.353131e+001 1.022675e+002 5.669262e+001 4.812584e+001 3.829372e+001 2.277755e+001 1.125936e+000 2.961945e+000 3.005239e+000 3.188233e+000 4.264692e+000 4.639207e+000 5.194152e+000 6.160927e+000 4.221851e+000 3.572788e+000 3.376045e+000 2.695673e+000 2.692871e+000 3.245217e-001 2.731017e-001 3.934840e-001 4.748735e-001 6.046429e-001 6.644470e-001 9.778824e-001 7.249777e-001 7.093272e-001 5.755919e-001 4.977433e-001 4.200610e-001 2.483557e-001
<GCONST> 1.297176e+002
<STATE> 4
<MEAN> 39
 -2.763067e+000 -1.088841e+001 -7.051287e+000 -5.377036e+000 -8.662223e+000 -1.229707e+001 -1.059499e+001 2.246982e+000 -3.611687e+000 -3.818961e+000 -3.055804e+000 -1.237098e+000 5.609800e+001 -2.361121e+000 1.439908e+000 1.958398e+000 8.164209e-002 -9.653451e-002 1.608361e+000 2.053756e+000 -1.173125e+000 -7.125049e-001 1.407996e-001 -1.681231e-001 -4.348158e-001 -1.592392e+000 -2.360626e-001 4.008698e-002 -1.676017e-001 -2.701596e-001 2.118090e-001 3.508599e-001 -3.166799e-002 -4.527536e-002 9.053105e-002 1.442722e-001 9.588750e-002 -1.764352e-002 -2.522494e-002
<VARIANCE> 39
 3.902906e+001 5.043269e+001 8.878423e+001 7.176086e+001 8.428098e+001 8.444674e+001 9.945409e+001 7.867596e+001 9.320560e+001 5.875388e+001 5.000765e+001 3.663237e+001 5.834738e+001 4.642588e+000 4.915849e+000 4.149600e+000 5.682337e+000 6.044937e+000 5.789648e+000 6.878436e+000 6.473327e+000 5.339765e+000 4.134278e+000 3.820071e+000 3.016940e+000 6.751329e+000 4.927430e-001 7.126478e-001 5.802602e-001 6.986135e-001 8.388239e-001 9.691830e-001 1.101610e+000 1.023006e+000 8.058004e-001 7.254447e-001 6.813102e-001 5.217476e-001 5.997014e-001
<GCONST> 1.430134e+002
<TRANSP> 5
 0.000000e+000 1.000000e+000 0.000000e+000 0.000000e+000 0.000000e+000
 0.000000e+000 6.490397e-001 3.509603e-001 0.000000e+000 0.000000e+000
 0.000000e+000 0.000000e+000 4.895040e-001 5.104960e-001 0.000000e+000
 0.000000e+000 0.000000e+000 0.000000e+000 4.146559e-001 5.853441e-001
 0.000000e+000 0.000000e+000 0.000000e+000 0.000000e+000 0.000000e+000
<ENDHMM>
