~o
<STREAMINFO> 1 39
<VECSIZE> 39<NULLD><MFCC_D_A_0><DIAGC>
~h "s"
<BEGINHMM>
<NUMSTATES> 5
<STATE> 2
<MEAN> 39
 -2.682771e+001 6.920284e-001 -6.422274e+000 -8.059268e+000 -9.169694e-001 -6.173739e+000 -9.805014e-001 8.451171e-001 -2.024461e+000 -1.482355e+000 -1.929991e+000 6.709615e-002 5.786151e+001 -3.837494e+000 8.453475e-001 -1.127967e+000 -1.376355e-002 1.342695e+000 9.976031e-001 1.097264e+000 8.786936e-001 4.474584e-001 4.470475e-001 7.799232e-001 5.403320e-001 3.062248e-001 1.136639e+000 -4.872184e-001 8.649257e-002 -9.537044e-002 -5.184813e-001 -1.141507e-001 -4.839597e-001 -1.469806e-001 -1.328779e-001 5.512405e-002 -1.627680e-001 -1.436252e-001 -1.069394e-001
<VARIANCE> 39
 2.515410e+001 2.702591e+001 4.124937e+001 3.429156e+001 3.818317e+001 3.537856e+001 3.471184e+001 3.435466e+001 2.630849e+001 2.373677e+001 2.020773e+001 1.724878e+001 2.027163e+001 4.301646e+000 3.043164e+000 3.596777e+000 3.879161e+000 3.496501e+000 4.006320e+000 3.815710e+000 3.527658e+000 3.519981e+000 3.230048e+000 3.048778e+000 2.208525e+000 1.975132e+000 5.330056e-001 6.043638e-001 6.416736e-001 7.102665e-001 6.667446e-001 7.694511e-001 7.349198e-001 7.055197e-001 6.072425e-001 6.163350e-001 5.554161e-001 4.776912e-001 3.741891e-001
<GCONST> 1.239760e+002
<STATE> 3
<MEAN> 39
 -3.009700e+001 1.338248e+000 -9.435947e+000 -7.965062e+000 2.109625e-003 -5.107302e+000 -3.284217e-001 1.555713e+000 -1.491036e+000 -2.639614e-001 -1.179896e+000 6.867784e-001 5.788905e+001 9.625551e-002 -1.734234e-001 6.765853e-002 -1.160443e-001 -2.825647e-002 -3.446392e-002 -1.226601e-001 1.280365e-002 4.655565e-002 2.446849e-002 -2.732665e-002 -3.813060e-002 -7.201228e-002 6.036775e-001 -2.114944e-001 2.552209e-001 -2.215460e-002 -1.800356e-001 -1.322346e-001 -1.859505e-001 -1.178903e-001 -2.971932e-002 -6.513909e-002 -9.612033e-002 -9.627559e-002 -1.738790e-001
<VARIANCE> 39
 8.496593e+000 2.095020e+001 3.024370e+001 3.914186e+001 3.505472e+001 3.166701e+001 2.898652e+001 2.505576e+001 1.941241e+001 1.708831e+001 1.625671e+001 1.338521e+001 1.733877e+001 9.844368e-001 1.258451e+000 1.231222e+000 1.318412e+000 1.500870e+000 1.675791e+000 1.592042e+000 1.604030e+000 1.526246e+000 1.481609e+000 1.330393e+000 1.227564e+000 7.822997e-001 3.693411e-001 2.295391e-001 2.687359e-001 3.129436e-001 3.346411e-001 3.833782e-001 3.800396e-001 3.625901e-001 3.455249e-001 3.317232e-001 3.080842e-001 2.712979e-001 2.007803e-001
<GCONST> 9.996248e+001
<STATE> 4
<MEAN> 39
 -2.206476e+001 -2.686737e+000 -5.158380e+000 -9.033893e+000 -2.419373e+000 -6.394661e+000 -4.029335e+000 3.626587e-001 -1.429870e+000 -8.277795e-001 -2.323798e+000 -6.734844e-001 5.526643e+001 3.735410e+000 -1.428732e+000 9.426384e-001 3.087590e-002 -1.424937e+000 -1.910891e-001 -1.410943e+000 -7.503453e-001 -3.025987e-001 -5.673620e-003 -3.086382e-001 -5.601008e-001 -1.469853e+000 2.159562e-001 -1.200447e-001 -1.759175e-001 1.871239e-002 -2.098504e-001 1.057317e-001 -1.706664e-002 -1.071841e-002 -1.259903e-001 5.238803e-002 6.594017e-002 -2.182599e-002 6.069182e-003
<VARIANCE> 39
 7.349428e+001 3.207808e+001 4.433817e+001 3.850689e+001 5.566840e+001 5.064769e+001 5.010021e+001 3.991089e+001 3.522336e+001 2.748162e+001 2.658813e+001 2.137774e+001 5.522816e+001 4.846468e+000 3.269427e+000 4.488306e+000 5.750082e+000 5.323840e+000 5.964800e+000 6.059705e+000 4.256068e+000 4.284242e+000 3.496766e+000 3.848389e+000 2.744464e+000 8.436367e+000 1.186846e+000 5.774910e-001 5.967053e-001 7.249236e-001 8.151340e-001 8.824314e-001 9.995404e-001 7.746902e-001 6.588622e-001 5.864636e-001 5.895970e-001 4.480914e-001 1.257083e+000
<GCONST> 1.357238e+002
<TRANSP> 5
 0.000000e+000 1.000000e+000 0.000000e+000 0.000000e+000 0.000000e+000
 0.000000e+000 5.828450e-001 4.171550e-001 0.000000e+000 0.000000e+000
 0.000000e+000 0.000000e+000 8.390812e-001 1.609188e-001 0.000000e+000
 0.000000e+000 0.000000e+000 0.000000e+000 7.279642e-001 2.720358e-001
 0.000000e+000 0.000000e+000 0.000000e+000 0.000000e+000 0.000000e+000
<ENDHMM>
