~o
<STREAMINFO> 1 39
<VECSIZE> 39<NULLD><MFCC_D_A_0><DIAGC>
~h "sh"
<BEGINHMM>
<NUMSTATES> 5
<STATE> 2
<MEAN> 39
 -2.641710e+001 -6.863403e+000 3.224534e+000 -8.221622e+000 -6.518728e+000 -2.904950e+000 -1.624793e+000 6.275873e-001 -1.255813e+000 -2.328466e+000 -8.162675e-001 -4.527053e-001 5.806650e+001 -4.052657e+000 5.206519e-002 4.347544e-001 -4.139369e-001 3.147684e-001 1.146217e+000 6.011944e-001 -1.178771e-001 5.432631e-001 5.203528e-001 6.479079e-001 1.586759e-001 1.176684e+000 1.054765e+000 -1.805945e-001 -4.466004e-001 -7.531413e-002 -2.636496e-001 -1.964597e-001 -3.356191e-001 -2.053889e-002 -1.439530e-001 3.865150e-002 -1.052717e-001 -8.737548e-002 -1.427970e-001
<VARIANCE> 39
 3.107132e+001 2.851078e+001 2.565715e+001 3.944641e+001 3.356134e+001 3.162871e+001 2.865317e+001 2.660259e+001 2.981468e+001 2.304869e+001 1.930046e+001 1.618309e+001 2.396482e+001 4.273425e+000 2.368874e+000 3.012665e+000 2.287794e+000 3.796456e+000 3.326957e+000 3.254052e+000 3.689540e+000 3.390820e+000 2.800365e+000 2.635185e+000 1.996052e+000 2.184728e+000 6.279215e-001 5.275101e-001 5.447215e-001 6.238443e-001 6.244376e-001 6.654695e-001 6.942337e-001 6.667964e-001 5.952854e-001 5.683739e-001 5.143027e-001 4.246923e-001 3.452415e-001
<GCONST> 1.208986e+002
<STATE> 3
<MEAN> 39
 -3.098587e+001 -6.018636e+000 3.282180e+000 -1.005857e+001 -7.136815e+000 -1.104353e+000 -1.010531e+000 -2.193560e-001 -7.785310e-001 -1.464209e+000 2.913392e-002 -2.576236e-001 6.052617e+001 1.741551e-001 -1.176823e-001 -1.573775e-001 8.195063e-002 -2.094345e-001 -1.564346e-001 -1.979356e-002 -7.526468e-002 3.186702e-003 7.844885e-003 -1.056426e-001 -3.935466e-002 1.056917e-001 7.619123e-001 -3.671015e-002 -5.714526e-002 1.125090e-001 -7.605475e-002 -2.766737e-001 -1.893500e-001 -2.244974e-002 -1.216708e-001 -8.545703e-002 -1.229043e-001 -5.029569e-002 -2.776408e-001
<VARIANCE> 39
 1.076436e+001 2.794561e+001 2.256808e+001 2.820119e+001 3.473222e+001 2.489777e+001 2.306194e+001 2.113527e+001 1.973439e+001 1.763638e+001 1.499731e+001 1.284364e+001 1.394775e+001 1.384364e+000 8.376439e-001 1.122268e+000 1.157618e+000 1.369541e+000 1.602860e+000 1.479963e+000 1.505655e+000 1.486433e+000 1.463160e+000 1.344329e+000 1.167625e+000 8.701188e-001 3.554508e-001 1.769981e-001 2.981366e-001 2.267996e-001 3.402177e-001 3.356534e-001 3.570702e-001 3.572619e-001 3.585534e-001 3.403307e-001 2.935153e-001 2.542062e-001 9.928813e-002
<GCONST> 9.692805e+001
<STATE> 4
<MEAN> 39
 -1.986073e+001 -8.154336e+000 4.850558e-001 -7.776456e+000 -8.860037e+000 -5.480804e+000 -4.854794e+000 -1.473630e+000 -2.343525e+000 -2.125447e+000 -1.852347e+000 -1.312910e+000 5.730722e+001 4.384891e+000 -1.682477e-001 -3.757167e-001 -3.229963e-001 -8.549663e-001 -1.043532e+000 -1.658581e+000 -4.725342e-001 -1.167235e+000 -3.815885e-001 -3.152182e-001 -3.440581e-001 -9.071427e-001 1.845050e-001 2.949343e-003 4.044154e-002 -3.434542e-001 -1.701327e-001 1.721982e-001 -9.455387e-003 5.878695e-002 -1.632868e-001 6.944855e-004 1.114500e-001 6.720161e-003 1.430849e-001
<VARIANCE> 39
 7.344938e+001 3.376678e+001 6.542108e+001 4.305196e+001 4.676448e+001 3.817127e+001 4.080882e+001 3.426406e+001 4.288935e+001 3.018839e+001 2.397045e+001 1.779256e+001 3.080322e+001 3.987569e+000 3.404293e+000 5.808650e+000 4.175117e+000 6.332035e+000 5.309351e+000 5.310950e+000 4.453624e+000 4.800856e+000 4.186130e+000 3.601675e+000 2.408578e+000 3.516803e+000 1.224252e+000 5.594090e-001 5.924342e-001 5.349951e-001 8.906139e-001 7.796029e-001 9.625047e-001 7.431225e-001 7.704632e-001 7.265311e-001 5.198688e-001 4.171365e-001 4.971306e-001
<GCONST> 1.326747e+002
<TRANSP> 5
 0.000000e+000 1.000000e+000 0.000000e+000 0.000000e+000 0.000000e+000
 0.000000e+000 5.801914e-001 4.198087e-001 0.000000e+000 0.000000e+000
 0.000000e+000 0.000000e+000 8.402228e-001 1.597773e-001 0.000000e+000
 0.000000e+000 0.000000e+000 0.000000e+000 7.437894e-001 2.562107e-001
 0.000000e+000 0.000000e+000 0.000000e+000 0.000000e+000 0.000000e+000
<ENDHMM>
