~o
<STREAMINFO> 1 39
<VECSIZE> 39<NULLD><MFCC_D_A_0><DIAGC>
~h "sil"
<BEGINHMM>
<NUMSTATES> 5
<STATE> 2
<MEAN> 39
 -1.481824e+001 -7.289577e+000 -8.232212e+000 -5.193552e+000 -3.197997e+000 -3.659477e+000 -1.630373e+000 8.102936e-001 -1.802565e+000 -2.411224e+000 -2.701168e+000 6.004389e-002 4.115800e+001 -2.912791e-001 1.462845e-001 -1.122750e-001 2.070878e-001 1.484136e-001 2.974334e-001 1.588177e-001 -1.147890e-002 6.377171e-002 1.001439e-001 1.027541e-001 5.563283e-002 -7.250977e-001 -4.445992e-002 6.155041e-002 4.060883e-002 -1.582598e-002 -2.194273e-002 -2.185922e-002 -2.979649e-002 -9.733145e-003 4.954997e-003 4.185105e-002 3.273985e-002 -1.034088e-002 5.333785e-002
<VARIANCE> 39
 2.410192e+001 3.142056e+001 3.385464e+001 3.442976e+001 3.567270e+001 3.732077e+001 3.742181e+001 4.086462e+001 3.821917e+001 3.626217e+001 3.150872e+001 2.503994e+001 3.297086e+001 1.374274e+000 1.657107e+000 1.759949e+000 2.006667e+000 2.174919e+000 2.457406e+000 2.533544e+000 2.502943e+000 2.463097e+000 2.425046e+000 2.118306e+000 1.848597e+000 1.346993e+000 1.852513e-001 2.537944e-001 2.805524e-001 3.394951e-001 3.732972e-001 4.208393e-001 4.454876e-001 4.413523e-001 4.367085e-001 4.347809e-001 3.833240e-001 3.406712e-001 1.587954e-001
<GCONST> 1.119298e+002
<STATE> 3
<MEAN> 39
 -1.909016e+001 -2.522756e+000 -6.408478e+000 -2.600736e+000 -2.180669e+000 -1.094920e+000 -6.116762e-001 1.084363e-001 -1.020955e+000 5.344415e-001 -6.067756e-001 2.980133e-001 3.426936e+001 -1.231849e-001 1.196589e-001 1.283871e-001 9.471686e-002 5.864558e-002 6.996652e-002 7.502918e-003 -3.681645e-002 -3.348503e-003 7.698481e-002 3.740913e-002 -3.336426e-002 -1.407436e-001 6.035175e-002 -5.464002e-002 -1.326027e-002 -5.566299e-002 -3.012158e-002 -4.159565e-002 -1.616288e-002 -1.332543e-003 -1.932754e-002 -3.800469e-002 -3.082716e-002 -7.160345e-003 1.225405e-001
<VARIANCE> 39
 8.339787e+000 1.018154e+001 1.149174e+001 1.511700e+001 1.361749e+001 1.779666e+001 1.602988e+001 1.751620e+001 1.786846e+001 1.799636e+001 1.604924e+001 1.336686e+001 1.687201e+001 3.570662e-001 5.439903e-001 7.542229e-001 9.464905e-001 1.108956e+000 1.285382e+000 1.396795e+000 1.512328e+000 1.562812e+000 1.601137e+000 1.447063e+000 1.297571e+000 2.989657e-001 7.606880e-002 1.132193e-001 1.493182e-001 1.970840e-001 2.224915e-001 2.577476e-001 2.837271e-001 3.039476e-001 3.121079e-001 3.203222e-001 2.877911e-001 2.608504e-001 9.301553e-002
<GCONST> 8.498112e+001
<STATE> 4
<MEAN> 39
 -1.662411e+001 -4.099672e+000 -5.638922e+000 -5.028687e+000 -3.938515e+000 -1.990873e+000 -1.735069e+000 -3.769850e-001 -2.005031e+000 -4.985219e-001 -1.447303e+000 -5.982213e-001 3.994643e+001 7.987682e-001 -4.594776e-001 1.790114e-001 -9.678799e-001 -6.743813e-001 -5.837101e-001 -4.639457e-001 -2.182716e-001 -3.013097e-001 -2.158038e-001 -2.200293e-001 -1.886044e-001 2.529519e+000 1.154914e-001 -9.812699e-002 6.338091e-003 -1.246670e-001 -1.347657e-001 -9.548796e-002 -1.209784e-001 3.906502e-003 1.292601e-003 -5.503532e-003 -1.005467e-002 -1.245567e-002 3.687852e-001
<VARIANCE> 39
 3.993734e+001 3.406978e+001 3.623567e+001 4.141483e+001 3.771817e+001 3.550342e+001 3.326657e+001 3.498725e+001 3.333965e+001 2.791312e+001 2.591615e+001 2.135322e+001 7.780508e+001 4.222781e+000 3.305369e+000 3.099407e+000 4.092221e+000 3.653229e+000 3.659472e+000 3.671262e+000 3.291118e+000 3.247429e+000 2.851304e+000 2.663707e+000 2.164513e+000 8.507220e+000 6.410217e-001 6.081275e-001 5.363910e-001 7.252220e-001 6.274817e-001 6.426675e-001 6.409943e-001 6.059108e-001 5.943828e-001 5.335665e-001 4.918849e-001 4.091999e-001 1.236503e+000
<GCONST> 1.280722e+002
<TRANSP> 5
 0.000000e+000 1.000000e+000 0.000000e+000 0.000000e+000 0.000000e+000
 0.000000e+000 8.634992e-001 1.365008e-001 0.000000e+000 0.000000e+000
 0.000000e+000 0.000000e+000 8.625534e-001 1.374466e-001 0.000000e+000
 0.000000e+000 0.000000e+000 0.000000e+000 7.773012e-001 2.226988e-001
 0.000000e+000 0.000000e+000 0.000000e+000 0.000000e+000 0.000000e+000
<ENDHMM>
