~o
<STREAMINFO> 1 39
<VECSIZE> 39<NULLD><MFCC_D_A_0><DIAGC>
~h "sp"
<BEGINHMM>
<NUMSTATES> 5
<STATE> 2
<MEAN> 39
 -1.678085e+001 -7.758302e+000 -8.562028e+000 -6.301066e+000 -2.580376e+000 -2.346629e+000 -2.858033e+000 -1.742733e+000 -1.799067e+000 8.271568e-001 -7.572609e-001 -8.308990e-001 4.605108e+001 2.496715e+000 1.007487e+000 -2.154908e-001 -1.711360e-001 -6.085232e-001 3.543439e-001 3.660370e-001 -6.914911e-001 -1.288898e+000 -4.171810e-001 -7.546701e-002 -1.349978e-001 -1.980370e+000 3.628022e-001 5.142567e-001 2.626975e-001 -4.752285e-001 -6.184168e-001 -3.064158e-001 -2.110464e-001 -2.382734e-002 -2.820528e-001 -3.407478e-001 -1.246543e-001 -8.717191e-002 9.943237e-001
<VARIANCE> 39
 2.355241e+001 3.737872e+001 3.290261e+001 2.535816e+001 2.622787e+001 2.734451e+001 3.155181e+001 2.839454e+001 3.130772e+001 2.480614e+001 2.387294e+001 1.992791e+001 4.730626e+001 7.557478e+000 4.793714e+000 3.266865e+000 5.166625e+000 4.982317e+000 4.113097e+000 4.392008e+000 4.796288e+000 4.561076e+000 3.571640e+000 3.232163e+000 2.798578e+000 3.819695e+000 5.146926e-001 6.816107e-001 6.954302e-001 7.501728e-001 9.543734e-001 7.884094e-001 8.382958e-001 8.290873e-001 7.914990e-001 6.805203e-001 5.595579e-001 5.001939e-001 8.243925e-001
<GCONST> 1.296188e+002
<STATE> 3
<MEAN> 39
 -1.060549e+001 -9.883260e-001 -5.597856e+000 -5.893976e+000 -4.241332e+000 -3.161004e+000 -2.518206e+000 -4.197031e+000 -6.141609e+000 -1.644345e+000 -3.223516e+000 -2.342456e+000 4.461471e+001 3.100210e+000 1.074885e+000 1.439776e-001 -1.357011e+000 -2.007325e+000 -7.455614e-001 -9.121585e-001 -7.743631e-001 -1.409508e+000 -8.434736e-001 -2.353032e-001 -4.793655e-001 1.453084e+000 -2.498109e-001 -5.402364e-001 -8.942504e-002 -5.964484e-001 -3.269329e-001 -1.825225e-001 -3.682321e-001 2.487902e-001 2.963276e-001 1.029387e-001 1.731287e-001 2.286485e-002 1.264264e+000
<VARIANCE> 39
 4.392361e+001 2.644657e+001 3.134035e+001 3.950912e+001 3.263623e+001 3.560423e+001 3.604211e+001 3.930194e+001 3.402849e+001 2.832970e+001 2.863628e+001 2.443837e+001 3.101850e+001 1.220705e+001 5.327291e+000 3.891113e+000 8.109346e+000 6.894230e+000 4.889524e+000 5.129210e+000 6.477608e+000 6.528610e+000 4.563609e+000 4.353972e+000 3.189217e+000 4.090735e+000 7.107347e-001 6.177430e-001 5.543110e-001 6.859929e-001 7.217079e-001 7.235184e-001 8.173190e-001 8.259261e-001 7.228218e-001 6.782044e-001 5.752738e-001 4.772500e-001 5.899829e-001
<GCONST> 1.337422e+002
<STATE> 4
<MEAN> 39
 -2.979488e+000 -1.836955e+000 -7.398234e+000 -1.295067e+001 -1.133600e+001 -5.188201e+000 -6.062750e+000 -5.180805e+000 -8.818188e+000 -3.266007e+000 -2.117334e+000 -2.881829e+000 5.164155e+001 2.461931e+000 -3.062592e-001 -1.401424e-001 -2.369940e+000 -2.245178e+000 -4.816554e-001 -1.000654e+000 -1.355387e-001 -7.176611e-001 -3.323119e-001 1.377645e-001 -2.436972e-001 2.725106e+000 -1.105253e+000 -7.970629e-001 -9.240984e-002 1.160589e-001 5.494285e-001 2.950751e-001 2.190713e-001 5.047469e-001 7.216783e-001 3.804666e-001 1.171995e-001 1.584895e-001 2.064581e-001
<VARIANCE> 39
 7.113600e+001 3.165028e+001 4.357370e+001 8.928558e+001 5.505539e+001 5.319683e+001 4.782146e+001 5.995427e+001 5.271690e+001 3.976391e+001 4.510640e+001 3.297091e+001 2.158931e+001 6.162134e+000 3.897179e+000 3.495830e+000 6.713852e+000 6.200835e+000 4.582769e+000 5.042539e+000 5.217475e+000 4.931460e+000 4.820573e+000 3.774592e+000 3.071652e+000 2.786978e+000 8.752118e-001 7.106153e-001 6.201990e-001 1.043250e+000 8.401723e-001 7.616185e-001 8.017483e-001 1.082346e+000 8.847953e-001 7.793062e-001 6.883702e-001 5.587641e-001 4.903990e-001
<GCONST> 1.376880e+002
<TRANSP> 5
 0.000000e+000 1.000000e+000 0.000000e+000 0.000000e+000 0.000000e+000
 0.000000e+000 5.829439e-001 4.170561e-001 0.000000e+000 0.000000e+000
 0.000000e+000 0.000000e+000 3.314607e-001 6.685393e-001 0.000000e+000
 0.000000e+000 0.000000e+000 0.000000e+000 3.494305e-001 6.505695e-001
 0.000000e+000 0.000000e+000 0.000000e+000 0.000000e+000 0.000000e+000
<ENDHMM>
