~o
<STREAMINFO> 1 39
<VECSIZE> 39<NULLD><MFCC_D_A_0><DIAGC>
~h "t"
<BEGINHMM>
<NUMSTATES> 5
<STATE> 2
<MEAN> 39
 -1.213704e+001 -3.143199e+000 -3.974454e+000 -6.034759e+000 -7.431826e+000 -6.426060e+000 -5.958962e+000 -2.784760e+000 -3.734287e+000 -1.269715e+000 -3.577039e+000 -2.817550e+000 4.420870e+001 -1.692273e+000 2.604474e-001 -4.065060e-001 6.358021e-001 1.203526e+000 1.391382e+000 1.043377e+000 2.485865e-001 5.258433e-001 3.348103e-001 5.248286e-001 2.325404e-001 -2.264414e+000 3.687776e-002 -5.479248e-001 -1.315920e-001 -5.326902e-001 -1.629454e-001 7.964201e-002 9.979580e-002 2.393365e-001 2.056562e-002 5.706408e-002 1.475741e-001 1.277235e-001 1.102281e+000
<VARIANCE> 39
 5.263518e+001 4.943446e+001 6.871983e+001 7.337246e+001 6.819827e+001 5.996729e+001 5.848061e+001 6.560127e+001 6.997548e+001 5.405090e+001 4.876175e+001 3.969829e+001 7.415427e+001 6.237213e+000 5.916275e+000 5.316589e+000 7.135691e+000 6.868025e+000 6.388988e+000 5.974573e+000 7.057032e+000 6.906162e+000 5.149000e+000 4.881836e+000 3.975159e+000 1.116938e+001 7.277969e-001 9.793725e-001 7.483314e-001 1.236370e+000 1.166745e+000 1.065485e+000 1.035494e+000 1.209201e+000 1.202031e+000 1.011894e+000 9.154074e-001 7.196212e-001 1.946859e+000
<GCONST> 1.489358e+002
<STATE> 3
<MEAN> 39
 -1.991886e+001 -5.618409e+000 -5.208205e+000 -7.096787e+000 -3.998489e+000 -2.753745e+000 -1.375690e+000 2.065668e-001 -1.193594e+000 2.850482e-001 -4.277315e-001 1.987364e-001 4.648138e+001 1.551453e-001 -6.913351e-001 -6.409154e-002 -9.033142e-001 -5.431854e-001 -4.549577e-001 1.573531e-001 2.145760e-001 -5.407719e-002 -1.021922e-001 -3.239530e-002 1.540140e-001 2.294542e+000 5.932057e-001 7.677308e-002 1.683386e-001 -6.784704e-002 -3.302598e-001 -3.676689e-001 -3.267759e-001 -1.467927e-001 -2.280648e-001 -1.828021e-001 -2.513094e-001 -1.648042e-001 4.228672e-001
<VARIANCE> 39
 3.644755e+001 3.494071e+001 3.293216e+001 4.885031e+001 3.604247e+001 3.580514e+001 2.889226e+001 2.767457e+001 2.522092e+001 2.231454e+001 2.059327e+001 1.825071e+001 1.515498e+002 5.083356e+000 3.676036e+000 3.465189e+000 5.263213e+000 3.837473e+000 4.423175e+000 3.651570e+000 3.683059e+000 3.605939e+000 3.059773e+000 3.020532e+000 2.380537e+000 1.267183e+001 8.041669e-001 7.683281e-001 7.006530e-001 1.231649e+000 8.290694e-001 8.529211e-001 7.349181e-001 7.142479e-001 6.681758e-001 5.754071e-001 5.500916e-001 4.686398e-001 3.520355e+000
<GCONST> 1.328419e+002
<STATE> 4
<MEAN> 39
 -8.832029e+000 -8.664944e+000 -4.986404e+000 -1.231676e+001 -1.024748e+001 -6.488512e+000 -4.772369e+000 -7.480429e-001 -4.338919e+000 -1.917530e+000 -3.367346e+000 -2.315006e+000 5.646181e+001 1.850698e+000 -5.789963e-001 1.273684e-001 -6.388248e-001 -8.166420e-001 -1.815514e-001 -8.798549e-001 -1.047915e-001 -4.463393e-001 -3.201226e-001 -2.224230e-001 -3.602843e-001 1.389911e+000 -2.221420e-001 2.506680e-002 -8.313949e-002 1.253667e-001 1.567946e-001 1.763645e-001 -2.006914e-002 4.388926e-002 1.361087e-001 1.169748e-001 1.600089e-001 4.484935e-002 -2.671313e-001
<VARIANCE> 39
 6.528683e+001 4.589104e+001 8.991653e+001 7.862936e+001 7.286434e+001 8.138562e+001 7.147746e+001 6.374781e+001 6.175111e+001 4.742500e+001 4.731720e+001 3.449134e+001 5.307004e+001 6.136119e+000 3.050628e+000 3.755275e+000 4.431877e+000 5.048021e+000 4.931838e+000 6.037021e+000 4.498600e+000 4.392495e+000 3.751075e+000 3.726579e+000 2.894048e+000 4.922574e+000 7.173278e-001 5.271080e-001 5.175488e-001 7.001090e-001 7.205665e-001 7.454531e-001 8.551313e-001 7.247818e-001 6.764774e-001 6.254846e-001 5.861899e-001 4.746693e-001 8.527152e-001
<GCONST> 1.386550e+002
<TRANSP> 5
 0.000000e+000 1.000000e+000 0.000000e+000 0.000000e+000 0.000000e+000
 0.000000e+000 5.637528e-001 4.362472e-001 0.000000e+000 0.000000e+000
 0.000000e+000 0.000000e+000 7.263133e-001 2.736867e-001 0.000000e+000
 0.000000e+000 0.000000e+000 0.000000e+000 6.471723e-001 3.528277e-001
 0.000000e+000 0.000000e+000 0.000000e+000 0.000000e+000 0.000000e+000
<ENDHMM>
