~o
<STREAMINFO> 1 39
<VECSIZE> 39<NULLD><MFCC_D_A_0><DIAGC>
~h "th"
<BEGINHMM>
<NUMSTATES> 5
<STATE> 2
<MEAN> 39
 -1.812263e+001 -2.176880e-001 -6.231497e+000 -4.042633e+000 -3.438298e+000 -3.677677e+000 -1.815343e+000 -1.930644e+000 -1.867671e+000 -1.674815e+000 -2.508109e+000 -9.144179e-001 4.834590e+001 -2.971123e+000 -2.776489e-001 -5.854124e-001 7.508044e-001 7.107093e-001 1.075006e+000 1.151487e+000 9.682071e-001 5.323551e-001 2.806541e-001 7.248156e-001 7.128288e-001 -1.655704e+000 6.775793e-001 -7.143691e-001 -1.406500e-001 -6.884509e-001 -5.450451e-001 -2.204949e-001 -4.763795e-001 -2.107421e-002 -7.158246e-002 1.418384e-001 -3.821769e-003 -5.755435e-002 7.735606e-001
<VARIANCE> 39
 3.101517e+001 2.166582e+001 2.339135e+001 2.405808e+001 2.735691e+001 2.590088e+001 2.600814e+001 2.597899e+001 2.924302e+001 2.441044e+001 2.132691e+001 1.851526e+001 7.015353e+001 4.974197e+000 3.794532e+000 4.325180e+000 4.931366e+000 4.728608e+000 5.191552e+000 4.776142e+000 4.077956e+000 4.661769e+000 4.221061e+000 4.156871e+000 3.085181e+000 1.049660e+001 6.624160e-001 6.814016e-001 6.696094e-001 7.557828e-001 7.186068e-001 8.672853e-001 8.120807e-001 7.468753e-001 7.864011e-001 6.723410e-001 7.118635e-001 5.404150e-001 1.653701e+000
<GCONST> 1.309099e+002
<STATE> 3
<MEAN> 39
 -2.224237e+001 -4.126501e+000 -9.168960e+000 -5.799914e+000 -4.460880e+000 -3.073947e+000 -1.090513e+000 -1.956066e-001 -4.302941e-001 -6.737702e-001 -1.036352e+000 6.667295e-001 5.021861e+001 4.714346e-001 -4.181610e-001 5.691790e-002 -3.418449e-001 -2.749606e-001 -3.160327e-001 -1.130196e-001 -2.632096e-002 6.743333e-002 -2.631967e-002 -1.247101e-001 -3.133731e-002 7.291046e-001 7.561019e-001 3.375072e-002 2.578157e-001 -7.794655e-002 -1.615742e-001 -2.717725e-001 -2.864319e-001 -1.413142e-001 -9.541129e-002 -6.481958e-002 -1.663467e-001 -2.002562e-001 2.310305e-001
<VARIANCE> 39
 1.751845e+001 1.981167e+001 1.571370e+001 1.727444e+001 1.793750e+001 1.805137e+001 1.571652e+001 1.535080e+001 1.584263e+001 1.535689e+001 1.481258e+001 1.267422e+001 6.096849e+001 3.332071e+000 1.886644e+000 2.181777e+000 2.053309e+000 2.081067e+000 2.334452e+000 2.094818e+000 1.927650e+000 1.915490e+000 1.923609e+000 1.939465e+000 1.700676e+000 6.723943e+000 5.408721e-001 4.236112e-001 4.946152e-001 4.988091e-001 4.959542e-001 5.493063e-001 5.575598e-001 4.542292e-001 4.466563e-001 4.656621e-001 4.813557e-001 4.018722e-001 1.180497e+000
<GCONST> 1.113600e+002
<STATE> 4
<MEAN> 39
 -1.151735e+001 -5.961476e+000 -5.791980e+000 -8.183237e+000 -8.444702e+000 -8.022529e+000 -5.812510e+000 -1.626527e+000 -1.592727e+000 -1.291913e+000 -3.132221e+000 -1.668387e+000 5.615422e+001 3.419460e+000 -1.216185e+000 8.478963e-001 -9.070609e-001 -1.662908e+000 -1.305843e+000 -2.299940e+000 -6.708415e-002 -6.250740e-001 -1.435405e-001 -2.397846e-001 -7.026607e-001 1.333597e+000 -3.401396e-001 -1.860903e-001 -1.073065e-001 -3.959985e-002 3.050821e-002 2.951888e-001 3.227963e-002 1.910843e-001 -1.073106e-001 2.337426e-002 2.104104e-001 1.182991e-001 -2.771519e-001
<VARIANCE> 39
 6.270600e+001 3.277679e+001 4.278835e+001 4.203761e+001 5.495852e+001 4.828752e+001 5.892994e+001 3.549253e+001 4.195509e+001 3.339437e+001 2.950977e+001 2.845214e+001 6.023220e+001 4.945372e+000 3.933502e+000 5.633447e+000 5.591586e+000 6.038763e+000 6.153208e+000 7.323924e+000 4.955776e+000 5.044648e+000 4.155969e+000 4.690053e+000 3.584237e+000 7.132029e+000 1.117924e+000 5.696946e-001 6.881109e-001 7.296348e-001 8.743560e-001 8.762574e-001 1.299549e+000 7.474054e-001 7.282106e-001 6.826323e-001 6.247072e-001 5.988215e-001 1.051914e+000
<GCONST> 1.387928e+002
<TRANSP> 5
 0.000000e+000 1.000000e+000 0.000000e+000 0.000000e+000 0.000000e+000
 0.000000e+000 5.312500e-001 4.687500e-001 0.000000e+000 0.000000e+000
 0.000000e+000 0.000000e+000 8.077416e-001 1.922584e-001 0.000000e+000
 0.000000e+000 0.000000e+000 0.000000e+000 6.487120e-001 3.512881e-001
 0.000000e+000 0.000000e+000 0.000000e+000 0.000000e+000 0.000000e+000
<ENDHMM>
