~o
<STREAMINFO> 1 39
<VECSIZE> 39<NULLD><MFCC_D_A_0><DIAGC>
~h "ua"
<BEGINHMM>
<NUMSTATES> 5
<STATE> 2
<MEAN> 39
 -2.958173e+000 -1.068680e+001 -3.150994e-001 -7.288382e+000 -1.434477e+001 -8.347008e+000 -1.904132e+001 -3.611873e+000 -6.574214e+000 -3.133787e+000 1.526393e+000 -3.588108e+000 6.110281e+001 1.441244e+000 2.892714e-003 -1.907240e+000 -1.517308e+000 1.371410e-001 1.216881e+000 -1.114908e+000 -1.118335e+000 -1.785417e-001 1.999044e+000 8.709615e-001 -7.634536e-001 1.980449e-001 -5.733854e-001 2.465041e-001 -3.244357e-002 -3.913321e-001 1.797650e-001 5.100839e-001 8.240311e-001 -2.969760e-002 3.214594e-002 2.153977e-001 1.169760e-001 1.524567e-001 -1.337325e-001
<VARIANCE> 39
 1.703379e+001 1.812992e+001 5.546693e+001 4.978882e+001 3.848339e+001 6.919367e+001 4.901219e+001 9.166798e+001 6.496313e+001 6.324725e+001 6.320675e+001 3.616128e+001 2.397830e+001 2.561877e+000 2.009362e+000 2.470860e+000 2.662724e+000 5.714196e+000 4.624540e+000 6.921090e+000 6.500229e+000 5.135636e+000 3.771070e+000 4.004508e+000 2.519454e+000 8.933530e-001 4.976900e-001 3.831105e-001 4.272707e-001 4.421676e-001 8.181386e-001 8.390492e-001 8.566687e-001 1.375144e+000 1.336973e+000 1.021112e+000 6.852807e-001 5.517894e-001 1.279690e-001
<GCONST> 1.303757e+002
<STATE> 3
<MEAN> 39
 -4.403026e-001 -8.047101e+000 -7.981395e+000 -1.855871e+001 -1.202843e+001 4.739813e-001 -1.465313e+001 -6.492700e+000 -6.570528e+000 3.914518e+000 4.631344e+000 -3.387343e+000 6.048246e+001 1.827707e-002 9.119523e-002 -3.421666e-001 -1.002961e+000 2.881846e-001 3.793983e-001 7.189620e-001 1.070874e-001 4.537731e-001 2.928931e-001 -3.014110e-001 9.293929e-002 8.461020e-002 -1.164963e-001 2.341602e-002 1.986468e-001 3.154903e-001 5.249080e-002 -2.817718e-001 -3.025269e-002 1.568857e-001 3.887767e-002 -2.967762e-001 -2.139412e-001 2.361915e-003 -7.354714e-002
<VARIANCE> 39
 8.951462e+000 2.650240e+001 3.363736e+001 6.377377e+001 3.718047e+001 8.548294e+001 5.069169e+001 4.976999e+001 4.649971e+001 5.247628e+001 6.962368e+001 4.974918e+001 3.098718e+001 3.064957e-001 1.183752e+000 7.637045e-001 2.081820e+000 1.393378e+000 1.901636e+000 1.612890e+000 1.769234e+000 3.273788e+000 2.420723e+000 1.764595e+000 2.011257e+000 4.192908e-001 4.819462e-002 2.013214e-001 1.325170e-001 2.355746e-001 3.346182e-001 2.890564e-001 3.217751e-001 4.156629e-001 6.403663e-001 4.317652e-001 2.259484e-001 3.456527e-001 8.369255e-002
<GCONST> 1.052725e+002
<STATE> 4
<MEAN> 39
 -3.872043e+000 -6.947938e+000 -6.855326e+000 -1.338262e+001 -7.623128e+000 -5.683471e+000 -9.791249e+000 -5.110524e+000 -3.248616e+000 2.704104e+000 -2.390566e+000 -3.415394e+000 5.833242e+001 -1.510353e+000 1.779406e+000 6.163422e-001 1.844740e+000 8.789551e-001 1.192638e-001 1.287007e+000 -3.532003e-002 -9.283257e-001 -1.691766e+000 -3.740574e-001 4.034408e-001 -2.177014e+000 -3.750869e-001 2.122053e-001 1.152246e-002 2.343099e-001 -2.478183e-002 2.797677e-001 1.295525e-001 -7.844740e-002 -1.601687e-001 -5.937143e-002 1.912992e-001 3.709312e-002 -4.191640e-001
<VARIANCE> 39
 3.658770e+001 4.508078e+001 3.566593e+001 1.016944e+002 3.774723e+001 9.434431e+001 5.875634e+001 5.520831e+001 6.233334e+001 7.368735e+001 7.857591e+001 3.723436e+001 5.269873e+001 3.405616e+000 2.985443e+000 2.962653e+000 4.177255e+000 3.037357e+000 4.929027e+000 5.364450e+000 6.687348e+000 5.063213e+000 4.498198e+000 4.740778e+000 3.704566e+000 5.648261e+000 3.587392e-001 6.197414e-001 4.283654e-001 9.480719e-001 4.855786e-001 7.524537e-001 8.340904e-001 8.482724e-001 7.822211e-001 9.775851e-001 7.688868e-001 6.033115e-001 8.349891e-001
<GCONST> 1.377917e+002
<TRANSP> 5
 0.000000e+000 1.000000e+000 0.000000e+000 0.000000e+000 0.000000e+000
 0.000000e+000 7.462686e-001 2.537313e-001 0.000000e+000 0.000000e+000
 0.000000e+000 0.000000e+000 8.726591e-001 1.273408e-001 0.000000e+000
 0.000000e+000 0.000000e+000 0.000000e+000 7.118644e-001 2.881356e-001
 0.000000e+000 0.000000e+000 0.000000e+000 0.000000e+000 0.000000e+000
<ENDHMM>
