~o
<STREAMINFO> 1 39
<VECSIZE> 39<NULLD><MFCC_D_A_0><DIAGC>
~h "uh"
<BEGINHMM>
<NUMSTATES> 5
<STATE> 2
<MEAN> 39
 -2.403094e+000 -8.801459e+000 -5.288520e+000 -1.529603e+001 -1.274788e+001 -7.586823e+000 -1.253675e+001 -4.713718e+000 -5.825905e+000 5.207912e-001 -1.128382e-001 -2.109046e+000 6.180339e+001 1.275611e+000 -1.438140e+000 -1.680158e-001 -8.007745e-001 -7.678177e-001 -5.202442e-001 -1.395078e+000 4.888239e-001 6.749927e-001 7.375514e-001 2.170686e-001 -3.456123e-001 1.114281e+000 -7.599300e-001 1.549146e-001 4.119354e-002 4.516281e-001 4.502542e-001 1.541697e-001 5.118459e-001 2.739711e-001 2.187784e-001 -1.437866e-001 -1.936767e-001 4.108125e-002 -5.250562e-001
<VARIANCE> 39
 1.753478e+001 3.306649e+001 6.457368e+001 8.455507e+001 5.390229e+001 1.129125e+002 7.299722e+001 7.421741e+001 6.595390e+001 6.876215e+001 8.506703e+001 3.834195e+001 2.001955e+001 3.813198e+000 2.496705e+000 3.194779e+000 5.355716e+000 5.174564e+000 5.457929e+000 5.685017e+000 5.459075e+000 5.115277e+000 4.620344e+000 4.333997e+000 2.922465e+000 1.208501e+000 5.462096e-001 4.879575e-001 5.367025e-001 6.996626e-001 8.050326e-001 1.013496e+000 8.629258e-001 8.957865e-001 8.945919e-001 9.625687e-001 9.258312e-001 5.211741e-001 3.447481e-001
<GCONST> 1.365168e+002
<STATE> 3
<MEAN> 39
 -2.109501e+000 -1.004107e+001 -6.068882e+000 -1.777017e+001 -1.181487e+001 -7.270607e+000 -1.196044e+001 -2.183959e+000 -3.347101e+000 1.544629e+000 -1.104522e+000 -2.882365e+000 6.228393e+001 -1.250882e-001 -7.005579e-002 2.273017e-001 3.646333e-001 5.442368e-002 -3.031970e-001 6.874811e-002 1.921517e-001 1.438458e-001 -2.881991e-001 -2.520671e-001 5.832799e-002 -2.868698e-001 -2.406759e-001 4.274192e-001 8.974127e-002 4.519131e-001 2.325745e-001 6.708309e-002 2.215165e-001 -2.006619e-001 -2.115073e-001 -2.293791e-001 -1.172521e-001 7.032236e-002 -5.803542e-001
<VARIANCE> 39
 1.307869e+001 3.713810e+001 5.119565e+001 9.437161e+001 5.890885e+001 1.159313e+002 8.115604e+001 6.893433e+001 6.310831e+001 6.197298e+001 8.955097e+001 4.510601e+001 2.075719e+001 3.950546e-001 1.037368e+000 1.593069e+000 2.190826e+000 1.963391e+000 2.716889e+000 2.299871e+000 2.700910e+000 2.788363e+000 2.566521e+000 2.480673e+000 1.810861e+000 8.744462e-001 2.179582e-001 3.328564e-001 2.433974e-001 4.360372e-001 5.041004e-001 5.713169e-001 6.484126e-001 5.911474e-001 5.260327e-001 5.158998e-001 5.120594e-001 3.744367e-001 3.798872e-001
<GCONST> 1.196131e+002
<STATE> 4
<MEAN> 39
 -5.316821e+000 -6.970204e+000 -2.726262e+000 -8.982125e+000 -9.825360e+000 -9.750570e+000 -1.226060e+001 -3.285783e+000 -4.122636e+000 -1.085253e+000 -3.528298e+000 -2.572405e+000 5.587559e+001 -1.844562e+000 2.266284e+000 2.087971e-001 2.521922e+000 1.772286e+000 8.169148e-001 1.410341e+000 -5.636363e-001 -1.507254e-001 -8.571900e-001 -5.820495e-001 -7.536887e-002 -3.783668e+000 -4.556157e-001 9.039597e-002 -1.971013e-001 -9.860823e-002 2.160213e-001 3.650967e-001 3.527550e-001 7.223923e-002 4.471049e-002 1.142849e-001 1.776785e-001 -2.925999e-002 -1.658116e-001
<VARIANCE> 39
 2.964706e+001 4.686969e+001 5.312338e+001 8.957526e+001 6.693164e+001 7.582796e+001 6.626499e+001 5.267600e+001 5.491078e+001 5.269266e+001 6.659852e+001 3.994457e+001 6.600339e+001 4.575784e+000 3.850579e+000 3.409707e+000 5.671033e+000 5.123411e+000 6.354989e+000 6.335029e+000 5.676216e+000 4.757275e+000 5.053649e+000 6.041434e+000 3.893101e+000 6.507962e+000 5.010674e-001 1.039187e+000 4.964857e-001 1.200511e+000 9.733986e-001 9.661306e-001 1.017673e+000 9.851039e-001 8.850757e-001 7.708793e-001 9.010644e-001 6.333017e-001 1.471068e+000
<GCONST> 1.434385e+002
<TRANSP> 5
 0.000000e+000 1.000000e+000 0.000000e+000 0.000000e+000 0.000000e+000
 0.000000e+000 4.928910e-001 5.071090e-001 0.000000e+000 0.000000e+000
 0.000000e+000 0.000000e+000 7.419199e-001 2.580801e-001 0.000000e+000
 0.000000e+000 0.000000e+000 0.000000e+000 6.433333e-001 3.566667e-001
 0.000000e+000 0.000000e+000 0.000000e+000 0.000000e+000 0.000000e+000
<ENDHMM>
