~o
<STREAMINFO> 1 39
<VECSIZE> 39<NULLD><MFCC_D_A_0><DIAGC>
~h "uw"
<BEGINHMM>
<NUMSTATES> 5
<STATE> 2
<MEAN> 39
 -5.409960e+000 -9.555713e+000 4.054767e+000 -8.972684e+000 -1.570672e+001 -1.188419e+001 -1.442519e+001 -1.905252e+000 -8.838808e+000 -4.008144e+000 -1.253091e+000 -2.577156e+000 6.120910e+001 1.701980e+000 -1.253985e+000 2.576880e-001 -3.079151e-001 -1.292690e+000 -1.963379e-001 -1.568097e+000 2.967785e-001 -4.133501e-001 1.046610e-001 6.225128e-001 -2.720228e-001 5.988057e-001 -8.425977e-001 4.075999e-001 -4.979995e-001 8.449829e-004 7.018195e-001 4.617050e-001 6.544526e-001 1.925267e-002 2.303884e-001 2.210278e-001 1.223129e-003 7.108522e-002 -3.818537e-001
<VARIANCE> 39
 1.847593e+001 2.850859e+001 7.042890e+001 6.903503e+001 5.229723e+001 7.004288e+001 7.235740e+001 6.912585e+001 7.128137e+001 6.753547e+001 6.059237e+001 3.614788e+001 1.790347e+001 3.783054e+000 2.655245e+000 4.290648e+000 3.867724e+000 5.547630e+000 4.657300e+000 5.542251e+000 5.094996e+000 4.466540e+000 4.968788e+000 3.686184e+000 2.820578e+000 1.121401e+000 5.567358e-001 3.988987e-001 4.688458e-001 6.056075e-001 6.844338e-001 7.631506e-001 8.153793e-001 9.089701e-001 7.740421e-001 6.973177e-001 6.254796e-001 4.710695e-001 1.917623e-001
<GCONST> 1.322744e+002
<STATE> 3
<MEAN> 39
 -3.936405e+000 -9.457182e+000 2.303486e+000 -9.423434e+000 -1.503736e+001 -1.070494e+001 -1.511543e+001 -2.123687e+000 -9.426088e+000 -2.643757e+000 -5.184172e-001 -3.263201e+000 5.999155e+001 1.504085e-001 1.580750e-001 -2.921714e-001 1.251392e-001 2.957442e-001 1.675928e-001 -2.551827e-002 -1.795223e-001 -5.961506e-002 7.356182e-002 -7.273904e-002 -7.910398e-002 -3.784101e-001 -1.324264e-001 1.406804e-001 -2.835103e-002 6.782226e-002 1.322694e-001 3.373682e-002 1.818516e-001 -1.074587e-001 8.922277e-002 -3.289409e-002 -1.158630e-001 2.629317e-002 -1.556601e-001
<VARIANCE> 39
 1.506077e+001 2.782449e+001 6.741002e+001 7.219823e+001 4.820588e+001 8.418569e+001 7.806239e+001 7.325325e+001 7.201958e+001 7.776057e+001 7.543880e+001 4.238792e+001 2.025980e+001 3.099985e-001 6.080910e-001 1.239148e+000 1.235643e+000 1.514888e+000 1.777887e+000 1.878932e+000 1.932166e+000 2.016610e+000 1.777820e+000 1.602472e+000 1.323805e+000 3.366622e-001 1.024404e-001 1.545102e-001 1.899009e-001 2.304509e-001 3.321705e-001 3.411714e-001 4.044126e-001 3.806133e-001 3.741022e-001 3.574723e-001 3.140060e-001 2.528972e-001 9.631366e-002
<GCONST> 1.066436e+002
<STATE> 4
<MEAN> 39
 -5.612551e+000 -6.097939e+000 8.722610e-001 -6.820928e+000 -1.204940e+001 -9.630848e+000 -1.271613e+001 -4.457481e+000 -8.808052e+000 -3.392726e+000 -2.288988e+000 -2.901915e+000 5.552323e+001 -1.444740e+000 1.286259e+000 -8.572001e-001 6.312171e-001 1.446265e+000 7.178406e-001 1.709215e+000 -4.257447e-001 8.156514e-001 1.122426e-001 -5.212653e-001 5.702146e-002 -1.779111e+000 -4.192332e-001 6.018083e-003 -6.468225e-002 -5.411285e-002 1.606006e-001 1.912463e-001 2.778555e-001 2.228106e-001 8.369199e-002 7.640353e-002 5.656678e-002 1.638811e-002 -1.009736e-001
<VARIANCE> 39
 3.519672e+001 4.154856e+001 6.875218e+001 7.585262e+001 6.181781e+001 7.198023e+001 6.787113e+001 6.269384e+001 6.209350e+001 6.210398e+001 6.292157e+001 4.078091e+001 4.104662e+001 3.896215e+000 3.540615e+000 3.546600e+000 4.678332e+000 5.486239e+000 5.924226e+000 5.826582e+000 6.187554e+000 5.460058e+000 5.362615e+000 4.689463e+000 3.355415e+000 4.757156e+000 4.027701e-001 6.472937e-001 5.111639e-001 7.419358e-001 8.566862e-001 8.921555e-001 9.651794e-001 8.665980e-001 8.447050e-001 8.030643e-001 7.556331e-001 5.364973e-001 7.201067e-001
<GCONST> 1.399143e+002
<TRANSP> 5
 0.000000e+000 1.000000e+000 0.000000e+000 0.000000e+000 0.000000e+000
 0.000000e+000 5.516796e-001 4.483204e-001 0.000000e+000 0.000000e+000
 0.000000e+000 0.000000e+000 8.345255e-001 1.654745e-001 0.000000e+000
 0.000000e+000 0.000000e+000 0.000000e+000 7.141344e-001 2.858656e-001
 0.000000e+000 0.000000e+000 0.000000e+000 0.000000e+000 0.000000e+000
<ENDHMM>
