~o
<STREAMINFO> 1 39
<VECSIZE> 39<NULLD><MFCC_D_A_0><DIAGC>
~h "v"
<BEGINHMM>
<NUMSTATES> 5
<STATE> 2
<MEAN> 39
 -5.604877e+000 -3.710921e+000 -6.625349e+000 -7.192587e+000 -6.336692e+000 -6.822400e+000 -1.018889e+001 -6.389068e+000 -5.200859e+000 -1.923425e+000 -2.097406e+000 -3.072153e+000 5.265623e+001 -2.044148e+000 1.665672e+000 2.166158e-001 1.308376e+000 1.273683e+000 6.937724e-001 9.005640e-001 -4.851935e-001 -3.682030e-001 -5.791625e-001 -3.644301e-001 1.056221e-001 -1.725613e+000 -1.560805e-001 -5.200819e-001 1.616700e-001 -3.020800e-001 -3.097501e-001 -4.030445e-002 1.533505e-001 5.241278e-001 2.185700e-001 6.428667e-002 -7.377462e-002 1.868226e-002 5.468318e-001
<VARIANCE> 39
 2.918457e+001 2.244376e+001 3.492348e+001 3.254929e+001 2.602877e+001 3.989743e+001 3.329290e+001 3.239373e+001 3.200197e+001 3.113567e+001 3.585562e+001 2.735386e+001 2.692405e+001 3.495245e+000 2.662791e+000 3.353569e+000 3.643772e+000 3.331319e+000 3.899202e+000 4.403607e+000 4.536163e+000 3.629423e+000 3.417221e+000 3.169455e+000 2.340729e+000 2.637677e+000 4.910904e-001 4.550012e-001 4.307338e-001 4.541520e-001 5.220455e-001 5.467641e-001 6.717566e-001 6.698886e-001 6.054012e-001 5.484006e-001 5.162635e-001 4.448177e-001 3.814453e-001
<GCONST> 1.232764e+002
<STATE> 3
<MEAN> 39
 -1.461810e+001 -2.877395e+000 -5.679468e+000 -4.628696e+000 -3.653355e+000 -4.271365e+000 -5.206451e+000 -3.795629e+000 -4.297745e+000 -2.647263e+000 -3.189226e+000 -2.100552e+000 5.024679e+001 -3.836505e-001 -5.369881e-001 -2.210919e-001 -3.137594e-001 -1.841458e-001 -1.402007e-001 3.361279e-001 5.675423e-001 4.466570e-001 1.920185e-001 1.703235e-001 1.809102e-001 4.860409e-001 1.100209e+000 -5.224220e-001 -1.939457e-001 -6.161250e-001 -5.386788e-001 -3.801724e-001 -4.661972e-001 1.088574e-001 9.379277e-002 2.066378e-001 1.524076e-001 -3.407059e-002 6.474348e-001
<VARIANCE> 39
 5.130733e+001 2.457790e+001 2.629540e+001 2.562675e+001 2.022576e+001 2.489156e+001 2.920919e+001 2.792986e+001 2.621492e+001 2.279272e+001 2.130401e+001 1.818932e+001 3.568177e+001 6.479662e+000 2.235158e+000 2.403532e+000 3.051051e+000 2.743063e+000 3.164864e+000 3.345044e+000 2.715753e+000 2.536986e+000 2.252194e+000 2.295660e+000 1.785691e+000 4.225719e+000 6.500521e-001 7.418831e-001 6.685543e-001 7.576762e-001 6.282095e-001 7.276563e-001 8.069740e-001 8.280891e-001 7.278719e-001 6.323808e-001 5.616035e-001 4.523816e-001 7.192702e-001
<GCONST> 1.227399e+002
<STATE> 4
<MEAN> 39
 -5.899851e+000 -6.497903e+000 -7.213840e+000 -9.458453e+000 -7.938264e+000 -7.506383e+000 -8.959649e+000 -3.235986e+000 -3.773823e+000 -1.616760e+000 -1.757849e+000 -2.267878e+000 5.598522e+001 1.777647e+000 -1.479265e+000 -4.144086e-002 -1.419649e+000 -1.177284e+000 -5.765263e-001 -7.242324e-001 9.083581e-001 2.820937e-001 3.352043e-001 1.238026e-001 -4.414460e-002 1.497774e+000 -1.930399e-001 -1.913826e-002 1.762402e-001 4.587726e-002 3.974636e-002 1.749237e-001 6.844813e-002 8.069109e-002 -5.782023e-002 -4.831640e-002 -9.439251e-002 -3.014982e-002 -1.165614e-001
<VARIANCE> 39
 5.662107e+001 3.648907e+001 6.442373e+001 5.430625e+001 4.504285e+001 5.828896e+001 6.131853e+001 4.575006e+001 4.544654e+001 3.588601e+001 3.535889e+001 2.799548e+001 4.497336e+001 5.321940e+000 3.761616e+000 4.618127e+000 5.422727e+000 4.728237e+000 5.394194e+000 6.737297e+000 5.227220e+000 4.665411e+000 3.796975e+000 3.307096e+000 2.841515e+000 4.531525e+000 6.295188e-001 5.107229e-001 4.465182e-001 5.936547e-001 6.000688e-001 6.237728e-001 7.720125e-001 7.017833e-001 5.815733e-001 5.312231e-001 4.532586e-001 3.784672e-001 5.883762e-001
<GCONST> 1.335012e+002
<TRANSP> 5
 0.000000e+000 1.000000e+000 0.000000e+000 0.000000e+000 0.000000e+000
 0.000000e+000 5.543844e-001 4.456156e-001 0.000000e+000 0.000000e+000
 0.000000e+000 0.000000e+000 6.210185e-001 3.789815e-001 0.000000e+000
 0.000000e+000 0.000000e+000 0.000000e+000 5.372613e-001 4.627387e-001
 0.000000e+000 0.000000e+000 0.000000e+000 0.000000e+000 0.000000e+000
<ENDHMM>
