~o
<STREAMINFO> 1 39
<VECSIZE> 39<NULLD><MFCC_D_A_0><DIAGC>
~h "w"
<BEGINHMM>
<NUMSTATES> 5
<STATE> 2
<MEAN> 39
 8.943691e-001 -1.305128e+000 -8.771053e+000 -1.594167e+001 -1.124675e+001 -3.193345e+000 -8.162362e+000 -5.787638e+000 -1.159417e+001 -3.367854e+000 -1.174657e+000 -2.085343e+000 5.227891e+001 1.245371e+000 8.251262e-001 -6.120560e-001 -1.995633e+000 -1.336484e+000 6.387802e-001 6.926208e-001 1.409679e-001 -2.523174e-001 -4.151191e-001 3.208913e-003 1.104312e-001 2.133688e-001 -5.838807e-001 -5.373936e-001 2.756839e-001 2.488364e-001 -4.080663e-002 -2.084444e-001 2.057752e-002 4.236285e-001 5.134829e-001 2.152908e-001 -8.510239e-002 -7.804521e-002 2.506232e-001
<VARIANCE> 39
 1.236257e+001 3.012040e+001 3.211526e+001 5.708120e+001 4.774024e+001 5.235641e+001 5.544626e+001 4.873730e+001 5.463306e+001 4.873539e+001 5.516193e+001 3.076759e+001 2.385097e+001 2.473176e+000 4.111062e+000 4.049579e+000 4.898823e+000 5.382707e+000 5.291299e+000 7.114550e+000 5.122009e+000 4.906353e+000 4.720921e+000 3.939329e+000 3.010400e+000 4.573096e+000 5.299867e-001 5.105385e-001 6.051394e-001 8.351630e-001 1.224839e+000 9.422354e-001 1.059991e+000 8.745468e-001 9.013610e-001 8.339688e-001 6.419734e-001 5.317093e-001 3.017232e-001
<GCONST> 1.342391e+002
<STATE> 3
<MEAN> 39
 2.561189e+000 -2.224944e-001 -9.203308e+000 -2.206385e+001 -1.731013e+001 -8.343377e-001 -4.471267e+000 -2.098369e+000 -7.888596e+000 -4.261137e+000 -1.079354e+000 -2.251246e+000 5.334951e+001 7.035354e-002 -1.034324e+000 -3.765475e-001 -1.005941e+000 -1.297774e-001 8.090210e-001 1.321705e-001 1.705373e-001 4.600763e-001 4.789704e-001 4.492974e-001 1.660492e-001 1.107605e+000 -2.757966e-001 -4.404545e-001 -8.881839e-002 3.957557e-001 5.747121e-001 7.499588e-002 -1.666855e-001 -1.443022e-001 4.338094e-002 2.156992e-001 1.409063e-001 6.626065e-003 1.503008e-001
<VARIANCE> 39
 6.955952e+000 3.265424e+001 3.298996e+001 5.150389e+001 5.247947e+001 5.177606e+001 4.720293e+001 4.586938e+001 5.519235e+001 4.646156e+001 4.360590e+001 3.035473e+001 2.122920e+001 3.966186e-001 2.067390e+000 1.521934e+000 2.439933e+000 3.350548e+000 3.242095e+000 3.046641e+000 2.804288e+000 3.152735e+000 2.850208e+000 2.766354e+000 2.135590e+000 1.176235e+000 2.310011e-001 2.684448e-001 2.695464e-001 5.373387e-001 4.829588e-001 5.658982e-001 6.299795e-001 5.268434e-001 6.369907e-001 5.960146e-001 5.210664e-001 4.496023e-001 2.332782e-001
<GCONST> 1.170115e+002
<STATE> 4
<MEAN> 39
 1.015738e+000 -8.769255e+000 -1.089465e+001 -1.998821e+001 -1.088464e+001 -3.790920e-001 -9.162098e+000 -3.716666e+000 -7.657832e+000 1.273200e+000 4.574833e-001 -2.387199e+000 5.947358e+001 -7.230526e-001 -1.807703e+000 3.750715e-001 1.160094e+000 7.997031e-001 -9.409994e-001 -8.067052e-001 5.875782e-001 1.230913e+000 6.866250e-001 -3.122709e-001 -5.734662e-001 1.391588e+000 -2.516028e-001 3.368939e-001 2.905180e-001 3.960213e-001 -1.388097e-001 -4.176559e-001 2.971850e-001 2.216818e-001 1.256162e-001 -4.032353e-001 -3.592195e-001 -8.008673e-002 -3.332113e-001
<VARIANCE> 39
 1.122990e+001 3.442167e+001 6.003315e+001 8.763766e+001 6.574454e+001 1.018015e+002 9.465781e+001 6.694670e+001 6.986951e+001 7.821420e+001 8.959856e+001 4.333437e+001 1.866446e+001 5.948966e-001 1.946723e+000 3.416706e+000 3.101760e+000 4.719837e+000 5.896767e+000 5.845560e+000 5.143185e+000 4.531136e+000 5.345440e+000 4.312541e+000 3.346982e+000 7.804607e-001 1.797568e-001 3.484809e-001 3.847830e-001 6.211928e-001 7.191405e-001 9.867837e-001 1.058663e+000 9.431925e-001 9.885257e-001 9.326216e-001 8.494813e-001 6.835019e-001 1.934563e-001
<GCONST> 1.315948e+002
<TRANSP> 5
 0.000000e+000 1.000000e+000 0.000000e+000 0.000000e+000 0.000000e+000
 0.000000e+000 4.999197e-001 5.000803e-001 0.000000e+000 0.000000e+000
 0.000000e+000 0.000000e+000 7.200000e-001 2.800000e-001 0.000000e+000
 0.000000e+000 0.000000e+000 0.000000e+000 5.207692e-001 4.792308e-001
 0.000000e+000 0.000000e+000 0.000000e+000 0.000000e+000 0.000000e+000
<ENDHMM>
