~o
<STREAMINFO> 1 39
<VECSIZE> 39<NULLD><MFCC_D_A_0><DIAGC>
~h "y"
<BEGINHMM>
<NUMSTATES> 5
<STATE> 2
<MEAN> 39
 -9.586770e+000 -3.458776e+000 1.189661e+001 -1.163712e+001 -1.555195e+001 -7.533498e+000 -1.088451e+001 -4.491343e+000 -1.201106e+001 -4.535945e+000 -2.858742e+000 -2.931173e+000 5.590123e+001 1.181624e-001 7.590347e-002 1.489360e+000 -4.114119e-001 -9.886333e-001 2.728167e-001 -4.081904e-001 -4.851151e-002 -9.128085e-001 -3.952224e-001 3.091924e-001 -9.583734e-002 2.252076e-001 4.560741e-002 -2.682686e-001 -8.236592e-001 4.034626e-002 3.313395e-001 -3.487086e-002 1.156464e-001 1.811678e-001 4.360595e-001 2.939712e-001 4.600034e-002 4.380652e-002 5.729445e-002
<VARIANCE> 39
 1.782529e+001 4.580911e+001 4.563296e+001 7.785956e+001 5.223582e+001 5.622853e+001 4.347675e+001 6.686259e+001 4.773686e+001 5.412603e+001 5.754390e+001 3.279159e+001 2.904325e+001 3.503104e+000 3.757057e+000 4.633348e+000 3.296793e+000 5.938021e+000 5.124916e+000 4.551464e+000 4.169763e+000 4.465116e+000 4.149874e+000 2.900887e+000 2.311389e+000 2.890462e+000 4.590853e-001 3.376029e-001 5.611051e-001 7.776254e-001 9.498253e-001 9.282209e-001 7.624995e-001 8.109639e-001 7.846233e-001 6.560897e-001 5.142035e-001 4.378987e-001 2.946696e-001
<GCONST> 1.321552e+002
<STATE> 3
<MEAN> 39
 -9.280478e+000 -3.581987e+000 1.430767e+001 -1.193114e+001 -1.786081e+001 -6.614971e+000 -1.144199e+001 -4.947700e+000 -1.279153e+001 -4.469605e+000 -1.795806e+000 -2.490587e+000 5.657748e+001 3.074790e-001 -5.950785e-001 -2.749068e-001 1.926157e-001 -5.905838e-001 -5.113774e-001 1.338610e-001 1.321196e-001 1.241687e-002 1.901481e-001 3.379321e-001 1.639946e-001 5.220720e-001 7.642866e-002 -1.646866e-001 -3.709216e-001 1.562376e-001 9.112969e-002 -2.483674e-001 9.047858e-002 1.599066e-001 1.505839e-001 6.572725e-002 4.688532e-002 4.640224e-002 4.398597e-002
<VARIANCE> 39
 1.181026e+001 4.003266e+001 3.715253e+001 7.738508e+001 4.257102e+001 4.551505e+001 4.164031e+001 5.857059e+001 4.241614e+001 5.842737e+001 5.433406e+001 2.986626e+001 2.056876e+001 4.851374e-001 1.007578e+000 1.230196e+000 1.161340e+000 1.594274e+000 2.049565e+000 1.716609e+000 1.893217e+000 1.581576e+000 1.356208e+000 1.203516e+000 1.038291e+000 5.089405e-001 1.077336e-001 1.490269e-001 2.496166e-001 2.167272e-001 4.439786e-001 3.482592e-001 3.114911e-001 3.180171e-001 3.446509e-001 2.896334e-001 2.479352e-001 2.045461e-001 1.168999e-001
<GCONST> 1.030535e+002
<STATE> 4
<MEAN> 39
 -6.090183e+000 -9.768058e+000 7.824484e+000 -8.558173e+000 -1.907327e+001 -1.220833e+001 -1.081053e+001 -3.471749e-001 -1.067863e+001 -4.439722e+000 5.989407e-001 -1.472430e+000 6.073938e+001 8.932249e-001 -9.451395e-001 -2.124679e+000 4.234756e-001 7.598981e-001 -9.675857e-001 -4.613605e-001 1.048738e+000 1.014474e+000 1.590404e-001 1.515869e-001 1.540278e-001 4.545070e-001 -4.575962e-002 2.594535e-001 -2.447458e-001 -1.682405e-001 5.039683e-001 3.757924e-001 -1.146036e-001 -1.967059e-001 2.407861e-001 3.380769e-002 -2.033090e-001 -7.209722e-002 -2.525206e-001
<VARIANCE> 39
 1.537952e+001 3.504835e+001 7.038704e+001 7.824647e+001 4.621606e+001 6.306639e+001 7.191365e+001 7.484424e+001 7.545800e+001 7.149494e+001 5.421790e+001 3.258295e+001 2.149492e+001 6.507003e-001 1.307447e+000 2.644249e+000 2.511090e+000 3.257250e+000 4.514598e+000 4.004115e+000 4.227273e+000 3.628039e+000 3.063238e+000 2.476501e+000 2.149338e+000 6.414897e-001 1.283795e-001 2.180954e-001 4.030645e-001 3.814467e-001 5.448893e-001 7.087337e-001 7.048560e-001 7.093672e-001 6.693443e-001 5.962890e-001 4.537097e-001 3.676434e-001 1.160089e-001
<GCONST> 1.212157e+002
<TRANSP> 5
 0.000000e+000 1.000000e+000 0.000000e+000 0.000000e+000 0.000000e+000
 0.000000e+000 5.398697e-001 4.601303e-001 0.000000e+000 0.000000e+000
 0.000000e+000 0.000000e+000 7.490269e-001 2.509731e-001 0.000000e+000
 0.000000e+000 0.000000e+000 0.000000e+000 4.636528e-001 5.363472e-001
 0.000000e+000 0.000000e+000 0.000000e+000 0.000000e+000 0.000000e+000
<ENDHMM>
