~o
<STREAMINFO> 1 39
<VECSIZE> 39<NULLD><MFCC_D_A_0><DIAGC>
~h "z"
<BEGINHMM>
<NUMSTATES> 5
<STATE> 2
<MEAN> 39
 -2.305863e+001 5.374371e+000 -3.668583e+000 -7.603868e+000 -1.197069e+000 -9.050200e+000 -5.620121e+000 -2.677585e+000 -3.611837e+000 -2.821900e+000 -3.677646e+000 -9.865175e-001 5.657185e+001 -3.927202e+000 5.720649e-001 -8.669709e-001 3.163639e-001 1.827480e+000 1.740991e+000 1.744270e+000 1.364019e+000 6.380556e-001 3.606057e-001 6.325323e-001 3.321796e-001 -2.366891e-001 9.823524e-001 -9.720861e-001 1.067422e-002 -1.712359e-001 -6.547681e-001 -3.822208e-004 -1.611663e-001 8.813536e-002 -1.020805e-002 1.778678e-001 9.862325e-003 -1.969396e-002 7.559532e-002
<VARIANCE> 39
 3.165702e+001 2.815507e+001 4.790977e+001 4.209146e+001 4.967933e+001 5.035537e+001 4.777452e+001 3.774062e+001 3.036625e+001 2.958058e+001 2.117231e+001 1.964157e+001 1.872848e+001 3.280052e+000 3.735331e+000 3.088499e+000 3.924807e+000 3.203772e+000 4.397223e+000 3.547407e+000 3.443496e+000 3.425277e+000 3.117473e+000 2.627470e+000 2.459839e+000 1.407192e+000 6.932219e-001 6.001399e-001 5.660393e-001 7.460826e-001 7.099413e-001 9.264474e-001 7.727914e-001 7.479548e-001 6.046315e-001 5.957057e-001 5.135226e-001 5.180159e-001 2.355597e-001
<GCONST> 1.253892e+002
<STATE> 3
<MEAN> 39
 -2.873983e+001 1.401821e+000 -7.792204e+000 -8.604487e+000 2.175792e-001 -5.483562e+000 -1.300675e+000 1.343096e+000 -1.353892e+000 -6.628437e-001 -1.639438e+000 2.436117e-001 5.604271e+001 3.518341e-001 -7.753130e-001 -1.118291e-001 -2.589330e-001 -3.110464e-001 -8.999392e-002 -5.836292e-002 1.356662e-001 1.798706e-001 1.323589e-001 6.370714e-002 3.173720e-003 -1.012955e-002 1.114356e+000 -1.962811e-001 3.019092e-001 -1.067458e-002 -3.993409e-001 -3.532650e-001 -4.765150e-001 -3.594379e-001 -1.408963e-001 -9.246308e-002 -1.740064e-001 -1.372029e-001 -1.765977e-001
<VARIANCE> 39
 1.479182e+001 2.756071e+001 4.058732e+001 4.049654e+001 3.689596e+001 3.479894e+001 3.780608e+001 2.892439e+001 2.140162e+001 1.976568e+001 1.823049e+001 1.480936e+001 1.731234e+001 2.896153e+000 1.607942e+000 1.880737e+000 1.692160e+000 2.020874e+000 2.662167e+000 2.362188e+000 2.178108e+000 2.016347e+000 1.839499e+000 1.671200e+000 1.435211e+000 1.256024e+000 7.005730e-001 3.661322e-001 3.941445e-001 4.756263e-001 5.271012e-001 6.423344e-001 6.079703e-001 5.313705e-001 4.673828e-001 4.251427e-001 4.071490e-001 3.412447e-001 3.154635e-001
<GCONST> 1.121836e+002
<STATE> 4
<MEAN> 39
 -1.889838e+001 -1.776995e+000 -4.520725e+000 -8.764356e+000 -3.183171e+000 -8.031772e+000 -5.922140e+000 -1.386009e+000 -1.881597e+000 -1.073221e+000 -2.995184e+000 -1.100649e+000 5.477266e+001 3.839154e+000 -1.697911e+000 2.742967e-001 8.955890e-003 -1.575011e+000 -2.928981e-001 -1.139236e+000 -7.051516e-001 -2.428774e-001 1.696680e-001 -2.658860e-001 -4.038101e-001 -1.250471e+000 6.130564e-002 -4.342659e-002 -1.329525e-001 1.717406e-002 -8.828624e-002 2.334636e-001 1.023496e-001 8.629680e-002 -1.119689e-001 1.436777e-002 6.467262e-002 -1.336025e-002 -8.190466e-002
<VARIANCE> 39
 6.111854e+001 3.847268e+001 4.265095e+001 3.806319e+001 5.379308e+001 6.040870e+001 5.056481e+001 4.161158e+001 3.733271e+001 3.256227e+001 2.769146e+001 2.220672e+001 5.393686e+001 4.313296e+000 4.095002e+000 4.224443e+000 5.707931e+000 5.206940e+000 6.170876e+000 5.911191e+000 4.564458e+000 4.342871e+000 3.687257e+000 3.581701e+000 2.869014e+000 7.279231e+000 1.049557e+000 6.646675e-001 5.314074e-001 7.047829e-001 7.962687e-001 9.517254e-001 8.761193e-001 7.991554e-001 7.057390e-001 6.189023e-001 5.559042e-001 4.559257e-001 9.483277e-001
<GCONST> 1.357601e+002
<TRANSP> 5
 0.000000e+000 1.000000e+000 0.000000e+000 0.000000e+000 0.000000e+000
 0.000000e+000 5.818464e-001 4.181536e-001 0.000000e+000 0.000000e+000
 0.000000e+000 0.000000e+000 7.543300e-001 2.456700e-001 0.000000e+000
 0.000000e+000 0.000000e+000 0.000000e+000 6.551504e-001 3.448497e-001
 0.000000e+000 0.000000e+000 0.000000e+000 0.000000e+000 0.000000e+000
<ENDHMM>
