~o
<STREAMINFO> 1 39
<VECSIZE> 39<NULLD><MFCC_D_A_0><DIAGC>
~h "zh"
<BEGINHMM>
<NUMSTATES> 5
<STATE> 2
<MEAN> 39
 -2.216083e+001 -1.081747e+000 7.929384e+000 -6.857004e+000 -8.168170e+000 -6.533919e+000 -6.881315e+000 -2.969465e+000 -4.107384e+000 -5.374450e+000 -3.190426e+000 -5.976036e-001 5.824866e+001 -3.920354e+000 2.294659e-001 1.341958e-001 4.696393e-002 1.381156e+000 2.186460e+000 1.659894e+000 4.598722e-001 8.023237e-001 6.872019e-001 3.480760e-001 -2.816465e-002 -2.007688e-001 9.254684e-001 -7.712148e-001 -5.085056e-001 -9.063368e-002 -4.317270e-001 -2.703316e-001 -1.478848e-001 3.323428e-001 2.031789e-002 1.341915e-001 1.960690e-001 -3.335179e-003 1.985786e-001
<VARIANCE> 39
 3.891354e+001 2.866796e+001 2.908064e+001 4.167165e+001 4.057345e+001 4.426641e+001 3.255878e+001 2.643961e+001 3.491196e+001 2.630154e+001 1.709952e+001 1.746793e+001 1.460613e+001 3.038402e+000 2.945811e+000 2.375391e+000 2.127617e+000 3.395660e+000 3.575213e+000 3.169465e+000 2.879630e+000 2.945258e+000 3.102829e+000 2.114229e+000 1.896673e+000 1.056429e+000 6.400474e-001 3.361626e-001 3.652573e-001 4.367464e-001 5.261197e-001 8.140152e-001 6.427837e-001 6.073375e-001 5.829445e-001 5.525660e-001 4.924887e-001 3.672581e-001 2.223475e-001
<GCONST> 1.179177e+002
<STATE> 3
<MEAN> 39
 -2.911607e+001 -3.891448e+000 4.469084e+000 -8.339955e+000 -6.370043e+000 -2.150025e+000 -2.125107e+000 1.468136e-001 -1.431301e+000 -2.323542e+000 -6.899095e-001 -1.121102e-002 5.872338e+001 5.249993e-001 -5.132385e-001 -5.839396e-001 1.450702e-001 -4.418154e-001 -4.695829e-001 1.517964e-001 1.110772e-001 -7.044771e-002 1.561059e-001 1.828738e-001 -4.934950e-003 3.968013e-002 1.321401e+000 1.546868e-002 -6.036401e-002 1.081745e-001 -3.341700e-001 -6.844849e-001 -5.491355e-001 -2.187790e-001 -2.910686e-001 -2.382919e-001 -1.395994e-001 -6.519013e-002 -1.259506e-001
<VARIANCE> 39
 2.616983e+001 3.293905e+001 3.675903e+001 4.200655e+001 4.214069e+001 3.495605e+001 3.011791e+001 2.391209e+001 2.607351e+001 2.117694e+001 1.635877e+001 1.602342e+001 1.239135e+001 4.122498e+000 1.365118e+000 1.881477e+000 1.514683e+000 2.587252e+000 2.863496e+000 2.252903e+000 1.895978e+000 2.074513e+000 1.756373e+000 1.469287e+000 1.191196e+000 1.011254e+000 5.834372e-001 3.190667e-001 3.358468e-001 3.047917e-001 5.146040e-001 6.111046e-001 5.686167e-001 3.805099e-001 4.521142e-001 4.373276e-001 3.378254e-001 3.163660e-001 2.102388e-001
<GCONST> 1.100819e+002
<STATE> 4
<MEAN> 39
 -1.622726e+001 -5.344267e+000 2.809594e+000 -5.772991e+000 -1.013362e+001 -8.975578e+000 -6.486220e+000 -2.188049e+000 -3.678019e+000 -3.833257e+000 -2.298168e+000 -9.204401e-001 5.741814e+001 4.420895e+000 -6.954479e-001 -1.286218e+000 -9.063319e-002 -6.264646e-001 -1.356572e+000 -1.804685e+000 -1.596867e-001 -3.665179e-001 -3.268734e-001 -1.366098e-001 -1.078604e-001 -7.055503e-001 4.539727e-002 -1.726158e-001 -1.677808e-001 -2.187420e-001 1.870569e-001 4.009590e-001 -1.789388e-001 1.665776e-001 1.432758e-001 8.416166e-002 8.140697e-002 8.618312e-003 -2.318481e-002
<VARIANCE> 39
 6.320009e+001 3.076991e+001 4.078024e+001 4.706329e+001 5.153251e+001 4.603682e+001 3.756868e+001 3.309402e+001 4.229231e+001 2.949056e+001 2.149442e+001 1.736711e+001 3.897924e+001 4.945823e+000 3.513160e+000 3.796933e+000 3.864568e+000 5.530023e+000 6.874635e+000 6.397326e+000 3.352651e+000 4.319920e+000 3.740624e+000 3.098984e+000 2.490697e+000 3.467467e+000 9.396986e-001 4.213310e-001 4.767151e-001 4.978022e-001 7.839441e-001 7.694192e-001 9.119629e-001 5.633787e-001 6.553884e-001 5.630746e-001 4.216470e-001 3.803317e-001 4.914497e-001
<GCONST> 1.296613e+002
<TRANSP> 5
 0.000000e+000 1.000000e+000 0.000000e+000 0.000000e+000 0.000000e+000
 0.000000e+000 5.817174e-001 4.182825e-001 0.000000e+000 0.000000e+000
 0.000000e+000 0.000000e+000 7.483333e-001 2.516667e-001 0.000000e+000
 0.000000e+000 0.000000e+000 0.000000e+000 6.430260e-001 3.569740e-001
 0.000000e+000 0.000000e+000 0.000000e+000 0.000000e+000 0.000000e+000
<ENDHMM>
