~o
<STREAMINFO> 1 26
<VECSIZE> 26<NULLD><MFCC_E_D><DIAGC>
~h "C"
<BEGINHMM>
<NUMSTATES> 5
<STATE> 2
<MEAN> 26
 -1.374579e+001 -3.856884e+000 -1.934166e+000 -4.565009e+000 -5.208672e+000 -3.984524e+000 -2.752172e+000 -1.414529e+000 -1.331417e+000 -1.118993e+000 -3.099602e+000 -4.898035e-001 3.410664e-001 -2.156713e+000 9.264636e-002 -1.164640e+000 -2.917312e-001 1.595276e+000 5.285010e-001 5.924728e-001 -1.455679e-001 3.356995e-001 -5.370345e-002 1.823379e-001 4.386646e-002 -3.553605e-002
<VARIANCE> 26
 4.292527e+001 5.363505e+001 3.680216e+001 4.616061e+001 3.986187e+001 3.568894e+001 3.250733e+001 3.448683e+001 2.385894e+001 1.944758e+001 2.233788e+001 1.569765e+001 5.648840e-002 5.847225e+000 5.929214e+000 4.347364e+000 6.323718e+000 6.337533e+000 3.892381e+000 4.813941e+000 4.323955e+000 3.423927e+000 2.346333e+000 2.409352e+000 1.839962e+000 5.000000e-002
<GCONST> 1.000504e+002
<STATE> 3
<MEAN> 26
 -2.176355e+001 -4.241621e+000 -6.424734e+000 -8.805523e+000 -2.162778e+000 -5.120652e+000 -5.003871e-001 -1.408447e+000 -1.898079e-001 -1.530277e+000 -2.012220e+000 6.247041e-002 4.508415e-001 1.090451e-001 -4.200238e-001 -1.576552e-001 -3.340904e-001 -2.255262e-001 -5.116184e-002 -1.260204e-002 6.420494e-002 8.028541e-002 -9.621301e-002 -7.911278e-002 -1.146824e-002 9.893901e-003
<VARIANCE> 26
 3.562911e+001 2.351674e+001 2.901556e+001 3.163307e+001 2.660973e+001 3.550578e+001 2.101213e+001 1.647239e+001 1.714680e+001 1.559954e+001 1.191936e+001 1.093950e+001 6.832612e-002 3.232125e+000 1.760612e+000 2.027192e+000 2.596897e+000 1.679095e+000 2.076658e+000 1.965369e+000 1.788242e+000 1.770424e+000 1.857989e+000 1.581118e+000 1.165444e+000 5.000000e-002
<GCONST> 8.652352e+001
<STATE> 4
<MEAN> 26
 -9.242510e+000 -8.380819e+000 -3.503934e+000 -7.109855e+000 -8.492944e+000 -3.926596e+000 -4.400939e+000 8.761026e-001 -1.275382e+000 -1.360881e+000 -3.406709e+000 -8.287187e-001 5.474472e-001 2.849915e+000 -7.478575e-001 5.846291e-001 -3.491682e-001 -1.761149e+000 1.738539e-001 -1.638936e+000 3.527272e-001 -4.816301e-001 1.893711e-001 1.137069e-002 -4.558628e-001 5.661148e-002
<VARIANCE> 26
 7.306814e+001 4.039274e+001 6.938622e+001 3.565804e+001 5.885060e+001 5.174436e+001 5.345530e+001 3.468594e+001 3.417053e+001 2.578854e+001 2.357895e+001 1.675788e+001 5.000000e-002 4.726913e+000 3.768152e+000 4.797867e+000 4.501034e+000 4.553571e+000 5.292859e+000 5.035262e+000 2.803929e+000 3.137031e+000 2.442150e+000 2.473692e+000 2.111756e+000 5.000000e-002
<GCONST> 1.013755e+002
<TRANSP> 5
 0.000000e+000 1.000000e+000 0.000000e+000 0.000000e+000 0.000000e+000
 0.000000e+000 5.312754e-001 4.687246e-001 0.000000e+000 0.000000e+000
 0.000000e+000 0.000000e+000 7.374787e-001 2.625213e-001 0.000000e+000
 0.000000e+000 0.000000e+000 0.000000e+000 6.486574e-001 3.513426e-001
 0.000000e+000 0.000000e+000 0.000000e+000 0.000000e+000 0.000000e+000
<ENDHMM>
