~o
<STREAMINFO> 1 26
<VECSIZE> 26<NULLD><MFCC_E_D><DIAGC>
~h "L"
<BEGINHMM>
<NUMSTATES> 5
<STATE> 2
<MEAN> 26
 1.875631e+000 -1.696356e+000 -7.390749e+000 -1.441308e+001 -1.203230e+001 1.345164e+000 -8.625282e+000 -3.049047e+000 -5.068923e+000 -6.747359e-001 -1.778884e+000 -1.364620e+000 7.025754e-001 5.978368e-001 -1.572139e-001 -8.607860e-002 -7.099075e-001 -2.884281e-001 2.178288e-001 -6.396475e-001 2.997203e-001 -2.041018e-001 -1.380800e-001 1.783978e-001 8.501925e-002 1.956846e-002
<VARIANCE> 26
 1.270100e+001 4.470054e+001 4.292842e+001 7.064675e+001 4.473174e+001 6.201191e+001 3.880847e+001 3.808949e+001 4.396005e+001 4.565730e+001 3.057371e+001 1.453152e+001 5.000000e-002 1.915937e+000 2.950130e+000 3.308841e+000 2.756572e+000 4.297215e+000 4.824569e+000 2.987145e+000 3.777124e+000 2.389223e+000 2.794040e+000 3.198265e+000 9.341317e-001 5.000000e-002
<GCONST> 9.747026e+001
<STATE> 3
<MEAN> 26
 2.936300e+000 -9.924635e+000 -8.047783e+000 -7.372056e+000 -1.348611e+001 -4.721246e+000 -1.136141e+001 4.624479e+000 -9.071928e-001 -1.160993e+000 -1.331051e+000 -1.437500e+000 7.826056e-001 -3.218671e-001 -2.080100e-001 1.385660e-001 1.521227e-001 -1.426561e-001 2.010701e-001 5.514418e-001 -2.297920e-001 -1.009987e-001 1.682577e-001 5.729728e-002 -2.528313e-001 6.569014e-004
<VARIANCE> 26
 9.410777e+000 3.929543e+001 9.025845e+001 5.565140e+001 2.992927e+001 7.341721e+001 3.089240e+001 6.156815e+001 4.256552e+001 2.550570e+001 1.952674e+001 1.539712e+001 5.000000e-002 4.023374e-001 2.340564e+000 2.444046e+000 2.142482e+000 3.420897e+000 2.813418e+000 2.462415e+000 1.944418e+000 2.301840e+000 1.643078e+000 2.001157e+000 1.524645e+000 5.000000e-002
<GCONST> 9.204137e+001
<STATE> 4
<MEAN> 26
 -1.887211e+000 -5.224907e+000 -3.541421e+000 -8.871261e+000 -1.082765e+001 -3.291357e+000 -8.710254e+000 -1.799832e+000 -3.868223e+000 1.567760e+000 -2.695881e+000 -1.236567e+000 6.935939e-001 -1.855601e+000 1.117386e-001 1.038389e+000 1.027024e+000 3.930022e-001 -9.068727e-001 8.954584e-001 -8.106932e-002 8.102981e-002 8.731401e-002 -2.431082e-001 2.817485e-001 -2.842803e-002
<VARIANCE> 26
 3.094796e+001 5.083604e+001 1.050474e+002 6.179912e+001 7.214724e+001 8.849342e+001 5.113004e+001 6.479359e+001 5.682140e+001 2.075177e+001 3.356796e+001 2.270028e+001 5.000000e-002 4.756415e+000 4.961940e+000 2.425023e+000 4.333142e+000 7.334438e+000 6.524805e+000 5.824071e+000 4.434237e+000 4.158236e+000 2.302624e+000 2.939142e+000 2.279963e+000 5.000000e-002
<GCONST> 1.053027e+002
<TRANSP> 5
 0.000000e+000 1.000000e+000 0.000000e+000 0.000000e+000 0.000000e+000
 0.000000e+000 5.786158e-001 4.213843e-001 0.000000e+000 0.000000e+000
 0.000000e+000 0.000000e+000 5.710465e-001 4.289536e-001 0.000000e+000
 0.000000e+000 0.000000e+000 0.000000e+000 5.403596e-001 4.596404e-001
 0.000000e+000 0.000000e+000 0.000000e+000 0.000000e+000 0.000000e+000
<ENDHMM>
