~o
<STREAMINFO> 1 26
<VECSIZE> 26<NULLD><MFCC_E_D><DIAGC>
~h "N"
<BEGINHMM>
<NUMSTATES> 5
<STATE> 2
<MEAN> 26
 -3.088736e+000 -5.734135e+000 3.179393e+000 -8.017517e-001 -1.160261e+001 1.172682e+000 -9.816520e+000 -6.362816e+000 -4.872100e+000 -2.287076e-001 -5.822273e+000 4.575185e-002 4.697347e-001 -3.142939e-002 6.253682e-001 1.463847e-001 1.088678e+000 1.105289e-002 7.628203e-001 -1.306566e-001 -2.303030e+000 -1.239487e+000 3.961671e-001 2.415671e-001 9.042240e-001 -2.073423e-002
<VARIANCE> 26
 3.385733e+000 1.537002e+001 1.417232e+001 2.526462e+001 2.809101e+001 1.867373e+001 2.616944e+001 5.276104e+001 2.813749e+001 2.770390e+001 1.355359e+001 1.753888e+001 5.000000e-002 1.740529e+000 1.774511e+000 1.939830e+000 2.641157e+000 3.282826e+000 2.098301e+000 3.798928e+000 3.577674e+000 4.305953e+000 2.721448e+000 2.824483e+000 1.954608e+000 5.000000e-002
<GCONST> 8.871918e+001
<STATE> 3
<MEAN> 26
 -3.971991e+000 -2.767160e+000 2.281914e+000 -1.283622e+000 -1.197811e+001 1.384136e+000 -7.957692e+000 -8.464458e+000 -5.114537e+000 -1.442464e+000 -7.015537e+000 3.984135e+000 4.300611e-001 -3.742122e-001 3.867422e-001 -1.194589e+000 -1.002745e+000 6.527954e-001 -6.865755e-001 7.909371e-001 1.339967e+000 1.292658e+000 -1.245502e+000 2.474573e-001 6.296721e-002 5.516272e-003
<VARIANCE> 26
 2.612330e+000 3.191413e+001 1.460874e+001 1.789071e+001 1.949834e+001 1.584025e+001 2.585477e+001 3.760632e+001 2.612565e+001 2.019097e+001 1.461569e+001 1.242155e+001 5.000000e-002 2.143433e+000 2.885588e+000 2.287534e+000 4.026487e+000 3.937852e+000 2.314640e+000 2.252982e+000 4.584809e+000 1.481339e+000 1.156666e+000 1.804042e+000 1.822095e+000 5.000000e-002
<GCONST> 8.618066e+001
<STATE> 4
<MEAN> 26
 -4.873219e+000 -4.969817e+000 -3.448648e+000 -6.508986e+000 -9.411824e+000 -8.987889e-001 -5.215935e+000 -2.059098e+000 -9.069534e-001 -3.953277e+000 -4.265926e+000 3.140145e-001 5.118520e-001 -5.430924e-001 -6.920783e-001 -2.616147e+000 -2.693803e+000 3.455380e-001 -1.545168e-001 6.309853e-001 1.675260e+000 2.329590e+000 -4.998197e-001 6.428313e-001 -1.160640e+000 4.900371e-002
<VARIANCE> 26
 4.937851e+001 3.330372e+001 4.927251e+001 4.999744e+001 3.093251e+001 2.505504e+001 2.537168e+001 4.262366e+001 2.205068e+001 2.461986e+001 1.973521e+001 8.357219e+000 5.000000e-002 7.417728e+000 2.558416e+000 4.106178e+000 2.046283e+000 5.521352e+000 4.486727e+000 2.410746e+000 5.211590e+000 3.379382e+000 1.099380e+000 3.002144e+000 1.986542e+000 5.000000e-002
<GCONST> 9.595972e+001
<TRANSP> 5
 0.000000e+000 1.000000e+000 0.000000e+000 0.000000e+000 0.000000e+000
 0.000000e+000 6.925188e-001 3.074812e-001 0.000000e+000 0.000000e+000
 0.000000e+000 0.000000e+000 5.146187e-001 4.853814e-001 0.000000e+000
 0.000000e+000 0.000000e+000 0.000000e+000 4.074190e-001 5.925810e-001
 0.000000e+000 0.000000e+000 0.000000e+000 0.000000e+000 0.000000e+000
<ENDHMM>
