~o
<STREAMINFO> 1 26
<VECSIZE> 26<NULLD><MFCC_E_D><DIAGC>
~h "S"
<BEGINHMM>
<NUMSTATES> 5
<STATE> 2
<MEAN> 26
 -1.312158e+001 -6.924948e+000 -9.575738e+000 -9.700346e+000 -1.978979e+000 -1.412265e-001 -3.793674e+000 1.906037e+000 2.836125e+000 -5.206121e-002 -6.270124e+000 -3.256054e+000 1.694201e-001 1.079060e-001 -1.083186e-001 -4.280434e-001 2.619737e-001 2.322637e-001 1.054576e+000 3.101988e-002 -1.537170e-001 -4.259327e-001 1.068271e-001 1.180197e-001 1.620869e-001 -3.513438e-002
<VARIANCE> 26
 2.857086e+001 3.240831e+001 1.942686e+001 3.237432e+001 2.310045e+001 4.016037e+001 2.787809e+001 2.337418e+001 1.299980e+001 1.247312e+001 2.700979e+001 5.804776e+001 5.000000e-002 3.485437e+000 2.058684e+000 1.409653e+000 2.260853e+000 1.657813e+000 3.174337e+000 2.262678e+000 3.152147e+000 9.340000e-001 1.490312e+000 2.688156e+000 3.137423e+000 5.000000e-002
<GCONST> 9.004429e+001
<STATE> 3
<MEAN> 26
 -1.657061e+001 -1.924784e+000 -7.308868e+000 -5.579662e+000 -2.744299e+000 2.548023e-002 -7.656928e-001 1.499478e+000 -1.352542e+000 -5.772614e-001 -1.805893e+000 -3.748005e-001 -6.657540e-002 1.040036e-001 2.618816e-001 1.746463e-001 1.075570e-001 -3.406278e-001 9.741906e-002 2.934841e-002 -8.753250e-002 -1.310903e-001 -1.094641e-001 3.912650e-002 -1.076923e-001 -3.882844e-003
<VARIANCE> 26
 8.013186e+000 5.612678e+000 1.095121e+001 1.898289e+001 1.665199e+001 1.249043e+001 1.315175e+001 1.793196e+001 1.197186e+001 1.451829e+001 1.794091e+001 1.159000e+001 5.000000e-002 4.996077e-001 5.349489e-001 9.165195e-001 1.426521e+000 1.206383e+000 1.115613e+000 1.290885e+000 1.963284e+000 1.356472e+000 1.437336e+000 1.828173e+000 1.396540e+000 5.000000e-002
<GCONST> 7.401279e+001
<STATE> 4
<MEAN> 26
 -1.229356e+001 -2.463002e+000 -2.739839e+000 -1.002811e+001 -8.774648e+000 1.143289e+000 -2.106931e+000 1.589364e+000 -3.837175e+000 -2.165908e+000 -2.391996e+000 -2.094370e+000 1.866703e-001 4.957132e-001 -5.290716e-001 5.256956e-001 -7.401264e-001 -8.054978e-002 4.923671e-001 -8.093418e-001 -1.287815e-003 -3.843944e-001 -5.124353e-001 -1.781842e-001 -2.187016e-001 7.383639e-002
<VARIANCE> 26
 4.273547e+001 2.517672e+001 5.713602e+001 2.603203e+001 4.157716e+001 3.691289e+001 2.865103e+001 3.849619e+001 3.945790e+001 1.965025e+001 1.345232e+001 2.141833e+001 7.294689e-002 5.300366e+000 2.581185e+000 4.143434e+000 2.567575e+000 2.965690e+000 1.867938e+000 2.259454e+000 3.340880e+000 2.404337e+000 1.845758e+000 1.490623e+000 2.064794e+000 5.000000e-002
<GCONST> 9.444354e+001
<TRANSP> 5
 0.000000e+000 1.000000e+000 0.000000e+000 0.000000e+000 0.000000e+000
 0.000000e+000 6.414033e-001 3.585967e-001 0.000000e+000 0.000000e+000
 0.000000e+000 0.000000e+000 8.879404e-001 1.120596e-001 0.000000e+000
 0.000000e+000 0.000000e+000 0.000000e+000 6.899254e-001 3.100746e-001
 0.000000e+000 0.000000e+000 0.000000e+000 0.000000e+000 0.000000e+000
<ENDHMM>
