~o
<STREAMINFO> 1 26
<VECSIZE> 26<NULLD><MFCC_E_D><DIAGC>
~h "V"
<BEGINHMM>
<NUMSTATES> 5
<STATE> 2
<MEAN> 26
 5.330700e-001 -7.964968e+000 -4.466611e+000 -1.294546e+001 -1.300830e+001 2.441634e+000 -1.185952e+001 -1.012110e+000 -3.499946e+000 6.782978e-001 -1.253706e+000 -3.382641e+000 7.951860e-001 4.965439e-001 -5.653682e-001 -3.872811e-002 -7.519151e-002 -4.094850e-001 3.125091e-001 -5.245480e-001 1.768077e-001 3.894659e-001 1.861757e-001 -1.631868e-001 -3.198821e-001 1.582631e-002
<VARIANCE> 26
 1.737138e+001 3.286142e+001 1.247053e+002 4.677574e+001 5.600198e+001 1.041004e+002 5.358112e+001 3.405810e+001 4.284311e+001 3.497125e+001 2.348920e+001 2.383279e+001 5.000000e-002 1.485011e+000 1.693050e+000 2.403332e+000 1.785150e+000 2.940773e+000 2.484339e+000 2.337711e+000 2.209874e+000 2.670341e+000 1.748438e+000 1.686899e+000 1.519972e+000 5.000000e-002
<GCONST> 9.512307e+001
<STATE> 3
<MEAN> 26
 1.460103e+000 -1.499418e+001 -6.535159e+000 -8.896370e+000 -1.462842e+001 1.856787e+000 -8.443484e+000 4.358605e+000 7.951481e-001 -7.622510e-001 -6.757023e+000 -6.786396e+000 8.449768e-001 -3.575484e-001 3.742392e-001 8.489281e-001 2.310653e-001 -1.840460e-001 -8.307163e-001 4.480079e-001 3.585808e-001 -2.523462e-001 9.643065e-003 -1.909319e-001 5.006952e-001 -1.548074e-002
<VARIANCE> 26
 1.156987e+001 3.502605e+001 7.185578e+001 1.817422e+001 3.836011e+001 5.881683e+001 3.137688e+001 3.459533e+001 3.857343e+001 2.012912e+001 2.722254e+001 2.368255e+001 5.000000e-002 6.669261e-001 2.024245e+000 2.900930e+000 1.733853e+000 2.403610e+000 2.798141e+000 2.225580e+000 2.538935e+000 1.852938e+000 1.647164e+000 1.944624e+000 2.004440e+000 5.000000e-002
<GCONST> 9.083670e+001
<STATE> 4
<MEAN> 26
 -5.364141e+000 -5.261135e+000 2.261285e+000 -7.959800e+000 -1.237448e+001 -4.636847e+000 -5.514536e+000 1.022002e+000 -3.350016e+000 -3.963263e-002 -3.950233e+000 -1.043306e+000 6.197279e-001 -2.245304e+000 1.826592e+000 -8.713762e-001 1.028910e+000 2.381772e+000 4.340551e-002 1.351109e+000 -1.194561e+000 3.049004e-001 2.139297e-002 2.260078e-001 2.692867e-001 -7.312931e-002
<VARIANCE> 26
 3.744108e+001 3.717594e+001 6.080412e+001 3.610746e+001 6.792113e+001 5.089077e+001 4.724594e+001 4.080234e+001 4.700819e+001 3.636789e+001 2.649533e+001 1.812714e+001 5.000000e-002 4.884672e+000 3.215794e+000 5.280237e+000 3.826202e+000 5.592964e+000 4.398505e+000 5.022768e+000 3.855931e+000 6.055565e+000 3.255531e+000 2.471604e+000 1.742386e+000 5.000000e-002
<GCONST> 1.024243e+002
<TRANSP> 5
 0.000000e+000 1.000000e+000 0.000000e+000 0.000000e+000 0.000000e+000
 0.000000e+000 7.321516e-001 2.678485e-001 0.000000e+000 0.000000e+000
 0.000000e+000 0.000000e+000 7.186217e-001 2.813784e-001 0.000000e+000
 0.000000e+000 0.000000e+000 0.000000e+000 6.189571e-001 3.810429e-001
 0.000000e+000 0.000000e+000 0.000000e+000 0.000000e+000 0.000000e+000
<ENDHMM>
