~o
<STREAMINFO> 1 39
<VECSIZE> 39<NULLD><MFCC_D_A_0><DIAGC>
~h "mono_proto"
<BEGINHMM>
<NUMSTATES> 5
<STATE> 2
<MEAN> 39
 -1.012254e+001 -7.264226e+000 -5.370609e+000 -9.712223e+000 -8.047407e+000 -5.681805e+000 -5.715530e+000 -8.866713e-001 -3.691204e+000 -1.679087e+000 -2.372116e+000 -1.992831e+000 5.435896e+001 3.500676e-003 3.751514e-003 -3.257113e-004 8.666315e-004 4.723685e-003 -5.871184e-004 2.242538e-004 -5.077678e-003 -4.137083e-003 -6.559433e-004 -4.315007e-003 -2.692445e-003 3.635526e-003 -9.590312e-005 -2.103336e-004 1.350999e-004 -1.665192e-005 -3.384958e-004 -2.177513e-004 -1.438120e-004 1.637035e-004 2.628569e-004 5.633956e-006 2.228680e-004 2.034441e-004 -1.619592e-005
<VARIANCE> 39
 1.019786e+002 5.942492e+001 7.969102e+001 8.208926e+001 7.801923e+001 7.487221e+001 7.644022e+001 6.621936e+001 6.555122e+001 4.695240e+001 4.796211e+001 3.524432e+001 1.175200e+002 4.562052e+000 3.524030e+000 3.336629e+000 4.190802e+000 4.308138e+000 4.198901e+000 4.401060e+000 4.303509e+000 3.945011e+000 3.243087e+000 2.985248e+000 2.440663e+000 5.602153e+000 6.298022e-001 5.834202e-001 5.080929e-001 6.770238e-001 7.052062e-001 7.098499e-001 7.490564e-001 7.594704e-001 6.945509e-001 5.957314e-001 5.417498e-001 4.463946e-001 8.994053e-001
<GCONST> 1.383837e+002
<STATE> 3
<MEAN> 39
 -1.012254e+001 -7.264226e+000 -5.370609e+000 -9.712223e+000 -8.047407e+000 -5.681805e+000 -5.715530e+000 -8.866713e-001 -3.691204e+000 -1.679087e+000 -2.372116e+000 -1.992831e+000 5.435896e+001 3.500676e-003 3.751514e-003 -3.257113e-004 8.666315e-004 4.723685e-003 -5.871184e-004 2.242538e-004 -5.077678e-003 -4.137083e-003 -6.559433e-004 -4.315007e-003 -2.692445e-003 3.635526e-003 -9.590312e-005 -2.103336e-004 1.350999e-004 -1.665192e-005 -3.384958e-004 -2.177513e-004 -1.438120e-004 1.637035e-004 2.628569e-004 5.633956e-006 2.228680e-004 2.034441e-004 -1.619592e-005
<VARIANCE> 39
 1.019786e+002 5.942492e+001 7.969102e+001 8.208926e+001 7.801923e+001 7.487221e+001 7.644022e+001 6.621936e+001 6.555122e+001 4.695240e+001 4.796211e+001 3.524432e+001 1.175200e+002 4.562052e+000 3.524030e+000 3.336629e+000 4.190802e+000 4.308138e+000 4.198901e+000 4.401060e+000 4.303509e+000 3.945011e+000 3.243087e+000 2.985248e+000 2.440663e+000 5.602153e+000 6.298022e-001 5.834202e-001 5.080929e-001 6.770238e-001 7.052062e-001 7.098499e-001 7.490564e-001 7.594704e-001 6.945509e-001 5.957314e-001 5.417498e-001 4.463946e-001 8.994053e-001
<GCONST> 1.383837e+002
<STATE> 4
<MEAN> 39
 -1.012254e+001 -7.264226e+000 -5.370609e+000 -9.712223e+000 -8.047407e+000 -5.681805e+000 -5.715530e+000 -8.866713e-001 -3.691204e+000 -1.679087e+000 -2.372116e+000 -1.992831e+000 5.435896e+001 3.500676e-003 3.751514e-003 -3.257113e-004 8.666315e-004 4.723685e-003 -5.871184e-004 2.242538e-004 -5.077678e-003 -4.137083e-003 -6.559433e-004 -4.315007e-003 -2.692445e-003 3.635526e-003 -9.590312e-005 -2.103336e-004 1.350999e-004 -1.665192e-005 -3.384958e-004 -2.177513e-004 -1.438120e-004 1.637035e-004 2.628569e-004 5.633956e-006 2.228680e-004 2.034441e-004 -1.619592e-005
<VARIANCE> 39
 1.019786e+002 5.942492e+001 7.969102e+001 8.208926e+001 7.801923e+001 7.487221e+001 7.644022e+001 6.621936e+001 6.555122e+001 4.695240e+001 4.796211e+001 3.524432e+001 1.175200e+002 4.562052e+000 3.524030e+000 3.336629e+000 4.190802e+000 4.308138e+000 4.198901e+000 4.401060e+000 4.303509e+000 3.945011e+000 3.243087e+000 2.985248e+000 2.440663e+000 5.602153e+000 6.298022e-001 5.834202e-001 5.080929e-001 6.770238e-001 7.052062e-001 7.098499e-001 7.490564e-001 7.594704e-001 6.945509e-001 5.957314e-001 5.417498e-001 4.463946e-001 8.994053e-001
<GCONST> 1.383837e+002
<TRANSP> 5
 0.000000e+000 1.000000e+000 0.000000e+000 0.000000e+000 0.000000e+000
 0.000000e+000 6.000000e-001 4.000000e-001 0.000000e+000 0.000000e+000
 0.000000e+000 0.000000e+000 6.000000e-001 4.000000e-001 0.000000e+000
 0.000000e+000 0.000000e+000 0.000000e+000 6.000000e-001 4.000000e-001
 0.000000e+000 0.000000e+000 0.000000e+000 0.000000e+000 0.000000e+000
<ENDHMM>
