~o
<STREAMINFO> 1 39
<VECSIZE> 39<NULLD><MFCC_D_A_0><DIAGC>
~s "silst"
<MEAN> 39
 -1.683185e+001 -7.370952e+000 -8.591463e+000 -6.051577e+000 -2.305784e+000 -2.154687e+000 -2.307302e+000 -1.340533e+000 -1.805832e+000 -2.796720e-001 -1.561575e+000 -6.121196e-001 4.327052e+001 1.105966e+000 5.424749e-001 -1.250489e-001 -1.867992e-001 -3.158057e-001 1.275913e-001 1.378943e-001 -3.725900e-001 -7.083060e-001 -1.722981e-001 -7.587042e-003 -6.688911e-002 -6.090219e-001 9.891637e-002 2.590933e-001 1.767587e-001 -1.468010e-001 -2.737137e-001 -1.098201e-001 -4.616709e-002 7.446185e-002 -7.517880e-002 -1.167989e-001 -2.515382e-002 -1.913908e-002 2.742541e-001
<VARIANCE> 39
 3.208529e+001 3.656130e+001 3.843156e+001 3.654936e+001 3.810946e+001 3.947345e+001 4.294052e+001 3.974086e+001 3.910976e+001 3.610490e+001 3.091665e+001 2.543265e+001 4.956503e+001 6.262272e+000 4.408639e+000 3.489354e+000 4.739995e+000 4.817600e+000 4.423191e+000 4.466971e+000 4.563267e+000 4.558342e+000 3.751978e+000 3.142057e+000 2.600559e+000 5.639277e+000 5.630713e-001 7.603102e-001 6.877971e-001 8.176614e-001 9.191245e-001 8.141720e-001 9.052110e-001 8.531727e-001 8.212126e-001 7.475275e-001 5.903200e-001 5.120052e-001 1.028897e+000
<GCONST> 1.338130e+002
~h "b"
<BEGINHMM>
<NUMSTATES> 5
<STATE> 2
<MEAN> 39
 -5.901903e+000 4.456942e+000 -1.717286e+000 -6.671023e-001 -2.452738e+000 -2.801992e+000 -7.501738e+000 -8.688840e+000 -8.959229e+000 -5.029323e+000 -4.009933e+000 -4.739560e+000 3.965709e+001 -1.177757e+000 8.626516e-001 5.043783e-001 9.721844e-001 8.480211e-001 5.474291e-001 7.102211e-001 8.402399e-002 2.975622e-002 -3.071943e-001 -2.291908e-001 7.560764e-002 -1.336188e+000 -7.675686e-002 -1.158533e+000 -3.269284e-001 -8.908262e-001 -5.768442e-001 -3.106467e-001 -7.349433e-002 5.841891e-001 5.388668e-001 4.238105e-001 2.345635e-001 2.477602e-001 1.550275e+000
<VARIANCE> 39
 2.442203e+001 1.724716e+001 1.849223e+001 2.774547e+001 2.347450e+001 3.152509e+001 3.309034e+001 2.954099e+001 3.073654e+001 2.936440e+001 3.113357e+001 2.540877e+001 1.649050e+001 2.673718e+000 5.754866e+000 3.267588e+000 5.085422e+000 3.336906e+000 3.518253e+000 3.733960e+000 4.402494e+000 4.469434e+000 3.523419e+000 3.047007e+000 2.503176e+000 8.486043e+000 4.021882e-001 6.339738e-001 7.391055e-001 8.069081e-001 6.983731e-001 6.626763e-001 8.793899e-001 8.317242e-001 7.953652e-001 7.265813e-001 6.399980e-001 5.250158e-001 7.750036e-001
<GCONST> 1.266068e+002
<STATE> 3
<MEAN> 39
 -1.427285e+001 -3.896874e-001 -3.410887e+000 -1.048277e+000 -1.231460e+000 -8.399755e-001 -2.990217e+000 -2.985255e+000 -3.513275e+000 -1.864959e+000 -2.057294e+000 -1.913029e+000 3.802530e+001 1.886199e-001 -1.988027e+000 -8.544604e-001 -1.779293e+000 -1.116237e+000 -7.961162e-001 -5.502428e-002 8.244514e-001 1.036996e+000 7.172575e-001 5.581948e-001 4.921474e-001 3.423267e+000 8.453812e-001 -4.566553e-001 -1.577840e-001 -9.192798e-001 -6.947661e-001 -4.057483e-001 -4.923954e-001 -1.098501e-001 -1.265079e-001 5.492486e-002 5.002010e-002 -7.500331e-002 1.491141e+000
<VARIANCE> 39
 3.795917e+001 2.264268e+001 1.962952e+001 2.300947e+001 1.707982e+001 2.135485e+001 2.356501e+001 2.898202e+001 3.020975e+001 2.634762e+001 2.039268e+001 1.778422e+001 5.385485e+001 4.034213e+000 3.798017e+000 3.631556e+000 5.354728e+000 3.554275e+000 3.821418e+000 3.942395e+000 4.215103e+000 4.341726e+000 3.584728e+000 3.010689e+000 2.417527e+000 1.120135e+001 6.716973e-001 6.608325e-001 8.452739e-001 8.927712e-001 7.221315e-001 8.162534e-001 7.380998e-001 7.928848e-001 8.299781e-001 7.354842e-001 6.676022e-001 4.860521e-001 1.083491e+000
<GCONST> 1.280966e+002
<STATE> 4
<MEAN> 39
 -7.341898e+000 -6.884340e+000 -6.558291e+000 -1.035445e+001 -7.759242e+000 -6.160253e+000 -6.575286e+000 -3.075391e+000 -2.215261e+000 -4.862374e-001 -8.398766e-001 -1.473535e+000 5.713435e+001 2.513742e+000 -2.663048e+000 -9.659437e-001 -3.727227e+000 -2.537710e+000 -8.373445e-001 -1.236708e+000 5.838395e-001 3.248303e-001 7.392045e-001 4.237608e-001 1.619115e-002 5.024548e+000 1.598911e-001 4.481725e-001 2.767293e-001 2.849201e-001 1.649718e-001 4.293385e-001 -5.280127e-002 -1.263184e-001 -4.218025e-001 -2.167376e-001 -2.207308e-001 -2.399991e-001 -1.081101e+000
<VARIANCE> 39
 4.430348e+001 2.561475e+001 4.592823e+001 6.005330e+001 3.680101e+001 5.227296e+001 4.372138e+001 3.704273e+001 3.638182e+001 3.251235e+001 3.282184e+001 2.419067e+001 3.422837e+001 5.345898e+000 5.214964e+000 8.380838e+000 7.356464e+000 6.453230e+000 8.000209e+000 7.726448e+000 7.446640e+000 7.449706e+000 5.608522e+000 5.543439e+000 4.164932e+000 6.198392e+000 8.522137e-001 6.022992e-001 5.415666e-001 9.661306e-001 7.779753e-001 7.721074e-001 8.827884e-001 8.788348e-001 8.407156e-001 7.070672e-001 6.762624e-001 5.197608e-001 7.296966e-001
<GCONST> 1.390544e+002
<TRANSP> 5
 0.000000e+000 1.000000e+000 0.000000e+000 0.000000e+000 0.000000e+000
 0.000000e+000 6.967905e-001 3.032096e-001 0.000000e+000 0.000000e+000
 0.000000e+000 0.000000e+000 5.508263e-001 4.491737e-001 0.000000e+000
 0.000000e+000 0.000000e+000 0.000000e+000 4.890670e-001 5.109329e-001
 0.000000e+000 0.000000e+000 0.000000e+000 0.000000e+000 0.000000e+000
<ENDHMM>
~h "d"
<BEGINHMM>
<NUMSTATES> 5
<STATE> 2
<MEAN> 39
 -8.223259e+000 6.309277e-001 1.379800e+000 -2.218821e-001 -7.055945e+000 -7.220678e+000 -7.798380e+000 -5.219679e+000 -5.731973e+000 -5.245850e+000 -6.290646e+000 -4.040817e+000 4.326136e+001 -1.463512e+000 6.638549e-001 2.874205e-002 5.329873e-001 1.555243e+000 1.165580e+000 5.916964e-001 -3.320153e-001 7.755951e-002 2.807442e-002 8.265233e-003 -9.292373e-002 -1.352852e+000 -1.284624e-001 -1.144444e+000 -2.937507e-001 -1.164635e+000 -5.033973e-001 -6.725030e-002 -6.028460e-002 5.623348e-001 2.553020e-001 3.541473e-001 4.967428e-001 3.324734e-001 1.714060e+000
<VARIANCE> 39
 3.018795e+001 4.859485e+001 4.044617e+001 4.996921e+001 5.017807e+001 3.973423e+001 3.663471e+001 4.128800e+001 4.496646e+001 3.522826e+001 3.284937e+001 2.669296e+001 6.135301e+001 3.165071e+000 7.747556e+000 3.951265e+000 7.082156e+000 5.352681e+000 5.495787e+000 5.043225e+000 5.245113e+000 4.657199e+000 3.970547e+000 3.904377e+000 3.343762e+000 1.018454e+001 4.910067e-001 8.639892e-001 5.926579e-001 8.629299e-001 9.982808e-001 8.319445e-001 9.917384e-001 8.867963e-001 8.366648e-001 7.844682e-001 7.156587e-001 5.799108e-001 1.153507e+000
<GCONST> 1.377552e+002
<STATE> 3
<MEAN> 39
 -1.346601e+001 -4.922365e+000 -1.298934e+000 -4.035450e+000 -4.772003e+000 -3.305181e+000 -5.150948e+000 -2.767372e+000 -3.444675e+000 -2.654043e+000 -2.965278e+000 -2.017987e+000 4.600286e+001 -1.030977e+000 -1.872675e+000 -3.891602e-001 -2.120949e+000 -5.580211e-001 -8.707338e-002 7.405957e-002 8.439103e-001 6.251721e-001 5.893268e-001 9.085127e-001 7.900104e-001 3.319890e+000 5.554221e-001 -1.835302e-001 2.756455e-002 -5.392900e-001 -8.331466e-001 -6.064978e-001 -3.953785e-001 2.072755e-001 -5.696773e-002 5.971925e-002 1.836297e-002 9.985717e-004 1.176583e+000
<VARIANCE> 39
 5.276057e+001 5.088843e+001 4.863530e+001 4.939639e+001 5.289796e+001 4.659631e+001 4.230438e+001 3.393570e+001 3.607151e+001 3.035419e+001 2.474935e+001 2.008258e+001 1.074148e+002 4.553370e+000 4.883926e+000 3.982542e+000 5.621814e+000 4.245925e+000 4.671473e+000 4.831355e+000 4.565552e+000 4.473053e+000 3.642126e+000 3.410704e+000 2.603440e+000 1.045801e+001 7.025753e-001 7.999498e-001 8.308099e-001 9.384423e-001 1.089691e+000 1.129997e+000 1.024032e+000 9.771205e-001 8.733234e-001 7.662986e-001 7.602783e-001 5.784683e-001 1.186486e+000
<GCONST> 1.382646e+002
<STATE> 4
<MEAN> 39
 -1.241086e+001 -8.404923e+000 -1.840175e+000 -1.006545e+001 -9.626694e+000 -7.793027e+000 -6.935334e+000 -1.095108e+000 -2.228152e+000 -1.883581e+000 -1.954857e+000 -4.137266e-001 5.849248e+001 1.213959e+000 -1.158749e+000 -7.879473e-002 -1.540998e+000 -1.788546e+000 -1.264630e+000 -1.150085e+000 9.031436e-001 3.255560e-001 3.846535e-001 1.438017e-001 1.105382e-001 3.089015e+000 5.827965e-001 2.883583e-001 -7.799796e-002 4.552880e-001 9.899708e-003 1.354586e-001 -1.180208e-001 -4.325804e-002 -1.858721e-001 -3.337739e-002 -2.029974e-001 -3.207583e-001 -8.779110e-001
<VARIANCE> 39
 6.284166e+001 4.004712e+001 5.237510e+001 4.579552e+001 5.532026e+001 5.444446e+001 5.497760e+001 4.076053e+001 4.251284e+001 3.066048e+001 2.819724e+001 2.271465e+001 3.984061e+001 7.995468e+000 4.095703e+000 4.755363e+000 5.567949e+000 5.880455e+000 6.176452e+000 6.959385e+000 5.573640e+000 5.342098e+000 4.280527e+000 4.924028e+000 3.565392e+000 8.953832e+000 7.833847e-001 8.358856e-001 8.042159e-001 9.531415e-001 1.207576e+000 1.346434e+000 1.069917e+000 8.930376e-001 8.458665e-001 7.158229e-001 7.491707e-001 5.820526e-001 1.125530e+000
<GCONST> 1.410760e+002
<TRANSP> 5
 0.000000e+000 1.000000e+000 0.000000e+000 0.000000e+000 0.000000e+000
 0.000000e+000 5.356383e-001 4.643617e-001 0.000000e+000 0.000000e+000
 0.000000e+000 0.000000e+000 2.723100e-001 7.276900e-001 0.000000e+000
 0.000000e+000 0.000000e+000 0.000000e+000 4.213533e-001 5.786468e-001
 0.000000e+000 0.000000e+000 0.000000e+000 0.000000e+000 0.000000e+000
<ENDHMM>
~h "f"
<BEGINHMM>
<NUMSTATES> 5
<STATE> 2
<MEAN> 39
 -1.773429e+001 -5.052923e+000 -6.359208e+000 -5.157469e+000 -3.227656e+000 -3.223944e+000 -2.234792e+000 -7.948025e-001 -2.025497e+000 -1.449060e+000 -2.751128e+000 -1.179533e+000 5.251134e+001 -3.994591e+000 -4.890702e-001 -3.760715e-001 7.406058e-001 4.325332e-001 4.315188e-001 6.690672e-001 6.087843e-001 7.073998e-001 3.656040e-001 4.383368e-001 6.132808e-001 -8.008618e-001 5.190784e-001 -4.696209e-001 -2.246180e-001 -5.354653e-001 -4.818138e-001 -2.545198e-001 -3.935574e-001 -5.597336e-002 -9.576694e-002 8.244430e-002 2.859676e-002 -6.157804e-002 3.677526e-001
<VARIANCE> 39
 4.247595e+001 1.762139e+001 1.693155e+001 1.810620e+001 1.660931e+001 2.197992e+001 2.013007e+001 2.057312e+001 2.119674e+001 2.011787e+001 1.676777e+001 1.495394e+001 3.492338e+001 5.217721e+000 3.131485e+000 4.163555e+000 4.720662e+000 3.691606e+000 4.353909e+000 4.302479e+000 3.794139e+000 3.865473e+000 3.385792e+000 3.395396e+000 2.553861e+000 3.095203e+000 8.611263e-001 5.850609e-001 5.548176e-001 6.550138e-001 5.792646e-001 5.717881e-001 6.609071e-001 6.356232e-001 6.167937e-001 5.613274e-001 5.044218e-001 4.445117e-001 5.128847e-001
<GCONST> 1.213897e+002
<STATE> 3
<MEAN> 39
 -2.393950e+001 -8.637486e+000 -9.449423e+000 -6.515025e+000 -5.005538e+000 -4.018321e+000 -3.024575e+000 -2.805425e-001 -1.081100e+000 -1.868033e-001 -1.712283e+000 -1.055155e-001 5.308912e+001 1.526270e-001 -1.736101e-001 -1.532535e-001 -1.243394e-001 -7.022851e-002 -6.273861e-002 -8.197606e-002 -6.017951e-002 3.286886e-002 7.753026e-002 2.831273e-002 -1.183243e-002 1.221330e-001 8.591673e-001 1.655855e-001 1.528715e-001 -9.759878e-002 -1.307399e-002 -5.563929e-002 -1.127817e-001 -9.601969e-002 -1.012196e-001 -8.410844e-002 -6.703652e-002 -1.124114e-001 9.808513e-002
<VARIANCE> 39
 1.012949e+001 1.238603e+001 1.078796e+001 1.222189e+001 1.273950e+001 1.375290e+001 1.450234e+001 1.404795e+001 1.391440e+001 1.388441e+001 1.307533e+001 1.175379e+001 2.338193e+001 2.246363e+000 1.007371e+000 1.183680e+000 1.262502e+000 1.372694e+000 1.440904e+000 1.535287e+000 1.595295e+000 1.572982e+000 1.520576e+000 1.458700e+000 1.307973e+000 1.589337e+000 5.028236e-001 2.448599e-001 2.972327e-001 3.536870e-001 3.523590e-001 3.941642e-001 4.223058e-001 3.991794e-001 3.910588e-001 3.580931e-001 3.625000e-001 3.107661e-001 3.083955e-001
<GCONST> 9.667448e+001
<STATE> 4
<MEAN> 39
 -1.546284e+001 -7.214598e+000 -7.974515e+000 -7.500030e+000 -5.149457e+000 -4.449875e+000 -3.403809e+000 -1.221291e+000 -1.563066e+000 -6.973820e-001 -2.224782e+000 -1.123338e+000 5.410303e+001 5.133397e+000 8.971582e-002 1.443273e-001 -1.553352e+000 -1.245019e+000 -6.285912e-001 -1.372879e+000 -5.273827e-001 -6.192131e-001 -4.384939e-001 -1.341898e-001 -5.586488e-001 1.098125e+000 3.820026e-001 -3.113242e-001 -1.344574e-001 -4.287792e-001 -4.016924e-001 -6.580599e-002 -3.922476e-001 6.468545e-002 -1.013114e-001 -4.326348e-002 8.784357e-002 -2.664554e-002 3.024785e-001
<VARIANCE> 39
 6.260153e+001 1.962622e+001 2.484139e+001 2.520787e+001 2.362912e+001 2.698489e+001 2.506863e+001 2.289436e+001 2.155046e+001 1.866760e+001 1.792041e+001 1.538596e+001 2.704405e+001 4.655434e+000 3.846702e+000 5.228909e+000 5.498794e+000 4.912052e+000 5.932882e+000 5.817228e+000 4.467340e+000 4.497435e+000 3.549267e+000 3.782464e+000 2.829236e+000 4.113951e+000 1.223806e+000 5.023630e-001 5.179842e-001 6.338924e-001 6.477470e-001 7.064256e-001 7.889597e-001 6.922598e-001 6.561453e-001 5.937065e-001 5.101331e-001 4.283937e-001 4.596304e-001
<GCONST> 1.261560e+002
<TRANSP> 5
 0.000000e+000 1.000000e+000 0.000000e+000 0.000000e+000 0.000000e+000
 0.000000e+000 5.577923e-001 4.422077e-001 0.000000e+000 0.000000e+000
 0.000000e+000 0.000000e+000 8.285955e-001 1.714045e-001 0.000000e+000
 0.000000e+000 0.000000e+000 0.000000e+000 5.882410e-001 4.117589e-001
 0.000000e+000 0.000000e+000 0.000000e+000 0.000000e+000 0.000000e+000
<ENDHMM>
~h "g"
<BEGINHMM>
<NUMSTATES> 5
<STATE> 2
<MEAN> 39
 -9.575103e+000 1.906579e+000 8.107762e-001 4.627143e-001 -7.191156e+000 -9.259391e+000 -5.989085e+000 -4.623816e+000 -9.639603e+000 -4.823829e+000 -3.152351e+000 -3.667238e+000 4.115143e+001 -1.227001e+000 -3.974184e-001 -1.498611e+000 4.332839e-001 2.235227e+000 1.191049e+000 -9.269357e-002 -1.478346e-001 1.392527e+000 2.759275e-001 -4.489248e-001 2.580600e-001 -9.157680e-001 1.371263e-001 -1.287025e+000 -5.791165e-001 -1.016723e+000 -2.403291e-001 -3.526334e-002 -5.822219e-002 3.621875e-001 3.419961e-001 5.785311e-001 1.773408e-001 1.824825e-001 1.775797e+000
<VARIANCE> 39
 2.855651e+001 2.760894e+001 3.274635e+001 3.242902e+001 5.227239e+001 5.065386e+001 4.112806e+001 5.620752e+001 4.382698e+001 3.893836e+001 4.129941e+001 2.842157e+001 3.581224e+001 2.713510e+000 1.191652e+001 6.220164e+000 7.323622e+000 6.674165e+000 6.258547e+000 6.342704e+000 8.589506e+000 5.879675e+000 6.395150e+000 4.877377e+000 3.475616e+000 1.182010e+001 5.538632e-001 9.364328e-001 8.241800e-001 9.149780e-001 1.089078e+000 1.150135e+000 1.065905e+000 1.054795e+000 1.003816e+000 9.232268e-001 8.070958e-001 5.997400e-001 1.040655e+000
<GCONST> 1.416250e+002
<STATE> 3
<MEAN> 39
 -1.301129e+001 -1.089747e+001 -9.992903e+000 -5.406566e+000 -9.826322e-001 -6.037352e+000 -5.896055e+000 -1.479465e+000 -2.827187e+000 8.694814e-001 -3.062095e+000 -9.139835e-001 5.041824e+001 6.424705e-001 -1.551919e+000 -1.020848e+000 -1.836136e+000 -1.968243e-001 -5.171418e-001 -8.126225e-001 9.103405e-002 6.320731e-001 1.015770e+000 2.125841e-001 3.815588e-001 3.399092e+000 7.970924e-001 1.006592e+000 9.791813e-001 -2.068409e-002 -9.664661e-001 -4.748600e-001 -3.086339e-001 -2.683742e-001 -6.428707e-001 -4.048918e-001 1.683939e-001 -2.007718e-001 -1.818378e-002
<VARIANCE> 39
 3.366140e+001 5.422062e+001 6.812189e+001 5.236498e+001 5.554468e+001 6.387978e+001 5.735820e+001 4.934176e+001 4.419098e+001 3.652622e+001 2.997954e+001 2.285191e+001 6.908128e+001 4.050710e+000 8.818007e+000 7.501363e+000 6.498040e+000 6.634828e+000 6.723735e+000 5.764134e+000 6.204896e+000 5.804721e+000 4.772238e+000 3.746925e+000 2.937807e+000 7.380516e+000 6.051333e-001 1.470112e+000 1.094828e+000 1.469862e+000 1.140835e+000 1.233858e+000 1.238805e+000 1.305495e+000 1.100928e+000 1.147760e+000 9.750004e-001 6.571199e-001 1.630944e+000
<GCONST> 1.456553e+002
<STATE> 4
<MEAN> 39
 -7.403575e+000 -6.000103e+000 -3.950282e+000 -6.962371e+000 -6.921067e+000 -1.050280e+001 -9.774878e+000 -3.954160e+000 -6.145007e+000 -2.715045e-001 -1.878995e+000 -1.418820e+000 5.585375e+001 2.390447e+000 5.571391e-001 9.704439e-001 -1.112938e+000 -1.940796e+000 -1.042416e+000 -1.587379e+000 4.097914e-002 -5.720776e-001 -5.369121e-001 7.321847e-001 -1.142924e-001 1.611526e+000 5.911108e-002 -2.233334e-001 -2.047763e-001 4.393357e-002 -8.307311e-003 2.296957e-001 1.086721e-001 4.048237e-001 5.426072e-002 -2.228045e-001 1.533443e-002 -8.932994e-002 -4.535809e-001
<VARIANCE> 39
 3.475648e+001 3.226004e+001 7.539045e+001 5.547532e+001 8.027728e+001 6.313643e+001 5.924204e+001 5.770161e+001 5.010557e+001 4.370596e+001 4.195424e+001 2.515570e+001 2.865954e+001 4.052178e+000 4.601414e+000 4.658150e+000 7.042183e+000 5.758796e+000 6.796687e+000 6.946830e+000 6.030897e+000 6.554142e+000 6.583989e+000 4.958323e+000 3.456211e+000 2.589024e+000 4.677649e-001 8.965427e-001 8.759688e-001 6.615618e-001 9.872008e-001 9.174464e-001 9.692552e-001 9.282992e-001 9.708017e-001 8.915063e-001 6.442460e-001 5.592557e-001 6.522262e-001
<GCONST> 1.398783e+002
<TRANSP> 5
 0.000000e+000 1.000000e+000 0.000000e+000 0.000000e+000 0.000000e+000
 0.000000e+000 6.688995e-001 3.311004e-001 0.000000e+000 0.000000e+000
 0.000000e+000 0.000000e+000 6.006272e-001 3.993728e-001 0.000000e+000
 0.000000e+000 0.000000e+000 0.000000e+000 4.263085e-001 5.736916e-001
 0.000000e+000 0.000000e+000 0.000000e+000 0.000000e+000 0.000000e+000
<ENDHMM>
~h "k"
<BEGINHMM>
<NUMSTATES> 5
<STATE> 2
<MEAN> 39
 -1.821547e+001 -3.096264e+000 -4.306070e+000 -3.523094e-001 -1.713314e+000 -2.840738e+000 -2.722965e+000 -2.368826e-001 -2.600433e+000 2.414465e-002 -1.149566e+000 -7.870362e-001 3.605880e+001 -1.175813e+000 -1.062242e+000 -1.167586e+000 -3.100104e-001 7.995850e-001 1.340913e+000 5.714620e-001 7.320318e-002 9.108564e-001 5.930284e-001 7.002722e-002 3.264108e-001 -4.805416e-001 6.317441e-001 -7.150939e-001 -1.994377e-001 -9.458630e-001 -6.104745e-001 -6.785733e-001 -2.826821e-001 1.460661e-001 -2.346533e-001 3.520156e-002 -8.909786e-002 -4.413062e-002 2.257344e+000
<VARIANCE> 39
 2.146914e+001 2.207935e+001 2.821562e+001 2.198896e+001 3.358598e+001 3.916460e+001 3.438520e+001 3.734027e+001 3.894598e+001 2.800963e+001 2.400562e+001 1.947542e+001 3.182486e+001 6.298754e+000 5.929478e+000 5.820478e+000 6.662676e+000 7.480041e+000 7.477901e+000 5.825323e+000 5.896314e+000 6.363756e+000 4.174888e+000 4.148856e+000 2.812656e+000 2.152407e+001 7.017056e-001 9.344373e-001 9.274179e-001 7.995296e-001 9.796455e-001 1.084015e+000 9.840648e-001 1.037514e+000 1.040009e+000 7.607368e-001 7.433360e-001 5.183138e-001 1.465752e+000
<GCONST> 1.374097e+002
<STATE> 3
<MEAN> 39
 -1.597281e+001 -1.343954e+001 -1.072110e+001 -8.839012e+000 -3.347369e+000 -5.121003e+000 -4.426759e+000 7.261027e-001 -2.821613e+000 2.678358e+000 -2.190372e+000 -2.202863e-001 5.383767e+001 1.655109e-001 -4.128594e-001 -2.473843e-001 -1.798985e+000 -6.997780e-001 -9.267386e-001 -9.177906e-002 -6.785959e-002 -1.194978e-002 2.991761e-001 -2.024211e-001 6.690220e-002 4.197412e+000 -3.778321e-002 1.213526e+000 8.327180e-001 5.259060e-001 -5.294574e-002 1.220307e-002 1.557586e-001 -1.311213e-001 -7.126314e-002 -4.100790e-001 9.064989e-002 -1.047337e-001 -9.428612e-001
<VARIANCE> 39
 2.741613e+001 3.299990e+001 6.503565e+001 4.776802e+001 5.440257e+001 5.022980e+001 5.176487e+001 4.550283e+001 4.178155e+001 3.429063e+001 2.875883e+001 2.246672e+001 5.308371e+001 4.606236e+000 5.671971e+000 4.852997e+000 4.733769e+000 4.280155e+000 4.483511e+000 4.264486e+000 3.959812e+000 4.227249e+000 3.289869e+000 2.959356e+000 2.382273e+000 9.982063e+000 7.744775e-001 7.255939e-001 8.577757e-001 9.706827e-001 1.024942e+000 1.060316e+000 9.719505e-001 9.180830e-001 9.860225e-001 7.674294e-001 6.822847e-001 5.793959e-001 1.874762e+000
<GCONST> 1.376096e+002
<STATE> 4
<MEAN> 39
 -1.626171e+001 -7.183547e+000 -4.719571e+000 -9.409871e+000 -5.057256e+000 -4.999485e+000 -1.499796e+000 -1.058483e+000 -2.836551e+000 6.530349e-001 -2.457501e+000 -5.698678e-001 5.536580e+001 1.670517e+000 8.368700e-001 8.921824e-001 -2.710147e-002 -9.518314e-001 -4.534850e-001 -1.374065e-001 -2.285437e-001 -6.789545e-001 -1.088772e+000 -5.119077e-002 -4.633349e-001 4.136426e-001 5.320268e-001 -2.977676e-001 -1.902535e-001 -1.958793e-002 -2.484754e-001 -5.674625e-002 -3.557632e-001 9.493271e-002 -1.463777e-001 -9.659681e-002 6.673902e-002 -1.050178e-001 -1.189715e-001
<VARIANCE> 39
 3.893700e+001 2.577295e+001 5.861855e+001 4.272497e+001 5.235384e+001 4.765154e+001 4.378981e+001 4.357624e+001 3.774147e+001 3.210961e+001 2.961459e+001 2.231129e+001 4.011755e+001 6.443938e+000 3.940982e+000 3.443646e+000 4.322239e+000 4.904973e+000 5.004849e+000 5.159485e+000 4.929667e+000 5.074518e+000 3.733816e+000 3.871904e+000 2.916911e+000 3.102453e+000 5.411555e-001 5.915915e-001 5.759197e-001 7.762021e-001 7.316034e-001 8.307912e-001 7.911969e-001 8.158872e-001 8.074017e-001 6.987770e-001 6.405057e-001 4.961146e-001 1.141835e+000
<GCONST> 1.334792e+002
<TRANSP> 5
 0.000000e+000 1.000000e+000 0.000000e+000 0.000000e+000 0.000000e+000
 0.000000e+000 7.359592e-001 2.640408e-001 0.000000e+000 0.000000e+000
 0.000000e+000 0.000000e+000 5.984325e-001 4.015675e-001 0.000000e+000
 0.000000e+000 0.000000e+000 0.000000e+000 6.419749e-001 3.580251e-001
 0.000000e+000 0.000000e+000 0.000000e+000 0.000000e+000 0.000000e+000
<ENDHMM>
~h "l"
<BEGINHMM>
<NUMSTATES> 5
<STATE> 2
<MEAN> 39
 -1.897412e+000 -5.543777e+000 -1.060413e+001 -2.161486e+001 -7.556633e+000 -1.991818e-001 -9.057962e+000 -7.629757e+000 -3.441334e+000 7.613978e-001 -6.198630e-001 -3.821112e+000 5.984209e+001 1.199352e+000 7.046631e-001 -4.023851e-001 -2.263787e+000 -2.311129e-001 1.298277e+000 -2.686282e-001 -9.261504e-001 -7.469738e-001 1.681753e-002 6.565881e-001 3.057459e-001 5.924457e-002 -3.954416e-001 -2.139141e-001 1.492422e-001 5.344067e-001 -6.913621e-003 -3.238291e-001 1.397262e-001 5.365828e-001 1.234099e-001 -1.782888e-001 -1.542677e-001 1.382166e-001 -1.083239e-001
<VARIANCE> 39
 1.372343e+001 4.782071e+001 4.791140e+001 6.746478e+001 5.641464e+001 7.191014e+001 7.585188e+001 5.972039e+001 6.309598e+001 5.863650e+001 6.669553e+001 4.049458e+001 3.074413e+001 2.762476e+000 2.972225e+000 2.758274e+000 5.535530e+000 4.678419e+000 5.211346e+000 5.641322e+000 5.209884e+000 4.670149e+000 4.601196e+000 4.073983e+000 3.729280e+000 2.434875e+000 4.589807e-001 5.292391e-001 4.252922e-001 7.897712e-001 7.621412e-001 7.545831e-001 8.279782e-001 8.199332e-001 9.707926e-001 8.382547e-001 7.339122e-001 6.229485e-001 3.001479e-001
<GCONST> 1.349595e+002
<STATE> 3
<MEAN> 39
 -4.602141e-001 -2.535122e+000 -1.105689e+001 -2.645444e+001 -9.067308e+000 2.592881e+000 -6.565453e+000 -6.379712e+000 -5.199157e+000 -1.718642e+000 2.577365e-001 -1.160827e+000 5.796803e+001 -1.453589e-001 -7.745616e-002 2.348324e-002 3.398387e-001 2.954856e-001 -2.663751e-001 -2.568628e-001 1.506656e-001 1.738975e-001 1.503914e-001 -1.195935e-001 -2.182577e-001 -5.751250e-002 -3.277895e-001 -3.288736e-001 1.011932e-001 7.230628e-001 1.714395e-001 -3.385027e-001 -8.285748e-002 1.830075e-001 3.068706e-001 1.323215e-001 -2.115447e-001 -2.308215e-001 2.956995e-002
<VARIANCE> 39
 9.821852e+000 3.772648e+001 4.663098e+001 6.439693e+001 6.447761e+001 6.271175e+001 7.535637e+001 6.373658e+001 5.619061e+001 5.682036e+001 5.211609e+001 3.752485e+001 2.723432e+001 7.048812e-001 2.995015e+000 1.543871e+000 3.724994e+000 2.714588e+000 2.774891e+000 3.278890e+000 3.025486e+000 3.475184e+000 3.493881e+000 2.575499e+000 2.533942e+000 1.799143e+000 2.495192e-001 3.388687e-001 3.126869e-001 6.228232e-001 5.612952e-001 5.988330e-001 5.872022e-001 7.223623e-001 6.562774e-001 6.124633e-001 5.642794e-001 4.690266e-001 2.507950e-001
<GCONST> 1.234250e+002
<STATE> 4
<MEAN> 39
 -2.771884e+000 -7.431085e+000 -9.567531e+000 -1.885667e+001 -6.500256e+000 -3.350363e+000 -1.194381e+001 -4.900784e+000 -4.746751e-001 1.515841e+000 -2.520320e+000 -5.077337e+000 6.032135e+001 -1.011908e+000 -1.004950e+000 1.270623e+000 2.452517e+000 -5.259851e-001 -2.061292e+000 -8.613707e-002 1.783428e+000 7.774776e-001 -6.076960e-001 -1.135741e+000 -2.254536e-002 1.147833e-001 -2.369661e-001 1.579734e-001 4.402242e-001 1.454030e-001 -4.067292e-001 -1.135159e-002 5.661770e-001 1.963658e-001 -5.365820e-001 -4.594376e-001 1.304573e-001 4.127712e-001 -2.438228e-001
<VARIANCE> 39
 1.188991e+001 3.945621e+001 5.086516e+001 6.622445e+001 4.944051e+001 8.322301e+001 8.000462e+001 6.767918e+001 6.827016e+001 6.405910e+001 6.682626e+001 4.199918e+001 3.942775e+001 1.706482e+000 3.392898e+000 3.752381e+000 5.402479e+000 5.778759e+000 5.304568e+000 5.499752e+000 5.604378e+000 6.427619e+000 5.413706e+000 4.009156e+000 4.619688e+000 3.304824e+000 3.082564e-001 3.947589e-001 3.837609e-001 7.455121e-001 7.113544e-001 8.955426e-001 7.822608e-001 1.020590e+000 1.124748e+000 9.344326e-001 8.278676e-001 6.147535e-001 2.447771e-001
<GCONST> 1.360802e+002
<TRANSP> 5
 0.000000e+000 1.000000e+000 0.000000e+000 0.000000e+000 0.000000e+000
 0.000000e+000 4.942281e-001 5.057719e-001 0.000000e+000 0.000000e+000
 0.000000e+000 0.000000e+000 7.109803e-001 2.890197e-001 0.000000e+000
 0.000000e+000 0.000000e+000 0.000000e+000 5.344833e-001 4.655167e-001
 0.000000e+000 0.000000e+000 0.000000e+000 0.000000e+000 0.000000e+000
<ENDHMM>
~h "m"
<BEGINHMM>
<NUMSTATES> 5
<STATE> 2
<MEAN> 39
 -3.778816e+000 -3.343973e+000 -4.898195e+000 -4.428115e+000 -7.053484e+000 -7.759334e+000 -6.838500e+000 -8.765357e+000 -1.155044e+001 -2.154518e+000 -2.037523e+000 -6.206112e+000 5.126772e+001 2.971849e-001 1.225078e+000 1.022556e+000 1.670394e+000 2.991817e-002 -1.100050e+000 3.438919e-002 -2.158522e+000 -2.336000e+000 2.969712e-001 2.026352e-001 -7.751455e-001 -6.837947e-001 -3.032018e-001 -5.090482e-001 9.801328e-003 -4.685290e-001 -1.859464e-001 2.286963e-001 -6.755207e-002 6.407118e-001 6.177397e-001 -5.597560e-002 -9.690382e-002 2.411998e-001 4.915594e-001
<VARIANCE> 39
 1.304521e+001 2.918288e+001 3.275736e+001 4.893861e+001 4.527173e+001 5.889996e+001 6.071194e+001 6.217066e+001 6.486288e+001 5.628314e+001 7.165658e+001 4.576930e+001 2.791954e+001 4.568089e+000 2.929182e+000 3.613304e+000 3.961510e+000 4.895975e+000 4.177505e+000 6.010647e+000 5.107565e+000 5.643921e+000 4.797385e+000 4.990530e+000 3.806865e+000 4.907747e+000 3.979116e-001 3.856817e-001 6.097904e-001 5.924896e-001 6.465127e-001 6.440393e-001 7.614918e-001 7.891814e-001 9.248993e-001 7.187333e-001 7.453088e-001 5.717210e-001 2.997081e-001
<GCONST> 1.335381e+002
<STATE> 3
<MEAN> 39
 -4.153763e+000 -3.203236e+000 -2.958400e+000 -3.205671e+000 -7.539511e+000 -8.552605e+000 -7.286588e+000 -1.069295e+001 -1.336657e+001 -1.169854e+000 -2.427592e+000 -6.951431e+000 5.139532e+001 -8.048952e-002 -6.551253e-002 1.214366e-001 -1.034568e-001 -8.399182e-002 1.106143e-001 -5.319721e-002 1.181776e-001 2.305310e-001 -1.551172e-001 -1.358667e-001 1.190936e-001 1.938241e-001 -1.074135e-001 -4.098134e-001 -2.747045e-001 -6.432256e-001 -1.094648e-001 3.508840e-001 -6.365241e-003 7.564670e-001 7.895184e-001 -1.577443e-001 -6.824299e-002 2.971082e-001 3.456051e-001
<VARIANCE> 39
 8.611645e+000 2.338891e+001 3.078096e+001 4.956818e+001 5.161336e+001 7.053976e+001 6.535492e+001 6.603099e+001 6.218570e+001 6.143435e+001 8.427374e+001 5.421247e+001 2.043105e+001 1.019886e+000 1.817430e+000 1.450168e+000 1.997250e+000 2.086437e+000 1.948521e+000 2.359991e+000 2.578066e+000 3.009475e+000 2.339080e+000 2.341088e+000 1.987445e+000 2.164877e+000 3.188120e-001 2.920220e-001 4.877142e-001 5.043173e-001 5.755879e-001 5.555494e-001 6.616108e-001 7.192376e-001 8.583232e-001 6.663712e-001 7.003206e-001 5.809798e-001 2.311135e-001
<GCONST> 1.211428e+002
<STATE> 4
<MEAN> 39
 -4.153043e+000 -5.297845e+000 -4.807854e+000 -6.175714e+000 -8.249525e+000 -7.227148e+000 -7.634976e+000 -7.204071e+000 -8.838705e+000 -2.920237e+000 -2.847043e+000 -5.313770e+000 5.400631e+001 -3.175605e-001 -1.616405e+000 -3.857972e-001 -2.358307e+000 -8.904135e-001 1.046513e+000 -1.191396e-001 2.566182e+000 2.438033e+000 -6.266062e-001 -3.787929e-001 9.867039e-001 1.730224e+000 -2.869864e-001 -1.821704e-001 1.192922e-001 -3.362160e-001 -1.088773e-001 2.162186e-001 1.699209e-001 4.111437e-001 1.023101e-001 9.699377e-002 2.638256e-002 1.107914e-001 1.135039e-001
<VARIANCE> 39
 1.363719e+001 3.311644e+001 3.632160e+001 5.531721e+001 4.746957e+001 6.082428e+001 5.577620e+001 6.191411e+001 7.135708e+001 4.970029e+001 6.363111e+001 4.068200e+001 3.923236e+001 2.698214e+000 3.357414e+000 5.870621e+000 5.042653e+000 6.136240e+000 4.987129e+000 5.566615e+000 5.314726e+000 6.539526e+000 5.301723e+000 5.533659e+000 4.088500e+000 3.785238e+000 3.581191e-001 4.731520e-001 5.914266e-001 7.054462e-001 6.776644e-001 6.626193e-001 7.297557e-001 8.895432e-001 1.187613e+000 6.845460e-001 6.924578e-001 5.300741e-001 4.133320e-001
<GCONST> 1.356339e+002
<TRANSP> 5
 0.000000e+000 1.000000e+000 0.000000e+000 0.000000e+000 0.000000e+000
 0.000000e+000 3.919542e-001 6.080457e-001 0.000000e+000 0.000000e+000
 0.000000e+000 0.000000e+000 6.718049e-001 3.281951e-001 0.000000e+000
 0.000000e+000 0.000000e+000 0.000000e+000 4.422695e-001 5.577305e-001
 0.000000e+000 0.000000e+000 0.000000e+000 0.000000e+000 0.000000e+000
<ENDHMM>
~h "n"
<BEGINHMM>
<NUMSTATES> 5
<STATE> 2
<MEAN> 39
 -4.224295e+000 -4.755643e+000 -3.006241e+000 -6.356084e+000 -1.119563e+001 -8.787645e+000 -4.902401e+000 -6.787292e+000 -9.128652e+000 -9.962530e-001 -6.352644e+000 -4.799654e+000 5.326154e+001 1.867417e-001 1.727941e+000 2.136583e-001 1.533414e+000 -1.443915e-001 -4.970339e-001 1.351997e+000 -3.055369e+000 -1.529001e+000 1.280176e+000 -7.534386e-001 -2.225947e-001 -1.766636e+000 -2.865722e-001 -3.124173e-001 2.228539e-002 -4.183163e-001 1.606128e-002 2.936493e-001 -1.926354e-001 5.817795e-001 3.858139e-001 -2.771818e-001 1.956002e-001 1.608852e-001 3.955784e-001
<VARIANCE> 39
 1.000543e+001 3.251058e+001 3.567538e+001 5.256965e+001 4.874779e+001 5.142995e+001 5.533640e+001 7.679385e+001 7.269910e+001 6.049718e+001 6.035854e+001 5.170508e+001 2.669437e+001 1.786005e+000 2.811927e+000 4.022855e+000 3.590117e+000 4.526591e+000 4.859070e+000 4.973394e+000 6.286791e+000 6.095964e+000 4.467246e+000 4.027081e+000 3.484993e+000 2.467001e+000 3.209016e-001 3.910851e-001 4.628877e-001 5.093704e-001 6.700661e-001 6.087598e-001 7.250892e-001 1.012046e+000 8.222003e-001 7.128200e-001 6.150130e-001 5.475120e-001 2.980260e-001
<GCONST> 1.310056e+002
<STATE> 3
<MEAN> 39
 -4.321834e+000 -2.072875e+000 -2.370645e+000 -4.928576e+000 -1.213306e+001 -8.619992e+000 -2.669334e+000 -1.105535e+001 -1.092751e+001 1.883379e-001 -7.274127e+000 -4.295149e+000 5.081374e+001 -2.829624e-001 5.237636e-001 1.558062e-001 2.442410e-001 2.651152e-001 1.426028e-001 -5.523682e-002 -1.668079e-001 -1.208671e-002 -2.239165e-001 -3.938610e-002 8.789747e-002 -5.362638e-001 -3.307766e-001 -4.786658e-001 -7.710704e-002 -4.429975e-001 2.588093e-001 2.236617e-001 -4.263823e-001 1.036436e+000 5.579961e-001 -4.141979e-001 2.873629e-001 1.067770e-001 4.268690e-001
<VARIANCE> 39
 9.020826e+000 2.950681e+001 2.932920e+001 5.121404e+001 4.672153e+001 5.011410e+001 5.556665e+001 7.321517e+001 6.593462e+001 6.260180e+001 6.596559e+001 5.411660e+001 2.382778e+001 9.962435e-001 2.041729e+000 1.599124e+000 1.922478e+000 2.397840e+000 2.182911e+000 2.640815e+000 3.601436e+000 2.891161e+000 2.561504e+000 2.244928e+000 1.978182e+000 1.751201e+000 3.335546e-001 5.292873e-001 5.338554e-001 6.446270e-001 7.147012e-001 7.319428e-001 8.019241e-001 1.117516e+000 1.018421e+000 7.838185e-001 7.236300e-001 5.991017e-001 4.105737e-001
<GCONST> 1.246064e+002
<STATE> 4
<MEAN> 39
 -5.943961e+000 -3.990206e+000 -2.564633e+000 -6.192579e+000 -1.021135e+001 -7.911412e+000 -5.789502e+000 -6.697367e+000 -8.196198e+000 -2.376160e+000 -6.677085e+000 -4.043214e+000 5.213428e+001 -1.255443e+000 -1.096924e+000 -3.680964e-001 -1.109642e+000 9.229944e-001 8.514096e-001 -9.409937e-001 2.412562e+000 1.557657e+000 -8.383960e-001 7.121069e-001 2.844936e-001 8.644750e-001 -2.834584e-001 -3.666331e-001 -2.366238e-001 -3.969132e-001 3.204866e-002 2.662619e-001 9.323388e-002 5.049864e-001 3.074562e-001 6.691017e-002 2.559705e-001 1.247529e-001 3.930720e-001
<VARIANCE> 39
 1.726551e+001 5.431541e+001 3.491494e+001 5.368013e+001 4.811523e+001 4.523099e+001 5.492944e+001 7.540022e+001 6.750222e+001 5.486871e+001 5.063850e+001 4.543731e+001 4.794422e+001 3.669468e+000 4.355100e+000 4.331633e+000 4.696129e+000 5.473618e+000 4.847879e+000 5.741441e+000 7.180558e+000 6.449954e+000 5.289996e+000 4.770156e+000 4.022483e+000 4.527455e+000 4.930442e-001 8.091398e-001 5.646676e-001 6.952301e-001 7.512687e-001 7.217381e-001 9.165853e-001 1.334292e+000 1.095465e+000 8.470274e-001 6.956812e-001 6.094984e-001 6.665251e-001
<GCONST> 1.390718e+002
<TRANSP> 5
 0.000000e+000 1.000000e+000 0.000000e+000 0.000000e+000 0.000000e+000
 0.000000e+000 3.335094e-001 6.664906e-001 0.000000e+000 0.000000e+000
 0.000000e+000 0.000000e+000 5.884556e-001 4.115445e-001 0.000000e+000
 0.000000e+000 0.000000e+000 0.000000e+000 4.181774e-001 5.818226e-001
 0.000000e+000 0.000000e+000 0.000000e+000 0.000000e+000 0.000000e+000
<ENDHMM>
~h "p"
<BEGINHMM>
<NUMSTATES> 5
<STATE> 2
<MEAN> 39
 -1.196539e+001 1.351996e+000 -3.349064e+000 -1.937892e+000 -2.498727e+000 -2.520286e+000 -4.872099e+000 -5.208289e+000 -5.997918e+000 -2.949917e+000 -3.157487e+000 -3.018176e+000 3.825156e+001 -3.195884e+000 5.935705e-001 7.802170e-002 1.746245e+000 1.390404e+000 1.463455e+000 1.562522e+000 7.955095e-001 9.599124e-001 3.730296e-001 1.832313e-001 5.413851e-001 -4.224462e+000 -2.712788e-002 -1.057647e+000 -3.113711e-001 -7.644734e-001 -4.983168e-001 -2.316799e-001 -4.491346e-002 5.435020e-001 4.514345e-001 4.096621e-001 2.764458e-001 1.783192e-001 1.443819e+000
<VARIANCE> 39
 3.591645e+001 2.005150e+001 2.240997e+001 2.918276e+001 2.305360e+001 2.533349e+001 2.958268e+001 3.249446e+001 3.457744e+001 2.878605e+001 2.692206e+001 2.211569e+001 2.853255e+001 5.643528e+000 5.354900e+000 5.452734e+000 7.082039e+000 4.562369e+000 5.113967e+000 4.622998e+000 5.299000e+000 5.661706e+000 4.615083e+000 4.250151e+000 3.164092e+000 8.571821e+000 8.860297e-001 7.400792e-001 7.962676e-001 9.809861e-001 8.008229e-001 7.629517e-001 8.133314e-001 8.719503e-001 8.955143e-001 7.700209e-001 6.761671e-001 5.556793e-001 1.205715e+000
<GCONST> 1.333735e+002
<STATE> 3
<MEAN> 39
 -1.955929e+001 -2.193649e+000 -5.212903e+000 -1.178015e+000 -1.486237e+000 2.311691e-001 -1.016969e+000 8.240516e-002 -3.251943e-001 1.024612e+000 6.689547e-002 2.569457e-002 3.260602e+001 -2.441564e-001 -1.085394e+000 -4.875120e-001 -5.451692e-001 -2.012136e-001 -2.035868e-001 2.361549e-001 5.513831e-001 7.242143e-001 4.413836e-001 3.242551e-001 3.009054e-001 1.822056e+000 8.433411e-001 -3.008400e-001 -4.192821e-002 -5.809410e-001 -2.800279e-001 -4.772360e-001 -3.725837e-001 -2.291388e-001 -2.396223e-001 -2.047832e-001 -1.733150e-001 -1.760575e-001 1.994297e+000
<VARIANCE> 39
 4.256092e+000 5.873243e+000 6.292412e+000 8.935650e+000 9.633227e+000 1.137047e+001 1.181657e+001 1.418968e+001 1.387455e+001 1.378320e+001 1.199866e+001 1.162775e+001 1.249338e+001 2.701650e+000 2.014328e+000 1.610655e+000 2.446320e+000 1.769287e+000 2.475921e+000 2.382049e+000 2.906948e+000 3.002152e+000 2.425026e+000 2.105644e+000 1.866636e+000 1.323629e+001 6.046285e-001 3.521788e-001 4.114866e-001 5.323647e-001 4.459763e-001 5.414552e-001 5.228022e-001 5.014350e-001 5.224167e-001 4.649526e-001 4.308187e-001 3.642994e-001 1.026616e+000
<GCONST> 1.048094e+002
<STATE> 4
<MEAN> 39
 -1.434804e+001 -8.782681e+000 -7.754441e+000 -7.449872e+000 -3.220013e+000 -3.122669e+000 -1.917182e+000 -3.858711e-001 -4.032068e-001 1.725945e-001 -1.345742e+000 -8.511652e-001 5.362625e+001 2.073328e+000 -8.066676e-001 -5.791098e-001 -1.380141e+000 -6.938760e-001 -6.297487e-001 -7.763358e-001 -2.663833e-001 -4.944057e-001 -4.630325e-001 -4.804268e-001 -3.595901e-001 2.882229e+000 4.115432e-001 2.954329e-001 1.543752e-002 -3.622017e-002 -2.093297e-001 -2.697568e-005 -3.266490e-001 -1.252588e-001 -2.926149e-001 -1.472837e-001 -5.999335e-002 -9.359153e-002 -6.560215e-001
<VARIANCE> 39
 2.475961e+001 2.469003e+001 3.028672e+001 3.545075e+001 2.971886e+001 3.295447e+001 3.328445e+001 3.079102e+001 3.014788e+001 2.581402e+001 2.400761e+001 1.894642e+001 4.181030e+001 4.723944e+000 3.732211e+000 3.542014e+000 4.242730e+000 4.190444e+000 4.564069e+000 4.857443e+000 4.223437e+000 4.361250e+000 3.266245e+000 3.176143e+000 2.380338e+000 1.012912e+001 6.151173e-001 5.957735e-001 5.167636e-001 6.559643e-001 6.874065e-001 7.131196e-001 7.759490e-001 8.054037e-001 8.187952e-001 6.666418e-001 6.167336e-001 4.761548e-001 1.435743e+000
<GCONST> 1.292098e+002
<TRANSP> 5
 0.000000e+000 1.000000e+000 0.000000e+000 0.000000e+000 0.000000e+000
 0.000000e+000 5.418855e-001 4.581145e-001 0.000000e+000 0.000000e+000
 0.000000e+000 0.000000e+000 7.117764e-001 2.882236e-001 0.000000e+000
 0.000000e+000 0.000000e+000 0.000000e+000 7.739545e-001 2.260455e-001
 0.000000e+000 0.000000e+000 0.000000e+000 0.000000e+000 0.000000e+000
<ENDHMM>
~h "r"
<BEGINHMM>
<NUMSTATES> 5
<STATE> 2
<MEAN> 39
 3.249925e+000 -1.045213e+001 -1.644723e+001 -6.777619e+000 -3.334381e+000 -1.111061e+001 -1.765064e+001 6.860107e-001 2.422857e-002 -2.770356e+000 -1.570390e+000 3.002358e-001 5.682626e+001 5.492684e-001 -2.311984e-001 -5.194060e-001 1.874620e-001 1.891638e-001 -3.737443e-001 -7.319288e-001 3.716722e-001 4.914323e-001 -9.365948e-002 -2.086181e-001 5.883269e-002 1.322062e-001 -5.037649e-001 -1.275090e-001 5.843202e-001 7.621215e-002 -4.202444e-001 4.252473e-002 5.871751e-001 1.756538e-001 -1.640265e-001 -5.005999e-002 2.579272e-002 -7.453293e-002 9.628429e-003
<VARIANCE> 39
 1.254957e+001 3.199195e+001 6.530184e+001 4.237249e+001 5.622310e+001 7.365453e+001 8.732773e+001 9.412080e+001 8.576212e+001 4.554263e+001 4.015931e+001 3.486649e+001 2.534641e+001 2.271830e+000 2.320444e+000 3.135854e+000 2.318537e+000 3.360153e+000 4.003712e+000 5.144109e+000 4.572709e+000 3.636258e+000 3.052208e+000 2.475694e+000 2.058065e+000 1.741316e+000 3.958078e-001 3.548819e-001 3.728968e-001 3.525159e-001 4.456003e-001 6.032997e-001 8.474600e-001 7.455117e-001 5.958788e-001 5.007457e-001 4.207923e-001 3.772323e-001 2.268153e-001
<GCONST> 1.253829e+002
<STATE> 3
<MEAN> 39
 2.246287e+000 -1.457306e+001 -1.296378e+001 -5.085290e+000 -6.930303e+000 -1.494890e+001 -1.756909e+001 6.348524e+000 4.350204e-002 -4.611834e+000 -2.119401e+000 1.096519e-001 5.958413e+001 -7.870160e-001 -3.226357e-001 1.872551e+000 3.246521e-001 -1.558679e+000 -3.688890e-001 1.545003e+000 6.640629e-001 -8.979723e-001 -5.703555e-001 1.466276e-001 -7.311012e-002 5.643226e-002 -5.954895e-001 3.752639e-001 5.617605e-001 -2.651218e-001 -1.527602e-001 6.262832e-001 8.473085e-001 -5.770978e-001 -4.679967e-001 2.020649e-001 1.150315e-001 -1.971658e-001 -2.836682e-001
<VARIANCE> 39
 1.091342e+001 2.646836e+001 7.222650e+001 4.817202e+001 6.718240e+001 8.250933e+001 1.102729e+002 8.333836e+001 9.287273e+001 5.444054e+001 4.464523e+001 3.584836e+001 2.278630e+001 1.190418e+000 3.024055e+000 3.067580e+000 2.826769e+000 4.248031e+000 4.250993e+000 5.132976e+000 6.102168e+000 4.252901e+000 3.574338e+000 3.385694e+000 2.559622e+000 2.764547e+000 4.012819e-001 2.751052e-001 3.777291e-001 4.515273e-001 5.628289e-001 6.285887e-001 9.152183e-001 7.103593e-001 6.863940e-001 5.669131e-001 4.701985e-001 4.155322e-001 2.396154e-001
<GCONST> 1.285056e+002
<STATE> 4
<MEAN> 39
 -1.552644e+000 -1.245436e+001 -8.930397e+000 -4.022308e+000 -8.054218e+000 -1.366447e+001 -1.104974e+001 4.654566e+000 -2.878995e+000 -4.944978e+000 -2.934695e+000 -4.509064e-001 5.595597e+001 -2.023244e+000 1.008858e+000 2.125806e+000 2.218000e-002 -6.318665e-001 1.394008e+000 2.257851e+000 -1.203989e+000 -1.031513e+000 1.789246e-001 3.172524e-002 -4.816636e-001 -1.385602e+000 -3.933642e-001 2.723313e-001 -3.104775e-002 -3.318101e-001 2.657720e-001 5.512370e-001 6.550787e-002 -3.402528e-001 8.299739e-002 2.740311e-001 3.572420e-002 -1.307973e-001 -1.844724e-001
<VARIANCE> 39
 2.214619e+001 3.735318e+001 7.291096e+001 6.049355e+001 8.791023e+001 8.525171e+001 9.871363e+001 7.550462e+001 9.188023e+001 5.829976e+001 5.086593e+001 3.646974e+001 5.399523e+001 3.181916e+000 4.748607e+000 3.948294e+000 5.085217e+000 5.506020e+000 4.930938e+000 6.568911e+000 5.883906e+000 5.196573e+000 3.991905e+000 3.767675e+000 3.086607e+000 6.175673e+000 4.533869e-001 5.487727e-001 4.688178e-001 6.162506e-001 8.106882e-001 9.785991e-001 1.008178e+000 9.440387e-001 7.602750e-001 6.925282e-001 6.587744e-001 5.117941e-001 4.308711e-001
<GCONST> 1.392191e+002
<TRANSP> 5
 0.000000e+000 1.000000e+000 0.000000e+000 0.000000e+000 0.000000e+000
 0.000000e+000 6.370328e-001 3.629672e-001 0.000000e+000 0.000000e+000
 0.000000e+000 0.000000e+000 4.352984e-001 5.647016e-001 0.000000e+000
 0.000000e+000 0.000000e+000 0.000000e+000 3.712738e-001 6.287261e-001
 0.000000e+000 0.000000e+000 0.000000e+000 0.000000e+000 0.000000e+000
<ENDHMM>
~h "s"
<BEGINHMM>
<NUMSTATES> 5
<STATE> 2
<MEAN> 39
 -2.396054e+001 7.347052e-001 -5.729454e+000 -8.147453e+000 -1.518226e+000 -6.886139e+000 -1.502107e+000 3.229171e-001 -2.138247e+000 -1.599913e+000 -2.528736e+000 -2.325610e-001 5.782071e+001 -4.452658e+000 1.131116e+000 -1.116483e+000 1.635377e-001 1.717211e+000 1.052964e+000 1.346307e+000 8.946574e-001 4.715537e-001 3.656618e-001 8.421457e-001 6.504964e-001 1.412297e-001 7.959716e-001 -5.528383e-001 -3.927561e-002 -1.516398e-001 -4.703009e-001 -2.156509e-002 -4.311220e-001 -5.081193e-002 -1.008165e-001 8.152454e-002 -6.701832e-002 -1.199487e-001 -1.181791e-002
<VARIANCE> 39
 5.148207e+001 2.447785e+001 4.177271e+001 3.289909e+001 3.943711e+001 3.772764e+001 3.636769e+001 3.558883e+001 2.848968e+001 2.659553e+001 2.246353e+001 1.856504e+001 2.164098e+001 4.535720e+000 3.445262e+000 3.940250e+000 4.569286e+000 4.061625e+000 4.491793e+000 4.469414e+000 3.964066e+000 3.910906e+000 3.665794e+000 3.536981e+000 2.607391e+000 1.747010e+000 9.178910e-001 5.520438e-001 6.388695e-001 6.806295e-001 6.559011e-001 7.662102e-001 7.389847e-001 7.251155e-001 5.982175e-001 6.289588e-001 5.654572e-001 4.790789e-001 3.332081e-001
<GCONST> 1.269040e+002
<STATE> 3
<MEAN> 39
 -3.016231e+001 1.444263e+000 -9.479624e+000 -7.880065e+000 1.288591e-002 -5.079449e+000 -2.608743e-001 1.545134e+000 -1.505162e+000 -2.618949e-001 -1.148077e+000 7.173874e-001 5.792741e+001 -2.137798e-002 -1.148104e-001 -3.853851e-003 -1.128434e-001 6.694517e-003 -1.332670e-002 -8.419511e-002 3.530815e-002 4.892800e-002 4.603132e-002 -1.042326e-002 -1.823083e-002 -2.547992e-002 6.037042e-001 -2.133438e-001 2.567458e-001 -3.270277e-002 -1.838674e-001 -1.455699e-001 -1.865793e-001 -1.161110e-001 -3.175278e-002 -6.814102e-002 -1.019268e-001 -9.769544e-002 -1.539418e-001
<VARIANCE> 39
 8.100392e+000 2.063372e+001 3.014545e+001 3.917812e+001 3.502208e+001 3.157933e+001 2.868968e+001 2.507399e+001 1.936894e+001 1.700102e+001 1.619878e+001 1.332673e+001 1.719297e+001 9.497265e-001 1.223147e+000 1.191954e+000 1.301755e+000 1.458535e+000 1.633949e+000 1.556645e+000 1.578042e+000 1.510658e+000 1.469484e+000 1.323377e+000 1.217134e+000 6.713177e-001 3.699851e-001 2.306111e-001 2.665296e-001 3.102337e-001 3.329050e-001 3.775709e-001 3.723888e-001 3.601505e-001 3.439301e-001 3.319346e-001 3.072299e-001 2.694611e-001 1.805934e-001
<GCONST> 9.929504e+001
<STATE> 4
<MEAN> 39
 -2.475382e+001 -1.866387e+000 -5.955329e+000 -9.275573e+000 -1.089675e+000 -6.334922e+000 -2.886570e+000 1.207961e+000 -1.093872e+000 -7.816445e-001 -2.131112e+000 -2.997370e-001 5.628138e+001 3.515323e+000 -1.283531e+000 1.051939e+000 1.012199e-001 -1.222460e+000 -2.136890e-001 -1.381128e+000 -7.427671e-001 -1.490045e-001 -8.775812e-002 -3.487586e-001 -5.756085e-001 -1.411033e+000 5.675134e-001 -1.798824e-001 -5.789521e-002 9.238381e-002 -3.243979e-001 1.055944e-001 -1.600322e-001 -1.323312e-001 -1.405936e-001 5.253532e-002 2.464337e-002 -7.407126e-002 -2.323668e-001
<VARIANCE> 39
 4.893011e+001 2.793257e+001 3.878221e+001 3.302692e+001 4.169339e+001 4.198209e+001 4.254550e+001 3.496168e+001 2.851076e+001 2.407026e+001 2.234279e+001 1.883690e+001 3.210875e+001 5.329429e+000 2.789549e+000 3.824590e+000 4.861326e+000 4.809279e+000 5.712732e+000 5.193893e+000 3.922905e+000 3.719215e+000 3.028324e+000 3.295978e+000 2.484931e+000 6.618273e+000 8.715873e-001 5.316024e-001 5.882732e-001 6.632338e-001 6.969214e-001 7.906252e-001 9.465572e-001 7.142037e-001 6.284521e-001 5.598934e-001 5.689948e-001 4.363424e-001 8.920745e-001
<GCONST> 1.299816e+002
<TRANSP> 5
 0.000000e+000 1.000000e+000 0.000000e+000 0.000000e+000 0.000000e+000
 0.000000e+000 6.335720e-001 3.664279e-001 0.000000e+000 0.000000e+000
 0.000000e+000 0.000000e+000 8.348610e-001 1.651389e-001 0.000000e+000
 0.000000e+000 0.000000e+000 0.000000e+000 6.795365e-001 3.204635e-001
 0.000000e+000 0.000000e+000 0.000000e+000 0.000000e+000 0.000000e+000
<ENDHMM>
~h "t"
<BEGINHMM>
<NUMSTATES> 5
<STATE> 2
<MEAN> 39
 -1.424532e+001 -1.835300e+000 -3.393977e+000 -4.709610e+000 -6.132378e+000 -5.627354e+000 -5.064460e+000 -2.483432e+000 -3.096771e+000 -1.302204e+000 -3.254416e+000 -2.407275e+000 4.213340e+001 -1.984578e+000 2.656212e-001 -3.616439e-001 9.233857e-001 1.524420e+000 1.739039e+000 1.188861e+000 2.825789e-001 5.462871e-001 3.872064e-001 6.239678e-001 2.918883e-001 -2.688117e+000 2.062145e-001 -7.450932e-001 -1.899358e-001 -7.140059e-001 -2.993237e-001 -5.870806e-003 3.269656e-002 2.279903e-001 -2.716377e-002 6.635451e-002 1.207814e-001 1.127555e-001 1.370145e+000
<VARIANCE> 39
 4.988615e+001 3.915475e+001 5.358895e+001 5.912024e+001 5.926852e+001 5.375734e+001 4.939810e+001 5.905164e+001 6.254307e+001 5.039165e+001 4.469394e+001 3.657626e+001 6.593188e+001 6.366130e+000 5.884895e+000 5.516393e+000 7.282509e+000 6.570425e+000 6.032327e+000 5.601379e+000 6.842943e+000 6.596931e+000 5.020120e+000 4.809721e+000 3.853275e+000 1.101782e+001 7.485235e-001 8.660159e-001 7.714691e-001 1.135162e+000 1.173753e+000 1.084612e+000 1.033861e+000 1.211059e+000 1.209679e+000 1.046017e+000 9.504171e-001 7.331436e-001 1.654293e+000
<GCONST> 1.467430e+002
<STATE> 3
<MEAN> 39
 -1.985690e+001 -5.075528e+000 -5.431806e+000 -6.406279e+000 -3.363262e+000 -1.861373e+000 -1.329954e+000 1.571799e-001 -9.944457e-001 6.613205e-001 -2.079072e-001 3.642935e-002 4.419846e+001 -1.134818e-001 -9.151116e-001 -2.380401e-001 -1.243508e+000 -5.135048e-001 -2.945105e-001 3.494603e-001 2.407944e-001 -2.182093e-002 -1.253995e-002 1.162485e-001 2.682301e-001 2.666498e+000 5.545115e-001 3.436225e-002 1.897465e-001 -2.096529e-001 -4.255694e-001 -4.942631e-001 -3.009175e-001 -1.520085e-001 -2.710070e-001 -2.396372e-001 -2.952825e-001 -1.460293e-001 8.000996e-001
<VARIANCE> 39
 3.497892e+001 3.375387e+001 3.182507e+001 4.889648e+001 3.360381e+001 3.272297e+001 2.686162e+001 2.553735e+001 2.357560e+001 2.100770e+001 1.958150e+001 1.746806e+001 1.495650e+002 4.299466e+000 3.885096e+000 3.554297e+000 5.258961e+000 3.857197e+000 4.393956e+000 3.566601e+000 3.953113e+000 3.702735e+000 3.125901e+000 3.002692e+000 2.422889e+000 1.341315e+001 7.769887e-001 7.931895e-001 7.222877e-001 1.294564e+000 8.095983e-001 8.061807e-001 6.894581e-001 6.972495e-001 6.582981e-001 5.632359e-001 5.400437e-001 4.570100e-001 3.720517e+000
<GCONST> 1.321441e+002
<STATE> 4
<MEAN> 39
 -1.479140e+001 -7.768972e+000 -4.582584e+000 -1.021955e+001 -8.112479e+000 -6.464919e+000 -2.530411e+000 -4.375362e-001 -3.115424e+000 -1.697043e+000 -2.933539e+000 -8.694428e-001 5.464348e+001 2.285257e+000 -5.698131e-001 2.711782e-001 -6.260213e-001 -1.094692e+000 -7.993678e-001 -9.383761e-001 -1.902505e-001 -5.837986e-001 -5.182981e-001 -5.938015e-001 -4.745979e-001 1.762099e+000 2.911980e-001 3.119388e-002 -1.241882e-002 1.298166e-001 1.874986e-002 1.383041e-001 -2.984975e-001 1.422073e-002 4.182290e-002 9.689390e-002 1.085041e-001 -8.286320e-002 -3.254331e-001
<VARIANCE> 39
 6.161975e+001 3.920277e+001 5.769543e+001 5.634160e+001 5.801793e+001 5.519769e+001 5.132806e+001 5.009525e+001 4.504132e+001 3.668923e+001 3.510265e+001 2.889389e+001 5.829059e+001 7.207254e+000 3.478507e+000 4.423465e+000 5.926814e+000 5.646223e+000 5.564312e+000 5.807824e+000 4.695570e+000 4.689139e+000 3.960318e+000 3.990386e+000 3.054633e+000 9.169806e+000 8.953466e-001 6.886466e-001 6.431873e-001 8.876337e-001 8.470613e-001 8.439539e-001 9.186135e-001 8.450083e-001 7.419601e-001 6.887838e-001 6.646701e-001 5.551763e-001 1.349599e+000
<GCONST> 1.397527e+002
<TRANSP> 5
 0.000000e+000 1.000000e+000 0.000000e+000 0.000000e+000 0.000000e+000
 0.000000e+000 4.821584e-001 5.178416e-001 0.000000e+000 0.000000e+000
 0.000000e+000 0.000000e+000 6.471996e-001 3.528004e-001 0.000000e+000
 0.000000e+000 0.000000e+000 0.000000e+000 5.395400e-001 4.604600e-001
 0.000000e+000 0.000000e+000 0.000000e+000 0.000000e+000 0.000000e+000
<ENDHMM>
~h "v"
<BEGINHMM>
<NUMSTATES> 5
<STATE> 2
<MEAN> 39
 -5.131189e+000 -3.607482e+000 -7.513827e+000 -7.355889e+000 -5.796608e+000 -6.500983e+000 -1.030755e+001 -6.739075e+000 -4.805273e+000 -1.181865e+000 -1.424612e+000 -3.069415e+000 5.270679e+001 -2.275282e+000 1.929200e+000 3.871864e-001 1.356225e+000 1.303219e+000 8.528008e-001 1.107136e+000 -5.831044e-001 -5.524557e-001 -6.754062e-001 -4.008261e-001 1.964629e-001 -1.896986e+000 -2.388822e-001 -5.452628e-001 2.273671e-001 -2.353145e-001 -3.267035e-001 -5.519313e-002 1.687723e-001 5.933590e-001 2.324719e-001 1.127452e-002 -1.678533e-001 -6.169126e-003 5.311826e-001
<VARIANCE> 39
 2.639136e+001 1.923255e+001 2.822171e+001 2.926162e+001 2.003127e+001 3.602106e+001 3.095105e+001 2.929422e+001 3.039923e+001 2.969361e+001 3.295568e+001 2.526802e+001 2.774732e+001 3.177990e+000 2.366004e+000 3.124990e+000 3.539608e+000 2.886186e+000 3.857933e+000 4.243157e+000 4.469769e+000 3.525138e+000 3.302236e+000 3.166097e+000 2.360106e+000 2.074180e+000 4.311882e-001 3.937757e-001 3.938903e-001 4.321710e-001 4.723412e-001 4.693532e-001 6.240507e-001 5.929045e-001 5.600907e-001 5.198395e-001 4.808444e-001 4.267040e-001 3.496028e-001
<GCONST> 1.199233e+002
<STATE> 3
<MEAN> 39
 -1.301077e+001 -1.635325e+000 -4.993488e+000 -4.077596e+000 -3.568429e+000 -4.276692e+000 -6.088850e+000 -4.880541e+000 -5.273509e+000 -3.232142e+000 -3.659684e+000 -2.635179e+000 4.956047e+001 -1.288209e+000 -3.454239e-001 -3.289565e-002 6.484656e-002 1.143268e-001 1.207242e-001 6.717447e-001 6.542527e-001 4.366834e-001 3.116577e-002 -1.094099e-002 1.911833e-001 2.800067e-001 1.033477e+000 -7.679768e-001 -2.881697e-001 -7.691841e-001 -6.396658e-001 -4.441059e-001 -4.230202e-001 2.473685e-001 2.235114e-001 3.131796e-001 2.240216e-001 1.152461e-002 8.929875e-001
<VARIANCE> 39
 4.570418e+001 2.047972e+001 2.526152e+001 2.628829e+001 1.992318e+001 2.706854e+001 2.956132e+001 2.690206e+001 2.520869e+001 2.294306e+001 2.320105e+001 1.876925e+001 3.706260e+001 5.166283e+000 2.056661e+000 2.187107e+000 2.849917e+000 2.330796e+000 2.825144e+000 2.950324e+000 2.580925e+000 2.373720e+000 2.256930e+000 2.243449e+000 1.748748e+000 2.795367e+000 7.161352e-001 5.828367e-001 6.868293e-001 6.954014e-001 5.994241e-001 7.495251e-001 8.675563e-001 8.454432e-001 7.129559e-001 6.082260e-001 5.558423e-001 4.470733e-001 5.433807e-001
<GCONST> 1.206561e+002
<STATE> 4
<MEAN> 39
 -1.107595e+001 -4.868557e+000 -7.216410e+000 -7.232455e+000 -5.897820e+000 -6.280072e+000 -6.555686e+000 -3.453949e+000 -3.180576e+000 -1.687746e+000 -2.205353e+000 -1.917081e+000 5.386752e+001 1.805712e+000 -1.302666e+000 -3.994650e-001 -1.417032e+000 -1.103795e+000 -8.352350e-001 -6.143157e-001 6.615341e-001 4.147417e-001 4.200538e-001 2.835546e-001 5.144187e-002 1.533975e+000 5.463463e-001 -2.099606e-001 1.283953e-001 -2.190532e-001 -2.083083e-001 -2.031488e-002 -2.540228e-001 1.101276e-001 -8.875959e-002 7.203968e-003 -2.219981e-002 -8.838549e-002 7.943922e-002
<VARIANCE> 39
 6.750179e+001 2.385760e+001 3.236161e+001 3.069048e+001 2.515958e+001 3.402274e+001 3.799881e+001 3.024485e+001 2.773297e+001 2.420457e+001 2.306892e+001 1.954731e+001 3.194592e+001 7.026966e+000 3.787377e+000 3.981495e+000 4.787098e+000 4.191632e+000 4.805892e+000 5.398232e+000 4.432847e+000 3.964422e+000 3.208308e+000 2.910680e+000 2.513968e+000 5.673588e+000 8.496796e-001 5.781205e-001 4.566557e-001 5.874668e-001 5.677280e-001 6.676833e-001 7.745843e-001 7.263313e-001 6.319281e-001 5.389735e-001 4.962612e-001 4.103869e-001 5.482237e-001
<GCONST> 1.276810e+002
<TRANSP> 5
 0.000000e+000 1.000000e+000 0.000000e+000 0.000000e+000 0.000000e+000
 0.000000e+000 4.872694e-001 5.127306e-001 0.000000e+000 0.000000e+000
 0.000000e+000 0.000000e+000 5.136061e-001 4.863939e-001 0.000000e+000
 0.000000e+000 0.000000e+000 0.000000e+000 4.274320e-001 5.725681e-001
 0.000000e+000 0.000000e+000 0.000000e+000 0.000000e+000 0.000000e+000
<ENDHMM>
~h "w"
<BEGINHMM>
<NUMSTATES> 5
<STATE> 2
<MEAN> 39
 1.360196e-001 -4.206461e-001 -8.854997e+000 -1.487058e+001 -1.045457e+001 -2.559914e+000 -7.342655e+000 -5.947682e+000 -1.138559e+001 -3.434075e+000 -1.185650e+000 -2.103096e+000 5.060732e+001 1.969177e+000 1.393757e+000 -4.610664e-001 -2.448586e+000 -1.857944e+000 6.473736e-001 7.365786e-001 -6.489504e-002 -7.974387e-001 -7.764875e-001 -7.920113e-002 1.262456e-001 3.586988e-001 -5.417067e-001 -6.580371e-001 2.492579e-001 1.117743e-001 -1.497083e-001 -2.651459e-001 -6.026762e-002 4.815033e-001 5.391519e-001 2.433016e-001 -5.153724e-002 -7.125839e-002 4.257240e-001
<VARIANCE> 39
 1.517799e+001 2.799764e+001 2.577338e+001 5.067122e+001 4.276971e+001 4.053916e+001 4.915088e+001 4.367150e+001 5.065898e+001 4.141413e+001 4.787499e+001 2.710733e+001 2.890375e+001 4.235305e+000 3.457045e+000 3.984443e+000 5.161555e+000 5.178201e+000 5.422828e+000 6.945148e+000 5.250933e+000 5.339585e+000 4.570014e+000 4.076347e+000 3.055223e+000 5.418025e+000 4.518220e-001 5.550764e-001 6.151370e-001 7.004695e-001 1.129118e+000 8.415647e-001 1.041238e+000 8.051008e-001 8.135675e-001 8.637946e-001 6.522760e-001 5.210444e-001 2.884438e-001
<GCONST> 1.331325e+002
<STATE> 3
<MEAN> 39
 2.548803e+000 4.274463e-001 -8.992807e+000 -2.217594e+001 -1.756211e+001 -8.568756e-001 -4.252253e+000 -2.018526e+000 -7.989516e+000 -4.501766e+000 -1.376379e+000 -2.199772e+000 5.295127e+001 2.499754e-001 -9.963613e-001 -4.168118e-001 -1.179795e+000 -2.360386e-001 8.305532e-001 7.311161e-002 1.201917e-001 3.086546e-001 4.288300e-001 5.229430e-001 2.075547e-001 1.184749e+000 -3.089493e-001 -5.165894e-001 -1.084495e-001 4.059360e-001 6.099439e-001 8.016402e-002 -1.986120e-001 -1.529205e-001 7.429166e-002 2.778078e-001 1.836312e-001 6.455569e-003 1.816268e-001
<VARIANCE> 39
 6.684607e+000 2.763052e+001 3.167436e+001 5.160112e+001 4.984978e+001 5.000383e+001 4.336893e+001 4.523270e+001 5.572144e+001 4.253130e+001 4.099508e+001 2.948616e+001 1.931650e+001 6.033031e-001 2.193974e+000 1.590009e+000 2.555018e+000 3.532522e+000 3.307892e+000 3.282716e+000 2.836437e+000 3.263023e+000 3.059536e+000 2.868608e+000 2.223804e+000 1.608723e+000 2.818688e-001 2.395823e-001 2.666463e-001 5.297603e-001 4.889522e-001 5.515025e-001 5.952102e-001 5.467942e-001 6.731719e-001 5.619113e-001 4.922030e-001 4.444412e-001 1.861851e-001
<GCONST> 1.172693e+002
<STATE> 4
<MEAN> 39
 1.515853e+000 -8.271652e+000 -1.170219e+001 -2.095279e+001 -1.082168e+001 1.750187e+000 -9.054914e+000 -4.884220e+000 -8.120825e+000 1.570321e+000 2.340883e+000 -2.189155e+000 5.936670e+001 -5.988930e-001 -2.163411e+000 1.341753e-001 1.297300e+000 1.173839e+000 -1.041412e+000 -1.468346e+000 4.422620e-001 1.626932e+000 1.254531e+000 -2.324577e-001 -9.773095e-001 1.589939e+000 -3.273506e-001 2.516118e-001 3.953064e-001 5.502915e-001 -1.737768e-001 -6.676388e-001 2.635515e-001 4.895347e-001 3.376985e-001 -4.630611e-001 -6.004983e-001 -1.411935e-001 -3.369319e-001
<VARIANCE> 39
 8.778529e+000 2.880867e+001 4.405407e+001 7.566640e+001 6.108127e+001 8.077521e+001 8.927489e+001 6.099526e+001 6.840808e+001 8.269437e+001 8.103742e+001 4.397533e+001 1.858902e+001 5.128073e-001 1.463745e+000 2.672967e+000 3.189064e+000 3.656324e+000 6.021407e+000 4.954216e+000 5.218650e+000 4.067397e+000 4.534645e+000 4.723929e+000 3.124267e+000 8.407834e-001 2.284100e-001 2.837093e-001 3.402063e-001 5.677400e-001 7.398650e-001 7.308641e-001 1.030295e+000 7.588483e-001 9.426605e-001 1.039981e+000 7.456541e-001 7.482120e-001 1.681124e-001
<GCONST> 1.281754e+002
<TRANSP> 5
 0.000000e+000 1.000000e+000 0.000000e+000 0.000000e+000 0.000000e+000
 0.000000e+000 5.745339e-001 4.254660e-001 0.000000e+000 0.000000e+000
 0.000000e+000 0.000000e+000 7.354324e-001 2.645676e-001 0.000000e+000
 0.000000e+000 0.000000e+000 0.000000e+000 5.511708e-001 4.488292e-001
 0.000000e+000 0.000000e+000 0.000000e+000 0.000000e+000 0.000000e+000
<ENDHMM>
~h "y"
<BEGINHMM>
<NUMSTATES> 5
<STATE> 2
<MEAN> 39
 -9.516194e+000 -3.703622e+000 1.120775e+001 -1.153590e+001 -1.553680e+001 -8.048612e+000 -1.053634e+001 -4.083541e+000 -1.164169e+001 -4.254011e+000 -2.985440e+000 -2.512240e+000 5.570257e+001 -2.519768e-002 3.778872e-001 2.144194e+000 -2.897920e-001 -1.306359e+000 3.311980e-001 -2.471032e-001 -3.538761e-001 -1.385486e+000 -5.222629e-001 3.277498e-001 -1.191470e-001 1.204505e-001 8.423778e-002 -2.221286e-001 -7.822691e-001 -7.861078e-002 3.693255e-001 1.237557e-001 5.332089e-002 8.981004e-002 4.293986e-001 2.814915e-001 5.096076e-002 -3.120473e-002 4.970576e-002
<VARIANCE> 39
 1.974173e+001 4.521846e+001 4.565480e+001 7.276043e+001 4.905342e+001 5.813490e+001 4.249754e+001 6.580691e+001 4.585025e+001 5.271177e+001 5.704256e+001 3.151989e+001 3.144467e+001 3.785991e+000 3.631983e+000 5.160489e+000 3.582250e+000 6.047716e+000 5.302681e+000 4.710788e+000 4.700444e+000 5.275597e+000 4.628388e+000 3.038642e+000 2.387364e+000 3.266504e+000 3.740256e-001 3.847237e-001 5.040656e-001 8.239062e-001 9.328577e-001 1.189903e+000 7.427807e-001 9.533736e-001 7.521300e-001 6.791018e-001 5.267887e-001 4.826696e-001 2.802597e-001
<GCONST> 1.332972e+002
<STATE> 3
<MEAN> 39
 -9.233201e+000 -4.054371e+000 1.395934e+001 -1.281036e+001 -1.886160e+001 -7.060483e+000 -1.060785e+001 -5.851499e+000 -1.267478e+001 -3.158235e+000 -2.196238e+000 -2.382214e+000 5.721361e+001 3.748572e-001 -6.777325e-001 -3.661116e-001 3.208043e-001 -6.024461e-001 -6.496464e-001 3.363888e-001 2.867991e-001 -7.088207e-002 2.361980e-001 4.128664e-001 1.089765e-001 4.613908e-001 8.079853e-002 -1.232185e-001 -3.319627e-001 1.531373e-001 1.253057e-001 -2.417138e-001 4.794786e-002 2.103829e-001 1.035658e-001 -1.111651e-002 6.047034e-002 4.352574e-002 2.414799e-003
<VARIANCE> 39
 1.102164e+001 3.658448e+001 3.624960e+001 8.094403e+001 4.029792e+001 4.374200e+001 4.508318e+001 5.831252e+001 4.220491e+001 6.241462e+001 5.604582e+001 2.983827e+001 2.020172e+001 5.103797e-001 9.224294e-001 1.065531e+000 1.123927e+000 1.350318e+000 1.986630e+000 1.766793e+000 1.837338e+000 1.462431e+000 1.325311e+000 1.214972e+000 1.034822e+000 4.885665e-001 8.007111e-002 1.229576e-001 2.118794e-001 1.771979e-001 3.513057e-001 2.612226e-001 2.787340e-001 2.774631e-001 2.951644e-001 2.622938e-001 2.135019e-001 1.891519e-001 8.454567e-002
<GCONST> 9.999020e+001
<STATE> 4
<MEAN> 39
 -4.636144e+000 -1.150703e+001 6.507867e+000 -6.954033e+000 -1.993043e+001 -1.606914e+001 -7.967054e+000 2.699570e+000 -1.165197e+001 -4.255414e+000 2.772636e+000 -3.748605e-001 5.994486e+001 8.607358e-001 -8.181531e-001 -2.175406e+000 8.327252e-001 1.041627e+000 -1.437763e+000 -6.365919e-001 1.805999e+000 1.077553e+000 -5.570382e-001 3.190695e-002 5.948072e-001 1.242867e-001 -2.915511e-002 2.070733e-001 -2.411571e-001 -1.363649e-001 4.620080e-001 3.491515e-001 -3.262242e-001 -1.802887e-001 4.078236e-001 3.531798e-005 -3.560853e-001 -4.722209e-002 -1.674016e-001
<VARIANCE> 39
 1.219884e+001 2.640479e+001 5.213879e+001 5.891637e+001 3.808207e+001 6.017709e+001 6.966277e+001 6.358840e+001 5.883413e+001 6.811170e+001 4.297830e+001 3.337706e+001 1.812370e+001 4.649040e-001 8.668461e-001 1.456775e+000 1.406618e+000 1.677188e+000 2.282543e+000 2.765386e+000 2.337763e+000 2.739988e+000 1.947020e+000 1.947796e+000 1.533054e+000 4.680483e-001 7.864893e-002 1.217123e-001 2.511103e-001 2.309498e-001 3.382278e-001 3.914185e-001 3.822547e-001 4.231151e-001 3.777680e-001 3.982228e-001 2.733776e-001 2.756280e-001 6.214454e-002
<GCONST> 1.065051e+002
<TRANSP> 5
 0.000000e+000 1.000000e+000 0.000000e+000 0.000000e+000 0.000000e+000
 0.000000e+000 7.003193e-001 2.996807e-001 0.000000e+000 0.000000e+000
 0.000000e+000 0.000000e+000 8.207043e-001 1.792957e-001 0.000000e+000
 0.000000e+000 0.000000e+000 0.000000e+000 7.003604e-001 2.996396e-001
 0.000000e+000 0.000000e+000 0.000000e+000 0.000000e+000 0.000000e+000
<ENDHMM>
~h "z"
<BEGINHMM>
<NUMSTATES> 5
<STATE> 2
<MEAN> 39
 -1.866206e+001 4.495845e+000 -3.028243e+000 -8.271358e+000 -2.886959e+000 -1.098668e+001 -7.415936e+000 -3.909532e+000 -3.868809e+000 -2.804498e+000 -4.246636e+000 -1.129819e+000 5.691402e+001 -4.478516e+000 1.591535e+000 -7.744892e-001 3.866448e-001 2.335910e+000 1.400155e+000 1.698796e+000 1.078083e+000 5.738405e-001 1.385003e-001 5.524641e-001 3.304281e-001 -3.085205e-001 3.506463e-001 -9.023896e-001 -6.964062e-002 -1.155637e-001 -4.060190e-001 3.298766e-001 9.551176e-002 3.466029e-001 3.339004e-002 1.962249e-001 1.262279e-001 -3.151833e-003 6.367180e-002
<VARIANCE> 39
 4.614668e+001 2.730813e+001 4.437538e+001 4.065462e+001 5.037830e+001 5.057432e+001 4.628923e+001 3.739795e+001 3.257504e+001 3.394355e+001 2.294815e+001 2.173300e+001 2.082201e+001 3.032043e+000 4.621197e+000 3.398172e+000 4.975029e+000 3.574171e+000 5.202852e+000 4.111524e+000 4.220140e+000 3.781150e+000 3.427157e+000 3.104373e+000 2.962722e+000 1.352774e+000 9.833424e-001 5.655239e-001 5.283499e-001 6.574753e-001 7.406548e-001 8.572901e-001 7.587292e-001 7.403450e-001 5.839341e-001 6.192439e-001 5.115828e-001 4.931603e-001 1.928516e-001
<GCONST> 1.274815e+002
<STATE> 3
<MEAN> 39
 -2.888356e+001 2.092633e+000 -7.568051e+000 -8.324877e+000 5.268665e-001 -5.514214e+000 -1.230202e+000 1.229002e+000 -1.505575e+000 -7.766056e-001 -1.749810e+000 1.904677e-001 5.608603e+001 -8.821870e-002 -7.543958e-001 -2.512518e-001 -2.631485e-001 -1.510113e-001 9.052847e-002 1.549761e-001 3.132430e-001 2.468148e-001 1.958581e-001 1.484394e-001 5.581989e-002 7.706199e-002 1.204840e+000 -2.644948e-001 3.084230e-001 -4.882014e-002 -4.799103e-001 -4.073839e-001 -5.213330e-001 -3.767059e-001 -1.439517e-001 -8.902533e-002 -1.819980e-001 -1.346747e-001 -1.209351e-001
<VARIANCE> 39
 1.399020e+001 2.644150e+001 4.236280e+001 4.109676e+001 3.727048e+001 3.491636e+001 3.827819e+001 2.956360e+001 2.163903e+001 1.976403e+001 1.826155e+001 1.473928e+001 1.671016e+001 3.512927e+000 1.602577e+000 1.988269e+000 1.722067e+000 2.106384e+000 2.956986e+000 2.574451e+000 2.305419e+000 2.095986e+000 1.918571e+000 1.711150e+000 1.489779e+000 1.037024e+000 6.765378e-001 4.024821e-001 4.001653e-001 5.090269e-001 5.489144e-001 6.536637e-001 6.006933e-001 5.302443e-001 4.776328e-001 4.297308e-001 4.111331e-001 3.539885e-001 3.144367e-001
<GCONST> 1.129287e+002
<STATE> 4
<MEAN> 39
 -1.994091e+001 -1.538042e+000 -4.920156e+000 -9.231780e+000 -2.565954e+000 -8.275868e+000 -5.786787e+000 -8.883176e-001 -1.588834e+000 -1.193819e+000 -3.053963e+000 -9.590473e-001 5.531910e+001 3.689918e+000 -1.707788e+000 2.906458e-001 6.119894e-002 -1.517015e+000 -3.249986e-001 -1.172302e+000 -6.902716e-001 -1.328716e-001 1.429913e-001 -2.813746e-001 -3.893717e-001 -1.119897e+000 2.153691e-001 -6.785738e-002 -8.697159e-002 8.844635e-002 -1.334909e-001 2.475694e-001 7.528799e-002 1.786762e-002 -1.231625e-001 3.533968e-002 5.899400e-002 -4.047215e-002 -2.378560e-001
<VARIANCE> 39
 5.725843e+001 3.763214e+001 4.123602e+001 3.487458e+001 4.863573e+001 5.692601e+001 5.058871e+001 4.111528e+001 3.320640e+001 3.126060e+001 2.561709e+001 2.171645e+001 4.398237e+001 4.514163e+000 3.768234e+000 3.856093e+000 5.143388e+000 5.001805e+000 5.921254e+000 5.546484e+000 4.431509e+000 3.960842e+000 3.447220e+000 3.341746e+000 2.743848e+000 6.166674e+000 1.077469e+000 6.350271e-001 5.184408e-001 6.427690e-001 7.520509e-001 9.004667e-001 8.729069e-001 7.892306e-001 6.666402e-001 5.939220e-001 5.372251e-001 4.556605e-001 6.113782e-001
<GCONST> 1.332339e+002
<TRANSP> 5
 0.000000e+000 1.000000e+000 0.000000e+000 0.000000e+000 0.000000e+000
 0.000000e+000 6.684067e-001 3.315933e-001 0.000000e+000 0.000000e+000
 0.000000e+000 0.000000e+000 7.584808e-001 2.415191e-001 0.000000e+000
 0.000000e+000 0.000000e+000 0.000000e+000 6.365457e-001 3.634543e-001
 0.000000e+000 0.000000e+000 0.000000e+000 0.000000e+000 0.000000e+000
<ENDHMM>
~h "aa"
<BEGINHMM>
<NUMSTATES> 5
<STATE> 2
<MEAN> 39
 -1.031565e+000 -1.574283e+001 -1.317683e+001 -1.661204e+001 -8.072709e+000 -1.188383e+000 -6.988419e+000 6.419297e-001 -1.343457e+000 -7.845130e-001 -2.691966e+000 -6.148798e+000 6.492574e+001 9.421350e-001 -1.469943e+000 -1.530558e+000 -9.086950e-001 8.324726e-001 1.405034e+000 3.177551e-001 -1.740008e-002 1.959719e-001 -9.539444e-002 7.342393e-002 -6.506469e-001 9.949607e-001 -5.588680e-001 3.865497e-001 2.707133e-001 4.545680e-001 2.983807e-001 -5.262012e-002 2.137651e-001 -2.287104e-001 -1.269035e-001 -9.630656e-002 5.800137e-002 2.994593e-001 -5.243309e-001
<VARIANCE> 39
 1.312173e+001 3.176045e+001 4.354073e+001 5.854861e+001 5.915519e+001 9.309883e+001 8.189740e+001 8.132599e+001 7.128854e+001 5.599619e+001 7.495551e+001 4.217001e+001 2.106167e+001 2.092018e+000 1.996603e+000 2.860199e+000 3.493983e+000 3.986637e+000 3.828927e+000 4.601961e+000 4.615738e+000 3.992118e+000 3.346835e+000 3.485351e+000 3.260196e+000 1.304131e+000 3.839956e-001 3.153456e-001 3.610894e-001 5.096426e-001 6.402312e-001 7.923277e-001 9.073801e-001 8.647661e-001 6.996192e-001 6.231321e-001 6.789656e-001 5.170327e-001 2.677103e-001
<GCONST> 1.292503e+002
<STATE> 3
<MEAN> 39
 -1.992208e-001 -1.707796e+001 -1.698080e+001 -1.729353e+001 -3.914611e+000 1.918882e+000 -5.297274e+000 -1.560131e+000 -1.374699e+000 -2.261882e+000 -2.274989e+000 -6.067542e+000 6.501778e+001 3.083592e-002 -9.580370e-002 -2.157694e-001 3.857706e-001 3.024551e-001 -4.349914e-001 -2.490420e-001 2.268525e-001 2.021953e-001 -1.599027e-001 -1.554804e-001 -1.417675e-002 -3.011801e-002 -2.428373e-002 1.918304e-001 1.724950e-001 1.059512e-001 -1.913897e-001 -3.053683e-001 -1.396428e-001 1.348772e-001 3.219594e-003 2.604228e-002 -5.985711e-002 5.866845e-002 -1.492203e-001
<VARIANCE> 39
 1.280384e+001 3.162446e+001 3.488861e+001 5.827197e+001 5.628056e+001 8.729407e+001 8.136403e+001 8.780046e+001 7.521651e+001 5.439162e+001 6.463017e+001 4.361758e+001 1.994574e+001 2.415221e-001 7.038173e-001 8.418571e-001 1.360485e+000 1.435718e+000 2.007297e+000 2.020524e+000 1.959698e+000 1.542741e+000 1.449269e+000 1.409714e+000 1.348602e+000 2.427719e-001 4.509823e-002 1.085235e-001 1.339062e-001 1.858503e-001 2.116290e-001 2.407498e-001 3.072108e-001 2.868049e-001 2.674068e-001 2.563239e-001 2.363472e-001 2.272694e-001 4.935120e-002
<GCONST> 9.972285e+001
<STATE> 4
<MEAN> 39
 -1.182852e+000 -1.538164e+001 -1.460484e+001 -1.447064e+001 -5.713810e+000 -2.976139e+000 -6.450082e+000 5.105994e-001 -5.202113e-001 -1.957778e+000 -4.479078e+000 -6.177324e+000 6.305085e+001 -7.145831e-001 1.877555e+000 1.421308e+000 1.618466e+000 -5.005745e-001 -1.607551e+000 -5.213817e-001 3.821431e-001 -2.635700e-001 4.669143e-002 -1.478737e-001 7.085088e-001 -2.119016e+000 -5.473522e-001 4.650391e-001 4.391957e-001 3.793008e-001 1.611329e-001 1.395486e-001 1.059542e-001 -3.276233e-001 -1.882676e-001 1.195720e-003 1.478426e-001 1.979818e-001 -6.179501e-001
<VARIANCE> 39
 1.453271e+001 3.633956e+001 4.236130e+001 5.342244e+001 5.370039e+001 9.048145e+001 8.360826e+001 7.969263e+001 7.446088e+001 5.867903e+001 6.723428e+001 4.778253e+001 2.990160e+001 2.497056e+000 3.446382e+000 3.184633e+000 4.078916e+000 3.943270e+000 4.116455e+000 4.937346e+000 5.172580e+000 4.347651e+000 4.074485e+000 3.713385e+000 3.370303e+000 4.060952e+000 4.702944e-001 4.479295e-001 3.809592e-001 5.872927e-001 6.210215e-001 8.247717e-001 7.677246e-001 8.034204e-001 7.057394e-001 7.061130e-001 6.438617e-001 5.671528e-001 4.649400e-001
<GCONST> 1.336888e+002
<TRANSP> 5
 0.000000e+000 1.000000e+000 0.000000e+000 0.000000e+000 0.000000e+000
 0.000000e+000 6.489570e-001 3.510430e-001 0.000000e+000 0.000000e+000
 0.000000e+000 0.000000e+000 8.567201e-001 1.432799e-001 0.000000e+000
 0.000000e+000 0.000000e+000 0.000000e+000 6.305125e-001 3.694875e-001
 0.000000e+000 0.000000e+000 0.000000e+000 0.000000e+000 0.000000e+000
<ENDHMM>
~h "ae"
<BEGINHMM>
<NUMSTATES> 5
<STATE> 2
<MEAN> 39
 -4.428973e+000 -1.662205e+001 -5.090398e+000 -1.360604e+001 -1.483005e+001 -8.007710e+000 -3.896603e+000 5.601674e+000 -2.016079e+000 -3.149690e+000 -5.351027e+000 -4.666587e+000 6.605851e+001 -2.788217e-002 -1.275380e+000 -4.834086e-004 -7.649333e-001 -1.667304e-001 5.428362e-001 8.558090e-001 9.153803e-001 1.065102e-001 -5.995520e-001 -3.610126e-001 -1.474333e-001 1.116657e+000 -2.905154e-001 4.712238e-001 -7.687090e-002 3.149578e-001 4.291040e-001 1.574693e-001 9.766892e-002 -4.410749e-001 -9.767740e-002 4.178497e-002 7.932684e-002 1.536515e-001 -5.192597e-001
<VARIANCE> 39
 1.468951e+001 3.029751e+001 4.785313e+001 4.764640e+001 5.090932e+001 5.652588e+001 7.783075e+001 6.427271e+001 8.458743e+001 4.866012e+001 4.800549e+001 3.880012e+001 2.014872e+001 1.085785e+000 1.890655e+000 2.127276e+000 2.180374e+000 2.672786e+000 2.672951e+000 3.431842e+000 3.757680e+000 2.947396e+000 2.590859e+000 2.405214e+000 2.245548e+000 1.089280e+000 3.014090e-001 2.694776e-001 3.050152e-001 3.754179e-001 4.621686e-001 4.882650e-001 6.305022e-001 5.540316e-001 5.622203e-001 4.844283e-001 4.571026e-001 3.866100e-001 2.187149e-001
<GCONST> 1.196551e+002
<STATE> 3
<MEAN> 39
 -4.901746e+000 -1.729718e+001 -6.742670e+000 -1.328206e+001 -1.282067e+001 -6.501638e+000 -7.048941e-001 4.685772e+000 -2.158586e+000 -5.180586e+000 -6.399172e+000 -4.047108e+000 6.608975e+001 2.905342e-003 2.368593e-002 -1.795946e-001 5.628092e-002 2.307390e-001 1.444080e-002 2.440864e-002 -6.462360e-002 1.127672e-002 -8.342741e-002 -9.203242e-002 2.337506e-002 -7.480787e-002 3.104192e-002 1.858090e-001 1.312416e-002 6.397723e-002 -7.212498e-003 -1.286560e-001 -1.764211e-001 -6.712016e-002 -1.356534e-002 1.159829e-001 5.776308e-002 -1.063811e-003 -1.654374e-001
<VARIANCE> 39
 1.295849e+001 3.035706e+001 4.715881e+001 4.344770e+001 5.492084e+001 5.534940e+001 6.237271e+001 6.219807e+001 8.604853e+001 4.369751e+001 4.169984e+001 4.172558e+001 2.300706e+001 2.451660e-001 6.073487e-001 9.176819e-001 8.155679e-001 1.197876e+000 1.246231e+000 1.426605e+000 1.296502e+000 1.227631e+000 1.189418e+000 1.145600e+000 9.603663e-001 2.257955e-001 4.240786e-002 1.145234e-001 1.306193e-001 1.436652e-001 1.844876e-001 1.897470e-001 2.184388e-001 2.283025e-001 2.175635e-001 1.989619e-001 1.969627e-001 1.728604e-001 5.203188e-002
<GCONST> 9.306747e+001
<STATE> 4
<MEAN> 39
 -4.529526e+000 -1.415164e+001 -6.509066e+000 -1.212681e+001 -1.232640e+001 -9.437140e+000 -3.597832e+000 4.181088e+000 -2.532834e+000 -3.479863e+000 -5.727112e+000 -4.000386e+000 6.299440e+001 -6.023723e-001 2.444034e+000 5.977629e-001 1.274559e+000 5.811896e-001 -4.392723e-001 -6.861590e-001 -1.057127e+000 -5.916315e-001 5.326347e-001 4.570523e-001 1.698049e-001 -2.591496e+000 -5.435768e-001 5.371295e-001 1.464879e-001 4.214328e-001 3.819747e-001 3.273321e-001 1.420179e-001 -3.529512e-001 -1.110179e-001 -2.732458e-002 9.130601e-002 6.621544e-002 -7.084503e-001
<VARIANCE> 39
 1.268598e+001 3.478704e+001 6.014524e+001 4.595554e+001 5.956720e+001 6.309642e+001 7.224506e+001 6.614967e+001 8.155158e+001 5.659814e+001 6.276362e+001 4.548324e+001 3.937579e+001 2.565615e+000 3.389552e+000 2.994846e+000 3.509369e+000 4.183140e+000 4.038619e+000 4.447971e+000 4.720454e+000 4.964638e+000 3.960389e+000 3.670141e+000 3.076752e+000 4.053406e+000 4.663343e-001 4.609630e-001 4.874116e-001 5.144819e-001 6.508726e-001 7.095333e-001 7.460181e-001 7.601889e-001 8.391954e-001 7.620111e-001 7.649690e-001 5.490455e-001 4.489410e-001
<GCONST> 1.332753e+002
<TRANSP> 5
 0.000000e+000 1.000000e+000 0.000000e+000 0.000000e+000 0.000000e+000
 0.000000e+000 6.168563e-001 3.831438e-001 0.000000e+000 0.000000e+000
 0.000000e+000 0.000000e+000 8.744851e-001 1.255149e-001 0.000000e+000
 0.000000e+000 0.000000e+000 0.000000e+000 7.329581e-001 2.670419e-001
 0.000000e+000 0.000000e+000 0.000000e+000 0.000000e+000 0.000000e+000
<ENDHMM>
~h "ah"
<BEGINHMM>
<NUMSTATES> 5
<STATE> 2
<MEAN> 39
 -3.472460e+000 -1.251589e+001 -8.637033e+000 -1.540273e+001 -9.266257e+000 -4.664351e+000 -1.049634e+001 -8.336828e-002 -2.334347e-001 1.928574e-001 -4.085666e+000 -5.468944e+000 6.338738e+001 1.461567e+000 -1.750648e+000 -5.756854e-001 -1.276088e+000 -2.480814e-001 6.088163e-001 -8.881791e-001 6.648170e-001 9.615511e-001 1.038880e-001 -5.666602e-001 -9.504424e-001 1.444111e+000 -7.520366e-001 4.867069e-001 1.251661e-001 5.247113e-001 3.987902e-001 7.622557e-002 5.083302e-001 -1.634376e-001 -2.404099e-001 -1.101185e-001 9.429372e-002 2.568746e-001 -7.157983e-001
<VARIANCE> 39
 2.467951e+001 3.481511e+001 5.020221e+001 5.413558e+001 5.550187e+001 8.771266e+001 6.735926e+001 6.379826e+001 5.992340e+001 6.308118e+001 7.914297e+001 4.524503e+001 2.925898e+001 3.975418e+000 2.908797e+000 3.121836e+000 4.648946e+000 4.716370e+000 5.566199e+000 5.101607e+000 5.185136e+000 4.894840e+000 4.262789e+000 4.588146e+000 3.564568e+000 2.802109e+000 5.875872e-001 4.524197e-001 4.852572e-001 6.704344e-001 7.014347e-001 9.702503e-001 8.514114e-001 8.795148e-001 7.733613e-001 7.400373e-001 8.328912e-001 6.326411e-001 4.835061e-001
<GCONST> 1.364758e+002
<STATE> 3
<MEAN> 39
 -2.859493e+000 -1.457892e+001 -1.040088e+001 -1.655951e+001 -7.133732e+000 -3.150354e+000 -9.696150e+000 7.168322e-001 1.002721e+000 -8.710423e-001 -5.663778e+000 -6.112894e+000 6.452045e+001 3.731060e-002 3.208203e-001 7.593697e-002 1.765271e-001 1.289147e-001 -1.871994e-001 -3.692388e-002 -1.586785e-001 -1.009351e-001 -2.308678e-002 -6.252046e-002 2.895523e-002 -3.898454e-001 -1.854178e-001 5.202211e-001 2.275018e-001 3.579099e-001 -4.650749e-002 -1.976184e-001 9.587039e-002 -2.618056e-001 -3.373517e-001 2.651736e-002 1.393404e-001 1.964067e-001 -5.254784e-001
<VARIANCE> 39
 1.468690e+001 3.003815e+001 3.964363e+001 5.102186e+001 5.205559e+001 8.360026e+001 7.005224e+001 5.855684e+001 6.538988e+001 6.969753e+001 6.831992e+001 5.065401e+001 2.708263e+001 6.113609e-001 1.204258e+000 1.566920e+000 1.805099e+000 2.044649e+000 2.835343e+000 2.343733e+000 2.568995e+000 2.267010e+000 2.129439e+000 2.230692e+000 2.024740e+000 1.045146e+000 2.314236e-001 2.813721e-001 2.534993e-001 3.731200e-001 4.059704e-001 4.948023e-001 5.476680e-001 5.623134e-001 5.115182e-001 4.506748e-001 4.196800e-001 4.152782e-001 2.449297e-001
<GCONST> 1.168675e+002
<STATE> 4
<MEAN> 39
 -3.224692e+000 -1.004489e+001 -8.065542e+000 -1.360769e+001 -8.103759e+000 -6.252781e+000 -1.036310e+001 -1.396039e+000 -1.212350e+000 1.482570e-002 -4.098958e+000 -4.687747e+000 5.968303e+001 -1.217153e+000 2.714559e+000 1.164430e+000 2.293676e+000 5.544394e-001 -3.211896e-001 7.141463e-001 -1.386155e+000 -1.452627e+000 -3.884975e-001 2.013887e-001 6.773568e-001 -3.182579e+000 -7.245974e-001 2.924280e-001 1.232475e-001 3.724527e-001 2.606437e-001 3.175613e-001 4.513575e-001 -1.053794e-001 -1.424097e-001 -1.372986e-001 -2.427997e-002 6.856468e-002 -4.592375e-001
<VARIANCE> 39
 2.163635e+001 3.842621e+001 4.680104e+001 5.855977e+001 5.146811e+001 8.210771e+001 6.700751e+001 6.666572e+001 6.418352e+001 6.979004e+001 7.418967e+001 4.757439e+001 4.479531e+001 3.479934e+000 3.050239e+000 3.168181e+000 4.401784e+000 4.858128e+000 5.682659e+000 5.568415e+000 5.816320e+000 5.634450e+000 5.449444e+000 4.835186e+000 4.095916e+000 4.549958e+000 5.308954e-001 6.135286e-001 4.838844e-001 7.886991e-001 6.598341e-001 9.070922e-001 7.934044e-001 1.078914e+000 8.425779e-001 8.450986e-001 8.479629e-001 6.406365e-001 7.160721e-001
<GCONST> 1.391292e+002
<TRANSP> 5
 0.000000e+000 1.000000e+000 0.000000e+000 0.000000e+000 0.000000e+000
 0.000000e+000 4.343724e-001 5.656276e-001 0.000000e+000 0.000000e+000
 0.000000e+000 0.000000e+000 7.521663e-001 2.478337e-001 0.000000e+000
 0.000000e+000 0.000000e+000 0.000000e+000 5.049736e-001 4.950264e-001
 0.000000e+000 0.000000e+000 0.000000e+000 0.000000e+000 0.000000e+000
<ENDHMM>
~h "ao"
<BEGINHMM>
<NUMSTATES> 5
<STATE> 2
<MEAN> 39
 6.249527e-001 -9.237869e+000 -1.379787e+001 -2.172074e+001 -1.139019e+001 2.016438e+000 -4.315211e+000 -2.288167e+000 -4.757601e+000 -1.061194e+000 2.325873e-001 -3.434474e+000 6.044098e+001 7.944729e-001 -5.703366e-001 -6.966681e-001 -1.558750e+000 -4.247436e-002 1.343578e+000 5.072702e-001 -1.053476e-001 -1.712696e-001 -1.565364e-001 3.419729e-001 4.173354e-002 8.698621e-001 -5.018309e-001 1.122296e-001 1.318859e-001 5.656762e-001 3.739166e-001 -2.296638e-001 -1.683197e-002 4.042415e-002 1.093147e-001 -6.537445e-002 -7.486325e-002 1.558326e-001 -3.205318e-001
<VARIANCE> 39
 1.214194e+001 4.655359e+001 3.989489e+001 6.481541e+001 7.785722e+001 7.791995e+001 8.743692e+001 6.696383e+001 7.208896e+001 7.019706e+001 7.041019e+001 4.504456e+001 2.694577e+001 2.103339e+000 2.230114e+000 2.443881e+000 4.278381e+000 4.626499e+000 4.119077e+000 4.232524e+000 3.965149e+000 3.926589e+000 3.677918e+000 3.447796e+000 3.013927e+000 1.515223e+000 4.605735e-001 3.775639e-001 3.566729e-001 5.620613e-001 6.427004e-001 6.438103e-001 8.258269e-001 6.741661e-001 7.684973e-001 6.430322e-001 6.468188e-001 5.067530e-001 2.610114e-001
<GCONST> 1.302421e+002
<STATE> 3
<MEAN> 39
 8.545589e-001 -1.037476e+001 -1.527473e+001 -2.502835e+001 -9.117534e+000 6.025342e+000 -1.795733e+000 -3.508098e+000 -3.619791e+000 -2.634569e+000 8.297011e-002 -2.724787e+000 6.186068e+001 -2.161882e-002 -1.977713e-001 -1.404527e-001 2.280095e-001 4.028657e-001 -1.202366e-001 -2.408881e-001 -3.926074e-002 1.336189e-001 7.840577e-002 4.021310e-002 -7.042188e-002 1.365902e-001 -2.605398e-002 3.736646e-002 5.788819e-002 2.395790e-001 -7.489936e-003 -2.611850e-001 -1.868247e-001 4.200326e-002 3.636403e-002 8.023682e-002 -3.579089e-002 -5.555768e-002 -7.963675e-002
<VARIANCE> 39
 1.022625e+001 4.154961e+001 3.686444e+001 6.760570e+001 8.766069e+001 7.144637e+001 8.035317e+001 6.122179e+001 6.301385e+001 6.152047e+001 5.970475e+001 4.468355e+001 2.229517e+001 1.948284e-001 9.262167e-001 7.899188e-001 1.623068e+000 1.512725e+000 1.581949e+000 1.680998e+000 1.426204e+000 1.463576e+000 1.533088e+000 1.416709e+000 1.414744e+000 3.048967e-001 3.460141e-002 1.020380e-001 1.168448e-001 1.753213e-001 2.241754e-001 2.295481e-001 2.517926e-001 2.470296e-001 2.506831e-001 2.469533e-001 2.399021e-001 2.195737e-001 4.079253e-002
<GCONST> 9.844466e+001
<STATE> 4
<MEAN> 39
 2.472865e-001 -1.262843e+001 -1.519767e+001 -1.771726e+001 -7.408559e+000 -1.066487e-001 -6.008080e+000 -1.694858e+000 -2.868417e+000 -1.288627e-001 -2.044328e-001 -5.064166e+000 6.210545e+001 -5.171741e-001 4.548208e-001 6.594808e-001 2.302390e+000 2.922152e-001 -1.907965e+000 -9.857839e-001 4.099161e-001 5.358814e-001 1.152519e-001 -6.312421e-001 1.571786e-001 -9.125999e-001 -3.323271e-001 3.328954e-001 3.731964e-001 2.513044e-001 -4.454729e-002 -1.106776e-001 6.221368e-002 -5.734620e-002 -6.404162e-004 -1.299764e-001 -1.395923e-001 2.385999e-001 -3.683352e-001
<VARIANCE> 39
 1.276203e+001 3.941063e+001 3.890752e+001 7.128067e+001 6.076406e+001 8.125668e+001 8.378632e+001 7.094724e+001 7.473842e+001 6.978329e+001 8.517389e+001 5.589847e+001 2.435858e+001 1.595917e+000 3.151080e+000 3.174347e+000 3.610768e+000 4.848752e+000 3.689762e+000 5.293430e+000 4.412703e+000 4.564311e+000 4.197615e+000 3.889118e+000 3.821017e+000 2.165281e+000 4.015009e-001 3.017524e-001 3.261818e-001 5.537004e-001 6.013586e-001 7.017933e-001 8.139825e-001 7.397619e-001 7.353998e-001 7.054539e-001 7.646649e-001 6.619864e-001 2.339303e-001
<GCONST> 1.317725e+002
<TRANSP> 5
 0.000000e+000 1.000000e+000 0.000000e+000 0.000000e+000 0.000000e+000
 0.000000e+000 6.446725e-001 3.553275e-001 0.000000e+000 0.000000e+000
 0.000000e+000 0.000000e+000 8.577451e-001 1.422549e-001 0.000000e+000
 0.000000e+000 0.000000e+000 0.000000e+000 6.449103e-001 3.550898e-001
 0.000000e+000 0.000000e+000 0.000000e+000 0.000000e+000 0.000000e+000
<ENDHMM>
~h "aw"
<BEGINHMM>
<NUMSTATES> 5
<STATE> 2
<MEAN> 39
 -4.025091e+000 -1.796744e+001 -9.317876e+000 -1.374613e+001 -9.197367e+000 -4.844864e+000 -3.880715e+000 2.966253e+000 -2.266811e+000 -3.797766e+000 -7.111628e+000 -4.550700e+000 6.658607e+001 3.836556e-001 -1.360480e+000 -8.218135e-001 -3.821374e-001 7.040980e-001 9.024112e-001 -2.899433e-002 1.112115e-001 4.857072e-001 -4.321980e-001 -5.209641e-001 -3.571846e-001 9.542834e-001 -2.939671e-001 4.788082e-001 2.790810e-002 2.131630e-001 3.035396e-001 1.691293e-001 7.540335e-003 -3.994779e-001 -8.668550e-002 1.138377e-001 1.964740e-001 1.002686e-001 -5.429943e-001
<VARIANCE> 39
 1.348449e+001 2.881311e+001 5.020953e+001 4.619930e+001 6.340499e+001 6.453824e+001 7.816618e+001 7.084568e+001 7.460307e+001 5.203549e+001 4.388859e+001 4.226065e+001 1.706701e+001 1.242707e+000 2.092743e+000 1.995893e+000 2.401105e+000 3.028632e+000 2.833916e+000 3.890481e+000 3.700308e+000 2.803427e+000 2.471800e+000 2.395974e+000 2.378094e+000 1.314397e+000 3.495800e-001 2.956111e-001 2.978117e-001 4.131521e-001 5.241163e-001 4.938084e-001 6.604501e-001 6.650541e-001 5.958425e-001 4.711159e-001 4.457355e-001 4.183370e-001 2.188159e-001
<GCONST> 1.212316e+002
<STATE> 3
<MEAN> 39
 -2.257579e+000 -1.766393e+001 -1.350005e+001 -1.523110e+001 -4.706527e+000 -8.079159e-002 -4.765865e+000 -1.861870e+000 2.967483e-001 -4.115773e+000 -5.652297e+000 -5.463322e+000 6.553595e+001 2.548772e-001 3.871637e-001 -4.007384e-001 -4.793693e-001 2.608015e-001 5.689683e-001 -2.204867e-001 -4.817994e-001 -1.739953e-002 2.477083e-001 3.824816e-001 -4.299733e-002 -3.346697e-001 1.490851e-002 1.738303e-001 7.338740e-002 -1.542415e-002 -1.749281e-001 -1.082675e-001 -1.567172e-002 3.265450e-002 -7.881992e-002 7.681046e-002 7.379653e-002 5.804940e-002 -1.260160e-001
<VARIANCE> 39
 1.312912e+001 3.152117e+001 4.000845e+001 5.465637e+001 5.680022e+001 7.924903e+001 8.311488e+001 6.626368e+001 6.589233e+001 5.509321e+001 5.345456e+001 4.511128e+001 2.248398e+001 2.323401e-001 6.892431e-001 7.263915e-001 1.253592e+000 1.507005e+000 1.480305e+000 1.631115e+000 1.632968e+000 1.592788e+000 1.442116e+000 1.460728e+000 1.343483e+000 2.242272e-001 3.850485e-002 9.726619e-002 1.162070e-001 1.727723e-001 2.050884e-001 2.289587e-001 2.667486e-001 2.516392e-001 2.491963e-001 2.130481e-001 2.359543e-001 2.198675e-001 3.724362e-002
<GCONST> 9.694399e+001
<STATE> 4
<MEAN> 39
 -7.079294e-001 -1.173581e+001 -1.445578e+001 -1.916948e+001 -6.880583e+000 1.543984e+000 -6.224570e+000 -3.786577e+000 -1.691834e+000 -2.398657e-001 -2.589171e+000 -4.912691e+000 6.084340e+001 -4.045006e-001 1.598026e+000 9.469013e-001 1.127186e+000 -8.070791e-001 -1.148893e+000 -1.274464e-001 -2.864358e-001 -5.645014e-001 4.538934e-001 1.650701e-001 3.284349e-001 -1.797336e+000 -4.111705e-001 1.596285e-001 3.876208e-001 6.527321e-001 1.187866e-001 -3.084835e-001 8.122750e-002 -3.893146e-002 -9.204196e-002 -1.352223e-001 -1.668603e-001 5.145005e-002 -3.412476e-001
<VARIANCE> 39
 1.231448e+001 4.072235e+001 3.518849e+001 6.937576e+001 6.310752e+001 8.087695e+001 8.700851e+001 5.644386e+001 6.275562e+001 6.310925e+001 7.201751e+001 4.463834e+001 3.605625e+001 1.853361e+000 2.880603e+000 2.686138e+000 5.540838e+000 4.141464e+000 4.013903e+000 4.406279e+000 4.487259e+000 4.098767e+000 3.905112e+000 3.902688e+000 3.241076e+000 2.642046e+000 3.153131e-001 3.979245e-001 3.536821e-001 5.922427e-001 6.974431e-001 6.468468e-001 7.414278e-001 6.890272e-001 6.845677e-001 6.861288e-001 6.466335e-001 5.376896e-001 3.409495e-001
<GCONST> 1.311345e+002
<TRANSP> 5
 0.000000e+000 1.000000e+000 0.000000e+000 0.000000e+000 0.000000e+000
 0.000000e+000 6.983590e-001 3.016410e-001 0.000000e+000 0.000000e+000
 0.000000e+000 0.000000e+000 8.854670e-001 1.145330e-001 0.000000e+000
 0.000000e+000 0.000000e+000 0.000000e+000 7.590391e-001 2.409609e-001
 0.000000e+000 0.000000e+000 0.000000e+000 0.000000e+000 0.000000e+000
<ENDHMM>
~h "ax"
<BEGINHMM>
<NUMSTATES> 5
<STATE> 2
<MEAN> 39
 -1.875531e+000 -1.017285e+001 -8.904645e+000 -1.077670e+001 -8.596195e+000 -9.051213e+000 -1.235218e+001 -9.646894e-001 -1.120411e+000 -5.901700e-001 -3.074388e+000 -2.951109e+000 5.902596e+001 2.181786e+000 -8.670484e-001 -8.326260e-001 -6.013380e-001 -8.426856e-002 -4.629672e-001 -1.903035e+000 4.525034e-001 4.713546e-001 1.045056e-001 -1.709177e-001 -1.873726e-001 6.539907e-001 -6.353707e-001 4.263066e-001 5.368566e-002 2.948540e-001 2.891390e-001 2.806953e-001 4.690494e-001 -9.196213e-002 -2.362547e-001 -1.165457e-001 1.198065e-001 1.489323e-001 -6.133275e-001
<VARIANCE> 39
 2.208032e+001 3.141342e+001 5.668984e+001 6.737679e+001 5.185990e+001 8.333144e+001 6.706974e+001 6.884220e+001 6.070376e+001 5.835874e+001 5.654304e+001 3.863980e+001 2.283058e+001 5.905306e+000 2.935745e+000 4.180554e+000 4.771247e+000 4.767131e+000 5.803418e+000 6.474799e+000 6.049506e+000 5.133677e+000 4.056761e+000 3.960219e+000 3.219800e+000 2.174229e+000 6.605833e-001 4.557193e-001 4.605256e-001 7.445683e-001 6.166078e-001 7.884760e-001 8.877344e-001 7.772068e-001 7.903401e-001 7.366073e-001 6.922635e-001 5.363505e-001 5.965487e-001
<GCONST> 1.360469e+002
<STATE> 3
<MEAN> 39
 -7.900996e-001 -1.128782e+001 -9.504328e+000 -1.187393e+001 -8.345674e+000 -8.282070e+000 -1.374081e+001 1.229291e-001 -7.277651e-001 -1.843430e-001 -3.224659e+000 -3.396865e+000 5.959956e+001 7.097780e-001 1.983489e-001 -5.170469e-001 1.787517e-001 4.717287e-001 -9.682883e-002 -6.055378e-001 8.500988e-004 -8.037718e-002 -1.090129e-001 7.913703e-002 1.112581e-001 -4.771839e-001 -8.203990e-001 7.125736e-001 2.358821e-001 5.155514e-001 2.838799e-001 1.634362e-001 7.398505e-001 -3.344733e-001 -3.523594e-001 -1.795005e-001 7.101710e-002 1.665660e-001 -7.470564e-001
<VARIANCE> 39
 1.649623e+001 2.994735e+001 5.878970e+001 6.900287e+001 5.275854e+001 9.353202e+001 7.755388e+001 7.626891e+001 6.689645e+001 6.407588e+001 6.186443e+001 4.481653e+001 2.091430e+001 2.857600e+000 2.244447e+000 3.260811e+000 3.794118e+000 3.577317e+000 4.196648e+000 5.162228e+000 4.613194e+000 4.126924e+000 3.365950e+000 3.225277e+000 2.690831e+000 1.893680e+000 7.043643e-001 5.093919e-001 4.970523e-001 7.989537e-001 7.059996e-001 9.400047e-001 1.041096e+000 9.728185e-001 8.931082e-001 8.173379e-001 7.710904e-001 6.024873e-001 5.306644e-001
<GCONST> 1.343312e+002
<STATE> 4
<MEAN> 39
 -6.984463e-001 -9.195796e+000 -1.006523e+001 -1.038467e+001 -7.012054e+000 -8.540187e+000 -1.333100e+001 -1.227979e+000 -1.437149e+000 -7.679476e-001 -2.553034e+000 -2.618803e+000 5.722550e+001 -6.075913e-001 1.471783e+000 5.572034e-002 1.197457e+000 9.197479e-001 1.035653e-001 5.747699e-001 -5.041631e-001 -6.282506e-001 -5.239654e-001 9.842928e-003 3.434762e-001 -1.768850e+000 -8.129590e-001 3.762974e-001 3.150709e-001 3.092827e-001 9.551688e-002 2.241183e-001 6.496424e-001 -1.090271e-001 -1.787551e-001 -1.104728e-001 -4.853080e-002 5.068905e-002 -4.255281e-001
<VARIANCE> 39
 1.981341e+001 3.573552e+001 6.120461e+001 6.448428e+001 5.322534e+001 9.230620e+001 8.335190e+001 8.220627e+001 6.887978e+001 5.993229e+001 5.593078e+001 4.093207e+001 2.465723e+001 3.699953e+000 3.398662e+000 3.523421e+000 5.534058e+000 3.892036e+000 4.601441e+000 5.988287e+000 5.169416e+000 5.235974e+000 4.193238e+000 3.871558e+000 3.011322e+000 4.614159e+000 5.990624e-001 4.643032e-001 5.209443e-001 6.089760e-001 6.381241e-001 8.397450e-001 9.542361e-001 9.217320e-001 7.605532e-001 7.185555e-001 6.783178e-001 5.444129e-001 3.952701e-001
<GCONST> 1.363046e+002
<TRANSP> 5
 0.000000e+000 1.000000e+000 0.000000e+000 0.000000e+000 0.000000e+000
 0.000000e+000 9.622521e-002 9.037748e-001 0.000000e+000 0.000000e+000
 0.000000e+000 0.000000e+000 2.375456e-001 7.624543e-001 0.000000e+000
 0.000000e+000 0.000000e+000 0.000000e+000 1.843769e-001 8.156231e-001
 0.000000e+000 0.000000e+000 0.000000e+000 0.000000e+000 0.000000e+000
<ENDHMM>
~h "ay"
<BEGINHMM>
<NUMSTATES> 5
<STATE> 2
<MEAN> 39
 -1.503011e+000 -1.607969e+001 -1.402872e+001 -1.786681e+001 -5.311111e+000 1.064660e+000 -5.433506e+000 -2.189128e+000 2.729941e-001 -3.917099e-001 -4.355451e+000 -7.439692e+000 6.495760e+001 1.762355e-001 -1.728652e+000 -1.241397e-001 1.486265e-001 3.372916e-001 1.433243e-001 2.867895e-002 5.947140e-001 7.984045e-001 -4.779078e-001 -8.845986e-001 -5.376360e-001 1.074795e+000 -4.474272e-001 4.989091e-001 4.624972e-001 5.235671e-001 -9.448102e-002 -4.770470e-001 9.171383e-002 1.009204e-001 -2.530757e-001 -1.755879e-001 9.020437e-002 4.282069e-001 -4.874879e-001
<VARIANCE> 39
 1.112847e+001 3.065305e+001 3.476760e+001 5.086492e+001 5.363199e+001 8.099561e+001 6.549680e+001 6.414168e+001 6.126638e+001 6.143053e+001 6.875878e+001 4.358140e+001 1.929134e+001 1.608848e+000 1.860948e+000 2.640171e+000 3.801948e+000 3.156872e+000 4.765452e+000 3.353981e+000 4.033054e+000 3.152633e+000 2.847253e+000 2.920454e+000 3.131746e+000 1.258890e+000 4.104773e-001 2.853079e-001 3.200749e-001 5.419714e-001 6.312824e-001 6.073000e-001 6.265079e-001 6.892433e-001 6.026542e-001 5.667132e-001 6.622350e-001 5.366270e-001 2.089057e-001
<GCONST> 1.248921e+002
<STATE> 3
<MEAN> 39
 -2.667973e+000 -1.830817e+001 -1.220019e+001 -1.387783e+001 -5.881939e+000 -2.714128e+000 -4.427111e+000 6.134869e-001 8.451219e-001 -4.291371e+000 -6.576513e+000 -5.633209e+000 6.564528e+001 -2.281721e-001 6.935583e-002 8.119792e-001 4.211654e-001 -8.134266e-001 -9.776925e-001 2.294935e-001 7.879390e-001 -1.844504e-001 -3.255508e-001 1.368911e-004 3.777200e-001 -5.500145e-002 -5.504275e-003 2.440565e-001 1.338710e-001 -4.770735e-002 -1.928072e-001 -9.702970e-002 -1.500881e-002 -5.500889e-002 -1.604885e-001 1.156892e-001 1.854600e-001 6.234644e-002 -1.401850e-001
<VARIANCE> 39
 1.186033e+001 2.954350e+001 4.021849e+001 4.089588e+001 5.980879e+001 7.496084e+001 6.901081e+001 7.149750e+001 7.365324e+001 5.203862e+001 4.718963e+001 4.802669e+001 2.078809e+001 2.447015e-001 7.551588e-001 1.223582e+000 1.282686e+000 2.029959e+000 2.065014e+000 2.023215e+000 2.206429e+000 1.686077e+000 1.566427e+000 1.631868e+000 1.513169e+000 2.139968e-001 3.934481e-002 1.237319e-001 1.357231e-001 1.677938e-001 2.473207e-001 2.334205e-001 2.796999e-001 3.389798e-001 3.069161e-001 2.735019e-001 2.868392e-001 2.645886e-001 4.752760e-002
<GCONST> 1.004726e+002
<STATE> 4
<MEAN> 39
 -5.119275e+000 -1.261766e+001 -2.246463e+000 -1.195653e+001 -1.544071e+001 -1.141381e+001 -3.136083e+000 3.531415e+000 -4.092942e+000 -2.436512e+000 -3.540778e+000 -2.296127e+000 6.185149e+001 -7.417586e-001 2.275227e+000 1.371511e+000 1.266175e+000 -3.503402e-001 -5.762344e-001 -2.241085e-001 -1.175963e+000 -1.192975e+000 4.305309e-001 7.925181e-001 4.020824e-001 -2.326360e+000 -3.029237e-001 3.010069e-001 -4.480253e-001 2.753762e-001 8.519632e-001 6.149314e-001 -5.151663e-002 -4.657907e-001 1.620886e-001 1.196494e-002 -1.542269e-001 -1.623985e-001 -6.073854e-001
<VARIANCE> 39
 1.313487e+001 4.352593e+001 5.209481e+001 5.983710e+001 5.545259e+001 5.936156e+001 7.588372e+001 7.489582e+001 7.507830e+001 4.991718e+001 5.439897e+001 3.676491e+001 3.914583e+001 1.768015e+000 2.578115e+000 3.334452e+000 4.563967e+000 6.761950e+000 4.790674e+000 4.830091e+000 5.137436e+000 5.152033e+000 4.299009e+000 3.807416e+000 3.679402e+000 4.297526e+000 3.496965e-001 5.010288e-001 5.389814e-001 6.559350e-001 7.616435e-001 7.487399e-001 8.470061e-001 1.068150e+000 1.005442e+000 7.708960e-001 7.116766e-001 5.807608e-001 4.332183e-001
<GCONST> 1.350183e+002
<TRANSP> 5
 0.000000e+000 1.000000e+000 0.000000e+000 0.000000e+000 0.000000e+000
 0.000000e+000 6.575786e-001 3.424213e-001 0.000000e+000 0.000000e+000
 0.000000e+000 0.000000e+000 8.641261e-001 1.358739e-001 0.000000e+000
 0.000000e+000 0.000000e+000 0.000000e+000 7.484989e-001 2.515011e-001
 0.000000e+000 0.000000e+000 0.000000e+000 0.000000e+000 0.000000e+000
<ENDHMM>
~h "ch"
<BEGINHMM>
<NUMSTATES> 5
<STATE> 2
<MEAN> 39
 -2.982033e+001 -5.824397e+000 1.051158e+000 -1.245166e+001 -4.057431e+000 1.591640e+000 -3.769682e+000 2.085363e-001 9.357759e-002 -1.245311e+000 4.511436e-001 1.009492e-001 5.687025e+001 -2.076180e+000 8.470286e-001 1.244865e+000 -1.531834e-001 -7.298669e-001 -1.654243e-003 8.027992e-001 1.453982e-001 2.182343e-001 4.481960e-002 1.413833e-001 9.990762e-002 2.863113e+000 8.504394e-001 1.711529e-001 -2.002133e-002 7.510644e-001 -1.742735e-001 -4.711757e-001 1.004087e-001 -1.050605e-001 -2.974743e-001 -4.123489e-002 -2.343856e-001 -1.139256e-001 -9.073478e-001
<VARIANCE> 39
 2.275186e+001 3.294879e+001 3.396846e+001 2.629090e+001 3.535285e+001 2.152368e+001 2.176882e+001 2.217482e+001 1.872388e+001 1.503124e+001 1.266933e+001 1.043683e+001 2.342546e+001 2.963441e+000 3.092449e+000 2.626786e+000 2.904503e+000 2.490505e+000 2.469733e+000 2.141612e+000 2.151621e+000 1.735821e+000 1.809274e+000 1.436580e+000 1.346026e+000 3.762919e+000 6.929409e-001 7.403066e-001 6.486014e-001 6.200202e-001 5.098281e-001 4.762599e-001 4.858392e-001 4.630510e-001 3.886367e-001 3.811136e-001 3.219233e-001 2.898185e-001 7.040918e-001
<GCONST> 1.131862e+002
<STATE> 3
<MEAN> 39
 -3.046842e+001 -6.003507e+000 2.892910e+000 -1.067592e+001 -7.731026e+000 -6.869242e-001 -8.636249e-001 -3.810078e-001 -5.870270e-001 -8.134945e-001 -2.275695e-001 1.469958e-001 6.097321e+001 1.314330e+000 -4.490818e-001 -1.632127e-001 6.115734e-001 -8.336187e-001 -1.060959e+000 1.999005e-001 -3.652734e-002 -3.447909e-001 -8.696537e-002 -2.854315e-001 -1.199653e-001 3.045586e-002 1.018651e+000 -1.442790e-001 -2.557965e-001 1.275756e-001 8.382897e-002 -2.743248e-001 -3.891959e-001 -1.653454e-002 -1.413619e-001 -1.527350e-001 -1.201952e-001 -7.823481e-002 -6.834353e-001
<VARIANCE> 39
 1.364275e+001 2.430227e+001 2.268196e+001 2.340117e+001 3.876664e+001 2.235267e+001 2.306614e+001 2.162245e+001 1.929942e+001 1.721869e+001 1.575787e+001 1.375924e+001 1.398556e+001 2.545517e+000 1.254854e+000 1.906090e+000 1.860351e+000 2.319449e+000 2.245287e+000 1.867467e+000 2.047010e+000 1.640595e+000 1.642796e+000 1.559029e+000 1.279381e+000 1.948215e+000 5.438149e-001 2.993408e-001 4.503261e-001 3.354092e-001 4.736463e-001 4.703514e-001 4.744593e-001 4.131829e-001 3.822552e-001 3.758656e-001 3.441099e-001 2.941460e-001 3.543924e-001
<GCONST> 1.062177e+002
<STATE> 4
<MEAN> 39
 -1.849231e+001 -8.362424e+000 1.060550e+000 -7.066869e+000 -1.028724e+001 -6.906700e+000 -3.249203e+000 -2.369903e-001 -2.493876e+000 -2.800483e+000 -2.061581e+000 -9.290492e-001 5.800865e+001 4.970279e+000 -6.244335e-001 -6.615043e-001 2.172635e-001 -6.437511e-001 -1.800625e+000 -2.090599e+000 1.089354e-001 -7.923887e-001 -7.345282e-001 -5.319452e-001 -3.889926e-001 -6.976763e-001 6.881827e-002 -1.440771e-001 -2.139425e-001 -5.143096e-001 1.073703e-001 3.482990e-001 -4.030631e-001 8.811724e-002 7.674193e-002 1.523549e-001 1.609479e-001 -8.648400e-003 1.812287e-001
<VARIANCE> 39
 6.913516e+001 2.455862e+001 3.118987e+001 3.698619e+001 3.976171e+001 3.754031e+001 4.023467e+001 3.055523e+001 3.258103e+001 2.408089e+001 2.436532e+001 1.754276e+001 2.482331e+001 4.108655e+000 2.940960e+000 4.235503e+000 3.930047e+000 5.896843e+000 5.879797e+000 6.551349e+000 4.626382e+000 4.791559e+000 3.829234e+000 3.730002e+000 2.656139e+000 4.330126e+000 1.135909e+000 4.341548e-001 4.980808e-001 4.973188e-001 7.280310e-001 7.795376e-001 9.763037e-001 7.558803e-001 6.959194e-001 6.239733e-001 5.431159e-001 4.120765e-001 5.941662e-001
<GCONST> 1.296276e+002
<TRANSP> 5
 0.000000e+000 1.000000e+000 0.000000e+000 0.000000e+000 0.000000e+000
 0.000000e+000 5.671569e-001 4.328431e-001 0.000000e+000 0.000000e+000
 0.000000e+000 0.000000e+000 7.320058e-001 2.679942e-001 0.000000e+000
 0.000000e+000 0.000000e+000 0.000000e+000 6.152231e-001 3.847769e-001
 0.000000e+000 0.000000e+000 0.000000e+000 0.000000e+000 0.000000e+000
<ENDHMM>
~h "dh"
<BEGINHMM>
<NUMSTATES> 5
<STATE> 2
<MEAN> 39
 -1.545934e+001 -9.547460e-001 -5.903015e+000 -3.319987e+000 -3.688376e+000 -4.071143e+000 -3.926315e+000 -3.008526e+000 -2.171283e+000 -1.128381e+000 -2.769660e+000 -2.112206e+000 4.418533e+001 7.518536e-001 -3.276377e-001 -1.499352e-001 -5.613528e-001 -7.732449e-001 -8.426328e-001 -3.602382e-001 1.177156e-001 3.040122e-001 -2.137782e-001 -1.458457e-001 -1.415798e-002 2.396732e+000 6.471505e-001 -5.359158e-001 -8.491916e-003 -5.378931e-001 -6.099894e-001 -4.775488e-001 -3.211650e-001 1.620525e-001 1.479712e-001 8.855902e-002 -1.389665e-002 7.026120e-003 1.054181e+000
<VARIANCE> 39
 4.612336e+001 2.621551e+001 2.282048e+001 2.631989e+001 2.279611e+001 3.111506e+001 3.969090e+001 3.775817e+001 2.958261e+001 2.482868e+001 2.615155e+001 2.544168e+001 7.014630e+001 4.922012e+000 2.889318e+000 3.026106e+000 3.565551e+000 3.553109e+000 4.029181e+000 3.862810e+000 3.609135e+000 3.323616e+000 2.671069e+000 2.597539e+000 2.658384e+000 1.011625e+001 6.877155e-001 6.709464e-001 7.135122e-001 7.473384e-001 6.434623e-001 7.254119e-001 8.341255e-001 7.540837e-001 7.033392e-001 5.978109e-001 5.942919e-001 5.563928e-001 1.165481e+000
<GCONST> 1.287114e+002
<STATE> 3
<MEAN> 39
 -1.151206e+001 -3.190046e+000 -7.489309e+000 -6.877562e+000 -7.899948e+000 -8.355778e+000 -5.487638e+000 -2.537538e+000 -7.206685e-001 -1.556501e+000 -2.890603e+000 -1.619989e+000 5.519700e+001 2.838457e+000 -1.293899e+000 5.250714e-001 -1.707223e+000 -2.303853e+000 -2.158825e+000 -1.772623e+000 3.478636e-001 4.677402e-001 5.461837e-002 -4.630229e-001 -3.516966e-001 4.245903e+000 1.789282e-001 -3.442153e-001 4.371495e-001 -1.372952e-001 -1.046337e-001 1.704383e-001 -1.472619e-001 1.591176e-001 -1.686533e-001 1.900113e-001 -2.726146e-002 -8.231164e-002 -5.206996e-001
<VARIANCE> 39
 3.030481e+001 2.331387e+001 2.493425e+001 2.453979e+001 2.591293e+001 3.154974e+001 4.230054e+001 3.206594e+001 2.904825e+001 2.693645e+001 2.414856e+001 2.579616e+001 2.787775e+001 3.925040e+000 3.521265e+000 4.371045e+000 4.083531e+000 4.307732e+000 4.956644e+000 5.412561e+000 5.285589e+000 5.481410e+000 4.059865e+000 4.199028e+000 3.831593e+000 5.090345e+000 5.407765e-001 4.918855e-001 5.614145e-001 5.578509e-001 5.419607e-001 6.151046e-001 7.200324e-001 6.511527e-001 6.162544e-001 5.354992e-001 5.895796e-001 4.714664e-001 7.667578e-001
<GCONST> 1.274330e+002
<STATE> 4
<MEAN> 39
 -5.592743e+000 -6.668849e+000 -5.276047e+000 -1.027175e+001 -1.229827e+001 -1.240372e+001 -9.689160e+000 -1.771042e+000 -8.321240e-002 -5.500441e-001 -4.225856e+000 -2.990094e+000 6.070435e+001 1.995728e+000 -2.066389e+000 8.744331e-001 -1.812457e+000 -1.869646e+000 -1.135648e+000 -1.176206e+000 8.574751e-001 1.079690e-001 2.985008e-001 -3.226916e-001 -2.434284e-001 2.620356e+000 -6.919298e-001 1.291526e-001 5.899870e-002 3.582206e-001 5.714477e-001 7.653584e-001 5.514223e-001 3.399801e-002 -3.360208e-001 -6.737316e-002 1.186826e-001 9.424383e-002 -1.149434e+000
<VARIANCE> 39
 1.354068e+001 2.873002e+001 3.888111e+001 4.227075e+001 4.462968e+001 4.713380e+001 5.897270e+001 4.851015e+001 5.427229e+001 4.485521e+001 3.899162e+001 3.839393e+001 2.376801e+001 2.937283e+000 2.807039e+000 4.015260e+000 3.788245e+000 4.090072e+000 4.936554e+000 6.203894e+000 5.036144e+000 5.080826e+000 3.833511e+000 4.480473e+000 3.360420e+000 2.873456e+000 5.129452e-001 3.828383e-001 4.492345e-001 5.612921e-001 6.007670e-001 5.878015e-001 6.549323e-001 6.555500e-001 6.766471e-001 5.788859e-001 5.240701e-001 5.476991e-001 5.985762e-001
<GCONST> 1.293575e+002
<TRANSP> 5
 0.000000e+000 1.000000e+000 0.000000e+000 0.000000e+000 0.000000e+000
 0.000000e+000 5.957121e-001 4.042879e-001 0.000000e+000 0.000000e+000
 0.000000e+000 0.000000e+000 2.760082e-001 7.239918e-001 0.000000e+000
 0.000000e+000 0.000000e+000 0.000000e+000 2.357608e-001 7.642392e-001
 0.000000e+000 0.000000e+000 0.000000e+000 0.000000e+000 0.000000e+000
<ENDHMM>
~h "ea"
<BEGINHMM>
<NUMSTATES> 5
<STATE> 2
<MEAN> 39
