~h "aa"
<BEGINHMM>
<NUMSTATES> 5
<STATE> 2
<MEAN> 39
 -1.015834e+000 -1.584422e+001 -1.318415e+001 -1.665193e+001 -8.110975e+000 -1.170740e+000 -7.014269e+000 7.193524e-001 -1.323614e+000 -7.546433e-001 -2.725008e+000 -6.185179e+000 6.501771e+001 8.951251e-001 -1.471159e+000 -1.530498e+000 -8.776855e-001 8.714369e-001 1.422849e+000 3.461189e-001 -2.599373e-002 1.932860e-001 -9.650397e-002 6.904193e-002 -6.426785e-001 9.701149e-001 -5.569850e-001 3.979173e-001 2.770438e-001 4.564134e-001 2.957422e-001 -6.183132e-002 2.135237e-001 -2.389791e-001 -1.309405e-001 -1.012531e-001 6.086968e-002 3.066512e-001 -5.234137e-001
<VARIANCE> 39
 1.300907e+001 3.122302e+001 4.336227e+001 5.868625e+001 5.882680e+001 9.328633e+001 8.190002e+001 8.168035e+001 7.177690e+001 5.611227e+001 7.536591e+001 4.238307e+001 2.058852e+001 1.937532e+000 1.953225e+000 2.854336e+000 3.433445e+000 3.921796e+000 3.782640e+000 4.533839e+000 4.568810e+000 3.934502e+000 3.294555e+000 3.443324e+000 3.215031e+000 1.248559e+000 3.840548e-001 3.052361e-001 3.587286e-001 5.042772e-001 6.365068e-001 7.906631e-001 9.054365e-001 8.673934e-001 7.009507e-001 6.232327e-001 6.829401e-001 5.183336e-001 2.533874e-001
<GCONST> 1.288474e+002
<STATE> 3
<MEAN> 39
 -2.107242e-001 -1.708735e+001 -1.697810e+001 -1.727418e+001 -3.906705e+000 1.912072e+000 -5.316290e+000 -1.559314e+000 -1.348138e+000 -2.258807e+000 -2.289096e+000 -6.089014e+000 6.502706e+001 3.220922e-002 -8.866374e-002 -2.134408e-001 3.875539e-001 2.952791e-001 -4.417365e-001 -2.512322e-001 2.316399e-001 2.017390e-001 -1.585575e-001 -1.578665e-001 -1.116540e-002 -3.608582e-002 -2.534262e-002 1.958283e-001 1.748518e-001 1.085351e-001 -1.916096e-001 -3.063993e-001 -1.383697e-001 1.337106e-001 1.776031e-003 2.668929e-002 -5.890452e-002 6.176504e-002 -1.533486e-001
<VARIANCE> 39
 1.284536e+001 3.157875e+001 3.482126e+001 5.795901e+001 5.612197e+001 8.710767e+001 8.127090e+001 8.747285e+001 7.517139e+001 5.440619e+001 6.469693e+001 4.371421e+001 1.995643e+001 2.443487e-001 7.109415e-001 8.529938e-001 1.375149e+000 1.457914e+000 2.035069e+000 2.040778e+000 1.977095e+000 1.557078e+000 1.463922e+000 1.422423e+000 1.358122e+000 2.475191e-001 5.000000e-002 1.107023e-001 1.354847e-001 1.877173e-001 2.137846e-001 2.426274e-001 3.092729e-001 2.892395e-001 2.703769e-001 2.589479e-001 2.386861e-001 2.301465e-001 5.167091e-002
<GCONST> 1.001265e+002
<STATE> 4
<MEAN> 39
 -1.297027e+000 -1.509456e+001 -1.435198e+001 -1.424773e+001 -5.756841e+000 -3.166830e+000 -6.379796e+000 5.390125e-001 -5.939271e-001 -1.970575e+000 -4.564300e+000 -6.041481e+000 6.278261e+001 -8.496913e-001 1.943778e+000 1.499160e+000 1.667572e+000 -4.630013e-001 -1.561111e+000 -4.803744e-001 3.483935e-001 -2.743636e-001 4.245194e-002 -1.023839e-001 7.369710e-001 -2.178786e+000 -5.740155e-001 4.318879e-001 4.194127e-001 3.560039e-001 1.726595e-001 1.664698e-001 1.083204e-001 -3.302203e-001 -1.791068e-001 6.937305e-003 1.607789e-001 1.859992e-001 -5.876272e-001
<VARIANCE> 39
 1.503284e+001 3.766732e+001 4.396167e+001 5.440723e+001 5.356726e+001 8.917775e+001 8.266366e+001 7.886469e+001 7.400301e+001 5.891071e+001 6.638351e+001 4.736936e+001 3.119910e+001 3.064416e+000 3.490655e+000 3.289296e+000 4.152947e+000 4.059325e+000 4.297363e+000 5.065024e+000 5.283073e+000 4.452963e+000 4.139445e+000 3.857497e+000 3.411138e+000 4.186366e+000 4.790921e-001 4.828321e-001 4.033202e-001 6.173058e-001 6.308756e-001 8.338791e-001 7.768965e-001 8.176689e-001 7.200288e-001 7.247102e-001 6.514457e-001 5.728924e-001 5.019104e-001
<GCONST> 1.347016e+002
<TRANSP> 5
 0.000000e+000 1.000000e+000 0.000000e+000 0.000000e+000 0.000000e+000
 0.000000e+000 6.357028e-001 3.642972e-001 0.000000e+000 0.000000e+000
 0.000000e+000 0.000000e+000 8.584294e-001 1.415706e-001 0.000000e+000
 0.000000e+000 0.000000e+000 0.000000e+000 6.319679e-001 3.680321e-001
 0.000000e+000 0.000000e+000 0.000000e+000 0.000000e+000 0.000000e+000
<ENDHMM>
~o
<STREAMINFO> 1 39
<VECSIZE> 39<NULLD><MFCC_D_A_0><DIAGC>
~h "ae"
<BEGINHMM>
<NUMSTATES> 5
<STATE> 2
<MEAN> 39
 -4.419503e+000 -1.664801e+001 -5.088159e+000 -1.361103e+001 -1.483213e+001 -7.992369e+000 -3.951526e+000 5.612437e+000 -1.938007e+000 -3.126866e+000 -5.334407e+000 -4.702623e+000 6.609323e+001 -4.343712e-002 -1.286962e+000 4.423000e-003 -7.632280e-001 -1.625649e-001 5.448923e-001 8.696600e-001 9.387900e-001 1.139744e-001 -6.131806e-001 -3.674652e-001 -1.457442e-001 1.120386e+000 -2.944721e-001 4.835435e-001 -7.756585e-002 3.198090e-001 4.348072e-001 1.596515e-001 1.053861e-001 -4.525715e-001 -1.061768e-001 3.851926e-002 8.125445e-002 1.575934e-001 -5.289249e-001
<VARIANCE> 39
 1.454717e+001 3.013205e+001 4.799240e+001 4.777644e+001 5.103757e+001 5.681466e+001 7.811935e+001 6.381778e+001 8.458128e+001 4.899464e+001 4.824877e+001 3.897916e+001 2.005069e+001 1.051357e+000 1.853860e+000 2.125419e+000 2.161254e+000 2.651649e+000 2.678785e+000 3.425653e+000 3.760840e+000 2.965255e+000 2.610486e+000 2.418349e+000 2.252743e+000 1.032058e+000 3.018004e-001 2.667783e-001 3.061590e-001 3.779377e-001 4.654270e-001 4.921568e-001 6.357422e-001 5.557497e-001 5.689542e-001 4.894483e-001 4.622248e-001 3.906660e-001 2.178888e-001
<GCONST> 1.196293e+002
<STATE> 3
<MEAN> 39
 -4.899952e+000 -1.729290e+001 -6.742418e+000 -1.328233e+001 -1.282623e+001 -6.512672e+000 -7.313735e-001 4.710819e+000 -2.154116e+000 -5.163409e+000 -6.403035e+000 -4.057342e+000 6.609054e+001 3.127649e-003 3.167612e-002 -1.761368e-001 5.517685e-002 2.281729e-001 9.606499e-003 2.125449e-002 -6.612386e-002 9.484119e-003 -7.707143e-002 -9.028052e-002 2.213436e-002 -8.036541e-002 2.946901e-002 1.921725e-001 1.526826e-002 6.795647e-002 -5.305727e-003 -1.283433e-001 -1.762924e-001 -7.223759e-002 -1.603580e-002 1.166598e-001 5.994765e-002 3.544442e-004 -1.722489e-001
<VARIANCE> 39
 1.294975e+001 3.034489e+001 4.713482e+001 4.334917e+001 5.484146e+001 5.525513e+001 6.248602e+001 6.220358e+001 8.595756e+001 4.369980e+001 4.171748e+001 4.180320e+001 2.306571e+001 2.511167e-001 6.287096e-001 9.385217e-001 8.316132e-001 1.222569e+000 1.274332e+000 1.454081e+000 1.319287e+000 1.250173e+000 1.213258e+000 1.166373e+000 9.759367e-001 2.362649e-001 5.000000e-002 1.186999e-001 1.336315e-001 1.472428e-001 1.883115e-001 1.928220e-001 2.232609e-001 2.337369e-001 2.219405e-001 2.019454e-001 2.000895e-001 1.758572e-001 5.586841e-002
<GCONST> 9.383204e+001
<STATE> 4
<MEAN> 39
 -4.615324e+000 -1.375970e+001 -6.441851e+000 -1.195977e+001 -1.220606e+001 -9.503472e+000 -3.634421e+000 4.048971e+000 -2.571462e+000 -3.393507e+000 -5.682384e+000 -3.976443e+000 6.267497e+001 -7.301815e-001 2.533981e+000 6.203747e-001 1.335265e+000 6.520426e-001 -3.792102e-001 -6.503081e-001 -1.096785e+000 -5.998058e-001 5.169002e-001 4.851584e-001 1.922874e-001 -2.678717e+000 -5.682203e-001 4.967328e-001 1.322394e-001 4.032605e-001 3.867198e-001 3.445740e-001 1.499533e-001 -3.393406e-001 -1.010287e-001 -3.259916e-002 9.084500e-002 6.876831e-002 -6.755733e-001
<VARIANCE> 39
 1.299226e+001 3.677359e+001 6.048889e+001 4.634647e+001 6.025041e+001 6.273190e+001 7.149319e+001 6.623885e+001 8.134561e+001 5.713266e+001 6.268415e+001 4.512147e+001 4.104007e+001 3.073536e+000 3.419916e+000 3.041071e+000 3.584233e+000 4.316641e+000 4.226816e+000 4.640695e+000 4.825122e+000 5.085826e+000 4.093920e+000 3.801969e+000 3.180369e+000 4.132130e+000 4.721786e-001 5.100405e-001 5.025840e-001 5.370075e-001 6.587123e-001 7.158191e-001 7.543449e-001 7.801647e-001 8.545538e-001 7.772079e-001 7.739658e-001 5.581141e-001 4.911421e-001
<GCONST> 1.343174e+002
<TRANSP> 5
 0.000000e+000 1.000000e+000 0.000000e+000 0.000000e+000 0.000000e+000
 0.000000e+000 5.964264e-001 4.035736e-001 0.000000e+000 0.000000e+000
 0.000000e+000 0.000000e+000 8.775257e-001 1.224743e-001 0.000000e+000
 0.000000e+000 0.000000e+000 0.000000e+000 7.341700e-001 2.658300e-001
 0.000000e+000 0.000000e+000 0.000000e+000 0.000000e+000 0.000000e+000
<ENDHMM>
~o
<STREAMINFO> 1 39
<VECSIZE> 39<NULLD><MFCC_D_A_0><DIAGC>
~h "ah"
<BEGINHMM>
<NUMSTATES> 5
<STATE> 2
<MEAN> 39
 -3.426054e+000 -1.273726e+001 -8.657540e+000 -1.550352e+001 -9.315475e+000 -4.622323e+000 -1.059501e+001 2.182892e-002 -1.380624e-001 2.066833e-001 -4.131946e+000 -5.565350e+000 6.353074e+001 1.361543e+000 -1.703689e+000 -5.633982e-001 -1.209889e+000 -1.872647e-001 6.066332e-001 -8.280403e-001 6.491764e-001 9.353410e-001 9.131553e-002 -5.594932e-001 -9.261467e-001 1.371256e+000 -7.551304e-001 5.190132e-001 1.333124e-001 5.339154e-001 4.024134e-001 6.480275e-002 5.169951e-001 -1.814240e-001 -2.565872e-001 -1.160576e-001 1.031384e-001 2.754848e-001 -7.264369e-001
<VARIANCE> 39
 2.414024e+001 3.425253e+001 5.027514e+001 5.369371e+001 5.528928e+001 8.784528e+001 6.773692e+001 6.450353e+001 6.030477e+001 6.343249e+001 7.979967e+001 4.600117e+001 2.923897e+001 3.771256e+000 2.901218e+000 3.092185e+000 4.534825e+000 4.621222e+000 5.460151e+000 4.973807e+000 5.068583e+000 4.685455e+000 4.201741e+000 4.443148e+000 3.498274e+000 2.760871e+000 5.878210e-001 4.472184e-001 4.876179e-001 6.683241e-001 6.988440e-001 9.793536e-001 8.646567e-001 8.917989e-001 7.815325e-001 7.368755e-001 8.427023e-001 6.376891e-001 4.669365e-001
<GCONST> 1.361962e+002
<STATE> 3
<MEAN> 39
 -2.859576e+000 -1.454960e+001 -1.040099e+001 -1.652372e+001 -7.123193e+000 -3.195636e+000 -9.733790e+000 7.054704e-001 1.008330e+000 -8.744874e-001 -5.670129e+000 -6.130891e+000 6.449432e+001 2.744104e-002 3.719121e-001 9.800390e-002 2.085589e-001 1.226663e-001 -2.091140e-001 -2.726230e-002 -1.905039e-001 -1.403425e-001 -1.637612e-002 -4.631746e-002 5.515737e-002 -4.401231e-001 -1.900881e-001 5.232882e-001 2.316261e-001 3.647302e-001 -4.485607e-002 -1.918492e-001 1.020091e-001 -2.668180e-001 -3.415920e-001 2.604224e-002 1.373707e-001 1.954495e-001 -5.310552e-001
<VARIANCE> 39
 1.462162e+001 2.999139e+001 3.932318e+001 5.078817e+001 5.159680e+001 8.303225e+001 7.001777e+001 5.854519e+001 6.568163e+001 7.009964e+001 6.835045e+001 5.069334e+001 2.719390e+001 6.047296e-001 1.253372e+000 1.584713e+000 1.839661e+000 2.065765e+000 2.850585e+000 2.383462e+000 2.622622e+000 2.330893e+000 2.156458e+000 2.256543e+000 2.049609e+000 1.104127e+000 2.353553e-001 2.828915e-001 2.562558e-001 3.782505e-001 4.087754e-001 5.004179e-001 5.526257e-001 5.707362e-001 5.167341e-001 4.585459e-001 4.247096e-001 4.164450e-001 2.482726e-001
<GCONST> 1.172239e+002
<STATE> 4
<MEAN> 39
 -3.485263e+000 -9.537702e+000 -7.929211e+000 -1.327632e+001 -7.967681e+000 -6.375834e+000 -1.013473e+001 -1.593265e+000 -1.304529e+000 1.598507e-002 -4.099884e+000 -4.538455e+000 5.921690e+001 -1.385563e+000 2.770614e+000 1.179180e+000 2.344426e+000 6.207791e-001 -2.491768e-001 7.964100e-001 -1.367184e+000 -1.451790e+000 -4.239044e-001 2.063511e-001 6.889215e-001 -3.223616e+000 -7.254180e-001 2.221348e-001 9.987209e-002 3.223842e-001 2.484902e-001 3.304823e-001 4.327153e-001 -6.140409e-002 -1.097989e-001 -1.286242e-001 -1.900462e-002 5.720711e-002 -3.938908e-001
<VARIANCE> 39
 2.341701e+001 4.013051e+001 4.652502e+001 5.874141e+001 5.067597e+001 8.047054e+001 6.687231e+001 6.588410e+001 6.279453e+001 6.900004e+001 7.199594e+001 4.671816e+001 4.720236e+001 3.987552e+000 3.136312e+000 3.212806e+000 4.473898e+000 4.957006e+000 5.844472e+000 5.685443e+000 5.919328e+000 5.706756e+000 5.532911e+000 4.930838e+000 4.161542e+000 4.775899e+000 5.357168e-001 6.509347e-001 4.809371e-001 8.025786e-001 6.576260e-001 8.949159e-001 7.977157e-001 1.067802e+000 8.277206e-001 8.447195e-001 8.390548e-001 6.357127e-001 7.480526e-001
<GCONST> 1.396279e+002
<TRANSP> 5
 0.000000e+000 1.000000e+000 0.000000e+000 0.000000e+000 0.000000e+000
 0.000000e+000 4.255522e-001 5.744477e-001 0.000000e+000 0.000000e+000
 0.000000e+000 0.000000e+000 7.537753e-001 2.462247e-001 0.000000e+000
 0.000000e+000 0.000000e+000 0.000000e+000 5.030764e-001 4.969236e-001
 0.000000e+000 0.000000e+000 0.000000e+000 0.000000e+000 0.000000e+000
<ENDHMM>
~o
<STREAMINFO> 1 39
<VECSIZE> 39<NULLD><MFCC_D_A_0><DIAGC>
~h "ao"
<BEGINHMM>
<NUMSTATES> 5
<STATE> 2
<MEAN> 39
 6.536419e-001 -9.283373e+000 -1.379420e+001 -2.180898e+001 -1.144102e+001 2.053269e+000 -4.292530e+000 -2.189790e+000 -4.810906e+000 -1.046709e+000 3.156531e-001 -3.427268e+000 6.049012e+001 7.100848e-001 -5.780385e-001 -7.013549e-001 -1.462180e+000 3.921667e-002 1.320831e+000 5.225874e-001 -9.782714e-002 -1.695962e-001 -1.588091e-001 3.579094e-001 5.905777e-002 8.374265e-001 -4.805745e-001 1.177513e-001 1.309983e-001 5.693319e-001 3.690276e-001 -2.438708e-001 -3.150561e-002 3.520387e-002 1.154436e-001 -7.048410e-002 -8.074751e-002 1.570033e-001 -3.150307e-001
<VARIANCE> 39
 1.200749e+001 4.651043e+001 3.981413e+001 6.469312e+001 7.836256e+001 7.741929e+001 8.733097e+001 6.802491e+001 7.300494e+001 7.152757e+001 7.151621e+001 4.572740e+001 2.697312e+001 1.796021e+000 2.175647e+000 2.387846e+000 4.248346e+000 4.460835e+000 4.129213e+000 4.191023e+000 3.917388e+000 3.837411e+000 3.635087e+000 3.423331e+000 3.021085e+000 1.428422e+000 4.500224e-001 3.694018e-001 3.551640e-001 5.543113e-001 6.454162e-001 6.324663e-001 8.261561e-001 6.768451e-001 7.750729e-001 6.466829e-001 6.512074e-001 5.102390e-001 2.470085e-001
<GCONST> 1.298367e+002
<STATE> 3
<MEAN> 39
 8.294933e-001 -1.048404e+001 -1.536438e+001 -2.489639e+001 -8.948470e+000 5.968005e+000 -1.850746e+000 -3.539432e+000 -3.590749e+000 -2.586361e+000 1.130636e-001 -2.779190e+000 6.192396e+001 -2.287033e-002 -1.900654e-001 -1.321658e-001 2.570277e-001 3.990862e-001 -1.582730e-001 -2.676891e-001 -2.936327e-002 1.537215e-001 8.252022e-002 2.322063e-002 -8.158451e-002 1.278383e-001 -2.712713e-002 4.327260e-002 6.465006e-002 2.389462e-001 -1.492541e-002 -2.637696e-001 -1.864188e-001 4.676482e-002 3.966746e-002 7.775125e-002 -4.363173e-002 -5.107001e-002 -8.497428e-002
<VARIANCE> 39
 1.025969e+001 4.147104e+001 3.633276e+001 6.790621e+001 8.619419e+001 7.180271e+001 8.082800e+001 6.116078e+001 6.314805e+001 6.194168e+001 6.034440e+001 4.524976e+001 2.221644e+001 1.975298e-001 9.221607e-001 7.998187e-001 1.684213e+000 1.530317e+000 1.634427e+000 1.734414e+000 1.448256e+000 1.498207e+000 1.550678e+000 1.436011e+000 1.437879e+000 3.028504e-001 5.000000e-002 1.050575e-001 1.184078e-001 1.771391e-001 2.274603e-001 2.321670e-001 2.558667e-001 2.510316e-001 2.547871e-001 2.514901e-001 2.465432e-001 2.261256e-001 5.000000e-002
<GCONST> 9.943864e+001
<STATE> 4
<MEAN> 39
 6.643900e-002 -1.248320e+001 -1.492440e+001 -1.730186e+001 -7.338157e+000 -4.587687e-001 -6.118003e+000 -1.608047e+000 -2.657104e+000 -1.040802e-001 -5.368884e-001 -5.089171e+000 6.191245e+001 -6.699546e-001 5.892258e-001 8.124474e-001 2.351974e+000 2.526586e-001 -1.897334e+000 -9.043169e-001 3.941315e-001 4.988708e-001 7.798904e-002 -6.357549e-001 2.419933e-001 -1.021314e+000 -3.759556e-001 3.144504e-001 3.632994e-001 2.253001e-001 -3.305820e-002 -6.885590e-002 8.648414e-002 -7.647076e-002 -2.309624e-002 -1.249341e-001 -9.902477e-002 2.403166e-001 -3.501568e-001
<VARIANCE> 39
 1.321802e+001 3.993482e+001 4.017290e+001 7.323225e+001 5.979471e+001 8.186207e+001 8.273483e+001 7.035744e+001 7.388928e+001 6.900347e+001 8.466225e+001 5.410147e+001 2.526492e+001 2.294582e+000 3.274279e+000 3.391255e+000 3.762044e+000 4.937247e+000 3.959038e+000 5.596136e+000 4.611185e+000 4.711212e+000 4.331379e+000 4.015975e+000 3.887228e+000 2.261659e+000 4.413206e-001 3.317897e-001 3.449771e-001 5.936496e-001 6.184220e-001 7.415107e-001 8.265375e-001 7.602394e-001 7.458286e-001 7.298151e-001 7.915334e-001 6.688225e-001 2.638469e-001
<GCONST> 1.333319e+002
<TRANSP> 5
 0.000000e+000 1.000000e+000 0.000000e+000 0.000000e+000 0.000000e+000
 0.000000e+000 6.343619e-001 3.656380e-001 0.000000e+000 0.000000e+000
 0.000000e+000 0.000000e+000 8.601763e-001 1.398237e-001 0.000000e+000
 0.000000e+000 0.000000e+000 0.000000e+000 6.318258e-001 3.681742e-001
 0.000000e+000 0.000000e+000 0.000000e+000 0.000000e+000 0.000000e+000
<ENDHMM>
~o
<STREAMINFO> 1 39
<VECSIZE> 39<NULLD><MFCC_D_A_0><DIAGC>
~h "aw"
<BEGINHMM>
<NUMSTATES> 5
<STATE> 2
<MEAN> 39
 -4.001997e+000 -1.804831e+001 -9.242514e+000 -1.383589e+001 -9.266130e+000 -4.848358e+000 -3.930589e+000 3.093896e+000 -2.140188e+000 -3.708360e+000 -7.116652e+000 -4.601456e+000 6.667255e+001 3.543376e-001 -1.393988e+000 -8.153628e-001 -3.629570e-001 7.251338e-001 9.321145e-001 1.184984e-002 1.293049e-001 4.850160e-001 -4.580924e-001 -5.418153e-001 -3.595362e-001 9.626229e-001 -2.948669e-001 4.972919e-001 2.777479e-002 2.230932e-001 3.093261e-001 1.713860e-001 9.638920e-003 -4.171690e-001 -1.001555e-001 1.108222e-001 2.042082e-001 1.037334e-001 -5.542131e-001
<VARIANCE> 39
 1.340386e+001 2.843979e+001 5.036569e+001 4.647627e+001 6.327368e+001 6.413077e+001 7.828294e+001 7.133366e+001 7.478815e+001 5.175933e+001 4.398870e+001 4.255844e+001 1.671897e+001 1.188607e+000 2.062129e+000 2.014677e+000 2.389850e+000 3.016262e+000 2.822539e+000 3.901829e+000 3.705976e+000 2.808622e+000 2.470277e+000 2.414109e+000 2.394823e+000 1.268428e+000 3.495917e-001 2.873918e-001 2.986498e-001 4.077741e-001 5.263252e-001 4.947334e-001 6.662613e-001 6.652588e-001 6.022649e-001 4.746737e-001 4.486125e-001 4.221236e-001 2.138071e-001
<GCONST> 1.211166e+002
<STATE> 3
<MEAN> 39
 -2.250757e+000 -1.761539e+001 -1.352847e+001 -1.526962e+001 -4.732372e+000 -6.246016e-002 -4.741603e+000 -1.864268e+000 2.163101e-001 -4.095569e+000 -5.615378e+000 -5.438142e+000 6.550099e+001 2.552381e-001 3.903131e-001 -3.969905e-001 -4.726390e-001 2.507965e-001 5.590453e-001 -2.249413e-001 -4.779431e-001 -1.730807e-002 2.501306e-001 3.787444e-001 -3.835781e-002 -3.377919e-001 1.217572e-002 1.747677e-001 7.748135e-002 -9.119107e-003 -1.728247e-001 -1.135361e-001 -1.730405e-002 3.055045e-002 -7.622210e-002 7.798945e-002 7.000222e-002 5.719573e-002 -1.293109e-001
<VARIANCE> 39
 1.325823e+001 3.161940e+001 3.983784e+001 5.481675e+001 5.697021e+001 7.954090e+001 8.309727e+001 6.595736e+001 6.599248e+001 5.544771e+001 5.388230e+001 4.520682e+001 2.276820e+001 2.356687e-001 7.037984e-001 7.439190e-001 1.279588e+000 1.543597e+000 1.499712e+000 1.656761e+000 1.650262e+000 1.615093e+000 1.460451e+000 1.479286e+000 1.359396e+000 2.331132e-001 5.000000e-002 1.009979e-001 1.189122e-001 1.790835e-001 2.104778e-001 2.327048e-001 2.714924e-001 2.557968e-001 2.536027e-001 2.161682e-001 2.398991e-001 2.255040e-001 5.000000e-002
<GCONST> 9.802286e+001
<STATE> 4
<MEAN> 39
 -7.359981e-001 -1.155477e+001 -1.435320e+001 -1.911516e+001 -6.985510e+000 1.358054e+000 -6.371978e+000 -3.820430e+000 -1.704697e+000 -1.612830e-001 -2.620071e+000 -4.952096e+000 6.073753e+001 -4.950244e-001 1.661933e+000 1.015998e+000 1.240827e+000 -7.830586e-001 -1.202906e+000 -1.113466e-001 -2.957852e-001 -5.819082e-001 4.362148e-001 1.548941e-001 3.353896e-001 -1.858986e+000 -4.359247e-001 1.529469e-001 3.877369e-001 6.530727e-001 1.394175e-001 -2.925000e-001 9.401789e-002 -3.192382e-002 -9.331625e-002 -1.453656e-001 -1.664742e-001 5.763389e-002 -3.398497e-001
<VARIANCE> 39
 1.227172e+001 4.134528e+001 3.605751e+001 6.995538e+001 6.246441e+001 8.137526e+001 8.606386e+001 5.664548e+001 6.267032e+001 6.285597e+001 7.214700e+001 4.393795e+001 3.581393e+001 2.234599e+000 2.974206e+000 2.763889e+000 5.686012e+000 4.325927e+000 4.053265e+000 4.558362e+000 4.692075e+000 4.236105e+000 4.045034e+000 4.018016e+000 3.299215e+000 2.767203e+000 3.264125e-001 4.124752e-001 3.653650e-001 6.161135e-001 7.099130e-001 6.707383e-001 7.569744e-001 7.052532e-001 6.999868e-001 7.043254e-001 6.610211e-001 5.451372e-001 3.541488e-001
<GCONST> 1.320708e+002
<TRANSP> 5
 0.000000e+000 1.000000e+000 0.000000e+000 0.000000e+000 0.000000e+000
 0.000000e+000 6.820024e-001 3.179976e-001 0.000000e+000 0.000000e+000
 0.000000e+000 0.000000e+000 8.888739e-001 1.111261e-001 0.000000e+000
 0.000000e+000 0.000000e+000 0.000000e+000 7.517172e-001 2.482828e-001
 0.000000e+000 0.000000e+000 0.000000e+000 0.000000e+000 0.000000e+000
<ENDHMM>
~o
<STREAMINFO> 1 39
<VECSIZE> 39<NULLD><MFCC_D_A_0><DIAGC>
~h "ax"
<BEGINHMM>
<NUMSTATES> 5
<STATE> 2
<MEAN> 39
 -1.588963e+000 -1.047697e+001 -8.991484e+000 -1.105433e+001 -8.655843e+000 -9.037905e+000 -1.275395e+001 -8.160318e-001 -1.052787e+000 -4.748698e-001 -3.057621e+000 -3.017900e+000 5.928567e+001 2.066808e+000 -8.476838e-001 -8.375853e-001 -5.584829e-001 -3.891180e-002 -3.890327e-001 -1.825331e+000 4.620099e-001 4.470551e-001 8.841258e-002 -1.161515e-001 -1.604575e-001 5.747820e-001 -7.099366e-001 4.865706e-001 7.933531e-002 3.409268e-001 3.088753e-001 2.796416e-001 5.444936e-001 -1.226551e-001 -2.542272e-001 -1.326921e-001 1.195884e-001 1.612737e-001 -6.500100e-001
<VARIANCE> 39
 2.096542e+001 3.110728e+001 5.755033e+001 6.842525e+001 5.236438e+001 8.566365e+001 6.919843e+001 7.024129e+001 6.181718e+001 5.957515e+001 5.867900e+001 3.942634e+001 2.214283e+001 5.414227e+000 2.787119e+000 4.076664e+000 4.605194e+000 4.730446e+000 5.653333e+000 6.311615e+000 5.874029e+000 4.961758e+000 4.002123e+000 3.865600e+000 3.159420e+000 1.996084e+000 7.000356e-001 4.766819e-001 4.700711e-001 7.787611e-001 6.383234e-001 8.290220e-001 9.291928e-001 8.159603e-001 8.233023e-001 7.622574e-001 7.356021e-001 5.541038e-001 5.927132e-001
<GCONST> 1.362148e+002
<STATE> 3
<MEAN> 39
 -6.600746e-001 -1.125264e+001 -9.781707e+000 -1.157868e+001 -8.205199e+000 -8.401601e+000 -1.370081e+001 2.721623e-001 -6.491921e-001 -3.905827e-001 -3.098576e+000 -3.304912e+000 5.940841e+001 5.439199e-001 3.418970e-001 -4.965428e-001 2.539886e-001 5.553192e-001 -8.599130e-002 -4.687461e-001 -5.608263e-002 -1.078392e-001 -1.309636e-001 5.415992e-002 1.360826e-001 -5.799620e-001 -7.777233e-001 6.809650e-001 2.605862e-001 4.744483e-001 2.405468e-001 1.562049e-001 7.087117e-001 -3.397110e-001 -3.482975e-001 -1.614200e-001 4.555610e-002 1.484337e-001 -6.958703e-001
<VARIANCE> 39
 1.655844e+001 3.019652e+001 5.888207e+001 6.820309e+001 5.328262e+001 9.444600e+001 8.040237e+001 7.815689e+001 6.788326e+001 6.313307e+001 5.973691e+001 4.458051e+001 2.061411e+001 2.505028e+000 2.031122e+000 3.081774e+000 3.539661e+000 3.357871e+000 3.981977e+000 4.883903e+000 4.364721e+000 3.990418e+000 3.251845e+000 3.116554e+000 2.620264e+000 1.747632e+000 6.782783e-001 4.822574e-001 4.826545e-001 7.468405e-001 6.797959e-001 8.871811e-001 1.012726e+000 9.358549e-001 8.521481e-001 7.743243e-001 7.183160e-001 5.739539e-001 4.908650e-001
<GCONST> 1.329154e+002
<STATE> 4
<MEAN> 39
 -8.388757e-001 -8.874996e+000 -9.979690e+000 -1.037976e+001 -6.893683e+000 -8.617971e+000 -1.331483e+001 -1.358042e+000 -1.518160e+000 -7.270352e-001 -2.567519e+000 -2.579323e+000 5.711866e+001 -7.635071e-001 1.571684e+000 1.171575e-001 1.274590e+000 9.256297e-001 1.303722e-001 7.011921e-001 -5.391864e-001 -6.635627e-001 -5.610141e-001 -9.978683e-004 3.626607e-001 -1.832798e+000 -7.921703e-001 3.347254e-001 3.032567e-001 2.942947e-001 7.654747e-002 2.264368e-001 6.300572e-001 -8.839556e-002 -1.635347e-001 -1.065486e-001 -4.703978e-002 4.386673e-002 -3.957626e-001
<VARIANCE> 39
 2.119028e+001 3.766485e+001 6.148264e+001 6.434447e+001 5.313060e+001 9.214112e+001 8.282536e+001 8.218404e+001 6.848889e+001 5.942616e+001 5.560442e+001 4.067988e+001 2.526315e+001 4.039049e+000 3.377595e+000 3.498010e+000 5.559729e+000 3.893673e+000 4.658601e+000 5.981490e+000 5.197397e+000 5.289613e+000 4.262020e+000 3.954562e+000 3.039032e+000 4.665868e+000 5.785155e-001 4.879903e-001 5.248556e-001 6.103517e-001 6.408113e-001 8.340394e-001 9.512941e-001 9.199083e-001 7.550301e-001 7.192433e-001 6.742259e-001 5.454941e-001 4.193975e-001
<GCONST> 1.366442e+002
<TRANSP> 5
 0.000000e+000 1.000000e+000 0.000000e+000 0.000000e+000 0.000000e+000
 0.000000e+000 1.306440e-001 8.693561e-001 0.000000e+000 0.000000e+000
 0.000000e+000 0.000000e+000 2.438904e-001 7.561095e-001 0.000000e+000
 0.000000e+000 0.000000e+000 0.000000e+000 1.872156e-001 8.127844e-001
 0.000000e+000 0.000000e+000 0.000000e+000 0.000000e+000 0.000000e+000
<ENDHMM>
~o
<STREAMINFO> 1 39
<VECSIZE> 39<NULLD><MFCC_D_A_0><DIAGC>
~h "ay"
<BEGINHMM>
<NUMSTATES> 5
<STATE> 2
<MEAN> 39
 -1.508916e+000 -1.611315e+001 -1.405103e+001 -1.795752e+001 -5.286551e+000 1.165311e+000 -5.450996e+000 -2.203476e+000 3.845726e-001 -2.864553e-001 -4.350321e+000 -7.548079e+000 6.502738e+001 1.109177e-001 -1.710787e+000 -7.566787e-002 2.384717e-001 3.450716e-001 8.160047e-002 3.127123e-002 6.269124e-001 8.123726e-001 -4.848933e-001 -9.149221e-001 -5.288872e-001 1.035928e+000 -4.267313e-001 5.064380e-001 4.656095e-001 5.138516e-001 -1.165983e-001 -4.925497e-001 9.279417e-002 1.080284e-001 -2.656070e-001 -1.860046e-001 9.801760e-002 4.430592e-001 -4.839065e-001
<VARIANCE> 39
 1.091365e+001 3.064805e+001 3.457903e+001 5.067690e+001 5.315033e+001 8.106927e+001 6.555571e+001 6.455312e+001 6.167392e+001 6.151710e+001 6.873470e+001 4.384374e+001 1.902919e+001 1.425181e+000 1.796238e+000 2.584214e+000 3.664123e+000 3.101059e+000 4.791572e+000 3.322388e+000 4.018188e+000 3.098919e+000 2.812863e+000 2.885866e+000 3.136586e+000 1.153666e+000 3.972352e-001 2.781436e-001 3.155050e-001 5.338342e-001 6.244144e-001 5.989380e-001 6.228456e-001 6.862723e-001 6.028128e-001 5.637447e-001 6.621864e-001 5.398920e-001 1.996710e-001
<GCONST> 1.243281e+002
<STATE> 3
<MEAN> 39
 -2.716830e+000 -1.829766e+001 -1.208484e+001 -1.383880e+001 -6.000470e+000 -2.858330e+000 -4.378301e+000 7.189882e-001 7.907746e-001 -4.332780e+000 -6.590857e+000 -5.567258e+000 6.565230e+001 -2.287330e-001 9.206410e-002 8.270168e-001 4.093312e-001 -8.369689e-001 -9.811007e-001 2.336563e-001 7.757607e-001 -2.048914e-001 -3.079401e-001 2.432946e-002 3.826156e-001 -6.662372e-002 -4.907226e-003 2.471302e-001 1.306507e-001 -4.725812e-002 -1.834875e-001 -8.886798e-002 -2.035331e-002 -6.883477e-002 -1.592559e-001 1.224589e-001 1.846018e-001 5.598345e-002 -1.449416e-001
<VARIANCE> 39
 1.194430e+001 2.953641e+001 4.076223e+001 4.066859e+001 6.041746e+001 7.482915e+001 6.900071e+001 7.166474e+001 7.397292e+001 5.189325e+001 4.690831e+001 4.798432e+001 2.079548e+001 2.496947e-001 7.704169e-001 1.247788e+000 1.294106e+000 2.068084e+000 2.069776e+000 2.059696e+000 2.226147e+000 1.715528e+000 1.608473e+000 1.655609e+000 1.539443e+000 2.186267e-001 5.000000e-002 1.263624e-001 1.377556e-001 1.702287e-001 2.526123e-001 2.357835e-001 2.848233e-001 3.480575e-001 3.117512e-001 2.786186e-001 2.897320e-001 2.656102e-001 5.015877e-002
<GCONST> 1.011738e+002
<STATE> 4
<MEAN> 39
 -5.198468e+000 -1.223224e+001 -2.041474e+000 -1.179503e+001 -1.552741e+001 -1.157014e+001 -3.170055e+000 3.303555e+000 -4.227884e+000 -2.356612e+000 -3.433480e+000 -2.242647e+000 6.154056e+001 -8.165529e-001 2.337993e+000 1.305612e+000 1.326401e+000 -2.024725e-001 -4.889445e-001 -2.331816e-001 -1.231475e+000 -1.164980e+000 4.065485e-001 7.678397e-001 3.868045e-001 -2.419904e+000 -3.270803e-001 2.739001e-001 -4.725611e-001 2.668323e-001 8.716514e-001 6.320751e-001 -3.623766e-002 -4.341258e-001 1.851581e-001 1.777499e-003 -1.617583e-001 -1.617924e-001 -5.904317e-001
<VARIANCE> 39
 1.337952e+001 4.500205e+001 5.178876e+001 6.108319e+001 5.497763e+001 5.887655e+001 7.518843e+001 7.565519e+001 7.437584e+001 4.949559e+001 5.437632e+001 3.631498e+001 4.075791e+001 2.055435e+000 2.633550e+000 3.521662e+000 4.652165e+000 7.087289e+000 5.005547e+000 4.890502e+000 5.138592e+000 5.283792e+000 4.369046e+000 3.908290e+000 3.708439e+000 4.418109e+000 3.650472e-001 5.345497e-001 5.484758e-001 6.784460e-001 7.555096e-001 7.567616e-001 8.586915e-001 1.103676e+000 1.021319e+000 7.749195e-001 7.141944e-001 5.873648e-001 4.691476e-001
<GCONST> 1.358542e+002
<TRANSP> 5
 0.000000e+000 1.000000e+000 0.000000e+000 0.000000e+000 0.000000e+000
 0.000000e+000 6.541278e-001 3.458722e-001 0.000000e+000 0.000000e+000
 0.000000e+000 0.000000e+000 8.661137e-001 1.338863e-001 0.000000e+000
 0.000000e+000 0.000000e+000 0.000000e+000 7.457420e-001 2.542580e-001
 0.000000e+000 0.000000e+000 0.000000e+000 0.000000e+000 0.000000e+000
<ENDHMM>
~o
<STREAMINFO> 1 39
<VECSIZE> 39<NULLD><MFCC_D_A_0><DIAGC>
~h "b"
<BEGINHMM>
<NUMSTATES> 5
<STATE> 2
<MEAN> 39
 -6.005372e+000 4.537903e+000 -1.648455e+000 -5.692988e-001 -2.346210e+000 -2.707316e+000 -7.431453e+000 -8.655389e+000 -8.960538e+000 -5.040069e+000 -3.994543e+000 -4.717126e+000 3.953001e+001 -1.172935e+000 7.484744e-001 4.670386e-001 8.829551e-001 7.864375e-001 5.067753e-001 6.983482e-001 1.302503e-001 8.329279e-002 -2.669060e-001 -2.052119e-001 9.734654e-002 -1.181712e+000 -5.379209e-002 -1.168040e+000 -3.375419e-001 -9.063382e-001 -5.909211e-001 -3.213562e-001 -8.493075e-002 5.762169e-001 5.373977e-001 4.284481e-001 2.390266e-001 2.447867e-001 1.570386e+000
<VARIANCE> 39
 2.456644e+001 1.675052e+001 1.826650e+001 2.736087e+001 2.328174e+001 3.110329e+001 3.275335e+001 2.945090e+001 3.031951e+001 2.906686e+001 3.079218e+001 2.516246e+001 1.636386e+001 2.678675e+000 5.839392e+000 3.256593e+000 5.119445e+000 3.318726e+000 3.511053e+000 3.690386e+000 4.363781e+000 4.490033e+000 3.524107e+000 3.016300e+000 2.483126e+000 8.772909e+000 4.125904e-001 6.239547e-001 7.422909e-001 8.111762e-001 7.004573e-001 6.659446e-001 8.759866e-001 8.334902e-001 7.938451e-001 7.261190e-001 6.395062e-001 5.248857e-001 7.732449e-001
<GCONST> 1.265009e+002
<STATE> 3
<MEAN> 39
 -1.440350e+001 -9.429165e-001 -3.618722e+000 -1.432678e+000 -1.441494e+000 -1.150171e+000 -2.954423e+000 -2.803596e+000 -3.219790e+000 -1.708043e+000 -1.983977e+000 -1.806790e+000 3.901305e+001 3.731979e-001 -2.054487e+000 -8.853375e-001 -1.924421e+000 -1.231032e+000 -8.620024e-001 -1.579460e-001 7.909889e-001 9.989609e-001 7.127703e-001 5.723857e-001 4.758293e-001 3.667407e+000 8.765668e-001 -3.843953e-001 -1.279927e-001 -8.755289e-001 -6.732202e-001 -3.625957e-001 -5.054793e-001 -1.322416e-001 -1.770825e-001 2.562463e-002 3.302678e-002 -9.142164e-002 1.357891e+000
<VARIANCE> 39
 3.618802e+001 2.314255e+001 1.965788e+001 2.408237e+001 1.766394e+001 2.293526e+001 2.342587e+001 2.815141e+001 2.937938e+001 2.573435e+001 2.026504e+001 1.753782e+001 6.490311e+001 4.358653e+000 3.886497e+000 3.937009e+000 5.642399e+000 3.749591e+000 3.990921e+000 4.159635e+000 4.328112e+000 4.475223e+000 3.687655e+000 3.112179e+000 2.479078e+000 1.124669e+001 6.781476e-001 6.703249e-001 8.397028e-001 8.968954e-001 7.262250e-001 8.510501e-001 7.490153e-001 8.047411e-001 8.451922e-001 7.345030e-001 6.767679e-001 4.904437e-001 1.215350e+000
<GCONST> 1.290870e+002
<STATE> 4
<MEAN> 39
 -6.503805e+000 -7.109939e+000 -6.661763e+000 -1.115562e+001 -8.366081e+000 -6.181805e+000 -6.989722e+000 -3.196362e+000 -2.419367e+000 -3.643879e-001 -7.132099e-001 -1.545028e+000 5.779465e+001 2.528038e+000 -2.578973e+000 -8.971242e-001 -3.718230e+000 -2.524126e+000 -7.111030e-001 -1.234577e+000 5.704002e-001 2.511531e-001 7.234725e-001 3.757179e-001 -2.950621e-002 4.782859e+000 3.019623e-002 4.901110e-001 2.969981e-001 4.000066e-001 2.600381e-001 4.517397e-001 2.117426e-002 -1.103069e-001 -3.923370e-001 -2.303282e-001 -2.442503e-001 -2.361069e-001 -1.190489e+000
<VARIANCE> 39
 4.324035e+001 2.769662e+001 5.140649e+001 6.510363e+001 3.873149e+001 5.787163e+001 4.657666e+001 3.922068e+001 3.896796e+001 3.473307e+001 3.493274e+001 2.552997e+001 3.236898e+001 5.235852e+000 5.328360e+000 8.432330e+000 7.392243e+000 6.598193e+000 8.244157e+000 7.901512e+000 7.584139e+000 7.500907e+000 5.706526e+000 5.646650e+000 4.224008e+000 6.248911e+000 8.098148e-001 5.866074e-001 5.201834e-001 9.412228e-001 7.407945e-001 7.521164e-001 8.534682e-001 8.584278e-001 8.202041e-001 7.001261e-001 6.536945e-001 5.155210e-001 6.663408e-001
<GCONST> 1.394957e+002
<TRANSP> 5
 0.000000e+000 1.000000e+000 0.000000e+000 0.000000e+000 0.000000e+000
 0.000000e+000 7.021156e-001 2.978844e-001 0.000000e+000 0.000000e+000
 0.000000e+000 0.000000e+000 5.611440e-001 4.388560e-001 0.000000e+000
 0.000000e+000 0.000000e+000 0.000000e+000 4.784308e-001 5.215692e-001
 0.000000e+000 0.000000e+000 0.000000e+000 0.000000e+000 0.000000e+000
<ENDHMM>
~o
<STREAMINFO> 1 39
<VECSIZE> 39<NULLD><MFCC_D_A_0><DIAGC>
~h "ch"
<BEGINHMM>
<NUMSTATES> 5
<STATE> 2
<MEAN> 39
 -2.984324e+001 -5.790547e+000 1.006630e+000 -1.248945e+001 -4.062979e+000 1.576913e+000 -3.760046e+000 1.958132e-001 9.905722e-002 -1.232509e+000 4.841088e-001 1.075168e-001 5.694767e+001 -2.104902e+000 8.699638e-001 1.251747e+000 -1.519761e-001 -7.307732e-001 -3.208303e-003 8.236941e-001 1.513218e-001 2.227108e-001 4.928805e-002 1.416048e-001 1.012542e-001 2.886144e+000 8.644382e-001 1.718840e-001 -1.395146e-002 7.668192e-001 -1.790670e-001 -4.776627e-001 9.967646e-002 -1.082158e-001 -3.014134e-001 -4.543524e-002 -2.426895e-001 -1.161467e-001 -9.211162e-001
<VARIANCE> 39
 2.234052e+001 3.248381e+001 3.408908e+001 2.616160e+001 3.539989e+001 2.155045e+001 2.168486e+001 2.223412e+001 1.872810e+001 1.513888e+001 1.263278e+001 1.043296e+001 2.281273e+001 2.945464e+000 3.047076e+000 2.628478e+000 2.885066e+000 2.517629e+000 2.471897e+000 2.109559e+000 2.145953e+000 1.767702e+000 1.808248e+000 1.436503e+000 1.345062e+000 3.738265e+000 6.810376e-001 7.439115e-001 6.550293e-001 6.163163e-001 5.129693e-001 4.787909e-001 4.834673e-001 4.660614e-001 3.929213e-001 3.844782e-001 3.212767e-001 2.913653e-001 6.942487e-001
<GCONST> 1.131221e+002
<STATE> 3
<MEAN> 39
 -3.042674e+001 -6.040962e+000 2.883258e+000 -1.062909e+001 -7.733919e+000 -7.153286e-001 -8.696823e-001 -3.621131e-001 -5.971045e-001 -8.326291e-001 -2.476083e-001 1.384741e-001 6.092213e+001 1.340614e+000 -4.452964e-001 -1.588309e-001 6.204995e-001 -8.268551e-001 -1.069365e+000 1.790504e-001 -3.967665e-002 -3.477694e-001 -9.768725e-002 -2.856342e-001 -1.215519e-001 1.914580e-002 1.017986e+000 -1.410528e-001 -2.510076e-001 1.196097e-001 8.154428e-002 -2.726646e-001 -3.956900e-001 -1.648769e-002 -1.410846e-001 -1.516376e-001 -1.167588e-001 -7.816520e-002 -6.728877e-001
<VARIANCE> 39
 1.381559e+001 2.447186e+001 2.268274e+001 2.356935e+001 3.885620e+001 2.252629e+001 2.308186e+001 2.163173e+001 1.937540e+001 1.721957e+001 1.578148e+001 1.375608e+001 1.432918e+001 2.655471e+000 1.259586e+000 1.910603e+000 1.872359e+000 2.324723e+000 2.268423e+000 1.892903e+000 2.059165e+000 1.653923e+000 1.649129e+000 1.564023e+000 1.280589e+000 1.987822e+000 5.438288e-001 3.015575e-001 4.538049e-001 3.379987e-001 4.767237e-001 4.723181e-001 4.818643e-001 4.172719e-001 3.867936e-001 3.782410e-001 3.466492e-001 2.952417e-001 3.641152e-001
<GCONST> 1.065231e+002
<STATE> 4
<MEAN> 39
 -1.805260e+001 -8.283634e+000 1.129145e+000 -7.092292e+000 -1.041395e+001 -7.116279e+000 -3.489079e+000 -2.829161e-001 -2.580635e+000 -2.887270e+000 -2.080628e+000 -1.007941e+000 5.817989e+001 5.057159e+000 -6.574439e-001 -6.628043e-001 1.521216e-001 -6.850519e-001 -1.843303e+000 -2.181054e+000 1.212218e-001 -8.151118e-001 -7.408151e-001 -5.110044e-001 -4.061554e-001 -6.216112e-001 1.603514e-002 -1.571838e-001 -2.236686e-001 -5.252413e-001 1.210836e-001 3.721448e-001 -3.815388e-001 9.767916e-002 8.813021e-002 1.677391e-001 1.687047e-001 -6.828827e-004 1.916742e-001
<VARIANCE> 39
 7.258531e+001 2.484145e+001 3.213457e+001 3.785348e+001 4.096407e+001 3.915558e+001 4.229137e+001 3.135859e+001 3.345185e+001 2.427681e+001 2.464572e+001 1.772821e+001 2.358443e+001 3.929136e+000 3.027734e+000 4.353110e+000 4.045408e+000 5.980147e+000 5.927531e+000 6.760854e+000 4.738757e+000 4.864115e+000 3.866926e+000 3.817061e+000 2.686805e+000 4.412334e+000 1.173073e+000 4.297063e-001 4.976921e-001 4.932158e-001 7.377082e-001 7.865310e-001 9.912012e-001 7.561991e-001 6.931314e-001 6.274607e-001 5.437447e-001 4.119818e-001 5.880503e-001
<GCONST> 1.301329e+002
<TRANSP> 5
 0.000000e+000 1.000000e+000 0.000000e+000 0.000000e+000 0.000000e+000
 0.000000e+000 5.624999e-001 4.375000e-001 0.000000e+000 0.000000e+000
 0.000000e+000 0.000000e+000 7.374241e-001 2.625760e-001 0.000000e+000
 0.000000e+000 0.000000e+000 0.000000e+000 6.072301e-001 3.927698e-001
 0.000000e+000 0.000000e+000 0.000000e+000 0.000000e+000 0.000000e+000
<ENDHMM>
~o
<STREAMINFO> 1 39
<VECSIZE> 39<NULLD><MFCC_D_A_0><DIAGC>
~h "d"
<BEGINHMM>
<NUMSTATES> 5
<STATE> 2
<MEAN> 39
 -8.418531e+000 8.059371e-001 1.429700e+000 -9.148781e-003 -6.735237e+000 -7.021216e+000 -7.745041e+000 -5.269016e+000 -5.756702e+000 -5.293257e+000 -6.312283e+000 -4.092813e+000 4.290789e+001 -1.479703e+000 4.626711e-001 -3.038176e-002 3.321461e-001 1.459235e+000 1.149452e+000 5.966495e-001 -2.424002e-001 1.285937e-001 9.083402e-002 8.937222e-002 -2.796889e-002 -1.069208e+000 -9.777351e-002 -1.152468e+000 -2.908076e-001 -1.174481e+000 -5.543827e-001 -1.059614e-001 -7.872836e-002 5.635116e-001 2.552598e-001 3.582891e-001 4.959715e-001 3.363051e-001 1.753908e+000
<VARIANCE> 39
 3.019629e+001 4.737246e+001 3.903619e+001 4.816402e+001 4.940854e+001 3.956020e+001 3.602509e+001 4.005466e+001 4.368637e+001 3.425004e+001 3.197408e+001 2.589302e+001 5.998993e+001 3.153745e+000 8.097013e+000 3.936896e+000 7.316679e+000 5.362664e+000 5.435776e+000 4.978507e+000 5.265127e+000 4.640403e+000 3.938836e+000 3.914435e+000 3.337911e+000 1.109893e+001 5.108436e-001 8.518232e-001 6.022148e-001 8.562033e-001 1.008523e+000 8.525332e-001 9.954975e-001 8.882385e-001 8.375131e-001 7.813490e-001 7.156349e-001 5.766809e-001 1.116524e+000
<GCONST> 1.376127e+002
<STATE> 3
<MEAN> 39
 -1.401929e+001 -6.069708e+000 -1.766715e+000 -5.293451e+000 -5.054111e+000 -3.344391e+000 -4.834545e+000 -2.398302e+000 -3.116656e+000 -2.321707e+000 -2.493213e+000 -1.604423e+000 4.792375e+001 -8.025727e-001 -1.804266e+000 -3.206478e-001 -2.200183e+000 -8.132385e-001 -3.682080e-001 -7.253934e-002 8.190352e-001 5.761436e-001 5.643333e-001 8.512038e-001 7.647238e-001 3.669963e+000 6.560104e-001 -3.069589e-002 8.299425e-002 -3.586918e-001 -7.911053e-001 -6.060859e-001 -4.467631e-001 1.499794e-001 -1.027393e-001 1.444120e-002 -6.534841e-002 -6.057206e-002 8.812835e-001
<VARIANCE> 39
 5.328619e+001 4.930885e+001 4.961522e+001 5.147057e+001 5.221888e+001 4.678370e+001 4.301495e+001 3.387639e+001 3.550170e+001 3.003749e+001 2.460105e+001 2.021832e+001 1.092475e+002 4.825454e+000 4.799269e+000 3.952906e+000 5.561207e+000 4.517646e+000 4.992225e+000 4.867145e+000 4.589167e+000 4.483876e+000 3.626993e+000 3.384462e+000 2.582884e+000 1.096263e+001 7.601153e-001 8.656048e-001 8.859644e-001 1.068864e+000 1.098038e+000 1.142931e+000 1.061799e+000 1.007556e+000 9.007239e-001 7.888531e-001 8.145049e-001 6.030688e-001 1.441918e+000
<GCONST> 1.392976e+002
<STATE> 4
<MEAN> 39
 -1.164741e+001 -8.221630e+000 -1.542005e+000 -1.005582e+001 -1.035516e+001 -8.463713e+000 -7.701437e+000 -1.155074e+000 -2.307679e+000 -1.934232e+000 -2.103219e+000 -5.670913e-001 5.898950e+001 1.370275e+000 -1.091594e+000 -6.934540e-002 -1.392893e+000 -1.778606e+000 -1.188321e+000 -1.242683e+000 9.234396e-001 3.087350e-001 3.977554e-001 9.875848e-002 1.076654e-002 2.766180e+000 4.880823e-001 2.516032e-001 -1.396637e-001 4.546397e-001 1.165179e-001 2.472854e-001 -1.273242e-002 -3.987962e-002 -1.734462e-001 -1.931143e-002 -1.727879e-001 -3.180817e-001 -9.296749e-001
<VARIANCE> 39
 6.483331e+001 4.072204e+001 5.444278e+001 4.737549e+001 5.572828e+001 5.398014e+001 5.467839e+001 4.221293e+001 4.522081e+001 3.154842e+001 2.902105e+001 2.320075e+001 3.857181e+001 8.368105e+000 3.964356e+000 5.035719e+000 5.377580e+000 6.095006e+000 6.374573e+000 7.241634e+000 5.771964e+000 5.537567e+000 4.410933e+000 5.166466e+000 3.704568e+000 7.458213e+000 7.500601e-001 8.025420e-001 7.368961e-001 9.422526e-001 1.153276e+000 1.295282e+000 1.013107e+000 8.653566e-001 8.223196e-001 6.912622e-001 7.089960e-001 5.694165e-001 1.147060e+000
<GCONST> 1.410047e+002
<TRANSP> 5
 0.000000e+000 1.000000e+000 0.000000e+000 0.000000e+000 0.000000e+000
 0.000000e+000 5.432920e-001 4.567080e-001 0.000000e+000 0.000000e+000
 0.000000e+000 0.000000e+000 3.134708e-001 6.865292e-001 0.000000e+000
 0.000000e+000 0.000000e+000 0.000000e+000 3.621672e-001 6.378328e-001
 0.000000e+000 0.000000e+000 0.000000e+000 0.000000e+000 0.000000e+000
<ENDHMM>
~o
<STREAMINFO> 1 39
<VECSIZE> 39<NULLD><MFCC_D_A_0><DIAGC>
~h "dh"
<BEGINHMM>
<NUMSTATES> 5
<STATE> 2
<MEAN> 39
 -1.511017e+001 -1.288095e+000 -6.351923e+000 -3.846405e+000 -4.192972e+000 -4.551539e+000 -4.023217e+000 -3.086203e+000 -2.093368e+000 -1.318653e+000 -2.751841e+000 -2.046692e+000 4.592133e+001 1.042393e+000 -3.818038e-001 -7.027147e-002 -6.541967e-001 -9.566308e-001 -1.046305e+000 -5.268039e-001 1.330631e-001 3.423306e-001 -1.832583e-001 -1.936914e-001 -6.820486e-002 2.672143e+000 6.515125e-001 -5.413692e-001 6.785739e-002 -5.100083e-001 -5.808703e-001 -4.392431e-001 -3.401561e-001 1.810010e-001 1.302432e-001 1.231490e-001 -2.579275e-002 -1.230883e-002 8.693328e-001
<VARIANCE> 39
 4.347995e+001 2.824076e+001 2.425183e+001 2.749155e+001 2.321377e+001 3.053687e+001 3.980962e+001 3.736616e+001 3.025597e+001 2.490576e+001 2.604454e+001 2.570683e+001 7.096844e+001 5.413310e+000 2.885113e+000 3.122277e+000 3.607409e+000 3.831544e+000 4.352341e+000 4.214853e+000 3.776291e+000 3.532507e+000 2.816507e+000 2.792737e+000 2.814792e+000 9.879174e+000 6.705601e-001 6.849672e-001 7.837167e-001 7.768198e-001 6.547697e-001 7.494406e-001 8.622679e-001 7.667317e-001 7.256619e-001 6.137423e-001 6.296737e-001 5.751447e-001 1.348830e+000
<GCONST> 1.300307e+002
<STATE> 3
<MEAN> 39
 -9.741642e+000 -2.845501e+000 -6.775678e+000 -6.888007e+000 -8.616217e+000 -9.493587e+000 -6.713491e+000 -2.864481e+000 -6.630266e-001 -1.494940e+000 -3.314723e+000 -2.174916e+000 5.608281e+001 2.817354e+000 -1.559915e+000 6.222481e-001 -1.840180e+000 -2.338405e+000 -2.059320e+000 -1.850826e+000 5.057918e-001 4.800055e-001 1.751120e-001 -4.076635e-001 -3.300957e-001 3.980899e+000 -4.645707e-002 -3.882444e-001 3.361423e-001 -1.340852e-001 -2.246165e-003 3.356265e-001 1.525057e-002 1.871102e-001 -1.960907e-001 1.616426e-001 2.066834e-002 -1.804240e-002 -6.059367e-001
<VARIANCE> 39
 2.602959e+001 2.107931e+001 2.529524e+001 2.577784e+001 2.969286e+001 3.362360e+001 4.470417e+001 3.369204e+001 3.253698e+001 3.024688e+001 2.567205e+001 2.789425e+001 2.696457e+001 4.028077e+000 3.388837e+000 4.624200e+000 4.200033e+000 4.533481e+000 5.395538e+000 5.934432e+000 5.653385e+000 5.833194e+000 4.254248e+000 4.590588e+000 4.077538e+000 4.680597e+000 5.232119e-001 3.936152e-001 4.834047e-001 4.929445e-001 5.316803e-001 5.394469e-001 6.671408e-001 6.123372e-001 5.824427e-001 5.122342e-001 5.325676e-001 4.552154e-001 7.409282e-001
<GCONST> 1.273382e+002
<STATE> 4
<MEAN> 39
 -5.399598e+000 -7.152222e+000 -5.073257e+000 -1.075892e+001 -1.253326e+001 -1.237920e+001 -9.933938e+000 -1.571688e+000 -1.775863e-001 -4.210208e-001 -4.230323e+000 -2.955725e+000 6.106039e+001 1.854665e+000 -2.075052e+000 8.681936e-001 -1.788410e+000 -1.767509e+000 -9.787285e-001 -1.085740e+000 8.723432e-001 4.301624e-002 3.030334e-001 -3.003326e-001 -2.098231e-001 2.437087e+000 -7.282083e-001 2.068415e-001 2.827031e-002 4.253896e-001 6.192966e-001 7.781277e-001 5.952635e-001 -4.066451e-003 -3.442501e-001 -9.156825e-002 1.207181e-001 9.084783e-002 -1.190064e+000
<VARIANCE> 39
 1.308976e+001 2.833505e+001 4.143351e+001 4.408418e+001 4.567253e+001 4.956215e+001 6.113487e+001 5.092947e+001 5.666589e+001 4.668772e+001 4.166107e+001 3.995110e+001 2.309100e+001 2.787725e+000 2.717054e+000 3.894113e+000 3.695195e+000 4.004155e+000 4.747064e+000 6.012683e+000 4.935884e+000 4.898629e+000 3.760781e+000 4.377210e+000 3.218973e+000 2.688329e+000 5.163851e-001 3.720864e-001 4.777463e-001 5.847845e-001 6.160026e-001 6.237002e-001 6.915850e-001 6.890714e-001 7.133515e-001 6.060605e-001 5.539871e-001 5.763468e-001 5.924107e-001
<GCONST> 1.297571e+002
<TRANSP> 5
 0.000000e+000 1.000000e+000 0.000000e+000 0.000000e+000 0.000000e+000
 0.000000e+000 5.985640e-001 4.014360e-001 0.000000e+000 0.000000e+000
 0.000000e+000 0.000000e+000 1.787984e-001 8.212016e-001 0.000000e+000
 0.000000e+000 0.000000e+000 0.000000e+000 1.953771e-001 8.046228e-001
 0.000000e+000 0.000000e+000 0.000000e+000 0.000000e+000 0.000000e+000
<ENDHMM>
~o
<STREAMINFO> 1 39
<VECSIZE> 39<NULLD><MFCC_D_A_0><DIAGC>
~h "ea"
<BEGINHMM>
<NUMSTATES> 5
<STATE> 2
<MEAN> 39
 -2.338837e+000 -1.644401e+001 -1.631018e+000 -1.292966e+001 -1.551272e+001 -1.212917e+001 -1.103771e+001 6.108911e+000 -3.165713e+000 -1.183038e+000 -2.088553e+000 -3.456422e+000 6.464246e+001 8.101622e-001 -1.879564e+000 4.645719e-001 -5.385714e-001 -1.270778e+000 -9.620171e-001 -8.335289e-001 2.029232e+000 9.126424e-002 -1.568178e-001 2.738623e-001 4.701520e-002 1.200595e+000 -5.462192e-001 5.746709e-001 -3.101679e-001 4.475769e-001 6.688761e-001 3.846427e-001 5.286009e-001 -1.479793e-001 4.312513e-002 9.994269e-003 9.450606e-002 3.050691e-001 -6.523166e-001
<VARIANCE> 39
 1.807211e+001 2.757716e+001 5.510699e+001 6.080895e+001 5.354415e+001 3.798413e+001 8.747485e+001 7.171313e+001 7.328751e+001 5.654097e+001 6.561892e+001 2.798584e+001 1.708206e+001 2.312380e+000 2.196334e+000 1.863962e+000 3.830468e+000 2.626918e+000 2.246409e+000 6.579387e+000 3.696240e+000 3.040900e+000 3.459712e+000 3.108008e+000 2.236675e+000 1.427995e+000 5.660750e-001 3.705024e-001 3.646833e-001 5.149146e-001 3.603849e-001 4.996302e-001 7.476299e-001 5.886807e-001 7.161430e-001 5.977132e-001 6.545388e-001 4.112090e-001 2.366073e-001
<GCONST> 1.248840e+002
<STATE> 3
<MEAN> 39
 -3.558395e+000 -1.729654e+001 -1.846507e+000 -1.488832e+001 -1.832651e+001 -1.370714e+001 -3.402851e+000 7.156360e+000 -6.942111e+000 -3.514151e-002 -2.174288e+000 -3.837663e+000 6.562952e+001 4.907227e-001 -5.008115e-001 -1.062729e+000 9.702547e-001 5.670071e-001 -7.345022e-001 -1.251721e-002 1.286466e+000 2.268455e-002 -6.297956e-001 1.771627e-001 1.843524e-001 -1.369728e-001 6.374389e-002 1.979496e-001 -2.698308e-001 1.337468e-001 2.902132e-001 1.291411e-002 -2.874849e-001 -1.182272e-001 9.338252e-002 -9.574988e-002 -9.697457e-002 4.151905e-002 -1.699263e-001
<VARIANCE> 39
 1.220290e+001 2.143585e+001 4.620024e+001 4.307789e+001 4.185046e+001 4.261200e+001 1.149238e+002 6.576355e+001 1.029503e+002 4.623671e+001 5.060469e+001 3.311349e+001 1.831801e+001 2.542849e-001 4.847957e-001 1.487792e+000 1.065533e+000 1.178815e+000 2.001226e+000 1.939744e+000 1.821838e+000 1.684141e+000 1.476048e+000 1.303659e+000 1.345408e+000 1.939028e-001 5.000000e-002 1.079404e-001 1.721296e-001 2.397167e-001 1.526662e-001 2.870397e-001 2.684793e-001 3.285827e-001 2.909717e-001 2.734307e-001 1.966493e-001 2.010639e-001 5.000000e-002
<GCONST> 9.765388e+001
<STATE> 4
<MEAN> 39
 1.367155e+000 -1.722514e+001 -1.157721e+001 -6.690422e+000 -9.269363e+000 -1.538230e+001 -1.732240e+001 1.330901e+001 1.153509e+000 -3.184389e+000 -1.143799e+000 -1.878080e+000 6.290718e+001 3.049394e-001 3.243695e-001 -7.764407e-001 3.479687e-001 6.612905e-001 -4.660680e-003 -8.441578e-001 -1.390891e-001 3.901250e-001 3.828517e-002 -2.425711e-001 1.207326e-001 -3.859441e-001 -5.095598e-002 8.741016e-002 1.809919e-001 -9.276831e-002 -8.289050e-002 1.110352e-001 1.119703e-001 -2.783479e-001 -1.243545e-001 7.920963e-002 3.169094e-002 -2.250208e-002 -5.067663e-002
<VARIANCE> 39
 6.314491e+000 2.892822e+001 5.554026e+001 2.862959e+001 4.268163e+001 6.656522e+001 1.460674e+002 5.635281e+001 7.678353e+001 5.264104e+001 4.351100e+001 3.256670e+001 1.851298e+001 2.496787e-001 4.250282e-001 1.533912e+000 8.043854e-001 1.357136e+000 1.177250e+000 1.790784e+000 1.225997e+000 1.138295e+000 1.109732e+000 9.119887e-001 8.274271e-001 1.787675e-001 5.000000e-002 1.035456e-001 1.762358e-001 1.546015e-001 2.132426e-001 1.955331e-001 2.980679e-001 2.020381e-001 2.205380e-001 2.215056e-001 1.660847e-001 1.323055e-001 5.000000e-002
<GCONST> 9.246967e+001
<TRANSP> 5
 0.000000e+000 1.000000e+000 0.000000e+000 0.000000e+000 0.000000e+000
 0.000000e+000 5.581241e-001 4.418759e-001 0.000000e+000 0.000000e+000
 0.000000e+000 0.000000e+000 7.522848e-001 2.477152e-001 0.000000e+000
 0.000000e+000 0.000000e+000 0.000000e+000 8.626209e-001 1.373790e-001
 0.000000e+000 0.000000e+000 0.000000e+000 0.000000e+000 0.000000e+000
<ENDHMM>
~o
<STREAMINFO> 1 39
<VECSIZE> 39<NULLD><MFCC_D_A_0><DIAGC>
~h "eh"
<BEGINHMM>
<NUMSTATES> 5
<STATE> 2
<MEAN> 39
 -4.247725e+000 -1.412798e+001 -2.420577e+000 -1.330302e+001 -1.582106e+001 -1.115321e+001 -7.952549e+000 4.326434e+000 -2.471582e+000 -1.749290e+000 -3.565723e+000 -2.791302e+000 6.490102e+001 9.707866e-001 -1.946417e+000 -3.278035e-001 -7.871026e-001 -7.899289e-001 -2.487811e-001 -3.367816e-001 1.660568e+000 5.495439e-001 -2.902741e-001 -1.182974e-001 -1.653258e-001 1.498531e+000 -6.187388e-001 5.162359e-001 -2.282982e-001 3.017238e-001 6.516921e-001 4.162937e-001 3.667275e-001 -3.163541e-001 -4.564704e-002 2.689938e-002 6.126623e-002 9.010287e-002 -6.228205e-001
<VARIANCE> 39
 1.306351e+001 2.816803e+001 5.111723e+001 5.430863e+001 5.011433e+001 5.774702e+001 8.456686e+001 6.357063e+001 7.986842e+001 5.052539e+001 5.853286e+001 3.948389e+001 1.741299e+001 2.735775e+000 2.255816e+000 2.827707e+000 2.939460e+000 3.708836e+000 3.976195e+000 5.851297e+000 4.249921e+000 3.988261e+000 3.336078e+000 3.030555e+000 2.449168e+000 1.593152e+000 4.834846e-001 3.759415e-001 3.857329e-001 4.991936e-001 5.473252e-001 6.306421e-001 7.793700e-001 7.495831e-001 7.852535e-001 5.853965e-001 6.041079e-001 4.714864e-001 2.943791e-001
<GCONST> 1.276706e+002
<STATE> 3
<MEAN> 39
 -3.825959e+000 -1.585664e+001 -4.783023e+000 -1.322657e+001 -1.461908e+001 -1.070498e+001 -6.063828e+000 6.505873e+000 -1.745932e+000 -3.235265e+000 -4.277007e+000 -2.723950e+000 6.545580e+001 1.753109e-001 -1.486727e-003 -4.549381e-001 1.369958e-001 3.998806e-001 1.772229e-002 -2.126441e-001 1.234253e-001 1.146425e-001 -1.209266e-001 -9.912778e-002 -3.583189e-002 -1.553690e-001 -1.617797e-002 3.687379e-001 3.939662e-002 1.564252e-001 1.410744e-001 -2.039437e-002 -1.394180e-001 -3.689902e-001 -1.459172e-001 9.352686e-002 6.643879e-002 2.931760e-002 -3.579321e-001
<VARIANCE> 39
 1.551929e+001 2.767820e+001 4.648296e+001 5.357851e+001 5.546828e+001 7.034779e+001 9.938488e+001 6.792328e+001 8.850962e+001 5.141802e+001 5.556871e+001 3.979227e+001 1.929140e+001 4.076256e-001 7.957125e-001 1.651838e+000 1.218380e+000 1.656577e+000 1.767308e+000 2.262366e+000 2.099396e+000 1.956078e+000 1.589640e+000 1.463331e+000 1.301889e+000 3.791141e-001 8.285704e-002 1.924432e-001 2.084880e-001 2.399437e-001 2.853071e-001 2.869830e-001 3.793519e-001 3.927211e-001 3.596812e-001 2.956835e-001 2.826519e-001 2.525251e-001 1.415442e-001
<GCONST> 1.063695e+002
<STATE> 4
<MEAN> 39
 -3.595351e+000 -1.310076e+001 -4.899359e+000 -1.187219e+001 -1.301459e+001 -1.115761e+001 -8.579948e+000 4.065819e+000 -1.893836e+000 -2.439561e+000 -4.126584e+000 -2.863014e+000 6.251160e+001 -5.748194e-001 2.250550e+000 1.815840e-001 1.470906e+000 1.305851e+000 2.448168e-001 -1.748789e-001 -1.796003e+000 -7.665663e-001 5.854953e-002 2.105858e-001 1.688246e-001 -2.658410e+000 -5.443801e-001 4.844671e-001 6.926692e-002 2.856628e-001 3.428209e-001 3.878096e-001 3.661909e-001 -3.681419e-001 -1.474861e-001 2.896823e-004 3.137084e-002 7.266884e-003 -5.928366e-001
<VARIANCE> 39
 1.690351e+001 3.439302e+001 6.010252e+001 5.388757e+001 5.908905e+001 7.032564e+001 9.203716e+001 7.099998e+001 8.385869e+001 5.779231e+001 5.994513e+001 4.246180e+001 3.139915e+001 2.920816e+000 3.036397e+000 3.537903e+000 3.874655e+000 4.319067e+000 4.393645e+000 5.651635e+000 5.154562e+000 4.984087e+000 3.996968e+000 3.892537e+000 3.301049e+000 4.119047e+000 4.198700e-001 4.939964e-001 4.784454e-001 5.740293e-001 6.920235e-001 7.346511e-001 7.905883e-001 9.202005e-001 8.748657e-001 7.016236e-001 6.771579e-001 5.394500e-001 5.625358e-001
<GCONST> 1.351633e+002
<TRANSP> 5
 0.000000e+000 1.000000e+000 0.000000e+000 0.000000e+000 0.000000e+000
 0.000000e+000 5.204086e-001 4.795914e-001 0.000000e+000 0.000000e+000
 0.000000e+000 0.000000e+000 7.845057e-001 2.154942e-001 0.000000e+000
 0.000000e+000 0.000000e+000 0.000000e+000 5.766285e-001 4.233715e-001
 0.000000e+000 0.000000e+000 0.000000e+000 0.000000e+000 0.000000e+000
<ENDHMM>
~o
<STREAMINFO> 1 39
<VECSIZE> 39<NULLD><MFCC_D_A_0><DIAGC>
~h "er"
<BEGINHMM>
<NUMSTATES> 5
<STATE> 2
<MEAN> 39
 1.126138e+000 -1.461883e+001 -1.091288e+001 -7.963913e+000 -8.616314e+000 -1.403663e+001 -1.629930e+001 4.715939e+000 -1.736167e+000 -3.587834e+000 -1.287699e+000 -8.158635e-001 6.118922e+001 1.730613e+000 -1.102921e+000 -1.614668e+000 -3.360979e-002 7.052747e-001 -8.411597e-001 -2.179560e+000 1.397387e+000 9.780553e-001 -2.516161e-001 4.457426e-002 2.241585e-001 5.429750e-001 -8.465288e-001 3.909942e-001 2.484120e-001 8.940762e-002 2.055643e-001 4.012396e-001 5.664125e-001 -2.820002e-001 1.229644e-002 1.399178e-001 -6.453228e-002 -3.968700e-002 -3.212244e-001
<VARIANCE> 39
 1.589088e+001 2.822635e+001 8.707155e+001 5.280244e+001 7.480012e+001 8.364123e+001 1.005456e+002 7.830811e+001 9.475026e+001 5.697658e+001 5.325256e+001 3.848499e+001 1.831464e+001 3.362013e+000 2.164783e+000 2.925138e+000 2.720261e+000 3.963473e+000 3.893999e+000 6.350668e+000 4.814380e+000 4.400982e+000 3.513366e+000 2.984427e+000 2.465745e+000 1.219814e+000 5.287068e-001 3.435335e-001 5.586570e-001 4.531793e-001 6.572542e-001 6.127158e-001 8.765450e-001 7.455956e-001 6.476709e-001 5.891173e-001 5.338591e-001 4.522295e-001 1.918601e-001
<GCONST> 1.297546e+002
<STATE> 3
<MEAN> 39
 2.794904e+000 -1.479603e+001 -1.528268e+001 -6.884560e+000 -5.287790e+000 -1.455246e+001 -1.906193e+001 6.345689e+000 1.896191e+000 -3.589053e+000 -1.649620e+000 -5.784324e-001 6.031321e+001 -2.223042e-002 1.255281e-001 -2.152970e-002 1.898744e-001 1.304902e-001 -7.311399e-002 -1.368642e-001 1.442698e-002 7.474256e-002 -7.872485e-002 -1.405819e-001 1.533921e-002 -2.145855e-001 -1.668423e-001 1.256064e-001 3.121660e-001 8.229031e-003 -2.077780e-001 1.220675e-001 3.246836e-001 -2.224126e-001 -2.256849e-001 -1.920945e-002 8.626465e-003 -2.110153e-002 -1.082734e-001
<VARIANCE> 39
 1.069228e+001 2.719900e+001 6.631226e+001 4.336774e+001 7.024517e+001 8.660191e+001 1.235202e+002 8.723672e+001 1.039698e+002 5.110070e+001 4.377246e+001 3.410473e+001 2.027281e+001 2.955846e-001 5.640630e-001 1.742630e+000 9.645844e-001 1.867231e+000 1.560438e+000 2.115297e+000 1.822621e+000 1.792661e+000 1.493633e+000 1.303431e+000 1.144748e+000 2.714836e-001 6.858235e-002 1.248446e-001 1.673164e-001 1.708975e-001 2.354623e-001 2.563538e-001 3.851836e-001 3.732056e-001 2.902443e-001 2.642100e-001 2.233330e-001 2.001362e-001 6.143371e-002
<GCONST> 1.019083e+002
<STATE> 4
<MEAN> 39
 -4.428035e-002 -1.244485e+001 -1.008238e+001 -5.129744e+000 -7.313544e+000 -1.467186e+001 -1.553409e+001 4.022840e+000 -1.504268e+000 -4.768387e+000 -3.083605e+000 -2.704381e-001 5.741980e+001 -1.788222e+000 1.573852e+000 1.646507e+000 5.137372e-001 -2.068852e-001 1.243291e+000 2.288661e+000 -1.577712e+000 -8.631299e-001 -1.340785e-002 -2.535385e-001 -2.759012e-001 -1.716963e+000 -6.126488e-001 3.910572e-001 1.757409e-001 -8.778930e-002 2.038997e-001 4.774173e-001 4.278972e-001 -2.357263e-001 -5.866323e-002 2.001300e-001 4.345462e-002 -1.381422e-001 -3.638993e-001
<VARIANCE> 39
 1.830344e+001 3.323204e+001 8.719202e+001 5.850785e+001 8.099866e+001 7.977877e+001 1.141290e+002 7.661232e+001 9.732527e+001 5.772025e+001 4.608377e+001 3.518938e+001 3.511612e+001 3.301975e+000 3.746121e+000 3.805269e+000 4.224970e+000 5.173097e+000 5.344420e+000 7.504346e+000 5.910790e+000 5.146131e+000 4.538415e+000 3.938260e+000 2.861027e+000 3.713664e+000 4.013177e-001 5.273160e-001 5.867293e-001 6.109165e-001 7.548892e-001 7.741430e-001 1.065594e+000 8.778024e-001 7.605662e-001 6.772162e-001 6.264507e-001 4.861035e-001 4.393225e-001
<GCONST> 1.374897e+002
<TRANSP> 5
 0.000000e+000 1.000000e+000 0.000000e+000 0.000000e+000 0.000000e+000
 0.000000e+000 5.986100e-001 4.013900e-001 0.000000e+000 0.000000e+000
 0.000000e+000 0.000000e+000 8.386373e-001 1.613628e-001 0.000000e+000
 0.000000e+000 0.000000e+000 0.000000e+000 6.937849e-001 3.062151e-001
 0.000000e+000 0.000000e+000 0.000000e+000 0.000000e+000 0.000000e+000
<ENDHMM>
~o
<STREAMINFO> 1 39
<VECSIZE> 39<NULLD><MFCC_D_A_0><DIAGC>
~h "ey"
<BEGINHMM>
<NUMSTATES> 5
<STATE> 2
<MEAN> 39
 -4.578713e+000 -1.456018e+001 -1.254130e+000 -1.339458e+001 -1.685943e+001 -1.107785e+001 -7.793032e+000 4.942701e+000 -1.328030e+000 -1.910114e+000 -3.070331e+000 -2.734984e+000 6.533337e+001 -8.489356e-002 -7.793998e-001 1.385833e+000 -6.536051e-001 -1.712186e+000 -4.564005e-001 5.970020e-001 9.984164e-001 -6.909462e-001 -2.689241e-001 6.105198e-001 4.643826e-001 9.070969e-001 -3.929677e-001 5.865912e-001 1.817499e-002 1.974597e-001 3.428191e-001 3.438974e-001 1.948534e-001 -6.164361e-001 -3.482074e-001 1.656502e-001 2.732270e-001 7.478960e-003 -5.558037e-001
<VARIANCE> 39
 1.229599e+001 2.595958e+001 4.594505e+001 5.344344e+001 4.698228e+001 5.074212e+001 7.867850e+001 5.696760e+001 7.535821e+001 5.103753e+001 5.839929e+001 3.719742e+001 1.851020e+001 1.464136e+000 2.220109e+000 2.110848e+000 2.892124e+000 2.585651e+000 3.333717e+000 4.042214e+000 4.253018e+000 3.348280e+000 3.523473e+000 2.924664e+000 2.366530e+000 1.404130e+000 3.806649e-001 2.692365e-001 2.937914e-001 4.513733e-001 4.838022e-001 5.205779e-001 7.044216e-001 6.333126e-001 7.327684e-001 5.477940e-001 5.666636e-001 4.824738e-001 2.053941e-001
<GCONST> 1.227416e+002
<STATE> 3
<MEAN> 39
 -6.691932e+000 -1.214543e+001 3.999034e+000 -1.512968e+001 -2.098782e+001 -1.026254e+001 -5.074166e+000 1.870907e+000 -6.284720e+000 -7.074084e-001 -6.623337e-001 -2.021330e+000 6.462661e+001 -1.743230e-001 5.208589e-001 7.698954e-001 2.064624e-002 -3.752063e-001 1.214765e-001 -1.204106e-001 -6.763750e-001 -6.948372e-001 1.674286e-001 3.006507e-001 -1.463283e-002 -3.635785e-001 4.419770e-002 1.141268e-001 -1.565631e-001 1.914238e-001 2.595254e-001 -1.366234e-002 -1.305337e-001 -8.070011e-002 3.746247e-002 -7.073767e-002 -1.304065e-001 -4.351296e-002 -2.051084e-001
<VARIANCE> 39
 1.263210e+001 2.945732e+001 4.271624e+001 7.322333e+001 3.933565e+001 5.709481e+001 6.874394e+001 7.104823e+001 5.940760e+001 5.197554e+001 6.991094e+001 3.069225e+001 2.067050e+001 2.690432e-001 6.640012e-001 1.073810e+000 9.515376e-001 1.052995e+000 1.230396e+000 1.525276e+000 1.636872e+000 1.848957e+000 1.449418e+000 1.347014e+000 1.075716e+000 2.901783e-001 5.592635e-002 1.239499e-001 1.636606e-001 1.851244e-001 2.254127e-001 2.339914e-001 2.799284e-001 2.934367e-001 2.655262e-001 2.506350e-001 2.380167e-001 1.952277e-001 7.598768e-002
<GCONST> 9.791685e+001
<STATE> 4
<MEAN> 39
 -6.971542e+000 -8.317404e+000 6.794283e+000 -1.146628e+001 -1.991551e+001 -1.103734e+001 -7.497501e+000 -1.545403e+000 -9.812131e+000 -1.619951e+000 -2.204924e-001 -1.971972e+000 5.973420e+001 -6.299967e-001 1.587463e+000 -9.801690e-001 1.799288e+000 2.252943e+000 3.328522e-001 2.090717e-001 -7.047082e-001 1.006356e-001 -5.514424e-001 -5.653442e-001 -1.677804e-001 -2.408799e+000 -4.412777e-001 1.615859e-001 -6.428946e-001 1.717950e-001 7.592772e-001 3.464995e-001 2.881281e-001 6.874079e-002 4.758758e-001 6.274708e-002 -1.318351e-001 -6.438734e-003 -3.753772e-001
<VARIANCE> 39
 1.509898e+001 3.991847e+001 4.271507e+001 7.940110e+001 4.265940e+001 5.453871e+001 6.122932e+001 7.782069e+001 5.501917e+001 5.906946e+001 6.973904e+001 3.409507e+001 3.851485e+001 3.258190e+000 2.963130e+000 3.848528e+000 3.890455e+000 5.015407e+000 4.430395e+000 5.037586e+000 4.702037e+000 4.870805e+000 3.937726e+000 3.876974e+000 2.813609e+000 4.029685e+000 4.590363e-001 5.307145e-001 4.680388e-001 6.961177e-001 6.516136e-001 6.987646e-001 7.030738e-001 8.682827e-001 7.613444e-001 6.891081e-001 6.468374e-001 4.841268e-001 5.697575e-001
<GCONST> 1.337344e+002
<TRANSP> 5
 0.000000e+000 1.000000e+000 0.000000e+000 0.000000e+000 0.000000e+000
 0.000000e+000 6.319431e-001 3.680569e-001 0.000000e+000 0.000000e+000
 0.000000e+000 0.000000e+000 8.436820e-001 1.563180e-001 0.000000e+000
 0.000000e+000 0.000000e+000 0.000000e+000 6.984588e-001 3.015412e-001
 0.000000e+000 0.000000e+000 0.000000e+000 0.000000e+000 0.000000e+000
<ENDHMM>
~o
<STREAMINFO> 1 39
<VECSIZE> 39<NULLD><MFCC_D_A_0><DIAGC>
~h "f"
<BEGINHMM>
<NUMSTATES> 5
<STATE> 2
<MEAN> 39
 -1.852324e+001 -5.151875e+000 -6.275815e+000 -4.951930e+000 -3.130816e+000 -3.089437e+000 -2.131429e+000 -6.128982e-001 -1.898596e+000 -1.356691e+000 -2.632731e+000 -1.057624e+000 5.230568e+001 -3.854109e+000 -5.710267e-001 -4.273566e-001 6.426019e-001 3.521800e-001 3.858028e-001 6.222652e-001 6.076652e-001 6.981149e-001 3.922030e-001 4.328494e-001 6.018558e-001 -7.300489e-001 6.130042e-001 -4.372807e-001 -2.255520e-001 -5.448073e-001 -4.833144e-001 -2.715987e-001 -4.060432e-001 -8.342262e-002 -1.135894e-001 6.539133e-002 1.345252e-002 -7.901310e-002 3.801465e-001
<VARIANCE> 39
 3.618251e+001 1.737927e+001 1.577463e+001 1.628069e+001 1.596573e+001 2.021825e+001 1.881561e+001 1.942064e+001 2.019347e+001 1.913020e+001 1.603873e+001 1.445764e+001 3.619615e+001 5.433657e+000 2.908894e+000 3.968789e+000 4.394635e+000 3.497809e+000 4.149149e+000 4.099371e+000 3.646433e+000 3.674066e+000 3.262404e+000 3.247990e+000 2.515283e+000 3.123248e+000 7.607694e-001 5.901629e-001 5.616165e-001 6.614354e-001 5.833372e-001 5.683879e-001 6.503788e-001 6.221403e-001 6.100693e-001 5.545394e-001 5.061522e-001 4.387641e-001 5.387702e-001
<GCONST> 1.200545e+002
<STATE> 3
<MEAN> 39
 -2.387817e+001 -8.684054e+000 -9.452716e+000 -6.523994e+000 -4.989348e+000 -4.027129e+000 -3.025815e+000 -2.822001e-001 -1.042698e+000 -1.662505e-001 -1.706120e+000 -1.211606e-001 5.319038e+001 2.989402e-001 -1.345591e-001 -1.242639e-001 -1.401482e-001 -7.244015e-002 -7.736269e-002 -9.682489e-002 -8.322381e-002 1.562532e-002 5.868360e-002 1.557027e-002 -3.097754e-002 1.384965e-001 8.885996e-001 1.597959e-001 1.451727e-001 -1.168089e-001 -3.427619e-002 -6.009245e-002 -1.324578e-001 -9.835983e-002 -1.086082e-001 -8.875909e-002 -6.423174e-002 -1.145151e-001 1.014700e-001
<VARIANCE> 39
 1.024310e+001 1.240205e+001 1.085792e+001 1.231113e+001 1.281787e+001 1.380067e+001 1.456376e+001 1.413222e+001 1.403612e+001 1.392178e+001 1.308838e+001 1.173468e+001 2.271808e+001 2.805525e+000 1.050592e+000 1.230856e+000 1.299708e+000 1.385720e+000 1.488566e+000 1.563194e+000 1.616733e+000 1.590379e+000 1.531823e+000 1.475838e+000 1.323130e+000 1.608041e+000 5.096019e-001 2.539639e-001 3.131123e-001 3.724654e-001 3.707025e-001 4.094645e-001 4.463507e-001 4.079833e-001 4.048528e-001 3.690160e-001 3.691735e-001 3.170277e-001 3.044922e-001
<GCONST> 9.757134e+001
<STATE> 4
<MEAN> 39
 -1.387556e+001 -6.989306e+000 -7.968291e+000 -8.022771e+000 -5.598100e+000 -4.610656e+000 -3.702872e+000 -1.503075e+000 -1.872164e+000 -8.801818e-001 -2.296445e+000 -1.297377e+000 5.437961e+001 5.289289e+000 -3.518245e-002 6.515479e-002 -1.752698e+000 -1.426894e+000 -6.419476e-001 -1.502544e+000 -5.216896e-001 -6.723853e-001 -4.521087e-001 -1.008545e-001 -5.710999e-001 1.227192e+000 1.424411e-001 -3.581697e-001 -1.397157e-001 -3.680488e-001 -3.395022e-001 -3.087789e-002 -3.369969e-001 1.121396e-001 -5.632342e-002 -1.302691e-002 1.006577e-001 1.351512e-004 2.794258e-001
<VARIANCE> 39
 7.152974e+001 2.049074e+001 2.849976e+001 3.117564e+001 2.830166e+001 3.132506e+001 2.863212e+001 2.530332e+001 2.414631e+001 1.993152e+001 1.922249e+001 1.635867e+001 2.766063e+001 4.457674e+000 4.119850e+000 5.690951e+000 5.854776e+000 5.236740e+000 6.495970e+000 6.251756e+000 4.891814e+000 4.874401e+000 3.889280e+000 4.100006e+000 3.025995e+000 4.089633e+000 1.309622e+000 4.791917e-001 4.971673e-001 6.602851e-001 6.776513e-001 6.953372e-001 7.902170e-001 6.880602e-001 6.518015e-001 5.824738e-001 4.984453e-001 4.201367e-001 4.533242e-001
<GCONST> 1.283450e+002
<TRANSP> 5
 0.000000e+000 1.000000e+000 0.000000e+000 0.000000e+000 0.000000e+000
 0.000000e+000 5.341380e-001 4.658620e-001 0.000000e+000 0.000000e+000
 0.000000e+000 0.000000e+000 8.336557e-001 1.663444e-001 0.000000e+000
 0.000000e+000 0.000000e+000 0.000000e+000 5.699629e-001 4.300371e-001
 0.000000e+000 0.000000e+000 0.000000e+000 0.000000e+000 0.000000e+000
<ENDHMM>
~o
<STREAMINFO> 1 39
<VECSIZE> 39<NULLD><MFCC_D_A_0><DIAGC>
~h "g"
<BEGINHMM>
<NUMSTATES> 5
<STATE> 2
<MEAN> 39
 -9.695126e+000 1.988612e+000 7.433975e-001 5.633923e-001 -7.005277e+000 -9.110210e+000 -5.979135e+000 -4.664056e+000 -9.528596e+000 -4.831681e+000 -3.190453e+000 -3.665679e+000 4.093070e+001 -1.215780e+000 -4.890858e-001 -1.539205e+000 3.627002e-001 2.213597e+000 1.187638e+000 -8.752073e-002 -1.165233e-001 1.409598e+000 3.124814e-001 -4.298466e-001 2.721621e-001 -7.971813e-001 1.511776e-001 -1.293890e+000 -5.694507e-001 -1.029778e+000 -2.646669e-001 -5.565672e-002 -6.164396e-002 3.626834e-001 3.241437e-001 5.807701e-001 1.852749e-001 1.838034e-001 1.804367e+000
<VARIANCE> 39
 2.896817e+001 2.694657e+001 3.237304e+001 3.164351e+001 5.160112e+001 5.017962e+001 4.067586e+001 5.491596e+001 4.351765e+001 3.800537e+001 4.012236e+001 2.801418e+001 3.454871e+001 2.725977e+000 1.184141e+001 6.230316e+000 7.290501e+000 6.702507e+000 6.260056e+000 6.311287e+000 8.556805e+000 5.854237e+000 6.343708e+000 4.851372e+000 3.460343e+000 1.179920e+001 5.618604e-001 9.350512e-001 8.306231e-001 9.136878e-001 1.088316e+000 1.149991e+000 1.069306e+000 1.055564e+000 9.996314e-001 9.124234e-001 8.010043e-001 5.979218e-001 1.023782e+000
<GCONST> 1.413583e+002
<STATE> 3
<MEAN> 39
 -1.293489e+001 -1.092801e+001 -1.001023e+001 -5.534338e+000 -1.032228e+000 -6.118647e+000 -5.961469e+000 -1.511606e+000 -2.832336e+000 9.333671e-001 -3.075492e+000 -9.101427e-001 5.069530e+001 7.106431e-001 -1.420958e+000 -9.016283e-001 -1.791451e+000 -2.698092e-001 -5.506691e-001 -8.529232e-001 5.848631e-002 5.737366e-001 9.501011e-001 2.194410e-001 3.580893e-001 3.342621e+000 7.925579e-001 1.007374e+000 9.732378e-001 1.563810e-003 -9.510696e-001 -4.585089e-001 -3.076849e-001 -2.547419e-001 -6.367238e-001 -4.186607e-001 1.709971e-001 -2.014214e-001 -6.765559e-002
<VARIANCE> 39
 3.350887e+001 5.311765e+001 6.808960e+001 5.208075e+001 5.603363e+001 6.391354e+001 5.755864e+001 4.964348e+001 4.445006e+001 3.681034e+001 3.027664e+001 2.307706e+001 6.632855e+001 4.131039e+000 8.976537e+000 7.629001e+000 6.612522e+000 6.682168e+000 6.713249e+000 5.752548e+000 6.179646e+000 5.838305e+000 4.874387e+000 3.763283e+000 2.959130e+000 7.359504e+000 6.007171e-001 1.437708e+000 1.091675e+000 1.445500e+000 1.138294e+000 1.230698e+000 1.239377e+000 1.303293e+000 1.110036e+000 1.152072e+000 9.685597e-001 6.607863e-001 1.568056e+000
<GCONST> 1.456591e+002
<STATE> 4
<MEAN> 39
 -7.022400e+000 -5.810535e+000 -3.712720e+000 -7.055911e+000 -7.292037e+000 -1.071282e+001 -1.002841e+001 -4.043161e+000 -6.311543e+000 -4.321323e-001 -1.786928e+000 -1.470987e+000 5.598342e+001 2.385272e+000 4.739270e-001 8.913378e-001 -1.150020e+000 -1.925877e+000 -1.005179e+000 -1.566551e+000 1.010193e-001 -5.533005e-001 -5.180363e-001 7.467203e-001 -1.178377e-001 1.588404e+000 1.002818e-003 -2.803502e-001 -2.561109e-001 3.633747e-002 3.993580e-002 2.601373e-001 1.509888e-001 4.202284e-001 8.630633e-002 -1.911844e-001 -3.275632e-003 -8.085465e-002 -4.351608e-001
<VARIANCE> 39
 3.427435e+001 3.178086e+001 7.474353e+001 5.683205e+001 8.048480e+001 6.323954e+001 5.939895e+001 5.821707e+001 4.986704e+001 4.377574e+001 4.317108e+001 2.541600e+001 2.905118e+001 4.097659e+000 4.541743e+000 4.666374e+000 6.922289e+000 5.796484e+000 6.872274e+000 7.063983e+000 6.059795e+000 6.636430e+000 6.675745e+000 5.000890e+000 3.488529e+000 2.430258e+000 4.519944e-001 8.493623e-001 8.261123e-001 6.406834e-001 9.713643e-001 8.947404e-001 9.410472e-001 9.099585e-001 9.341146e-001 8.646494e-001 6.380207e-001 5.535610e-001 6.295283e-001
<GCONST> 1.395384e+002
<TRANSP> 5
 0.000000e+000 1.000000e+000 0.000000e+000 0.000000e+000 0.000000e+000
 0.000000e+000 6.645975e-001 3.354025e-001 0.000000e+000 0.000000e+000
 0.000000e+000 0.000000e+000 6.109905e-001 3.890096e-001 0.000000e+000
 0.000000e+000 0.000000e+000 0.000000e+000 4.202234e-001 5.797766e-001
 0.000000e+000 0.000000e+000 0.000000e+000 0.000000e+000 0.000000e+000
<ENDHMM>
~o
<STREAMINFO> 1 39
<VECSIZE> 39<NULLD><MFCC_D_A_0><DIAGC>
~h "hh"
<BEGINHMM>
<NUMSTATES> 5
<STATE> 2
<MEAN> 39
 -1.313216e+001 -8.711070e+000 -2.629250e+000 -9.558309e+000 -6.329159e+000 -1.517836e+000 1.385804e+000 -8.279439e-001 -3.657696e+000 -2.578527e+000 -4.240771e+000 -9.480838e-001 5.562125e+001 -3.387319e-002 -2.312803e-001 -1.410400e-001 -2.850814e-003 2.680416e-001 4.331360e-001 6.342230e-001 -7.141110e-002 2.777361e-002 -1.569590e-001 -2.349073e-001 -1.530007e-001 2.741541e-001 4.433142e-001 1.571769e-001 -1.235363e-002 -1.137855e-001 -3.493572e-001 -3.019747e-001 -4.656460e-001 -1.607739e-001 -1.862088e-001 -5.243375e-002 1.435852e-002 -1.545705e-001 1.732146e-001
<VARIANCE> 39
 2.555480e+001 4.144819e+001 7.119637e+001 5.019732e+001 6.609794e+001 5.190790e+001 4.989397e+001 6.529063e+001 5.109982e+001 4.331508e+001 4.098144e+001 2.859440e+001 3.130043e+001 2.117310e+000 1.797142e+000 2.489575e+000 2.272983e+000 2.954689e+000 2.981750e+000 3.634109e+000 3.216188e+000 3.177313e+000 2.735185e+000 2.554800e+000 2.068039e+000 1.034377e+000 2.562204e-001 4.083738e-001 4.031007e-001 4.723448e-001 5.536964e-001 5.501344e-001 6.427211e-001 6.012486e-001 6.029938e-001 5.627643e-001 5.448801e-001 4.178191e-001 1.815793e-001
<GCONST> 1.225080e+002
<STATE> 3
<MEAN> 39
 -1.110134e+001 -6.316106e+000 -1.136574e+000 -8.704344e+000 -7.700934e+000 -2.432176e+000 7.678418e-001 -2.135980e+000 -5.280373e+000 -3.170395e+000 -5.027586e+000 -2.076262e+000 5.594974e+001 2.076911e+000 3.505163e-001 -9.249118e-002 -7.236796e-001 -1.414046e+000 -9.771657e-001 -1.185093e+000 -4.522922e-001 -7.372630e-001 -4.810890e-001 -2.974639e-001 -5.988034e-001 1.468528e+000 2.950948e-001 -4.327218e-001 -2.426434e-001 -4.452581e-001 -3.941406e-001 -3.074746e-001 -4.903275e-001 1.363728e-001 3.703504e-002 6.288358e-002 2.035200e-001 1.212467e-002 4.497380e-001
<VARIANCE> 39
 2.434624e+001 3.912990e+001 7.369724e+001 5.447102e+001 7.109177e+001 5.745342e+001 5.647005e+001 7.293905e+001 5.160876e+001 4.882316e+001 4.562381e+001 2.990503e+001 3.561850e+001 2.334294e+000 2.334061e+000 3.980057e+000 2.771462e+000 3.461363e+000 3.377284e+000 4.260609e+000 3.690475e+000 3.908896e+000 2.847486e+000 3.254418e+000 2.236063e+000 1.612506e+000 2.536288e-001 3.266795e-001 3.363835e-001 3.354738e-001 4.526779e-001 4.664005e-001 6.224328e-001 5.225897e-001 5.249434e-001 5.576856e-001 4.351641e-001 3.873717e-001 1.557745e-001
<GCONST> 1.240588e+002
<STATE> 4
<MEAN> 39
 -6.756996e+000 -7.478262e+000 -2.651704e+000 -1.313198e+001 -1.278018e+001 -6.400508e+000 -9.424660e-001 -2.877676e+000 -7.054509e+000 -4.018343e+000 -5.907944e+000 -2.938297e+000 6.175134e+001 1.469317e+000 -1.509010e+000 -9.997000e-001 -9.940460e-001 -1.062817e+000 -9.371126e-001 -9.091735e-001 5.681686e-001 4.605004e-002 -1.355316e-002 2.477234e-001 -1.986157e-001 1.701764e+000 -3.098633e-001 -4.240871e-001 5.127053e-002 3.741499e-002 1.768953e-001 1.636247e-001 -2.921594e-002 2.556897e-001 2.801017e-001 1.264254e-001 1.811324e-001 7.693353e-002 -3.761144e-002
<VARIANCE> 39
 1.635126e+001 3.028553e+001 7.709570e+001 6.508910e+001 6.693195e+001 6.060413e+001 6.131799e+001 8.060920e+001 5.706382e+001 4.787171e+001 5.786017e+001 2.854879e+001 2.415393e+001 1.512924e+000 2.054424e+000 3.099871e+000 2.677679e+000 3.535002e+000 3.161791e+000 4.532176e+000 3.543838e+000 3.378963e+000 3.199219e+000 2.590688e+000 2.228218e+000 1.283659e+000 2.209215e-001 2.327459e-001 3.367111e-001 3.145981e-001 3.886214e-001 3.644178e-001 4.917623e-001 4.500335e-001 4.053553e-001 4.167776e-001 3.691460e-001 3.100598e-001 1.242618e-001
<GCONST> 1.198408e+002
<TRANSP> 5
 0.000000e+000 1.000000e+000 0.000000e+000 0.000000e+000 0.000000e+000
 0.000000e+000 6.859986e-001 3.140014e-001 0.000000e+000 0.000000e+000
 0.000000e+000 0.000000e+000 3.622949e-001 6.377051e-001 0.000000e+000
 0.000000e+000 0.000000e+000 0.000000e+000 4.798366e-001 5.201634e-001
 0.000000e+000 0.000000e+000 0.000000e+000 0.000000e+000 0.000000e+000
<ENDHMM>
~o
<STREAMINFO> 1 39
<VECSIZE> 39<NULLD><MFCC_D_A_0><DIAGC>
~h "ia"
<BEGINHMM>
<NUMSTATES> 5
<STATE> 2
<MEAN> 39
 -1.111397e+001 -5.603333e+000 1.254565e+001 -9.308722e+000 -1.722028e+001 -7.931757e+000 -7.801353e+000 -5.621165e+000 -1.138756e+001 -4.901621e+000 -1.601588e+000 -2.638299e+000 5.671158e+001 1.647040e+000 -1.401422e+000 3.542439e-001 9.684252e-001 -1.773359e+000 -2.854743e+000 -6.847776e-002 1.332994e+000 -1.355635e+000 6.744013e-002 1.096346e+000 3.576508e-001 1.489243e+000 6.366591e-001 -2.741818e-001 -9.569205e-001 4.410988e-001 5.385813e-001 -5.734535e-001 -3.069516e-001 8.622827e-001 1.841452e-001 -2.248456e-001 1.845301e-001 1.244717e-001 -3.553860e-001
<VARIANCE> 39
 1.700926e+001 1.779848e+001 1.951332e+001 7.618992e+001 3.057701e+001 4.665767e+001 3.115425e+001 3.460170e+001 3.295970e+001 4.495837e+001 3.489529e+001 2.474352e+001 1.880385e+001 2.705465e+000 2.128910e+000 3.749436e+000 3.625817e+000 3.515705e+000 6.202408e+000 4.864581e+000 4.420508e+000 3.627814e+000 5.643660e+000 2.722835e+000 1.946716e+000 1.562169e+000 4.123256e-001 2.777986e-001 4.093342e-001 6.120278e-001 6.522229e-001 8.063052e-001 8.258615e-001 7.329685e-001 6.721925e-001 6.267211e-001 4.132124e-001 4.002489e-001 2.996864e-001
<GCONST> 1.230158e+002
<STATE> 3
<MEAN> 39
 -5.414504e+000 -1.174878e+001 9.383121e+000 -5.454977e+000 -1.847494e+001 -1.639688e+001 -9.298134e+000 1.994602e+000 -1.460303e+001 -6.169082e+000 2.880681e+000 -1.226761e+000 5.974784e+001 2.304162e+000 -2.015108e+000 -2.127321e+000 8.574046e-001 6.210883e-001 -2.978129e+000 -1.891974e+000 3.146118e+000 3.753561e-001 -1.071818e+000 1.058897e+000 1.105630e+000 9.174400e-001 -1.768115e-001 2.282684e-001 -6.422669e-001 -2.381024e-001 8.157202e-001 7.589156e-001 -5.011301e-001 -1.307646e-001 9.739917e-001 -1.018785e-001 -5.227001e-001 1.267255e-001 -3.706863e-001
<VARIANCE> 39
 8.549117e+000 1.813754e+001 3.068402e+001 6.192480e+001 2.937515e+001 4.190638e+001 4.961049e+001 3.873693e+001 4.993294e+001 8.737853e+001 3.421008e+001 2.964267e+001 1.492675e+001 1.517693e+000 1.286494e+000 2.973802e+000 2.030959e+000 2.970480e+000 3.857786e+000 5.913081e+000 3.800427e+000 4.349419e+000 3.443869e+000 2.638512e+000 2.436555e+000 5.398591e-001 2.569720e-001 2.494038e-001 4.758897e-001 4.582332e-001 4.560797e-001 6.653547e-001 6.427216e-001 5.331507e-001 5.645767e-001 9.901390e-001 3.653199e-001 3.212141e-001 1.484127e-001
<GCONST> 1.177567e+002
<STATE> 4
<MEAN> 39
 -1.043410e+000 -1.478459e+001 1.963342e+000 -3.605757e+000 -1.381941e+001 -1.937380e+001 -1.715309e+001 8.343260e+000 -7.771274e+000 -9.701092e+000 2.818616e+000 2.361055e+000 6.079902e+001 1.283941e+000 -7.450792e-001 -2.318844e+000 1.068269e-001 1.486759e+000 -3.514004e-001 -2.121437e+000 1.066861e+000 1.878492e+000 -1.558611e-001 -5.755764e-001 5.497798e-001 9.688801e-002 -5.077304e-001 5.164039e-001 3.777429e-001 -4.735738e-002 -1.199449e-001 9.147322e-001 6.066709e-001 -1.019914e+000 -1.193145e-003 2.955011e-001 -3.971974e-001 -3.147857e-001 -3.886434e-001
<VARIANCE> 39
 9.141602e+000 2.052711e+001 4.509016e+001 4.420152e+001 4.437594e+001 4.464567e+001 8.454870e+001 4.739736e+001 7.036564e+001 6.276922e+001 3.334882e+001 2.815186e+001 1.220183e+001 6.636694e-001 8.144106e-001 2.826779e+000 1.553291e+000 2.424446e+000 2.317036e+000 3.377894e+000 2.747490e+000 2.745691e+000 2.753515e+000 1.791154e+000 1.320337e+000 3.340220e-001 1.812830e-001 2.189070e-001 3.768299e-001 3.948381e-001 4.546037e-001 6.180264e-001 8.606881e-001 5.073084e-001 6.214596e-001 5.965955e-001 3.927188e-001 3.123645e-001 1.015186e-001
<GCONST> 1.121329e+002
<TRANSP> 5
 0.000000e+000 1.000000e+000 0.000000e+000 0.000000e+000 0.000000e+000
 0.000000e+000 5.814219e-001 4.185781e-001 0.000000e+000 0.000000e+000
 0.000000e+000 0.000000e+000 4.857459e-001 5.142541e-001 0.000000e+000
 0.000000e+000 0.000000e+000 0.000000e+000 5.986892e-001 4.013108e-001
 0.000000e+000 0.000000e+000 0.000000e+000 0.000000e+000 0.000000e+000
<ENDHMM>
~o
<STREAMINFO> 1 39
<VECSIZE> 39<NULLD><MFCC_D_A_0><DIAGC>
~h "ih"
<BEGINHMM>
<NUMSTATES> 5
<STATE> 2
<MEAN> 39
 -5.578000e+000 -1.100693e+001 1.805933e+000 -1.218167e+001 -1.698165e+001 -1.228720e+001 -9.359692e+000 1.922553e+000 -5.679417e+000 -2.760430e+000 -2.391894e+000 -1.466700e+000 6.215819e+001 4.801787e-001 -4.444997e-001 2.234365e-001 -1.864322e-001 -4.517983e-001 -2.141192e-001 -2.714382e-001 4.907637e-001 -1.630188e-001 -1.597667e-001 -1.167301e-002 1.148347e-002 2.827074e-001 -3.921724e-001 5.470660e-001 -3.118191e-001 3.754994e-001 6.325243e-001 2.897063e-001 2.752441e-001 -4.031478e-001 -3.401202e-002 7.151305e-002 -4.888551e-002 -6.199239e-002 -6.756859e-001
<VARIANCE> 39
 1.252633e+001 2.913364e+001 4.928276e+001 6.323819e+001 4.984507e+001 5.680863e+001 7.492818e+001 6.234440e+001 7.134647e+001 5.344714e+001 5.623713e+001 3.655815e+001 2.256967e+001 1.812058e+000 1.895863e+000 2.679176e+000 2.390426e+000 3.546782e+000 2.941566e+000 3.761860e+000 3.458726e+000 3.593486e+000 2.896004e+000 2.664331e+000 2.035783e+000 1.555659e+000 4.887049e-001 3.554130e-001 3.988029e-001 4.987656e-001 5.684832e-001 6.608621e-001 8.024812e-001 7.094370e-001 6.884539e-001 5.856436e-001 5.232230e-001 4.192979e-001 3.744692e-001
<GCONST> 1.251724e+002
<STATE> 3
<MEAN> 39
 -4.942333e+000 -1.083271e+001 1.565914e+000 -1.096977e+001 -1.573777e+001 -1.253459e+001 -1.078251e+001 1.967516e+000 -6.306932e+000 -3.011495e+000 -2.698644e+000 -1.774092e+000 6.075447e+001 -3.015781e-001 1.642476e+000 -4.595600e-001 1.198729e+000 1.221743e+000 2.785355e-001 4.862314e-001 -1.108163e+000 -3.612817e-001 -4.456982e-003 -2.782704e-001 -2.768611e-001 -1.976285e+000 -6.741283e-001 8.435509e-001 -4.270601e-001 5.055976e-001 8.254751e-001 5.035659e-001 5.564198e-001 -6.183018e-001 6.334056e-002 1.431414e-001 -5.356716e-002 -8.640443e-002 -9.471571e-001
<VARIANCE> 39
 1.324474e+001 3.021795e+001 5.424228e+001 6.161411e+001 5.414338e+001 6.120671e+001 7.742646e+001 6.945362e+001 8.291135e+001 6.031676e+001 6.413927e+001 4.208868e+001 2.131928e+001 1.876372e+000 2.484976e+000 3.394058e+000 3.554425e+000 4.026937e+000 3.792320e+000 4.820064e+000 4.671885e+000 5.059203e+000 4.013771e+000 3.543134e+000 2.874930e+000 3.381424e+000 6.314634e-001 4.798076e-001 6.112050e-001 7.664624e-001 8.882512e-001 9.896249e-001 1.058783e+000 1.107563e+000 1.156854e+000 9.411557e-001 8.312064e-001 6.494606e-001 5.975806e-001
<GCONST> 1.354094e+002
<STATE> 4
<MEAN> 39
 -6.273834e+000 -5.694633e+000 -5.272378e-001 -7.846088e+000 -1.211586e+001 -1.207941e+001 -8.765955e+000 -1.290177e+000 -5.781854e+000 -3.042237e+000 -3.434802e+000 -2.028906e+000 5.581965e+001 -1.634781e+000 2.422287e+000 -9.616672e-001 1.580883e+000 2.337772e+000 1.275537e+000 1.235649e+000 -1.537104e+000 -1.025425e-001 2.246968e-001 -2.933074e-001 -3.442653e-001 -2.853435e+000 -5.521118e-001 -9.121442e-002 -1.864030e-001 -9.381152e-002 2.177873e-001 4.320163e-001 2.766491e-001 5.324854e-002 1.149117e-001 1.643918e-001 1.148352e-001 6.131006e-002 -4.847768e-002
<VARIANCE> 39
 2.055346e+001 3.719185e+001 5.068493e+001 5.058952e+001 5.421933e+001 5.452537e+001 6.296852e+001 6.679898e+001 7.510834e+001 5.318999e+001 5.311721e+001 4.050385e+001 3.920865e+001 5.161301e+000 3.394650e+000 3.693812e+000 5.393003e+000 4.913124e+000 5.840949e+000 6.305006e+000 6.723115e+000 6.144116e+000 5.174798e+000 4.586256e+000 3.763762e+000 6.195563e+000 4.829508e-001 4.738705e-001 5.361395e-001 5.285469e-001 6.898066e-001 7.380387e-001 7.433686e-001 8.945990e-001 9.344923e-001 7.052142e-001 6.356995e-001 5.171691e-001 3.757852e-001
<GCONST> 1.369009e+002
<TRANSP> 5
 0.000000e+000 1.000000e+000 0.000000e+000 0.000000e+000 0.000000e+000
 0.000000e+000 6.239108e-001 3.760892e-001 0.000000e+000 0.000000e+000
 0.000000e+000 0.000000e+000 3.186319e-001 6.813682e-001 0.000000e+000
 0.000000e+000 0.000000e+000 0.000000e+000 2.260154e-001 7.739846e-001
 0.000000e+000 0.000000e+000 0.000000e+000 0.000000e+000 0.000000e+000
<ENDHMM>
~o
<STREAMINFO> 1 39
<VECSIZE> 39<NULLD><MFCC_D_A_0><DIAGC>
~h "iy"
<BEGINHMM>
<NUMSTATES> 5
<STATE> 2
<MEAN> 39
 -6.799737e+000 -9.635835e+000 7.634352e+000 -1.020589e+001 -1.961027e+001 -1.246329e+001 -9.756626e+000 -2.945866e-001 -1.122208e+001 -4.482056e+000 -1.030762e-001 -1.806859e+000 6.136463e+001 6.458158e-003 -1.804301e-001 2.609020e+000 -1.280618e+000 -2.405066e+000 7.595859e-001 2.338755e-001 -5.474679e-001 -1.742325e+000 3.461361e-001 5.302172e-001 -3.738118e-001 5.827612e-001 -3.419417e-001 4.271257e-001 -6.721857e-001 3.425008e-002 8.464182e-001 5.230588e-001 1.240277e-001 -3.511994e-001 4.181545e-001 3.446157e-001 -2.018957e-001 -1.125675e-001 -4.497808e-001
<VARIANCE> 39
 1.395776e+001 3.336152e+001 4.879234e+001 6.816833e+001 3.738829e+001 6.165359e+001 6.251344e+001 7.919494e+001 6.466075e+001 6.409505e+001 5.948014e+001 3.348201e+001 1.686703e+001 3.371586e+000 2.462189e+000 2.615538e+000 4.078094e+000 3.621307e+000 4.454696e+000 6.165677e+000 5.397163e+000 4.246493e+000 4.855547e+000 4.154719e+000 2.944208e+000 1.240732e+000 5.085820e-001 3.412102e-001 4.626523e-001 5.683981e-001 5.426042e-001 6.574882e-001 9.418336e-001 9.981647e-001 8.065823e-001 6.533628e-001 6.031714e-001 4.595380e-001 2.500017e-001
<GCONST> 1.299576e+002
<STATE> 3
<MEAN> 39
 -8.915894e+000 -6.237835e+000 1.085669e+001 -1.439732e+001 -2.135285e+001 -7.461346e+000 -8.609688e+000 -5.069242e+000 -1.187083e+001 -1.760244e+000 -1.795661e+000 -3.103587e+000 6.048777e+001 -9.994200e-002 3.340843e-001 9.273216e-002 -7.006075e-003 4.235625e-002 3.092777e-001 1.833723e-001 -2.951446e-001 -3.835287e-002 1.594469e-001 -1.790445e-001 -1.320828e-001 -2.958235e-001 4.709803e-002 1.968056e-002 -5.308944e-001 3.821191e-001 4.427032e-001 -2.383841e-001 8.159709e-002 1.787341e-001 2.440411e-001 -1.185377e-001 -4.586069e-002 7.152838e-002 -2.012597e-001
<VARIANCE> 39
 1.250635e+001 3.470651e+001 3.753455e+001 8.753310e+001 3.666108e+001 6.068994e+001 5.410120e+001 7.400173e+001 5.194649e+001 6.883434e+001 8.041858e+001 3.739368e+001 2.185715e+001 4.926156e-001 1.175341e+000 1.391050e+000 1.604919e+000 1.302933e+000 2.171949e+000 2.033283e+000 2.243680e+000 1.920333e+000 1.795669e+000 1.524439e+000 1.283421e+000 5.292014e-001 1.357512e-001 2.144939e-001 3.358131e-001 3.559379e-001 4.600652e-001 3.846588e-001 4.278895e-001 4.019492e-001 4.377905e-001 4.180434e-001 3.640700e-001 2.707539e-001 1.472225e-001
<GCONST> 1.101289e+002
<STATE> 4
<MEAN> 39
 -8.158381e+000 -5.813867e+000 7.754042e+000 -9.034420e+000 -1.762677e+001 -1.017452e+001 -7.817898e+000 -3.673544e+000 -1.186375e+001 -3.101431e+000 -1.655608e+000 -3.001304e+000 5.724232e+001 -4.039550e-001 9.899062e-001 -2.540079e+000 1.376549e+000 2.649143e+000 -5.748037e-002 6.584553e-001 8.540705e-002 1.219631e+000 -7.563524e-002 -2.741472e-001 1.894053e-001 -1.641741e+000 -2.956129e-001 1.087948e-001 -6.043243e-001 -7.643945e-002 5.650224e-001 3.775030e-001 9.854502e-002 3.476791e-002 3.631706e-001 9.115677e-002 -2.103808e-002 8.876609e-002 -2.227267e-001
<VARIANCE> 39
 1.964155e+001 3.876108e+001 4.877771e+001 7.454662e+001 4.785410e+001 6.527203e+001 6.537408e+001 7.983905e+001 5.543010e+001 5.885592e+001 6.812200e+001 3.490421e+001 3.941723e+001 3.900651e+000 3.587915e+000 3.402151e+000 4.889465e+000 4.474596e+000 5.677211e+000 6.003187e+000 5.449898e+000 4.597274e+000 4.980152e+000 4.012781e+000 2.815907e+000 3.740723e+000 3.727324e-001 5.463270e-001 6.238332e-001 7.870504e-001 8.144075e-001 8.764104e-001 8.232462e-001 9.826619e-001 7.632691e-001 6.888634e-001 6.149150e-001 4.588903e-001 4.230613e-001
<GCONST> 1.360838e+002
<TRANSP> 5
 0.000000e+000 1.000000e+000 0.000000e+000 0.000000e+000 0.000000e+000
 0.000000e+000 5.404107e-001 4.595894e-001 0.000000e+000 0.000000e+000
 0.000000e+000 0.000000e+000 7.807588e-001 2.192412e-001 0.000000e+000
 0.000000e+000 0.000000e+000 0.000000e+000 6.051795e-001 3.948204e-001
 0.000000e+000 0.000000e+000 0.000000e+000 0.000000e+000 0.000000e+000
<ENDHMM>
~o
<STREAMINFO> 1 39
<VECSIZE> 39<NULLD><MFCC_D_A_0><DIAGC>
~h "jh"
<BEGINHMM>
<NUMSTATES> 5
<STATE> 2
<MEAN> 39
 -2.809873e+001 -4.469119e+000 2.349972e+000 -1.207892e+001 -4.752079e+000 5.045081e-001 -4.410873e+000 -9.874758e-001 -9.455438e-001 -2.204856e+000 -3.219936e-001 -2.168216e-001 5.706273e+001 -2.049239e+000 6.562674e-001 9.206577e-001 -3.090108e-001 -1.138605e+000 -3.209740e-001 7.785216e-001 2.134975e-001 3.362059e-001 3.590334e-001 4.432728e-001 3.753563e-001 2.349300e+000 1.744133e+000 3.278258e-001 2.242696e-001 9.245205e-001 -4.485587e-001 -9.203205e-001 -3.249501e-001 -2.983510e-001 -5.837269e-001 -3.692097e-001 -4.444509e-001 -2.278599e-001 -8.763198e-001
<VARIANCE> 39
 3.061533e+001 3.177436e+001 4.335686e+001 3.320192e+001 3.496825e+001 2.777938e+001 2.396574e+001 2.645665e+001 2.279428e+001 1.922257e+001 1.653016e+001 1.268251e+001 1.837187e+001 3.919494e+000 3.294048e+000 3.237457e+000 3.245572e+000 3.221552e+000 3.689267e+000 2.386807e+000 2.620657e+000 2.325201e+000 2.011779e+000 1.809145e+000 1.468360e+000 3.178341e+000 9.540821e-001 8.071437e-001 7.820165e-001 7.098006e-001 7.802109e-001 7.667050e-001 6.541238e-001 7.690299e-001 6.195031e-001 5.403772e-001 4.789311e-001 3.625558e-001 5.169765e-001
<GCONST> 1.208385e+002
<STATE> 3
<MEAN> 39
 -2.850072e+001 -4.633142e+000 5.562060e+000 -9.527928e+000 -7.996883e+000 -1.385530e+000 -2.451217e+000 -1.422952e+000 -1.218573e+000 -2.419944e+000 -1.127858e+000 -8.028515e-002 5.883758e+001 2.266094e+000 -4.304092e-002 4.576550e-001 7.426221e-001 -1.460887e+000 -2.071751e+000 -5.192213e-001 -2.977201e-001 -7.399668e-001 -4.637485e-001 -3.045004e-001 -6.473980e-002 4.057827e-001 1.577953e+000 -3.324565e-001 -3.617124e-001 1.570949e-001 -3.452362e-002 -5.034501e-001 -6.083038e-001 2.398053e-002 -2.813454e-001 -1.853703e-001 -9.377641e-002 -9.038562e-002 -6.441406e-001
<VARIANCE> 39
 2.637780e+001 2.926613e+001 2.865876e+001 3.212072e+001 3.496262e+001 2.836145e+001 2.866563e+001 2.727989e+001 2.621780e+001 2.079783e+001 1.628160e+001 1.432548e+001 1.458831e+001 5.779871e+000 1.798219e+000 2.816272e+000 2.614658e+000 4.112958e+000 4.444508e+000 2.956744e+000 2.840381e+000 2.743964e+000 2.062984e+000 1.857617e+000 1.441871e+000 2.230698e+000 9.474011e-001 5.223327e-001 4.934600e-001 4.804837e-001 6.641746e-001 7.882529e-001 7.181034e-001 6.240852e-001 5.627632e-001 5.092994e-001 4.263121e-001 3.611281e-001 3.912183e-001
<GCONST> 1.183868e+002
<STATE> 4
<MEAN> 39
 -1.392683e+001 -5.790935e+000 5.171455e+000 -7.925728e+000 -1.356301e+001 -1.128875e+001 -8.153159e+000 -2.780807e+000 -5.089639e+000 -4.937803e+000 -1.953802e+000 -3.801303e-001 6.001886e+001 4.790821e+000 -1.763559e+000 -8.868736e-001 8.353078e-002 -1.234075e+000 -2.313129e+000 -1.849267e+000 7.750694e-001 -6.850929e-001 -2.552828e-001 9.822296e-002 1.537537e-002 1.618095e-002 -3.445631e-001 -3.242553e-001 -5.203730e-001 -3.160611e-001 6.430498e-001 8.255157e-001 1.140445e-001 3.564415e-001 2.855286e-001 2.641080e-001 8.736254e-002 -3.897837e-002 -2.989377e-001
<VARIANCE> 39
 5.588113e+001 3.154960e+001 3.358207e+001 5.219786e+001 3.808683e+001 4.003136e+001 3.947399e+001 3.387759e+001 3.998970e+001 2.658090e+001 2.157357e+001 1.685520e+001 2.436876e+001 3.753169e+000 3.507620e+000 4.335806e+000 3.699974e+000 6.200922e+000 6.851202e+000 6.250954e+000 5.335735e+000 4.768622e+000 4.610134e+000 3.554844e+000 2.655625e+000 3.487731e+000 1.020872e+000 5.273979e-001 4.407305e-001 5.017824e-001 6.955048e-001 7.306560e-001 9.577393e-001 7.778848e-001 6.354002e-001 5.383999e-001 4.565743e-001 3.980414e-001 2.869452e-001
<GCONST> 1.292751e+002
<TRANSP> 5
 0.000000e+000 1.000000e+000 0.000000e+000 0.000000e+000 0.000000e+000
 0.000000e+000 4.087308e-001 5.912692e-001 0.000000e+000 0.000000e+000
 0.000000e+000 0.000000e+000 5.741672e-001 4.258328e-001 0.000000e+000
 0.000000e+000 0.000000e+000 0.000000e+000 5.300623e-001 4.699378e-001
 0.000000e+000 0.000000e+000 0.000000e+000 0.000000e+000 0.000000e+000
<ENDHMM>
~o
<STREAMINFO> 1 39
<VECSIZE> 39<NULLD><MFCC_D_A_0><DIAGC>
~h "k"
<BEGINHMM>
<NUMSTATES> 5
<STATE> 2
<MEAN> 39
 -1.838617e+001 -3.160649e+000 -4.409121e+000 -3.216285e-001 -1.588361e+000 -2.656739e+000 -2.657858e+000 -2.009231e-001 -2.456622e+000 7.158882e-002 -1.118625e+000 -7.565466e-001 3.588972e+001 -1.111637e+000 -1.112362e+000 -1.174126e+000 -3.709269e-001 7.446743e-001 1.293209e+000 5.545056e-001 8.902533e-002 8.858951e-001 5.963174e-001 6.776448e-002 3.182702e-001 -3.445805e-001 6.452993e-001 -6.964529e-001 -1.852023e-001 -9.427543e-001 -6.213921e-001 -7.038251e-001 -2.888850e-001 1.376181e-001 -2.555688e-001 2.919283e-002 -9.248812e-002 -4.695754e-002 2.270903e+000
<VARIANCE> 39
 2.012581e+001 2.207153e+001 2.733685e+001 2.165487e+001 3.198606e+001 3.727689e+001 3.361632e+001 3.626454e+001 3.765632e+001 2.735104e+001 2.336646e+001 1.915159e+001 3.042486e+001 6.205457e+000 5.793679e+000 5.761448e+000 6.522279e+000 7.352657e+000 7.424528e+000 5.749139e+000 5.806913e+000 6.339507e+000 4.121894e+000 4.072137e+000 2.795363e+000 2.121068e+001 6.927768e-001 9.403654e-001 9.279313e-001 8.079241e-001 9.714338e-001 1.051813e+000 9.763265e-001 1.026018e+000 1.015404e+000 7.531182e-001 7.360047e-001 5.153375e-001 1.460399e+000
<GCONST> 1.367167e+002
<STATE> 3
<MEAN> 39
 -1.609319e+001 -1.315046e+001 -1.057726e+001 -9.034075e+000 -3.398792e+000 -5.080340e+000 -4.331213e+000 6.555960e-001 -2.695541e+000 2.766057e+000 -2.157007e+000 -1.830932e-001 5.406968e+001 1.545316e-001 -2.246344e-001 -1.050485e-001 -1.637362e+000 -6.603733e-001 -8.571519e-001 -4.019316e-002 -8.998595e-002 3.871976e-003 2.159682e-001 -1.724316e-001 5.426892e-002 3.872551e+000 8.615994e-003 1.153393e+000 7.936477e-001 5.354199e-001 -4.919938e-002 2.845896e-002 1.430077e-001 -1.271342e-001 -8.986599e-002 -4.190860e-001 8.498745e-002 -1.117995e-001 -9.754382e-001
<VARIANCE> 39
 2.745053e+001 3.309690e+001 6.427965e+001 4.729707e+001 5.389865e+001 4.969794e+001 5.117329e+001 4.500290e+001 4.172496e+001 3.419363e+001 2.871264e+001 2.247229e+001 5.150257e+001 4.523814e+000 5.838136e+000 4.843150e+000 4.921940e+000 4.232351e+000 4.460346e+000 4.223304e+000 3.917549e+000 4.167856e+000 3.318786e+000 2.950311e+000 2.386661e+000 1.067462e+001 7.800553e-001 7.428435e-001 8.498910e-001 9.605580e-001 1.004212e+000 1.038026e+000 9.555284e-001 9.099840e-001 9.795877e-001 7.624653e-001 6.816896e-001 5.782215e-001 1.795019e+000
<GCONST> 1.374693e+002
<STATE> 4
<MEAN> 39
 -1.584147e+001 -6.876190e+000 -4.395207e+000 -9.315619e+000 -5.313510e+000 -5.130712e+000 -1.465141e+000 -1.199361e+000 -3.098416e+000 2.970248e-001 -2.534840e+000 -7.234260e-001 5.535847e+001 1.861869e+000 7.365428e-001 8.355032e-001 -7.943565e-002 -1.069072e+000 -5.205449e-001 -2.407341e-001 -2.189280e-001 -7.647075e-001 -1.124679e+000 -5.490585e-002 -5.013919e-001 5.027540e-001 4.976165e-001 -3.741312e-001 -2.397209e-001 -7.616318e-002 -2.509413e-001 -6.203739e-002 -3.771631e-001 1.181701e-001 -1.126794e-001 -4.634038e-002 7.637958e-002 -8.751355e-002 -2.667740e-002
<VARIANCE> 39
 4.349378e+001 2.613689e+001 5.825734e+001 4.339349e+001 5.373136e+001 4.872577e+001 4.410637e+001 4.465147e+001 3.834823e+001 3.182362e+001 3.044537e+001 2.262145e+001 4.078418e+001 6.481713e+000 3.986363e+000 3.577192e+000 4.513669e+000 5.044512e+000 5.201335e+000 5.378676e+000 5.143115e+000 5.180600e+000 3.837319e+000 4.063451e+000 2.994091e+000 3.167873e+000 5.739153e-001 5.576387e-001 5.506183e-001 7.283667e-001 7.277802e-001 8.262233e-001 7.807522e-001 8.164596e-001 8.047588e-001 6.874007e-001 6.425727e-001 4.929054e-001 1.027820e+000
<GCONST> 1.338902e+002
<TRANSP> 5
 0.000000e+000 1.000000e+000 0.000000e+000 0.000000e+000 0.000000e+000
 0.000000e+000 7.338464e-001 2.661536e-001 0.000000e+000 0.000000e+000
 0.000000e+000 0.000000e+000 6.289034e-001 3.710966e-001 0.000000e+000
 0.000000e+000 0.000000e+000 0.000000e+000 6.256489e-001 3.743512e-001
 0.000000e+000 0.000000e+000 0.000000e+000 0.000000e+000 0.000000e+000
<ENDHMM>
~o
<STREAMINFO> 1 39
<VECSIZE> 39<NULLD><MFCC_D_A_0><DIAGC>
~h "l"
<BEGINHMM>
<NUMSTATES> 5
<STATE> 2
<MEAN> 39
 -1.749223e+000 -5.315834e+000 -1.053796e+001 -2.199170e+001 -7.733142e+000 4.088703e-002 -8.985970e+000 -7.773452e+000 -3.637924e+000 6.890229e-001 -4.556570e-001 -3.591439e+000 5.977725e+001 1.143870e+000 6.023229e-001 -3.957241e-001 -2.204388e+000 -2.266989e-001 1.262131e+000 -2.792923e-001 -8.305036e-001 -6.729516e-001 2.525532e-002 6.296677e-001 2.985833e-001 9.896453e-002 -4.228227e-001 -2.441617e-001 1.452783e-001 5.903888e-001 2.020688e-002 -3.505949e-001 1.338879e-001 5.551919e-001 1.639196e-001 -1.585833e-001 -1.723630e-001 1.057496e-001 -9.762686e-002
<VARIANCE> 39
 1.328949e+001 4.733942e+001 4.793763e+001 6.661256e+001 5.693176e+001 7.136687e+001 7.634538e+001 6.030932e+001 6.327654e+001 5.893737e+001 6.644529e+001 4.114810e+001 2.994422e+001 2.543708e+000 3.163189e+000 2.720618e+000 5.472537e+000 4.545125e+000 5.172148e+000 5.609206e+000 5.210440e+000 4.691506e+000 4.628486e+000 4.048374e+000 3.716196e+000 2.460389e+000 4.686820e-001 5.307399e-001 4.302077e-001 7.995655e-001 7.878134e-001 7.710781e-001 8.510282e-001 8.406037e-001 9.882396e-001 8.587966e-001 7.416484e-001 6.495939e-001 2.934309e-001
<GCONST> 1.350668e+002
<STATE> 3
<MEAN> 39
 -4.545299e-001 -2.794878e+000 -1.115081e+001 -2.640948e+001 -8.963654e+000 2.581870e+000 -6.765330e+000 -6.381658e+000 -4.975286e+000 -1.549189e+000 2.676361e-001 -1.360857e+000 5.817519e+001 -1.440347e-001 -8.008326e-002 3.245206e-002 3.400759e-001 2.805268e-001 -2.944954e-001 -2.678291e-001 1.768854e-001 2.001471e-001 1.522950e-001 -1.426946e-001 -2.282271e-001 -4.299294e-002 -3.073854e-001 -3.051286e-001 1.129123e-001 7.040047e-001 1.453077e-001 -3.444847e-001 -7.132997e-002 1.842032e-001 2.808088e-001 1.042186e-001 -2.189705e-001 -2.072476e-001 2.459081e-002
<VARIANCE> 39
 9.613944e+000 3.861551e+001 4.682629e+001 6.449800e+001 6.468221e+001 6.357071e+001 7.606084e+001 6.328551e+001 5.683456e+001 5.756126e+001 5.278528e+001 3.818753e+001 2.675489e+001 6.195335e-001 2.941746e+000 1.480068e+000 3.444042e+000 2.609533e+000 2.736560e+000 3.226611e+000 3.005673e+000 3.516616e+000 3.405152e+000 2.560965e+000 2.547459e+000 1.662976e+000 2.244894e-001 3.313682e-001 3.061263e-001 5.814227e-001 5.510975e-001 5.844300e-001 5.745267e-001 7.095522e-001 6.414787e-001 6.121786e-001 5.575073e-001 4.652591e-001 2.399045e-001
<GCONST> 1.226636e+002
<STATE> 4
<MEAN> 39
 -2.807926e+000 -7.014552e+000 -9.480691e+000 -1.888433e+001 -6.601663e+000 -3.388942e+000 -1.170664e+001 -4.903951e+000 -8.326316e-001 1.220384e+000 -2.546025e+000 -4.760908e+000 5.998916e+001 -1.121706e+000 -8.935323e-001 1.308216e+000 2.597545e+000 -4.570327e-001 -2.039816e+000 -1.093451e-002 1.696905e+000 6.767743e-001 -6.244322e-001 -1.081788e+000 4.925364e-003 -9.597928e-003 -2.657900e-001 1.304913e-001 4.239348e-001 1.486086e-001 -3.735293e-001 1.927989e-002 5.542422e-001 1.854673e-001 -5.018255e-001 -4.197491e-001 1.407947e-001 3.790230e-001 -2.399316e-001
<VARIANCE> 39
 1.224616e+001 4.198076e+001 5.076290e+001 6.832511e+001 4.983187e+001 8.346487e+001 8.025538e+001 6.692929e+001 6.945858e+001 6.453001e+001 6.531104e+001 4.212904e+001 4.065864e+001 2.068913e+000 3.646333e+000 3.859946e+000 5.738465e+000 6.220901e+000 5.417500e+000 5.560669e+000 5.872028e+000 6.584016e+000 5.474840e+000 4.130568e+000 4.544165e+000 3.655239e+000 3.351858e-001 4.231152e-001 4.015457e-001 8.171283e-001 7.528029e-001 9.032415e-001 8.069866e-001 1.025516e+000 1.175573e+000 9.728946e-001 8.138139e-001 6.392965e-001 2.711114e-001
<GCONST> 1.374944e+002
<TRANSP> 5
 0.000000e+000 1.000000e+000 0.000000e+000 0.000000e+000 0.000000e+000
 0.000000e+000 4.845893e-001 5.154107e-001 0.000000e+000 0.000000e+000
 0.000000e+000 0.000000e+000 7.066919e-001 2.933081e-001 0.000000e+000
 0.000000e+000 0.000000e+000 0.000000e+000 5.333597e-001 4.666403e-001
 0.000000e+000 0.000000e+000 0.000000e+000 0.000000e+000 0.000000e+000
<ENDHMM>
~o
<STREAMINFO> 1 39
<VECSIZE> 39<NULLD><MFCC_D_A_0><DIAGC>
~h "m"
<BEGINHMM>
<NUMSTATES> 5
<STATE> 2
<MEAN> 39
 -3.467857e+000 -3.606029e+000 -4.977507e+000 -4.419099e+000 -7.296244e+000 -7.899561e+000 -7.114508e+000 -8.938962e+000 -1.180572e+001 -2.196659e+000 -1.868706e+000 -6.347336e+000 5.162627e+001 1.051600e-001 1.159935e+000 1.032946e+000 1.616297e+000 7.635731e-002 -1.025549e+000 9.266064e-002 -2.059777e+000 -2.224342e+000 3.461973e-001 2.317428e-001 -7.087610e-001 -7.046891e-001 -3.064462e-001 -5.006904e-001 8.015180e-003 -4.933351e-001 -1.743343e-001 2.626235e-001 -4.151025e-002 6.772990e-001 6.517906e-001 -6.155454e-002 -1.235879e-001 2.613742e-001 4.511633e-001
<VARIANCE> 39
 1.079147e+001 2.802046e+001 3.308607e+001 4.955814e+001 4.627057e+001 6.067466e+001 6.095784e+001 6.330270e+001 6.618613e+001 5.767272e+001 7.384467e+001 4.735375e+001 2.516211e+001 3.686725e+000 3.136641e+000 3.524291e+000 4.009790e+000 4.568534e+000 4.025670e+000 5.672562e+000 5.075451e+000 5.663587e+000 4.660935e+000 4.712198e+000 3.693272e+000 4.880988e+000 4.072407e-001 3.779156e-001 6.295303e-001 6.031529e-001 6.602147e-001 6.600664e-001 7.728997e-001 8.087765e-001 9.508730e-001 7.318487e-001 7.597421e-001 5.928845e-001 2.747277e-001
<GCONST> 1.331127e+002
<STATE> 3
<MEAN> 39
 -4.113125e+000 -3.288344e+000 -2.970273e+000 -3.260255e+000 -7.576933e+000 -8.566524e+000 -7.316418e+000 -1.069919e+001 -1.345657e+001 -1.154271e+000 -2.347866e+000 -7.005431e+000 5.153905e+001 -9.287345e-002 -1.465565e-001 6.795359e-002 -2.357124e-001 -1.106961e-001 1.701045e-001 -5.753499e-002 2.474368e-001 3.894594e-001 -1.840645e-001 -1.646261e-001 1.728041e-001 2.715510e-001 -9.832899e-002 -4.057367e-001 -2.718716e-001 -6.497756e-001 -1.200108e-001 3.545860e-001 -3.633288e-003 7.629032e-001 7.901139e-001 -1.613776e-001 -7.777983e-002 2.983598e-001 3.463218e-001
<VARIANCE> 39
 8.400673e+000 2.359487e+001 3.100647e+001 4.936234e+001 5.093164e+001 7.076327e+001 6.555856e+001 6.631583e+001 6.222985e+001 6.183895e+001 8.450999e+001 5.387909e+001 2.010284e+001 9.141957e-001 1.954474e+000 1.587059e+000 2.263706e+000 2.124458e+000 1.998350e+000 2.406278e+000 2.792569e+000 3.322871e+000 2.391420e+000 2.409446e+000 2.041369e+000 2.198240e+000 3.094215e-001 2.856587e-001 4.929589e-001 4.959551e-001 5.719894e-001 5.526195e-001 6.625640e-001 7.028841e-001 8.567300e-001 6.692467e-001 6.991373e-001 5.774793e-001 2.351594e-001
<GCONST> 1.215493e+002
<STATE> 4
<MEAN> 39
 -4.196655e+000 -5.591432e+000 -4.899817e+000 -6.828380e+000 -8.499392e+000 -7.056549e+000 -7.682562e+000 -6.655149e+000 -8.184275e+000 -3.068247e+000 -3.105326e+000 -5.066212e+000 5.442526e+001 -4.159898e-001 -1.587519e+000 -3.218361e-001 -2.394037e+000 -8.571039e-001 1.110151e+000 -6.043539e-002 2.632878e+000 2.397264e+000 -6.090874e-001 -3.597428e-001 1.000423e+000 1.705298e+000 -2.854060e-001 -1.224601e-001 1.394575e-001 -2.440457e-001 -6.735992e-002 1.744743e-001 1.757432e-001 3.126807e-001 -6.363096e-003 1.274523e-001 5.533306e-002 6.763689e-002 6.188893e-002
<VARIANCE> 39
 1.457183e+001 3.515914e+001 3.804484e+001 5.724487e+001 4.779310e+001 6.054252e+001 5.524654e+001 6.210374e+001 6.950623e+001 4.816143e+001 6.125087e+001 3.935762e+001 4.130445e+001 2.960327e+000 3.482358e+000 6.174653e+000 5.273662e+000 6.513592e+000 5.120547e+000 5.658791e+000 5.453199e+000 6.780621e+000 5.444944e+000 5.694479e+000 4.224067e+000 3.847134e+000 3.346251e-001 5.002493e-001 5.719674e-001 7.176394e-001 6.790693e-001 6.623464e-001 7.304101e-001 9.055565e-001 1.152306e+000 6.678435e-001 6.776348e-001 5.153174e-001 4.287673e-001
<GCONST> 1.361758e+002
<TRANSP> 5
 0.000000e+000 1.000000e+000 0.000000e+000 0.000000e+000 0.000000e+000
 0.000000e+000 3.817486e-001 6.182514e-001 0.000000e+000 0.000000e+000
 0.000000e+000 0.000000e+000 6.747701e-001 3.252300e-001 0.000000e+000
 0.000000e+000 0.000000e+000 0.000000e+000 4.153261e-001 5.846739e-001
 0.000000e+000 0.000000e+000 0.000000e+000 0.000000e+000 0.000000e+000
<ENDHMM>
~o
<STREAMINFO> 1 39
<VECSIZE> 39<NULLD><MFCC_D_A_0><DIAGC>
~h "n"
<BEGINHMM>
<NUMSTATES> 5
<STATE> 2
<MEAN> 39
