~o
<STREAMINFO> 1 39
<VECSIZE> 39<NULLD><MFCC_D_A_0><DIAGC>
~s "silst"
<MEAN> 39
 -1.612547e+001 -7.007817e+000 -8.838336e+000 -6.179009e+000 -2.093894e+000 -1.574895e+000 -2.374283e+000 -2.063578e+000 -2.484541e+000 -6.289181e-002 -1.387529e+000 -8.242598e-001 4.358816e+001 1.827705e+000 9.218521e-001 -2.971193e-002 -3.815649e-001 -6.800345e-001 4.282799e-002 1.025218e-001 -5.456974e-001 -1.118698e+000 -4.086018e-001 -1.124034e-001 -1.414108e-001 -6.009863e-001 1.417339e-001 2.335165e-001 2.197143e-001 -2.833719e-001 -4.140355e-001 -2.181087e-001 -1.346989e-001 1.141101e-001 -5.630537e-002 -1.616068e-001 -4.627497e-002 -3.688399e-002 5.607384e-001
<VARIANCE> 39
 3.415981e+001 4.055826e+001 3.821056e+001 3.407016e+001 3.697900e+001 3.650157e+001 4.145482e+001 3.893862e+001 3.818687e+001 3.433394e+001 3.093807e+001 2.559924e+001 4.800928e+001 7.426723e+000 4.802339e+000 3.760026e+000 5.683238e+000 5.709376e+000 4.882818e+000 5.137731e+000 5.173929e+000 4.958139e+000 4.013958e+000 3.486759e+000 2.887434e+000 6.396098e+000 6.325045e-001 8.728744e-001 7.436590e-001 8.633288e-001 1.013844e+000 8.348745e-001 9.744098e-001 9.358956e-001 8.777447e-001 8.006964e-001 6.310006e-001 5.481057e-001 1.141149e+000
<GCONST> 1.362230e+002
~h "b"
<BEGINHMM>
<NUMSTATES> 5
<STATE> 2
<MEAN> 39
 -5.946295e+000 4.485547e+000 -1.689039e+000 -6.305770e-001 -2.418145e+000 -2.771765e+000 -7.474920e+000 -8.676228e+000 -8.963799e+000 -5.039867e+000 -4.007181e+000 -4.727201e+000 3.960919e+001 -1.177816e+000 8.175550e-001 4.868359e-001 9.398865e-001 8.255871e-001 5.356761e-001 7.083125e-001 1.036581e-001 5.400033e-002 -2.890272e-001 -2.193974e-001 8.429977e-002 -1.281800e+000 -6.815302e-002 -1.160994e+000 -3.312471e-001 -8.965816e-001 -5.817482e-001 -3.137939e-001 -7.767022e-002 5.811791e-001 5.390903e-001 4.255486e-001 2.372911e-001 2.472675e-001 1.556257e+000
<VARIANCE> 39
 2.450704e+001 1.705882e+001 1.839915e+001 2.762579e+001 2.342657e+001 3.138195e+001 3.294536e+001 2.943474e+001 3.053972e+001 2.924858e+001 3.096951e+001 2.531321e+001 1.642822e+001 2.677115e+000 5.799107e+000 3.267385e+000 5.104161e+000 3.335304e+000 3.520976e+000 3.724359e+000 4.394404e+000 4.493463e+000 3.531756e+000 3.036614e+000 2.495628e+000 8.601382e+000 4.067110e-001 6.324245e-001 7.411390e-001 8.086531e-001 7.008240e-001 6.653579e-001 8.785667e-001 8.326036e-001 7.962075e-001 7.277322e-001 6.389177e-001 5.243989e-001 7.751569e-001
<GCONST> 1.265966e+002
<STATE> 3
<MEAN> 39
 -1.436665e+001 -5.942666e-001 -3.504351e+000 -1.179003e+000 -1.299969e+000 -9.214484e-001 -2.948032e+000 -2.887933e+000 -3.383299e+000 -1.790205e+000 -2.022043e+000 -1.859218e+000 3.827991e+001 2.470904e-001 -1.997174e+000 -8.593316e-001 -1.813932e+000 -1.144484e+000 -8.144358e-001 -8.556054e-002 8.119895e-001 1.022066e+000 7.130360e-001 5.602685e-001 4.867837e-001 3.480982e+000 8.541263e-001 -4.304159e-001 -1.462094e-001 -9.023256e-001 -6.846657e-001 -3.944721e-001 -4.972461e-001 -1.199862e-001 -1.459360e-001 4.286844e-002 4.177311e-002 -8.170406e-002 1.451796e+000
<VARIANCE> 39
 3.734311e+001 2.261317e+001 1.955719e+001 2.320270e+001 1.720654e+001 2.172603e+001 2.354381e+001 2.873224e+001 2.990319e+001 2.616051e+001 2.030844e+001 1.770222e+001 5.710109e+001 4.106750e+000 3.825478e+000 3.712303e+000 5.437421e+000 3.614059e+000 3.862790e+000 3.986673e+000 4.241589e+000 4.369421e+000 3.618796e+000 3.038879e+000 2.430863e+000 1.128912e+001 6.776928e-001 6.597822e-001 8.412346e-001 8.950388e-001 7.239748e-001 8.251435e-001 7.413486e-001 7.949315e-001 8.332299e-001 7.334636e-001 6.688524e-001 4.859371e-001 1.121758e+000
<GCONST> 1.283396e+002
<STATE> 4
<MEAN> 39
 -7.105277e+000 -6.946893e+000 -6.599624e+000 -1.058290e+001 -7.925558e+000 -6.163771e+000 -6.695713e+000 -3.112849e+000 -2.259791e+000 -4.486454e-001 -8.009591e-001 -1.501122e+000 5.733054e+001 2.519413e+000 -2.643926e+000 -9.488192e-001 -3.726249e+000 -2.535560e+000 -7.995926e-001 -1.235536e+000 5.814219e-001 3.056987e-001 7.336199e-001 4.126591e-001 2.679885e-003 4.959360e+000 1.239037e-001 4.600594e-001 2.842266e-001 3.174522e-001 1.906490e-001 4.363531e-001 -3.150250e-002 -1.214670e-001 -4.148473e-001 -2.211476e-001 -2.269755e-001 -2.393349e-001 -1.112764e+000
<VARIANCE> 39
 4.416749e+001 2.618113e+001 4.731004e+001 6.162399e+001 3.731723e+001 5.384303e+001 4.447303e+001 3.762918e+001 3.700016e+001 3.319855e+001 3.345973e+001 2.460003e+001 3.365222e+001 5.319141e+000 5.246058e+000 8.404851e+000 7.382771e+000 6.495882e+000 8.082743e+000 7.787714e+000 7.489451e+000 7.455826e+000 5.633637e+000 5.573186e+000 4.183913e+000 6.236379e+000 8.421649e-001 5.976641e-001 5.341846e-001 9.634875e-001 7.680507e-001 7.640195e-001 8.743111e-001 8.741241e-001 8.344249e-001 7.068892e-001 6.715322e-001 5.188995e-001 7.102897e-001
<GCONST> 1.392030e+002
<TRANSP> 5
 0.000000e+000 1.000000e+000 0.000000e+000 0.000000e+000 0.000000e+000
 0.000000e+000 6.994209e-001 3.005792e-001 0.000000e+000 0.000000e+000
 0.000000e+000 0.000000e+000 5.529714e-001 4.470287e-001 0.000000e+000
 0.000000e+000 0.000000e+000 0.000000e+000 4.862590e-001 5.137410e-001
 0.000000e+000 0.000000e+000 0.000000e+000 0.000000e+000 0.000000e+000
<ENDHMM>
~h "d"
<BEGINHMM>
<NUMSTATES> 5
<STATE> 2
<MEAN> 39
 -8.303727e+000 6.950551e-001 1.394699e+000 -1.431222e-001 -6.934103e+000 -7.144231e+000 -7.774397e+000 -5.236216e+000 -5.737944e+000 -5.263034e+000 -6.294517e+000 -4.052150e+000 4.312945e+001 -1.471270e+000 5.899139e-001 7.046659e-003 4.615015e-001 1.520816e+000 1.162300e+000 5.965830e-001 -3.002780e-001 9.509920e-002 5.194994e-002 3.777927e-002 -7.049894e-002 -1.253518e+000 -1.176110e-001 -1.146093e+000 -2.920071e-001 -1.167585e+000 -5.216712e-001 -8.132368e-002 -6.661449e-002 5.623965e-001 2.551929e-001 3.551796e-001 4.957441e-001 3.334697e-001 1.726834e+000
<VARIANCE> 39
 3.027299e+001 4.812965e+001 3.992698e+001 4.938335e+001 4.992493e+001 3.966865e+001 3.638825e+001 4.090779e+001 4.448371e+001 3.486934e+001 3.252969e+001 2.645830e+001 6.085321e+001 3.176002e+000 7.901042e+000 3.953928e+000 7.191430e+000 5.358912e+000 5.476174e+000 5.019165e+000 5.259295e+000 4.658269e+000 3.968695e+000 3.918802e+000 3.346815e+000 1.051680e+001 4.975519e-001 8.593318e-001 5.948959e-001 8.584453e-001 1.002448e+000 8.391892e-001 9.914923e-001 8.863593e-001 8.366103e-001 7.830930e-001 7.151922e-001 5.784671e-001 1.143008e+000
<GCONST> 1.377286e+002
<STATE> 3
<MEAN> 39
 -1.364706e+001 -5.328471e+000 -1.444280e+000 -4.429371e+000 -4.854384e+000 -3.294467e+000 -5.045567e+000 -2.632537e+000 -3.332213e+000 -2.542610e+000 -2.808090e+000 -1.880652e+000 4.654841e+001 -9.680562e-001 -1.852822e+000 -3.699285e-001 -2.141579e+000 -6.311344e-001 -1.656440e-001 3.359694e-002 8.376477e-001 6.127815e-001 5.805624e-001 8.918102e-001 7.816354e-001 3.415723e+000 5.832814e-001 -1.312720e-001 4.400546e-002 -4.836805e-001 -8.191301e-001 -6.080634e-001 -4.103465e-001 1.879954e-001 -7.207379e-002 4.450236e-002 -7.199461e-003 -1.812291e-002 1.093472e+000
<VARIANCE> 39
 5.326144e+001 5.033007e+001 4.902124e+001 4.987941e+001 5.296088e+001 4.676668e+001 4.266459e+001 3.395415e+001 3.593385e+001 3.029198e+001 2.465927e+001 2.011087e+001 1.075674e+002 4.613752e+000 4.831529e+000 3.967938e+000 5.616051e+000 4.286862e+000 4.712214e+000 4.822755e+000 4.567454e+000 4.470368e+000 3.635812e+000 3.399046e+000 2.596333e+000 1.063346e+001 7.194553e-001 8.132102e-001 8.474098e-001 9.707744e-001 1.093264e+000 1.135702e+000 1.038885e+000 9.856337e-001 8.807135e-001 7.725342e-001 7.744923e-001 5.848938e-001 1.229673e+000
<GCONST> 1.385177e+002
<STATE> 4
<MEAN> 39
 -1.222976e+001 -8.366617e+000 -1.770669e+000 -1.009878e+001 -9.840508e+000 -7.980631e+000 -7.144439e+000 -1.102770e+000 -2.239524e+000 -1.885269e+000 -1.986608e+000 -4.542706e-001 5.869909e+001 1.270211e+000 -1.135547e+000 -7.095080e-002 -1.499663e+000 -1.797070e+000 -1.258064e+000 -1.181743e+000 9.077053e-001 3.167011e-001 3.869036e-001 1.245129e-001 8.112168e-002 3.009827e+000 5.599865e-001 2.818288e-001 -9.248646e-002 4.615987e-001 4.207048e-002 1.684868e-001 -8.992787e-002 -4.457829e-002 -1.839397e-001 -3.101573e-002 -1.970064e-001 -3.213597e-001 -9.053947e-001
<VARIANCE> 39
 6.375361e+001 4.021558e+001 5.288274e+001 4.616649e+001 5.540536e+001 5.434699e+001 5.497989e+001 4.116821e+001 4.322609e+001 3.088359e+001 2.848892e+001 2.281244e+001 3.891789e+001 8.063032e+000 4.063470e+000 4.831988e+000 5.508850e+000 5.934964e+000 6.229460e+000 7.032513e+000 5.621739e+000 5.397418e+000 4.319929e+000 4.984131e+000 3.605679e+000 8.589435e+000 7.816929e-001 8.296007e-001 7.897026e-001 9.512992e-001 1.194263e+000 1.335213e+000 1.059468e+000 8.871116e-001 8.401202e-001 7.102718e-001 7.413278e-001 5.779233e-001 1.120828e+000
<GCONST> 1.410788e+002
<TRANSP> 5
 0.000000e+000 1.000000e+000 0.000000e+000 0.000000e+000 0.000000e+000
 0.000000e+000 5.405360e-001 4.594640e-001 0.000000e+000 0.000000e+000
 0.000000e+000 0.000000e+000 2.804455e-001 7.195545e-001 0.000000e+000
 0.000000e+000 0.000000e+000 0.000000e+000 4.075901e-001 5.924100e-001
 0.000000e+000 0.000000e+000 0.000000e+000 0.000000e+000 0.000000e+000
<ENDHMM>
~h "f"
<BEGINHMM>
<NUMSTATES> 5
<STATE> 2
<MEAN> 39
 -1.795134e+001 -5.066255e+000 -6.329439e+000 -5.096721e+000 -3.197316e+000 -3.187502e+000 -2.211219e+000 -7.552812e-001 -1.991910e+000 -1.418826e+000 -2.719829e+000 -1.141250e+000 5.243174e+001 -3.955057e+000 -5.140918e-001 -3.915757e-001 7.106325e-001 4.088118e-001 4.239117e-001 6.557376e-001 6.108942e-001 7.050542e-001 3.710707e-001 4.381003e-001 6.097714e-001 -7.827109e-001 5.442905e-001 -4.616708e-001 -2.268214e-001 -5.376215e-001 -4.822419e-001 -2.598802e-001 -3.962143e-001 -6.352482e-002 -1.011542e-001 7.767314e-002 2.418575e-002 -6.643710e-002 3.733795e-001
<VARIANCE> 39
 4.063977e+001 1.759708e+001 1.654757e+001 1.753611e+001 1.649839e+001 2.146089e+001 1.977839e+001 2.021456e+001 2.090605e+001 1.987134e+001 1.659601e+001 1.480974e+001 3.562838e+001 5.285950e+000 3.067576e+000 4.096136e+000 4.616255e+000 3.643237e+000 4.281383e+000 4.253578e+000 3.757734e+000 3.815995e+000 3.351996e+000 3.363971e+000 2.539780e+000 3.096323e+000 8.325746e-001 5.860604e-001 5.542028e-001 6.556714e-001 5.809861e-001 5.710680e-001 6.580625e-001 6.322994e-001 6.162827e-001 5.586417e-001 5.044221e-001 4.433100e-001 5.239100e-001
<GCONST> 1.210355e+002
<STATE> 3
<MEAN> 39
 -2.392929e+001 -8.651522e+000 -9.454157e+000 -6.523160e+000 -5.003783e+000 -4.019332e+000 -3.026751e+000 -2.782352e-001 -1.070206e+000 -1.812680e-001 -1.712098e+000 -1.103136e-001 5.311598e+001 1.863521e-001 -1.646442e-001 -1.465210e-001 -1.275990e-001 -6.996252e-002 -6.592687e-002 -8.627235e-002 -6.573915e-002 2.947537e-002 7.297666e-002 2.477183e-002 -1.621508e-002 1.269469e-001 8.663753e-001 1.650413e-001 1.520029e-001 -1.015484e-001 -1.786083e-002 -5.673802e-002 -1.173379e-001 -9.683396e-002 -1.033484e-001 -8.525988e-002 -6.611468e-002 -1.127653e-001 9.877110e-002
<VARIANCE> 39
 1.013424e+001 1.238279e+001 1.079208e+001 1.225918e+001 1.275462e+001 1.376567e+001 1.451791e+001 1.406399e+001 1.394569e+001 1.388857e+001 1.308186e+001 1.174108e+001 2.319277e+001 2.359640e+000 1.016556e+000 1.193750e+000 1.271584e+000 1.375706e+000 1.452078e+000 1.540476e+000 1.598759e+000 1.575472e+000 1.521585e+000 1.462368e+000 1.310370e+000 1.596603e+000 5.052581e-001 2.463348e-001 3.007710e-001 3.576447e-001 3.565825e-001 3.975119e-001 4.281942e-001 4.009160e-001 3.942946e-001 3.602152e-001 3.639956e-001 3.121632e-001 3.072542e-001
<GCONST> 9.686821e+001
<STATE> 4
<MEAN> 39
 -1.509105e+001 -7.162814e+000 -7.951346e+000 -7.606472e+000 -5.257996e+000 -4.494452e+000 -3.476382e+000 -1.285669e+000 -1.638615e+000 -7.386256e-001 -2.234844e+000 -1.163951e+000 5.419080e+001 5.179017e+000 5.979846e-002 1.308553e-001 -1.600513e+000 -1.291790e+000 -6.342013e-001 -1.405178e+000 -5.282481e-001 -6.347541e-001 -4.412017e-001 -1.249730e-001 -5.651822e-001 1.128755e+000 3.256899e-001 -3.230698e-001 -1.376345e-001 -4.165033e-001 -3.887787e-001 -5.782229e-002 -3.786073e-001 7.631601e-002 -9.118297e-002 -3.623734e-002 9.087541e-002 -2.038690e-002 2.944970e-001
<VARIANCE> 39
 6.494836e+001 1.980860e+001 2.576861e+001 2.662487e+001 2.473885e+001 2.802775e+001 2.588262e+001 2.349374e+001 2.219467e+001 1.892014e+001 1.821732e+001 1.562679e+001 2.706674e+001 4.591643e+000 3.908068e+000 5.350002e+000 5.588005e+000 4.988690e+000 6.072737e+000 5.919926e+000 4.554189e+000 4.594142e+000 3.625351e+000 3.855977e+000 2.875940e+000 4.101754e+000 1.251391e+000 4.968148e-001 5.130373e-001 6.403562e-001 6.547645e-001 7.047374e-001 7.910199e-001 6.926764e-001 6.571467e-001 5.916820e-001 5.080591e-001 4.265741e-001 4.579077e-001
<GCONST> 1.267117e+002
<TRANSP> 5
 0.000000e+000 1.000000e+000 0.000000e+000 0.000000e+000 0.000000e+000
 0.000000e+000 5.537633e-001 4.462367e-001 0.000000e+000 0.000000e+000
 0.000000e+000 0.000000e+000 8.297777e-001 1.702222e-001 0.000000e+000
 0.000000e+000 0.000000e+000 0.000000e+000 5.842758e-001 4.157242e-001
 0.000000e+000 0.000000e+000 0.000000e+000 0.000000e+000 0.000000e+000
<ENDHMM>
~h "g"
<BEGINHMM>
<NUMSTATES> 5
<STATE> 2
<MEAN> 39
 -9.618861e+000 1.919196e+000 7.877199e-001 4.902027e-001 -7.130131e+000 -9.215577e+000 -5.988160e+000 -4.625981e+000 -9.596293e+000 -4.822507e+000 -3.162359e+000 -3.661386e+000 4.108854e+001 -1.222178e+000 -4.222322e-001 -1.508812e+000 4.140850e-001 2.225433e+000 1.191016e+000 -9.004625e-002 -1.396232e-001 1.396024e+000 2.868194e-001 -4.420062e-001 2.609758e-001 -8.852590e-001 1.412428e-001 -1.286939e+000 -5.753754e-001 -1.020298e+000 -2.477924e-001 -4.102652e-002 -5.910377e-002 3.614619e-001 3.356707e-001 5.785049e-001 1.793529e-001 1.822777e-001 1.783693e+000
<VARIANCE> 39
 2.876322e+001 2.747339e+001 3.272141e+001 3.222427e+001 5.214345e+001 5.058509e+001 4.103791e+001 5.589659e+001 4.381279e+001 3.867000e+001 4.097717e+001 2.834380e+001 3.549426e+001 2.721986e+000 1.190158e+001 6.226620e+000 7.321612e+000 6.688453e+000 6.261157e+000 6.334748e+000 8.578424e+000 5.870255e+000 6.377481e+000 4.870107e+000 3.471492e+000 1.184151e+001 5.569317e-001 9.374337e-001 8.262823e-001 9.143147e-001 1.089130e+000 1.150971e+000 1.067387e+000 1.055769e+000 1.003506e+000 9.200991e-001 8.053228e-001 5.988922e-001 1.036673e+000
<GCONST> 1.415796e+002
<STATE> 3
<MEAN> 39
 -1.298419e+001 -1.091832e+001 -1.000623e+001 -5.452302e+000 -9.982675e-001 -6.060937e+000 -5.918591e+000 -1.484112e+000 -2.826548e+000 8.907724e-001 -3.063277e+000 -9.110575e-001 5.051074e+001 6.625467e-001 -1.512424e+000 -9.850057e-001 -1.823233e+000 -2.178772e-001 -5.273902e-001 -8.251632e-001 8.043002e-002 6.147078e-001 9.965180e-001 2.141224e-001 3.748194e-001 3.383679e+000 7.955269e-001 1.008542e+000 9.787093e-001 -1.310199e-002 -9.617581e-001 -4.702944e-001 -3.080871e-001 -2.650540e-001 -6.413062e-001 -4.093531e-001 1.688750e-001 -2.010584e-001 -3.405408e-002
<VARIANCE> 39
 3.358456e+001 5.384595e+001 6.811488e+001 5.229492e+001 5.573973e+001 6.391935e+001 5.742355e+001 4.941942e+001 4.429040e+001 3.663078e+001 3.005750e+001 2.291900e+001 6.815933e+001 4.074641e+000 8.867239e+000 7.540898e+000 6.530240e+000 6.647892e+000 6.720607e+000 5.758002e+000 6.197361e+000 5.815456e+000 4.800098e+000 3.748629e+000 2.942408e+000 7.373217e+000 6.043034e-001 1.459252e+000 1.093678e+000 1.463434e+000 1.140733e+000 1.232837e+000 1.238975e+000 1.304746e+000 1.104148e+000 1.149551e+000 9.733523e-001 6.580506e-001 1.610785e+000
<GCONST> 1.456545e+002
<STATE> 4
<MEAN> 39
 -7.297423e+000 -5.944667e+000 -3.873969e+000 -6.986040e+000 -7.029157e+000 -1.056236e+001 -9.842916e+000 -3.977571e+000 -6.192250e+000 -3.176250e-001 -1.848414e+000 -1.430927e+000 5.590019e+001 2.389626e+000 5.323238e-001 9.490198e-001 -1.124076e+000 -1.940336e+000 -1.032669e+000 -1.580590e+000 5.795662e-002 -5.658029e-001 -5.318916e-001 7.354811e-001 -1.140550e-001 1.607122e+000 4.340690e-002 -2.398013e-001 -2.199173e-001 4.095107e-002 5.193434e-003 2.381590e-001 1.202933e-001 4.091391e-001 6.324217e-002 -2.137996e-001 9.801946e-003 -8.716328e-002 -4.487013e-001
<VARIANCE> 39
 3.461182e+001 3.208251e+001 7.515914e+001 5.581452e+001 8.045809e+001 6.314846e+001 5.934158e+001 5.783851e+001 5.004421e+001 4.370358e+001 4.221700e+001 2.516855e+001 2.866838e+001 4.061066e+000 4.585999e+000 4.660858e+000 7.007941e+000 5.752362e+000 6.811175e+000 6.983732e+000 6.042542e+000 6.575747e+000 6.611351e+000 4.971891e+000 3.462395e+000 2.533625e+000 4.623749e-001 8.827387e-001 8.609503e-001 6.550547e-001 9.829740e-001 9.103301e-001 9.616156e-001 9.233549e-001 9.606605e-001 8.828807e-001 6.416933e-001 5.566370e-001 6.450310e-001
<GCONST> 1.397575e+002
<TRANSP> 5
 0.000000e+000 1.000000e+000 0.000000e+000 0.000000e+000 0.000000e+000
 0.000000e+000 6.681926e-001 3.318074e-001 0.000000e+000 0.000000e+000
 0.000000e+000 0.000000e+000 6.032529e-001 3.967470e-001 0.000000e+000
 0.000000e+000 0.000000e+000 0.000000e+000 4.244306e-001 5.755695e-001
 0.000000e+000 0.000000e+000 0.000000e+000 0.000000e+000 0.000000e+000
<ENDHMM>
~h "k"
<BEGINHMM>
<NUMSTATES> 5
<STATE> 2
<MEAN> 39
 -1.826051e+001 -3.110360e+000 -4.334891e+000 -3.423756e-001 -1.678284e+000 -2.791468e+000 -2.706889e+000 -2.291369e-001 -2.560846e+000 3.436971e-002 -1.145027e+000 -7.790947e-001 3.601192e+001 -1.160058e+000 -1.075090e+000 -1.168117e+000 -3.251553e-001 7.841596e-001 1.328746e+000 5.691991e-001 7.636558e-002 9.048378e-001 5.933973e-001 7.075314e-002 3.242280e-001 -4.469698e-001 6.350662e-001 -7.100334e-001 -1.953214e-001 -9.447443e-001 -6.132123e-001 -6.849416e-001 -2.846376e-001 1.441105e-001 -2.401124e-001 3.356202e-002 -8.972604e-002 -4.458126e-002 2.260502e+000
<VARIANCE> 39
 2.108474e+001 2.210568e+001 2.796902e+001 2.198140e+001 3.317228e+001 3.864881e+001 3.421781e+001 3.702932e+001 3.861913e+001 2.785859e+001 2.382657e+001 1.939704e+001 3.139799e+001 6.276361e+000 5.895361e+000 5.805150e+000 6.634335e+000 7.448476e+000 7.467245e+000 5.811111e+000 5.874386e+000 6.357434e+000 4.162882e+000 4.127648e+000 2.807001e+000 2.144284e+001 6.994753e-001 9.372297e-001 9.265945e-001 8.038510e-001 9.784611e-001 1.075263e+000 9.820886e-001 1.034890e+000 1.033665e+000 7.593006e-001 7.413274e-001 5.169512e-001 1.465153e+000
<GCONST> 1.372398e+002
<STATE> 3
<MEAN> 39
 -1.600086e+001 -1.337047e+001 -1.069324e+001 -8.887381e+000 -3.363242e+000 -5.116871e+000 -4.409097e+000 7.107692e-001 -2.789682e+000 2.699582e+000 -2.181385e+000 -2.127104e-001 5.389946e+001 1.594845e-001 -3.648171e-001 -2.111123e-001 -1.758788e+000 -6.895114e-001 -9.100564e-001 -7.817771e-002 -7.246909e-002 -4.871404e-003 2.789397e-001 -1.941797e-001 6.483308e-002 4.118542e+000 -2.748779e-002 1.199991e+000 8.246529e-001 5.295783e-001 -5.093490e-002 1.700867e-002 1.533800e-001 -1.299007e-001 -7.516824e-002 -4.128031e-001 8.930201e-002 -1.061740e-001 -9.528108e-001
<VARIANCE> 39
 2.743930e+001 3.297189e+001 6.483273e+001 4.766575e+001 5.432406e+001 5.013288e+001 5.166407e+001 4.541402e+001 4.178186e+001 3.429263e+001 2.876725e+001 2.247191e+001 5.268894e+001 4.595527e+000 5.725154e+000 4.857177e+000 4.782725e+000 4.271649e+000 4.476965e+000 4.258397e+000 3.951360e+000 4.213589e+000 3.294925e+000 2.955921e+000 2.383275e+000 1.015232e+001 7.749355e-001 7.278591e-001 8.557292e-001 9.676410e-001 1.020580e+000 1.056026e+000 9.680747e-001 9.161660e-001 9.840539e-001 7.665352e-001 6.821169e-001 5.793566e-001 1.857109e+000
<GCONST> 1.375866e+002
<STATE> 4
<MEAN> 39
 -1.617252e+001 -7.106163e+000 -4.642283e+000 -9.383551e+000 -5.109957e+000 -5.025901e+000 -1.481640e+000 -1.097656e+000 -2.891923e+000 5.653837e-001 -2.476865e+000 -6.018683e-001 5.535384e+001 1.715928e+000 8.147443e-001 8.795773e-001 -3.715884e-002 -9.780782e-001 -4.685948e-001 -1.615851e-001 -2.257465e-001 -7.005095e-001 -1.098543e+000 -5.258753e-002 -4.726674e-001 4.307591e-001 5.263479e-001 -3.169519e-001 -2.031091e-001 -3.424814e-002 -2.503396e-001 -5.863278e-002 -3.621647e-001 1.005211e-001 -1.398674e-001 -8.333410e-002 6.864658e-002 -1.013178e-001 -9.566669e-002
<VARIANCE> 39
 4.005359e+001 2.590387e+001 5.849322e+001 4.286615e+001 5.260856e+001 4.784750e+001 4.381062e+001 4.377500e+001 3.786904e+001 3.203296e+001 2.981485e+001 2.238147e+001 4.030661e+001 6.452968e+000 3.951715e+000 3.478096e+000 4.366707e+000 4.937778e+000 5.051647e+000 5.210340e+000 4.981435e+000 5.098057e+000 3.760089e+000 3.919252e+000 2.934001e+000 3.123883e+000 5.480862e-001 5.827342e-001 5.679820e-001 7.643025e-001 7.285699e-001 8.291886e-001 7.874514e-001 8.163943e-001 8.065513e-001 6.961888e-001 6.415808e-001 4.955245e-001 1.112529e+000
<GCONST> 1.335681e+002
<TRANSP> 5
 0.000000e+000 1.000000e+000 0.000000e+000 0.000000e+000 0.000000e+000
 0.000000e+000 7.355160e-001 2.644841e-001 0.000000e+000 0.000000e+000
 0.000000e+000 0.000000e+000 6.063579e-001 3.936421e-001 0.000000e+000
 0.000000e+000 0.000000e+000 0.000000e+000 6.387028e-001 3.612972e-001
 0.000000e+000 0.000000e+000 0.000000e+000 0.000000e+000 0.000000e+000
<ENDHMM>
~h "l"
<BEGINHMM>
<NUMSTATES> 5
<STATE> 2
<MEAN> 39
 -1.871466e+000 -5.476325e+000 -1.058575e+001 -2.169568e+001 -7.604305e+000 -1.524477e-001 -9.034547e+000 -7.651233e+000 -3.483344e+000 7.379716e-001 -5.862567e-001 -3.772043e+000 5.981633e+001 1.186810e+000 6.799096e-001 -4.022314e-001 -2.251727e+000 -2.298867e-001 1.292685e+000 -2.710180e-001 -9.049656e-001 -7.290504e-001 1.863019e-002 6.499358e-001 3.049690e-001 6.901179e-002 -4.011740e-001 -2.213283e-001 1.473341e-001 5.460588e-001 -9.247103e-005 -3.279042e-001 1.383428e-001 5.390862e-001 1.324494e-001 -1.732563e-001 -1.571944e-001 1.312634e-001 -1.054724e-001
<VARIANCE> 39
 1.366967e+001 4.789956e+001 4.788296e+001 6.722235e+001 5.652511e+001 7.178940e+001 7.600301e+001 5.991328e+001 6.316505e+001 5.874447e+001 6.650935e+001 4.065082e+001 3.069312e+001 2.718591e+000 3.019028e+000 2.749137e+000 5.521812e+000 4.644759e+000 5.204853e+000 5.635115e+000 5.210503e+000 4.686142e+000 4.603263e+000 4.071236e+000 3.725105e+000 2.441869e+000 4.637181e-001 5.301194e-001 4.270413e-001 7.938689e-001 7.684175e-001 7.596672e-001 8.330242e-001 8.255305e-001 9.758557e-001 8.440212e-001 7.350179e-001 6.292414e-001 2.989657e-001
<GCONST> 1.350188e+002
<STATE> 3
<MEAN> 39
 -4.600121e-001 -2.593250e+000 -1.107958e+001 -2.643545e+001 -9.044605e+000 2.602349e+000 -6.594665e+000 -6.376988e+000 -5.146681e+000 -1.686830e+000 2.605933e-001 -1.202991e+000 5.800154e+001 -1.454322e-001 -7.762258e-002 2.501154e-002 3.383650e-001 2.937138e-001 -2.697622e-001 -2.579946e-001 1.564435e-001 1.773317e-001 1.503021e-001 -1.233592e-001 -2.205719e-001 -5.494227e-002 -3.228295e-001 -3.234359e-001 1.036762e-001 7.180159e-001 1.658642e-001 -3.400396e-001 -8.128959e-002 1.828564e-001 3.010524e-001 1.269004e-001 -2.132454e-001 -2.256332e-001 2.860166e-002
<VARIANCE> 39
 9.801386e+000 3.791541e+001 4.664574e+001 6.449021e+001 6.453905e+001 6.295143e+001 7.557810e+001 6.362908e+001 5.631777e+001 5.698213e+001 5.225670e+001 3.762753e+001 2.724893e+001 6.818054e-001 2.978233e+000 1.523811e+000 3.639855e+000 2.687755e+000 2.752604e+000 3.263134e+000 3.013981e+000 3.478137e+000 3.471862e+000 2.567484e+000 2.533668e+000 1.761122e+000 2.438034e-001 3.366239e-001 3.105198e-001 6.125149e-001 5.580174e-001 5.945806e-001 5.836285e-001 7.183610e-001 6.525885e-001 6.109643e-001 5.623766e-001 4.675828e-001 2.476572e-001
<GCONST> 1.232097e+002
<STATE> 4
<MEAN> 39
 -2.771841e+000 -7.350492e+000 -9.552482e+000 -1.887922e+001 -6.523944e+000 -3.345594e+000 -1.190858e+001 -4.902656e+000 -5.578246e-001 1.449719e+000 -2.522076e+000 -5.017113e+000 6.025723e+001 -1.034634e+000 -9.822382e-001 1.279860e+000 2.487211e+000 -5.109506e-001 -2.060008e+000 -7.037638e-002 1.764674e+000 7.556660e-001 -6.095066e-001 -1.125090e+000 -1.415436e-002 8.617118e-002 -2.445489e-001 1.526463e-001 4.373875e-001 1.484821e-001 -3.992467e-001 -6.278696e-003 5.648975e-001 1.943136e-001 -5.291372e-001 -4.512031e-001 1.328380e-001 4.064482e-001 -2.444130e-001
<VARIANCE> 39
 1.189052e+001 3.990152e+001 5.083976e+001 6.670789e+001 4.955755e+001 8.337424e+001 7.995471e+001 6.754092e+001 6.860956e+001 6.428486e+001 6.658655e+001 4.205280e+001 3.957269e+001 1.776554e+000 3.448893e+000 3.778899e+000 5.486811e+000 5.883220e+000 5.324032e+000 5.519322e+000 5.669339e+000 6.457956e+000 5.430499e+000 4.036761e+000 4.604391e+000 3.393463e+000 3.138228e-001 4.003793e-001 3.877935e-001 7.610921e-001 7.200595e-001 8.965663e-001 7.866439e-001 1.022306e+000 1.135718e+000 9.431860e-001 8.257955e-001 6.193606e-001 2.502787e-001
<GCONST> 1.363932e+002
<TRANSP> 5
 0.000000e+000 1.000000e+000 0.000000e+000 0.000000e+000 0.000000e+000
 0.000000e+000 4.929985e-001 5.070015e-001 0.000000e+000 0.000000e+000
 0.000000e+000 0.000000e+000 7.104113e-001 2.895887e-001 0.000000e+000
 0.000000e+000 0.000000e+000 0.000000e+000 5.348734e-001 4.651266e-001
 0.000000e+000 0.000000e+000 0.000000e+000 0.000000e+000 0.000000e+000
<ENDHMM>
~h "m"
<BEGINHMM>
<NUMSTATES> 5
<STATE> 2
<MEAN> 39
 -3.666627e+000 -3.401181e+000 -4.921419e+000 -4.437122e+000 -7.122712e+000 -7.813362e+000 -6.926798e+000 -8.813874e+000 -1.161666e+001 -2.173207e+000 -1.997243e+000 -6.247226e+000 5.137518e+001 2.465351e-001 1.207450e+000 1.026732e+000 1.658939e+000 4.385190e-002 -1.079750e+000 4.936307e-002 -2.129984e+000 -2.307995e+000 3.125857e-001 2.103987e-001 -7.565528e-001 -6.925666e-001 -3.058690e-001 -5.084417e-001 8.028177e-003 -4.742000e-001 -1.832405e-001 2.393566e-001 -6.010731e-002 6.509956e-001 6.274563e-001 -5.750262e-002 -1.028531e-001 2.470318e-001 4.809361e-001
<VARIANCE> 39
 1.214287e+001 2.883891e+001 3.284885e+001 4.904104e+001 4.540906e+001 5.929837e+001 6.065842e+001 6.257230e+001 6.528625e+001 5.671732e+001 7.224303e+001 4.618066e+001 2.689995e+001 4.353229e+000 2.961969e+000 3.586254e+000 3.952672e+000 4.814631e+000 4.119868e+000 5.920241e+000 5.093548e+000 5.625486e+000 4.760408e+000 4.914161e+000 3.784194e+000 4.884183e+000 4.007906e-001 3.850963e-001 6.142938e-001 5.964160e-001 6.503868e-001 6.446358e-001 7.622294e-001 7.935749e-001 9.321812e-001 7.213916e-001 7.503154e-001 5.765659e-001 2.906612e-001
<GCONST> 1.333654e+002
<STATE> 3
<MEAN> 39
 -4.141526e+000 -3.224655e+000 -2.957795e+000 -3.217176e+000 -7.548291e+000 -8.561968e+000 -7.295515e+000 -1.069270e+001 -1.338833e+001 -1.165836e+000 -2.413453e+000 -6.962881e+000 5.143115e+001 -8.151423e-002 -8.800433e-002 1.042363e-001 -1.397884e-001 -9.361664e-002 1.250719e-001 -5.538499e-002 1.524402e-001 2.737287e-001 -1.634075e-001 -1.430805e-001 1.328524e-001 2.159195e-001 -1.071182e-001 -4.092698e-001 -2.742281e-001 -6.451697e-001 -1.116519e-001 3.527564e-001 -4.508069e-003 7.584922e-001 7.912036e-001 -1.578290e-001 -7.015228e-002 2.984879e-001 3.457156e-001
<VARIANCE> 39
 8.554612e+000 2.341837e+001 3.080676e+001 4.954000e+001 5.145166e+001 7.048259e+001 6.543140e+001 6.604502e+001 6.224216e+001 6.148703e+001 8.437166e+001 5.414790e+001 2.032035e+001 9.923855e-001 1.852641e+000 1.479932e+000 2.062724e+000 2.106889e+000 1.956139e+000 2.366888e+000 2.616164e+000 3.080116e+000 2.352007e+000 2.356259e+000 1.996702e+000 2.178370e+000 3.193913e-001 2.899017e-001 4.887152e-001 5.033265e-001 5.759104e-001 5.552591e-001 6.627318e-001 7.156783e-001 8.583601e-001 6.675244e-001 7.014788e-001 5.805756e-001 2.320524e-001
<GCONST> 1.212513e+002
<STATE> 4
<MEAN> 39
 -4.149342e+000 -5.375833e+000 -4.831666e+000 -6.347912e+000 -8.337890e+000 -7.195857e+000 -7.661221e+000 -7.072935e+000 -8.667497e+000 -2.961169e+000 -2.912916e+000 -5.251642e+000 5.412530e+001 -3.441062e-001 -1.616829e+000 -3.654174e-001 -2.370512e+000 -8.869129e-001 1.062291e+000 -1.039083e-001 2.592316e+000 2.429730e+000 -6.241280e-001 -3.748983e-001 9.940034e-001 1.730400e+000 -2.905300e-001 -1.666349e-001 1.265100e-001 -3.126006e-001 -9.690789e-002 2.074654e-001 1.738420e-001 3.872895e-001 7.214464e-002 1.050194e-001 3.386417e-002 1.000226e-001 9.967241e-002
<VARIANCE> 39
 1.373174e+001 3.370025e+001 3.670187e+001 5.577830e+001 4.737677e+001 6.072256e+001 5.562400e+001 6.208185e+001 7.084147e+001 4.923054e+001 6.300480e+001 4.037575e+001 3.967992e+001 2.761270e+000 3.395213e+000 5.960339e+000 5.112589e+000 6.246729e+000 5.028896e+000 5.595827e+000 5.344446e+000 6.619084e+000 5.346570e+000 5.587527e+000 4.122756e+000 3.797595e+000 3.542621e-001 4.801909e-001 5.860862e-001 7.084383e-001 6.782907e-001 6.613827e-001 7.296176e-001 8.948839e-001 1.178046e+000 6.821564e-001 6.879280e-001 5.268095e-001 4.184786e-001
<GCONST> 1.357845e+002
<TRANSP> 5
 0.000000e+000 1.000000e+000 0.000000e+000 0.000000e+000 0.000000e+000
 0.000000e+000 3.911560e-001 6.088440e-001 0.000000e+000 0.000000e+000
 0.000000e+000 0.000000e+000 6.727294e-001 3.272706e-001 0.000000e+000
 0.000000e+000 0.000000e+000 0.000000e+000 4.357327e-001 5.642673e-001
 0.000000e+000 0.000000e+000 0.000000e+000 0.000000e+000 0.000000e+000
<ENDHMM>
~h "n"
<BEGINHMM>
<NUMSTATES> 5
<STATE> 2
<MEAN> 39
 -4.212022e+000 -4.718300e+000 -2.998205e+000 -6.309975e+000 -1.121414e+001 -8.807449e+000 -4.856741e+000 -6.886991e+000 -9.188181e+000 -9.403352e-001 -6.373790e+000 -4.819159e+000 5.322718e+001 1.754303e-001 1.717832e+000 2.149269e-001 1.521171e+000 -1.434155e-001 -4.909739e-001 1.347977e+000 -3.033818e+000 -1.517768e+000 1.275977e+000 -7.482030e-001 -2.181363e-001 -1.753756e+000 -2.886776e-001 -3.194841e-001 2.051982e-002 -4.256140e-001 2.003737e-002 2.980624e-001 -2.016286e-001 5.999932e-001 3.962657e-001 -2.870296e-001 1.997247e-001 1.632275e-001 4.014665e-001
<VARIANCE> 39
 9.898032e+000 3.232741e+001 3.556249e+001 5.255865e+001 4.870403e+001 5.143440e+001 5.530614e+001 7.670322e+001 7.257972e+001 6.053512e+001 6.065821e+001 5.187814e+001 2.641575e+001 1.737866e+000 2.813846e+000 3.988974e+000 3.568868e+000 4.480920e+000 4.817001e+000 4.940307e+000 6.261972e+000 6.061503e+000 4.431687e+000 3.999603e+000 3.459269e+000 2.468661e+000 3.239125e-001 3.940777e-001 4.672618e-001 5.122175e-001 6.751335e-001 6.129996e-001 7.279561e-001 1.016852e+000 8.270965e-001 7.149676e-001 6.201510e-001 5.518787e-001 2.975092e-001
<GCONST> 1.309609e+002
<STATE> 3
<MEAN> 39
 -4.314988e+000 -2.056641e+000 -2.373438e+000 -4.937002e+000 -1.214560e+001 -8.619781e+000 -2.665138e+000 -1.108433e+001 -1.093543e+001 1.903205e-001 -7.285137e+000 -4.288383e+000 5.081356e+001 -2.928430e-001 5.081616e-001 1.540607e-001 2.284158e-001 2.750383e-001 1.485422e-001 -7.567982e-002 -1.308558e-001 7.771716e-003 -2.420866e-001 -2.882278e-002 9.134351e-002 -5.216980e-001 -3.331150e-001 -4.818489e-001 -7.796696e-002 -4.443954e-001 2.600498e-001 2.238929e-001 -4.267877e-001 1.040649e+000 5.593039e-001 -4.136315e-001 2.890199e-001 1.059947e-001 4.294437e-001
<VARIANCE> 39
 8.987429e+000 2.957561e+001 2.927472e+001 5.117822e+001 4.669078e+001 5.015020e+001 5.557055e+001 7.315197e+001 6.585361e+001 6.264935e+001 6.597521e+001 5.409354e+001 2.376782e+001 1.003188e+000 2.065209e+000 1.607781e+000 1.936056e+000 2.415854e+000 2.188505e+000 2.654656e+000 3.622092e+000 2.911297e+000 2.575147e+000 2.256721e+000 1.989792e+000 1.772921e+000 3.350974e-001 5.319862e-001 5.349883e-001 6.454340e-001 7.159057e-001 7.338700e-001 8.024918e-001 1.119051e+000 1.019560e+000 7.852487e-001 7.248109e-001 6.001375e-001 4.122744e-001
<GCONST> 1.247158e+002
<STATE> 4
<MEAN> 39
 -5.974654e+000 -4.019099e+000 -2.568538e+000 -6.256436e+000 -1.018318e+001 -7.909336e+000 -5.869977e+000 -6.623521e+000 -8.141232e+000 -2.408062e+000 -6.653112e+000 -4.046308e+000 5.220535e+001 -1.279102e+000 -1.104091e+000 -3.735898e-001 -1.121454e+000 9.298492e-001 8.630446e-001 -9.363672e-001 2.428556e+000 1.570004e+000 -8.361458e-001 7.194155e-001 2.870557e-001 8.821560e-001 -2.803614e-001 -3.601421e-001 -2.367189e-001 -3.892140e-001 2.755674e-002 2.648620e-001 1.047145e-001 4.899604e-001 2.991647e-001 7.517628e-002 2.519807e-001 1.247346e-001 3.872342e-001
<VARIANCE> 39
 1.741191e+001 5.484159e+001 3.514880e+001 5.373644e+001 4.807825e+001 4.503332e+001 5.461732e+001 7.493915e+001 6.746872e+001 5.454332e+001 5.021986e+001 4.506501e+001 4.811893e+001 3.771389e+000 4.385638e+000 4.368763e+000 4.724587e+000 5.524744e+000 4.885935e+000 5.779553e+000 7.205341e+000 6.477779e+000 5.312078e+000 4.799168e+000 4.048495e+000 4.533132e+000 4.906645e-001 8.133732e-001 5.637051e-001 6.957225e-001 7.480047e-001 7.172710e-001 9.139394e-001 1.321676e+000 1.092698e+000 8.427206e-001 6.919884e-001 6.068907e-001 6.724080e-001
<GCONST> 1.391277e+002
<TRANSP> 5
 0.000000e+000 1.000000e+000 0.000000e+000 0.000000e+000 0.000000e+000
 0.000000e+000 3.338957e-001 6.661043e-001 0.000000e+000 0.000000e+000
 0.000000e+000 0.000000e+000 5.880800e-001 4.119200e-001 0.000000e+000
 0.000000e+000 0.000000e+000 0.000000e+000 4.146974e-001 5.853026e-001
 0.000000e+000 0.000000e+000 0.000000e+000 0.000000e+000 0.000000e+000
<ENDHMM>
~h "p"
<BEGINHMM>
<NUMSTATES> 5
<STATE> 2
<MEAN> 39
 -1.205631e+001 1.369202e+000 -3.326841e+000 -1.886397e+000 -2.456635e+000 -2.492044e+000 -4.842803e+000 -5.204385e+000 -5.996864e+000 -2.953776e+000 -3.172139e+000 -3.021319e+000 3.815628e+001 -3.191433e+000 5.648146e-001 6.789544e-002 1.724259e+000 1.376146e+000 1.458427e+000 1.559621e+000 8.097234e-001 9.692690e-001 3.831793e-001 1.904395e-001 5.458846e-001 -4.190627e+000 -1.330983e-002 -1.058924e+000 -3.146641e-001 -7.709427e-001 -5.031423e-001 -2.375927e-001 -4.987376e-002 5.409247e-001 4.503796e-001 4.090340e-001 2.784556e-001 1.784427e-001 1.457971e+000
<VARIANCE> 39
 3.541898e+001 1.992527e+001 2.218988e+001 2.860453e+001 2.286531e+001 2.513071e+001 2.943122e+001 3.245797e+001 3.447240e+001 2.868656e+001 2.678726e+001 2.205726e+001 2.787502e+001 5.642253e+000 5.318042e+000 5.410758e+000 7.041067e+000 4.535961e+000 5.081428e+000 4.597542e+000 5.277053e+000 5.643534e+000 4.598303e+000 4.234978e+000 3.156160e+000 8.603375e+000 8.835022e-001 7.418894e-001 7.969227e-001 9.780291e-001 7.981576e-001 7.614352e-001 8.124853e-001 8.723449e-001 8.962932e-001 7.701842e-001 6.758407e-001 5.556719e-001 1.198414e+000
<GCONST> 1.331975e+002
<STATE> 3
<MEAN> 39
 -1.956283e+001 -2.210684e+000 -5.220150e+000 -1.192778e+000 -1.493835e+000 2.292496e-001 -1.014924e+000 9.069172e-002 -3.160215e-001 1.028423e+000 7.509961e-002 3.083456e-002 3.262639e+001 -2.316399e-001 -1.082187e+000 -4.850664e-001 -5.451578e-001 -2.017727e-001 -2.093091e-001 2.286014e-001 5.418493e-001 7.136344e-001 4.347059e-001 3.211198e-001 2.968032e-001 1.834967e+000 8.395495e-001 -2.974333e-001 -4.119245e-002 -5.762562e-001 -2.775821e-001 -4.748229e-001 -3.710861e-001 -2.296841e-001 -2.404313e-001 -2.050851e-001 -1.740614e-001 -1.761262e-001 1.981703e+000
<VARIANCE> 39
 4.258654e+000 5.896809e+000 6.301158e+000 8.978288e+000 9.622341e+000 1.138579e+001 1.179549e+001 1.415674e+001 1.382365e+001 1.374520e+001 1.195907e+001 1.160805e+001 1.279533e+001 2.671986e+000 2.012977e+000 1.605328e+000 2.441390e+000 1.764540e+000 2.460501e+000 2.372085e+000 2.901029e+000 3.005735e+000 2.419285e+000 2.099238e+000 1.862913e+000 1.319536e+001 6.044617e-001 3.505183e-001 4.095851e-001 5.316334e-001 4.447875e-001 5.397898e-001 5.216853e-001 5.008316e-001 5.225914e-001 4.638374e-001 4.298393e-001 3.636787e-001 1.040903e+000
<GCONST> 1.047748e+002
<STATE> 4
<MEAN> 39
 -1.429975e+001 -8.784842e+000 -7.759173e+000 -7.469699e+000 -3.237546e+000 -3.140555e+000 -1.928615e+000 -3.937024e-001 -4.293610e-001 1.583527e-001 -1.351491e+000 -8.569047e-001 5.367278e+001 2.085040e+000 -8.024675e-001 -5.786906e-001 -1.385142e+000 -7.012823e-001 -6.325698e-001 -7.837402e-001 -2.691597e-001 -5.005956e-001 -4.641236e-001 -4.814324e-001 -3.628938e-001 2.877624e+000 4.062333e-001 2.934690e-001 1.602709e-002 -3.560730e-002 -2.089691e-001 1.778143e-003 -3.254120e-001 -1.229525e-001 -2.887313e-001 -1.450894e-001 -5.876517e-002 -9.260627e-002 -6.580420e-001
<VARIANCE> 39
 2.520168e+001 2.472351e+001 3.043017e+001 3.566970e+001 2.990481e+001 3.308186e+001 3.345034e+001 3.097209e+001 3.042931e+001 2.595054e+001 2.415632e+001 1.899074e+001 4.144187e+001 4.728713e+000 3.739443e+000 3.555721e+000 4.255465e+000 4.209966e+000 4.579790e+000 4.883248e+000 4.235794e+000 4.371063e+000 3.273618e+000 3.186078e+000 2.384027e+000 1.007887e+001 6.187981e-001 5.973454e-001 5.164047e-001 6.567528e-001 6.872272e-001 7.129527e-001 7.771928e-001 8.073000e-001 8.218017e-001 6.675639e-001 6.172098e-001 4.764467e-001 1.432084e+000
<GCONST> 1.293216e+002
<TRANSP> 5
 0.000000e+000 1.000000e+000 0.000000e+000 0.000000e+000 0.000000e+000
 0.000000e+000 5.408989e-001 4.591011e-001 0.000000e+000 0.000000e+000
 0.000000e+000 0.000000e+000 7.131284e-001 2.868716e-001 0.000000e+000
 0.000000e+000 0.000000e+000 0.000000e+000 7.744456e-001 2.255544e-001
 0.000000e+000 0.000000e+000 0.000000e+000 0.000000e+000 0.000000e+000
<ENDHMM>
~h "r"
<BEGINHMM>
<NUMSTATES> 5
<STATE> 2
<MEAN> 39
 3.271566e+000 -1.044704e+001 -1.648421e+001 -6.789599e+000 -3.311892e+000 -1.108876e+001 -1.768450e+001 6.703627e-001 3.422400e-002 -2.764171e+000 -1.558748e+000 3.050036e-001 5.683223e+001 5.403719e-001 -2.416497e-001 -5.100315e-001 1.922322e-001 1.818552e-001 -3.784926e-001 -7.289727e-001 3.834766e-001 4.962285e-001 -9.515055e-002 -2.098837e-001 5.677348e-002 1.379208e-001 -5.068178e-001 -1.276885e-001 5.887895e-001 7.627577e-002 -4.223733e-001 4.212117e-002 5.922471e-001 1.768747e-001 -1.662173e-001 -5.101717e-002 2.532132e-002 -7.540870e-002 9.486855e-003
<VARIANCE> 39
 1.247797e+001 3.192412e+001 6.521506e+001 4.235294e+001 5.629438e+001 7.356732e+001 8.740201e+001 9.395593e+001 8.584550e+001 4.559966e+001 4.020593e+001 3.493311e+001 2.530272e+001 2.236717e+000 2.339447e+000 3.139071e+000 2.332948e+000 3.375411e+000 4.020898e+000 5.149606e+000 4.612590e+000 3.646245e+000 3.066676e+000 2.484396e+000 2.064720e+000 1.751675e+000 3.985090e-001 3.538155e-001 3.738733e-001 3.526963e-001 4.476389e-001 6.052894e-001 8.539580e-001 7.451298e-001 5.989528e-001 5.024005e-001 4.221769e-001 3.787880e-001 2.260827e-001
<GCONST> 1.254490e+002
<STATE> 3
<MEAN> 39
 2.224590e+000 -1.459331e+001 -1.291653e+001 -5.073980e+000 -6.981935e+000 -1.497957e+001 -1.746226e+001 6.403954e+000 1.293312e-002 -4.628249e+000 -2.120692e+000 1.131548e-001 5.957871e+001 -7.908300e-001 -3.138374e-001 1.868598e+000 3.102432e-001 -1.552289e+000 -3.494503e-001 1.552259e+000 6.451567e-001 -9.062239e-001 -5.598879e-001 1.518413e-001 -7.754724e-002 5.430243e-002 -5.862623e-001 3.740876e-001 5.544217e-001 -2.659261e-001 -1.481624e-001 6.229188e-001 8.304428e-001 -5.789315e-001 -4.613914e-001 2.040095e-001 1.133194e-001 -1.967539e-001 -2.805046e-001
<VARIANCE> 39
 1.090319e+001 2.649622e+001 7.211160e+001 4.817146e+001 6.707853e+001 8.253017e+001 1.103190e+002 8.320184e+001 9.298047e+001 5.434995e+001 4.460674e+001 3.581937e+001 2.291946e+001 1.160152e+000 2.975008e+000 3.050589e+000 2.798325e+000 4.224782e+000 4.211339e+000 5.070444e+000 6.019150e+000 4.200474e+000 3.542612e+000 3.351529e+000 2.545134e+000 2.707092e+000 3.960744e-001 2.718648e-001 3.731474e-001 4.479197e-001 5.567498e-001 6.240906e-001 9.095683e-001 7.032358e-001 6.824932e-001 5.612618e-001 4.659716e-001 4.114132e-001 2.359999e-001
<GCONST> 1.282192e+002
<STATE> 4
<MEAN> 39
 -1.398529e+000 -1.246383e+001 -8.855530e+000 -4.128171e+000 -8.222054e+000 -1.377388e+001 -1.124466e+001 4.592337e+000 -2.947797e+000 -4.895916e+000 -2.882097e+000 -4.831772e-001 5.617779e+001 -2.050507e+000 1.053375e+000 2.166984e+000 4.651969e-002 -6.184950e-001 1.416510e+000 2.295028e+000 -1.219120e+000 -1.034664e+000 1.754894e-001 1.807822e-002 -4.911170e-001 -1.408184e+000 -4.110703e-001 2.727087e-001 -3.132476e-002 -3.341585e-001 2.761443e-001 5.669727e-001 7.796708e-002 -3.401805e-001 8.304843e-002 2.749935e-001 3.747261e-002 -1.304823e-001 -1.918760e-001
<VARIANCE> 39
 2.095386e+001 3.782522e+001 7.390195e+001 6.077872e+001 8.726482e+001 8.506706e+001 9.888603e+001 7.631195e+001 9.225307e+001 5.857450e+001 5.110216e+001 3.659865e+001 5.232733e+001 3.254267e+000 4.787794e+000 3.930839e+000 5.166788e+000 5.590695e+000 4.985277e+000 6.605077e+000 5.958148e+000 5.254613e+000 4.026283e+000 3.809191e+000 3.107224e+000 6.299297e+000 4.494855e-001 5.605961e-001 4.764056e-001 6.232755e-001 8.154050e-001 9.760195e-001 1.023126e+000 9.616097e-001 7.715203e-001 6.986955e-001 6.674484e-001 5.167603e-001 4.426003e-001
<GCONST> 1.394760e+002
<TRANSP> 5
 0.000000e+000 1.000000e+000 0.000000e+000 0.000000e+000 0.000000e+000
 0.000000e+000 6.353856e-001 3.646143e-001 0.000000e+000 0.000000e+000
 0.000000e+000 0.000000e+000 4.383923e-001 5.616077e-001 0.000000e+000
 0.000000e+000 0.000000e+000 0.000000e+000 3.590705e-001 6.409295e-001
 0.000000e+000 0.000000e+000 0.000000e+000 0.000000e+000 0.000000e+000
<ENDHMM>
~h "s"
<BEGINHMM>
<NUMSTATES> 5
<STATE> 2
<MEAN> 39
 -2.429080e+001 7.737811e-001 -5.786716e+000 -8.142413e+000 -1.398644e+000 -6.803031e+000 -1.420609e+000 3.958324e-001 -2.121927e+000 -1.571926e+000 -2.456182e+000 -1.799255e-001 5.783137e+001 -4.395695e+000 1.093302e+000 -1.126605e+000 1.414614e-001 1.681785e+000 1.044713e+000 1.318042e+000 8.920308e-001 4.679687e-001 3.748631e-001 8.351551e-001 6.422911e-001 1.506091e-001 8.368768e-001 -5.509487e-001 -2.750779e-002 -1.475287e-001 -4.818326e-001 -3.441549e-002 -4.410888e-001 -6.357280e-002 -1.043583e-001 7.695211e-002 -7.836477e-002 -1.260524e-001 -1.741616e-002
<VARIANCE> 39
 4.838856e+001 2.438439e+001 4.160856e+001 3.293435e+001 3.883435e+001 3.735944e+001 3.598357e+001 3.517942e+001 2.802264e+001 2.602277e+001 2.202803e+001 1.831291e+001 2.141313e+001 4.611346e+000 3.380030e+000 3.864189e+000 4.478553e+000 4.013117e+000 4.425125e+000 4.389523e+000 3.909492e+000 3.863097e+000 3.612968e+000 3.478883e+000 2.560796e+000 1.709691e+000 8.633034e-001 5.534871e-001 6.399395e-001 6.814976e-001 6.488374e-001 7.639722e-001 7.345745e-001 7.202457e-001 5.966600e-001 6.234245e-001 5.626004e-001 4.778486e-001 3.311337e-001
<GCONST> 1.264143e+002
<STATE> 3
<MEAN> 39
 -3.016286e+001 1.436356e+000 -9.479514e+000 -7.881667e+000 1.180797e-002 -5.073899e+000 -2.710949e-001 1.546807e+000 -1.503535e+000 -2.608579e-001 -1.149721e+000 7.149548e-001 5.791919e+001 -7.729018e-003 -1.207151e-001 4.451904e-003 -1.128509e-001 2.246419e-003 -1.668615e-002 -8.924783e-002 3.183298e-002 4.833545e-002 4.270623e-002 -1.275967e-002 -2.069526e-002 -2.953858e-002 5.995670e-001 -2.124573e-001 2.558006e-001 -3.200376e-002 -1.818141e-001 -1.439112e-001 -1.843758e-001 -1.154830e-001 -3.066036e-002 -6.771310e-002 -1.004804e-001 -9.682856e-002 -1.556185e-001
<VARIANCE> 39
 8.076083e+000 2.067183e+001 3.018166e+001 3.923086e+001 3.504154e+001 3.160540e+001 2.873542e+001 2.506717e+001 1.936788e+001 1.701299e+001 1.620781e+001 1.333193e+001 1.725299e+001 9.333439e-001 1.220538e+000 1.186347e+000 1.299711e+000 1.456832e+000 1.631833e+000 1.556241e+000 1.576416e+000 1.509563e+000 1.468012e+000 1.322453e+000 1.216383e+000 6.736715e-001 3.670166e-001 2.295392e-001 2.655566e-001 3.094071e-001 3.318262e-001 3.766378e-001 3.714024e-001 3.592197e-001 3.433416e-001 3.312568e-001 3.064703e-001 2.691089e-001 1.819953e-001
<GCONST> 9.924529e+001
<STATE> 4
<MEAN> 39
 -2.471255e+001 -1.903671e+000 -5.907463e+000 -9.277008e+000 -1.149436e+000 -6.349361e+000 -2.955069e+000 1.157561e+000 -1.073396e+000 -7.819232e-001 -2.136085e+000 -3.174964e-001 5.635484e+001 3.545763e+000 -1.294596e+000 1.050594e+000 9.682044e-002 -1.232179e+000 -2.232366e-001 -1.383753e+000 -7.578191e-001 -1.544174e-001 -8.094128e-002 -3.491620e-001 -5.777467e-001 -1.413056e+000 5.660349e-001 -1.748337e-001 -6.316183e-002 9.168771e-002 -3.206235e-001 1.100450e-001 -1.530936e-001 -1.269037e-001 -1.460231e-001 5.344720e-002 2.660914e-002 -7.300800e-002 -2.367950e-001
<VARIANCE> 39
 4.924162e+001 2.821975e+001 3.897741e+001 3.299953e+001 4.205502e+001 4.236680e+001 4.295477e+001 3.522828e+001 2.883834e+001 2.413712e+001 2.240847e+001 1.893623e+001 3.066431e+001 5.273735e+000 2.801575e+000 3.869885e+000 4.896181e+000 4.836680e+000 5.745238e+000 5.244212e+000 3.940974e+000 3.755898e+000 3.056321e+000 3.317107e+000 2.498058e+000 6.667098e+000 8.733631e-001 5.414159e-001 5.909179e-001 6.676255e-001 7.022845e-001 7.986245e-001 9.554366e-001 7.210628e-001 6.347144e-001 5.642242e-001 5.716081e-001 4.382936e-001 8.855376e-001
<GCONST> 1.301774e+002
<TRANSP> 5
 0.000000e+000 1.000000e+000 0.000000e+000 0.000000e+000 0.000000e+000
 0.000000e+000 6.318308e-001 3.681692e-001 0.000000e+000 0.000000e+000
 0.000000e+000 0.000000e+000 8.344004e-001 1.655996e-001 0.000000e+000
 0.000000e+000 0.000000e+000 0.000000e+000 6.789794e-001 3.210206e-001
 0.000000e+000 0.000000e+000 0.000000e+000 0.000000e+000 0.000000e+000
<ENDHMM>
~h "t"
<BEGINHMM>
<NUMSTATES> 5
<STATE> 2
<MEAN> 39
 -1.432727e+001 -1.827699e+000 -3.410801e+000 -4.657770e+000 -6.058433e+000 -5.549639e+000 -5.018965e+000 -2.465193e+000 -3.066944e+000 -1.291082e+000 -3.240492e+000 -2.405262e+000 4.202368e+001 -1.976004e+000 2.415342e-001 -3.686069e-001 9.027109e-001 1.514879e+000 1.739036e+000 1.190460e+000 2.934139e-001 5.488055e-001 3.962620e-001 6.303753e-001 2.950973e-001 -2.656499e+000 2.158566e-001 -7.436524e-001 -1.867750e-001 -7.193430e-001 -3.096237e-001 -1.840891e-002 2.677545e-002 2.248107e-001 -3.176018e-002 6.411970e-002 1.187200e-001 1.129069e-001 1.384003e+000
<VARIANCE> 39
 4.966421e+001 3.904652e+001 5.334560e+001 5.867075e+001 5.905174e+001 5.357441e+001 4.924347e+001 5.870624e+001 6.236055e+001 5.018559e+001 4.452821e+001 3.639952e+001 6.565452e+001 6.344959e+000 5.863616e+000 5.491112e+000 7.250912e+000 6.549219e+000 6.001042e+000 5.583572e+000 6.827757e+000 6.583943e+000 5.006982e+000 4.791529e+000 3.843207e+000 1.102695e+001 7.455432e-001 8.669828e-001 7.732356e-001 1.134477e+000 1.174882e+000 1.084702e+000 1.031543e+000 1.208970e+000 1.208609e+000 1.043820e+000 9.501479e-001 7.318682e-001 1.656513e+000
<GCONST> 1.466400e+002
<STATE> 3
<MEAN> 39
 -1.993065e+001 -5.171233e+000 -5.416040e+000 -6.522365e+000 -3.441463e+000 -1.994447e+000 -1.303837e+000 1.967138e-001 -9.953155e-001 6.374131e-001 -2.116143e-001 9.460215e-002 4.461470e+001 -5.364260e-002 -8.828769e-001 -2.072931e-001 -1.196978e+000 -5.318489e-001 -3.386835e-001 3.202734e-001 2.252566e-001 -4.239510e-002 -3.574333e-002 8.506709e-002 2.458571e-001 2.623629e+000 5.689258e-001 3.918296e-002 1.859444e-001 -1.851016e-001 -4.097448e-001 -4.742329e-001 -3.068265e-001 -1.553754e-001 -2.665857e-001 -2.350874e-001 -2.940614e-001 -1.534134e-001 7.322744e-001
<VARIANCE> 39
 3.466813e+001 3.401842e+001 3.155479e+001 4.875021e+001 3.362997e+001 3.302259e+001 2.698467e+001 2.556920e+001 2.356882e+001 2.108224e+001 1.959631e+001 1.755110e+001 1.519695e+002 4.331636e+000 3.876991e+000 3.551144e+000 5.288449e+000 3.836383e+000 4.399725e+000 3.555765e+000 3.926121e+000 3.678217e+000 3.116132e+000 3.003825e+000 2.417846e+000 1.335456e+001 7.823828e-001 7.909682e-001 7.196386e-001 1.295166e+000 8.115680e-001 8.135818e-001 6.953578e-001 6.968510e-001 6.576989e-001 5.641230e-001 5.419086e-001 4.593180e-001 3.749564e+000
<GCONST> 1.321895e+002
<STATE> 4
<MEAN> 39
 -1.439610e+001 -7.742292e+000 -4.562432e+000 -1.027966e+001 -8.268830e+000 -6.519696e+000 -2.656338e+000 -5.804162e-001 -3.240178e+000 -1.735947e+000 -3.049389e+000 -1.005304e+000 5.455378e+001 2.336396e+000 -5.957404e-001 2.618925e-001 -6.771152e-001 -1.116881e+000 -7.774721e-001 -9.773865e-001 -2.022282e-001 -5.991848e-001 -5.102390e-001 -5.836173e-001 -4.885835e-001 1.808286e+000 2.465131e-001 2.423535e-002 -1.935325e-002 1.188025e-001 2.678882e-002 1.486964e-001 -2.817741e-001 3.016014e-002 5.603121e-002 1.073365e-001 1.263030e-001 -6.725002e-002 -2.969094e-001
<VARIANCE> 39
 6.155847e+001 3.966169e+001 5.970700e+001 5.775534e+001 5.956491e+001 5.699570e+001 5.257911e+001 5.159483e+001 4.618517e+001 3.777938e+001 3.568806e+001 2.915385e+001 5.821870e+001 7.325798e+000 3.518333e+000 4.497032e+000 5.995872e+000 5.763503e+000 5.636448e+000 5.935640e+000 4.787570e+000 4.782481e+000 4.048058e+000 4.081179e+000 3.101812e+000 9.061694e+000 8.858089e-001 6.899495e-001 6.446933e-001 8.834915e-001 8.556038e-001 8.499570e-001 9.254511e-001 8.558971e-001 7.486023e-001 6.961593e-001 6.640039e-001 5.545095e-001 1.315334e+000
<GCONST> 1.402287e+002
<TRANSP> 5
 0.000000e+000 1.000000e+000 0.000000e+000 0.000000e+000 0.000000e+000
 0.000000e+000 4.821928e-001 5.178072e-001 0.000000e+000 0.000000e+000
 0.000000e+000 0.000000e+000 6.586701e-001 3.413299e-001 0.000000e+000
 0.000000e+000 0.000000e+000 0.000000e+000 5.228105e-001 4.771895e-001
 0.000000e+000 0.000000e+000 0.000000e+000 0.000000e+000 0.000000e+000
<ENDHMM>
~h "v"
<BEGINHMM>
<NUMSTATES> 5
<STATE> 2
<MEAN> 39
 -5.262810e+000 -3.494520e+000 -7.449029e+000 -7.280564e+000 -5.753826e+000 -6.465086e+000 -1.025528e+001 -6.778095e+000 -4.852246e+000 -1.241848e+000 -1.482489e+000 -3.061585e+000 5.259701e+001 -2.285627e+000 1.897449e+000 3.983359e-001 1.345844e+000 1.287657e+000 8.506697e-001 1.110997e+000 -5.456176e-001 -5.388348e-001 -6.722351e-001 -4.073465e-001 1.901860e-001 -1.869356e+000 -2.174997e-001 -5.615135e-001 2.180412e-001 -2.467512e-001 -3.349123e-001 -6.353111e-002 1.599714e-001 5.964977e-001 2.374111e-001 2.087368e-002 -1.577821e-001 -6.864516e-003 5.455183e-001
<VARIANCE> 39
 2.664598e+001 1.921590e+001 2.809903e+001 2.908372e+001 1.993174e+001 3.563909e+001 3.059582e+001 2.897568e+001 3.018210e+001 2.947558e+001 3.280105e+001 2.506740e+001 2.787115e+001 3.181408e+000 2.361516e+000 3.093618e+000 3.512515e+000 2.856232e+000 3.831076e+000 4.198706e+000 4.411983e+000 3.483008e+000 3.278526e+000 3.145058e+000 2.340614e+000 2.081488e+000 4.362038e-001 3.957101e-001 4.003378e-001 4.351619e-001 4.740946e-001 4.734892e-001 6.268061e-001 5.951508e-001 5.634331e-001 5.207177e-001 4.855948e-001 4.259415e-001 3.537916e-001
<GCONST> 1.198583e+002
<STATE> 3
<MEAN> 39
 -1.327227e+001 -1.777152e+000 -5.052699e+000 -4.099535e+000 -3.557218e+000 -4.228422e+000 -5.939111e+000 -4.713991e+000 -5.130755e+000 -3.150611e+000 -3.607114e+000 -2.570852e+000 4.962177e+001 -1.179850e+000 -3.920764e-001 -7.313214e-002 2.204231e-003 6.793868e-002 7.902400e-002 6.345956e-001 6.546201e-001 4.531783e-001 6.295861e-002 2.115114e-002 1.957864e-001 3.455601e-001 1.065842e+000 -7.370415e-001 -2.793970e-001 -7.602751e-001 -6.333802e-001 -4.472490e-001 -4.396143e-001 2.219480e-001 1.998001e-001 2.974628e-001 2.139707e-001 3.617381e-003 8.720196e-001
<VARIANCE> 39
 4.683493e+001 2.085894e+001 2.510244e+001 2.617730e+001 1.974750e+001 2.663802e+001 2.971712e+001 2.701472e+001 2.539095e+001 2.291957e+001 2.293703e+001 1.868775e+001 3.702681e+001 5.351487e+000 2.062690e+000 2.196225e+000 2.868828e+000 2.346846e+000 2.844128e+000 2.970330e+000 2.595697e+000 2.384333e+000 2.249662e+000 2.237157e+000 1.749682e+000 2.847961e+000 7.229666e-001 6.082827e-001 6.869171e-001 7.010967e-001 6.021845e-001 7.521082e-001 8.662640e-001 8.543274e-001 7.274016e-001 6.173626e-001 5.632916e-001 4.492877e-001 5.553777e-001
<GCONST> 1.209075e+002
<STATE> 4
<MEAN> 39
 -1.062635e+001 -4.866078e+000 -7.256374e+000 -7.386347e+000 -6.068238e+000 -6.437776e+000 -6.766003e+000 -3.575440e+000 -3.257007e+000 -1.707533e+000 -2.187511e+000 -1.957063e+000 5.404395e+001 1.861156e+000 -1.327011e+000 -3.803352e-001 -1.442595e+000 -1.134124e+000 -8.466651e-001 -6.427167e-001 6.774654e-001 4.033355e-001 4.174600e-001 2.717083e-001 3.842572e-002 1.552990e+000 4.862925e-001 -2.150834e-001 1.372135e-001 -2.034857e-001 -1.903598e-001 5.457391e-003 -2.291875e-001 1.267305e-001 -7.580751e-002 1.082828e-002 -2.257588e-002 -8.245573e-002 6.336043e-002
<VARIANCE> 39
 6.604971e+001 2.405356e+001 3.337325e+001 3.155590e+001 2.554262e+001 3.476125e+001 3.837655e+001 3.053468e+001 2.822688e+001 2.467596e+001 2.354338e+001 1.988708e+001 3.187299e+001 7.025085e+000 3.856719e+000 4.082832e+000 4.911839e+000 4.282908e+000 4.918937e+000 5.551999e+000 4.526562e+000 4.049119e+000 3.276864e+000 2.979954e+000 2.560559e+000 5.730071e+000 8.120117e-001 5.673186e-001 4.508373e-001 5.823568e-001 5.690224e-001 6.584521e-001 7.704021e-001 7.135808e-001 6.217850e-001 5.323051e-001 4.873676e-001 4.049455e-001 5.438698e-001
<GCONST> 1.279223e+002
<TRANSP> 5
 0.000000e+000 1.000000e+000 0.000000e+000 0.000000e+000 0.000000e+000
 0.000000e+000 4.901622e-001 5.098378e-001 0.000000e+000 0.000000e+000
 0.000000e+000 0.000000e+000 5.229774e-001 4.770227e-001 0.000000e+000
 0.000000e+000 0.000000e+000 0.000000e+000 4.077549e-001 5.922451e-001
 0.000000e+000 0.000000e+000 0.000000e+000 0.000000e+000 0.000000e+000
<ENDHMM>
~h "w"
<BEGINHMM>
<NUMSTATES> 5
<STATE> 2
<MEAN> 39
 3.494105e-001 -4.265154e-001 -8.892473e+000 -1.512242e+001 -1.064714e+001 -2.561344e+000 -7.404788e+000 -5.964790e+000 -1.152253e+001 -3.446818e+000 -1.145114e+000 -2.101289e+000 5.079145e+001 1.879998e+000 1.338143e+000 -4.779020e-001 -2.424938e+000 -1.819297e+000 6.603910e-001 7.591031e-001 -3.726925e-002 -7.431237e-001 -7.477286e-001 -7.500172e-002 1.313546e-001 3.467228e-001 -5.535713e-001 -6.564030e-001 2.561240e-001 1.425787e-001 -1.301467e-001 -2.679724e-001 -5.920397e-002 4.817284e-001 5.490988e-001 2.432352e-001 -5.856207e-002 -7.440940e-002 4.024997e-001
<VARIANCE> 39
 1.391172e+001 2.791383e+001 2.607782e+001 5.039084e+001 4.281465e+001 4.101623e+001 4.935054e+001 4.410006e+001 5.065097e+001 4.211584e+001 4.852801e+001 2.742996e+001 2.780491e+001 3.988142e+000 3.427321e+000 3.941014e+000 5.114131e+000 5.086081e+000 5.427474e+000 6.957487e+000 5.235317e+000 5.309423e+000 4.567832e+000 4.104082e+000 3.064056e+000 5.420372e+000 4.550351e-001 5.482655e-001 6.117433e-001 6.881344e-001 1.144008e+000 8.458592e-001 1.041288e+000 8.081329e-001 8.171079e-001 8.652095e-001 6.525976e-001 5.240899e-001 2.731649e-001
<GCONST> 1.329264e+002
<STATE> 3
<MEAN> 39
 2.553128e+000 3.747651e-001 -9.007897e+000 -2.223917e+001 -1.758281e+001 -8.019260e-001 -4.235323e+000 -1.999629e+000 -7.960656e+000 -4.485214e+000 -1.346580e+000 -2.186394e+000 5.300732e+001 2.346504e-001 -1.017157e+000 -4.230486e-001 -1.158132e+000 -2.048035e-001 8.365273e-001 6.992441e-002 1.113054e-001 3.088278e-001 4.382960e-001 5.305121e-001 2.092760e-001 1.188399e+000 -3.052207e-001 -5.091987e-001 -1.078362e-001 4.087730e-001 6.085706e-001 7.577749e-002 -1.970543e-001 -1.535586e-001 7.158385e-002 2.738760e-001 1.803180e-001 3.824187e-003 1.774953e-001
<VARIANCE> 39
 6.698882e+000 2.789515e+001 3.186602e+001 5.182724e+001 5.004383e+001 5.037242e+001 4.369539e+001 4.532679e+001 5.571195e+001 4.274383e+001 4.116678e+001 2.957005e+001 1.949001e+001 5.765055e-001 2.180364e+000 1.579724e+000 2.529500e+000 3.524782e+000 3.295919e+000 3.273104e+000 2.823978e+000 3.235106e+000 3.048344e+000 2.852464e+000 2.220411e+000 1.577184e+000 2.779995e-001 2.384894e-001 2.656351e-001 5.305855e-001 4.859240e-001 5.522144e-001 5.942630e-001 5.451699e-001 6.701767e-001 5.614575e-001 4.932993e-001 4.450449e-001 1.872650e-001
<GCONST> 1.171863e+002
<STATE> 4
<MEAN> 39
 1.496605e+000 -8.334486e+000 -1.171140e+001 -2.091518e+001 -1.076998e+001 1.726307e+000 -9.078276e+000 -4.883151e+000 -8.073900e+000 1.620170e+000 2.332923e+000 -2.217890e+000 5.941430e+001 -6.086445e-001 -2.154540e+000 1.442740e-001 1.321674e+000 1.173005e+000 -1.066018e+000 -1.464005e+000 4.544368e-001 1.638997e+000 1.242879e+000 -2.512269e-001 -9.867971e-001 1.579464e+000 -3.225312e-001 2.600217e-001 3.964524e-001 5.429282e-001 -1.833166e-001 -6.643366e-001 2.687616e-001 4.895978e-001 3.297284e-001 -4.716356e-001 -5.994745e-001 -1.364446e-001 -3.394709e-001
<VARIANCE> 39
 8.802318e+000 2.875525e+001 4.418774e+001 7.580429e+001 6.084155e+001 8.138878e+001 8.964488e+001 6.096824e+001 6.838748e+001 8.259883e+001 8.133000e+001 4.410423e+001 1.858064e+001 5.072026e-001 1.465100e+000 2.682687e+000 3.144684e+000 3.667886e+000 5.989374e+000 4.938177e+000 5.236185e+000 4.051121e+000 4.555252e+000 4.709612e+000 3.119791e+000 8.314194e-001 2.243334e-001 2.823987e-001 3.383867e-001 5.668747e-001 7.326332e-001 7.349233e-001 1.032141e+000 7.564417e-001 9.440202e-001 1.035441e+000 7.471650e-001 7.493358e-001 1.678537e-001
<GCONST> 1.281192e+002
<TRANSP> 5
 0.000000e+000 1.000000e+000 0.000000e+000 0.000000e+000 0.000000e+000
 0.000000e+000 5.701723e-001 4.298277e-001 0.000000e+000 0.000000e+000
 0.000000e+000 0.000000e+000 7.358583e-001 2.641417e-001 0.000000e+000
 0.000000e+000 0.000000e+000 0.000000e+000 5.498679e-001 4.501321e-001
 0.000000e+000 0.000000e+000 0.000000e+000 0.000000e+000 0.000000e+000
<ENDHMM>
~h "y"
<BEGINHMM>
<NUMSTATES> 5
<STATE> 2
<MEAN> 39
 -9.514807e+000 -3.686150e+000 1.126093e+001 -1.156097e+001 -1.555726e+001 -8.021668e+000 -1.055018e+001 -4.096946e+000 -1.167228e+001 -4.260234e+000 -2.980016e+000 -2.522874e+000 5.569223e+001 -3.820057e-002 3.837245e-001 2.137692e+000 -2.943194e-001 -1.291228e+000 3.482032e-001 -2.427614e-001 -3.572760e-001 -1.376245e+000 -5.156333e-001 3.254621e-001 -1.224249e-001 1.114499e-001 8.615667e-002 -2.231729e-001 -7.852100e-001 -7.568586e-002 3.699023e-001 1.178289e-001 5.294147e-002 9.122247e-002 4.313902e-001 2.824472e-001 4.879228e-002 -3.013609e-002 5.151633e-002
<VARIANCE> 39
 1.949249e+001 4.517368e+001 4.537261e+001 7.282774e+001 4.898357e+001 5.802068e+001 4.242913e+001 6.579084e+001 4.575238e+001 5.277855e+001 5.712878e+001 3.155947e+001 3.129914e+001 3.724509e+000 3.618602e+000 5.123260e+000 3.552539e+000 6.037252e+000 5.264103e+000 4.676149e+000 4.675177e+000 5.255035e+000 4.597719e+000 3.022251e+000 2.376248e+000 3.247103e+000 3.709256e-001 3.825077e-001 5.011598e-001 8.217048e-001 9.302723e-001 1.184132e+000 7.411166e-001 9.483679e-001 7.487104e-001 6.776644e-001 5.252555e-001 4.813241e-001 2.792748e-001
<GCONST> 1.331326e+002
<STATE> 3
<MEAN> 39
 -9.227177e+000 -4.063563e+000 1.395821e+001 -1.279547e+001 -1.886564e+001 -7.065558e+000 -1.061062e+001 -5.843169e+000 -1.267359e+001 -3.168698e+000 -2.185274e+000 -2.377761e+000 5.721657e+001 3.760619e-001 -6.787804e-001 -3.678176e-001 3.213950e-001 -6.026103e-001 -6.520541e-001 3.360814e-001 2.870787e-001 -7.033796e-002 2.360610e-001 4.126603e-001 1.103134e-001 4.619118e-001 8.038873e-002 -1.229765e-001 -3.311988e-001 1.529206e-001 1.249281e-001 -2.412404e-001 4.835906e-002 2.102129e-001 1.034528e-001 -1.100931e-002 6.058705e-002 4.352186e-002 2.105094e-003
<VARIANCE> 39
 1.104013e+001 3.662412e+001 3.623120e+001 8.097704e+001 4.029906e+001 4.376269e+001 4.507257e+001 5.834662e+001 4.221116e+001 6.232882e+001 5.605462e+001 2.982990e+001 2.017506e+001 5.109133e-001 9.201999e-001 1.055814e+000 1.120905e+000 1.347759e+000 1.980723e+000 1.762223e+000 1.830755e+000 1.459003e+000 1.326495e+000 1.211599e+000 1.033200e+000 4.884016e-001 8.004350e-002 1.224683e-001 2.118923e-001 1.767436e-001 3.505045e-001 2.605490e-001 2.778395e-001 2.768442e-001 2.945317e-001 2.609285e-001 2.127434e-001 1.885789e-001 8.433815e-002
<GCONST> 9.992705e+001
<STATE> 4
<MEAN> 39
 -4.656873e+000 -1.149471e+001 6.557928e+000 -6.981476e+000 -1.996883e+001 -1.605845e+001 -7.963780e+000 2.660990e+000 -1.168802e+001 -4.222548e+000 2.769912e+000 -3.909019e-001 5.996162e+001 8.668616e-001 -8.271666e-001 -2.187101e+000 8.370392e-001 1.040462e+000 -1.450549e+000 -6.370800e-001 1.820775e+000 1.078963e+000 -5.567762e-001 3.667279e-002 5.954815e-001 1.301432e-001 -2.929621e-002 2.080896e-001 -2.457654e-001 -1.378574e-001 4.685345e-001 3.538725e-001 -3.295702e-001 -1.805688e-001 4.120376e-001 -6.144455e-004 -3.585461e-001 -4.762398e-002 -1.687373e-001
<VARIANCE> 39
 1.217934e+001 2.635302e+001 5.161161e+001 5.920367e+001 3.788036e+001 5.994378e+001 6.962830e+001 6.366484e+001 5.868523e+001 6.848839e+001 4.325368e+001 3.334603e+001 1.810415e+001 4.681605e-001 8.699020e-001 1.461603e+000 1.420513e+000 1.692856e+000 2.290340e+000 2.798320e+000 2.341384e+000 2.764347e+000 1.967779e+000 1.967798e+000 1.547006e+000 4.720455e-001 8.006131e-002 1.229615e-001 2.525346e-001 2.334828e-001 3.387864e-001 3.965369e-001 3.849847e-001 4.292376e-001 3.809915e-001 4.043800e-001 2.757235e-001 2.788033e-001 6.297474e-002
<GCONST> 1.067299e+002
<TRANSP> 5
 0.000000e+000 1.000000e+000 0.000000e+000 0.000000e+000 0.000000e+000
 0.000000e+000 6.989465e-001 3.010535e-001 0.000000e+000 0.000000e+000
 0.000000e+000 0.000000e+000 8.205830e-001 1.794170e-001 0.000000e+000
 0.000000e+000 0.000000e+000 0.000000e+000 6.988887e-001 3.011113e-001
 0.000000e+000 0.000000e+000 0.000000e+000 0.000000e+000 0.000000e+000
<ENDHMM>
~h "z"
<BEGINHMM>
<NUMSTATES> 5
<STATE> 2
<MEAN> 39
 -1.905094e+001 4.618536e+000 -3.070594e+000 -8.238886e+000 -2.669064e+000 -1.083648e+001 -7.264736e+000 -3.791574e+000 -3.838453e+000 -2.790651e+000 -4.186655e+000 -1.108523e+000 5.687959e+001 -4.449873e+000 1.505506e+000 -7.826112e-001 3.776291e-001 2.301182e+000 1.430248e+000 1.713752e+000 1.111366e+000 5.783069e-001 1.564987e-001 5.627843e-001 3.333043e-001 -3.014378e-001 4.060515e-001 -9.156890e-001 -6.459980e-002 -1.189018e-001 -4.337599e-001 3.043236e-001 7.369050e-002 3.247916e-001 3.030519e-002 1.942101e-001 1.155083e-001 -5.533020e-003 6.572205e-002
<VARIANCE> 39
 4.566793e+001 2.686060e+001 4.448272e+001 4.072685e+001 4.999328e+001 5.087716e+001 4.661809e+001 3.753060e+001 3.217486e+001 3.350757e+001 2.270021e+001 2.144018e+001 2.059091e+001 3.075791e+000 4.624065e+000 3.347606e+000 4.863802e+000 3.537014e+000 5.118202e+000 4.046017e+000 4.125014e+000 3.738718e+000 3.383955e+000 3.045220e+000 2.911854e+000 1.341857e+000 9.787884e-001 5.575828e-001 5.300650e-001 6.654109e-001 7.350310e-001 8.727199e-001 7.648641e-001 7.492542e-001 5.849732e-001 6.158798e-001 5.118619e-001 4.940500e-001 1.960094e-001
<GCONST> 1.272914e+002
<STATE> 3
<MEAN> 39
 -2.888793e+001 1.989066e+000 -7.621732e+000 -8.344791e+000 4.701665e-001 -5.482116e+000 -1.232804e+000 1.253474e+000 -1.476147e+000 -7.522840e-001 -1.727504e+000 2.054878e-001 5.605767e+001 -3.378619e-002 -7.545566e-001 -2.344318e-001 -2.646575e-001 -1.732307e-001 6.500656e-002 1.273492e-001 2.883859e-001 2.387640e-001 1.873385e-001 1.378346e-001 4.946110e-002 7.059971e-002 1.191412e+000 -2.516390e-001 3.090441e-001 -4.393640e-002 -4.671015e-001 -4.020092e-001 -5.147066e-001 -3.753893e-001 -1.440904e-001 -9.074346e-002 -1.807703e-001 -1.352667e-001 -1.284131e-001
<VARIANCE> 39
 1.396592e+001 2.644370e+001 4.216056e+001 4.108001e+001 3.730855e+001 3.487194e+001 3.818579e+001 2.942339e+001 2.152419e+001 1.977870e+001 1.821976e+001 1.470455e+001 1.688729e+001 3.389661e+000 1.599204e+000 1.970632e+000 1.711561e+000 2.077971e+000 2.897938e+000 2.529998e+000 2.278263e+000 2.078748e+000 1.906070e+000 1.700901e+000 1.479343e+000 1.051370e+000 6.774729e-001 3.946682e-001 3.979611e-001 5.021130e-001 5.447265e-001 6.519091e-001 6.016159e-001 5.289654e-001 4.747897e-001 4.287609e-001 4.095282e-001 3.509382e-001 3.155400e-001
<GCONST> 1.127199e+002
<STATE> 4
<MEAN> 39
 -1.992685e+001 -1.491674e+000 -4.825821e+000 -9.236344e+000 -2.650824e+000 -8.351561e+000 -5.848284e+000 -9.694652e-001 -1.577416e+000 -1.155725e+000 -3.060910e+000 -9.849236e-001 5.554207e+001 3.751147e+000 -1.738149e+000 2.995726e-001 4.555107e-002 -1.546153e+000 -3.439249e-001 -1.193150e+000 -7.043025e-001 -1.368250e-001 1.552427e-001 -2.793202e-001 -3.980454e-001 -1.110901e+000 2.206993e-001 -6.772546e-002 -9.133110e-002 8.847667e-002 -1.311524e-001 2.578913e-001 7.657417e-002 2.266499e-002 -1.290297e-001 3.100096e-002 5.974595e-002 -3.960418e-002 -2.514789e-001
<VARIANCE> 39
 5.775703e+001 3.776236e+001 4.120869e+001 3.504363e+001 4.946826e+001 5.734212e+001 5.089536e+001 4.115673e+001 3.349398e+001 3.126159e+001 2.562200e+001 2.175988e+001 4.129510e+001 4.371378e+000 3.777391e+000 3.901082e+000 5.210602e+000 5.023460e+000 5.969584e+000 5.573523e+000 4.459243e+000 3.998016e+000 3.470551e+000 3.370399e+000 2.762909e+000 6.239208e+000 1.085886e+000 6.481404e-001 5.210140e-001 6.510168e-001 7.622842e-001 9.088219e-001 8.837245e-001 7.958530e-001 6.757755e-001 5.977185e-001 5.402054e-001 4.595625e-001 6.008713e-001
<GCONST> 1.333971e+002
<TRANSP> 5
 0.000000e+000 1.000000e+000 0.000000e+000 0.000000e+000 0.000000e+000
 0.000000e+000 6.689265e-001 3.310734e-001 0.000000e+000 0.000000e+000
 0.000000e+000 0.000000e+000 7.570376e-001 2.429625e-001 0.000000e+000
 0.000000e+000 0.000000e+000 0.000000e+000 6.308421e-001 3.691579e-001
 0.000000e+000 0.000000e+000 0.000000e+000 0.000000e+000 0.000000e+000
<ENDHMM>
~h "aa"
<BEGINHMM>
<NUMSTATES> 5
<STATE> 2
<MEAN> 39
 -1.024489e+000 -1.577563e+001 -1.319262e+001 -1.662517e+001 -8.068301e+000 -1.172273e+000 -6.982640e+000 6.581552e-001 -1.338434e+000 -7.772658e-001 -2.692106e+000 -6.164302e+000 6.495477e+001 9.248717e-001 -1.466877e+000 -1.527210e+000 -8.978506e-001 8.438993e-001 1.410432e+000 3.270732e-001 -2.256821e-002 1.952577e-001 -9.807604e-002 7.337125e-002 -6.456404e-001 9.857100e-001 -5.572290e-001 3.893644e-001 2.730594e-001 4.539025e-001 2.956375e-001 -5.738388e-002 2.113761e-001 -2.305865e-001 -1.271120e-001 -9.717497e-002 5.800071e-002 3.018672e-001 -5.221972e-001
<VARIANCE> 39
 1.309375e+001 3.159292e+001 4.342313e+001 5.851116e+001 5.906380e+001 9.304696e+001 8.187764e+001 8.141914e+001 7.143272e+001 5.603195e+001 7.506986e+001 4.223101e+001 2.090791e+001 2.039736e+000 1.981804e+000 2.855392e+000 3.477536e+000 3.962047e+000 3.809464e+000 4.572909e+000 4.595863e+000 3.971788e+000 3.331551e+000 3.466254e+000 3.243134e+000 1.285542e+000 3.836962e-001 3.119314e-001 3.597283e-001 5.071295e-001 6.381250e-001 7.886160e-001 9.057423e-001 8.645714e-001 6.996955e-001 6.225473e-001 6.793025e-001 5.163672e-001 2.618712e-001
<GCONST> 1.290867e+002
<STATE> 3
<MEAN> 39
 -2.023842e-001 -1.708233e+001 -1.698138e+001 -1.728508e+001 -3.908567e+000 1.913260e+000 -5.301705e+000 -1.560623e+000 -1.367603e+000 -2.262176e+000 -2.279434e+000 -6.072961e+000 6.502081e+001 3.111263e-002 -9.345448e-002 -2.145494e-001 3.861901e-001 2.998872e-001 -4.377387e-001 -2.501292e-001 2.288258e-001 2.022761e-001 -1.596257e-001 -1.563537e-001 -1.321642e-002 -3.184332e-002 -2.442457e-002 1.926007e-001 1.729002e-001 1.063007e-001 -1.914719e-001 -3.053754e-001 -1.392949e-001 1.347068e-001 2.868480e-003 2.625502e-002 -5.968133e-002 5.930947e-002 -1.500779e-001
<VARIANCE> 39
 1.281476e+001 3.160520e+001 3.486956e+001 5.819172e+001 5.623093e+001 8.724784e+001 8.136716e+001 8.773350e+001 7.520167e+001 5.439280e+001 6.463612e+001 4.362797e+001 1.995189e+001 2.418878e-001 7.040731e-001 8.434235e-001 1.362305e+000 1.438691e+000 2.011416e+000 2.024263e+000 1.961976e+000 1.545244e+000 1.451320e+000 1.411702e+000 1.349552e+000 2.433330e-001 4.532885e-002 1.089845e-001 1.341981e-001 1.861944e-001 2.119831e-001 2.410749e-001 3.076110e-001 2.871215e-001 2.678827e-001 2.567341e-001 2.367045e-001 2.277965e-001 4.985294e-002
<GCONST> 9.977528e+001
<STATE> 4
<MEAN> 39
 -1.209675e+000 -1.530731e+001 -1.454054e+001 -1.440903e+001 -5.727218e+000 -3.024073e+000 -6.426934e+000 5.180423e-001 -5.367838e-001 -1.961724e+000 -4.503036e+000 -6.143577e+000 6.297841e+001 -7.494951e-001 1.894799e+000 1.441823e+000 1.632118e+000 -4.908575e-001 -1.593930e+000 -5.106177e-001 3.739768e-001 -2.652077e-001 4.233106e-002 -1.358612e-001 7.176623e-001 -2.135595e+000 -5.548959e-001 4.558282e-001 4.342840e-001 3.721507e-001 1.639326e-001 1.468040e-001 1.065121e-001 -3.285561e-001 -1.860688e-001 3.253317e-003 1.516838e-001 1.944129e-001 -6.093501e-001
<VARIANCE> 39
 1.461522e+001 3.666815e+001 4.271871e+001 5.368049e+001 5.364378e+001 9.015797e+001 8.336623e+001 7.943682e+001 7.435628e+001 5.872142e+001 6.701170e+001 4.767616e+001 3.027752e+001 2.636181e+000 3.459913e+000 3.215425e+000 4.103350e+000 3.973625e+000 4.166054e+000 4.966296e+000 5.202786e+000 4.369939e+000 4.090486e+000 3.745331e+000 3.383941e+000 4.099740e+000 4.742169e-001 4.575601e-001 3.858896e-001 5.962671e-001 6.231704e-001 8.276919e-001 7.700852e-001 8.055011e-001 7.096207e-001 7.112881e-001 6.463937e-001 5.682880e-001 4.748576e-001
<GCONST> 1.339584e+002
<TRANSP> 5
 0.000000e+000 1.000000e+000 0.000000e+000 0.000000e+000 0.000000e+000
 0.000000e+000 6.459501e-001 3.540499e-001 0.000000e+000 0.000000e+000
 0.000000e+000 0.000000e+000 8.569341e-001 1.430659e-001 0.000000e+000
 0.000000e+000 0.000000e+000 0.000000e+000 6.313106e-001 3.686894e-001
 0.000000e+000 0.000000e+000 0.000000e+000 0.000000e+000 0.000000e+000
<ENDHMM>
~h "ae"
<BEGINHMM>
<NUMSTATES> 5
<STATE> 2
<MEAN> 39
 -4.426834e+000 -1.663624e+001 -5.084786e+000 -1.361684e+001 -1.482817e+001 -8.000078e+000 -3.910366e+000 5.621727e+000 -2.009706e+000 -3.150311e+000 -5.357417e+000 -4.673783e+000 6.606796e+001 -3.508256e-002 -1.272628e+000 1.955882e-003 -7.616511e-001 -1.626225e-001 5.438942e-001 8.606655e-001 9.160924e-001 1.059288e-001 -6.027955e-001 -3.619272e-001 -1.465261e-001 1.112913e+000 -2.895894e-001 4.738459e-001 -7.721831e-002 3.156248e-001 4.292535e-001 1.565022e-001 9.779313e-002 -4.439646e-001 -9.932403e-002 4.168403e-002 7.977880e-002 1.541163e-001 -5.204599e-001
<VARIANCE> 39
 1.466193e+001 3.024645e+001 4.789634e+001 4.772115e+001 5.091035e+001 5.655620e+001 7.788787e+001 6.417206e+001 8.466788e+001 4.870385e+001 4.811779e+001 3.882736e+001 2.013252e+001 1.070296e+000 1.877372e+000 2.126957e+000 2.171281e+000 2.662392e+000 2.671280e+000 3.427850e+000 3.750703e+000 2.945873e+000 2.590604e+000 2.403626e+000 2.243454e+000 1.077300e+000 3.003219e-001 2.684476e-001 3.051264e-001 3.756344e-001 4.621286e-001 4.879786e-001 6.311466e-001 5.537409e-001 5.629103e-001 4.847384e-001 4.575968e-001 3.870548e-001 2.184379e-001
<GCONST> 1.196074e+002
<STATE> 3
<MEAN> 39
 -4.901789e+000 -1.729548e+001 -6.746043e+000 -1.327988e+001 -1.281964e+001 -6.504389e+000 -7.079678e-001 4.689648e+000 -2.158468e+000 -5.178057e+000 -6.401993e+000 -4.049500e+000 6.608852e+001 3.047568e-003 2.597622e-002 -1.788543e-001 5.627395e-002 2.299656e-001 1.283052e-002 2.308391e-002 -6.516373e-002 1.102376e-002 -8.162002e-002 -9.159440e-002 2.298377e-002 -7.646509e-002 3.073234e-002 1.871250e-001 1.368313e-002 6.472094e-002 -6.961924e-003 -1.285494e-001 -1.764424e-001 -6.802933e-002 -1.413380e-002 1.161668e-001 5.825552e-002 -7.917389e-004 -1.669275e-001
<VARIANCE> 39
 1.295769e+001 3.035608e+001 4.716533e+001 4.342294e+001 5.490465e+001 5.529904e+001 6.239435e+001 6.216962e+001 8.603302e+001 4.369464e+001 4.170492e+001 4.175536e+001 2.303414e+001 2.465136e-001 6.118761e-001 9.222104e-001 8.186988e-001 1.203156e+000 1.251991e+000 1.432046e+000 1.301461e+000 1.232280e+000 1.194302e+000 1.149769e+000 9.636252e-001 2.279941e-001 4.281558e-002 1.154892e-001 1.312883e-001 1.444098e-001 1.852775e-001 1.903923e-001 2.194628e-001 2.294401e-001 2.185176e-001 1.995423e-001 1.975807e-001 1.734978e-001 5.292663e-002
<GCONST> 9.320699e+001
<STATE> 4
<MEAN> 39
 -4.547266e+000 -1.405402e+001 -6.492522e+000 -1.208472e+001 -1.229688e+001 -9.456211e+000 -3.610482e+000 4.148721e+000 -2.543327e+000 -3.456623e+000 -5.716244e+000 -3.993847e+000 6.291161e+001 -6.339712e-001 2.466273e+000 6.039281e-001 1.289873e+000 5.994049e-001 -4.231844e-001 -6.768278e-001 -1.067124e+000 -5.934502e-001 5.298464e-001 4.632470e-001 1.752125e-001 -2.613745e+000 -5.501020e-001 5.271951e-001 1.428758e-001 4.168827e-001 3.830681e-001 3.317590e-001 1.445158e-001 -3.495394e-001 -1.083002e-001 -2.899013e-002 9.132066e-002 6.704434e-002 -7.000041e-001
<VARIANCE> 39
 1.273884e+001 3.525238e+001 6.024937e+001 4.606022e+001 5.974101e+001 6.299102e+001 7.203284e+001 6.620981e+001 8.150142e+001 5.678502e+001 6.277678e+001 4.536831e+001 3.983634e+001 2.688201e+000 3.399720e+000 3.005693e+000 3.528850e+000 4.216896e+000 4.089154e+000 4.496612e+000 4.746945e+000 4.992627e+000 3.994755e+000 3.700305e+000 3.101605e+000 4.076494e+000 4.685991e-001 4.721033e-001 4.912845e-001 5.196323e-001 6.524804e-001 7.107990e-001 7.474232e-001 7.655182e-001 8.429745e-001 7.659764e-001 7.675993e-001 5.513743e-001 4.593199e-001
<GCONST> 1.335398e+002
<TRANSP> 5
 0.000000e+000 1.000000e+000 0.000000e+000 0.000000e+000 0.000000e+000
 0.000000e+000 6.129840e-001 3.870159e-001 0.000000e+000 0.000000e+000
 0.000000e+000 0.000000e+000 8.751177e-001 1.248823e-001 0.000000e+000
 0.000000e+000 0.000000e+000 0.000000e+000 7.335677e-001 2.664323e-001
 0.000000e+000 0.000000e+000 0.000000e+000 0.000000e+000 0.000000e+000
<ENDHMM>
~h "ah"
<BEGINHMM>
<NUMSTATES> 5
<STATE> 2
<MEAN> 39
 -3.456980e+000 -1.256824e+001 -8.638297e+000 -1.542293e+001 -9.279445e+000 -4.648598e+000 -1.051914e+001 -5.780422e-002 -2.104782e-001 2.009058e-001 -4.093265e+000 -5.497632e+000 6.342177e+001 1.438158e+000 -1.739365e+000 -5.735292e-001 -1.259884e+000 -2.348135e-001 6.086831e-001 -8.722477e-001 6.601591e-001 9.550000e-001 1.012028e-001 -5.661314e-001 -9.448405e-001 1.425023e+000 -7.533650e-001 4.942425e-001 1.266991e-001 5.266210e-001 3.993926e-001 7.298756e-002 5.105137e-001 -1.681456e-001 -2.441393e-001 -1.116204e-001 9.590007e-002 2.616116e-001 -7.177953e-001
<VARIANCE> 39
 2.453948e+001 3.467128e+001 5.021904e+001 5.407942e+001 5.549849e+001 8.776746e+001 6.743647e+001 6.395501e+001 6.007248e+001 6.312571e+001 7.934192e+001 4.538763e+001 2.922573e+001 3.925453e+000 2.906387e+000 3.113155e+000 4.622723e+000 4.693301e+000 5.541759e+000 5.068556e+000 5.162005e+000 4.845974e+000 4.247600e+000 4.549546e+000 3.551623e+000 2.787830e+000 5.882072e-001 4.499804e-001 4.853871e-001 6.697952e-001 7.013404e-001 9.719903e-001 8.528928e-001 8.807542e-001 7.763414e-001 7.386438e-001 8.351319e-001 6.335410e-001 4.787073e-001
<GCONST> 1.364000e+002
<STATE> 3
<MEAN> 39
 -2.862189e+000 -1.457336e+001 -1.039692e+001 -1.655113e+001 -7.132294e+000 -3.158790e+000 -9.704855e+000 7.144980e-001 9.991665e-001 -8.708954e-001 -5.671471e+000 -6.112019e+000 6.451293e+001 3.524765e-002 3.327824e-001 8.067352e-002 1.837357e-001 1.274242e-001 -1.921100e-001 -3.442311e-002 -1.661498e-001 -1.100977e-001 -2.142408e-002 -5.886678e-002 3.510496e-002 -4.019209e-001 -1.862825e-001 5.211487e-001 2.283059e-001 3.594013e-001 -4.636013e-002 -1.961957e-001 9.702928e-002 -2.632630e-001 -3.380654e-001 2.660448e-002 1.391422e-001 1.959046e-001 -5.267984e-001
<VARIANCE> 39
 1.466970e+001 3.002651e+001 3.957536e+001 5.099313e+001 5.202288e+001 8.354208e+001 7.004165e+001 5.856298e+001 6.551012e+001 6.978624e+001 6.830647e+001 5.066232e+001 2.710799e+001 6.090170e-001 1.214885e+000 1.570254e+000 1.813757e+000 2.049601e+000 2.837328e+000 2.349632e+000 2.576984e+000 2.280267e+000 2.135783e+000 2.234239e+000 2.029553e+000 1.058887e+000 2.323399e-001 2.816004e-001 2.542027e-001 3.740216e-001 4.067418e-001 4.963837e-001 5.487586e-001 5.646378e-001 5.129929e-001 4.522995e-001 4.207261e-001 4.153293e-001 2.455600e-001
<GCONST> 1.169456e+002
<STATE> 4
<MEAN> 39
 -3.267542e+000 -9.931230e+000 -8.028056e+000 -1.353564e+001 -8.076778e+000 -6.287428e+000 -1.031298e+001 -1.446683e+000 -1.239041e+000 2.400464e-002 -4.106061e+000 -4.657099e+000 5.958547e+001 -1.256678e+000 2.732574e+000 1.168278e+000 2.308769e+000 5.703000e-001 -3.056779e-001 7.366335e-001 -1.386001e+000 -1.454601e+000 -3.977316e-001 2.011627e-001 6.798611e-001 -3.196472e+000 -7.267222e-001 2.757106e-001 1.179289e-001 3.605320e-001 2.587406e-001 3.214296e-001 4.465909e-001 -9.404285e-002 -1.341703e-001 -1.360711e-001 -2.187965e-002 6.628539e-002 -4.443151e-001
<VARIANCE> 39
 2.183871e+001 3.873792e+001 4.677227e+001 5.854906e+001 5.122999e+001 8.171591e+001 6.691309e+001 6.654549e+001 6.388980e+001 6.946310e+001 7.373203e+001 4.743217e+001 4.511285e+001 3.602999e+000 3.061761e+000 3.175379e+000 4.411871e+000 4.881773e+000 5.720831e+000 5.589106e+000 5.840168e+000 5.646780e+000 5.468022e+000 4.859915e+000 4.112962e+000 4.591481e+000 5.306633e-001 6.215541e-001 4.826913e-001 7.920304e-001 6.587613e-001 9.039295e-001 7.927653e-001 1.077892e+000 8.391643e-001 8.439325e-001 8.458485e-001 6.392554e-001 7.228748e-001
<GCONST> 1.392149e+002
<TRANSP> 5
 0.000000e+000 1.000000e+000 0.000000e+000 0.000000e+000 0.000000e+000
 0.000000e+000 4.322481e-001 5.677518e-001 0.000000e+000 0.000000e+000
 0.000000e+000 0.000000e+000 7.524822e-001 2.475177e-001 0.000000e+000
 0.000000e+000 0.000000e+000 0.000000e+000 5.048807e-001 4.951194e-001
 0.000000e+000 0.000000e+000 0.000000e+000 0.000000e+000 0.000000e+000
<ENDHMM>
~h "ao"
<BEGINHMM>
<NUMSTATES> 5
<STATE> 2
<MEAN> 39
 6.387354e-001 -9.260757e+000 -1.380074e+001 -2.173959e+001 -1.140309e+001 2.024193e+000 -4.314046e+000 -2.261616e+000 -4.778064e+000 -1.050854e+000 2.566989e-001 -3.439512e+000 6.046572e+001 7.707051e-001 -5.719949e-001 -6.970423e-001 -1.532803e+000 -2.106510e-002 1.336650e+000 5.133453e-001 -1.035278e-001 -1.712588e-001 -1.553710e-001 3.452847e-001 4.390644e-002 8.592092e-001 -4.969581e-001 1.136656e-001 1.313361e-001 5.664940e-001 3.728161e-001 -2.338026e-001 -2.083241e-002 3.950589e-002 1.114290e-001 -6.734730e-002 -7.719295e-002 1.562890e-001 -3.190354e-001
<VARIANCE> 39
 1.206396e+001 4.645472e+001 3.988694e+001 6.477614e+001 7.801804e+001 7.775447e+001 8.732407e+001 6.726080e+001 7.236964e+001 7.051168e+001 7.072720e+001 4.518787e+001 2.681248e+001 2.019834e+000 2.211122e+000 2.429235e+000 4.278270e+000 4.584763e+000 4.125726e+000 4.215438e+000 3.956738e+000 3.909223e+000 3.665255e+000 3.441465e+000 3.015418e+000 1.484539e+000 4.587313e-001 3.753153e-001 3.560167e-001 5.598888e-001 6.435038e-001 6.399954e-001 8.253471e-001 6.749568e-001 7.700077e-001 6.440706e-001 6.481223e-001 5.076336e-001 2.569225e-001
<GCONST> 1.301203e+002
<STATE> 3
<MEAN> 39
 8.464253e-001 -1.040629e+001 -1.529863e+001 -2.499076e+001 -9.070148e+000 6.008772e+000 -1.808484e+000 -3.519637e+000 -3.608292e+000 -2.623245e+000 8.821231e-002 -2.741546e+000 6.187886e+001 -2.193671e-002 -1.951186e-001 -1.379517e-001 2.356648e-001 4.008859e-001 -1.306953e-001 -2.474134e-001 -3.587195e-002 1.388523e-001 7.848851e-002 3.500055e-002 -7.294823e-002 1.338694e-001 -2.618916e-002 3.908271e-002 5.956575e-002 2.391381e-001 -9.773232e-003 -2.615283e-001 -1.865486e-001 4.331687e-002 3.688798e-002 7.940789e-002 -3.774409e-002 -5.397798e-002 -8.115543e-002
<VARIANCE> 39
 1.023674e+001 4.154366e+001 3.672132e+001 6.770662e+001 8.733366e+001 7.156180e+001 8.045659e+001 6.120172e+001 6.303844e+001 6.163759e+001 5.988860e+001 4.482720e+001 2.230836e+001 1.954832e-001 9.236793e-001 7.916515e-001 1.638436e+000 1.515398e+000 1.595211e+000 1.692527e+000 1.430586e+000 1.472336e+000 1.536206e+000 1.420753e+000 1.420009e+000 3.038215e-001 3.510638e-002 1.028381e-001 1.172637e-001 1.756846e-001 2.249580e-001 2.301207e-001 2.526596e-001 2.480657e-001 2.515444e-001 2.480234e-001 2.414374e-001 2.210149e-001 4.153363e-002
<GCONST> 9.857465e+001
<STATE> 4
<MEAN> 39
 2.026008e-001 -1.258508e+001 -1.512204e+001 -1.760435e+001 -7.396767e+000 -2.044091e-001 -6.030859e+000 -1.668164e+000 -2.812446e+000 -1.278320e-001 -3.037439e-001 -5.065289e+000 6.204493e+001 -5.593575e-001 4.952608e-001 7.023292e-001 2.316371e+000 2.835299e-001 -1.903256e+000 -9.624728e-001 4.046930e-001 5.245038e-001 1.044620e-001 -6.325598e-001 1.822167e-001 -9.457661e-001 -3.458528e-001 3.274657e-001 3.707135e-001 2.436025e-001 -3.984714e-002 -9.773591e-002 6.953762e-002 -6.314427e-002 -6.419541e-003 -1.276994e-001 -1.273702e-001 2.381314e-001 -3.630711e-001
<VARIANCE> 39
 1.285787e+001 3.960545e+001 3.918670e+001 7.177672e+001 6.047224e+001 8.145360e+001 8.357760e+001 7.073338e+001 7.459855e+001 6.963622e+001 8.508022e+001 5.542878e+001 2.469389e+001 1.778043e+000 3.202853e+000 3.243478e+000 3.657912e+000 4.876127e+000 3.770117e+000 5.375356e+000 4.462333e+000 4.604832e+000 4.234108e+000 3.924915e+000 3.840252e+000 2.203225e+000 4.154811e-001 3.095962e-001 3.308294e-001 5.646170e-001 6.050636e-001 7.141024e-001 8.179541e-001 7.454463e-001 7.383914e-001 7.136779e-001 7.734551e-001 6.637666e-001 2.418008e-001
<GCONST> 1.322453e+002
<TRANSP> 5
 0.000000e+000 1.000000e+000 0.000000e+000 0.000000e+000 0.000000e+000
 0.000000e+000 6.419100e-001 3.580900e-001 0.000000e+000 0.000000e+000
 0.000000e+000 0.000000e+000 8.582844e-001 1.417156e-001 0.000000e+000
 0.000000e+000 0.000000e+000 0.000000e+000 6.419535e-001 3.580464e-001
 0.000000e+000 0.000000e+000 0.000000e+000 0.000000e+000 0.000000e+000
<ENDHMM>
~h "aw"
<BEGINHMM>
<NUMSTATES> 5
<STATE> 2
<MEAN> 39
 -4.023456e+000 -1.798641e+001 -9.289062e+000 -1.376311e+001 -9.221142e+000 -4.846899e+000 -3.885868e+000 3.004919e+000 -2.252368e+000 -3.773749e+000 -7.114717e+000 -4.560371e+000 6.659738e+001 3.747304e-001 -1.365003e+000 -8.193797e-001 -3.755863e-001 7.109713e-001 9.084707e-001 -2.303696e-002 1.142801e-001 4.854958e-001 -4.395123e-001 -5.220342e-001 -3.571320e-001 9.535827e-001 -2.927378e-001 4.828942e-001 2.723788e-002 2.145195e-001 3.043667e-001 1.690287e-001 6.870246e-003 -4.039603e-001 -8.882636e-002 1.133935e-001 1.985917e-001 9.987202e-002 -5.445335e-001
<VARIANCE> 39
 1.347492e+001 2.871531e+001 5.019045e+001 4.619857e+001 6.331096e+001 6.435281e+001 7.811576e+001 7.096722e+001 7.474370e+001 5.198513e+001 4.386252e+001 4.229994e+001 1.705344e+001 1.223887e+000 2.082799e+000 2.001698e+000 2.394561e+000 3.023120e+000 2.833505e+000 3.897390e+000 3.693502e+000 2.804624e+000 2.468696e+000 2.396162e+000 2.380073e+000 1.300639e+000 3.489553e-001 2.934223e-001 2.973823e-001 4.106674e-001 5.235573e-001 4.928197e-001 6.612772e-001 6.655472e-001 5.973843e-001 4.712516e-001 4.457680e-001 4.193196e-001 2.172987e-001
<GCONST> 1.211725e+002
<STATE> 3
<MEAN> 39
 -2.254936e+000 -1.764834e+001 -1.351194e+001 -1.524427e+001 -4.709734e+000 -7.328458e-002 -4.759559e+000 -1.868974e+000 2.802485e-001 -4.108868e+000 -5.641160e+000 -5.455710e+000 6.552941e+001 2.549579e-001 3.888882e-001 -3.994977e-001 -4.791085e-001 2.568999e-001 5.663354e-001 -2.204606e-001 -4.806136e-001 -1.833489e-002 2.493127e-001 3.812299e-001 -4.126410e-002 -3.357232e-001 1.413116e-002 1.740617e-001 7.453767e-002 -1.357636e-002 -1.744806e-001 -1.097581e-001 -1.605064e-002 3.235875e-002 -7.826290e-002 7.692414e-002 7.258309e-002 5.794898e-002 -1.269367e-001
<VARIANCE> 39
 1.314172e+001 3.157516e+001 3.994609e+001 5.474677e+001 5.682762e+001 7.935232e+001 8.315873e+001 6.615894e+001 6.585946e+001 5.522361e+001 5.354530e+001 4.516572e+001 2.251996e+001 2.333053e-001 6.924437e-001 7.303901e-001 1.260434e+000 1.516775e+000 1.485005e+000 1.636292e+000 1.637162e+000 1.598637e+000 1.446840e+000 1.465773e+000 1.348607e+000 2.263326e-001 3.901407e-002 9.823263e-002 1.169512e-001 1.745952e-001 2.066499e-001 2.300838e-001 2.681499e-001 2.527001e-001 2.502996e-001 2.138572e-001 2.371031e-001 2.215471e-001 3.813128e-002
<GCONST> 9.711853e+001
<STATE> 4
<MEAN> 39
 -7.060477e-001 -1.168912e+001 -1.442044e+001 -1.914244e+001 -6.914316e+000 1.499545e+000 -6.266979e+000 -3.801276e+000 -1.699835e+000 -2.184334e-001 -2.593028e+000 -4.916833e+000 6.081140e+001 -4.294385e-001 1.616241e+000 9.681957e-001 1.156724e+000 -7.997750e-001 -1.163068e+000 -1.225501e-001 -2.884398e-001 -5.684030e-001 4.474045e-001 1.616161e-001 3.321310e-001 -1.816374e+000 -4.187219e-001 1.576266e-001 3.874592e-001 6.523331e-001 1.255683e-001 -3.038865e-001 8.550905e-002 -3.599947e-002 -9.236579e-002 -1.377681e-001 -1.663007e-001 5.264583e-002 -3.410668e-001
<VARIANCE> 39
 1.225236e+001 4.081224e+001 3.544429e+001 6.965659e+001 6.297823e+001 8.098523e+001 8.667352e+001 5.654268e+001 6.283849e+001 6.288022e+001 7.210365e+001 4.459839e+001 3.596319e+001 1.948554e+000 2.913769e+000 2.712923e+000 5.566768e+000 4.185343e+000 4.023745e+000 4.446545e+000 4.538154e+000 4.128638e+000 3.943934e+000 3.946359e+000 3.263648e+000 2.677363e+000 3.190404e-001 4.010634e-001 3.570318e-001 5.995973e-001 7.007238e-001 6.543272e-001 7.451911e-001 6.940502e-001 6.882298e-001 6.908940e-001 6.508842e-001 5.397026e-001 3.443220e-001
<GCONST> 1.313958e+002
<TRANSP> 5
 0.000000e+000 1.000000e+000 0.000000e+000 0.000000e+000 0.000000e+000
 0.000000e+000 6.947381e-001 3.052619e-001 0.000000e+000 0.000000e+000
 0.000000e+000 0.000000e+000 8.863560e-001 1.136440e-001 0.000000e+000
 0.000000e+000 0.000000e+000 0.000000e+000 7.573035e-001 2.426965e-001
 0.000000e+000 0.000000e+000 0.000000e+000 0.000000e+000 0.000000e+000
<ENDHMM>
~h "ax"
<BEGINHMM>
<NUMSTATES> 5
<STATE> 2
<MEAN> 39
 -1.820691e+000 -1.024583e+001 -8.917272e+000 -1.084167e+001 -8.613649e+000 -9.043175e+000 -1.243500e+001 -9.284449e-001 -1.100110e+000 -5.655950e-001 -3.079906e+000 -2.967230e+000 5.908880e+001 2.152357e+000 -8.606871e-001 -8.299823e-001 -5.896713e-001 -7.483584e-002 -4.455457e-001 -1.882278e+000 4.520524e-001 4.638516e-001 9.996205e-002 -1.579705e-001 -1.821228e-001 6.326203e-001 -6.519633e-001 4.419689e-001 5.871665e-002 3.067300e-001 2.946397e-001 2.793125e-001 4.861553e-001 -9.942205e-002 -2.419655e-001 -1.204554e-001 1.211108e-001 1.521442e-001 -6.234142e-001
<VARIANCE> 39
 2.188381e+001 3.132216e+001 5.681268e+001 6.764454e+001 5.189610e+001 8.379807e+001 6.749814e+001 6.912057e+001 6.089354e+001 5.861234e+001 5.708239e+001 3.882343e+001 2.269539e+001 5.805647e+000 2.904891e+000 4.153603e+000 4.728436e+000 4.762684e+000 5.766728e+000 6.436322e+000 6.008770e+000 5.081524e+000 4.044961e+000 3.931154e+000 3.209615e+000 2.126941e+000 6.716679e-001 4.613083e-001 4.618665e-001 7.531962e-001 6.223723e-001 7.985981e-001 8.989804e-001 7.869776e-001 7.979715e-001 7.416920e-001 7.034602e-001 5.397982e-001 5.959700e-001
<GCONST> 1.360933e+002
<STATE> 3
<MEAN> 39
 -7.714860e-001 -1.127165e+001 -9.552209e+000 -1.182764e+001 -8.302639e+000 -8.287886e+000 -1.371185e+001 1.409388e-001 -7.234536e-001 -2.154806e-001 -3.203333e+000 -3.391156e+000 5.955667e+001 6.712522e-001 2.380310e-001 -5.112972e-001 2.037798e-001 4.927740e-001 -9.651838e-002 -5.710131e-001 -1.697467e-002 -9.220877e-002 -1.190448e-001 7.900185e-002 1.208089e-001 -5.084880e-001 -8.125048e-001 7.061344e-001 2.410920e-001 5.083759e-001 2.750937e-001 1.613276e-001 7.332885e-001 -3.346378e-001 -3.515512e-001 -1.764250e-001 6.553882e-002 1.638266e-001 -7.372794e-001
<VARIANCE> 39
 1.654071e+001 2.998822e+001 5.883000e+001 6.880085e+001 5.291187e+001 9.367319e+001 7.794700e+001 7.658422e+001 6.695660e+001 6.393251e+001 6.140325e+001 4.486362e+001 2.089217e+001 2.807985e+000 2.200714e+000 3.233571e+000 3.756356e+000 3.528138e+000 4.159881e+000 5.123564e+000 4.567425e+000 4.107368e+000 3.345143e+000 3.204679e+000 2.681120e+000 1.870871e+000 6.996610e-001 5.055362e-001 4.950128e-001 7.894996e-001 7.013854e-001 9.304417e-001 1.035608e+000 9.671051e-001 8.857512e-001 8.095468e-001 7.601122e-001 5.978082e-001 5.231724e-001
<GCONST> 1.340965e+002
<STATE> 4
<MEAN> 39
 -7.403540e-001 -9.128235e+000 -1.005293e+001 -1.035929e+001 -6.976181e+000 -8.550845e+000 -1.330915e+001 -1.241881e+000 -1.449138e+000 -7.807721e-001 -2.550986e+000 -2.601367e+000 5.717775e+001 -6.413280e-001 1.490499e+000 6.557006e-002 1.210137e+000 9.235632e-001 1.122152e-001 5.967323e-001 -5.084215e-001 -6.354493e-001 -5.320829e-001 9.681365e-003 3.478349e-001 -1.784391e+000 -8.077721e-001 3.648453e-001 3.122937e-001 3.037845e-001 8.965814e-002 2.246923e-001 6.448483e-001 -1.042196e-001 -1.748734e-001 -1.073620e-001 -4.840580e-002 4.798334e-002 -4.163669e-001
<VARIANCE> 39
 2.021035e+001 3.610551e+001 6.122235e+001 6.430356e+001 5.324950e+001 9.236767e+001 8.341558e+001 8.207134e+001 6.874081e+001 5.983444e+001 5.580656e+001 4.079240e+001 2.486500e+001 3.792595e+000 3.404747e+000 3.522611e+000 5.548809e+000 3.893921e+000 4.624034e+000 6.001586e+000 5.176619e+000 5.259254e+000 4.210869e+000 3.888979e+000 3.010262e+000 4.628411e+000 5.960348e-001 4.691980e-001 5.218222e-001 6.087467e-001 6.382561e-001 8.364387e-001 9.526603e-001 9.196335e-001 7.572795e-001 7.186680e-001 6.770934e-001 5.443758e-001 3.991093e-001
<GCONST> 1.363880e+002
<TRANSP> 5
 0.000000e+000 1.000000e+000 0.000000e+000 0.000000e+000 0.000000e+000
 0.000000e+000 1.044107e-001 8.955894e-001 0.000000e+000 0.000000e+000
 0.000000e+000 0.000000e+000 2.358534e-001 7.641466e-001 0.000000e+000
 0.000000e+000 0.000000e+000 0.000000e+000 1.842524e-001 8.157476e-001
 0.000000e+000 0.000000e+000 0.000000e+000 0.000000e+000 0.000000e+000
<ENDHMM>
~h "ay"
<BEGINHMM>
<NUMSTATES> 5
<STATE> 2
<MEAN> 39
 -1.508843e+000 -1.609671e+001 -1.403419e+001 -1.788199e+001 -5.291365e+000 1.091785e+000 -5.442159e+000 -2.187652e+000 3.074141e-001 -3.643213e-001 -4.359231e+000 -7.474850e+000 6.497643e+001 1.569034e-001 -1.719104e+000 -1.067799e-001 1.762630e-001 3.374542e-001 1.207011e-001 2.842424e-002 6.043524e-001 7.993912e-001 -4.811673e-001 -8.929896e-001 -5.328102e-001 1.062826e+000 -4.404581e-001 5.006319e-001 4.628432e-001 5.193089e-001 -1.020969e-001 -4.812228e-001 9.195534e-002 1.036302e-001 -2.570042e-001 -1.780226e-001 9.289651e-002 4.328366e-001 -4.856521e-001
<VARIANCE> 39
 1.108735e+001 3.065198e+001 3.471222e+001 5.078597e+001 5.350097e+001 8.093556e+001 6.551452e+001 6.423429e+001 6.142434e+001 6.143929e+001 6.870156e+001 4.364387e+001 1.927818e+001 1.553248e+000 1.844170e+000 2.623466e+000 3.757005e+000 3.136056e+000 4.767011e+000 3.344326e+000 4.026813e+000 3.132335e+000 2.834384e+000 2.905822e+000 3.127379e+000 1.234770e+000 4.057335e-001 2.825934e-001 3.186770e-001 5.391796e-001 6.286339e-001 6.037576e-001 6.253128e-001 6.877149e-001 6.013382e-001 5.651395e-001 6.614991e-001 5.365340e-001 2.050832e-001
<GCONST> 1.247068e+002
<STATE> 3
<MEAN> 39
 -2.681623e+000 -1.830569e+001 -1.216868e+001 -1.386423e+001 -5.914600e+000 -2.758783e+000 -4.412697e+000 6.438331e-001 8.315865e-001 -4.307456e+000 -6.580618e+000 -5.612721e+000 6.564732e+001 -2.282761e-001 7.619712e-002 8.161104e-001 4.173311e-001 -8.200924e-001 -9.784610e-001 2.310682e-001 7.846489e-001 -1.909181e-001 -3.206357e-001 7.437430e-003 3.795457e-001 -5.832897e-002 -5.223388e-003 2.445778e-001 1.327087e-001 -4.781951e-002 -1.900931e-001 -9.442327e-002 -1.642099e-002 -5.891430e-002 -1.600105e-001 1.177307e-001 1.852446e-001 6.021249e-002 -1.412564e-001
<VARIANCE> 39
 1.188186e+001 2.954457e+001 4.037201e+001 4.082891e+001 5.996923e+001 7.491254e+001 6.901537e+001 7.156113e+001 7.373045e+001 5.197694e+001 4.711336e+001 4.800460e+001 2.079608e+001 2.456936e-001 7.577145e-001 1.230219e+000 1.284765e+000 2.039625e+000 2.065310e+000 2.032146e+000 2.210521e+000 1.692654e+000 1.576164e+000 1.636648e+000 1.519600e+000 2.147823e-001 3.959006e-002 1.242824e-001 1.361537e-001 1.682439e-001 2.483662e-001 2.336783e-001 2.807197e-001 3.411372e-001 3.079371e-001 2.746432e-001 2.874477e-001 2.644219e-001 4.804942e-002
<GCONST> 1.005760e+002
<STATE> 4
<MEAN> 39
 -5.139418e+000 -1.251464e+001 -2.191861e+000 -1.191110e+001 -1.546624e+001 -1.145506e+001 -3.145498e+000 3.472165e+000 -4.129303e+000 -2.415767e+000 -3.509260e+000 -2.282721e+000 6.176581e+001 -7.622978e-001 2.292327e+000 1.354042e+000 1.282714e+000 -3.098621e-001 -5.507584e-001 -2.252262e-001 -1.191364e+000 -1.185883e+000 4.256609e-001 7.851444e-001 3.972805e-001 -2.353668e+000 -3.095814e-001 2.933690e-001 -4.547713e-001 2.727254e-001 8.573138e-001 6.194984e-001 -4.751003e-002 -4.572976e-001 1.686550e-001 9.109894e-003 -1.562427e-001 -1.623308e-001 -6.027203e-001
<VARIANCE> 39
 1.317696e+001 4.392881e+001 5.199980e+001 6.016031e+001 5.531913e+001 5.926339e+001 7.568953e+001 7.514993e+001 7.488982e+001 4.983636e+001 5.434805e+001 3.664272e+001 3.965384e+001 1.842434e+000 2.594886e+000 3.381235e+000 4.589438e+000 6.852147e+000 4.853162e+000 4.844106e+000 5.138410e+000 5.190007e+000 4.318219e+000 3.834827e+000 3.687923e+000 4.327802e+000 3.539402e-001 5.098365e-001 5.419908e-001 6.618450e-001 7.606364e-001 7.506667e-001 8.498603e-001 1.078526e+000 1.010349e+000 7.723562e-001 7.121366e-001 5.824549e-001 4.414867e-001
<GCONST> 1.352478e+002
<TRANSP> 5
 0.000000e+000 1.000000e+000 0.000000e+000 0.000000e+000 0.000000e+000
 0.000000e+000 6.576495e-001 3.423505e-001 0.000000e+000 0.000000e+000
 0.000000e+000 0.000000e+000 8.644841e-001 1.355159e-001 0.000000e+000
 0.000000e+000 0.000000e+000 0.000000e+000 7.479455e-001 2.520545e-001
 0.000000e+000 0.000000e+000 0.000000e+000 0.000000e+000 0.000000e+000
<ENDHMM>
~h "ch"
<BEGINHMM>
<NUMSTATES> 5
<STATE> 2
<MEAN> 39
 -2.981738e+001 -5.826567e+000 1.039560e+000 -1.246488e+001 -4.059332e+000 1.588389e+000 -3.773565e+000 2.072371e-001 9.230655e-002 -1.245285e+000 4.583230e-001 1.023360e-001 5.688150e+001 -2.077421e+000 8.480412e-001 1.244385e+000 -1.535200e-001 -7.299518e-001 -2.937230e-003 8.060182e-001 1.459707e-001 2.205842e-001 4.508290e-002 1.410879e-001 1.003763e-001 2.866687e+000 8.509142e-001 1.719005e-001 -1.873512e-002 7.533092e-001 -1.743260e-001 -4.714306e-001 1.010427e-001 -1.051881e-001 -2.976547e-001 -4.142227e-002 -2.355878e-001 -1.143029e-001 -9.089509e-001
<VARIANCE> 39
 2.274152e+001 3.288731e+001 3.397572e+001 2.624707e+001 3.533227e+001 2.151320e+001 2.178081e+001 2.221068e+001 1.875055e+001 1.505111e+001 1.266143e+001 1.043328e+001 2.334382e+001 2.962755e+000 3.086243e+000 2.626518e+000 2.903635e+000 2.495393e+000 2.467287e+000 2.139869e+000 2.147630e+000 1.753302e+000 1.809266e+000 1.434804e+000 1.344553e+000 3.769789e+000 6.931462e-001 7.410339e-001 6.494340e-001 6.192694e-001 5.097300e-001 4.759547e-001 4.860718e-001 4.632824e-001 3.900103e-001 3.814344e-001 3.217644e-001 2.899625e-001 7.023675e-001
<GCONST> 1.131904e+002
<STATE> 3
<MEAN> 39
 -3.045666e+001 -6.014261e+000 2.891064e+000 -1.065919e+001 -7.736501e+000 -6.988602e-001 -8.615004e-001 -3.787594e-001 -5.907315e-001 -8.186964e-001 -2.354129e-001 1.464367e-001 6.096772e+001 1.322500e+000 -4.483591e-001 -1.655501e-001 6.147228e-001 -8.300299e-001 -1.063325e+000 1.941432e-001 -3.692940e-002 -3.455774e-001 -8.841329e-002 -2.862866e-001 -1.205996e-001 2.392627e-002 1.018548e+000 -1.430148e-001 -2.553393e-001 1.255369e-001 8.359105e-002 -2.735788e-001 -3.903781e-001 -1.661657e-002 -1.410711e-001 -1.519927e-001 -1.193018e-001 -7.835422e-002 -6.819237e-001
<VARIANCE> 39
 1.367948e+001 2.434925e+001 2.266063e+001 2.344192e+001 3.877051e+001 2.241766e+001 2.305900e+001 2.163091e+001 1.932074e+001 1.721570e+001 1.576852e+001 1.377806e+001 1.399836e+001 2.566331e+000 1.257165e+000 1.911537e+000 1.864304e+000 2.326919e+000 2.251234e+000 1.874874e+000 2.049344e+000 1.644565e+000 1.645302e+000 1.561887e+000 1.279777e+000 1.960972e+000 5.437657e-001 3.001345e-001 4.508391e-001 3.361842e-001 4.747008e-001 4.712639e-001 4.761225e-001 4.144372e-001 3.834842e-001 3.761188e-001 3.448516e-001 2.948897e-001 3.559014e-001
<GCONST> 1.062981e+002
<STATE> 4
<MEAN> 39
 -1.836682e+001 -8.359941e+000 1.032275e+000 -7.060973e+000 -1.031381e+001 -6.969450e+000 -3.329907e+000 -2.586905e-001 -2.496434e+000 -2.779497e+000 -2.068155e+000 -9.578990e-001 5.805639e+001 4.982985e+000 -6.317315e-001 -6.645606e-001 1.952417e-001 -6.508179e-001 -1.805392e+000 -2.106623e+000 1.046500e-001 -7.989404e-001 -7.281173e-001 -5.204255e-001 -3.919116e-001 -6.832053e-001 5.344035e-002 -1.451030e-001 -2.110619e-001 -5.165530e-001 1.105793e-001 3.561154e-001 -3.930645e-001 9.110662e-002 7.627836e-002 1.524530e-001 1.639092e-001 -5.323116e-003 1.814125e-001
<VARIANCE> 39
 6.986354e+001 2.466175e+001 3.179990e+001 3.724445e+001 4.014651e+001 3.789603e+001 4.085564e+001 3.084953e+001 3.292862e+001 2.446202e+001 2.443760e+001 1.752639e+001 2.430065e+001 4.064033e+000 2.960473e+000 4.262382e+000 3.956918e+000 5.930099e+000 5.910600e+000 6.591911e+000 4.668019e+000 4.796704e+000 3.852712e+000 3.753924e+000 2.671578e+000 4.358509e+000 1.143856e+000 4.352382e-001 5.004649e-001 4.975379e-001 7.310458e-001 7.811671e-001 9.838850e-001 7.576097e-001 6.984194e-001 6.297807e-001 5.429432e-001 4.109688e-001 5.906858e-001
<GCONST> 1.298152e+002
<TRANSP> 5
 0.000000e+000 1.000000e+000 0.000000e+000 0.000000e+000 0.000000e+000
 0.000000e+000 5.673172e-001 4.326828e-001 0.000000e+000 0.000000e+000
 0.000000e+000 0.000000e+000 7.330841e-001 2.669159e-001 0.000000e+000
 0.000000e+000 0.000000e+000 0.000000e+000 6.158118e-001 3.841881e-001
 0.000000e+000 0.000000e+000 0.000000e+000 0.000000e+000 0.000000e+000
<ENDHMM>
~h "dh"
<BEGINHMM>
<NUMSTATES> 5
<STATE> 2
<MEAN> 39
 -1.541892e+001 -1.120758e+000 -6.069480e+000 -3.513451e+000 -3.838263e+000 -4.198567e+000 -3.908845e+000 -2.962518e+000 -2.132949e+000 -1.195785e+000 -2.755821e+000 -2.055171e+000 4.470869e+001 8.378338e-001 -3.396412e-001 -1.345523e-001 -5.818236e-001 -8.231291e-001 -8.967181e-001 -4.021919e-001 1.200634e-001 3.126930e-001 -2.053474e-001 -1.564666e-001 -3.032397e-002 2.471701e+000 6.501886e-001 -5.258160e-001 1.909772e-002 -5.230329e-001 -5.990852e-001 -4.653146e-001 -3.303097e-001 1.616567e-001 1.404210e-001 9.891629e-002 -1.781590e-002 -1.958135e-003 9.921047e-001
<VARIANCE> 39
 4.521198e+001 2.739737e+001 2.342337e+001 2.672931e+001 2.287891e+001 3.081827e+001 3.955594e+001 3.773089e+001 2.968740e+001 2.470270e+001 2.597396e+001 2.542259e+001 7.061848e+001 5.046677e+000 2.914469e+000 3.060769e+000 3.593496e+000 3.619235e+000 4.110627e+000 3.959189e+000 3.636493e+000 3.366347e+000 2.706491e+000 2.655342e+000 2.692468e+000 1.017550e+001 6.829191e-001 6.907472e-001 7.400337e-001 7.633566e-001 6.454081e-001 7.338595e-001 8.450465e-001 7.571969e-001 7.097932e-001 5.997244e-001 6.069570e-001 5.612415e-001 1.237259e+000
<GCONST> 1.291680e+002
<STATE> 3
<MEAN> 39
 -1.093135e+001 -3.047760e+000 -7.282648e+000 -6.874797e+000 -8.112133e+000 -8.712481e+000 -5.872203e+000 -2.653032e+000 -6.902750e-001 -1.536722e+000 -3.024398e+000 -1.791723e+000 5.548358e+001 2.845791e+000 -1.381757e+000 5.616140e-001 -1.755234e+000 -2.323416e+000 -2.137523e+000 -1.813962e+000 3.938818e-001 4.776047e-001 9.344286e-002 -4.524378e-001 -3.475856e-001 4.166427e+000 1.045206e-001 -3.649652e-001 4.081594e-001 -1.386792e-001 -7.311203e-002 2.242926e-001 -9.691463e-002 1.707120e-001 -1.755520e-001 1.835089e-001 -1.000122e-002 -6.036245e-002 -5.493209e-001
<VARIANCE> 39
 2.909042e+001 2.240100e+001 2.510654e+001 2.496442e+001 2.699016e+001 3.240373e+001 4.320079e+001 3.264790e+001 3.013968e+001 2.798273e+001 2.476120e+001 2.661982e+001 2.749318e+001 3.952463e+000 3.488670e+000 4.429336e+000 4.130552e+000 4.404961e+000 5.104789e+000 5.576255e+000 5.436426e+000 5.612344e+000 4.132358e+000 4.326997e+000 3.919865e+000 4.998375e+000 5.326745e-001 4.508978e-001 5.369903e-001 5.344830e-001 5.360618e-001 5.907921e-001 7.006309e-001 6.397519e-001 6.037214e-001 5.279433e-001 5.689406e-001 4.654856e-001 7.570792e-001
<GCONST> 1.274267e+002
<STATE> 4
<MEAN> 39
 -5.537083e+000 -6.831047e+000 -5.216579e+000 -1.043805e+001 -1.237481e+001 -1.240384e+001 -9.766222e+000 -1.704596e+000 -1.115233e-001 -5.087785e-001 -4.231496e+000 -2.976660e+000 6.082591e+001 1.951638e+000 -2.068184e+000 8.752980e-001 -1.807668e+000 -1.838143e+000 -1.086977e+000 -1.145018e+000 8.621446e-001 9.071240e-002 2.999339e-001 -3.200027e-001 -2.341816e-001 2.560929e+000 -7.019494e-001 1.545307e-001 5.057542e-002 3.808990e-001 5.863314e-001 7.697554e-001 5.653352e-001 2.160569e-002 -3.388486e-001 -7.508309e-002 1.196694e-001 9.286263e-002 -1.163196e+000
<VARIANCE> 39
 1.343734e+001 2.862531e+001 3.954986e+001 4.289775e+001 4.499675e+001 4.803568e+001 5.964515e+001 4.927480e+001 5.501536e+001 4.550426e+001 3.977285e+001 3.884148e+001 2.361163e+001 2.903792e+000 2.777296e+000 3.981576e+000 3.755787e+000 4.069014e+000 4.887201e+000 6.147691e+000 5.006989e+000 5.024269e+000 3.812151e+000 4.443206e+000 3.311636e+000 2.814927e+000 5.112619e-001 3.785951e-001 4.571674e-001 5.681106e-001 6.049203e-001 5.996494e-001 6.666822e-001 6.640959e-001 6.873442e-001 5.886710e-001 5.319957e-001 5.565374e-001 5.982758e-001
<GCONST> 1.294909e+002
<TRANSP> 5
 0.000000e+000 1.000000e+000 0.000000e+000 0.000000e+000 0.000000e+000
 0.000000e+000 6.019884e-001 3.980115e-001 0.000000e+000 0.000000e+000
 0.000000e+000 0.000000e+000 2.445230e-001 7.554770e-001 0.000000e+000
 0.000000e+000 0.000000e+000 0.000000e+000 2.243202e-001 7.756798e-001
 0.000000e+000 0.000000e+000 0.000000e+000 0.000000e+000 0.000000e+000
<ENDHMM>
~h "ea"
<BEGINHMM>
<NUMSTATES> 5
<STATE> 2
<MEAN> 39
