~o
<STREAMINFO> 1 39
<VECSIZE> 39<NULLD><MFCC_D_A_0><DIAGC>
~h "aa"
<BEGINHMM>
<NUMSTATES> 5
<STATE> 2
<MEAN> 39
 -1.041475e+000 -1.507920e+001 -1.252860e+001 -1.712031e+001 -8.927585e+000 -1.619754e+000 -7.095550e+000 8.011327e-001 -1.497631e+000 -8.465126e-001 -2.486051e+000 -5.426677e+000 6.490411e+001 1.001434e+000 -1.574460e+000 -1.571533e+000 -8.444604e-001 8.081216e-001 1.246375e+000 2.458985e-001 1.721670e-001 2.178751e-001 -1.674750e-002 6.825069e-002 -6.369534e-001 9.731359e-001 -5.448629e-001 3.750840e-001 2.199780e-001 4.886668e-001 3.705394e-001 1.734126e-002 2.390636e-001 -2.483989e-001 -1.373233e-001 -9.827364e-002 3.012878e-002 2.134998e-001 -5.628595e-001
<VARIANCE> 39
 1.453080e+001 3.789965e+001 5.002257e+001 6.784011e+001 6.418552e+001 9.990949e+001 8.336813e+001 7.904152e+001 7.226166e+001 5.601789e+001 7.324741e+001 4.308138e+001 2.125036e+001 2.533742e+000 2.160711e+000 2.842512e+000 3.436956e+000 4.210971e+000 4.332533e+000 4.983541e+000 4.890195e+000 4.074394e+000 3.397488e+000 3.690791e+000 3.274495e+000 1.179503e+000 3.886473e-001 3.218546e-001 3.917517e-001 5.344521e-001 6.943257e-001 9.097152e-001 9.388050e-001 8.467121e-001 7.151617e-001 6.299328e-001 6.732028e-001 5.598080e-001 3.270229e-001
<GCONST> 1.312357e+002
<STATE> 3
<MEAN> 39
 -2.553337e-001 -1.689240e+001 -1.680600e+001 -1.760266e+001 -4.046459e+000 2.140978e+000 -5.130364e+000 -1.718046e+000 -1.281197e+000 -2.222725e+000 -2.311117e+000 -5.984247e+000 6.502925e+001 3.520739e-002 -1.090101e-001 -2.219241e-001 4.151401e-001 3.067032e-001 -4.434154e-001 -2.509648e-001 2.322639e-001 1.982544e-001 -1.485805e-001 -1.535899e-001 -1.373023e-002 -3.389849e-002 -3.077499e-002 2.041234e-001 1.911714e-001 1.199295e-001 -1.988874e-001 -3.163650e-001 -1.418466e-001 1.323594e-001 -8.931099e-005 2.899675e-002 -5.762244e-002 6.138542e-002 -1.605532e-001
<VARIANCE> 39
 1.286631e+001 3.290159e+001 3.531939e+001 5.934239e+001 5.694120e+001 8.752194e+001 8.049242e+001 8.598627e+001 7.422364e+001 5.459133e+001 6.492049e+001 4.486855e+001 1.994317e+001 2.556558e-001 8.062960e-001 9.189125e-001 1.465381e+000 1.589945e+000 2.143072e+000 2.129325e+000 2.054425e+000 1.629963e+000 1.535081e+000 1.487339e+000 1.419589e+000 2.746921e-001 5.000000e-002 1.157821e-001 1.439143e-001 1.967993e-001 2.240790e-001 2.531188e-001 3.214600e-001 3.051831e-001 2.830661e-001 2.705879e-001 2.502255e-001 2.450108e-001 5.513681e-002
<GCONST> 1.016323e+002
<STATE> 4
<MEAN> 39
 -2.825132e+000 -1.296989e+001 -1.249687e+001 -1.262359e+001 -5.774502e+000 -3.771303e+000 -6.115629e+000 1.295370e-001 -9.102054e-001 -2.038751e+000 -4.428593e+000 -5.206987e+000 6.082700e+001 -1.470668e+000 1.985325e+000 1.699821e+000 1.757300e+000 -2.923613e-001 -1.233634e+000 -3.305736e-001 7.178183e-002 -3.534499e-001 7.194925e-002 7.985353e-002 7.453112e-001 -2.302910e+000 -4.797205e-001 1.531732e-001 2.098835e-001 1.305141e-001 1.574716e-001 2.203436e-001 9.662201e-002 -2.573628e-001 -1.175686e-001 1.935058e-002 1.422822e-001 9.891561e-002 -2.933365e-001
<VARIANCE> 39
 3.614191e+001 5.327641e+001 5.987003e+001 6.513620e+001 5.357128e+001 8.229524e+001 7.720953e+001 7.763412e+001 7.092184e+001 5.562794e+001 6.000398e+001 4.484751e+001 5.047128e+001 5.549631e+000 3.705311e+000 3.401311e+000 4.501645e+000 4.569973e+000 5.281689e+000 5.374381e+000 5.863771e+000 5.033843e+000 4.498627e+000 4.274479e+000 3.584836e+000 5.093294e+000 5.773966e-001 7.662051e-001 6.177119e-001 8.218058e-001 6.587235e-001 8.214667e-001 8.245152e-001 9.169459e-001 7.818248e-001 7.404593e-001 6.615337e-001 5.896132e-001 8.540343e-001
<GCONST> 1.405284e+002
<TRANSP> 5
 0.000000e+000 1.000000e+000 0.000000e+000 0.000000e+000 0.000000e+000
 0.000000e+000 6.430737e-001 3.569264e-001 0.000000e+000 0.000000e+000
 0.000000e+000 0.000000e+000 8.595499e-001 1.404501e-001 0.000000e+000
 0.000000e+000 0.000000e+000 0.000000e+000 6.993563e-001 3.006437e-001
 0.000000e+000 0.000000e+000 0.000000e+000 0.000000e+000 0.000000e+000
<ENDHMM>
