~o
<STREAMINFO> 1 39
<VECSIZE> 39<NULLD><MFCC_D_A_0><DIAGC>
~h "ae"
<BEGINHMM>
<NUMSTATES> 5
<STATE> 2
<MEAN> 39
 -4.130585e+000 -1.575583e+001 -5.893029e+000 -1.321006e+001 -1.425215e+001 -8.309657e+000 -4.558112e+000 4.647815e+000 -1.542917e+000 -2.776926e+000 -5.137183e+000 -4.450565e+000 6.564729e+001 1.413090e-001 -1.476971e+000 5.673520e-002 -8.139770e-001 -4.820045e-001 3.288668e-001 8.121370e-001 1.053616e+000 1.809251e-001 -5.224981e-001 -4.178654e-001 -2.779239e-001 1.249993e+000 -3.600723e-001 4.281346e-001 -3.491165e-002 2.609257e-001 4.346855e-001 2.513705e-001 1.829040e-001 -3.681177e-001 -1.321591e-001 2.210842e-003 7.984651e-002 1.568818e-001 -5.384751e-001
<VARIANCE> 39
 1.715761e+001 3.409716e+001 5.424137e+001 5.348106e+001 5.522354e+001 6.313461e+001 8.518749e+001 7.138454e+001 8.585668e+001 5.100154e+001 4.948262e+001 4.002687e+001 2.035453e+001 1.784302e+000 2.150825e+000 2.533158e+000 2.585029e+000 3.364132e+000 3.226040e+000 4.201241e+000 3.994842e+000 3.385686e+000 2.911770e+000 2.688093e+000 2.550290e+000 1.249695e+000 3.519259e-001 3.209772e-001 3.453594e-001 4.397434e-001 5.337629e-001 5.700356e-001 6.774467e-001 6.544961e-001 6.166590e-001 5.323517e-001 4.893106e-001 4.130153e-001 2.658797e-001
<GCONST> 1.246391e+002
<STATE> 3
<MEAN> 39
 -4.874161e+000 -1.728292e+001 -6.758630e+000 -1.333599e+001 -1.281694e+001 -6.494148e+000 -8.115761e-001 4.747982e+000 -2.064173e+000 -5.122384e+000 -6.391428e+000 -4.083144e+000 6.613428e+001 3.591913e-003 4.658327e-002 -1.687177e-001 4.891604e-002 2.218831e-001 4.292815e-003 1.103455e-002 -6.763764e-002 -1.865703e-003 -6.780934e-002 -7.725158e-002 2.026565e-002 -9.507902e-002 2.583011e-002 2.083445e-001 1.988724e-002 7.933681e-002 -1.317858e-003 -1.286713e-001 -1.736666e-001 -8.613977e-002 -2.250420e-002 1.171362e-001 6.392363e-002 4.321147e-003 -1.874964e-001
<VARIANCE> 39
 1.282880e+001 3.020923e+001 4.718895e+001 4.324812e+001 5.514473e+001 5.572515e+001 6.261856e+001 6.263887e+001 8.546791e+001 4.410337e+001 4.209468e+001 4.160192e+001 2.299878e+001 2.600505e-001 6.781190e-001 9.748191e-001 8.660651e-001 1.271597e+000 1.327955e+000 1.517880e+000 1.373474e+000 1.305968e+000 1.274515e+000 1.230384e+000 1.013747e+000 2.518432e-001 5.000000e-002 1.260834e-001 1.386821e-001 1.538214e-001 1.966094e-001 1.989366e-001 2.334164e-001 2.455355e-001 2.324454e-001 2.097123e-001 2.076703e-001 1.831677e-001 6.188104e-002
<GCONST> 9.501924e+001
<STATE> 4
<MEAN> 39
 -5.978913e+000 -1.098865e+001 -5.759921e+000 -1.048734e+001 -1.104678e+001 -9.127604e+000 -3.701692e+000 2.696342e+000 -3.146877e+000 -3.155788e+000 -5.125989e+000 -3.779347e+000 6.026315e+001 -1.287457e+000 2.647047e+000 5.565015e-001 1.464440e+000 9.702643e-001 -6.654064e-003 -4.107969e-001 -1.252760e+000 -6.030709e-001 4.530717e-001 4.977074e-001 2.606109e-001 -2.902018e+000 -4.666786e-001 1.421367e-001 8.359002e-003 1.674759e-001 2.662173e-001 3.242499e-001 1.387259e-001 -1.730191e-001 -6.286201e-003 -3.083731e-002 4.760175e-002 5.705169e-002 -3.128561e-001
<VARIANCE> 39
 2.952384e+001 5.762696e+001 6.157879e+001 5.547868e+001 6.556806e+001 6.361057e+001 6.625857e+001 6.881148e+001 7.902902e+001 5.510241e+001 5.903416e+001 4.256495e+001 6.403809e+001 5.308592e+000 3.501758e+000 3.330353e+000 4.036871e+000 4.991324e+000 5.124837e+000 5.160705e+000 5.451723e+000 5.484112e+000 4.631911e+000 4.451261e+000 3.535568e+000 4.674735e+000 5.576222e-001 9.338860e-001 5.733216e-001 7.740288e-001 7.456722e-001 7.664057e-001 7.968861e-001 9.015253e-001 9.096783e-001 8.008748e-001 7.567067e-001 5.772669e-001 9.858221e-001
<GCONST> 1.404998e+002
<TRANSP> 5
 0.000000e+000 1.000000e+000 0.000000e+000 0.000000e+000 0.000000e+000
 0.000000e+000 6.390446e-001 3.609554e-001 0.000000e+000 0.000000e+000
 0.000000e+000 0.000000e+000 8.804612e-001 1.195389e-001 0.000000e+000
 0.000000e+000 0.000000e+000 0.000000e+000 7.866758e-001 2.133242e-001
 0.000000e+000 0.000000e+000 0.000000e+000 0.000000e+000 0.000000e+000
<ENDHMM>
