~o
<STREAMINFO> 1 39
<VECSIZE> 39<NULLD><MFCC_D_A_0><DIAGC>
~h "ah"
<BEGINHMM>
<NUMSTATES> 5
<STATE> 2
<MEAN> 39
 -3.167613e+000 -1.215968e+001 -8.679599e+000 -1.602015e+001 -9.919703e+000 -4.058726e+000 -1.012617e+001 -3.632912e-001 -8.830687e-001 -5.216063e-002 -3.221753e+000 -4.773845e+000 6.350910e+001 1.098954e+000 -1.646186e+000 -5.830662e-001 -8.872845e-001 -4.433733e-002 5.851516e-001 -7.153209e-001 5.534857e-001 9.803206e-001 2.195895e-001 -3.974819e-001 -8.415470e-001 1.148087e+000 -6.836070e-001 4.810941e-001 1.326514e-001 5.159233e-001 3.799873e-001 4.559344e-003 4.164251e-001 -1.544391e-001 -1.689979e-001 -1.071063e-001 -1.634383e-004 1.574663e-001 -6.650202e-001
<VARIANCE> 39
 2.677924e+001 3.861971e+001 5.590710e+001 6.296373e+001 5.901582e+001 9.672688e+001 7.316136e+001 6.762169e+001 6.479264e+001 6.516078e+001 8.241378e+001 4.884586e+001 2.921731e+001 3.730945e+000 2.928149e+000 2.942014e+000 4.704224e+000 4.798709e+000 5.140483e+000 5.208101e+000 5.216967e+000 4.879418e+000 4.346285e+000 4.324238e+000 3.707287e+000 2.308672e+000 6.064683e-001 4.545136e-001 4.942806e-001 6.723567e-001 7.508477e-001 1.067994e+000 9.252630e-001 9.409084e-001 8.131199e-001 7.915493e-001 8.760659e-001 7.163283e-001 4.190426e-001
<GCONST> 1.376302e+002
<STATE> 3
<MEAN> 39
 -2.614581e+000 -1.413289e+001 -1.056993e+001 -1.684122e+001 -7.399231e+000 -2.750608e+000 -9.642420e+000 3.747952e-001 7.939281e-001 -9.241472e-001 -5.014313e+000 -5.927653e+000 6.430247e+001 -1.033353e-002 4.341387e-001 1.645809e-001 2.981345e-001 1.064625e-001 -2.803649e-001 -3.527270e-002 -2.245038e-001 -1.575954e-001 1.261425e-002 -5.739383e-002 6.423355e-002 -5.299807e-001 -1.830195e-001 4.970453e-001 2.382057e-001 3.547115e-001 -4.275430e-002 -1.963234e-001 9.529877e-002 -2.507174e-001 -3.292701e-001 1.225645e-002 9.874267e-002 1.828342e-001 -5.029400e-001
<VARIANCE> 39
 1.482771e+001 3.186760e+001 3.985937e+001 5.671915e+001 5.293076e+001 8.710435e+001 7.086297e+001 6.174447e+001 6.551420e+001 6.956280e+001 7.176783e+001 5.052575e+001 2.736695e+001 6.449724e-001 1.416333e+000 1.643057e+000 2.053529e+000 2.157051e+000 2.956608e+000 2.572048e+000 2.793769e+000 2.555709e+000 2.328053e+000 2.353161e+000 2.193269e+000 1.209775e+000 2.173906e-001 2.851813e-001 2.553850e-001 3.811851e-001 4.087164e-001 4.849884e-001 5.491812e-001 5.847075e-001 5.242653e-001 4.674014e-001 4.385557e-001 4.242589e-001 2.330890e-001
<GCONST> 1.184650e+002
<STATE> 4
<MEAN> 39
 -5.635274e+000 -6.871580e+000 -6.523976e+000 -1.087151e+001 -7.069101e+000 -6.569923e+000 -8.661954e+000 -2.611098e+000 -2.655848e+000 -4.661271e-001 -4.139161e+000 -3.894451e+000 5.672824e+001 -1.937720e+000 2.494394e+000 1.090802e+000 2.225652e+000 6.856691e-001 -2.136988e-003 1.014740e+000 -1.197517e+000 -1.353013e+000 -3.399944e-001 1.793320e-001 6.131636e-001 -3.015421e+000 -5.190946e-001 -1.478969e-001 -7.420975e-002 -2.714822e-002 1.211868e-001 3.116701e-001 2.305049e-001 1.292657e-001 7.696082e-002 -5.743809e-002 2.474533e-003 6.158259e-003 1.237201e-002
<VARIANCE> 39
 4.634698e+001 4.947494e+001 4.613603e+001 6.657005e+001 5.216113e+001 6.897148e+001 6.390076e+001 6.341551e+001 6.369454e+001 6.003551e+001 6.240882e+001 4.168772e+001 6.250769e+001 5.700719e+000 3.709461e+000 3.716632e+000 4.893003e+000 5.149833e+000 6.335820e+000 5.679461e+000 6.725074e+000 6.011001e+000 5.580096e+000 5.078038e+000 4.073256e+000 5.417138e+000 6.283496e-001 8.253915e-001 4.974275e-001 9.320675e-001 6.768204e-001 8.095950e-001 8.469532e-001 1.024256e+000 8.517634e-001 8.227794e-001 7.797147e-001 6.048030e-001 1.017786e+000
<GCONST> 1.422412e+002
<TRANSP> 5
 0.000000e+000 1.000000e+000 0.000000e+000 0.000000e+000 0.000000e+000
 0.000000e+000 4.750552e-001 5.249448e-001 0.000000e+000 0.000000e+000
 0.000000e+000 0.000000e+000 7.799937e-001 2.200064e-001 0.000000e+000
 0.000000e+000 0.000000e+000 0.000000e+000 6.308339e-001 3.691661e-001
 0.000000e+000 0.000000e+000 0.000000e+000 0.000000e+000 0.000000e+000
<ENDHMM>
