~o
<STREAMINFO> 1 39
<VECSIZE> 39<NULLD><MFCC_D_A_0><DIAGC>
~h "ao"
<BEGINHMM>
<NUMSTATES> 5
<STATE> 2
<MEAN> 39
 8.375875e-001 -9.019464e+000 -1.332863e+001 -2.160247e+001 -1.205902e+001 1.137449e+000 -4.751944e+000 -1.524095e+000 -4.537780e+000 -1.350422e+000 1.264565e-001 -3.009925e+000 6.081728e+001 7.546352e-001 -7.156401e-001 -8.158752e-001 -1.354348e+000 1.283250e-001 1.251470e+000 4.188793e-001 -7.262029e-002 -2.150422e-001 -5.676297e-002 4.242791e-001 2.957660e-002 7.697212e-001 -4.826687e-001 1.194161e-001 1.024000e-001 5.263125e-001 3.976042e-001 -1.573179e-001 1.313698e-002 -5.197793e-002 5.982930e-002 -3.612446e-002 -4.392250e-002 1.134850e-001 -3.223633e-001
<VARIANCE> 39
 1.356096e+001 4.840180e+001 4.514699e+001 7.149744e+001 8.181078e+001 8.281689e+001 8.887479e+001 6.977626e+001 7.173328e+001 7.030853e+001 7.035329e+001 4.528955e+001 2.497575e+001 2.383421e+000 2.386641e+000 2.592676e+000 4.225007e+000 4.824046e+000 4.154611e+000 4.933332e+000 4.055161e+000 3.949631e+000 3.748852e+000 3.551726e+000 3.121541e+000 1.207171e+000 4.526930e-001 3.717007e-001 3.600348e-001 6.000524e-001 6.545458e-001 7.108340e-001 8.821796e-001 7.016283e-001 7.827498e-001 6.529055e-001 6.631769e-001 5.159433e-001 2.457151e-001
<GCONST> 1.313159e+002
<STATE> 3
<MEAN> 39
 8.703622e-001 -1.049345e+001 -1.533434e+001 -2.484751e+001 -8.924253e+000 5.891245e+000 -2.056341e+000 -3.478668e+000 -3.689766e+000 -2.407295e+000 2.379112e-001 -2.801230e+000 6.200893e+001 -2.933695e-002 -2.359734e-001 -1.416196e-001 3.562455e-001 4.446782e-001 -2.398827e-001 -3.479361e-001 -3.369142e-002 1.726256e-001 1.454160e-001 4.938224e-002 -1.116807e-001 1.284126e-001 -2.955706e-002 4.568686e-002 8.191802e-002 2.649817e-001 -2.439477e-002 -2.925766e-001 -1.992281e-001 5.984835e-002 6.126079e-002 7.850669e-002 -6.074731e-002 -6.139424e-002 -9.015553e-002
<VARIANCE> 39
 1.031496e+001 4.171700e+001 3.703513e+001 6.739420e+001 8.522116e+001 7.221008e+001 8.119342e+001 6.266082e+001 6.388813e+001 6.195827e+001 6.136748e+001 4.630495e+001 2.189388e+001 2.024040e-001 9.859319e-001 8.683445e-001 1.804107e+000 1.650481e+000 1.741562e+000 1.980999e+000 1.555389e+000 1.613060e+000 1.727122e+000 1.605871e+000 1.559650e+000 3.080720e-001 5.000000e-002 1.108789e-001 1.255402e-001 1.927169e-001 2.404499e-001 2.522089e-001 2.735864e-001 2.678240e-001 2.773918e-001 2.713789e-001 2.716967e-001 2.526141e-001 5.000000e-002
<GCONST> 1.013349e+002
<STATE> 4
<MEAN> 39
 -1.302870e+000 -1.132036e+001 -1.352972e+001 -1.508469e+001 -6.877417e+000 -2.130436e+000 -6.665768e+000 -1.448585e+000 -2.180454e+000 -1.688807e-002 -1.053463e+000 -4.452673e+000 6.071423e+001 -1.182727e+000 6.529707e-001 1.114147e+000 2.367442e+000 1.461192e-001 -1.811208e+000 -8.226072e-001 3.221453e-001 4.659120e-001 9.257859e-003 -5.799469e-001 3.375579e-001 -1.075502e+000 -2.917781e-001 1.598232e-001 2.431517e-001 5.854828e-003 -1.033596e-001 2.961203e-002 1.210945e-001 -4.621119e-002 -9.433331e-002 -1.410345e-001 -4.147555e-002 1.819483e-001 -1.831226e-001
<VARIANCE> 39
 3.631749e+001 4.403305e+001 5.690753e+001 8.482010e+001 5.840230e+001 8.139798e+001 8.271297e+001 6.905713e+001 7.122960e+001 6.348142e+001 7.776887e+001 4.906275e+001 3.094652e+001 4.967861e+000 3.378774e+000 3.670243e+000 4.049688e+000 5.205654e+000 4.978343e+000 6.515432e+000 5.197477e+000 5.219602e+000 4.731945e+000 4.465461e+000 4.088191e+000 2.551011e+000 5.129152e-001 4.651822e-001 5.531630e-001 7.769700e-001 7.112764e-001 8.280083e-001 8.984993e-001 8.454779e-001 8.082833e-001 8.019172e-001 8.010401e-001 6.807938e-001 3.984728e-001
<GCONST> 1.390517e+002
<TRANSP> 5
 0.000000e+000 1.000000e+000 0.000000e+000 0.000000e+000 0.000000e+000
 0.000000e+000 6.294916e-001 3.705084e-001 0.000000e+000 0.000000e+000
 0.000000e+000 0.000000e+000 8.613256e-001 1.386744e-001 0.000000e+000
 0.000000e+000 0.000000e+000 0.000000e+000 7.122495e-001 2.877505e-001
 0.000000e+000 0.000000e+000 0.000000e+000 0.000000e+000 0.000000e+000
<ENDHMM>
