~o
<STREAMINFO> 1 39
<VECSIZE> 39<NULLD><MFCC_D_A_0><DIAGC>
~h "aw"
<BEGINHMM>
<NUMSTATES> 5
<STATE> 2
<MEAN> 39
 -3.800178e+000 -1.720178e+001 -9.249420e+000 -1.405971e+001 -9.492043e+000 -5.006041e+000 -4.500882e+000 2.510118e+000 -1.872702e+000 -3.267287e+000 -6.547559e+000 -4.561651e+000 6.640678e+001 4.437166e-001 -1.581837e+000 -7.744299e-001 -4.582170e-001 4.748217e-001 7.925122e-001 8.550431e-002 3.276211e-001 5.525690e-001 -3.898785e-001 -5.668617e-001 -4.287189e-001 1.116111e+000 -3.468530e-001 4.645625e-001 3.220373e-002 2.631721e-001 3.474759e-001 2.330963e-001 8.120283e-002 -3.944112e-001 -1.339315e-001 4.640048e-002 1.634630e-001 1.056424e-001 -6.018656e-001
<VARIANCE> 39
 1.394846e+001 3.297716e+001 5.590841e+001 5.136286e+001 6.404401e+001 7.279971e+001 8.073553e+001 7.397195e+001 7.070532e+001 5.399481e+001 4.686623e+001 4.162527e+001 1.760158e+001 1.785818e+000 2.350947e+000 2.358401e+000 2.880431e+000 3.676392e+000 3.239363e+000 4.070860e+000 4.200512e+000 3.252162e+000 2.778990e+000 2.747715e+000 2.674042e+000 1.430767e+000 3.811119e-001 3.461676e-001 3.431679e-001 4.779943e-001 6.045285e-001 5.899491e-001 6.932736e-001 7.089579e-001 6.354865e-001 5.233005e-001 4.926087e-001 4.493007e-001 2.578825e-001
<GCONST> 1.252867e+002
<STATE> 3
<MEAN> 39
 -2.217297e+000 -1.755562e+001 -1.348356e+001 -1.536281e+001 -4.821657e+000 1.424871e-002 -4.808086e+000 -1.707042e+000 -4.586831e-002 -3.940569e+000 -5.569073e+000 -5.452174e+000 6.548245e+001 2.599284e-001 3.995498e-001 -3.967258e-001 -4.704008e-001 2.279665e-001 5.557005e-001 -2.293061e-001 -4.615542e-001 -2.579737e-002 2.481805e-001 3.726506e-001 -2.159916e-002 -3.502340e-001 9.094573e-003 1.788823e-001 8.184262e-002 1.529573e-003 -1.675898e-001 -1.243120e-001 -2.325770e-002 2.500031e-002 -6.949316e-002 7.688555e-002 6.142205e-002 5.690646e-002 -1.352237e-001
<VARIANCE> 39
 1.367420e+001 3.144933e+001 4.024191e+001 5.462244e+001 5.722745e+001 7.934980e+001 8.174641e+001 6.640882e+001 6.654900e+001 5.542493e+001 5.431331e+001 4.458653e+001 2.276955e+001 2.406126e-001 7.485297e-001 7.725911e-001 1.313388e+000 1.622552e+000 1.548274e+000 1.725734e+000 1.714394e+000 1.664905e+000 1.499343e+000 1.541988e+000 1.426241e+000 2.430369e-001 5.000000e-002 1.046174e-001 1.231582e-001 1.870178e-001 2.181592e-001 2.422512e-001 2.819375e-001 2.639706e-001 2.635437e-001 2.216399e-001 2.481283e-001 2.325617e-001 5.000000e-002
<GCONST> 9.893131e+001
<STATE> 4
<MEAN> 39
 -1.592232e+000 -1.026233e+001 -1.317404e+001 -1.735522e+001 -7.139186e+000 1.044668e-001 -6.161867e+000 -4.030234e+000 -2.221951e+000 -1.166505e-001 -2.782311e+000 -4.476191e+000 5.962777e+001 -8.546118e-001 1.715672e+000 1.192226e+000 1.503808e+000 -5.794249e-001 -1.164372e+000 -7.660465e-002 -3.293164e-001 -6.271195e-001 2.779252e-001 7.421491e-002 4.126543e-001 -1.978696e+000 -3.751045e-001 5.864720e-003 2.409734e-001 4.260944e-001 1.689863e-001 -1.590497e-001 6.745102e-002 3.496030e-002 -3.169451e-002 -1.155740e-001 -1.395794e-001 3.522493e-002 -1.815423e-001
<VARIANCE> 39
 2.625547e+001 4.865269e+001 4.571895e+001 8.699230e+001 6.170470e+001 8.164564e+001 7.857640e+001 6.041481e+001 6.539154e+001 6.281163e+001 6.802512e+001 4.358572e+001 4.393509e+001 3.981801e+000 3.258101e+000 3.148655e+000 5.815506e+000 4.842095e+000 4.330122e+000 5.148300e+000 5.329457e+000 4.686056e+000 4.415792e+000 4.359308e+000 3.354407e+000 3.301669e+000 3.976085e-001 5.376419e-001 4.825059e-001 8.693338e-001 7.162374e-001 7.491511e-001 7.879904e-001 8.033343e-001 7.618975e-001 7.549825e-001 6.825026e-001 5.483241e-001 5.092745e-001
<GCONST> 1.372360e+002
<TRANSP> 5
 0.000000e+000 1.000000e+000 0.000000e+000 0.000000e+000 0.000000e+000
 0.000000e+000 6.874654e-001 3.125346e-001 0.000000e+000 0.000000e+000
 0.000000e+000 0.000000e+000 8.924364e-001 1.075636e-001 0.000000e+000
 0.000000e+000 0.000000e+000 0.000000e+000 7.825878e-001 2.174121e-001
 0.000000e+000 0.000000e+000 0.000000e+000 0.000000e+000 0.000000e+000
<ENDHMM>
