~o
<STREAMINFO> 1 39
<VECSIZE> 39<NULLD><MFCC_D_A_0><DIAGC>
~h "ax"
<BEGINHMM>
<NUMSTATES> 5
<STATE> 2
<MEAN> 39
 -1.350441e+000 -1.039334e+001 -8.639210e+000 -1.166765e+001 -9.268587e+000 -9.164451e+000 -1.297061e+001 -1.208009e+000 -1.589882e+000 -3.711932e-001 -2.439158e+000 -2.768646e+000 5.994971e+001 1.812065e+000 -1.077203e+000 -7.826949e-001 -5.338501e-001 -4.957597e-002 -3.895604e-001 -1.596035e+000 6.719604e-001 4.638112e-001 1.027200e-001 -8.954867e-003 -7.359199e-002 5.548562e-001 -7.725483e-001 4.518142e-001 1.543778e-001 3.380851e-001 2.971901e-001 2.931454e-001 5.731317e-001 -8.383328e-002 -2.047940e-001 -1.486582e-001 3.578246e-002 1.164863e-001 -6.074893e-001
<VARIANCE> 39
 2.106270e+001 3.417190e+001 7.014193e+001 7.406122e+001 5.980799e+001 9.171359e+001 7.853740e+001 7.360629e+001 6.872216e+001 6.110085e+001 6.075042e+001 4.042132e+001 1.994462e+001 4.417396e+000 2.647624e+000 3.745762e+000 4.694058e+000 4.676547e+000 5.656271e+000 6.080986e+000 5.904698e+000 4.961318e+000 4.222081e+000 3.805204e+000 3.183279e+000 1.547970e+000 7.598533e-001 4.720534e-001 5.558649e-001 7.700659e-001 7.005540e-001 9.041029e-001 1.075913e+000 8.917474e-001 8.793980e-001 7.956749e-001 7.632006e-001 5.774336e-001 4.886156e-001
<GCONST> 1.371164e+002
<STATE> 3
<MEAN> 39
 5.724559e-001 -1.130848e+001 -1.171028e+001 -1.046342e+001 -7.410962e+000 -9.764637e+000 -1.407352e+001 1.296629e+000 -1.333370e-001 -1.330488e+000 -2.486911e+000 -2.073993e+000 5.883882e+001 9.557617e-002 4.306043e-001 -3.042108e-001 2.731614e-001 5.417261e-001 -5.467550e-002 -1.878867e-001 -4.725553e-002 6.203007e-002 -1.305900e-001 -1.319809e-001 9.704986e-002 -5.910590e-001 -5.330621e-001 4.792664e-001 3.278525e-001 3.064803e-001 4.659532e-002 1.308193e-001 5.482682e-001 -3.103100e-001 -2.926279e-001 -8.162067e-002 -9.401576e-003 3.368682e-002 -4.641555e-001
<VARIANCE> 39
 1.616043e+001 3.267254e+001 6.925243e+001 8.083832e+001 6.325649e+001 1.110483e+002 9.876878e+001 8.971116e+001 7.691036e+001 5.868828e+001 5.434949e+001 4.373206e+001 2.045200e+001 9.807374e-001 1.408502e+000 2.662744e+000 2.509781e+000 2.842428e+000 2.882117e+000 3.356141e+000 3.255888e+000 3.300303e+000 2.728013e+000 2.577498e+000 2.125783e+000 1.009073e+000 4.955685e-001 4.039371e-001 3.707336e-001 5.572976e-001 5.676565e-001 6.872629e-001 8.710426e-001 7.597353e-001 6.572992e-001 5.918897e-001 5.367680e-001 4.507579e-001 3.637750e-001
<GCONST> 1.264403e+002
<STATE> 4
<MEAN> 39
 -3.166485e+000 -6.036000e+000 -8.466199e+000 -1.015898e+001 -6.292378e+000 -7.654511e+000 -1.122596e+001 -2.838987e+000 -2.617556e+000 -8.189731e-001 -2.857436e+000 -2.566555e+000 5.553873e+001 -1.724660e+000 1.740601e+000 6.021849e-001 1.524808e+000 7.477428e-001 3.088868e-001 1.381468e+000 -4.763818e-001 -8.584219e-001 -6.312682e-001 -7.311614e-002 3.131906e-001 -2.092106e+000 -5.107961e-001 1.395514e-002 8.882425e-002 7.557241e-002 1.376524e-002 1.918470e-001 3.173030e-001 8.114006e-002 -1.595797e-003 -7.694089e-003 -1.112426e-002 -3.288938e-003 -1.353740e-001
<VARIANCE> 39
 4.616572e+001 5.030910e+001 5.967906e+001 7.538790e+001 5.634838e+001 8.534348e+001 8.348768e+001 7.768219e+001 6.958523e+001 5.393596e+001 5.002160e+001 3.785883e+001 3.897493e+001 5.234442e+000 3.253307e+000 3.404782e+000 5.307909e+000 4.241054e+000 4.890910e+000 5.313446e+000 5.817589e+000 5.249641e+000 4.455703e+000 4.186538e+000 3.205580e+000 4.818527e+000 6.237715e-001 7.056100e-001 5.108468e-001 7.333400e-001 6.453529e-001 7.873994e-001 9.738175e-001 8.856129e-001 7.928624e-001 7.055345e-001 6.327531e-001 5.348532e-001 6.508406e-001
<GCONST> 1.393273e+002
<TRANSP> 5
 0.000000e+000 1.000000e+000 0.000000e+000 0.000000e+000 0.000000e+000
 0.000000e+000 3.265043e-001 6.734957e-001 0.000000e+000 0.000000e+000
 0.000000e+000 0.000000e+000 5.592160e-001 4.407840e-001 0.000000e+000
 0.000000e+000 0.000000e+000 0.000000e+000 4.393986e-001 5.606014e-001
 0.000000e+000 0.000000e+000 0.000000e+000 0.000000e+000 0.000000e+000
<ENDHMM>
