~o
<STREAMINFO> 1 39
<VECSIZE> 39<NULLD><MFCC_D_A_0><DIAGC>
~h "ay"
<BEGINHMM>
<NUMSTATES> 5
<STATE> 2
<MEAN> 39
 -1.572158e+000 -1.521422e+001 -1.373823e+001 -1.820303e+001 -5.737293e+000 9.370717e-001 -5.213414e+000 -2.274307e+000 1.571579e-001 -2.707167e-001 -4.116288e+000 -6.787250e+000 6.478291e+001 2.874897e-001 -1.772631e+000 -1.937553e-001 2.199545e-001 2.896678e-001 7.404058e-002 -5.045452e-002 5.959285e-001 8.235973e-001 -3.721352e-001 -8.335832e-001 -6.228262e-001 1.028300e+000 -4.441430e-001 4.491858e-001 4.423399e-001 5.171307e-001 -7.984200e-002 -4.387950e-001 8.996716e-002 1.053846e-001 -2.274813e-001 -1.689391e-001 7.724262e-002 3.535669e-001 -4.685963e-001
<VARIANCE> 39
 1.231159e+001 3.651571e+001 3.847680e+001 5.610468e+001 5.552309e+001 8.769737e+001 6.852612e+001 6.577589e+001 6.204524e+001 6.259330e+001 6.839622e+001 4.511327e+001 2.000862e+001 2.200718e+000 1.947694e+000 2.761390e+000 4.086926e+000 3.453125e+000 4.824735e+000 3.568976e+000 4.037789e+000 3.228987e+000 3.097929e+000 3.044089e+000 3.295411e+000 1.108585e+000 4.270559e-001 3.167120e-001 3.485604e-001 5.692252e-001 6.901535e-001 7.079808e-001 6.400842e-001 7.137302e-001 6.222711e-001 5.882775e-001 6.735831e-001 5.910933e-001 2.395113e-001
<GCONST> 1.272612e+002
<STATE> 3
<MEAN> 39
 -2.786040e+000 -1.816097e+001 -1.170428e+001 -1.387213e+001 -6.367393e+000 -3.124340e+000 -4.313529e+000 8.982676e-001 7.312559e-001 -4.280786e+000 -6.428655e+000 -5.511528e+000 6.566223e+001 -2.304984e-001 1.347997e-001 8.557843e-001 3.984124e-001 -8.601345e-001 -9.906530e-001 2.117963e-001 7.448976e-001 -2.275568e-001 -2.629138e-001 6.231784e-002 3.801496e-001 -9.055332e-002 -2.990120e-003 2.467511e-001 1.192381e-001 -4.212375e-002 -1.580566e-001 -7.378729e-002 -2.823012e-002 -8.638634e-002 -1.557359e-001 1.233827e-001 1.749934e-001 5.331614e-002 -1.506061e-001
<VARIANCE> 39
 1.198411e+001 2.984023e+001 4.458906e+001 4.128870e+001 6.300576e+001 7.738969e+001 7.023425e+001 7.225455e+001 7.409464e+001 5.168765e+001 4.718198e+001 4.799617e+001 2.063313e+001 2.589990e-001 8.330590e-001 1.304832e+000 1.342690e+000 2.140792e+000 2.114420e+000 2.135970e+000 2.311498e+000 1.796076e+000 1.698559e+000 1.733594e+000 1.595059e+000 2.337780e-001 5.000000e-002 1.306527e-001 1.463894e-001 1.769916e-001 2.704068e-001 2.478768e-001 2.969349e-001 3.716730e-001 3.241382e-001 2.882092e-001 2.994581e-001 2.734452e-001 5.406777e-002
<GCONST> 1.025331e+002
<STATE> 4
<MEAN> 39
 -6.242608e+000 -1.008546e+001 -1.748629e+000 -1.064717e+001 -1.434500e+001 -1.120129e+001 -3.504413e+000 2.002737e+000 -4.614685e+000 -2.189732e+000 -3.235754e+000 -2.190145e+000 5.961211e+001 -1.195563e+000 2.322428e+000 8.544268e-001 1.353000e+000 4.510204e-001 -3.577085e-003 -1.266138e-001 -1.294824e+000 -9.250909e-001 3.280526e-001 6.025928e-001 3.183109e-001 -2.587412e+000 -2.776577e-001 3.481968e-002 -4.915258e-001 1.030320e-001 6.892797e-001 5.580584e-001 1.304701e-002 -2.295578e-001 2.343856e-001 -1.568930e-002 -1.505152e-001 -1.283110e-001 -3.223602e-001
<VARIANCE> 39
 2.617198e+001 6.027438e+001 5.228967e+001 7.196440e+001 6.318139e+001 5.842990e+001 7.417662e+001 7.796736e+001 7.076331e+001 4.706876e+001 5.241334e+001 3.590081e+001 6.058476e+001 3.647692e+000 2.975635e+000 4.534552e+000 5.052161e+000 8.140548e+000 5.999420e+000 5.159586e+000 5.470084e+000 5.910107e+000 4.493720e+000 4.175789e+000 3.678134e+000 4.867332e+000 4.214462e-001 7.704696e-001 5.709465e-001 8.256022e-001 9.315655e-001 7.815248e-001 8.624032e-001 1.189493e+000 9.900029e-001 7.598501e-001 6.974231e-001 6.000762e-001 8.341134e-001
<GCONST> 1.407377e+002
<TRANSP> 5
 0.000000e+000 1.000000e+000 0.000000e+000 0.000000e+000 0.000000e+000
 0.000000e+000 6.675876e-001 3.324124e-001 0.000000e+000 0.000000e+000
 0.000000e+000 0.000000e+000 8.707139e-001 1.292861e-001 0.000000e+000
 0.000000e+000 0.000000e+000 0.000000e+000 7.849562e-001 2.150438e-001
 0.000000e+000 0.000000e+000 0.000000e+000 0.000000e+000 0.000000e+000
<ENDHMM>
