~o
<STREAMINFO> 1 39
<VECSIZE> 39<NULLD><MFCC_D_A_0><DIAGC>
~h "b"
<BEGINHMM>
<NUMSTATES> 5
<STATE> 2
<MEAN> 39
 -5.361091e+000 3.537417e+000 -2.107325e+000 -1.493005e+000 -3.037490e+000 -3.239748e+000 -7.791066e+000 -8.556029e+000 -8.673208e+000 -4.786199e+000 -3.868435e+000 -4.677495e+000 4.119286e+001 -1.080687e+000 9.941438e-001 4.954581e-001 1.050420e+000 8.717042e-001 5.816999e-001 6.971343e-001 -1.455834e-002 -4.334199e-002 -3.311390e-001 -2.318921e-001 1.871906e-002 -1.558450e+000 -1.168312e-001 -1.043087e+000 -2.737016e-001 -8.144582e-001 -5.193138e-001 -2.648560e-001 -6.037671e-002 5.607960e-001 4.815176e-001 3.827649e-001 2.017031e-001 2.200529e-001 1.393816e+000
<VARIANCE> 39
 2.338729e+001 2.511425e+001 2.263261e+001 3.555818e+001 2.705079e+001 3.543390e+001 3.502268e+001 3.181367e+001 3.372457e+001 3.163885e+001 3.362590e+001 2.718203e+001 2.742665e+001 3.141343e+000 6.403497e+000 3.712445e+000 5.962573e+000 3.904116e+000 3.863008e+000 4.401946e+000 4.874320e+000 4.816032e+000 3.851745e+000 3.312432e+000 2.751022e+000 1.006753e+001 3.993500e-001 7.682390e-001 7.526449e-001 8.873015e-001 7.369323e-001 6.998600e-001 8.918684e-001 8.389857e-001 8.314136e-001 7.483570e-001 6.639436e-001 5.454041e-001 9.578373e-001
<GCONST> 1.309735e+002
<STATE> 3
<MEAN> 39
 -1.403971e+001 -1.351664e+000 -3.755765e+000 -2.014154e+000 -1.755978e+000 -1.446441e+000 -3.153417e+000 -2.808512e+000 -3.121106e+000 -1.681357e+000 -1.918531e+000 -1.777490e+000 4.042106e+001 3.927918e-001 -2.030455e+000 -8.867229e-001 -1.905294e+000 -1.228303e+000 -7.584627e-001 -1.798256e-001 8.032340e-001 9.274276e-001 7.250071e-001 5.838335e-001 4.327695e-001 3.381197e+000 7.924817e-001 -2.991746e-001 -1.079027e-001 -7.734072e-001 -5.989763e-001 -3.241724e-001 -4.693960e-001 -1.273864e-001 -1.871558e-001 2.534925e-003 2.424983e-002 -8.231786e-002 1.150253e+000
<VARIANCE> 39
 3.851950e+001 2.687370e+001 2.292000e+001 3.019094e+001 2.078523e+001 2.536087e+001 2.538256e+001 2.835679e+001 3.006294e+001 2.668318e+001 2.108617e+001 1.834681e+001 8.189868e+001 4.803598e+000 4.197957e+000 4.215293e+000 6.353905e+000 4.105747e+000 4.243217e+000 4.430961e+000 4.451885e+000 4.631883e+000 3.755768e+000 3.152170e+000 2.633435e+000 1.230867e+001 7.766308e-001 7.246437e-001 8.315089e-001 9.704668e-001 7.604839e-001 8.607833e-001 7.695151e-001 8.169556e-001 8.457758e-001 7.240751e-001 6.717516e-001 4.879460e-001 1.577988e+000
<GCONST> 1.318438e+002
<STATE> 4
<MEAN> 39
 -4.611030e+000 -7.798075e+000 -5.875818e+000 -1.277679e+001 -1.001413e+001 -6.316295e+000 -8.494643e+000 -3.209282e+000 -3.548720e+000 -7.155869e-001 -5.906552e-001 -1.741808e+000 5.871283e+001 2.017772e+000 -1.932814e+000 -4.792156e-001 -3.008339e+000 -2.112089e+000 -3.866370e-001 -1.069236e+000 5.422990e-001 -9.346818e-003 5.007067e-001 2.268472e-001 -7.830707e-002 3.392929e+000 -2.908091e-001 5.913411e-001 2.453040e-001 6.482022e-001 4.797403e-001 4.141465e-001 2.370766e-001 -1.052344e-001 -2.339379e-001 -2.242206e-001 -2.706278e-001 -1.977462e-001 -1.264875e+000
<VARIANCE> 39
 4.391100e+001 3.705320e+001 8.813764e+001 8.304559e+001 5.363075e+001 7.502781e+001 6.267686e+001 5.265132e+001 5.520046e+001 4.366246e+001 4.378999e+001 3.135101e+001 3.030476e+001 4.734338e+000 5.407308e+000 7.895911e+000 7.428802e+000 6.605115e+000 7.349517e+000 7.472035e+000 7.322924e+000 7.202563e+000 5.155877e+000 5.078660e+000 3.804848e+000 6.584691e+000 7.904242e-001 5.938323e-001 6.721902e-001 8.808022e-001 7.801440e-001 8.033913e-001 9.193648e-001 8.866646e-001 8.963761e-001 7.249270e-001 6.571254e-001 5.301262e-001 5.614511e-001
<GCONST> 1.424398e+002
<TRANSP> 5
 0.000000e+000 1.000000e+000 0.000000e+000 0.000000e+000 0.000000e+000
 0.000000e+000 7.288865e-001 2.711135e-001 0.000000e+000 0.000000e+000
 0.000000e+000 0.000000e+000 6.167180e-001 3.832820e-001 0.000000e+000
 0.000000e+000 0.000000e+000 0.000000e+000 6.064403e-001 3.935597e-001
 0.000000e+000 0.000000e+000 0.000000e+000 0.000000e+000 0.000000e+000
<ENDHMM>
