~o
<STREAMINFO> 1 39
<VECSIZE> 39<NULLD><MFCC_D_A_0><DIAGC>
~h "ch"
<BEGINHMM>
<NUMSTATES> 5
<STATE> 2
<MEAN> 39
 -2.962585e+001 -5.513054e+000 5.828223e-001 -1.255822e+001 -3.744552e+000 1.025767e+000 -3.755910e+000 1.202266e-001 -2.779853e-001 -1.121890e+000 1.368992e-001 -5.139084e-002 5.685574e+001 -2.311749e+000 6.940014e-001 1.006884e+000 -4.049595e-001 -6.685564e-001 1.328343e-001 8.474522e-001 2.950837e-001 3.157427e-001 1.849844e-001 2.990600e-001 2.039111e-001 3.019515e+000 9.625716e-001 1.509490e-001 4.420304e-002 7.461113e-001 -2.927495e-001 -5.108711e-001 6.331043e-002 -1.282423e-001 -3.069408e-001 -7.307695e-002 -2.512979e-001 -1.050367e-001 -8.267233e-001
<VARIANCE> 39
 2.399986e+001 3.663156e+001 3.553557e+001 2.667643e+001 3.769751e+001 2.463415e+001 2.328474e+001 2.453564e+001 1.983593e+001 1.687210e+001 1.442073e+001 1.144454e+001 2.225240e+001 3.264122e+000 3.430732e+000 2.980928e+000 3.327878e+000 2.955019e+000 2.836958e+000 2.318072e+000 2.502776e+000 2.093424e+000 2.055197e+000 1.755127e+000 1.523275e+000 3.828985e+000 6.520244e-001 7.860212e-001 7.250115e-001 6.849949e-001 6.045510e-001 5.379556e-001 5.503402e-001 5.459604e-001 4.616932e-001 4.486273e-001 3.658589e-001 3.262881e-001 8.673345e-001
<GCONST> 1.173575e+002
<STATE> 3
<MEAN> 39
 -3.023322e+001 -5.935739e+000 2.469797e+000 -1.053775e+001 -7.511012e+000 -9.152098e-001 -8.415282e-001 -2.382251e-001 -6.492386e-001 -8.104242e-001 -2.677042e-001 1.975410e-001 6.078433e+001 1.350939e+000 -4.039783e-001 -1.742308e-001 6.454910e-001 -7.733959e-001 -1.049863e+000 1.449497e-001 -2.563839e-002 -3.248717e-001 -1.117312e-001 -2.797459e-001 -1.146658e-001 -4.135789e-002 9.821299e-001 -1.281016e-001 -2.271654e-001 1.116425e-001 7.825293e-002 -2.577368e-001 -3.969091e-001 -2.185223e-002 -1.333067e-001 -1.444924e-001 -1.098855e-001 -7.937092e-002 -6.501087e-001
<VARIANCE> 39
 1.479547e+001 2.547462e+001 2.581972e+001 2.408829e+001 3.997403e+001 2.339179e+001 2.306323e+001 2.150934e+001 1.940357e+001 1.700527e+001 1.582082e+001 1.373337e+001 1.457370e+001 2.916393e+000 1.293750e+000 2.021590e+000 1.914489e+000 2.401983e+000 2.383705e+000 1.977646e+000 2.095865e+000 1.675026e+000 1.671883e+000 1.571737e+000 1.282074e+000 2.128556e+000 5.696489e-001 3.072007e-001 4.575564e-001 3.446718e-001 4.728041e-001 4.736339e-001 4.961010e-001 4.214378e-001 3.885749e-001 3.763031e-001 3.475569e-001 2.943037e-001 3.610639e-001
<GCONST> 1.074099e+002
<STATE> 4
<MEAN> 39
 -1.640585e+001 -8.412292e+000 4.855959e-001 -7.244799e+000 -1.018636e+001 -7.366747e+000 -4.633099e+000 -4.037308e-001 -2.802334e+000 -2.930484e+000 -2.194704e+000 -1.168157e+000 5.718452e+001 4.711081e+000 -6.369812e-001 -7.686129e-001 -6.613508e-002 -6.037861e-001 -1.491490e+000 -2.104723e+000 4.748944e-002 -7.727435e-001 -5.230526e-001 -3.861446e-001 -3.730329e-001 -7.625210e-001 -2.402555e-001 -1.214645e-001 -1.780840e-001 -4.841341e-001 1.138714e-001 4.016699e-001 -1.715933e-001 8.887211e-002 8.727626e-002 1.909851e-001 1.771271e-001 2.931482e-002 2.680482e-001
<VARIANCE> 39
 7.950304e+001 3.019372e+001 4.286004e+001 4.440295e+001 4.818789e+001 4.609520e+001 5.157476e+001 3.693284e+001 4.122852e+001 2.833284e+001 2.841450e+001 2.008961e+001 4.368801e+001 4.549481e+000 3.302110e+000 4.538662e+000 4.423644e+000 5.973717e+000 6.565824e+000 7.205354e+000 4.911868e+000 5.180246e+000 4.184649e+000 3.948017e+000 2.788959e+000 6.439248e+000 1.194065e+000 4.676967e-001 5.268221e-001 5.227104e-001 7.739417e-001 8.104708e-001 1.091616e+000 7.781504e-001 7.298107e-001 6.553679e-001 5.563914e-001 4.299723e-001 7.143896e-001
<GCONST> 1.347337e+002
<TRANSP> 5
 0.000000e+000 1.000000e+000 0.000000e+000 0.000000e+000 0.000000e+000
 0.000000e+000 5.783709e-001 4.216291e-001 0.000000e+000 0.000000e+000
 0.000000e+000 0.000000e+000 7.629655e-001 2.370345e-001 0.000000e+000
 0.000000e+000 0.000000e+000 0.000000e+000 6.686247e-001 3.313754e-001
 0.000000e+000 0.000000e+000 0.000000e+000 0.000000e+000 0.000000e+000
<ENDHMM>
