~o
<STREAMINFO> 1 39
<VECSIZE> 39<NULLD><MFCC_D_A_0><DIAGC>
~h "d"
<BEGINHMM>
<NUMSTATES> 5
<STATE> 2
<MEAN> 39
 -8.036523e+000 9.617397e-002 1.375120e+000 -8.911036e-001 -7.246634e+000 -7.348373e+000 -7.922750e+000 -5.075610e+000 -5.808368e+000 -5.207994e+000 -6.110941e+000 -3.843574e+000 4.432703e+001 -1.388169e+000 6.065339e-001 -1.149161e-003 4.539493e-001 1.405579e+000 1.059670e+000 5.482146e-001 -2.978234e-001 9.868135e-002 6.899076e-002 2.115948e-002 -8.491167e-002 -1.212259e+000 -1.015149e-001 -1.045766e+000 -2.688622e-001 -1.053671e+000 -5.042247e-001 -6.418047e-002 -7.734030e-002 5.118086e-001 2.428121e-001 3.436518e-001 4.582244e-001 2.875333e-001 1.564060e+000
<VARIANCE> 39
 2.965899e+001 5.036522e+001 4.164721e+001 5.721502e+001 5.064143e+001 4.103164e+001 3.844141e+001 4.416352e+001 4.658873e+001 3.604752e+001 3.400841e+001 2.800141e+001 6.210927e+001 3.693136e+000 7.804599e+000 4.041101e+000 7.386228e+000 5.728678e+000 5.786651e+000 5.416228e+000 5.344130e+000 4.737731e+000 4.059775e+000 4.068924e+000 3.412805e+000 1.115605e+001 5.145347e-001 9.438583e-001 6.139687e-001 9.948504e-001 1.041391e+000 8.693888e-001 1.000059e+000 9.350992e-001 8.494567e-001 7.863736e-001 7.430929e-001 6.142162e-001 1.421279e+000
<GCONST> 1.396578e+002
<STATE> 3
<MEAN> 39
 -1.449661e+001 -6.237530e+000 -1.940116e+000 -6.239210e+000 -5.392721e+000 -3.621184e+000 -4.898269e+000 -2.271396e+000 -2.977192e+000 -2.232925e+000 -2.273793e+000 -1.289308e+000 4.948910e+001 -6.412168e-001 -1.582976e+000 -3.052740e-001 -1.934375e+000 -9.897355e-001 -4.468546e-001 -1.353977e-001 7.586061e-001 5.605662e-001 5.688046e-001 7.492403e-001 6.491086e-001 3.328146e+000 6.556998e-001 7.948478e-002 1.027031e-001 -1.480856e-001 -6.570361e-001 -5.178747e-001 -3.841809e-001 9.703720e-002 -1.349892e-001 -2.652930e-002 -1.014084e-001 -1.062976e-001 5.190269e-001
<VARIANCE> 39
 5.494316e+001 4.741802e+001 5.015351e+001 5.175325e+001 4.884222e+001 4.666815e+001 4.234274e+001 3.397552e+001 3.453650e+001 2.846209e+001 2.404644e+001 1.960246e+001 1.074763e+002 6.035437e+000 4.990580e+000 3.967128e+000 5.620914e+000 4.840668e+000 5.012230e+000 4.999426e+000 4.583859e+000 4.449824e+000 3.561223e+000 3.536058e+000 2.733258e+000 9.927920e+000 7.711585e-001 9.438971e-001 8.901662e-001 1.191522e+000 1.120702e+000 1.236481e+000 1.036091e+000 9.892090e-001 8.609110e-001 7.640182e-001 7.947118e-001 5.883003e-001 1.890051e+000
<GCONST> 1.398375e+002
<STATE> 4
<MEAN> 39
 -9.415565e+000 -8.525986e+000 -1.094802e+000 -9.427855e+000 -1.180898e+001 -8.994843e+000 -9.207733e+000 -9.750810e-001 -2.515376e+000 -2.025270e+000 -2.278107e+000 -1.060447e+000 5.878678e+001 1.416943e+000 -8.618811e-001 -1.757290e-001 -9.268906e-001 -1.438440e+000 -8.016742e-001 -1.059548e+000 8.593016e-001 9.185779e-002 3.363717e-001 1.500089e-001 -9.345731e-002 1.703293e+000 2.206437e-001 2.172054e-001 -2.111949e-001 3.334826e-001 3.220512e-001 3.053079e-001 1.881427e-001 -5.780667e-002 -1.700624e-001 -6.034389e-002 -1.064935e-001 -2.167521e-001 -8.010135e-001
<VARIANCE> 39
 7.533144e+001 4.304944e+001 7.361379e+001 5.314064e+001 6.125918e+001 5.503334e+001 6.427024e+001 5.150964e+001 5.843224e+001 3.845397e+001 3.574311e+001 2.771089e+001 4.144252e+001 6.548303e+000 3.747863e+000 5.115372e+000 5.022275e+000 6.076479e+000 6.255151e+000 6.766972e+000 5.737233e+000 5.341798e+000 4.373966e+000 4.780733e+000 3.523511e+000 4.940591e+000 8.707985e-001 6.479607e-001 5.913318e-001 8.471116e-001 9.946916e-001 1.077355e+000 1.018532e+000 8.460132e-001 7.901676e-001 6.325126e-001 6.510973e-001 5.398178e-001 9.008151e-001
<GCONST> 1.407302e+002
<TRANSP> 5
 0.000000e+000 1.000000e+000 0.000000e+000 0.000000e+000 0.000000e+000
 0.000000e+000 5.885805e-001 4.114195e-001 0.000000e+000 0.000000e+000
 0.000000e+000 0.000000e+000 4.383948e-001 5.616052e-001 0.000000e+000
 0.000000e+000 0.000000e+000 0.000000e+000 4.482034e-001 5.517967e-001
 0.000000e+000 0.000000e+000 0.000000e+000 0.000000e+000 0.000000e+000
<ENDHMM>
