~o
<STREAMINFO> 1 39
<VECSIZE> 39<NULLD><MFCC_D_A_0><DIAGC>
~h "dh"
<BEGINHMM>
<NUMSTATES> 5
<STATE> 2
<MEAN> 39
 -1.414491e+001 -1.886716e+000 -6.792828e+000 -4.930667e+000 -5.257357e+000 -5.718612e+000 -4.944766e+000 -3.346247e+000 -1.807971e+000 -1.330229e+000 -2.876052e+000 -2.055948e+000 4.956436e+001 1.052286e+000 -2.126258e-001 2.143156e-001 -4.704021e-001 -8.288046e-001 -9.364702e-001 -4.972582e-001 1.341739e-001 2.627840e-001 -8.824989e-002 -2.336591e-001 -1.309063e-001 1.924224e+000 5.719404e-001 -4.769396e-001 1.568380e-001 -4.111621e-001 -4.688318e-001 -3.137503e-001 -2.727666e-001 1.828624e-001 6.016134e-002 1.449732e-001 -9.601930e-003 -2.486849e-002 5.331109e-001
<VARIANCE> 39
 4.953077e+001 2.827631e+001 2.636337e+001 2.969398e+001 2.639571e+001 3.335683e+001 4.547691e+001 4.086827e+001 3.123681e+001 2.681711e+001 2.815050e+001 2.783111e+001 5.428934e+001 6.099388e+000 3.537169e+000 3.553059e+000 4.419492e+000 4.824018e+000 4.929764e+000 4.648921e+000 3.941851e+000 3.845147e+000 3.049286e+000 2.991146e+000 2.924953e+000 1.052831e+001 7.040334e-001 7.417891e-001 7.772186e-001 8.551771e-001 7.090241e-001 7.931582e-001 8.802690e-001 7.956536e-001 7.506534e-001 6.240877e-001 6.295318e-001 5.895309e-001 1.645169e+000
<GCONST> 1.329272e+002
<STATE> 3
<MEAN> 39
 -8.066462e+000 -3.037940e+000 -5.719363e+000 -7.274681e+000 -9.717261e+000 -1.045383e+001 -7.921546e+000 -3.209929e+000 -8.444408e-001 -1.277289e+000 -3.671234e+000 -2.691460e+000 5.714211e+001 2.667212e+000 -1.625242e+000 8.360377e-001 -1.736234e+000 -2.211953e+000 -1.770866e+000 -1.711247e+000 5.222220e-001 3.132615e-001 3.221085e-001 -3.141256e-001 -3.430612e-001 3.214168e+000 -2.775033e-001 -3.155169e-001 1.873059e-001 -7.084487e-002 1.566373e-001 4.618037e-001 1.947095e-001 1.813411e-001 -2.038199e-001 9.173423e-002 5.798118e-002 3.707239e-002 -7.202981e-001
<VARIANCE> 39
 2.113863e+001 2.294014e+001 3.063516e+001 3.100624e+001 3.750679e+001 3.690742e+001 4.650600e+001 3.890148e+001 3.982909e+001 3.499149e+001 2.849058e+001 2.790689e+001 2.469199e+001 4.134376e+000 3.415475e+000 5.074243e+000 4.324551e+000 4.519719e+000 5.638610e+000 6.206595e+000 5.648026e+000 6.087776e+000 4.352361e+000 4.910668e+000 4.231891e+000 3.743375e+000 5.394232e-001 4.094253e-001 4.119783e-001 5.117566e-001 5.787737e-001 5.474647e-001 6.629060e-001 6.155310e-001 6.002027e-001 5.094447e-001 5.002807e-001 4.398888e-001 8.551833e-001
<GCONST> 1.287701e+002
<STATE> 4
<MEAN> 39
 -4.973297e+000 -7.971435e+000 -4.425563e+000 -1.124531e+001 -1.303332e+001 -1.190356e+001 -1.041702e+001 -1.550477e+000 -6.605126e-001 -1.348765e-001 -3.906930e+000 -3.132437e+000 6.138862e+001 1.490148e+000 -1.821689e+000 7.207622e-001 -1.580559e+000 -1.447259e+000 -6.291696e-001 -7.829397e-001 7.497248e-001 -8.283084e-002 2.490043e-001 -1.626130e-001 -1.196871e-001 1.872158e+000 -8.207897e-001 3.337227e-001 -8.888648e-002 4.799299e-001 6.934661e-001 7.376495e-001 6.806052e-001 -3.515233e-002 -2.779734e-001 -1.700900e-001 9.384492e-002 1.217797e-001 -1.156929e+000
<VARIANCE> 39
 1.305686e+001 2.929214e+001 5.137799e+001 4.668461e+001 4.898050e+001 5.471374e+001 6.655887e+001 5.771544e+001 6.530692e+001 5.083245e+001 4.961045e+001 4.280758e+001 2.244499e+001 2.771974e+000 2.801771e+000 3.349643e+000 3.697686e+000 3.833088e+000 4.337444e+000 5.491601e+000 4.611171e+000 4.450874e+000 3.580781e+000 3.856413e+000 2.981953e+000 2.806397e+000 5.747077e-001 4.917304e-001 5.572504e-001 6.643505e-001 6.546749e-001 7.434863e-001 8.192938e-001 7.473804e-001 8.555295e-001 6.622180e-001 6.683163e-001 6.079746e-001 6.422946e-001
<GCONST> 1.319057e+002
<TRANSP> 5
 0.000000e+000 1.000000e+000 0.000000e+000 0.000000e+000 0.000000e+000
 0.000000e+000 6.109734e-001 3.890266e-001 0.000000e+000 0.000000e+000
 0.000000e+000 0.000000e+000 1.281456e-001 8.718544e-001 0.000000e+000
 0.000000e+000 0.000000e+000 0.000000e+000 2.260670e-001 7.739329e-001
 0.000000e+000 0.000000e+000 0.000000e+000 0.000000e+000 0.000000e+000
<ENDHMM>
