~o
<STREAMINFO> 1 39
<VECSIZE> 39<NULLD><MFCC_D_A_0><DIAGC>
~h "ea"
<BEGINHMM>
<NUMSTATES> 5
<STATE> 2
<MEAN> 39
 -2.379784e+000 -1.486726e+001 -2.661858e+000 -1.368009e+001 -1.555799e+001 -1.084124e+001 -1.102171e+001 3.455638e+000 -2.915120e+000 -5.044405e-001 -1.213039e+000 -3.503927e+000 6.432568e+001 6.293031e-001 -2.191266e+000 4.492884e-001 -4.135519e-001 -1.186752e+000 -1.037411e+000 -7.047495e-001 1.996465e+000 2.206384e-001 2.397236e-001 1.855423e-001 -2.014331e-001 1.372320e+000 -4.853408e-001 4.795234e-001 -1.681797e-001 4.926300e-001 5.623182e-001 3.124658e-001 5.227918e-001 -7.136628e-003 2.367664e-002 -1.195530e-001 8.610871e-003 2.513242e-001 -6.708368e-001
<VARIANCE> 39
 2.166770e+001 3.699089e+001 6.300858e+001 5.907677e+001 5.136148e+001 5.701503e+001 1.164847e+002 8.780087e+001 6.976202e+001 6.111706e+001 7.626001e+001 2.639680e+001 2.102231e+001 2.654107e+000 2.231174e+000 2.503058e+000 4.574779e+000 2.970969e+000 3.318010e+000 6.567609e+000 4.584242e+000 4.694861e+000 3.483957e+000 3.560543e+000 2.862588e+000 1.220168e+000 4.950452e-001 4.292102e-001 3.926009e-001 5.902680e-001 4.777684e-001 8.221453e-001 7.632122e-001 7.700957e-001 7.173271e-001 6.503373e-001 7.800289e-001 5.372074e-001 3.910036e-001
<GCONST> 1.309884e+002
<STATE> 3
<MEAN> 39
 -3.890480e+000 -1.702434e+001 -1.235772e+000 -1.535239e+001 -1.873713e+001 -1.308452e+001 -3.153938e+000 6.249122e+000 -6.858025e+000 5.561602e-001 -2.515673e+000 -3.849836e+000 6.566747e+001 4.584392e-001 -5.694159e-001 -1.018728e+000 9.619893e-001 4.499058e-001 -7.852964e-001 1.214608e-001 1.314934e+000 -1.083637e-002 -6.659196e-001 2.210809e-001 1.526928e-001 -1.005764e-001 7.894042e-002 2.131894e-001 -3.013663e-001 1.824745e-001 3.271237e-001 -3.592008e-002 -2.647428e-001 -9.316131e-002 7.188868e-002 -1.625312e-001 -6.930139e-002 5.105838e-002 -1.962386e-001
<VARIANCE> 39
 1.237885e+001 2.123451e+001 4.406623e+001 4.521708e+001 4.126355e+001 3.714459e+001 1.060200e+002 6.410324e+001 1.050338e+002 4.646244e+001 5.108750e+001 3.199900e+001 1.835280e+001 2.741433e-001 4.290534e-001 1.533433e+000 1.004807e+000 1.184464e+000 2.063904e+000 1.921731e+000 1.896012e+000 1.629943e+000 1.619260e+000 1.379840e+000 1.365999e+000 1.882394e-001 5.000000e-002 1.199176e-001 1.799574e-001 2.358200e-001 1.550279e-001 2.960234e-001 2.852680e-001 3.477826e-001 2.914624e-001 2.715546e-001 2.065563e-001 2.169246e-001 5.000000e-002
<GCONST> 9.791415e+001
<STATE> 4
<MEAN> 39
 6.682935e-001 -1.817663e+001 -8.355875e+000 -7.932031e+000 -1.057149e+001 -1.398773e+001 -1.774480e+001 1.298282e+001 1.924193e+000 -3.777806e+000 3.176790e-001 -1.310640e+000 6.414529e+001 3.600846e-001 1.675248e-001 -1.060192e+000 4.287958e-001 7.700342e-001 1.562187e-002 -1.096419e+000 2.097801e-001 5.776305e-001 -1.650651e-001 -2.417720e-001 1.465259e-001 -2.961234e-001 -1.755326e-002 1.287096e-001 1.432600e-002 -9.518592e-002 2.795239e-002 1.519842e-001 3.714742e-002 -3.080817e-001 -5.809370e-002 1.719868e-001 6.019316e-003 -7.245215e-002 -4.722239e-002
<VARIANCE> 39
 6.852161e+000 3.134397e+001 5.309783e+001 3.147593e+001 4.798112e+001 5.317395e+001 1.238546e+002 6.683689e+001 6.486724e+001 5.014989e+001 4.571412e+001 3.625446e+001 1.923704e+001 2.737285e-001 5.172242e-001 1.669621e+000 1.003573e+000 1.228898e+000 1.510151e+000 1.688509e+000 1.261005e+000 1.298077e+000 1.091536e+000 1.156221e+000 9.211370e-001 1.811341e-001 5.000000e-002 1.092620e-001 1.801505e-001 1.663452e-001 1.892314e-001 1.939595e-001 3.187546e-001 2.027193e-001 2.214170e-001 1.722402e-001 1.871565e-001 1.698377e-001 5.000000e-002
<GCONST> 9.395679e+001
<TRANSP> 5
 0.000000e+000 1.000000e+000 0.000000e+000 0.000000e+000 0.000000e+000
 0.000000e+000 6.262866e-001 3.737134e-001 0.000000e+000 0.000000e+000
 0.000000e+000 0.000000e+000 7.123379e-001 2.876621e-001 0.000000e+000
 0.000000e+000 0.000000e+000 0.000000e+000 7.658588e-001 2.341412e-001
 0.000000e+000 0.000000e+000 0.000000e+000 0.000000e+000 0.000000e+000
<ENDHMM>
