~o
<STREAMINFO> 1 39
<VECSIZE> 39<NULLD><MFCC_D_A_0><DIAGC>
~h "eh"
<BEGINHMM>
<NUMSTATES> 5
<STATE> 2
<MEAN> 39
 -4.096725e+000 -1.350000e+001 -3.358794e+000 -1.346332e+001 -1.508163e+001 -1.062759e+001 -8.260077e+000 3.295768e+000 -2.012204e+000 -1.417596e+000 -3.357826e+000 -2.908320e+000 6.486223e+001 8.878247e-001 -1.922924e+000 -3.133696e-001 -7.151986e-001 -7.714777e-001 -3.210584e-001 -2.600195e-001 1.554972e+000 6.825688e-001 -1.850921e-001 -2.080373e-001 -2.517571e-001 1.409402e+000 -5.812522e-001 4.805279e-001 -1.497356e-001 2.687517e-001 5.694432e-001 3.954800e-001 3.937797e-001 -2.424061e-001 -9.309330e-002 -3.224173e-002 3.539495e-002 9.659264e-002 -6.102500e-001
<VARIANCE> 39
 1.528913e+001 3.279194e+001 5.862493e+001 5.939150e+001 5.667627e+001 6.767443e+001 8.593037e+001 7.062709e+001 8.087853e+001 5.413190e+001 6.084904e+001 4.105225e+001 1.781050e+001 3.009189e+000 2.303282e+000 3.140992e+000 3.387700e+000 4.066712e+000 4.355414e+000 5.731055e+000 4.536328e+000 4.278119e+000 3.581306e+000 3.340082e+000 2.746838e+000 1.379978e+000 4.799183e-001 4.078887e-001 4.327458e-001 5.298270e-001 6.526009e-001 6.831813e-001 7.782822e-001 8.221836e-001 8.225457e-001 6.410586e-001 6.397555e-001 5.151954e-001 3.005084e-001
<GCONST> 1.304909e+002
<STATE> 3
<MEAN> 39
 -3.916414e+000 -1.537055e+001 -5.115886e+000 -1.400790e+001 -1.427814e+001 -9.490011e+000 -6.237270e+000 5.481861e+000 -1.261036e+000 -2.871011e+000 -4.227989e+000 -3.111789e+000 6.556967e+001 1.851038e-001 7.721134e-002 -4.313251e-001 7.771756e-002 3.881415e-001 5.533731e-002 -1.913468e-001 4.324762e-002 4.595173e-002 -1.191509e-001 -3.876265e-002 -1.042846e-003 -2.321957e-001 -1.639543e-002 3.996834e-001 3.995514e-002 1.874765e-001 1.494167e-001 -3.568541e-002 -1.322168e-001 -3.683952e-001 -1.684220e-001 7.339294e-002 6.741261e-002 5.358696e-002 -3.921127e-001
<VARIANCE> 39
 1.490048e+001 2.781458e+001 5.095842e+001 5.809671e+001 5.882360e+001 7.740604e+001 9.558933e+001 7.015749e+001 8.582821e+001 5.437299e+001 5.763272e+001 4.172301e+001 1.969493e+001 4.365033e-001 9.686928e-001 1.767518e+000 1.472087e+000 1.796655e+000 2.022599e+000 2.456930e+000 2.380642e+000 2.160778e+000 1.750291e+000 1.685169e+000 1.509576e+000 4.521268e-001 8.877739e-002 2.010871e-001 2.160317e-001 2.574663e-001 3.059548e-001 3.172789e-001 4.018827e-001 4.396174e-001 3.860507e-001 3.300318e-001 3.152965e-001 2.854370e-001 1.432353e-001
<GCONST> 1.093755e+002
<STATE> 4
<MEAN> 39
 -4.827757e+000 -1.015995e+001 -4.798477e+000 -1.068400e+001 -1.128514e+001 -9.983672e+000 -7.743187e+000 1.742093e+000 -2.737928e+000 -2.435991e+000 -3.903040e+000 -2.710448e+000 5.990690e+001 -1.117857e+000 2.366706e+000 1.919842e-001 1.487130e+000 1.403420e+000 5.710400e-001 2.439022e-001 -1.814366e+000 -8.546867e-001 2.234246e-002 2.110242e-001 2.220852e-001 -2.824874e+000 -4.484767e-001 9.929787e-002 1.530952e-002 5.524938e-002 1.360758e-001 2.860577e-001 2.619053e-001 -6.312709e-002 -5.266387e-003 7.774973e-003 5.751505e-003 -4.752251e-004 -1.867485e-001
<VARIANCE> 39
 3.250346e+001 5.201764e+001 6.397287e+001 6.757377e+001 6.345196e+001 7.458071e+001 8.394859e+001 7.784573e+001 7.916084e+001 5.439164e+001 5.659693e+001 4.057652e+001 5.212762e+001 5.005890e+000 3.173945e+000 3.508781e+000 4.386911e+000 4.844946e+000 5.270480e+000 6.113688e+000 6.101948e+000 5.575931e+000 4.534553e+000 4.419944e+000 3.551570e+000 4.627409e+000 4.859813e-001 8.140740e-001 5.167670e-001 7.454761e-001 7.988107e-001 7.835729e-001 8.341892e-001 1.049754e+000 8.867507e-001 7.075438e-001 6.842126e-001 5.470191e-001 9.633174e-001
<GCONST> 1.406951e+002
<TRANSP> 5
 0.000000e+000 1.000000e+000 0.000000e+000 0.000000e+000 0.000000e+000
 0.000000e+000 5.561577e-001 4.438423e-001 0.000000e+000 0.000000e+000
 0.000000e+000 0.000000e+000 7.900034e-001 2.099966e-001 0.000000e+000
 0.000000e+000 0.000000e+000 0.000000e+000 6.771929e-001 3.228071e-001
 0.000000e+000 0.000000e+000 0.000000e+000 0.000000e+000 0.000000e+000
<ENDHMM>
