~o
<STREAMINFO> 1 39
<VECSIZE> 39<NULLD><MFCC_D_A_0><DIAGC>
~h "er"
<BEGINHMM>
<NUMSTATES> 5
<STATE> 2
<MEAN> 39
 4.671603e-001 -1.419550e+001 -9.936022e+000 -8.885541e+000 -9.447546e+000 -1.387738e+001 -1.522230e+001 3.952719e+000 -2.311299e+000 -2.938534e+000 -1.464175e+000 -1.010433e+000 6.145375e+001 1.665765e+000 -1.283609e+000 -1.452330e+000 7.928091e-002 5.537002e-001 -9.094359e-001 -1.873886e+000 1.476214e+000 8.648915e-001 -2.128414e-001 1.115372e-001 2.001899e-001 5.039044e-001 -7.570512e-001 3.860636e-001 1.939158e-001 1.228966e-001 2.557268e-001 3.702024e-001 4.796315e-001 -2.237892e-001 1.042445e-002 5.913961e-002 -7.492061e-002 -2.966561e-002 -3.490904e-001
<VARIANCE> 39
 2.005884e+001 3.138656e+001 9.549634e+001 6.031566e+001 7.614597e+001 8.461035e+001 1.049404e+002 8.020481e+001 9.950735e+001 6.028734e+001 5.460025e+001 3.977776e+001 1.768781e+001 3.462640e+000 2.364102e+000 3.183705e+000 2.929541e+000 4.383340e+000 4.000706e+000 6.232796e+000 4.913075e+000 4.537335e+000 3.719355e+000 3.019052e+000 2.595417e+000 1.074548e+000 5.570602e-001 3.368586e-001 5.751645e-001 4.815923e-001 6.572756e-001 6.608920e-001 9.024994e-001 7.751698e-001 6.737126e-001 6.179700e-001 5.439712e-001 4.803526e-001 1.934102e-001
<GCONST> 1.314137e+002
<STATE> 3
<MEAN> 39
 2.688394e+000 -1.484101e+001 -1.509148e+001 -6.914194e+000 -5.482757e+000 -1.462424e+001 -1.889030e+001 6.405297e+000 1.619463e+000 -3.544477e+000 -1.709979e+000 -6.143600e-001 6.031662e+001 -3.279585e-002 1.332528e-001 -4.115412e-004 1.899012e-001 1.228133e-001 -5.503925e-002 -9.535899e-002 -1.013630e-002 5.215272e-002 -9.354558e-002 -1.412920e-001 1.332596e-002 -2.316529e-001 -1.774568e-001 1.402576e-001 3.248142e-001 3.765977e-003 -2.070905e-001 1.317510e-001 3.366689e-001 -2.379256e-001 -2.312630e-001 -1.542097e-002 3.416319e-003 -2.519753e-002 -1.181727e-001
<VARIANCE> 39
 1.111983e+001 2.742206e+001 6.787479e+001 4.423032e+001 7.155022e+001 8.748080e+001 1.266859e+002 8.666991e+001 1.066812e+002 5.179197e+001 4.409050e+001 3.430181e+001 2.020077e+001 3.087043e-001 5.916466e-001 1.856357e+000 1.012201e+000 1.987434e+000 1.624536e+000 2.207027e+000 1.946687e+000 1.894268e+000 1.564682e+000 1.361742e+000 1.171774e+000 2.871327e-001 7.297634e-002 1.296161e-001 1.699413e-001 1.776021e-001 2.450989e-001 2.669189e-001 4.037430e-001 3.895788e-001 2.997248e-001 2.762504e-001 2.316907e-001 2.078884e-001 6.420118e-002
<GCONST> 1.032525e+002
<STATE> 4
<MEAN> 39
 -1.911558e+000 -1.094149e+001 -8.422859e+000 -5.362768e+000 -7.548815e+000 -1.340635e+001 -1.375691e+001 2.327135e+000 -2.238546e+000 -4.277081e+000 -3.085989e+000 -7.237104e-001 5.683306e+001 -2.184687e+000 1.806589e+000 1.545456e+000 3.124127e-001 8.468123e-002 1.477833e+000 2.269165e+000 -1.536065e+000 -7.962755e-001 1.075363e-001 -2.183926e-001 -3.347512e-001 -1.771202e+000 -4.482692e-001 1.958580e-001 2.002553e-002 -1.247641e-001 1.956283e-001 3.554519e-001 2.061411e-001 -3.280856e-002 1.664654e-002 1.479755e-001 7.216153e-002 -7.106438e-002 -2.177519e-001
<VARIANCE> 39
 4.265709e+001 4.566124e+001 8.890728e+001 6.715261e+001 7.732890e+001 7.986928e+001 1.118521e+002 8.004897e+001 9.175877e+001 5.665984e+001 4.737096e+001 3.505860e+001 4.379627e+001 4.689963e+000 3.951849e+000 4.065899e+000 5.022268e+000 5.673406e+000 5.776513e+000 7.510262e+000 6.027049e+000 5.402118e+000 4.631382e+000 4.030364e+000 2.943330e+000 4.274534e+000 5.534071e-001 7.413328e-001 6.795663e-001 7.052976e-001 7.949916e-001 8.540591e-001 1.223322e+000 1.015948e+000 7.875072e-001 7.266831e-001 6.782874e-001 5.212436e-001 5.964654e-001
<GCONST> 1.419985e+002
<TRANSP> 5
 0.000000e+000 1.000000e+000 0.000000e+000 0.000000e+000 0.000000e+000
 0.000000e+000 6.191293e-001 3.808707e-001 0.000000e+000 0.000000e+000
 0.000000e+000 0.000000e+000 8.403392e-001 1.596609e-001 0.000000e+000
 0.000000e+000 0.000000e+000 0.000000e+000 7.389452e-001 2.610548e-001
 0.000000e+000 0.000000e+000 0.000000e+000 0.000000e+000 0.000000e+000
<ENDHMM>
