~o
<STREAMINFO> 1 39
<VECSIZE> 39<NULLD><MFCC_D_A_0><DIAGC>
~h "ey"
<BEGINHMM>
<NUMSTATES> 5
<STATE> 2
<MEAN> 39
 -4.135651e+000 -1.390509e+001 -2.610553e+000 -1.341116e+001 -1.587997e+001 -1.050401e+001 -8.566425e+000 3.657739e+000 -9.253407e-001 -1.268967e+000 -2.701066e+000 -3.145823e+000 6.509019e+001 3.008144e-002 -1.030727e+000 1.356399e+000 -5.008924e-001 -1.716929e+000 -6.813275e-001 4.633126e-001 1.155669e+000 -3.580157e-001 -2.617060e-001 3.135439e-001 2.751706e-001 9.964624e-001 -4.073500e-001 5.429168e-001 7.992713e-002 1.607914e-001 2.705452e-001 3.114543e-001 2.654694e-001 -4.673518e-001 -3.596865e-001 5.473040e-002 2.448128e-001 9.172723e-002 -5.420352e-001
<VARIANCE> 39
 1.495966e+001 3.018003e+001 5.526429e+001 6.097816e+001 5.338147e+001 6.458529e+001 8.350642e+001 6.954537e+001 7.926048e+001 5.619944e+001 5.828163e+001 4.042073e+001 1.866051e+001 2.331497e+000 2.559402e+000 2.632366e+000 3.791769e+000 3.290794e+000 4.069078e+000 4.780838e+000 4.722749e+000 4.523598e+000 3.831949e+000 3.535951e+000 2.775813e+000 1.352439e+000 4.063255e-001 3.131755e-001 3.361308e-001 4.958083e-001 5.983909e-001 6.363626e-001 7.132375e-001 8.140691e-001 8.135418e-001 6.955518e-001 6.066269e-001 5.482961e-001 2.388216e-001
<GCONST> 1.285897e+002
<STATE> 3
<MEAN> 39
 -6.577637e+000 -1.223644e+001 3.960032e+000 -1.498165e+001 -2.094855e+001 -1.030895e+001 -5.318198e+000 2.081102e+000 -6.199158e+000 -7.696605e-001 -5.962536e-001 -2.021186e+000 6.466655e+001 -1.759919e-001 5.231150e-001 7.834672e-001 4.190492e-002 -3.672564e-001 1.126169e-001 -1.043071e-001 -6.718384e-001 -7.235878e-001 1.348867e-001 3.082252e-001 -6.177432e-003 -3.820392e-001 3.931056e-002 1.287767e-001 -1.670005e-001 1.993803e-001 2.772794e-001 -4.999863e-003 -1.252404e-001 -9.752382e-002 4.154342e-002 -6.304416e-002 -1.330404e-001 -4.785638e-002 -2.194768e-001
<VARIANCE> 39
 1.266426e+001 2.953076e+001 4.346621e+001 7.194203e+001 3.943879e+001 5.650910e+001 6.858475e+001 7.131692e+001 6.048708e+001 5.291912e+001 6.968282e+001 3.093026e+001 2.037325e+001 2.842503e-001 6.943756e-001 1.150519e+000 9.979815e-001 1.149011e+000 1.288922e+000 1.595685e+000 1.705457e+000 1.914515e+000 1.498644e+000 1.413566e+000 1.121181e+000 3.010899e-001 6.030140e-002 1.322117e-001 1.737383e-001 1.952483e-001 2.355409e-001 2.435457e-001 2.960797e-001 3.125505e-001 2.802783e-001 2.641415e-001 2.497003e-001 2.048813e-001 8.188411e-002
<GCONST> 9.930591e+001
<STATE> 4
<MEAN> 39
 -7.878466e+000 -7.098056e+000 5.212736e+000 -1.012689e+001 -1.726297e+001 -1.048790e+001 -7.133867e+000 -1.801454e+000 -8.847164e+000 -1.882482e+000 -6.190791e-001 -2.019836e+000 5.852193e+001 -1.112736e+000 1.561291e+000 -1.266815e+000 1.586381e+000 2.565056e+000 7.232157e-001 4.383453e-001 -6.978177e-001 3.271057e-001 -3.343514e-001 -5.334870e-001 -1.507509e-001 -2.381166e+000 -3.740080e-001 -2.263287e-002 -4.589256e-001 -3.965905e-002 4.113161e-001 3.057273e-001 2.298965e-001 1.178956e-001 3.545972e-001 9.314436e-002 -3.054401e-002 1.700228e-002 -1.296970e-001
<VARIANCE> 39
 3.235828e+001 4.592813e+001 5.362208e+001 7.942912e+001 6.386398e+001 5.472840e+001 5.888530e+001 7.232072e+001 5.819359e+001 5.384189e+001 6.248745e+001 3.460019e+001 5.007938e+001 5.280150e+000 3.304141e+000 3.908152e+000 4.687980e+000 5.093247e+000 5.262464e+000 5.248108e+000 5.548366e+000 5.267455e+000 4.249742e+000 4.209494e+000 2.971032e+000 4.715463e+000 5.056716e-001 6.602398e-001 5.979100e-001 8.002851e-001 1.063554e+000 7.083310e-001 7.445222e-001 8.713070e-001 8.225080e-001 6.900927e-001 6.816605e-001 5.097286e-001 8.192292e-001
<GCONST> 1.387357e+002
<TRANSP> 5
 0.000000e+000 1.000000e+000 0.000000e+000 0.000000e+000 0.000000e+000
 0.000000e+000 6.744893e-001 3.255107e-001 0.000000e+000 0.000000e+000
 0.000000e+000 0.000000e+000 8.485531e-001 1.514469e-001 0.000000e+000
 0.000000e+000 0.000000e+000 0.000000e+000 7.501774e-001 2.498226e-001
 0.000000e+000 0.000000e+000 0.000000e+000 0.000000e+000 0.000000e+000
<ENDHMM>
