~o
<STREAMINFO> 1 39
<VECSIZE> 39<NULLD><MFCC_D_A_0><DIAGC>
~h "f"
<BEGINHMM>
<NUMSTATES> 5
<STATE> 2
<MEAN> 39
 -1.904027e+001 -5.402926e+000 -6.288615e+000 -4.989200e+000 -3.583290e+000 -3.415670e+000 -2.384822e+000 -8.025660e-001 -2.146079e+000 -1.403773e+000 -2.725627e+000 -9.940315e-001 5.183823e+001 -3.439518e+000 -5.853933e-001 -5.619086e-001 5.136411e-001 3.148164e-001 4.208793e-001 5.549759e-001 5.941245e-001 7.773899e-001 3.773265e-001 4.891337e-001 5.361058e-001 -6.654047e-001 6.545167e-001 -3.816751e-001 -1.769401e-001 -5.199540e-001 -4.288424e-001 -2.459832e-001 -3.412243e-001 -5.938406e-002 -1.119020e-001 8.745967e-002 7.777152e-003 -6.738810e-002 4.013093e-001
<VARIANCE> 39
 3.429045e+001 1.958423e+001 1.914528e+001 1.722293e+001 1.914292e+001 2.285986e+001 2.040821e+001 2.167023e+001 2.319988e+001 2.022437e+001 1.812803e+001 1.498220e+001 3.540577e+001 5.560770e+000 2.846418e+000 3.827691e+000 4.007715e+000 3.502277e+000 4.055503e+000 3.818826e+000 3.581695e+000 3.854846e+000 3.254601e+000 3.218571e+000 2.457176e+000 3.564549e+000 7.766155e-001 5.945683e-001 5.892035e-001 6.848363e-001 6.294180e-001 6.164365e-001 7.002351e-001 6.623008e-001 6.451573e-001 5.840901e-001 5.369866e-001 4.472431e-001 5.430585e-001
<GCONST> 1.217021e+002
<STATE> 3
<MEAN> 39
 -2.371290e+001 -8.680760e+000 -9.404481e+000 -6.481939e+000 -4.879275e+000 -4.013986e+000 -2.981370e+000 -2.951630e-001 -1.042712e+000 -1.689696e-001 -1.698679e+000 -1.491739e-001 5.327014e+001 5.420840e-001 -7.568033e-002 -7.416780e-002 -1.761568e-001 -7.207102e-002 -8.359019e-002 -1.149497e-001 -9.763932e-002 -4.580835e-003 3.461861e-002 5.933912e-003 -5.368200e-002 1.371820e-001 9.270781e-001 1.443258e-001 1.273043e-001 -1.444734e-001 -6.987571e-002 -6.826704e-002 -1.589568e-001 -1.003846e-001 -1.145977e-001 -9.158968e-002 -6.221522e-002 -1.136437e-001 1.054616e-001
<VARIANCE> 39
 1.118453e+001 1.246228e+001 1.127734e+001 1.253125e+001 1.309902e+001 1.395672e+001 1.482753e+001 1.441429e+001 1.412412e+001 1.421012e+001 1.306511e+001 1.175699e+001 2.273155e+001 3.814546e+000 1.145602e+000 1.322485e+000 1.399409e+000 1.449683e+000 1.614354e+000 1.686629e+000 1.694426e+000 1.649221e+000 1.586904e+000 1.523131e+000 1.356076e+000 1.778747e+000 5.031748e-001 2.713727e-001 3.339396e-001 4.000680e-001 3.986227e-001 4.323011e-001 4.772829e-001 4.236453e-001 4.215326e-001 3.852232e-001 3.785136e-001 3.238168e-001 3.206329e-001
<GCONST> 9.943748e+001
<STATE> 4
<MEAN> 39
 -9.023779e+000 -7.753040e+000 -8.082401e+000 -1.001941e+001 -7.196692e+000 -5.435176e+000 -6.086211e+000 -1.845321e+000 -2.742106e+000 -1.376104e+000 -2.288025e+000 -1.771357e+000 5.574000e+001 4.622102e+000 -4.852002e-001 -1.023238e-001 -1.878860e+000 -1.496079e+000 -5.849120e-001 -1.680421e+000 -2.676508e-001 -6.192248e-001 -3.778161e-001 3.947785e-002 -4.616349e-001 1.380833e+000 -6.240313e-001 -2.761787e-001 -8.283196e-002 -5.168454e-002 -7.012956e-002 8.459029e-002 1.627314e-002 1.727996e-001 6.293654e-002 5.376004e-002 9.680168e-002 6.821132e-002 9.860884e-002
<VARIANCE> 39
 8.672535e+001 3.082230e+001 5.806398e+001 5.908965e+001 4.933856e+001 5.620417e+001 5.871778e+001 4.068753e+001 4.230135e+001 3.003126e+001 3.099816e+001 2.354202e+001 4.340408e+001 5.454962e+000 4.452696e+000 6.024758e+000 6.046593e+000 5.561856e+000 6.836720e+000 6.936892e+000 5.663874e+000 5.492321e+000 4.451643e+000 4.388134e+000 3.271523e+000 4.454084e+000 1.508880e+000 5.233586e-001 6.138508e-001 8.676307e-001 8.163775e-001 7.825793e-001 9.977376e-001 7.244069e-001 7.090061e-001 6.019885e-001 5.429604e-001 4.470244e-001 6.389744e-001
<GCONST> 1.380207e+002
<TRANSP> 5
 0.000000e+000 1.000000e+000 0.000000e+000 0.000000e+000 0.000000e+000
 0.000000e+000 5.160897e-001 4.839103e-001 0.000000e+000 0.000000e+000
 0.000000e+000 0.000000e+000 8.373789e-001 1.626211e-001 0.000000e+000
 0.000000e+000 0.000000e+000 0.000000e+000 6.770857e-001 3.229144e-001
 0.000000e+000 0.000000e+000 0.000000e+000 0.000000e+000 0.000000e+000
<ENDHMM>
