~o
<STREAMINFO> 1 39
<VECSIZE> 39<NULLD><MFCC_D_A_0><DIAGC>
~h "g"
<BEGINHMM>
<NUMSTATES> 5
<STATE> 2
<MEAN> 39
 -9.159162e+000 1.436976e+000 2.872447e-001 -1.609482e-001 -7.199484e+000 -8.894390e+000 -5.965479e+000 -4.794652e+000 -9.753450e+000 -4.406183e+000 -3.125714e+000 -3.820541e+000 4.187882e+001 -1.145116e+000 -3.132271e-001 -1.314485e+000 4.090533e-001 2.036639e+000 1.036105e+000 -5.535917e-002 -9.817802e-002 1.299944e+000 2.186121e-001 -4.028641e-001 2.717901e-001 -9.351684e-001 9.333647e-002 -1.169989e+000 -4.853456e-001 -8.899727e-001 -2.100923e-001 -5.826683e-002 -8.187222e-002 3.571286e-001 3.204490e-001 5.045360e-001 1.692415e-001 1.863816e-001 1.615471e+000
<VARIANCE> 39
 3.071871e+001 3.105663e+001 3.789658e+001 3.796796e+001 5.445161e+001 4.989052e+001 4.520161e+001 5.777029e+001 4.790670e+001 4.147880e+001 4.177900e+001 2.936228e+001 3.916030e+001 2.740836e+000 1.095066e+001 6.146956e+000 6.973622e+000 6.713471e+000 6.224523e+000 6.334179e+000 8.298509e+000 5.866078e+000 6.183671e+000 4.642704e+000 3.428415e+000 1.095616e+001 5.553029e-001 1.075685e+000 8.349212e-001 1.008371e+000 1.102388e+000 1.094837e+000 1.076840e+000 1.060033e+000 9.948916e-001 9.221917e-001 7.877342e-001 5.948271e-001 1.242207e+000
<GCONST> 1.425710e+002
<STATE> 3
<MEAN> 39
 -1.290636e+001 -1.053518e+001 -9.843526e+000 -5.624354e+000 -1.084760e+000 -6.297674e+000 -6.059705e+000 -1.642915e+000 -2.818504e+000 9.704713e-001 -3.042690e+000 -8.912883e-001 5.097925e+001 7.248810e-001 -1.199822e+000 -7.171246e-001 -1.747903e+000 -3.839478e-001 -5.719777e-001 -8.379785e-001 4.819684e-002 4.974581e-001 8.565854e-001 2.653299e-001 3.301183e-001 3.222196e+000 7.765148e-001 9.710587e-001 9.407717e-001 1.731056e-002 -9.217286e-001 -4.339275e-001 -2.980687e-001 -2.262506e-001 -6.283942e-001 -4.386341e-001 1.638633e-001 -2.040176e-001 -1.097104e-001
<VARIANCE> 39
 3.497764e+001 5.273573e+001 6.813489e+001 5.056062e+001 5.610103e+001 6.335163e+001 5.671511e+001 4.996015e+001 4.426336e+001 3.675454e+001 3.034956e+001 2.257576e+001 6.496085e+001 4.706553e+000 9.270026e+000 7.795331e+000 6.833053e+000 6.646861e+000 6.529917e+000 5.810820e+000 6.087175e+000 5.736022e+000 4.991284e+000 3.785328e+000 2.929896e+000 7.087119e+000 5.931538e-001 1.391386e+000 1.089478e+000 1.367406e+000 1.139893e+000 1.228208e+000 1.216414e+000 1.297464e+000 1.096518e+000 1.129288e+000 9.386688e-001 6.486089e-001 1.547257e+000
<GCONST> 1.455246e+002
<STATE> 4
<MEAN> 39
 -5.149009e+000 -6.176187e+000 -4.457818e+000 -8.406625e+000 -7.567561e+000 -1.069213e+001 -1.139981e+001 -3.581655e+000 -6.301077e+000 -9.161578e-001 -1.332481e+000 -1.622121e+000 5.655453e+001 2.239145e+000 3.167553e-002 5.442992e-001 -1.316424e+000 -1.719122e+000 -7.625583e-001 -1.439285e+000 3.636934e-001 -4.302253e-001 -4.856433e-001 6.354761e-001 -1.279088e-001 1.550290e+000 -2.364714e-001 -3.820779e-001 -3.087104e-001 1.351107e-001 1.585072e-001 2.993922e-001 3.187606e-001 3.905102e-001 1.623983e-001 -8.927915e-002 -8.247417e-002 -6.024548e-002 -3.839609e-001
<VARIANCE> 39
 4.204702e+001 3.716064e+001 7.934940e+001 7.515601e+001 7.863309e+001 7.515616e+001 7.737206e+001 6.825088e+001 5.527609e+001 4.904947e+001 4.985343e+001 2.873990e+001 2.695193e+001 3.428459e+000 4.459972e+000 4.592179e+000 6.465246e+000 5.601994e+000 6.994789e+000 7.006117e+000 6.101495e+000 6.565479e+000 6.517247e+000 4.692182e+000 3.499090e+000 1.938533e+000 5.168036e-001 6.906263e-001 6.766608e-001 7.100562e-001 8.815607e-001 8.471019e-001 9.483772e-001 9.065223e-001 8.753747e-001 8.251164e-001 6.813955e-001 5.359698e-001 5.210978e-001
<GCONST> 1.400149e+002
<TRANSP> 5
 0.000000e+000 1.000000e+000 0.000000e+000 0.000000e+000 0.000000e+000
 0.000000e+000 7.049026e-001 2.950974e-001 0.000000e+000 0.000000e+000
 0.000000e+000 0.000000e+000 6.329820e-001 3.670180e-001 0.000000e+000
 0.000000e+000 0.000000e+000 0.000000e+000 5.599195e-001 4.400806e-001
 0.000000e+000 0.000000e+000 0.000000e+000 0.000000e+000 0.000000e+000
<ENDHMM>
