~o
<STREAMINFO> 1 39
<VECSIZE> 39<NULLD><MFCC_D_A_0><DIAGC>
~h "hh"
<BEGINHMM>
<NUMSTATES> 5
<STATE> 2
<MEAN> 39
 -1.261296e+001 -8.234633e+000 -2.488533e+000 -9.427944e+000 -6.743666e+000 -2.310447e+000 2.541092e-001 -8.113914e-001 -3.990609e+000 -2.499962e+000 -4.145183e+000 -1.012672e+000 5.574841e+001 -7.631825e-002 -2.494879e-001 -1.609156e-001 5.063497e-002 3.578126e-001 4.760551e-001 7.287208e-001 -5.553381e-004 9.316566e-002 -1.657255e-001 -2.407615e-001 -8.004704e-002 2.087183e-001 3.653773e-001 9.754679e-002 -1.221582e-002 -1.145947e-001 -2.928270e-001 -2.246629e-001 -3.829523e-001 -1.453334e-001 -1.571327e-001 -4.567768e-002 8.591127e-003 -1.407811e-001 1.516579e-001
<VARIANCE> 39
 2.992588e+001 4.221360e+001 7.728101e+001 5.383680e+001 7.057600e+001 5.393624e+001 5.415657e+001 6.827288e+001 5.479878e+001 4.477234e+001 4.338635e+001 2.864114e+001 3.151596e+001 2.234653e+000 2.079659e+000 2.824066e+000 2.570221e+000 3.408281e+000 3.242085e+000 4.152222e+000 3.518273e+000 3.532305e+000 3.028608e+000 2.716302e+000 2.248356e+000 1.297959e+000 2.951990e-001 4.483459e-001 4.041656e-001 4.981425e-001 5.655679e-001 5.709043e-001 6.891265e-001 6.357862e-001 6.232929e-001 5.825759e-001 5.488285e-001 4.172552e-001 2.045993e-001
<GCONST> 1.253810e+002
<STATE> 3
<MEAN> 39
 -1.059094e+001 -6.097746e+000 -1.029190e+000 -8.935006e+000 -8.026064e+000 -2.681258e+000 4.063386e-001 -2.292397e+000 -5.369340e+000 -3.185583e+000 -4.970901e+000 -2.093591e+000 5.625723e+001 2.101595e+000 2.876870e-001 -1.107736e-001 -7.874749e-001 -1.439722e+000 -9.684041e-001 -1.259744e+000 -4.613443e-001 -6.892521e-001 -4.346370e-001 -2.319439e-001 -5.771736e-001 1.478381e+000 2.288704e-001 -4.532540e-001 -2.579175e-001 -4.169650e-001 -3.459368e-001 -2.814652e-001 -4.450980e-001 1.646795e-001 5.608673e-002 6.616303e-002 1.974559e-001 1.620124e-002 4.146237e-001
<VARIANCE> 39
 2.616728e+001 3.859352e+001 7.774335e+001 5.525343e+001 7.314200e+001 5.998245e+001 5.890082e+001 7.289085e+001 5.256291e+001 4.839799e+001 4.568757e+001 2.934207e+001 3.261438e+001 2.418850e+000 2.247411e+000 4.051281e+000 2.801733e+000 3.462058e+000 3.459390e+000 4.471920e+000 3.651813e+000 3.936918e+000 2.910670e+000 3.308211e+000 2.210359e+000 1.669905e+000 2.940099e-001 3.158375e-001 3.296022e-001 3.360921e-001 4.750741e-001 4.748603e-001 6.254974e-001 5.158439e-001 5.167349e-001 5.594211e-001 4.329967e-001 3.813693e-001 1.691555e-001
<GCONST> 1.245618e+002
<STATE> 4
<MEAN> 39
 -5.829000e+000 -9.010030e+000 -3.067585e+000 -1.304572e+001 -1.283695e+001 -6.479985e+000 -2.539197e+000 -1.403913e+000 -6.508909e+000 -3.863055e+000 -5.068371e+000 -3.182348e+000 6.267503e+001 1.261365e+000 -1.644299e+000 -9.258550e-001 -1.108864e+000 -9.749774e-001 -7.325866e-001 -9.606302e-001 5.471327e-001 2.338888e-001 -4.410243e-002 2.635583e-001 -2.589776e-001 1.742666e+000 -3.940355e-001 -2.795447e-001 5.729401e-002 9.763294e-002 2.359359e-001 1.715069e-001 9.170786e-002 1.787349e-001 2.523572e-001 1.187158e-001 1.297712e-001 8.911264e-002 -1.594743e-001
<VARIANCE> 39
 1.984970e+001 3.829551e+001 8.605582e+001 6.040487e+001 7.407641e+001 6.693742e+001 7.345191e+001 8.344091e+001 6.157729e+001 5.007718e+001 5.853928e+001 3.153693e+001 2.420856e+001 1.380111e+000 2.013685e+000 2.938376e+000 2.504681e+000 3.457323e+000 3.151152e+000 4.474744e+000 3.514908e+000 3.333453e+000 3.111477e+000 2.521083e+000 2.213728e+000 1.187930e+000 2.742179e-001 3.215931e-001 3.819383e-001 3.335909e-001 4.473417e-001 3.894940e-001 5.476125e-001 4.864089e-001 4.238081e-001 4.060257e-001 3.879189e-001 3.200389e-001 2.041387e-001
<GCONST> 1.222365e+002
<TRANSP> 5
 0.000000e+000 1.000000e+000 0.000000e+000 0.000000e+000 0.000000e+000
 0.000000e+000 7.355247e-001 2.644753e-001 0.000000e+000 0.000000e+000
 0.000000e+000 0.000000e+000 4.345153e-001 5.654848e-001 0.000000e+000
 0.000000e+000 0.000000e+000 0.000000e+000 5.324934e-001 4.675066e-001
 0.000000e+000 0.000000e+000 0.000000e+000 0.000000e+000 0.000000e+000
<ENDHMM>
