~o
<STREAMINFO> 1 39
<VECSIZE> 39<NULLD><MFCC_D_A_0><DIAGC>
~h "ia"
<BEGINHMM>
<NUMSTATES> 5
<STATE> 2
<MEAN> 39
 -9.825546e+000 -6.596515e+000 1.201737e+001 -9.672158e+000 -1.728088e+001 -9.342506e+000 -8.679847e+000 -4.068527e+000 -1.232283e+001 -4.950811e+000 -1.258500e+000 -2.678309e+000 5.742004e+001 1.450773e+000 -1.417735e+000 4.247633e-002 6.716524e-001 -1.248579e+000 -2.384834e+000 -4.216040e-001 1.522123e+000 -9.859321e-001 8.934812e-002 9.740034e-001 4.112881e-001 1.218165e+000 4.573546e-001 -2.429035e-001 -9.392794e-001 3.505892e-001 5.180780e-001 -3.835814e-001 -2.106382e-001 6.179436e-001 3.691182e-001 -1.296799e-001 6.748854e-002 1.419164e-001 -2.671224e-001
<VARIANCE> 39
 1.975168e+001 2.440276e+001 2.732070e+001 9.002635e+001 3.565036e+001 5.305592e+001 4.264458e+001 5.037035e+001 3.946429e+001 5.190049e+001 4.065478e+001 2.892916e+001 1.803632e+001 2.849851e+000 2.317140e+000 4.271906e+000 3.332762e+000 3.838642e+000 6.564160e+000 5.410389e+000 4.968221e+000 3.715840e+000 5.040954e+000 2.632097e+000 1.823297e+000 1.732675e+000 4.359083e-001 2.561813e-001 4.455329e-001 6.948005e-001 7.828170e-001 9.677433e-001 8.815445e-001 7.804422e-001 6.711970e-001 6.837723e-001 4.144225e-001 3.924094e-001 2.822510e-001
<GCONST> 1.267007e+002
<STATE> 3
<MEAN> 39
 -5.476720e+000 -1.142459e+001 9.327355e+000 -5.547602e+000 -1.872919e+001 -1.557007e+001 -1.007993e+001 1.787434e+000 -1.408900e+001 -6.316539e+000 2.780201e+000 -1.266338e+000 5.974093e+001 2.250342e+000 -2.037371e+000 -2.182168e+000 8.531465e-001 5.934119e-001 -2.919965e+000 -1.722233e+000 3.034701e+000 4.899631e-001 -8.499742e-001 1.075341e+000 1.033823e+000 8.967195e-001 -1.791387e-001 2.165643e-001 -6.612705e-001 -2.046136e-001 8.639255e-001 6.322755e-001 -3.851350e-001 -1.060181e-001 9.253911e-001 -1.096527e-001 -4.990372e-001 1.409246e-001 -3.495244e-001
<VARIANCE> 39
 1.083246e+001 1.965361e+001 3.532170e+001 6.430418e+001 3.196263e+001 4.027752e+001 5.587094e+001 4.388190e+001 5.468562e+001 8.653516e+001 3.592690e+001 3.027054e+001 1.371152e+001 1.357349e+000 1.224787e+000 2.852261e+000 2.175807e+000 2.694338e+000 4.221839e+000 6.639506e+000 3.859776e+000 4.171134e+000 3.639386e+000 2.777761e+000 2.362794e+000 4.703410e-001 3.107718e-001 2.631205e-001 4.443112e-001 4.432721e-001 4.247430e-001 6.949197e-001 7.067288e-001 6.186723e-001 6.019614e-001 1.018733e+000 3.897035e-001 3.699670e-001 1.518336e-001
<GCONST> 1.191723e+002
<STATE> 4
<MEAN> 39
 -1.877183e+000 -1.364654e+001 2.836788e+000 -3.890603e+000 -1.481403e+001 -1.849887e+001 -1.526393e+001 5.830884e+000 -8.416316e+000 -8.881164e+000 2.337711e+000 1.410897e+000 6.036225e+001 1.533829e+000 -1.040818e+000 -2.667222e+000 1.371274e-001 1.653841e+000 -9.143946e-001 -2.111797e+000 1.546149e+000 1.779953e+000 -1.101238e-001 -3.402459e-001 7.020713e-001 2.866837e-001 -4.663790e-001 5.085222e-001 1.722061e-001 -1.545446e-001 1.777385e-001 9.036444e-001 3.070247e-001 -7.751267e-001 1.741787e-001 2.709928e-001 -4.203521e-001 -2.196311e-001 -3.832595e-001
<VARIANCE> 39
 1.308669e+001 2.326604e+001 6.041367e+001 5.550954e+001 5.347469e+001 4.500761e+001 9.047736e+001 5.176072e+001 8.213025e+001 6.872594e+001 4.232440e+001 3.240117e+001 1.391997e+001 8.775855e-001 1.144765e+000 2.710786e+000 1.918733e+000 2.656471e+000 3.686390e+000 4.680197e+000 3.872543e+000 3.554759e+000 3.542191e+000 2.307405e+000 1.924963e+000 4.095835e-001 2.502191e-001 2.743548e-001 4.397078e-001 4.342889e-001 5.468656e-001 6.944202e-001 1.112352e+000 7.172769e-001 7.441207e-001 7.282050e-001 4.888044e-001 3.119472e-001 1.205824e-001
<GCONST> 1.200732e+002
<TRANSP> 5
 0.000000e+000 1.000000e+000 0.000000e+000 0.000000e+000 0.000000e+000
 0.000000e+000 5.102659e-001 4.897341e-001 0.000000e+000 0.000000e+000
 0.000000e+000 0.000000e+000 2.651708e-001 7.348292e-001 0.000000e+000
 0.000000e+000 0.000000e+000 0.000000e+000 3.894084e-001 6.105916e-001
 0.000000e+000 0.000000e+000 0.000000e+000 0.000000e+000 0.000000e+000
<ENDHMM>
