~o
<STREAMINFO> 1 39
<VECSIZE> 39<NULLD><MFCC_D_A_0><DIAGC>
~h "ih"
<BEGINHMM>
<NUMSTATES> 5
<STATE> 2
<MEAN> 39
 -5.427144e+000 -1.050266e+001 1.576939e+000 -1.185040e+001 -1.655606e+001 -1.199391e+001 -9.578575e+000 9.736954e-001 -5.544705e+000 -2.610231e+000 -2.074218e+000 -1.528444e+000 6.194157e+001 5.959603e-001 -6.099745e-001 1.273272e-001 -1.503392e-001 -5.136352e-001 -3.691309e-001 -3.167764e-001 5.981420e-001 -1.282945e-002 -1.253671e-001 -1.677797e-002 2.441035e-002 3.400250e-001 -3.356460e-001 4.178298e-001 -2.398302e-001 2.705004e-001 5.149167e-001 2.599261e-001 2.306598e-001 -2.552636e-001 -5.075935e-002 3.406399e-002 -4.075332e-002 -2.936925e-002 -5.516765e-001
<VARIANCE> 39
 1.512945e+001 3.297686e+001 6.104475e+001 6.834607e+001 5.650013e+001 6.195888e+001 7.603270e+001 6.877783e+001 7.413523e+001 5.568312e+001 5.724675e+001 3.639962e+001 2.190796e+001 2.362496e+000 2.034159e+000 2.987186e+000 2.616985e+000 3.765385e+000 3.342154e+000 4.093090e+000 3.693106e+000 3.664573e+000 2.972664e+000 2.710006e+000 2.149797e+000 1.355229e+000 4.512554e-001 3.330103e-001 3.796645e-001 4.584813e-001 5.643052e-001 6.171799e-001 7.350746e-001 6.913812e-001 6.545319e-001 5.460338e-001 4.897844e-001 3.894239e-001 3.338675e-001
<GCONST> 1.261738e+002
<STATE> 3
<MEAN> 39
 -4.802123e+000 -1.063048e+001 1.186830e+000 -1.125204e+001 -1.547523e+001 -1.171373e+001 -1.068611e+001 1.561716e+000 -6.323956e+000 -2.778665e+000 -2.649703e+000 -2.174461e+000 6.058483e+001 -2.837622e-001 1.648444e+000 -4.271715e-001 1.161335e+000 1.189329e+000 2.952596e-001 5.945479e-001 -1.266504e+000 -5.091168e-001 1.039869e-001 -2.914478e-001 -2.855940e-001 -1.984749e+000 -5.980247e-001 7.651361e-001 -3.782967e-001 4.725163e-001 7.165927e-001 4.002678e-001 5.136813e-001 -5.637258e-001 3.091140e-002 1.052434e-001 -5.661627e-002 -4.512610e-002 -8.338056e-001
<VARIANCE> 39
 1.317285e+001 2.977505e+001 5.596125e+001 6.530500e+001 5.611208e+001 6.708247e+001 7.914841e+001 7.125871e+001 8.647633e+001 6.263000e+001 6.762705e+001 4.457995e+001 2.158407e+001 1.916705e+000 2.679605e+000 3.686221e+000 3.994789e+000 4.334804e+000 4.249814e+000 4.939343e+000 5.512956e+000 5.291869e+000 4.453148e+000 3.810814e+000 3.083717e+000 3.274590e+000 6.061402e-001 4.918332e-001 6.195264e-001 7.546763e-001 9.174973e-001 1.022247e+000 1.042128e+000 1.095518e+000 1.163425e+000 9.508724e-001 8.235158e-001 6.623568e-001 5.856825e-001
<GCONST> 1.368155e+002
<STATE> 4
<MEAN> 39
 -8.596790e+000 -2.834315e+000 -1.403283e+000 -6.872710e+000 -9.437734e+000 -1.080330e+001 -7.256167e+000 -3.159005e+000 -5.797623e+000 -2.387726e+000 -3.763698e+000 -2.108392e+000 5.422828e+001 -2.252095e+000 2.039014e+000 -9.784975e-001 1.295057e+000 2.212906e+000 1.461563e+000 1.454490e+000 -9.961295e-001 -4.745123e-002 1.787520e-001 -7.787123e-002 -1.360669e-001 -2.491477e+000 -3.109210e-001 -4.755653e-001 -8.888061e-002 -2.802987e-001 -1.140140e-001 2.582160e-001 4.764257e-002 3.362870e-001 1.696486e-001 8.362357e-002 1.556877e-001 8.929710e-002 2.889985e-001
<VARIANCE> 39
 4.597393e+001 4.000322e+001 4.713076e+001 5.211207e+001 5.894635e+001 5.482943e+001 5.988395e+001 6.426035e+001 6.624480e+001 4.854631e+001 4.857313e+001 3.808719e+001 4.899357e+001 6.621345e+000 3.726331e+000 3.732806e+000 5.415916e+000 4.945016e+000 5.982848e+000 5.817328e+000 7.105525e+000 5.859263e+000 4.850780e+000 4.371686e+000 3.600518e+000 6.324975e+000 5.472056e-001 5.541592e-001 5.220787e-001 5.874314e-001 7.242851e-001 7.563113e-001 7.800934e-001 8.235306e-001 7.911413e-001 7.038463e-001 6.074646e-001 5.082692e-001 5.915765e-001
<GCONST> 1.383912e+002
<TRANSP> 5
 0.000000e+000 1.000000e+000 0.000000e+000 0.000000e+000 0.000000e+000
 0.000000e+000 7.055849e-001 2.944152e-001 0.000000e+000 0.000000e+000
 0.000000e+000 0.000000e+000 4.914788e-001 5.085212e-001 0.000000e+000
 0.000000e+000 0.000000e+000 0.000000e+000 4.463456e-001 5.536544e-001
 0.000000e+000 0.000000e+000 0.000000e+000 0.000000e+000 0.000000e+000
<ENDHMM>
