~o
<STREAMINFO> 1 39
<VECSIZE> 39<NULLD><MFCC_D_A_0><DIAGC>
~h "iy"
<BEGINHMM>
<NUMSTATES> 5
<STATE> 2
<MEAN> 39
 -6.124026e+000 -9.986621e+000 6.099311e+000 -9.819903e+000 -1.807688e+001 -1.255350e+001 -1.116331e+001 2.610224e-001 -9.335869e+000 -4.580567e+000 -2.881796e-001 -1.543841e+000 6.158424e+001 -4.213334e-002 -2.871216e-001 2.544647e+000 -8.554668e-001 -2.374484e+000 3.319287e-001 3.761168e-001 -1.614476e-001 -1.610953e+000 4.655958e-002 5.342472e-001 -2.201230e-001 5.280030e-001 -3.101535e-001 4.122764e-001 -5.369103e-001 -1.533476e-002 6.703014e-001 5.261243e-001 2.168336e-001 -3.469568e-001 2.176497e-001 2.900412e-001 -9.027382e-002 -9.334023e-002 -4.190959e-001
<VARIANCE> 39
 1.823310e+001 3.595873e+001 6.269162e+001 7.187858e+001 5.170023e+001 6.596670e+001 7.539280e+001 8.701640e+001 8.175833e+001 6.848170e+001 5.864042e+001 3.603857e+001 1.670160e+001 3.417825e+000 2.447807e+000 2.641660e+000 4.589664e+000 3.462137e+000 5.273757e+000 6.253303e+000 5.899382e+000 4.702428e+000 4.978834e+000 4.009314e+000 3.058025e+000 1.088148e+000 4.754176e-001 3.382942e-001 5.738049e-001 5.640937e-001 7.266899e-001 6.724490e-001 9.410444e-001 9.960587e-001 1.043090e+000 7.309531e-001 6.530308e-001 4.990837e-001 2.272239e-001
<GCONST> 1.328671e+002
<STATE> 3
<MEAN> 39
 -8.821843e+000 -6.412148e+000 1.083799e+001 -1.420427e+001 -2.129378e+001 -7.691540e+000 -8.667616e+000 -4.933047e+000 -1.184454e+001 -1.886464e+000 -1.686818e+000 -3.048233e+000 6.065917e+001 -8.021278e-002 3.175651e-001 3.487554e-002 2.462275e-002 6.776556e-002 2.680673e-001 2.114595e-001 -2.670541e-001 -2.320629e-002 1.741260e-001 -1.778272e-001 -1.389209e-001 -3.039120e-001 4.373223e-002 3.225847e-002 -5.450713e-001 3.840275e-001 4.589145e-001 -2.288334e-001 8.005568e-002 1.679822e-001 2.545908e-001 -1.138261e-001 -5.557846e-002 6.863811e-002 -2.127937e-001
<VARIANCE> 39
 1.278073e+001 3.497935e+001 3.820474e+001 8.776363e+001 3.687111e+001 6.138553e+001 5.434452e+001 7.529375e+001 5.249318e+001 6.828442e+001 8.020406e+001 3.764695e+001 2.096888e+001 5.159829e-001 1.216848e+000 1.517040e+000 1.677822e+000 1.392290e+000 2.256490e+000 2.084385e+000 2.328361e+000 1.984607e+000 1.821940e+000 1.560724e+000 1.314343e+000 5.408728e-001 1.399933e-001 2.151585e-001 3.385477e-001 3.652684e-001 4.663535e-001 3.955705e-001 4.347929e-001 4.101964e-001 4.441040e-001 4.206186e-001 3.736878e-001 2.755694e-001 1.466665e-001
<GCONST> 1.108840e+002
<STATE> 4
<MEAN> 39
 -8.450260e+000 -5.063710e+000 5.811941e+000 -8.389400e+000 -1.555145e+001 -1.024679e+001 -7.891236e+000 -3.604545e+000 -1.090302e+001 -3.089547e+000 -1.609433e+000 -2.779486e+000 5.708562e+001 -6.957766e-001 1.115432e+000 -2.729880e+000 1.087841e+000 2.767819e+000 3.496797e-001 8.170503e-001 2.633072e-002 1.230566e+000 6.774658e-002 -2.540791e-001 1.958099e-001 -1.656908e+000 -2.613675e-001 -2.661151e-002 -3.614489e-001 -1.788144e-001 2.617478e-001 3.800176e-001 9.534038e-002 7.357351e-002 2.227680e-001 7.342685e-002 1.717588e-002 7.596961e-002 -8.788671e-002
<VARIANCE> 39
 3.592069e+001 4.562794e+001 6.015288e+001 6.962357e+001 6.186252e+001 6.066872e+001 6.670403e+001 7.765697e+001 6.005666e+001 5.481834e+001 6.159452e+001 3.452347e+001 4.182529e+001 5.276899e+000 3.551524e+000 3.434761e+000 5.937097e+000 4.574001e+000 6.190125e+000 5.957462e+000 5.877596e+000 4.850613e+000 4.987381e+000 4.097557e+000 2.959653e+000 4.082521e+000 3.858502e-001 6.273386e-001 7.689225e-001 7.605438e-001 1.088336e+000 8.447837e-001 8.536081e-001 9.793359e-001 8.195612e-001 7.096512e-001 6.014531e-001 4.674475e-001 5.449439e-001
<GCONST> 1.389940e+002
<TRANSP> 5
 0.000000e+000 1.000000e+000 0.000000e+000 0.000000e+000 0.000000e+000
 0.000000e+000 5.823421e-001 4.176580e-001 0.000000e+000 0.000000e+000
 0.000000e+000 0.000000e+000 7.858362e-001 2.141638e-001 0.000000e+000
 0.000000e+000 0.000000e+000 0.000000e+000 6.643749e-001 3.356251e-001
 0.000000e+000 0.000000e+000 0.000000e+000 0.000000e+000 0.000000e+000
<ENDHMM>
