~o
<STREAMINFO> 1 39
<VECSIZE> 39<NULLD><MFCC_D_A_0><DIAGC>
~h "jh"
<BEGINHMM>
<NUMSTATES> 5
<STATE> 2
<MEAN> 39
 -2.683465e+001 -4.819725e+000 1.940841e+000 -1.186312e+001 -4.409635e+000 1.096251e-001 -4.952360e+000 -1.340324e+000 -1.456219e+000 -2.577181e+000 -9.736416e-001 -5.520085e-001 5.653325e+001 -2.768133e+000 2.342392e-001 6.071265e-001 -7.779406e-001 -9.169605e-001 5.713205e-002 9.216131e-001 4.715333e-001 6.498982e-001 6.434996e-001 7.870170e-001 5.730684e-001 2.786370e+000 1.614473e+000 3.819269e-001 2.577286e-001 8.452395e-001 -5.863450e-001 -9.395657e-001 -2.598138e-001 -2.417423e-001 -5.198917e-001 -3.114369e-001 -3.838161e-001 -1.680942e-001 -6.935960e-001
<VARIANCE> 39
 3.491833e+001 3.843689e+001 4.470682e+001 3.376196e+001 3.740356e+001 3.030815e+001 2.511308e+001 2.734151e+001 2.548187e+001 2.093539e+001 1.748476e+001 1.360184e+001 1.809064e+001 4.234865e+000 3.907066e+000 3.547919e+000 3.713709e+000 3.588590e+000 3.770909e+000 2.484572e+000 3.124234e+000 2.666379e+000 2.364420e+000 2.288839e+000 1.694803e+000 3.374870e+000 9.382584e-001 9.725737e-001 8.324646e-001 8.166970e-001 9.042810e-001 8.297107e-001 6.692683e-001 8.255379e-001 6.713862e-001 5.878664e-001 5.273246e-001 3.990926e-001 6.735321e-001
<GCONST> 1.246208e+002
<STATE> 3
<MEAN> 39
 -2.855584e+001 -4.492589e+000 4.859903e+000 -9.663417e+000 -7.532692e+000 -1.349553e+000 -2.398562e+000 -1.278761e+000 -1.068648e+000 -2.266142e+000 -1.007873e+000 2.816921e-003 5.852455e+001 1.990079e+000 -2.823816e-003 3.924452e-001 7.235341e-001 -1.296898e+000 -1.787184e+000 -3.792720e-001 -2.422326e-001 -6.204178e-001 -3.957445e-001 -2.589713e-001 -4.398694e-002 2.200185e-001 1.506016e+000 -2.906857e-001 -3.067307e-001 1.884152e-001 -5.863085e-002 -4.819489e-001 -5.538629e-001 1.335531e-003 -2.908140e-001 -1.881538e-001 -1.126791e-001 -9.683935e-002 -6.326541e-001
<VARIANCE> 39
 2.697371e+001 3.083970e+001 3.386190e+001 3.190310e+001 3.678075e+001 2.838851e+001 2.839904e+001 2.724488e+001 2.523038e+001 2.051881e+001 1.625628e+001 1.434805e+001 1.634613e+001 5.536026e+000 1.844050e+000 2.912634e+000 2.573524e+000 4.076836e+000 4.494241e+000 2.895654e+000 2.682306e+000 2.608175e+000 1.994111e+000 1.780251e+000 1.401465e+000 3.231049e+000 1.041020e+000 5.156332e-001 5.114976e-001 5.008744e-001 6.313674e-001 7.831077e-001 6.965399e-001 6.042166e-001 5.574868e-001 4.843201e-001 4.203170e-001 3.537170e-001 3.994128e-001
<GCONST> 1.188282e+002
<STATE> 4
<MEAN> 39
 -1.457203e+001 -5.464233e+000 4.528892e+000 -7.527511e+000 -1.251528e+001 -1.043396e+001 -7.558971e+000 -2.587710e+000 -4.768021e+000 -4.736441e+000 -2.121267e+000 -5.581596e-001 5.840070e+001 4.791848e+000 -1.430509e+000 -8.518232e-001 1.653970e-001 -1.148357e+000 -2.312746e+000 -1.831637e+000 5.456352e-001 -7.614694e-001 -3.136153e-001 -3.293790e-003 4.116328e-002 -2.724505e-001 -2.880697e-001 -3.511037e-001 -4.844907e-001 -3.239675e-001 5.536887e-001 7.072247e-001 7.098383e-002 3.214015e-001 2.570742e-001 2.364438e-001 9.126981e-002 -2.756251e-003 -2.049406e-001
<VARIANCE> 39
 4.707250e+001 3.026751e+001 3.557735e+001 5.152664e+001 4.093562e+001 4.434322e+001 4.072523e+001 3.557727e+001 3.945795e+001 2.721210e+001 2.298085e+001 1.774925e+001 4.524507e+001 4.083649e+000 3.962158e+000 4.318811e+000 3.817174e+000 6.498584e+000 6.824854e+000 6.463885e+000 5.480567e+000 4.886278e+000 4.450485e+000 3.481737e+000 2.732692e+000 4.894377e+000 9.576100e-001 5.305791e-001 4.671247e-001 5.141303e-001 7.650095e-001 7.994332e-001 9.467776e-001 8.060648e-001 6.264073e-001 5.863701e-001 4.736401e-001 4.079454e-001 6.244338e-001
<GCONST> 1.319216e+002
<TRANSP> 5
 0.000000e+000 1.000000e+000 0.000000e+000 0.000000e+000 0.000000e+000
 0.000000e+000 4.781169e-001 5.218831e-001 0.000000e+000 0.000000e+000
 0.000000e+000 0.000000e+000 6.387107e-001 3.612892e-001 0.000000e+000
 0.000000e+000 0.000000e+000 0.000000e+000 5.342602e-001 4.657398e-001
 0.000000e+000 0.000000e+000 0.000000e+000 0.000000e+000 0.000000e+000
<ENDHMM>
