~o
<STREAMINFO> 1 39
<VECSIZE> 39<NULLD><MFCC_D_A_0><DIAGC>
~h "k"
<BEGINHMM>
<NUMSTATES> 5
<STATE> 2
<MEAN> 39
 -1.719809e+001 -3.272609e+000 -4.470742e+000 -9.902787e-001 -2.393296e+000 -3.635025e+000 -3.092180e+000 -3.223544e-001 -3.123936e+000 -1.567170e-001 -1.274546e+000 -9.619158e-001 3.736482e+001 -1.289801e+000 -7.837657e-001 -1.019758e+000 -9.184688e-002 8.578322e-001 1.329935e+000 5.983140e-001 -1.249309e-002 8.823847e-001 4.983101e-001 5.269802e-002 3.099905e-001 -7.952936e-001 5.058399e-001 -6.646466e-001 -1.728315e-001 -8.355707e-001 -5.240746e-001 -5.390444e-001 -2.260339e-001 1.542891e-001 -1.449267e-001 4.229179e-002 -6.492320e-002 -2.935538e-002 1.998751e+000
<VARIANCE> 39
 3.055255e+001 2.431996e+001 3.506676e+001 2.731740e+001 4.212178e+001 4.806451e+001 4.086857e+001 4.184656e+001 4.474953e+001 3.059515e+001 2.700154e+001 2.161222e+001 4.533228e+001 6.352171e+000 6.231277e+000 6.007075e+000 6.979786e+000 7.582985e+000 7.378219e+000 5.991861e+000 6.040791e+000 6.343117e+000 4.295949e+000 4.238086e+000 2.897990e+000 2.121140e+001 7.999356e-001 9.541349e-001 9.466172e-001 8.874670e-001 1.046571e+000 1.238626e+000 1.013738e+000 1.050099e+000 1.105662e+000 7.786108e-001 7.528439e-001 5.364159e-001 1.870464e+000
<GCONST> 1.409580e+002
<STATE> 3
<MEAN> 39
 -1.658747e+001 -1.255375e+001 -1.001990e+001 -9.116738e+000 -3.437157e+000 -5.175128e+000 -4.014152e+000 6.432479e-001 -2.489260e+000 2.685900e+000 -2.114280e+000 -7.887435e-002 5.449318e+001 6.895662e-002 1.138385e-001 1.493979e-001 -1.392893e+000 -6.143890e-001 -7.620969e-001 4.993171e-002 -1.208719e-001 -4.537418e-003 6.302313e-002 -1.413967e-001 3.753648e-002 3.368191e+000 1.124881e-001 1.027491e+000 6.890573e-001 5.037527e-001 -6.257940e-002 4.424883e-002 9.355229e-002 -1.216126e-001 -1.268289e-001 -4.103680e-001 7.120509e-002 -1.314913e-001 -9.782676e-001
<VARIANCE> 39
 2.956125e+001 3.400861e+001 6.255487e+001 4.563317e+001 5.209280e+001 4.873940e+001 4.980346e+001 4.391405e+001 4.044639e+001 3.403389e+001 2.805063e+001 2.200699e+001 4.805249e+001 4.919019e+000 6.113400e+000 4.641544e+000 5.110394e+000 4.246913e+000 4.432154e+000 4.202806e+000 3.838553e+000 4.064690e+000 3.368519e+000 2.919207e+000 2.402632e+000 1.131915e+001 7.844294e-001 8.008631e-001 8.386241e-001 9.312343e-001 9.530687e-001 9.929727e-001 9.262927e-001 8.802299e-001 9.504129e-001 7.521499e-001 6.648261e-001 5.635628e-001 1.658346e+000
<GCONST> 1.370959e+002
<STATE> 4
<MEAN> 39
 -1.211736e+001 -7.103858e+000 -4.481768e+000 -9.919239e+000 -7.149249e+000 -6.227551e+000 -3.214180e+000 -1.304566e+000 -4.509428e+000 -9.001509e-001 -2.445687e+000 -1.490610e+000 5.656274e+001 2.271159e+000 6.364919e-002 4.205667e-001 -5.065724e-001 -1.414506e+000 -6.153391e-001 -7.448912e-001 -6.017524e-002 -6.953954e-001 -9.637797e-001 8.552113e-002 -5.228770e-001 1.059975e+000 6.953054e-002 -4.520296e-001 -2.933697e-001 -9.130155e-002 -3.671687e-002 5.716045e-002 -2.012967e-001 1.742320e-001 9.996063e-002 1.313058e-001 7.342446e-002 6.597158e-003 -1.487663e-002
<VARIANCE> 39
 7.666872e+001 3.348978e+001 6.659959e+001 5.706033e+001 6.518581e+001 6.159956e+001 6.103993e+001 5.773538e+001 4.968578e+001 3.703929e+001 4.113400e+001 2.771625e+001 4.362038e+001 4.949365e+000 4.334172e+000 3.946569e+000 5.069293e+000 5.157756e+000 5.610466e+000 6.053092e+000 5.877307e+000 5.477488e+000 4.334026e+000 4.379024e+000 3.174067e+000 3.434335e+000 9.423070e-001 5.039343e-001 5.407282e-001 6.907746e-001 8.433487e-001 8.168724e-001 8.902377e-001 8.709995e-001 8.609717e-001 7.002553e-001 6.690007e-001 5.214450e-001 7.656246e-001
<GCONST> 1.384168e+002
<TRANSP> 5
 0.000000e+000 1.000000e+000 0.000000e+000 0.000000e+000 0.000000e+000
 0.000000e+000 7.722303e-001 2.277697e-001 0.000000e+000 0.000000e+000
 0.000000e+000 0.000000e+000 6.693097e-001 3.306903e-001 0.000000e+000
 0.000000e+000 0.000000e+000 0.000000e+000 7.116671e-001 2.883330e-001
 0.000000e+000 0.000000e+000 0.000000e+000 0.000000e+000 0.000000e+000
<ENDHMM>
