~o
<STREAMINFO> 1 39
<VECSIZE> 39<NULLD><MFCC_D_A_0><DIAGC>
~h "l"
<BEGINHMM>
<NUMSTATES> 5
<STATE> 2
<MEAN> 39
 -1.671955e+000 -4.516650e+000 -9.887838e+000 -2.199466e+001 -8.191808e+000 -6.869121e-001 -8.850212e+000 -7.740196e+000 -4.437826e+000 -4.558862e-003 -5.056377e-001 -2.731208e+000 5.924730e+001 9.238956e-001 2.649140e-001 -2.997114e-001 -1.706892e+000 -2.148878e-001 7.927060e-001 -3.600154e-001 -3.798481e-001 -3.764856e-001 9.004443e-002 3.504413e-001 1.107048e-001 1.936964e-001 -4.727630e-001 -3.177063e-001 9.954792e-002 6.225412e-001 1.012913e-001 -2.595519e-001 1.271650e-001 4.863531e-001 2.519920e-001 -4.939669e-002 -1.756378e-001 -2.427196e-002 -5.019745e-002
<VARIANCE> 39
 1.490175e+001 4.422757e+001 5.047683e+001 7.892192e+001 5.919970e+001 7.916385e+001 7.885767e+001 6.365581e+001 6.147414e+001 6.008692e+001 6.701709e+001 3.976864e+001 2.481431e+001 2.351157e+000 3.620591e+000 3.013956e+000 5.785822e+000 4.581117e+000 5.436842e+000 5.481680e+000 5.480865e+000 4.883162e+000 4.553882e+000 3.934305e+000 3.498883e+000 2.333580e+000 4.999455e-001 5.192109e-001 4.611442e-001 9.396489e-001 8.295832e-001 8.720990e-001 9.606339e-001 9.768853e-001 1.016816e+000 9.014999e-001 7.728430e-001 6.403950e-001 3.132535e-001
<GCONST> 1.364115e+002
<STATE> 3
<MEAN> 39
 -4.015984e-001 -3.424709e+000 -1.135544e+001 -2.591941e+001 -8.935493e+000 2.130395e+000 -6.960279e+000 -5.855432e+000 -4.631313e+000 -1.525257e+000 -1.731904e-002 -1.865755e+000 5.834753e+001 -2.123098e-001 -1.964232e-001 6.811524e-002 4.947220e-001 2.965152e-001 -3.548679e-001 -2.761657e-001 2.165302e-001 2.657156e-001 1.430160e-001 -2.070389e-001 -2.609043e-001 9.413332e-003 -2.872621e-001 -2.413372e-001 1.392858e-001 6.475927e-001 1.300949e-001 -2.980475e-001 -2.920198e-002 1.394671e-001 2.073620e-001 4.767410e-002 -1.956273e-001 -1.340574e-001 -5.116096e-003
<VARIANCE> 39
 9.736151e+000 4.295527e+001 4.850309e+001 6.821680e+001 6.744141e+001 6.440923e+001 7.727641e+001 6.261940e+001 5.724790e+001 5.816264e+001 5.569591e+001 4.038934e+001 2.642484e+001 5.317275e-001 2.817187e+000 1.627363e+000 3.151500e+000 2.491440e+000 2.979624e+000 3.078223e+000 3.185838e+000 3.559154e+000 3.149489e+000 2.585710e+000 2.473914e+000 1.473554e+000 1.848206e-001 3.400228e-001 2.984339e-001 5.688785e-001 5.406694e-001 5.750934e-001 5.689849e-001 6.937537e-001 6.479265e-001 6.121154e-001 5.333633e-001 4.712368e-001 2.381566e-001
<GCONST> 1.223901e+002
<STATE> 4
<MEAN> 39
 -4.138394e+000 -5.998460e+000 -7.628553e+000 -1.746815e+001 -7.597365e+000 -4.222667e+000 -9.971641e+000 -4.247669e+000 -3.110476e+000 -4.917571e-001 -2.589957e+000 -3.359822e+000 5.879543e+001 -1.536101e+000 -4.846343e-001 1.415638e+000 2.431813e+000 -2.187185e-001 -1.317968e+000 3.090802e-001 1.081515e+000 1.595473e-001 -4.587066e-001 -6.341144e-001 9.645100e-003 -3.669395e-001 -1.810452e-001 3.580606e-002 1.975785e-001 -3.056855e-002 -1.780321e-001 1.533830e-001 2.960404e-001 5.845744e-002 -1.947767e-001 -1.267675e-001 1.071944e-001 1.511117e-001 -1.439736e-001
<VARIANCE> 39
 2.501359e+001 5.080893e+001 7.669115e+001 8.123706e+001 6.379017e+001 8.713857e+001 7.795639e+001 6.867544e+001 7.057218e+001 6.040908e+001 5.993680e+001 4.187119e+001 4.684732e+001 3.568310e+000 4.203852e+000 4.386768e+000 7.245594e+000 7.116660e+000 6.066351e+000 5.640838e+000 6.659832e+000 7.330002e+000 5.421252e+000 4.350091e+000 3.966802e+000 4.409115e+000 4.035694e-001 4.917928e-001 5.360666e-001 9.870853e-001 8.702013e-001 9.431803e-001 8.682885e-001 1.080137e+000 1.132876e+000 9.653013e-001 7.185914e-001 6.705314e-001 3.575589e-001
<GCONST> 1.421912e+002
<TRANSP> 5
 0.000000e+000 1.000000e+000 0.000000e+000 0.000000e+000 0.000000e+000
 0.000000e+000 4.399607e-001 5.600393e-001 0.000000e+000 0.000000e+000
 0.000000e+000 0.000000e+000 6.931684e-001 3.068316e-001 0.000000e+000
 0.000000e+000 0.000000e+000 0.000000e+000 5.848811e-001 4.151189e-001
 0.000000e+000 0.000000e+000 0.000000e+000 0.000000e+000 0.000000e+000
<ENDHMM>
