~o
<STREAMINFO> 1 39
<VECSIZE> 39<NULLD><MFCC_D_A_0><DIAGC>
~h "m"
<BEGINHMM>
<NUMSTATES> 5
<STATE> 2
<MEAN> 39
 -3.116352e+000 -4.351003e+000 -4.848400e+000 -5.163806e+000 -7.625397e+000 -7.828985e+000 -7.860830e+000 -8.307124e+000 -1.146928e+001 -2.494489e+000 -1.998039e+000 -5.856926e+000 5.245688e+001 -9.388847e-002 1.132198e+000 9.136624e-001 1.519990e+000 1.863861e-001 -8.681045e-001 1.441398e-001 -1.817928e+000 -1.952131e+000 3.349700e-001 2.008010e-001 -5.585545e-001 -8.812487e-001 -3.541532e-001 -4.019833e-001 2.350876e-003 -4.329501e-001 -1.347428e-001 2.691404e-001 5.657655e-002 6.078629e-001 5.788001e-001 -2.074718e-002 -1.216307e-001 2.207114e-001 3.536504e-001
<VARIANCE> 39
 9.231291e+000 2.784592e+001 3.447083e+001 5.264859e+001 4.861586e+001 6.149082e+001 6.310435e+001 7.117696e+001 7.181113e+001 6.020750e+001 7.503142e+001 5.000106e+001 2.078578e+001 2.963610e+000 3.802891e+000 4.004799e+000 4.555211e+000 4.800068e+000 4.068882e+000 5.355166e+000 5.578141e+000 5.911724e+000 4.700396e+000 4.519423e+000 3.740839e+000 4.751146e+000 4.402421e-001 4.029862e-001 6.174023e-001 6.382989e-001 6.797819e-001 6.932774e-001 8.168579e-001 9.364890e-001 1.045419e+000 7.819905e-001 7.779967e-001 6.120366e-001 2.844724e-001
<GCONST> 1.343033e+002
<STATE> 3
<MEAN> 39
 -4.052701e+000 -3.346426e+000 -3.096236e+000 -3.577091e+000 -7.675697e+000 -8.411263e+000 -7.331943e+000 -1.047908e+001 -1.320871e+001 -1.365741e+000 -2.388850e+000 -6.808501e+000 5.176889e+001 -1.887151e-001 -1.782463e-001 4.389223e-002 -3.411517e-001 -1.074678e-001 2.428617e-001 -2.337196e-002 4.187835e-001 5.632821e-001 -2.005591e-001 -1.851317e-001 2.341988e-001 2.627911e-001 -8.700021e-002 -4.064080e-001 -2.608429e-001 -6.263422e-001 -1.325897e-001 3.294691e-001 -3.268365e-003 7.354090e-001 7.606186e-001 -1.399760e-001 -7.099591e-002 2.774299e-001 3.566214e-001
<VARIANCE> 39
 8.317060e+000 2.449807e+001 3.111106e+001 5.019433e+001 5.122927e+001 7.087535e+001 6.580349e+001 6.680388e+001 6.225183e+001 6.109386e+001 8.317014e+001 5.402464e+001 2.078637e+001 8.609505e-001 2.045143e+000 1.832102e+000 2.653492e+000 2.300271e+000 2.139506e+000 2.509703e+000 3.238875e+000 3.768570e+000 2.543210e+000 2.537585e+000 2.189423e+000 2.139465e+000 2.950826e-001 2.994047e-001 4.940091e-001 5.009424e-001 5.652497e-001 5.382457e-001 6.493418e-001 6.887793e-001 8.401832e-001 6.596242e-001 6.818553e-001 5.683224e-001 2.565959e-001
<GCONST> 1.224771e+002
<STATE> 4
<MEAN> 39
 -4.870830e+000 -6.679077e+000 -4.497338e+000 -9.142344e+000 -9.358853e+000 -6.318853e+000 -7.832603e+000 -4.317708e+000 -6.988054e+000 -3.534306e+000 -3.202154e+000 -4.222285e+000 5.604993e+001 -7.392017e-001 -1.466024e+000 -1.622821e-001 -2.332587e+000 -7.791864e-001 1.147169e+000 1.553983e-001 2.482196e+000 2.003822e+000 -3.092002e-001 -1.679294e-001 8.834781e-001 1.675630e+000 -1.772584e-001 6.810379e-002 1.072109e-001 6.086288e-002 1.800086e-002 2.786555e-002 1.523072e-001 -7.281543e-002 -2.372203e-001 1.966642e-001 4.536292e-002 -5.978818e-002 -9.621909e-002
<VARIANCE> 39
 2.806075e+001 4.673050e+001 5.742179e+001 6.750399e+001 6.526592e+001 6.709932e+001 5.629347e+001 6.645392e+001 6.475820e+001 4.619030e+001 5.517592e+001 3.683751e+001 4.858093e+001 4.070635e+000 3.256080e+000 6.639419e+000 5.386047e+000 7.118771e+000 5.164258e+000 5.702342e+000 5.668082e+000 7.146283e+000 5.362049e+000 5.351774e+000 4.140933e+000 3.118698e+000 3.263359e-001 6.307270e-001 6.104183e-001 8.388324e-001 7.310365e-001 7.101616e-001 7.402833e-001 1.008061e+000 1.019682e+000 6.681632e-001 6.482003e-001 5.125906e-001 5.006478e-001
<GCONST> 1.389814e+002
<TRANSP> 5
 0.000000e+000 1.000000e+000 0.000000e+000 0.000000e+000 0.000000e+000
 0.000000e+000 4.216552e-001 5.783448e-001 0.000000e+000 0.000000e+000
 0.000000e+000 0.000000e+000 6.962230e-001 3.037771e-001 0.000000e+000
 0.000000e+000 0.000000e+000 0.000000e+000 5.480639e-001 4.519361e-001
 0.000000e+000 0.000000e+000 0.000000e+000 0.000000e+000 0.000000e+000
<ENDHMM>
