~o
<STREAMINFO> 1 39
<VECSIZE> 39<NULLD><MFCC_D_A_0><DIAGC>
~h "n"
<BEGINHMM>
<NUMSTATES> 5
<STATE> 2
<MEAN> 39
 -4.261834e+000 -4.733817e+000 -2.496072e+000 -6.865685e+000 -1.116089e+001 -8.499496e+000 -5.570872e+000 -6.211846e+000 -9.087483e+000 -1.363116e+000 -5.942153e+000 -4.687161e+000 5.334617e+001 2.367674e-001 1.568761e+000 6.037334e-002 1.394967e+000 -1.565665e-002 -4.688223e-001 1.117702e+000 -2.585853e+000 -1.338996e+000 1.049841e+000 -6.420600e-001 -2.316932e-001 -1.656624e+000 -3.242636e-001 -2.953515e-001 -3.023355e-002 -3.606592e-001 1.951682e-002 2.854977e-001 -1.007373e-001 5.176328e-001 3.773555e-001 -2.100748e-001 1.751542e-001 1.480086e-001 3.756612e-001
<VARIANCE> 39
 1.038169e+001 3.041051e+001 3.761732e+001 5.469534e+001 4.962502e+001 5.367004e+001 5.747328e+001 8.100307e+001 7.358833e+001 6.082100e+001 6.243328e+001 4.977583e+001 2.204339e+001 2.283947e+000 3.247895e+000 4.060281e+000 3.874619e+000 4.563196e+000 4.680511e+000 5.243975e+000 6.907248e+000 5.962561e+000 4.564212e+000 3.978939e+000 3.444909e+000 2.696775e+000 3.689546e-001 4.423378e-001 4.827800e-001 5.938507e-001 7.083048e-001 6.808398e-001 8.122593e-001 1.192079e+000 8.922158e-001 7.688502e-001 6.644068e-001 5.534508e-001 3.406073e-001
<GCONST> 1.329819e+002
<STATE> 3
<MEAN> 39
 -4.220470e+000 -2.079796e+000 -2.439877e+000 -5.064262e+000 -1.215440e+001 -8.598981e+000 -2.986314e+000 -1.101178e+001 -1.087290e+001 -1.896778e-002 -7.174297e+000 -4.213367e+000 5.098565e+001 -4.047348e-001 3.142653e-001 1.155991e-001 6.829023e-002 3.688956e-001 2.433774e-001 -2.185033e-001 1.931328e-001 1.967857e-001 -3.525916e-001 7.386500e-002 1.154985e-001 -3.484165e-001 -3.410490e-001 -5.105711e-001 -8.460896e-002 -4.596384e-001 2.437648e-001 2.236614e-001 -4.052530e-001 1.047901e+000 5.723754e-001 -3.825123e-001 2.871827e-001 9.856576e-002 4.677730e-001
<VARIANCE> 39
 8.679327e+000 3.054856e+001 2.850148e+001 5.057741e+001 4.645652e+001 4.957244e+001 5.518139e+001 7.359209e+001 6.551957e+001 6.232227e+001 6.606356e+001 5.442731e+001 2.312687e+001 1.209880e+000 2.373039e+000 1.778666e+000 2.288661e+000 2.706959e+000 2.337413e+000 3.038523e+000 4.546275e+000 3.395907e+000 2.869465e+000 2.532217e+000 2.183367e+000 1.999106e+000 3.439802e-001 5.520171e-001 5.439585e-001 6.371270e-001 7.112855e-001 7.262902e-001 8.168942e-001 1.119048e+000 1.019482e+000 7.950175e-001 7.130036e-001 6.030029e-001 4.286566e-001
<GCONST> 1.264611e+002
<STATE> 4
<MEAN> 39
 -7.403206e+000 -4.789836e+000 -2.431221e+000 -7.867057e+000 -9.482553e+000 -7.137136e+000 -6.928845e+000 -4.080950e+000 -6.682809e+000 -3.052551e+000 -5.582183e+000 -3.789349e+000 5.406639e+001 -1.578803e+000 -1.158588e+000 -4.206992e-001 -1.219712e+000 7.101560e-001 9.181465e-001 -5.299892e-001 2.389605e+000 1.562882e+000 -5.369384e-001 7.355049e-001 3.855093e-001 1.180410e+000 -7.702210e-002 -1.703945e-001 -2.027984e-001 -1.292754e-001 -1.064456e-001 1.168170e-001 2.546470e-001 5.514899e-002 5.082779e-002 2.163041e-001 9.952979e-002 6.529780e-002 1.699414e-001
<VARIANCE> 39
 3.631734e+001 6.501698e+001 4.376134e+001 5.893369e+001 5.829330e+001 4.678346e+001 5.580066e+001 7.134938e+001 6.750021e+001 4.761048e+001 4.565997e+001 3.937046e+001 5.732647e+001 5.534583e+000 4.370212e+000 4.655530e+000 4.697944e+000 5.922441e+000 4.955034e+000 6.059431e+000 7.021432e+000 6.194764e+000 5.194677e+000 4.668306e+000 3.761062e+000 4.092700e+000 5.028821e-001 7.978283e-001 5.448086e-001 7.339232e-001 7.462602e-001 7.217506e-001 8.294402e-001 1.224016e+000 9.893109e-001 7.486334e-001 6.599155e-001 5.692447e-001 6.897573e-001
<GCONST> 1.401804e+002
<TRANSP> 5
 0.000000e+000 1.000000e+000 0.000000e+000 0.000000e+000 0.000000e+000
 0.000000e+000 4.079660e-001 5.920340e-001 0.000000e+000 0.000000e+000
 0.000000e+000 0.000000e+000 6.134255e-001 3.865745e-001 0.000000e+000
 0.000000e+000 0.000000e+000 0.000000e+000 5.289787e-001 4.710213e-001
 0.000000e+000 0.000000e+000 0.000000e+000 0.000000e+000 0.000000e+000
<ENDHMM>
