~o
<STREAMINFO> 1 39
<VECSIZE> 39<NULLD><MFCC_D_A_0><DIAGC>
~h "ng"
<BEGINHMM>
<NUMSTATES> 5
<STATE> 2
<MEAN> 39
 -4.670674e+000 -4.233321e+000 -1.284116e+000 -9.234487e+000 -1.400080e+001 -6.369582e+000 -3.196375e+000 -5.044344e+000 -1.491675e+001 2.700922e-001 -9.580032e-001 -7.532658e+000 5.399370e+001 6.082377e-001 1.249189e+000 -1.636800e+000 1.959995e+000 8.862345e-001 -9.461294e-001 7.755792e-001 -1.816850e+000 -2.984261e-001 6.828473e-001 -6.741646e-001 -2.251099e-001 -1.682145e+000 -1.562387e-001 -2.484196e-001 1.345307e-001 -1.297251e-001 -7.452115e-002 1.043497e-001 -1.493173e-001 2.821806e-001 5.093443e-001 -3.089837e-001 -1.232715e-001 3.169979e-001 2.289247e-001
<VARIANCE> 39
 9.567188e+000 2.342908e+001 4.642811e+001 6.234892e+001 5.085424e+001 6.165434e+001 5.741246e+001 9.784679e+001 6.081071e+001 6.954280e+001 1.085699e+002 4.660671e+001 1.858297e+001 1.051543e+000 1.953147e+000 4.177750e+000 3.733084e+000 5.368696e+000 5.431532e+000 4.783184e+000 6.297851e+000 5.159064e+000 5.029936e+000 4.278725e+000 3.260921e+000 1.185798e+000 1.756991e-001 2.628729e-001 5.669077e-001 6.015787e-001 7.120275e-001 7.946892e-001 6.217148e-001 9.768155e-001 7.693055e-001 8.004971e-001 7.151394e-001 5.161445e-001 1.775246e-001
<GCONST> 1.294234e+002
<STATE> 3
<MEAN> 39
 -3.561670e+000 -2.161879e+000 -4.584583e+000 -5.970595e+000 -1.432295e+001 -7.414044e+000 -1.533646e+000 -1.039449e+001 -1.319788e+001 6.479099e-001 -4.124907e+000 -5.988347e+000 5.139327e+001 -1.233468e-001 6.390613e-001 -1.581339e-001 4.565164e-001 5.514327e-001 -4.563683e-002 -1.215125e-001 -7.306451e-003 1.964899e-001 -4.116488e-001 -1.169772e-001 2.528431e-001 -7.925788e-001 -3.712677e-001 -2.477873e-001 3.301199e-001 -4.353148e-001 2.416770e-001 2.303674e-001 -2.929337e-001 6.396501e-001 2.228311e-001 -2.297195e-001 1.599894e-001 1.161322e-001 2.237223e-001
<VARIANCE> 39
 7.993136e+000 2.185183e+001 2.974102e+001 5.819276e+001 5.251205e+001 5.296538e+001 5.625836e+001 8.034904e+001 5.276556e+001 6.561879e+001 9.756610e+001 4.736583e+001 1.820942e+001 7.597934e-001 1.255996e+000 1.848019e+000 2.344991e+000 3.039696e+000 2.603328e+000 2.713218e+000 3.464919e+000 2.765457e+000 2.769227e+000 2.665532e+000 2.020396e+000 1.154689e+000 2.349802e-001 3.703212e-001 5.666325e-001 5.764015e-001 8.171478e-001 7.046742e-001 7.455667e-001 8.859795e-001 7.463475e-001 7.104948e-001 6.446484e-001 4.943793e-001 2.259450e-001
<GCONST> 1.219332e+002
<STATE> 4
<MEAN> 39
 -7.095006e+000 -1.297138e+000 -2.898542e+000 -6.559289e+000 -9.701243e+000 -7.075793e+000 -3.839204e+000 -5.702201e+000 -1.135036e+001 -2.376674e+000 -2.922317e+000 -4.750860e+000 5.031617e+001 -1.800226e+000 -7.752869e-001 -3.951414e-002 -2.803713e-001 1.763307e+000 3.662724e-001 -6.011680e-001 1.696460e+000 1.741896e+000 -4.918775e-001 -2.289397e-002 8.895161e-001 7.649106e-002 -2.133045e-001 -5.731835e-001 -1.773364e-001 -1.737761e-001 -1.447434e-001 7.343666e-002 6.225564e-002 2.277665e-001 3.481448e-001 2.301099e-001 5.622936e-002 1.010201e-001 4.386232e-001
<VARIANCE> 39
 3.049462e+001 3.600068e+001 4.374220e+001 5.789393e+001 6.966862e+001 5.235890e+001 5.989555e+001 8.451946e+001 5.999184e+001 5.290923e+001 6.976860e+001 3.859212e+001 4.301622e+001 4.248798e+000 3.887812e+000 4.448728e+000 5.023109e+000 6.783765e+000 5.460708e+000 6.533301e+000 6.385272e+000 5.418637e+000 5.048581e+000 5.397885e+000 3.539948e+000 3.711557e+000 5.738052e-001 8.091804e-001 6.515491e-001 7.230721e-001 1.032649e+000 8.601860e-001 1.041650e+000 1.056911e+000 9.730808e-001 7.819065e-001 6.969091e-001 5.805210e-001 5.591207e-001
<GCONST> 1.404922e+002
<TRANSP> 5
 0.000000e+000 1.000000e+000 0.000000e+000 0.000000e+000 0.000000e+000
 0.000000e+000 4.718965e-001 5.281035e-001 0.000000e+000 0.000000e+000
 0.000000e+000 0.000000e+000 6.710939e-001 3.289061e-001 0.000000e+000
 0.000000e+000 0.000000e+000 0.000000e+000 5.621017e-001 4.378983e-001
 0.000000e+000 0.000000e+000 0.000000e+000 0.000000e+000 0.000000e+000
<ENDHMM>
