~o
<STREAMINFO> 1 39
<VECSIZE> 39<NULLD><MFCC_D_A_0><DIAGC>
~h "oh"
<BEGINHMM>
<NUMSTATES> 5
<STATE> 2
<MEAN> 39
 1.031797e+000 -1.669573e+001 -1.711902e+001 -1.465767e+001 -8.399697e+000 -1.478257e-001 -3.737218e+000 1.336442e+000 -2.213157e+000 -1.625656e+000 1.799248e+000 -6.133735e+000 6.377996e+001 -7.648450e-001 -1.788972e-001 9.356014e-001 -1.468526e+000 4.421881e-001 1.670454e+000 9.838898e-001 -1.195339e+000 -5.270875e-001 4.553471e-001 -1.429310e-001 -1.241638e+000 5.781046e-001 1.423911e-001 1.039225e-001 -4.470086e-002 1.330570e-001 2.388444e-001 -4.040190e-001 -6.373847e-001 -5.234637e-002 3.649445e-001 1.573601e-001 -4.608181e-001 3.976256e-001 -1.627367e-001
<VARIANCE> 39
 7.631057e+000 4.728440e+001 3.074514e+001 4.928507e+001 7.678271e+001 7.322729e+001 5.035183e+001 6.230303e+001 8.954541e+001 3.498134e+001 5.653602e+001 4.912853e+001 1.657293e+001 2.171236e-001 5.507550e-001 8.213449e-001 2.758983e+000 2.108567e+000 1.894827e+000 4.186419e+000 2.862920e+000 3.097689e+000 1.622498e+000 1.919870e+000 2.262845e+000 1.600799e-001 5.817992e-002 7.765265e-002 1.825950e-001 2.445043e-001 2.336845e-001 3.301156e-001 4.372392e-001 4.535094e-001 3.050824e-001 2.827080e-001 3.261738e-001 3.276080e-001 5.000000e-002
<GCONST> 1.038044e+002
<STATE> 3
<MEAN> 39
 -1.608974e-001 -1.632406e+001 -1.468611e+001 -1.987963e+001 -5.708540e+000 4.876379e+000 -2.033400e+000 -1.993051e+000 -4.147418e+000 9.358548e-001 -1.451563e+000 -4.873784e+000 6.252389e+001 -9.117471e-002 1.974280e-001 5.976011e-001 -3.414483e-001 3.430848e-002 -2.411887e-001 -3.287138e-001 -7.612055e-002 2.966593e-001 3.235556e-001 -4.027849e-001 2.991350e-001 -6.883923e-002 1.474222e-002 7.710134e-002 1.164070e-001 2.808707e-001 -1.625690e-001 -3.781629e-001 -2.614253e-001 1.985354e-001 1.482366e-001 3.467806e-002 1.658301e-002 -1.469545e-002 -9.812433e-002
<VARIANCE> 39
 1.520278e+001 5.512153e+001 5.489774e+001 5.121917e+001 5.930172e+001 4.368284e+001 3.087047e+001 3.875121e+001 4.800653e+001 3.678945e+001 6.299784e+001 4.937370e+001 3.667911e+001 1.596299e-001 3.766451e-001 8.244683e-001 1.107268e+000 7.094331e-001 1.267551e+000 2.498785e+000 1.241859e+000 1.532515e+000 1.362481e+000 1.243094e+000 1.178250e+000 1.058435e-001 5.000000e-002 6.304100e-002 1.239264e-001 1.741274e-001 1.386918e-001 2.120814e-001 3.542524e-001 2.894400e-001 2.047880e-001 2.145825e-001 1.950417e-001 2.709438e-001 5.000000e-002
<GCONST> 9.295290e+001
<STATE> 4
<MEAN> 39
 -1.151795e+000 -1.323254e+001 -5.924324e+000 -1.684940e+001 -8.047595e+000 -2.121078e+000 -9.553945e+000 -1.360962e+000 5.737274e-001 1.314721e+000 -4.630153e+000 -4.266992e+000 5.994368e+001 -7.436067e-001 2.273768e+000 1.778000e+000 2.187439e+000 -4.882235e-002 -1.552109e+000 -1.061531e+000 -2.981409e-001 -1.000810e+000 4.671192e-002 -7.786388e-001 -1.164053e-001 -2.404703e+000 -3.292645e-001 3.495564e-001 4.117282e-002 4.824258e-001 7.865655e-002 1.991628e-002 5.165036e-001 -1.368001e-001 -6.050903e-001 -4.412618e-001 2.050667e-001 9.782898e-002 -3.283304e-001
<VARIANCE> 39
 9.171632e+000 7.178465e+001 5.376127e+001 7.817966e+001 4.212471e+001 4.552279e+001 6.424207e+001 5.679639e+001 6.895679e+001 4.923264e+001 5.252664e+001 4.177404e+001 4.786127e+001 1.310614e+000 6.113219e+000 1.795915e+000 6.263610e+000 5.341108e+000 4.641212e+000 7.411093e+000 4.016277e+000 4.642734e+000 3.925406e+000 3.192531e+000 1.732198e+000 4.601774e+000 1.843696e-001 1.094539e+000 5.130464e-001 1.078146e+000 9.474795e-001 4.687709e-001 9.322147e-001 5.836827e-001 5.882747e-001 7.679245e-001 4.314435e-001 3.895192e-001 9.257017e-001
<GCONST> 1.329398e+002
<TRANSP> 5
 0.000000e+000 1.000000e+000 0.000000e+000 0.000000e+000 0.000000e+000
 0.000000e+000 7.120970e-001 2.879030e-001 0.000000e+000 0.000000e+000
 0.000000e+000 0.000000e+000 8.411037e-001 1.588963e-001 0.000000e+000
 0.000000e+000 0.000000e+000 0.000000e+000 6.853011e-001 3.146989e-001
 0.000000e+000 0.000000e+000 0.000000e+000 0.000000e+000 0.000000e+000
<ENDHMM>
