~o
<STREAMINFO> 1 39
<VECSIZE> 39<NULLD><MFCC_D_A_0><DIAGC>
~h "ow"
<BEGINHMM>
<NUMSTATES> 5
<STATE> 2
<MEAN> 39
 -2.040943e+000 -1.308161e+001 -8.832101e+000 -1.698776e+001 -1.085674e+001 -4.436096e+000 -1.112610e+001 -1.830878e-001 -8.044501e-001 1.435805e+000 -2.953604e+000 -4.596890e+000 6.451601e+001 1.138306e+000 -8.650581e-001 -1.072002e+000 -1.588425e+000 -6.800649e-002 1.739578e+000 -2.017953e-001 -3.875605e-001 1.434650e-001 5.338358e-001 4.255719e-001 -5.348546e-001 6.432041e-001 -5.248621e-001 4.944331e-001 9.711772e-002 2.518249e-001 3.199561e-001 2.468217e-001 4.600465e-001 -2.984541e-001 -3.316199e-001 -1.949821e-001 1.419782e-001 2.752259e-001 -6.226388e-001
<VARIANCE> 39
 1.334928e+001 3.172916e+001 4.630953e+001 6.293208e+001 5.578770e+001 9.242100e+001 7.278183e+001 6.767657e+001 6.318589e+001 6.287901e+001 9.431642e+001 4.617013e+001 1.925878e+001 2.301108e+000 2.729311e+000 2.685469e+000 3.282713e+000 4.828566e+000 4.550051e+000 5.303232e+000 5.332856e+000 4.644773e+000 4.420519e+000 4.569081e+000 3.618768e+000 1.434372e+000 3.983012e-001 3.342905e-001 4.344701e-001 5.990967e-001 7.907622e-001 9.949104e-001 9.206434e-001 9.265636e-001 8.300998e-001 8.194247e-001 7.631626e-001 6.922934e-001 3.212366e-001
<GCONST> 1.330917e+002
<STATE> 3
<MEAN> 39
 -2.068578e-001 -9.756040e+000 -1.130147e+001 -2.146267e+001 -1.088168e+001 2.194556e+000 -8.603104e+000 -4.088570e+000 -3.392746e+000 2.332860e-001 1.355257e-001 -3.109658e+000 6.184283e+001 3.801179e-002 4.925839e-001 1.382774e-001 -4.769252e-002 -1.572547e-001 8.430842e-002 1.384560e-002 -3.600949e-001 -4.288098e-001 -2.393162e-001 3.724531e-002 2.536103e-001 -4.286534e-001 -9.190380e-002 5.338039e-002 1.339870e-001 3.313238e-001 4.627507e-002 -3.279569e-001 -7.741832e-002 1.903034e-002 1.006053e-002 -7.956512e-003 -1.459807e-001 -4.496157e-002 -1.171196e-001
<VARIANCE> 39
 1.012717e+001 4.046038e+001 3.406939e+001 7.002779e+001 6.834296e+001 8.425538e+001 7.246265e+001 6.439922e+001 6.388134e+001 7.418219e+001 9.171304e+001 4.598486e+001 2.245444e+001 2.790806e-001 8.890382e-001 9.213831e-001 1.948020e+000 1.543916e+000 2.301968e+000 2.187376e+000 2.038619e+000 2.232681e+000 2.422177e+000 2.049625e+000 1.891086e+000 3.477647e-001 5.691496e-002 1.556361e-001 1.537025e-001 2.516963e-001 2.982179e-001 3.587822e-001 3.469423e-001 3.677954e-001 3.569171e-001 4.241677e-001 3.658503e-001 3.289275e-001 6.597832e-002
<GCONST> 1.074429e+002
<STATE> 4
<MEAN> 39
 -2.807536e+000 -6.684032e+000 -8.576422e+000 -1.527396e+001 -9.353257e+000 -2.665994e+000 -9.803499e+000 -6.099929e+000 -5.348235e+000 -2.480078e-001 -1.849536e+000 -3.034518e+000 5.808894e+001 -1.745866e+000 1.068630e+000 8.102022e-001 2.322914e+000 8.983482e-001 -1.233799e+000 7.352162e-001 -9.878246e-002 -6.345607e-002 -4.406839e-001 -8.208010e-001 -1.284785e-002 -1.622099e+000 -4.489141e-001 -7.751442e-002 6.282263e-002 7.601001e-002 1.230822e-001 1.099492e-001 1.895331e-001 3.090131e-001 1.648928e-001 -3.047162e-002 1.475978e-002 2.969282e-002 -6.600997e-002
<VARIANCE> 39
 3.615524e+001 5.234233e+001 4.452252e+001 9.845997e+001 6.418383e+001 8.623934e+001 7.441038e+001 6.197391e+001 6.664625e+001 6.684550e+001 8.360429e+001 4.432901e+001 3.936139e+001 4.818101e+000 3.505507e+000 2.810294e+000 4.936576e+000 5.297567e+000 5.436298e+000 5.597170e+000 6.097149e+000 5.402636e+000 5.581149e+000 5.317873e+000 3.783932e+000 3.581107e+000 5.058050e-001 5.838498e-001 4.223160e-001 1.111789e+000 7.838987e-001 8.761659e-001 9.086906e-001 9.743426e-001 9.567790e-001 9.329608e-001 8.727250e-001 6.319933e-001 5.308686e-001
<GCONST> 1.411719e+002
<TRANSP> 5
 0.000000e+000 1.000000e+000 0.000000e+000 0.000000e+000 0.000000e+000
 0.000000e+000 6.753696e-001 3.246304e-001 0.000000e+000 0.000000e+000
 0.000000e+000 0.000000e+000 8.566446e-001 1.433554e-001 0.000000e+000
 0.000000e+000 0.000000e+000 0.000000e+000 7.165290e-001 2.834710e-001
 0.000000e+000 0.000000e+000 0.000000e+000 0.000000e+000 0.000000e+000
<ENDHMM>
