~o
<STREAMINFO> 1 39
<VECSIZE> 39<NULLD><MFCC_D_A_0><DIAGC>
~h "oy"
<BEGINHMM>
<NUMSTATES> 5
<STATE> 2
<MEAN> 39
 1.131603e+000 -8.473410e+000 -1.191329e+001 -2.175892e+001 -1.379042e+001 3.978844e+000 -4.147464e+000 -3.222149e+000 -5.236660e+000 -2.015934e+000 1.533007e-001 -1.780403e+000 5.951455e+001 4.211178e-001 -6.171532e-001 -4.167058e-001 -5.162824e-001 2.735728e-001 6.366032e-001 -3.980863e-001 -2.429672e-001 -1.000290e-001 6.055561e-001 7.452607e-001 -9.109315e-002 5.909581e-001 -2.564997e-001 -9.391551e-002 1.662791e-001 4.971973e-001 2.524331e-001 -3.847754e-001 -1.821754e-001 -1.373587e-002 1.571182e-001 2.221867e-001 -1.041622e-001 -2.063977e-001 -9.261356e-002
<VARIANCE> 39
 1.057472e+001 3.464034e+001 3.498360e+001 8.271249e+001 6.989341e+001 6.918293e+001 6.558199e+001 6.029686e+001 5.793010e+001 5.765014e+001 6.193585e+001 4.233450e+001 1.549476e+001 1.133299e+000 1.828227e+000 1.829480e+000 4.491816e+000 3.316119e+000 3.622813e+000 3.797049e+000 2.899460e+000 3.132499e+000 3.513550e+000 2.897138e+000 2.746216e+000 7.751584e-001 2.058819e-001 2.988517e-001 2.859166e-001 4.717318e-001 4.953911e-001 6.503143e-001 6.610354e-001 6.189425e-001 7.420747e-001 5.440618e-001 6.123986e-001 4.988945e-001 1.541039e-001
<GCONST> 1.221994e+002
<STATE> 3
<MEAN> 39
 2.833206e-001 -1.481328e+001 -1.106596e+001 -1.654076e+001 -9.004355e+000 -1.759895e+000 -1.182863e+001 -1.672157e+000 -1.261060e+000 4.716166e+000 -5.395795e-001 -6.877420e+000 6.299495e+001 -6.355417e-001 -7.587318e-001 1.321439e+000 1.640678e+000 -1.044160e-001 -2.832374e+000 -1.077619e+000 1.696533e+000 1.429335e+000 -1.691676e-001 -1.427630e+000 -5.748499e-001 4.991942e-001 -1.174079e-001 3.857746e-001 3.151770e-001 -2.314598e-001 -4.713039e-001 -7.364282e-002 5.157049e-001 1.724423e-001 -3.347286e-001 -6.562940e-001 -4.599590e-002 5.354676e-001 -1.571364e-001
<VARIANCE> 39
 8.562993e+000 2.108898e+001 3.257597e+001 5.296114e+001 5.273975e+001 7.770361e+001 5.932833e+001 6.951270e+001 6.436421e+001 6.087854e+001 1.040390e+002 3.499261e+001 1.580676e+001 2.670948e-001 9.121473e-001 1.273219e+000 1.952719e+000 2.348857e+000 2.734639e+000 3.940793e+000 2.948463e+000 2.735949e+000 4.214172e+000 2.303001e+000 3.617831e+000 2.361303e-001 5.000000e-002 1.331892e-001 2.267419e-001 2.905232e-001 3.435194e-001 6.577041e-001 5.018817e-001 7.651739e-001 6.649764e-001 5.404067e-001 7.754103e-001 4.179567e-001 5.000000e-002
<GCONST> 1.118139e+002
<STATE> 4
<MEAN> 39
 -4.377920e+000 -1.159135e+001 -3.543977e+000 -1.399330e+001 -1.258714e+001 -1.058140e+001 -9.191115e+000 1.048601e+000 -2.700533e+000 -1.053163e-001 -3.709535e+000 -3.150780e+000 6.245324e+001 -8.101387e-001 1.577063e+000 4.554781e-001 -5.480767e-002 2.528362e-001 2.444081e-001 4.150167e-001 -1.112243e+000 -6.383273e-001 -2.729917e-001 3.225257e-001 3.914723e-001 -8.380034e-001 7.358475e-003 1.769135e-001 -3.534643e-001 -1.171030e-001 3.423256e-001 4.821374e-001 -4.239914e-002 -3.419881e-001 -4.752820e-002 1.921580e-001 1.297226e-001 -9.235015e-002 -1.933573e-001
<VARIANCE> 39
 2.367054e+001 3.989924e+001 5.473421e+001 6.304391e+001 5.570264e+001 7.585985e+001 7.928821e+001 7.903103e+001 7.497028e+001 5.709226e+001 7.465923e+001 3.903310e+001 2.619747e+001 2.622905e+000 1.985859e+000 3.642686e+000 3.215685e+000 5.339626e+000 4.545400e+000 4.852831e+000 4.866939e+000 4.690801e+000 3.706744e+000 3.078176e+000 2.857876e+000 1.643413e+000 2.596943e-001 4.128744e-001 3.782255e-001 4.779505e-001 6.243657e-001 7.083318e-001 7.351306e-001 1.042896e+000 8.393530e-001 6.540346e-001 5.615000e-001 4.977604e-001 2.028896e-001
<GCONST> 1.308655e+002
<TRANSP> 5
 0.000000e+000 1.000000e+000 0.000000e+000 0.000000e+000 0.000000e+000
 0.000000e+000 8.613357e-001 1.386643e-001 0.000000e+000 0.000000e+000
 0.000000e+000 0.000000e+000 7.657826e-001 2.342174e-001 0.000000e+000
 0.000000e+000 0.000000e+000 0.000000e+000 8.217292e-001 1.782708e-001
 0.000000e+000 0.000000e+000 0.000000e+000 0.000000e+000 0.000000e+000
<ENDHMM>
