~o
<STREAMINFO> 1 39
<VECSIZE> 39<NULLD><MFCC_D_A_0><DIAGC>
~h "p"
<BEGINHMM>
<NUMSTATES> 5
<STATE> 2
<MEAN> 39
 -1.174168e+001 7.586905e-001 -3.600198e+000 -2.397704e+000 -3.057415e+000 -3.133094e+000 -4.863211e+000 -5.156839e+000 -6.005422e+000 -2.584471e+000 -3.113380e+000 -3.089120e+000 3.913381e+001 -2.958227e+000 5.717956e-001 -5.356836e-002 1.623917e+000 1.315846e+000 1.377782e+000 1.427253e+000 7.086995e-001 9.368472e-001 3.044794e-001 1.887172e-001 4.896452e-001 -3.947469e+000 -4.827857e-002 -9.668152e-001 -2.698584e-001 -7.090774e-001 -4.263121e-001 -1.565698e-001 -4.322226e-002 5.095928e-001 4.186345e-001 3.435524e-001 2.477238e-001 1.738039e-001 1.339051e+000
<VARIANCE> 39
 3.601018e+001 2.405649e+001 2.630409e+001 3.413697e+001 2.891134e+001 3.167018e+001 3.323439e+001 3.668744e+001 3.918941e+001 3.304817e+001 2.979366e+001 2.437477e+001 3.935836e+001 5.912012e+000 5.723096e+000 5.473795e+000 7.294386e+000 4.994600e+000 5.293762e+000 4.845531e+000 5.620735e+000 5.875214e+000 4.797537e+000 4.386282e+000 3.305494e+000 1.010981e+001 9.031302e-001 8.108950e-001 8.011943e-001 1.041553e+000 8.720533e-001 8.494329e-001 8.393497e-001 9.290410e-001 9.484922e-001 8.294259e-001 7.118775e-001 5.795847e-001 1.426620e+000
<GCONST> 1.368973e+002
<STATE> 3
<MEAN> 39
 -1.939452e+001 -2.489880e+000 -5.270040e+000 -1.477910e+000 -1.554688e+000 3.559315e-002 -1.088685e+000 3.994210e-002 -3.436160e-001 9.861258e-001 6.398534e-003 7.946194e-004 3.365897e+001 -1.650048e-001 -1.134133e+000 -4.841597e-001 -6.103629e-001 -2.155213e-001 -2.543806e-001 1.951730e-001 5.252463e-001 6.833498e-001 3.905377e-001 2.863307e-001 2.758955e-001 2.099711e+000 8.537570e-001 -2.686006e-001 -4.167193e-002 -5.462613e-001 -2.798646e-001 -4.584238e-001 -3.809508e-001 -2.368437e-001 -2.529596e-001 -2.125050e-001 -1.796011e-001 -1.800362e-001 1.840602e+000
<VARIANCE> 39
 5.398550e+000 7.852329e+000 6.935185e+000 1.075570e+001 1.017337e+001 1.230103e+001 1.230280e+001 1.427060e+001 1.388810e+001 1.392153e+001 1.191757e+001 1.159865e+001 2.762867e+001 2.858503e+000 2.037678e+000 1.649005e+000 2.456455e+000 1.851934e+000 2.531847e+000 2.438969e+000 2.917654e+000 3.019842e+000 2.475618e+000 2.116129e+000 1.878013e+000 1.310723e+001 6.053178e-001 3.786372e-001 4.204499e-001 5.538886e-001 4.576467e-001 5.607068e-001 5.398653e-001 5.125127e-001 5.356447e-001 4.699349e-001 4.354515e-001 3.644078e-001 1.338536e+000
<GCONST> 1.073749e+002
<STATE> 4
<MEAN> 39
 -1.078233e+001 -8.879984e+000 -8.350538e+000 -8.977333e+000 -4.705296e+000 -4.163605e+000 -3.921345e+000 -8.850029e-001 -1.609119e+000 -6.845829e-001 -1.924636e+000 -1.351985e+000 5.537557e+001 2.272432e+000 -7.071131e-001 -5.436205e-001 -1.441343e+000 -9.990395e-001 -6.641130e-001 -1.143639e+000 -2.192326e-001 -5.721721e-001 -4.607844e-001 -3.480165e-001 -3.335869e-001 2.435580e+000 -2.167535e-002 1.625331e-001 7.818063e-002 8.657189e-002 -7.397482e-002 8.535841e-002 -1.063514e-001 -7.535743e-003 -8.310875e-002 -1.728986e-002 3.327245e-002 -2.190961e-002 -6.150650e-001
<VARIANCE> 39
 6.080744e+001 3.068186e+001 5.147680e+001 5.626920e+001 4.831440e+001 5.122332e+001 5.784933e+001 4.341580e+001 4.520636e+001 3.302267e+001 3.386333e+001 2.346584e+001 3.952391e+001 4.579259e+000 3.713127e+000 4.117948e+000 4.669568e+000 4.818088e+000 5.013843e+000 5.718915e+000 4.709320e+000 4.844767e+000 3.769657e+000 3.597936e+000 2.622932e+000 7.729683e+000 1.015301e+000 6.711330e-001 5.763729e-001 7.253762e-001 7.682773e-001 7.760130e-001 9.566104e-001 8.544790e-001 9.177622e-001 7.076110e-001 6.455139e-001 4.938265e-001 1.243370e+000
<GCONST> 1.366164e+002
<TRANSP> 5
 0.000000e+000 1.000000e+000 0.000000e+000 0.000000e+000 0.000000e+000
 0.000000e+000 5.797462e-001 4.202539e-001 0.000000e+000 0.000000e+000
 0.000000e+000 0.000000e+000 7.238446e-001 2.761554e-001 0.000000e+000
 0.000000e+000 0.000000e+000 0.000000e+000 8.308014e-001 1.691986e-001
 0.000000e+000 0.000000e+000 0.000000e+000 0.000000e+000 0.000000e+000
<ENDHMM>
