~o
<STREAMINFO> 1 39
<VECSIZE> 39<NULLD><MFCC_D_A_0><DIAGC>
~h "r"
<BEGINHMM>
<NUMSTATES> 5
<STATE> 2
<MEAN> 39
 2.931828e+000 -1.086036e+001 -1.541301e+001 -7.231676e+000 -4.489587e+000 -1.081870e+001 -1.683549e+001 3.149599e-001 -1.120735e+000 -2.967817e+000 -1.253841e+000 1.361877e-001 5.745932e+001 5.649121e-001 -3.455003e-001 -5.574088e-001 2.032007e-001 1.604330e-001 -4.044422e-001 -7.882286e-001 4.660076e-001 5.327468e-001 -6.158072e-002 -1.613684e-001 4.840479e-002 1.839388e-001 -5.234848e-001 -1.084936e-001 5.463053e-001 6.744052e-002 -3.451309e-001 4.734331e-002 5.509177e-001 1.945817e-001 -1.103275e-001 -2.214441e-002 -1.132673e-002 -7.821715e-002 -4.411973e-003
<VARIANCE> 39
 1.381402e+001 3.554086e+001 7.183940e+001 4.423199e+001 6.124474e+001 7.711137e+001 9.100612e+001 9.524120e+001 8.829230e+001 4.664115e+001 4.123803e+001 3.647895e+001 2.665686e+001 2.267463e+000 2.465945e+000 3.435961e+000 2.539043e+000 3.655828e+000 4.085409e+000 5.277911e+000 4.837134e+000 3.759135e+000 3.237259e+000 2.609601e+000 2.140437e+000 1.672981e+000 4.587564e-001 3.813222e-001 4.332649e-001 3.730320e-001 5.248774e-001 6.889504e-001 9.461170e-001 7.871361e-001 6.464018e-001 5.303245e-001 4.519714e-001 4.008241e-001 2.290191e-001
<GCONST> 1.278212e+002
<STATE> 3
<MEAN> 39
 1.853354e+000 -1.546434e+001 -1.245874e+001 -6.328218e+000 -7.973682e+000 -1.434532e+001 -1.507159e+001 6.771899e+000 -1.297013e+000 -3.972091e+000 -2.082662e+000 -8.070365e-001 6.032851e+001 -7.428058e-001 -8.525648e-002 1.495025e+000 9.883352e-002 -1.034562e+000 -5.712996e-002 1.196924e+000 2.542810e-001 -6.409047e-001 -2.879738e-001 8.417775e-003 -1.568096e-001 -5.608257e-002 -4.627323e-001 3.647696e-001 4.550635e-001 -1.625366e-001 -7.833950e-002 4.601558e-001 5.960758e-001 -5.046191e-001 -3.298635e-001 1.129325e-001 3.470276e-002 -1.123908e-001 -2.767486e-001
<VARIANCE> 39
 1.101167e+001 2.926170e+001 7.642525e+001 5.009274e+001 7.085009e+001 9.013336e+001 1.200613e+002 8.365073e+001 1.028280e+002 5.445172e+001 4.751327e+001 3.844862e+001 2.314549e+001 1.050128e+000 2.441707e+000 2.992636e+000 2.665657e+000 3.920502e+000 4.104748e+000 4.838546e+000 5.160967e+000 3.695661e+000 3.080937e+000 2.859383e+000 2.369019e+000 2.036554e+000 2.779358e-001 2.436498e-001 3.437101e-001 4.091840e-001 5.363758e-001 5.889039e-001 8.467978e-001 6.482357e-001 6.247318e-001 5.079005e-001 4.345554e-001 3.726469e-001 2.033468e-001
<GCONST> 1.260653e+002
<STATE> 4
<MEAN> 39
 -2.532701e+000 -1.106267e+001 -7.310813e+000 -5.324899e+000 -8.482578e+000 -1.259523e+001 -1.110284e+001 2.569277e+000 -3.434171e+000 -3.913883e+000 -2.993572e+000 -1.167955e+000 5.624812e+001 -2.324515e+000 1.453694e+000 1.988646e+000 1.576211e-001 -1.341238e-001 1.515588e+000 2.065680e+000 -1.186577e+000 -7.486687e-001 1.218060e-001 -1.852069e-001 -4.064898e-001 -1.638005e+000 -2.699125e-001 7.803170e-002 -1.345676e-001 -2.602776e-001 2.059758e-001 3.950750e-001 2.986851e-002 -8.971328e-002 7.064988e-002 1.524681e-001 8.889229e-002 -3.235019e-002 -6.790709e-002
<VARIANCE> 39
 3.858825e+001 4.985652e+001 8.941050e+001 7.046728e+001 8.508014e+001 8.620591e+001 1.035688e+002 8.004971e+001 9.360320e+001 5.919756e+001 5.027047e+001 3.680241e+001 5.703079e+001 4.509203e+000 4.816685e+000 4.160054e+000 5.749912e+000 6.101645e+000 5.976412e+000 6.941718e+000 6.505515e+000 5.457992e+000 4.224136e+000 3.968958e+000 3.086265e+000 6.651717e+000 5.050315e-001 7.309236e-001 5.943478e-001 7.123683e-001 8.405418e-001 1.004460e+000 1.172858e+000 1.059700e+000 8.220230e-001 7.354978e-001 6.915573e-001 5.315287e-001 6.308246e-001
<GCONST> 1.435226e+002
<TRANSP> 5
 0.000000e+000 1.000000e+000 0.000000e+000 0.000000e+000 0.000000e+000
 0.000000e+000 6.001620e-001 3.998381e-001 0.000000e+000 0.000000e+000
 0.000000e+000 0.000000e+000 5.509196e-001 4.490804e-001 0.000000e+000
 0.000000e+000 0.000000e+000 0.000000e+000 4.409691e-001 5.590310e-001
 0.000000e+000 0.000000e+000 0.000000e+000 0.000000e+000 0.000000e+000
<ENDHMM>
