~o
<STREAMINFO> 1 39
<VECSIZE> 39<NULLD><MFCC_D_A_0><DIAGC>
~h "s"
<BEGINHMM>
<NUMSTATES> 5
<STATE> 2
<MEAN> 39
 -2.684428e+001 6.912996e-001 -6.445591e+000 -8.061311e+000 -9.237413e-001 -6.153762e+000 -9.703783e-001 8.464608e-001 -2.025796e+000 -1.471161e+000 -1.933612e+000 7.100239e-002 5.786112e+001 -3.812322e+000 8.456785e-001 -1.122441e+000 -1.225041e-002 1.334110e+000 9.905905e-001 1.087579e+000 8.689396e-001 4.416203e-001 4.450296e-001 7.754905e-001 5.372728e-001 3.046164e-001 1.134508e+000 -4.853209e-001 8.875029e-002 -9.343246e-002 -5.144988e-001 -1.160859e-001 -4.822963e-001 -1.468013e-001 -1.316136e-001 5.337798e-002 -1.622805e-001 -1.433983e-001 -1.079646e-001
<VARIANCE> 39
 2.509860e+001 2.694394e+001 4.123024e+001 3.427525e+001 3.821046e+001 3.540687e+001 3.469949e+001 3.427420e+001 2.620484e+001 2.368423e+001 2.020963e+001 1.722187e+001 2.022465e+001 4.361248e+000 3.025690e+000 3.584296e+000 3.862478e+000 3.490304e+000 3.991288e+000 3.816681e+000 3.520344e+000 3.509689e+000 3.221362e+000 3.039997e+000 2.202895e+000 1.967428e+000 5.300615e-001 6.017563e-001 6.382710e-001 7.063689e-001 6.646245e-001 7.675198e-001 7.330301e-001 7.034412e-001 6.046525e-001 6.146833e-001 5.545753e-001 4.763937e-001 3.732569e-001
<GCONST> 1.238910e+002
<STATE> 3
<MEAN> 39
 -3.009762e+001 1.339140e+000 -9.433270e+000 -7.962934e+000 9.122805e-003 -5.111840e+000 -3.336314e-001 1.559284e+000 -1.487983e+000 -2.656129e-001 -1.178132e+000 6.865581e-001 5.788892e+001 9.440463e-002 -1.749240e-001 6.617606e-002 -1.156815e-001 -2.831769e-002 -3.306119e-002 -1.206848e-001 1.415080e-002 4.829577e-002 2.444061e-002 -2.742616e-002 -3.779800e-002 -7.192326e-002 6.023449e-001 -2.112243e-001 2.543401e-001 -2.270459e-002 -1.810026e-001 -1.316736e-001 -1.852312e-001 -1.175723e-001 -3.009534e-002 -6.478278e-002 -9.584050e-002 -9.612273e-002 -1.732151e-001
<VARIANCE> 39
 8.489918e+000 2.097324e+001 3.026317e+001 3.919096e+001 3.500584e+001 3.166728e+001 2.900981e+001 2.505282e+001 1.942409e+001 1.711062e+001 1.623743e+001 1.339868e+001 1.734764e+001 9.954292e-001 1.255450e+000 1.229349e+000 1.317955e+000 1.502937e+000 1.677191e+000 1.590060e+000 1.605727e+000 1.526491e+000 1.482370e+000 1.331897e+000 1.229231e+000 7.815921e-001 3.699332e-001 2.294673e-001 2.691769e-001 3.136556e-001 3.351166e-001 3.828492e-001 3.800827e-001 3.620358e-001 3.459082e-001 3.318786e-001 3.078939e-001 2.712940e-001 2.005896e-001
<GCONST> 9.998117e+001
<STATE> 4
<MEAN> 39
 -2.209803e+001 -2.669065e+000 -5.176718e+000 -9.031464e+000 -2.413350e+000 -6.390727e+000 -4.009803e+000 3.633954e-001 -1.432244e+000 -8.252366e-001 -2.316829e+000 -6.677595e-001 5.527752e+001 3.723075e+000 -1.425442e+000 9.427453e-001 2.828483e-002 -1.419063e+000 -1.923214e-001 -1.407599e+000 -7.466037e-001 -3.018903e-001 -5.862995e-003 -3.076482e-001 -5.588611e-001 -1.464849e+000 2.190224e-001 -1.210106e-001 -1.735201e-001 1.849419e-002 -2.093709e-001 1.050308e-001 -1.885421e-002 -1.168262e-002 -1.253916e-001 5.198420e-002 6.476749e-002 -2.234100e-002 4.640074e-003
<VARIANCE> 39
 7.351771e+001 3.209827e+001 4.435514e+001 3.845630e+001 5.563025e+001 5.056274e+001 5.005672e+001 3.986570e+001 3.517802e+001 2.742321e+001 2.656584e+001 2.133440e+001 5.510977e+001 4.864589e+000 3.268065e+000 4.476764e+000 5.734153e+000 5.317541e+000 5.950399e+000 6.046939e+000 4.250986e+000 4.273901e+000 3.486448e+000 3.836943e+000 2.736490e+000 8.413423e+000 1.185947e+000 5.769426e-001 5.970747e-001 7.232068e-001 8.137799e-001 8.811789e-001 9.975683e-001 7.741098e-001 6.578064e-001 5.853650e-001 5.886363e-001 4.474598e-001 1.253523e+000
<GCONST> 1.356695e+002
<TRANSP> 5
 0.000000e+000 1.000000e+000 0.000000e+000 0.000000e+000 0.000000e+000
 0.000000e+000 5.853764e-001 4.146235e-001 0.000000e+000 0.000000e+000
 0.000000e+000 0.000000e+000 8.383158e-001 1.616842e-001 0.000000e+000
 0.000000e+000 0.000000e+000 0.000000e+000 7.290539e-001 2.709462e-001
 0.000000e+000 0.000000e+000 0.000000e+000 0.000000e+000 0.000000e+000
<ENDHMM>
