~o
<STREAMINFO> 1 39
<VECSIZE> 39<NULLD><MFCC_D_A_0><DIAGC>
~h "sh"
<BEGINHMM>
<NUMSTATES> 5
<STATE> 2
<MEAN> 39
 -2.643575e+001 -6.846845e+000 3.231120e+000 -8.232392e+000 -6.519683e+000 -2.898259e+000 -1.616565e+000 6.077000e-001 -1.251931e+000 -2.319661e+000 -8.098286e-001 -4.475699e-001 5.807233e+001 -4.029432e+000 4.991827e-002 4.284257e-001 -4.132294e-001 3.073779e-001 1.137788e+000 5.992385e-001 -1.141042e-001 5.433263e-001 5.173698e-001 6.493551e-001 1.580576e-001 1.177190e+000 1.053844e+000 -1.813443e-001 -4.453444e-001 -7.428426e-002 -2.619156e-001 -1.972482e-001 -3.342354e-001 -1.981131e-002 -1.442066e-001 3.762025e-002 -1.047851e-001 -8.756863e-002 -1.422310e-001
<VARIANCE> 39
 3.109391e+001 2.852685e+001 2.570132e+001 3.947684e+001 3.350627e+001 3.161792e+001 2.851960e+001 2.655173e+001 2.976671e+001 2.307765e+001 1.919990e+001 1.611736e+001 2.391905e+001 4.337592e+000 2.348229e+000 2.998685e+000 2.279137e+000 3.781350e+000 3.318048e+000 3.246269e+000 3.679399e+000 3.371217e+000 2.801609e+000 2.629978e+000 1.983953e+000 2.168750e+000 6.255175e-001 5.255524e-001 5.439119e-001 6.210114e-001 6.211844e-001 6.628892e-001 6.920965e-001 6.667414e-001 5.956677e-001 5.681341e-001 5.140212e-001 4.227575e-001 3.421259e-001
<GCONST> 1.208075e+002
<STATE> 3
<MEAN> 39
 -3.098119e+001 -6.029251e+000 3.278401e+000 -1.005186e+001 -7.146881e+000 -1.108174e+000 -1.016114e+000 -2.120323e-001 -7.810037e-001 -1.465110e+000 2.988044e-002 -2.639910e-001 6.052971e+001 1.738199e-001 -1.162553e-001 -1.550916e-001 8.193497e-002 -2.061363e-001 -1.559853e-001 -2.060667e-002 -7.654787e-002 1.483541e-003 7.877261e-003 -1.077129e-001 -4.041508e-002 1.050307e-001 7.613393e-001 -3.573076e-002 -5.641026e-002 1.119355e-001 -7.600110e-002 -2.758295e-001 -1.890646e-001 -2.257492e-002 -1.213557e-001 -8.553613e-002 -1.232280e-001 -5.016179e-002 -2.777983e-001
<VARIANCE> 39
 1.078481e+001 2.791659e+001 2.255191e+001 2.815794e+001 3.473921e+001 2.489355e+001 2.313428e+001 2.117681e+001 1.972350e+001 1.762915e+001 1.502669e+001 1.283771e+001 1.395279e+001 1.417909e+000 8.454140e-001 1.129433e+000 1.159681e+000 1.375157e+000 1.608534e+000 1.481297e+000 1.508115e+000 1.490137e+000 1.460065e+000 1.343108e+000 1.173411e+000 8.695854e-001 3.557268e-001 1.768543e-001 2.967883e-001 2.276974e-001 3.412389e-001 3.356740e-001 3.573925e-001 3.568615e-001 3.568814e-001 3.405153e-001 2.927275e-001 2.542368e-001 1.001896e-001
<GCONST> 9.699252e+001
<STATE> 4
<MEAN> 39
 -1.988388e+001 -8.142390e+000 4.912190e-001 -7.788329e+000 -8.842401e+000 -5.468133e+000 -4.843896e+000 -1.473417e+000 -2.338543e+000 -2.126344e+000 -1.852722e+000 -1.303891e+000 5.730859e+001 4.375439e+000 -1.695535e-001 -3.766211e-001 -3.216175e-001 -8.560595e-001 -1.040983e+000 -1.655240e+000 -4.721186e-001 -1.164184e+000 -3.805011e-001 -3.143268e-001 -3.420294e-001 -9.075441e-001 1.861019e-001 2.136309e-003 3.930518e-002 -3.420568e-001 -1.706883e-001 1.704924e-001 -1.066087e-002 5.842037e-002 -1.635212e-001 1.026491e-003 1.112899e-001 6.632613e-003 1.420581e-001
<VARIANCE> 39
 7.365312e+001 3.385255e+001 6.537424e+001 4.311565e+001 4.682796e+001 3.823915e+001 4.080330e+001 3.421300e+001 4.289196e+001 3.015650e+001 2.395995e+001 1.784525e+001 3.077105e+001 4.014384e+000 3.397307e+000 5.797622e+000 4.170728e+000 6.321269e+000 5.308840e+000 5.311373e+000 4.446613e+000 4.801920e+000 4.184980e+000 3.598010e+000 2.404072e+000 3.514689e+000 1.224851e+000 5.593067e-001 5.944905e-001 5.350049e-001 8.896796e-001 7.810057e-001 9.621812e-001 7.425303e-001 7.716975e-001 7.253202e-001 5.204171e-001 4.176128e-001 4.968948e-001
<GCONST> 1.326827e+002
<TRANSP> 5
 0.000000e+000 1.000000e+000 0.000000e+000 0.000000e+000 0.000000e+000
 0.000000e+000 5.818587e-001 4.181413e-001 0.000000e+000 0.000000e+000
 0.000000e+000 0.000000e+000 8.398360e-001 1.601640e-001 0.000000e+000
 0.000000e+000 0.000000e+000 0.000000e+000 7.441573e-001 2.558427e-001
 0.000000e+000 0.000000e+000 0.000000e+000 0.000000e+000 0.000000e+000
<ENDHMM>
