~o
<STREAMINFO> 1 39
<VECSIZE> 39<NULLD><MFCC_D_A_0><DIAGC>
~h "sil"
<BEGINHMM>
<NUMSTATES> 5
<STATE> 2
<MEAN> 39
 -1.480932e+001 -7.270480e+000 -8.233541e+000 -5.178916e+000 -3.187556e+000 -3.658489e+000 -1.627957e+000 8.068409e-001 -1.800496e+000 -2.395035e+000 -2.704457e+000 5.866310e-002 4.114148e+001 -2.919379e-001 1.472893e-001 -1.111650e-001 2.074019e-001 1.484199e-001 2.975906e-001 1.593264e-001 -1.189194e-002 6.335541e-002 1.014787e-001 1.034778e-001 5.611903e-002 -7.255414e-001 -4.423047e-002 6.115606e-002 4.052929e-002 -1.606681e-002 -2.210232e-002 -2.195028e-002 -2.994415e-002 -9.394550e-003 5.161845e-003 4.102699e-002 3.194356e-002 -1.035504e-002 5.351694e-002
<VARIANCE> 39
 2.399634e+001 3.132390e+001 3.382549e+001 3.437778e+001 3.563332e+001 3.731257e+001 3.737470e+001 4.087262e+001 3.820503e+001 3.623469e+001 3.146010e+001 2.501922e+001 3.281574e+001 1.370095e+000 1.649045e+000 1.755781e+000 2.002332e+000 2.172658e+000 2.455814e+000 2.529241e+000 2.498609e+000 2.460990e+000 2.424361e+000 2.117034e+000 1.846415e+000 1.335231e+000 1.846546e-001 2.524111e-001 2.794055e-001 3.389320e-001 3.726148e-001 4.207029e-001 4.445972e-001 4.403059e-001 4.363729e-001 4.346417e-001 3.833248e-001 3.402264e-001 1.569707e-001
<GCONST> 1.118452e+002
<STATE> 3
<MEAN> 39
 -1.909451e+001 -2.520504e+000 -6.403916e+000 -2.596622e+000 -2.182977e+000 -1.091661e+000 -6.135534e-001 1.149279e-001 -1.018351e+000 5.279389e-001 -6.090022e-001 2.973968e-001 3.425781e+001 -1.232247e-001 1.192640e-001 1.277646e-001 9.459686e-002 5.821776e-002 7.022150e-002 7.343268e-003 -3.590823e-002 -2.818554e-003 7.677426e-002 3.723655e-002 -3.386926e-002 -1.409911e-001 6.023145e-002 -5.446905e-002 -1.336470e-002 -5.588856e-002 -3.020938e-002 -4.170822e-002 -1.617014e-002 -1.641567e-003 -1.975608e-002 -3.747576e-002 -3.025003e-002 -7.250131e-003 1.225944e-001
<VARIANCE> 39
 8.353415e+000 1.021550e+001 1.149916e+001 1.513034e+001 1.362672e+001 1.779388e+001 1.605855e+001 1.751323e+001 1.788899e+001 1.802877e+001 1.605395e+001 1.335901e+001 1.679800e+001 3.579620e-001 5.447420e-001 7.555262e-001 9.488196e-001 1.108959e+000 1.285626e+000 1.397459e+000 1.513964e+000 1.563789e+000 1.602202e+000 1.446213e+000 1.298856e+000 3.011395e-001 7.617582e-002 1.134918e-001 1.499335e-001 1.973860e-001 2.227229e-001 2.576480e-001 2.838427e-001 3.043426e-001 3.123578e-001 3.208638e-001 2.877592e-001 2.611040e-001 9.353990e-002
<GCONST> 8.502756e+001
<STATE> 4
<MEAN> 39
 -1.664190e+001 -4.129563e+000 -5.650275e+000 -5.047352e+000 -3.942479e+000 -1.994913e+000 -1.730402e+000 -3.783345e-001 -2.007584e+000 -5.110899e-001 -1.435482e+000 -5.900107e-001 3.996526e+001 7.943875e-001 -4.570833e-001 1.776917e-001 -9.619188e-001 -6.693625e-001 -5.803637e-001 -4.616338e-001 -2.179827e-001 -2.996920e-001 -2.159073e-001 -2.193686e-001 -1.875963e-001 2.514577e+000 1.148940e-001 -9.740064e-002 6.571486e-003 -1.234762e-001 -1.337505e-001 -9.482798e-002 -1.201313e-001 3.815576e-003 1.548549e-003 -5.130874e-003 -9.751661e-003 -1.226073e-002 3.669130e-001
<VARIANCE> 39
 3.986238e+001 3.425811e+001 3.615591e+001 4.134544e+001 3.765031e+001 3.543703e+001 3.322714e+001 3.490212e+001 3.325179e+001 2.799343e+001 2.594042e+001 2.137196e+001 7.784587e+001 4.209333e+000 3.302901e+000 3.092342e+000 4.084094e+000 3.647192e+000 3.650609e+000 3.665521e+000 3.285904e+000 3.240710e+000 2.843410e+000 2.660349e+000 2.161392e+000 8.513694e+000 6.387643e-001 6.073789e-001 5.351270e-001 7.228563e-001 6.261342e-001 6.409999e-001 6.404079e-001 6.053274e-001 5.929500e-001 5.319468e-001 4.909604e-001 4.087042e-001 1.232639e+000
<GCONST> 1.280163e+002
<TRANSP> 5
 0.000000e+000 1.000000e+000 0.000000e+000 0.000000e+000 0.000000e+000
 0.000000e+000 8.634198e-001 1.365802e-001 0.000000e+000 0.000000e+000
 0.000000e+000 0.000000e+000 8.621364e-001 1.378637e-001 0.000000e+000
 0.000000e+000 0.000000e+000 0.000000e+000 7.785939e-001 2.214061e-001
 0.000000e+000 0.000000e+000 0.000000e+000 0.000000e+000 0.000000e+000
<ENDHMM>
