~o
<STREAMINFO> 1 39
<VECSIZE> 39<NULLD><MFCC_D_A_0><DIAGC>
~h "sp"
<BEGINHMM>
<NUMSTATES> 5
<STATE> 2
<MEAN> 39
 -1.676089e+001 -7.707018e+000 -8.532201e+000 -6.290385e+000 -2.560546e+000 -2.325311e+000 -2.831422e+000 -1.770970e+000 -1.853685e+000 8.123091e-001 -7.687629e-001 -8.432586e-001 4.601517e+001 2.501602e+000 1.012668e+000 -2.146575e-001 -1.794090e-001 -6.168607e-001 3.453079e-001 3.599909e-001 -6.855239e-001 -1.294458e+000 -4.197312e-001 -7.600426e-002 -1.390874e-001 -1.952553e+000 3.630901e-001 5.056348e-001 2.585409e-001 -4.784201e-001 -6.217276e-001 -3.102377e-001 -2.171021e-001 -2.213226e-002 -2.765402e-001 -3.383848e-001 -1.239681e-001 -8.628686e-002 1.000394e+000
<VARIANCE> 39
 2.361659e+001 3.748891e+001 3.297113e+001 2.564335e+001 2.626145e+001 2.746063e+001 3.157623e+001 2.855600e+001 3.164252e+001 2.491112e+001 2.384679e+001 1.990433e+001 4.747203e+001 7.592424e+000 4.795431e+000 3.281354e+000 5.179021e+000 4.998375e+000 4.158708e+000 4.412128e+000 4.842850e+000 4.587397e+000 3.590771e+000 3.243166e+000 2.809167e+000 3.917567e+000 5.162405e-001 6.893483e-001 6.949598e-001 7.521661e-001 9.554060e-001 7.879007e-001 8.454418e-001 8.340059e-001 7.928920e-001 6.811587e-001 5.589238e-001 5.000846e-001 8.297025e-001
<GCONST> 1.297885e+002
<STATE> 3
<MEAN> 39
 -1.042353e+001 -9.649775e-001 -5.611504e+000 -5.944788e+000 -4.428969e+000 -3.254152e+000 -2.595505e+000 -4.179952e+000 -6.144954e+000 -1.670165e+000 -3.228012e+000 -2.358917e+000 4.469438e+001 3.131845e+000 1.059902e+000 1.590854e-001 -1.363284e+000 -2.041963e+000 -7.474731e-001 -9.225533e-001 -7.837161e-001 -1.410478e+000 -8.550173e-001 -2.437452e-001 -4.855287e-001 1.453481e+000 -2.682932e-001 -5.454804e-001 -8.972778e-002 -5.943019e-001 -3.108596e-001 -1.684766e-001 -3.561484e-001 2.534219e-001 3.002481e-001 1.038304e-001 1.772277e-001 2.459210e-002 1.256905e+000
<VARIANCE> 39
 4.450592e+001 2.689932e+001 3.156160e+001 3.980636e+001 3.342993e+001 3.569542e+001 3.621246e+001 3.939146e+001 3.400665e+001 2.824454e+001 2.883181e+001 2.464579e+001 3.075714e+001 1.199519e+001 5.328842e+000 3.877495e+000 8.134583e+000 6.877223e+000 4.886373e+000 5.083103e+000 6.396225e+000 6.463601e+000 4.573230e+000 4.348231e+000 3.189452e+000 4.088069e+000 7.155185e-001 6.158960e-001 5.610569e-001 6.807871e-001 7.148567e-001 7.225303e-001 8.073577e-001 8.202177e-001 7.255775e-001 6.807664e-001 5.786259e-001 4.780003e-001 5.745928e-001
<GCONST> 1.337380e+002
<STATE> 4
<MEAN> 39
 -3.053029e+000 -1.862006e+000 -7.408405e+000 -1.296627e+001 -1.125900e+001 -5.156722e+000 -6.052036e+000 -5.191127e+000 -8.803414e+000 -3.260739e+000 -2.117465e+000 -2.869336e+000 5.165576e+001 2.426114e+000 -3.094495e-001 -1.538144e-001 -2.373334e+000 -2.217625e+000 -4.773521e-001 -9.977270e-001 -1.320827e-001 -7.041944e-001 -3.185219e-001 1.476563e-001 -2.337672e-001 2.733577e+000 -1.101878e+000 -7.935314e-001 -8.999317e-002 1.228821e-001 5.493010e-001 2.926049e-001 2.193383e-001 5.029182e-001 7.196332e-001 3.835488e-001 1.154471e-001 1.578163e-001 1.994239e-001
<VARIANCE> 39
 7.236193e+001 3.141505e+001 4.347751e+001 8.926371e+001 5.577141e+001 5.324624e+001 4.795330e+001 6.003383e+001 5.302532e+001 3.988663e+001 4.516410e+001 3.297261e+001 2.160739e+001 6.286141e+000 3.895219e+000 3.482777e+000 6.710198e+000 6.234621e+000 4.535365e+000 5.068545e+000 5.231618e+000 4.952594e+000 4.784010e+000 3.765971e+000 3.057217e+000 2.771391e+000 8.774770e-001 7.169909e-001 6.161326e-001 1.042148e+000 8.448128e-001 7.650248e-001 8.045545e-001 1.083948e+000 8.891824e-001 7.762184e-001 6.864903e-001 5.590018e-001 4.909753e-001
<GCONST> 1.377449e+002
<TRANSP> 5
 0.000000e+000 1.000000e+000 0.000000e+000 0.000000e+000 0.000000e+000
 0.000000e+000 5.862642e-001 4.137359e-001 0.000000e+000 0.000000e+000
 0.000000e+000 0.000000e+000 3.280001e-001 6.719999e-001 0.000000e+000
 0.000000e+000 0.000000e+000 0.000000e+000 3.445094e-001 6.554906e-001
 0.000000e+000 0.000000e+000 0.000000e+000 0.000000e+000 0.000000e+000
<ENDHMM>
