~o
<STREAMINFO> 1 39
<VECSIZE> 39<NULLD><MFCC_D_A_0><DIAGC>
~h "t"
<BEGINHMM>
<NUMSTATES> 5
<STATE> 2
<MEAN> 39
 -1.214030e+001 -3.173161e+000 -3.993777e+000 -6.055145e+000 -7.424980e+000 -6.392485e+000 -5.947477e+000 -2.764553e+000 -3.724498e+000 -1.257476e+000 -3.563445e+000 -2.809359e+000 4.422118e+001 -1.678560e+000 2.555920e-001 -4.070627e-001 6.277319e-001 1.192733e+000 1.387992e+000 1.037633e+000 2.458857e-001 5.241590e-001 3.335724e-001 5.218831e-001 2.298297e-001 -2.247865e+000 3.792155e-002 -5.437526e-001 -1.293025e-001 -5.298888e-001 -1.645842e-001 7.665341e-002 9.844486e-002 2.370775e-001 1.896599e-002 5.549778e-002 1.462612e-001 1.266080e-001 1.099834e+000
<VARIANCE> 39
 5.286324e+001 4.950807e+001 6.888620e+001 7.356487e+001 6.825107e+001 6.019110e+001 5.838670e+001 6.543050e+001 6.997418e+001 5.390751e+001 4.874329e+001 3.961080e+001 7.457126e+001 6.236749e+000 5.901042e+000 5.305129e+000 7.127661e+000 6.876711e+000 6.367746e+000 5.962615e+000 7.038835e+000 6.898358e+000 5.137233e+000 4.868076e+000 3.965190e+000 1.116747e+001 7.275216e-001 9.796282e-001 7.492034e-001 1.235420e+000 1.164279e+000 1.067961e+000 1.032658e+000 1.207227e+000 1.201614e+000 1.010465e+000 9.147935e-001 7.166187e-001 1.947105e+000
<GCONST> 1.489154e+002
<STATE> 3
<MEAN> 39
 -1.987194e+001 -5.588072e+000 -5.218320e+000 -7.087377e+000 -4.002246e+000 -2.728646e+000 -1.383590e+000 1.734734e-001 -1.203683e+000 2.913099e-001 -4.341840e-001 1.770742e-001 4.639422e+001 1.329108e-001 -6.951576e-001 -6.961878e-002 -9.200643e-001 -5.399246e-001 -4.466235e-001 1.687306e-001 2.168155e-001 -5.379803e-002 -9.745768e-002 -2.241709e-002 1.608204e-001 2.317324e+000 5.874373e-001 7.556856e-002 1.692851e-001 -7.076443e-002 -3.302555e-001 -3.697082e-001 -3.243343e-001 -1.443246e-001 -2.278284e-001 -1.836097e-001 -2.511649e-001 -1.632588e-001 4.320010e-001
<VARIANCE> 39
 3.691043e+001 3.505997e+001 3.311961e+001 4.905158e+001 3.627713e+001 3.579109e+001 2.888259e+001 2.785061e+001 2.526599e+001 2.241713e+001 2.073073e+001 1.832160e+001 1.513073e+002 5.043503e+000 3.685568e+000 3.461766e+000 5.255469e+000 3.842892e+000 4.427418e+000 3.665236e+000 3.694225e+000 3.604840e+000 3.061604e+000 3.020078e+000 2.385264e+000 1.267454e+001 8.036721e-001 7.723354e-001 7.005535e-001 1.235070e+000 8.310311e-001 8.509936e-001 7.327715e-001 7.154710e-001 6.674954e-001 5.759852e-001 5.507867e-001 4.695549e-001 3.527059e+000
<GCONST> 1.329101e+002
<STATE> 4
<MEAN> 39
 -9.008900e+000 -8.665083e+000 -4.964815e+000 -1.227504e+001 -1.018447e+001 -6.502648e+000 -4.725853e+000 -7.025882e-001 -4.298611e+000 -1.911446e+000 -3.333863e+000 -2.261831e+000 5.649200e+001 1.861862e+000 -5.750226e-001 1.346952e-001 -6.194927e-001 -8.170316e-001 -1.990983e-001 -8.850018e-001 -1.030475e-001 -4.445826e-001 -3.251735e-001 -2.334535e-001 -3.629485e-001 1.373539e+000 -2.069122e-001 2.619295e-002 -8.295732e-002 1.271654e-001 1.535501e-001 1.751994e-001 -2.625781e-002 3.948840e-002 1.331843e-001 1.158944e-001 1.559802e-001 4.092678e-002 -2.740138e-001
<VARIANCE> 39
 6.692091e+001 4.555087e+001 8.896353e+001 7.812550e+001 7.255924e+001 8.068305e+001 7.132470e+001 6.335489e+001 6.140610e+001 4.708909e+001 4.698341e+001 3.446994e+001 5.275357e+001 6.138885e+000 3.049208e+000 3.754794e+000 4.445693e+000 5.028902e+000 4.935996e+000 5.986245e+000 4.479076e+000 4.380526e+000 3.741487e+000 3.721454e+000 2.880733e+000 4.987631e+000 7.380943e-001 5.255416e-001 5.185266e-001 7.009043e-001 7.210941e-001 7.460750e-001 8.610968e-001 7.248335e-001 6.768514e-001 6.239881e-001 5.861359e-001 4.762849e-001 8.589184e-001
<GCONST> 1.386426e+002
<TRANSP> 5
 0.000000e+000 1.000000e+000 0.000000e+000 0.000000e+000 0.000000e+000
 0.000000e+000 5.659631e-001 4.340369e-001 0.000000e+000 0.000000e+000
 0.000000e+000 0.000000e+000 7.237101e-001 2.762900e-001 0.000000e+000
 0.000000e+000 0.000000e+000 0.000000e+000 6.499807e-001 3.500193e-001
 0.000000e+000 0.000000e+000 0.000000e+000 0.000000e+000 0.000000e+000
<ENDHMM>
