~o
<STREAMINFO> 1 39
<VECSIZE> 39<NULLD><MFCC_D_A_0><DIAGC>
~h "th"
<BEGINHMM>
<NUMSTATES> 5
<STATE> 2
<MEAN> 39
 -1.817163e+001 -2.509988e-001 -6.249304e+000 -4.050451e+000 -3.451156e+000 -3.682812e+000 -1.788067e+000 -1.918890e+000 -1.851170e+000 -1.642588e+000 -2.481522e+000 -8.733861e-001 4.834861e+001 -2.941609e+000 -2.798822e-001 -5.795771e-001 7.396491e-001 6.956174e-001 1.062642e+000 1.138810e+000 9.545872e-001 5.216631e-001 2.759297e-001 7.162396e-001 7.004979e-001 -1.637487e+000 6.775237e-001 -7.061163e-001 -1.389634e-001 -6.840145e-001 -5.374545e-001 -2.181867e-001 -4.784678e-001 -1.851957e-002 -6.754340e-002 1.351520e-001 -4.691572e-003 -6.104895e-002 7.697032e-001
<VARIANCE> 39
 3.108587e+001 2.176582e+001 2.331145e+001 2.386382e+001 2.741118e+001 2.581704e+001 2.604687e+001 2.593705e+001 2.919544e+001 2.443012e+001 2.133368e+001 1.862775e+001 6.944634e+001 4.993879e+000 3.776643e+000 4.290545e+000 4.905865e+000 4.715450e+000 5.162409e+000 4.758586e+000 4.072422e+000 4.629808e+000 4.220021e+000 4.124842e+000 3.072537e+000 1.047391e+001 6.643969e-001 6.873505e-001 6.643387e-001 7.560329e-001 7.213633e-001 8.608288e-001 8.120695e-001 7.437514e-001 7.824845e-001 6.754911e-001 7.085415e-001 5.422373e-001 1.652145e+000
<GCONST> 1.308444e+002
<STATE> 3
<MEAN> 39
 -2.224612e+001 -4.109851e+000 -9.187943e+000 -5.789080e+000 -4.462630e+000 -3.053842e+000 -1.115257e+000 -1.973517e-001 -4.419758e-001 -6.824541e-001 -1.043112e+000 6.477695e-001 5.020399e+001 4.616018e-001 -4.179886e-001 4.818797e-002 -3.470677e-001 -2.709984e-001 -3.116370e-001 -1.148219e-001 -2.509245e-002 7.064402e-002 -2.294628e-002 -1.185949e-001 -2.625997e-002 7.362541e-001 7.543715e-001 3.456600e-002 2.583296e-001 -7.875185e-002 -1.625886e-001 -2.723182e-001 -2.801737e-001 -1.428325e-001 -9.471955e-002 -6.267035e-002 -1.662152e-001 -1.977800e-001 2.339442e-001
<VARIANCE> 39
 1.757144e+001 1.973008e+001 1.565326e+001 1.722679e+001 1.780610e+001 1.797803e+001 1.554531e+001 1.523959e+001 1.575967e+001 1.533540e+001 1.476109e+001 1.273946e+001 6.140788e+001 3.320312e+000 1.881863e+000 2.171925e+000 2.053324e+000 2.083286e+000 2.342217e+000 2.106362e+000 1.922456e+000 1.913258e+000 1.914397e+000 1.942385e+000 1.704674e+000 6.722637e+000 5.385727e-001 4.189190e-001 4.924621e-001 4.952509e-001 4.932564e-001 5.472758e-001 5.523879e-001 4.517022e-001 4.450828e-001 4.637941e-001 4.781706e-001 4.019608e-001 1.178933e+000
<GCONST> 1.112529e+002
<STATE> 4
<MEAN> 39
 -1.162545e+001 -5.978283e+000 -5.805890e+000 -8.185049e+000 -8.396637e+000 -7.995374e+000 -5.730947e+000 -1.602254e+000 -1.559638e+000 -1.285528e+000 -3.104968e+000 -1.626621e+000 5.612860e+001 3.410878e+000 -1.207220e+000 8.557345e-001 -8.921441e-001 -1.651558e+000 -1.305013e+000 -2.273620e+000 -6.680208e-002 -6.190262e-001 -1.472688e-001 -2.500121e-001 -7.012502e-001 1.320135e+000 -3.243319e-001 -1.851710e-001 -1.022082e-001 -3.688668e-002 2.767853e-002 2.877932e-001 2.072045e-002 1.872493e-001 -1.116396e-001 2.187604e-002 2.053578e-001 1.118228e-001 -2.783553e-001
<VARIANCE> 39
 6.315783e+001 3.265954e+001 4.257121e+001 4.186474e+001 5.488655e+001 4.807606e+001 5.919090e+001 3.546640e+001 4.182142e+001 3.318845e+001 2.948746e+001 2.823836e+001 5.980437e+001 4.929651e+000 3.924848e+000 5.604256e+000 5.569625e+000 6.003819e+000 6.096376e+000 7.309724e+000 4.930331e+000 5.024305e+000 4.130148e+000 4.662693e+000 3.560491e+000 7.145964e+000 1.134378e+000 5.743749e-001 6.942781e-001 7.319090e-001 8.749120e-001 8.831227e-001 1.303727e+000 7.493747e-001 7.277914e-001 6.813848e-001 6.316396e-001 5.975263e-001 1.050027e+000
<GCONST> 1.387566e+002
<TRANSP> 5
 0.000000e+000 1.000000e+000 0.000000e+000 0.000000e+000 0.000000e+000
 0.000000e+000 5.363918e-001 4.636082e-001 0.000000e+000 0.000000e+000
 0.000000e+000 0.000000e+000 8.056779e-001 1.943221e-001 0.000000e+000
 0.000000e+000 0.000000e+000 0.000000e+000 6.525658e-001 3.474342e-001
 0.000000e+000 0.000000e+000 0.000000e+000 0.000000e+000 0.000000e+000
<ENDHMM>
