~o
<STREAMINFO> 1 39
<VECSIZE> 39<NULLD><MFCC_D_A_0><DIAGC>
~h "ua"
<BEGINHMM>
<NUMSTATES> 5
<STATE> 2
<MEAN> 39
 -2.936439e+000 -1.075563e+001 -1.903376e-001 -7.301435e+000 -1.433944e+001 -8.484989e+000 -1.893096e+001 -3.504446e+000 -6.593567e+000 -3.191251e+000 1.309602e+000 -3.449912e+000 6.102182e+001 1.455130e+000 -1.793989e-002 -1.905141e+000 -1.500934e+000 1.390659e-001 1.185002e+000 -1.170991e+000 -1.108579e+000 -1.447497e-001 2.009711e+000 8.305132e-001 -7.913572e-001 2.136032e-001 -5.827925e-001 2.601141e-001 -4.735868e-002 -4.039505e-001 1.908902e-001 5.348955e-001 8.226086e-001 -5.244785e-002 3.600995e-002 2.375386e-001 1.274446e-001 1.384404e-001 -1.383096e-001
<VARIANCE> 39
 1.721912e+001 1.793670e+001 5.583035e+001 5.036810e+001 3.901522e+001 6.934728e+001 4.778131e+001 9.228279e+001 6.495261e+001 6.203034e+001 6.224224e+001 3.421155e+001 2.433060e+001 2.628178e+000 2.039523e+000 2.522975e+000 2.695384e+000 5.785941e+000 4.675720e+000 6.905906e+000 6.595938e+000 5.183467e+000 3.838683e+000 4.029341e+000 2.528702e+000 9.106662e-001 5.042606e-001 3.862887e-001 4.299649e-001 4.463210e-001 8.341883e-001 8.290163e-001 8.692572e-001 1.386731e+000 1.348647e+000 1.015392e+000 6.898332e-001 5.479100e-001 1.306663e-001
<GCONST> 1.305716e+002
<STATE> 3
<MEAN> 39
 -4.880445e-001 -8.054096e+000 -7.944768e+000 -1.842230e+001 -1.201864e+001 3.818344e-001 -1.473784e+001 -6.510540e+000 -6.543478e+000 3.870247e+000 4.685361e+000 -3.479282e+000 6.053750e+001 2.797140e-002 9.787068e-002 -3.660105e-001 -1.015049e+000 2.842249e-001 4.081669e-001 7.237619e-001 8.502832e-002 4.293112e-001 3.067444e-001 -2.686411e-001 9.264681e-002 7.914718e-002 -1.178619e-001 1.968240e-002 2.009778e-001 3.128019e-001 4.663832e-002 -2.818312e-001 -2.028163e-002 1.663359e-001 3.870787e-002 -3.005402e-001 -2.160573e-001 1.420921e-002 -7.093553e-002
<VARIANCE> 39
 9.095455e+000 2.650677e+001 3.350790e+001 6.490663e+001 3.720752e+001 8.536948e+001 5.220570e+001 4.964021e+001 4.700952e+001 5.334975e+001 6.956443e+001 5.063808e+001 3.080190e+001 3.109825e-001 1.176773e+000 7.916501e-001 2.091159e+000 1.407999e+000 1.941914e+000 1.620691e+000 1.822710e+000 3.293526e+000 2.424104e+000 1.840461e+000 1.993794e+000 4.172331e-001 5.000000e-002 1.993765e-001 1.321371e-001 2.335035e-001 3.304260e-001 2.921371e-001 3.315671e-001 4.160376e-001 6.397747e-001 4.331656e-001 2.271449e-001 3.531304e-001 8.153605e-002
<GCONST> 1.055649e+002
<STATE> 4
<MEAN> 39
 -3.857990e+000 -6.929939e+000 -6.861345e+000 -1.336272e+001 -7.716297e+000 -5.568618e+000 -9.842547e+000 -5.107337e+000 -3.288940e+000 2.670506e+000 -2.362374e+000 -3.363460e+000 5.831326e+001 -1.508004e+000 1.784859e+000 6.246512e-001 1.840088e+000 8.816977e-001 1.122239e-001 1.286516e+000 -3.011887e-002 -9.276509e-001 -1.687443e+000 -3.713215e-001 4.109192e-001 -2.178751e+000 -3.744354e-001 2.119891e-001 1.617248e-002 2.345248e-001 -2.011610e-002 2.747858e-001 1.323639e-001 -8.018203e-002 -1.642679e-001 -6.081770e-002 1.939147e-001 2.970381e-002 -4.218073e-001
<VARIANCE> 39
 3.667434e+001 4.479942e+001 3.570564e+001 1.017245e+002 3.812531e+001 9.483634e+001 5.868784e+001 5.553181e+001 6.196366e+001 7.375111e+001 7.872172e+001 3.699544e+001 5.256330e+001 3.405988e+000 2.968856e+000 2.948275e+000 4.188987e+000 3.044312e+000 4.929227e+000 5.377270e+000 6.661593e+000 5.075649e+000 4.512460e+000 4.742715e+000 3.710991e+000 5.636413e+000 3.585411e-001 6.203635e-001 4.299172e-001 9.482661e-001 4.888479e-001 7.511092e-001 8.349483e-001 8.516384e-001 7.886835e-001 9.797537e-001 7.672653e-001 6.015223e-001 8.358933e-001
<GCONST> 1.378165e+002
<TRANSP> 5
 0.000000e+000 1.000000e+000 0.000000e+000 0.000000e+000 0.000000e+000
 0.000000e+000 7.398147e-001 2.601853e-001 0.000000e+000 0.000000e+000
 0.000000e+000 0.000000e+000 8.742303e-001 1.257698e-001 0.000000e+000
 0.000000e+000 0.000000e+000 0.000000e+000 7.118366e-001 2.881634e-001
 0.000000e+000 0.000000e+000 0.000000e+000 0.000000e+000 0.000000e+000
<ENDHMM>
