~o
<STREAMINFO> 1 39
<VECSIZE> 39<NULLD><MFCC_D_A_0><DIAGC>
~h "uh"
<BEGINHMM>
<NUMSTATES> 5
<STATE> 2
<MEAN> 39
 -2.391542e+000 -8.815024e+000 -5.217950e+000 -1.529734e+001 -1.273664e+001 -7.572675e+000 -1.257599e+001 -4.682355e+000 -5.850576e+000 5.195675e-001 -1.429271e-001 -2.111125e+000 6.177634e+001 1.271642e+000 -1.429719e+000 -1.678967e-001 -8.174503e-001 -7.553141e-001 -5.150329e-001 -1.391956e+000 4.676011e-001 6.714836e-001 7.339398e-001 2.282666e-001 -3.544191e-001 1.113195e+000 -7.577476e-001 1.565179e-001 3.528141e-002 4.499675e-001 4.475478e-001 1.495558e-001 5.108832e-001 2.695188e-001 2.213789e-001 -1.424487e-001 -1.888997e-001 4.143494e-002 -5.214679e-001
<VARIANCE> 39
 1.750697e+001 3.305064e+001 6.426756e+001 8.445663e+001 5.432246e+001 1.129567e+002 7.304906e+001 7.400606e+001 6.428497e+001 6.913029e+001 8.428835e+001 3.792343e+001 1.988336e+001 3.821472e+000 2.483528e+000 3.174448e+000 5.313670e+000 5.168893e+000 5.437497e+000 5.612937e+000 5.447173e+000 5.077230e+000 4.580781e+000 4.317073e+000 2.899215e+000 1.205882e+000 5.441118e-001 4.858556e-001 5.283128e-001 6.977152e-001 7.965817e-001 1.008945e+000 8.563061e-001 8.949330e-001 8.792105e-001 9.612427e-001 9.162852e-001 5.184276e-001 3.401144e-001
<GCONST> 1.363019e+002
<STATE> 3
<MEAN> 39
 -2.109671e+000 -1.003906e+001 -6.106282e+000 -1.775528e+001 -1.180583e+001 -7.250884e+000 -1.195685e+001 -2.202821e+000 -3.342770e+000 1.540308e+000 -1.067373e+000 -2.902357e+000 6.228875e+001 -1.256821e-001 -6.829447e-002 2.206984e-001 3.677141e-001 5.922357e-002 -3.070980e-001 6.951591e-002 1.994314e-001 1.404950e-001 -2.827499e-001 -2.531995e-001 6.002303e-002 -2.893589e-001 -2.422616e-001 4.268047e-001 9.188608e-002 4.512580e-001 2.343293e-001 6.729627e-002 2.216558e-001 -1.969214e-001 -2.094138e-001 -2.251971e-001 -1.212767e-001 7.255809e-002 -5.797601e-001
<VARIANCE> 39
 1.304719e+001 3.703740e+001 5.116640e+001 9.458736e+001 5.844965e+001 1.154721e+002 8.091824e+001 6.914141e+001 6.373735e+001 6.206405e+001 8.993778e+001 4.538160e+001 2.072049e+001 4.039591e-001 1.064589e+000 1.595391e+000 2.198424e+000 1.973734e+000 2.718414e+000 2.330766e+000 2.694788e+000 2.787912e+000 2.597141e+000 2.474715e+000 1.815477e+000 8.944122e-001 2.196819e-001 3.333327e-001 2.460442e-001 4.340889e-001 5.058731e-001 5.707763e-001 6.422336e-001 5.960664e-001 5.323742e-001 5.153649e-001 5.147006e-001 3.750745e-001 3.773999e-001
<GCONST> 1.197506e+002
<STATE> 4
<MEAN> 39
 -5.319098e+000 -6.968112e+000 -2.729676e+000 -9.015820e+000 -9.850005e+000 -9.783422e+000 -1.223791e+001 -3.281663e+000 -4.111742e+000 -1.074435e+000 -3.553275e+000 -2.543378e+000 5.589917e+001 -1.836804e+000 2.252701e+000 2.175556e-001 2.524596e+000 1.753178e+000 8.164470e-001 1.403575e+000 -5.571974e-001 -1.427171e-001 -8.603754e-001 -5.873954e-001 -7.158715e-002 -3.772099e+000 -4.549571e-001 9.052660e-002 -1.954280e-001 -9.554372e-002 2.156924e-001 3.675635e-001 3.532164e-001 7.006420e-002 3.985664e-002 1.070232e-001 1.792848e-001 -3.243113e-002 -1.698568e-001
<VARIANCE> 39
 2.965472e+001 4.699352e+001 5.330510e+001 8.980804e+001 6.735702e+001 7.633099e+001 6.655784e+001 5.269381e+001 5.516512e+001 5.237393e+001 6.655698e+001 3.984547e+001 6.627552e+001 4.583176e+000 3.889179e+000 3.419027e+000 5.639650e+000 5.184512e+000 6.363005e+000 6.361029e+000 5.706826e+000 4.790035e+000 5.037908e+000 6.045387e+000 3.896133e+000 6.534532e+000 5.018743e-001 1.039388e+000 4.988566e-001 1.206187e+000 9.770948e-001 9.685981e-001 1.030622e+000 9.825795e-001 8.876448e-001 7.769581e-001 9.030910e-001 6.333385e-001 1.478482e+000
<GCONST> 1.435511e+002
<TRANSP> 5
 0.000000e+000 1.000000e+000 0.000000e+000 0.000000e+000 0.000000e+000
 0.000000e+000 4.923536e-001 5.076464e-001 0.000000e+000 0.000000e+000
 0.000000e+000 0.000000e+000 7.417200e-001 2.582801e-001 0.000000e+000
 0.000000e+000 0.000000e+000 0.000000e+000 6.439793e-001 3.560207e-001
 0.000000e+000 0.000000e+000 0.000000e+000 0.000000e+000 0.000000e+000
<ENDHMM>
