~o
<STREAMINFO> 1 39
<VECSIZE> 39<NULLD><MFCC_D_A_0><DIAGC>
~h "uw"
<BEGINHMM>
<NUMSTATES> 5
<STATE> 2
<MEAN> 39
 -5.401182e+000 -9.557357e+000 4.029836e+000 -8.995750e+000 -1.571872e+001 -1.190007e+001 -1.440241e+001 -1.899045e+000 -8.872849e+000 -3.959403e+000 -1.248108e+000 -2.578837e+000 6.120337e+001 1.683079e+000 -1.233857e+000 2.424859e-001 -3.060007e-001 -1.265939e+000 -1.898060e-001 -1.547978e+000 2.919114e-001 -3.984412e-001 1.004486e-001 6.130717e-001 -2.674552e-001 5.863327e-001 -8.322454e-001 4.058317e-001 -4.920083e-001 1.043560e-003 6.976315e-001 4.592119e-001 6.476254e-001 1.385653e-002 2.312881e-001 2.143239e-001 -2.462547e-003 7.046788e-002 -3.802106e-001
<VARIANCE> 39
 1.850425e+001 2.864384e+001 7.104340e+001 6.910790e+001 5.255322e+001 7.030612e+001 7.213185e+001 6.942002e+001 7.136199e+001 6.762666e+001 6.072474e+001 3.618583e+001 1.794764e+001 3.764820e+000 2.656520e+000 4.281270e+000 3.844832e+000 5.571114e+000 4.655033e+000 5.555353e+000 5.084960e+000 4.474879e+000 4.935443e+000 3.670133e+000 2.820231e+000 1.123171e+000 5.576897e-001 3.958364e-001 4.704419e-001 6.041537e-001 6.842530e-001 7.634955e-001 8.154581e-001 9.085003e-001 7.726579e-001 6.975203e-001 6.237468e-001 4.698189e-001 1.910695e-001
<GCONST> 1.322765e+002
<STATE> 3
<MEAN> 39
 -3.936182e+000 -9.456542e+000 2.304834e+000 -9.425313e+000 -1.502335e+001 -1.069894e+001 -1.512615e+001 -2.126620e+000 -9.417063e+000 -2.659872e+000 -5.204965e-001 -3.261876e+000 5.998668e+001 1.506603e-001 1.605097e-001 -2.941829e-001 1.257743e-001 2.968052e-001 1.700605e-001 -2.491998e-002 -1.837016e-001 -6.103373e-002 7.452920e-002 -7.403614e-002 -8.016536e-002 -3.806580e-001 -1.321701e-001 1.396315e-001 -2.820886e-002 6.837649e-002 1.307437e-001 3.294476e-002 1.818887e-001 -1.057672e-001 8.725549e-002 -3.046745e-002 -1.148328e-001 2.580340e-002 -1.554054e-001
<VARIANCE> 39
 1.502028e+001 2.780601e+001 6.735620e+001 7.211333e+001 4.811330e+001 8.411965e+001 7.806167e+001 7.323453e+001 7.199479e+001 7.771622e+001 7.549148e+001 4.248660e+001 2.027487e+001 3.097825e-001 6.102154e-001 1.238918e+000 1.238303e+000 1.509860e+000 1.766151e+000 1.878705e+000 1.927986e+000 2.009143e+000 1.773971e+000 1.606045e+000 1.319740e+000 3.366935e-001 1.024851e-001 1.550104e-001 1.895601e-001 2.299203e-001 3.319284e-001 3.393564e-001 4.031352e-001 3.790388e-001 3.720941e-001 3.567876e-001 3.138477e-001 2.541213e-001 9.687651e-002
<GCONST> 1.066130e+002
<STATE> 4
<MEAN> 39
 -5.605333e+000 -6.096901e+000 8.701044e-001 -6.806728e+000 -1.205949e+001 -9.620135e+000 -1.271858e+001 -4.458563e+000 -8.806842e+000 -3.384216e+000 -2.282070e+000 -2.909313e+000 5.552403e+001 -1.447113e+000 1.281930e+000 -8.489307e-001 6.328442e-001 1.441614e+000 7.127063e-001 1.709264e+000 -4.197490e-001 8.117039e-001 1.130243e-001 -5.192624e-001 5.764911e-002 -1.776123e+000 -4.199410e-001 6.535412e-003 -6.454215e-002 -5.459258e-002 1.607652e-001 1.903454e-001 2.779245e-001 2.222616e-001 8.520998e-002 7.427083e-002 5.612695e-002 1.722221e-002 -1.004187e-001
<VARIANCE> 39
 3.523909e+001 4.148033e+001 6.844084e+001 7.591692e+001 6.182013e+001 7.198986e+001 6.805532e+001 6.256455e+001 6.210938e+001 6.229136e+001 6.290338e+001 4.064498e+001 4.101783e+001 3.885456e+000 3.545928e+000 3.542671e+000 4.662564e+000 5.485619e+000 5.927384e+000 5.803719e+000 6.176540e+000 5.457874e+000 5.362098e+000 4.680765e+000 3.349747e+000 4.764525e+000 4.024281e-001 6.463200e-001 5.098245e-001 7.402685e-001 8.541657e-001 8.912410e-001 9.657150e-001 8.659164e-001 8.451056e-001 8.030829e-001 7.547911e-001 5.332670e-001 7.187055e-001
<GCONST> 1.398764e+002
<TRANSP> 5
 0.000000e+000 1.000000e+000 0.000000e+000 0.000000e+000 0.000000e+000
 0.000000e+000 5.579690e-001 4.420310e-001 0.000000e+000 0.000000e+000
 0.000000e+000 0.000000e+000 8.336572e-001 1.663428e-001 0.000000e+000
 0.000000e+000 0.000000e+000 0.000000e+000 7.141190e-001 2.858810e-001
 0.000000e+000 0.000000e+000 0.000000e+000 0.000000e+000 0.000000e+000
<ENDHMM>
