~o
<STREAMINFO> 1 39
<VECSIZE> 39<NULLD><MFCC_D_A_0><DIAGC>
~h "v"
<BEGINHMM>
<NUMSTATES> 5
<STATE> 2
<MEAN> 39
 -5.598430e+000 -3.723659e+000 -6.634117e+000 -7.214219e+000 -6.343927e+000 -6.821229e+000 -1.018898e+001 -6.371347e+000 -5.200319e+000 -1.924393e+000 -2.093092e+000 -3.064751e+000 5.266596e+001 -2.042902e+000 1.668317e+000 2.159096e-001 1.310406e+000 1.272572e+000 6.910997e-001 9.031798e-001 -4.870632e-001 -3.671907e-001 -5.781292e-001 -3.622705e-001 1.041152e-001 -1.726603e+000 -1.575314e-001 -5.187563e-001 1.628270e-001 -3.016198e-001 -3.083312e-001 -3.958140e-002 1.518911e-001 5.227273e-001 2.185860e-001 6.464413e-002 -7.474829e-002 1.857314e-002 5.460119e-001
<VARIANCE> 39
 2.936155e+001 2.255390e+001 3.498740e+001 3.268587e+001 2.616574e+001 4.010229e+001 3.335995e+001 3.221176e+001 3.210559e+001 3.127164e+001 3.599538e+001 2.733699e+001 2.706509e+001 3.509460e+000 2.681358e+000 3.361894e+000 3.648074e+000 3.343216e+000 3.915704e+000 4.433920e+000 4.544050e+000 3.644675e+000 3.412700e+000 3.180821e+000 2.343368e+000 2.656604e+000 4.939013e-001 4.588290e-001 4.277692e-001 4.553137e-001 5.209845e-001 5.449373e-001 6.772550e-001 6.708261e-001 6.034561e-001 5.465080e-001 5.172353e-001 4.468332e-001 3.808849e-001
<GCONST> 1.233741e+002
<STATE> 3
<MEAN> 39
 -1.451803e+001 -2.851881e+000 -5.666773e+000 -4.636021e+000 -3.661613e+000 -4.289058e+000 -5.262002e+000 -3.842329e+000 -4.321703e+000 -2.640273e+000 -3.182443e+000 -2.127246e+000 5.025575e+001 -4.143870e-001 -5.251902e-001 -2.081370e-001 -2.965886e-001 -1.685884e-001 -1.266882e-001 3.471323e-001 5.703956e-001 4.386785e-001 1.829028e-001 1.655429e-001 1.837363e-001 4.691417e-001 1.090043e+000 -5.257564e-001 -1.923083e-001 -6.168243e-001 -5.396593e-001 -3.799979e-001 -4.585207e-001 1.156565e-001 9.664827e-002 2.079120e-001 1.525846e-001 -3.206973e-002 6.508157e-001
<VARIANCE> 39
 5.183010e+001 2.439894e+001 2.622864e+001 2.580036e+001 2.010152e+001 2.507976e+001 2.948982e+001 2.819051e+001 2.624448e+001 2.270660e+001 2.133067e+001 1.829862e+001 3.557621e+001 6.465384e+000 2.241530e+000 2.414911e+000 3.053689e+000 2.740857e+000 3.162172e+000 3.338678e+000 2.715976e+000 2.528018e+000 2.264693e+000 2.297532e+000 1.785971e+000 4.163135e+000 6.586705e-001 7.330385e-001 6.687179e-001 7.542689e-001 6.268331e-001 7.267855e-001 8.073891e-001 8.280476e-001 7.283099e-001 6.322836e-001 5.589154e-001 4.487095e-001 7.154988e-001
<GCONST> 1.227358e+002
<STATE> 4
<MEAN> 39
 -6.032691e+000 -6.488469e+000 -7.213784e+000 -9.403659e+000 -7.903242e+000 -7.477382e+000 -8.899624e+000 -3.225290e+000 -3.758185e+000 -1.627792e+000 -1.774662e+000 -2.249946e+000 5.593060e+001 1.778648e+000 -1.468279e+000 -5.431557e-002 -1.417972e+000 -1.172942e+000 -5.787934e-001 -7.252452e-001 8.945047e-001 2.852497e-001 3.371606e-001 1.232135e-001 -4.452935e-002 1.490526e+000 -1.777887e-001 -2.123050e-002 1.726216e-001 4.265788e-002 3.595123e-002 1.716202e-001 6.090826e-002 7.774813e-002 -5.876956e-002 -4.902074e-002 -9.321292e-002 -3.203942e-002 -1.134065e-001
<VARIANCE> 39
 5.771214e+001 3.638798e+001 6.411866e+001 5.399058e+001 4.501324e+001 5.781272e+001 6.116227e+001 4.562312e+001 4.515988e+001 3.581686e+001 3.520434e+001 2.789334e+001 4.510543e+001 5.288008e+000 3.765976e+000 4.589192e+000 5.405311e+000 4.725446e+000 5.372208e+000 6.677614e+000 5.224322e+000 4.657920e+000 3.787685e+000 3.295819e+000 2.832351e+000 4.613438e+000 6.481030e-001 5.169005e-001 4.510109e-001 5.961632e-001 6.031392e-001 6.273332e-001 7.754261e-001 7.031451e-001 5.829734e-001 5.328025e-001 4.561451e-001 3.815250e-001 5.909949e-001
<GCONST> 1.335544e+002
<TRANSP> 5
 0.000000e+000 1.000000e+000 0.000000e+000 0.000000e+000 0.000000e+000
 0.000000e+000 5.506206e-001 4.493794e-001 0.000000e+000 0.000000e+000
 0.000000e+000 0.000000e+000 6.207353e-001 3.792647e-001 0.000000e+000
 0.000000e+000 0.000000e+000 0.000000e+000 5.416651e-001 4.583349e-001
 0.000000e+000 0.000000e+000 0.000000e+000 0.000000e+000 0.000000e+000
<ENDHMM>
