~o
<STREAMINFO> 1 39
<VECSIZE> 39<NULLD><MFCC_D_A_0><DIAGC>
~h "w"
<BEGINHMM>
<NUMSTATES> 5
<STATE> 2
<MEAN> 39
 8.996784e-001 -1.204298e+000 -8.759061e+000 -1.598044e+001 -1.134427e+001 -3.224794e+000 -8.070969e+000 -5.731851e+000 -1.154203e+001 -3.413216e+000 -1.253181e+000 -2.102567e+000 5.221172e+001 1.218558e+000 8.117672e-001 -5.942714e-001 -1.964681e+000 -1.332466e+000 6.169349e-001 6.816697e-001 1.582520e-001 -2.143468e-001 -4.024982e-001 -4.721212e-003 9.834061e-002 2.105523e-001 -5.699131e-001 -5.396968e-001 2.635452e-001 2.412241e-001 -3.059517e-002 -1.937252e-001 9.594313e-003 4.083664e-001 5.018085e-001 2.199351e-001 -7.135835e-002 -7.302990e-002 2.564797e-001
<VARIANCE> 39
 1.227005e+001 3.036845e+001 3.179324e+001 5.664260e+001 4.776115e+001 5.216876e+001 5.512619e+001 4.865930e+001 5.450394e+001 4.862735e+001 5.500106e+001 3.075173e+001 2.399679e+001 2.444957e+000 4.053755e+000 3.993683e+000 4.880903e+000 5.317747e+000 5.253370e+000 6.994810e+000 5.083894e+000 4.910788e+000 4.678561e+000 3.910425e+000 2.996104e+000 4.485641e+000 5.282367e-001 5.034407e-001 6.010048e-001 8.298092e-001 1.210235e+000 9.395051e-001 1.053297e+000 8.726211e-001 8.959910e-001 8.316464e-001 6.442239e-001 5.328633e-001 2.995912e-001
<GCONST> 1.340189e+002
<STATE> 3
<MEAN> 39
 2.584675e+000 -2.689839e-001 -9.219329e+000 -2.211909e+001 -1.733309e+001 -7.827680e-001 -4.481710e+000 -2.090431e+000 -7.880295e+000 -4.239097e+000 -1.022466e+000 -2.246020e+000 5.340572e+001 6.744146e-002 -1.057744e+000 -3.826920e-001 -1.006242e+000 -1.110413e-001 8.214750e-001 1.236655e-001 1.581489e-001 4.514388e-001 4.904827e-001 4.628438e-001 1.693420e-001 1.124903e+000 -2.800000e-001 -4.376173e-001 -8.583549e-002 4.032429e-001 5.772758e-001 6.734480e-002 -1.631280e-001 -1.416916e-001 4.568079e-002 2.131081e-001 1.333151e-001 4.148948e-003 1.453896e-001
<VARIANCE> 39
 6.868554e+000 3.267427e+001 3.329585e+001 5.143943e+001 5.259896e+001 5.176065e+001 4.733759e+001 4.604269e+001 5.528502e+001 4.659001e+001 4.357054e+001 3.036513e+001 2.100599e+001 3.965349e-001 2.055068e+000 1.518023e+000 2.442639e+000 3.345660e+000 3.231223e+000 3.066150e+000 2.799852e+000 3.152430e+000 2.863106e+000 2.764375e+000 2.136307e+000 1.164837e+000 2.307796e-001 2.684145e-001 2.709185e-001 5.354797e-001 4.808487e-001 5.689986e-001 6.296282e-001 5.286012e-001 6.417483e-001 5.945939e-001 5.230859e-001 4.490070e-001 2.327091e-001
<GCONST> 1.170056e+002
<STATE> 4
<MEAN> 39
 1.011709e+000 -8.770116e+000 -1.089184e+001 -2.000999e+001 -1.089777e+001 -3.750637e-001 -9.145079e+000 -3.692976e+000 -7.629121e+000 1.262886e+000 4.424962e-001 -2.383388e+000 5.947731e+001 -7.221966e-001 -1.802782e+000 3.745647e-001 1.157102e+000 7.954902e-001 -9.377508e-001 -7.965836e-001 5.925972e-001 1.226838e+000 6.775883e-001 -3.167103e-001 -5.663656e-001 1.388050e+000 -2.504315e-001 3.375097e-001 2.885331e-001 3.945940e-001 -1.382299e-001 -4.124815e-001 2.976559e-001 2.182364e-001 1.213917e-001 -4.039666e-001 -3.546475e-001 -7.877319e-002 -3.336501e-001
<VARIANCE> 39
 1.127105e+001 3.443024e+001 5.987551e+001 8.767290e+001 6.608118e+001 1.017446e+002 9.506763e+001 6.681157e+001 6.988222e+001 7.827117e+001 8.958545e+001 4.333854e+001 1.863574e+001 5.986478e-001 1.940402e+000 3.423704e+000 3.104752e+000 4.722363e+000 5.908124e+000 5.853475e+000 5.127913e+000 4.529705e+000 5.325424e+000 4.297297e+000 3.348104e+000 7.757515e-001 1.800210e-001 3.483325e-001 3.849503e-001 6.192197e-001 7.224319e-001 9.862186e-001 1.058095e+000 9.449496e-001 9.851374e-001 9.309705e-001 8.503852e-001 6.823425e-001 1.930388e-001
<GCONST> 1.315918e+002
<TRANSP> 5
 0.000000e+000 1.000000e+000 0.000000e+000 0.000000e+000 0.000000e+000
 0.000000e+000 5.127848e-001 4.872152e-001 0.000000e+000 0.000000e+000
 0.000000e+000 0.000000e+000 7.159461e-001 2.840540e-001 0.000000e+000
 0.000000e+000 0.000000e+000 0.000000e+000 5.203472e-001 4.796528e-001
 0.000000e+000 0.000000e+000 0.000000e+000 0.000000e+000 0.000000e+000
<ENDHMM>
