~o
<STREAMINFO> 1 39
<VECSIZE> 39<NULLD><MFCC_D_A_0><DIAGC>
~h "y"
<BEGINHMM>
<NUMSTATES> 5
<STATE> 2
<MEAN> 39
 -9.583704e+000 -3.431715e+000 1.192645e+001 -1.163800e+001 -1.551532e+001 -7.508850e+000 -1.090772e+001 -4.486080e+000 -1.201256e+001 -4.561279e+000 -2.845270e+000 -2.932483e+000 5.586291e+001 1.175381e-001 7.608942e-002 1.475481e+000 -4.071518e-001 -9.784746e-001 2.722564e-001 -4.059052e-001 -4.643935e-002 -8.977127e-001 -3.976609e-001 3.108566e-001 -1.016374e-001 2.208652e-001 4.588065e-002 -2.695245e-001 -8.203248e-001 4.006964e-002 3.250683e-001 -3.985329e-002 1.164662e-001 1.831786e-001 4.343193e-001 2.942119e-001 4.722280e-002 4.590708e-002 6.140542e-002
<VARIANCE> 39
 1.780334e+001 4.587328e+001 4.577425e+001 7.765873e+001 5.232720e+001 5.626409e+001 4.335891e+001 6.642979e+001 4.755359e+001 5.442821e+001 5.783858e+001 3.286530e+001 2.910270e+001 3.472059e+000 3.739799e+000 4.626864e+000 3.274010e+000 5.902445e+000 5.091926e+000 4.523669e+000 4.144532e+000 4.455109e+000 4.116102e+000 2.884245e+000 2.304217e+000 2.871497e+000 4.561086e-001 3.359241e-001 5.590725e-001 7.730840e-001 9.482470e-001 9.261570e-001 7.605016e-001 8.065997e-001 7.810494e-001 6.535084e-001 5.139456e-001 4.371998e-001 2.941909e-001
<GCONST> 1.320427e+002
<STATE> 3
<MEAN> 39
 -9.284186e+000 -3.591439e+000 1.429666e+001 -1.193321e+001 -1.787256e+001 -6.631382e+000 -1.142605e+001 -4.957487e+000 -1.279068e+001 -4.451768e+000 -1.807256e+000 -2.492639e+000 5.659538e+001 3.080794e-001 -5.959672e-001 -2.745053e-001 1.912279e-001 -5.907156e-001 -5.127028e-001 1.352958e-001 1.322620e-001 6.319849e-003 1.926758e-001 3.366284e-001 1.690305e-001 5.247695e-001 7.660643e-002 -1.637239e-001 -3.703530e-001 1.558634e-001 9.322687e-002 -2.459625e-001 8.899855e-002 1.593422e-001 1.499234e-001 6.433997e-002 4.634346e-002 4.566249e-002 4.189096e-002
<VARIANCE> 39
 1.181509e+001 3.995364e+001 3.729451e+001 7.760827e+001 4.241146e+001 4.561146e+001 4.172713e+001 5.877133e+001 4.249570e+001 5.823948e+001 5.422474e+001 2.975883e+001 2.045615e+001 4.896581e-001 1.006899e+000 1.239794e+000 1.164781e+000 1.601402e+000 2.063463e+000 1.719603e+000 1.900080e+000 1.594843e+000 1.357397e+000 1.209280e+000 1.037811e+000 5.092021e-001 1.079928e-001 1.494457e-001 2.501968e-001 2.174962e-001 4.430217e-001 3.469388e-001 3.116893e-001 3.182423e-001 3.445040e-001 2.896345e-001 2.474418e-001 2.041422e-001 1.163911e-001
<GCONST> 1.030977e+002
<STATE> 4
<MEAN> 39
 -6.092680e+000 -9.762932e+000 7.849942e+000 -8.564659e+000 -1.910546e+001 -1.217933e+001 -1.082325e+001 -3.492360e-001 -1.069070e+001 -4.447477e+000 6.087599e-001 -1.466079e+000 6.073954e+001 8.924589e-001 -9.476158e-001 -2.117528e+000 4.254048e-001 7.474825e-001 -9.688276e-001 -4.612186e-001 1.044776e+000 1.013969e+000 1.611103e-001 1.531574e-001 1.521561e-001 4.563367e-001 -4.587064e-002 2.584628e-001 -2.467425e-001 -1.653072e-001 5.038365e-001 3.731009e-001 -1.120310e-001 -1.970052e-001 2.417760e-001 3.480919e-002 -2.028680e-001 -7.262757e-002 -2.521423e-001
<VARIANCE> 39
 1.532683e+001 3.505556e+001 7.009229e+001 7.801274e+001 4.603870e+001 6.296709e+001 7.180798e+001 7.476529e+001 7.540440e+001 7.152994e+001 5.404099e+001 3.267542e+001 2.147914e+001 6.531830e-001 1.301303e+000 2.651173e+000 2.512368e+000 3.281984e+000 4.487672e+000 4.001796e+000 4.223585e+000 3.607576e+000 3.068056e+000 2.467676e+000 2.141618e+000 6.409910e-001 1.285020e-001 2.174609e-001 4.037862e-001 3.817715e-001 5.472431e-001 7.128065e-001 7.030580e-001 7.084107e-001 6.698688e-001 5.951464e-001 4.524677e-001 3.669014e-001 1.161020e-001
<GCONST> 1.211880e+002
<TRANSP> 5
 0.000000e+000 1.000000e+000 0.000000e+000 0.000000e+000 0.000000e+000
 0.000000e+000 5.428849e-001 4.571151e-001 0.000000e+000 0.000000e+000
 0.000000e+000 0.000000e+000 7.477810e-001 2.522190e-001 0.000000e+000
 0.000000e+000 0.000000e+000 0.000000e+000 4.651863e-001 5.348137e-001
 0.000000e+000 0.000000e+000 0.000000e+000 0.000000e+000 0.000000e+000
<ENDHMM>
