~o
<STREAMINFO> 1 39
<VECSIZE> 39<NULLD><MFCC_D_A_0><DIAGC>
~h "z"
<BEGINHMM>
<NUMSTATES> 5
<STATE> 2
<MEAN> 39
 -2.306929e+001 5.365103e+000 -3.672123e+000 -7.614673e+000 -1.196773e+000 -9.039001e+000 -5.621505e+000 -2.657578e+000 -3.611087e+000 -2.821330e+000 -3.668288e+000 -9.843961e-001 5.655837e+001 -3.919982e+000 5.714799e-001 -8.672596e-001 3.159097e-001 1.820562e+000 1.734231e+000 1.738738e+000 1.359755e+000 6.410142e-001 3.619468e-001 6.299613e-001 3.319104e-001 -2.354559e-001 9.828287e-001 -9.703943e-001 1.140144e-002 -1.710113e-001 -6.552455e-001 2.401083e-005 -1.614795e-001 8.654495e-002 -1.011286e-002 1.784781e-001 8.874010e-003 -1.982203e-002 7.564510e-002
<VARIANCE> 39
 3.182177e+001 2.823233e+001 4.798236e+001 4.206562e+001 4.984401e+001 5.064676e+001 4.760340e+001 3.792262e+001 3.043708e+001 2.970403e+001 2.122064e+001 1.964215e+001 1.876331e+001 3.328034e+000 3.751203e+000 3.082823e+000 3.927962e+000 3.232843e+000 4.410825e+000 3.568460e+000 3.451491e+000 3.431237e+000 3.116785e+000 2.631806e+000 2.452850e+000 1.416448e+000 6.962042e-001 6.041855e-001 5.670744e-001 7.473991e-001 7.115946e-001 9.276293e-001 7.745161e-001 7.527476e-001 6.059218e-001 5.977128e-001 5.143184e-001 5.189728e-001 2.345566e-001
<GCONST> 1.254954e+002
<STATE> 3
<MEAN> 39
 -2.871955e+001 1.428351e+000 -7.766244e+000 -8.594824e+000 2.219541e-001 -5.510847e+000 -1.323032e+000 1.323292e+000 -1.362119e+000 -6.645541e-001 -1.658404e+000 2.363510e-001 5.606155e+001 3.428609e-001 -7.747402e-001 -1.170580e-001 -2.572537e-001 -3.058383e-001 -8.614764e-002 -5.396584e-002 1.400417e-001 1.806412e-001 1.326910e-001 6.657553e-002 3.329924e-003 -5.986397e-003 1.114695e+000 -1.997890e-001 3.003928e-001 -1.220825e-002 -4.008293e-001 -3.534569e-001 -4.754469e-001 -3.574702e-001 -1.408291e-001 -9.246048e-002 -1.721870e-001 -1.365902e-001 -1.742555e-001
<VARIANCE> 39
 1.486943e+001 2.757414e+001 4.060621e+001 4.047074e+001 3.684459e+001 3.474232e+001 3.808702e+001 2.901806e+001 2.144550e+001 1.971183e+001 1.826541e+001 1.481682e+001 1.734692e+001 2.979255e+000 1.607055e+000 1.889518e+000 1.698744e+000 2.037605e+000 2.674956e+000 2.378411e+000 2.186296e+000 2.013572e+000 1.846363e+000 1.675699e+000 1.448272e+000 1.242468e+000 6.988305e-001 3.688371e-001 3.939738e-001 4.757498e-001 5.257298e-001 6.418136e-001 6.077359e-001 5.318277e-001 4.685729e-001 4.246871e-001 4.079272e-001 3.407829e-001 3.155826e-001
<GCONST> 1.122678e+002
<STATE> 4
<MEAN> 39
 -1.894638e+001 -1.782515e+000 -4.557839e+000 -8.765763e+000 -3.178304e+000 -8.000814e+000 -5.880641e+000 -1.373066e+000 -1.874161e+000 -1.074994e+000 -2.975642e+000 -1.089520e+000 5.476427e+001 3.819724e+000 -1.690795e+000 2.782334e-001 7.277763e-003 -1.565686e+000 -2.872018e-001 -1.131563e+000 -7.009901e-001 -2.433713e-001 1.685237e-001 -2.649063e-001 -4.012008e-001 -1.252438e+000 6.469192e-002 -4.254980e-002 -1.302771e-001 1.860210e-002 -8.782060e-002 2.317400e-001 9.939533e-002 8.404748e-002 -1.119348e-001 1.408555e-002 6.236964e-002 -1.435165e-002 -8.498684e-002
<VARIANCE> 39
 6.141717e+001 3.836439e+001 4.283485e+001 3.815384e+001 5.367665e+001 6.040166e+001 5.060755e+001 4.150826e+001 3.718890e+001 3.251696e+001 2.765487e+001 2.220559e+001 5.368734e+001 4.331882e+000 4.093062e+000 4.206991e+000 5.686139e+000 5.201164e+000 6.161779e+000 5.894784e+000 4.555515e+000 4.332377e+000 3.673094e+000 3.569311e+000 2.854626e+000 7.253685e+000 1.050438e+000 6.601523e-001 5.326849e-001 7.032505e-001 7.953620e-001 9.514467e-001 8.766419e-001 7.967705e-001 7.023405e-001 6.174005e-001 5.550048e-001 4.559658e-001 9.466859e-001
<GCONST> 1.357038e+002
<TRANSP> 5
 0.000000e+000 1.000000e+000 0.000000e+000 0.000000e+000 0.000000e+000
 0.000000e+000 5.805492e-001 4.194508e-001 0.000000e+000 0.000000e+000
 0.000000e+000 0.000000e+000 7.540104e-001 2.459895e-001 0.000000e+000
 0.000000e+000 0.000000e+000 0.000000e+000 6.566516e-001 3.433484e-001
 0.000000e+000 0.000000e+000 0.000000e+000 0.000000e+000 0.000000e+000
<ENDHMM>
