~o
<STREAMINFO> 1 39
<VECSIZE> 39<NULLD><MFCC_D_A_0><DIAGC>
~h "zh"
<BEGINHMM>
<NUMSTATES> 5
<STATE> 2
<MEAN> 39
 -2.211308e+001 -9.737291e-001 7.941063e+000 -6.936648e+000 -8.187573e+000 -6.592411e+000 -6.967288e+000 -2.965189e+000 -4.130941e+000 -5.381761e+000 -3.174333e+000 -5.910540e-001 5.823610e+001 -3.955757e+000 2.576139e-001 1.419827e-001 5.888186e-002 1.397572e+000 2.174715e+000 1.677652e+000 4.434634e-001 8.014405e-001 6.770682e-001 3.547432e-001 -1.621065e-002 -2.087128e-001 9.138500e-001 -7.836209e-001 -5.099412e-001 -8.348204e-002 -4.297694e-001 -2.518696e-001 -1.402292e-001 3.357663e-001 1.738695e-002 1.361385e-001 2.010272e-001 -5.902396e-003 1.990543e-001
<VARIANCE> 39
 3.924985e+001 2.790926e+001 2.919480e+001 4.068541e+001 4.069692e+001 4.420507e+001 3.223597e+001 2.597561e+001 3.522508e+001 2.613857e+001 1.699794e+001 1.786565e+001 1.464139e+001 3.003352e+000 2.913143e+000 2.409879e+000 2.072664e+000 3.404798e+000 3.635995e+000 3.084277e+000 2.908267e+000 2.941566e+000 3.154907e+000 2.115461e+000 1.866234e+000 1.071641e+000 6.383650e-001 3.272713e-001 3.656456e-001 4.294636e-001 5.209833e-001 8.027511e-001 6.360430e-001 6.046976e-001 5.765132e-001 5.485250e-001 4.949621e-001 3.655227e-001 2.244135e-001
<GCONST> 1.177642e+002
<STATE> 3
<MEAN> 39
 -2.910273e+001 -3.848837e+000 4.504699e+000 -8.261240e+000 -6.414021e+000 -2.174711e+000 -2.045888e+000 7.495334e-002 -1.480163e+000 -2.411466e+000 -7.528518e-001 -1.706612e-002 5.875666e+001 4.770784e-001 -5.232162e-001 -5.650335e-001 1.374521e-001 -4.494445e-001 -4.399281e-001 1.598777e-001 1.228232e-001 -5.023449e-002 1.750604e-001 1.732541e-001 -1.647819e-002 7.057045e-002 1.318249e+000 4.738491e-003 -5.817030e-002 1.006219e-001 -3.418549e-001 -6.937196e-001 -5.590880e-001 -2.085221e-001 -2.875270e-001 -2.298035e-001 -1.335959e-001 -6.987798e-002 -1.126845e-001
<VARIANCE> 39
 2.593795e+001 3.260594e+001 3.647235e+001 4.306327e+001 4.247289e+001 3.514309e+001 2.958480e+001 2.448254e+001 2.568347e+001 2.131458e+001 1.656687e+001 1.534607e+001 1.240094e+001 4.185727e+000 1.354869e+000 1.826650e+000 1.563152e+000 2.567071e+000 2.979200e+000 2.330744e+000 1.885760e+000 2.104003e+000 1.760302e+000 1.464084e+000 1.213562e+000 9.071817e-001 5.790948e-001 2.986328e-001 3.352009e-001 3.109607e-001 5.135504e-001 6.052310e-001 5.508657e-001 3.886098e-001 4.458326e-001 4.351999e-001 3.345141e-001 3.053458e-001 1.976620e-001
<GCONST> 1.098493e+002
<STATE> 4
<MEAN> 39
 -1.646236e+001 -5.412953e+000 2.844604e+000 -5.850279e+000 -1.000139e+001 -8.810988e+000 -6.504207e+000 -2.090379e+000 -3.584155e+000 -3.721492e+000 -2.228849e+000 -9.067420e-001 5.740420e+001 4.355801e+000 -6.885097e-001 -1.291157e+000 -8.614514e-002 -5.955479e-001 -1.324685e+000 -1.761698e+000 -1.506957e-001 -3.728184e-001 -3.252115e-001 -1.188920e-001 -9.976218e-002 -7.287848e-001 8.159661e-002 -1.562113e-001 -1.744998e-001 -2.100261e-001 1.827170e-001 3.808531e-001 -1.732899e-001 1.498917e-001 1.360510e-001 6.963772e-002 6.953962e-002 1.652894e-002 -3.892314e-002
<VARIANCE> 39
 6.511581e+001 3.119770e+001 4.104655e+001 4.674939e+001 5.138643e+001 4.678857e+001 3.753815e+001 3.301635e+001 4.266108e+001 2.970740e+001 2.150814e+001 1.798770e+001 3.829063e+001 5.071342e+000 3.506998e+000 3.789824e+000 3.802289e+000 5.511652e+000 6.788562e+000 6.353826e+000 3.340534e+000 4.253080e+000 3.678894e+000 3.086069e+000 2.468410e+000 3.492736e+000 9.891925e-001 4.536954e-001 4.750456e-001 4.990966e-001 7.824696e-001 7.930179e-001 9.255393e-001 5.648529e-001 6.718747e-001 5.761311e-001 4.278617e-001 3.952784e-001 5.049363e-001
<GCONST> 1.299878e+002
<TRANSP> 5
 0.000000e+000 1.000000e+000 0.000000e+000 0.000000e+000 0.000000e+000
 0.000000e+000 5.733999e-001 4.266001e-001 0.000000e+000 0.000000e+000
 0.000000e+000 0.000000e+000 7.471854e-001 2.528146e-001 0.000000e+000
 0.000000e+000 0.000000e+000 0.000000e+000 6.510790e-001 3.489210e-001
 0.000000e+000 0.000000e+000 0.000000e+000 0.000000e+000 0.000000e+000
<ENDHMM>
