~o
<STREAMINFO> 1 39
<VECSIZE> 39<NULLD><MFCC_D_A_0><DIAGC>
~h "aa"
<BEGINHMM>
<NUMSTATES> 5
<STATE> 2
<MEAN> 39
 -1.015834e+000 -1.584422e+001 -1.318415e+001 -1.665193e+001 -8.110975e+000 -1.170740e+000 -7.014269e+000 7.193524e-001 -1.323614e+000 -7.546433e-001 -2.725008e+000 -6.185179e+000 6.501771e+001 8.951251e-001 -1.471159e+000 -1.530498e+000 -8.776855e-001 8.714369e-001 1.422849e+000 3.461189e-001 -2.599373e-002 1.932860e-001 -9.650397e-002 6.904193e-002 -6.426785e-001 9.701149e-001 -5.569850e-001 3.979173e-001 2.770438e-001 4.564134e-001 2.957422e-001 -6.183132e-002 2.135237e-001 -2.389791e-001 -1.309405e-001 -1.012531e-001 6.086968e-002 3.066512e-001 -5.234137e-001
<VARIANCE> 39
 1.300907e+001 3.122302e+001 4.336227e+001 5.868625e+001 5.882680e+001 9.328633e+001 8.190002e+001 8.168035e+001 7.177690e+001 5.611227e+001 7.536591e+001 4.238307e+001 2.058852e+001 1.937532e+000 1.953225e+000 2.854336e+000 3.433445e+000 3.921796e+000 3.782640e+000 4.533839e+000 4.568810e+000 3.934502e+000 3.294555e+000 3.443324e+000 3.215031e+000 1.248559e+000 3.840548e-001 3.052361e-001 3.587286e-001 5.042772e-001 6.365068e-001 7.906631e-001 9.054365e-001 8.673934e-001 7.009507e-001 6.232327e-001 6.829401e-001 5.183336e-001 2.533874e-001
<GCONST> 1.288474e+002
<STATE> 3
<MEAN> 39
 -2.107242e-001 -1.708735e+001 -1.697810e+001 -1.727418e+001 -3.906705e+000 1.912072e+000 -5.316290e+000 -1.559314e+000 -1.348138e+000 -2.258807e+000 -2.289096e+000 -6.089014e+000 6.502706e+001 3.220922e-002 -8.866374e-002 -2.134408e-001 3.875539e-001 2.952791e-001 -4.417365e-001 -2.512322e-001 2.316399e-001 2.017390e-001 -1.585575e-001 -1.578665e-001 -1.116540e-002 -3.608582e-002 -2.534262e-002 1.958283e-001 1.748518e-001 1.085351e-001 -1.916096e-001 -3.063993e-001 -1.383697e-001 1.337106e-001 1.776031e-003 2.668929e-002 -5.890452e-002 6.176504e-002 -1.533486e-001
<VARIANCE> 39
 1.284536e+001 3.157875e+001 3.482126e+001 5.795901e+001 5.612197e+001 8.710767e+001 8.127090e+001 8.747285e+001 7.517139e+001 5.440619e+001 6.469693e+001 4.371421e+001 1.995643e+001 2.443487e-001 7.109415e-001 8.529938e-001 1.375149e+000 1.457914e+000 2.035069e+000 2.040778e+000 1.977095e+000 1.557078e+000 1.463922e+000 1.422423e+000 1.358122e+000 2.475191e-001 5.000000e-002 1.107023e-001 1.354847e-001 1.877173e-001 2.137846e-001 2.426274e-001 3.092729e-001 2.892395e-001 2.703769e-001 2.589479e-001 2.386861e-001 2.301465e-001 5.167091e-002
<GCONST> 1.001265e+002
<STATE> 4
<MEAN> 39
 -1.297027e+000 -1.509456e+001 -1.435198e+001 -1.424773e+001 -5.756841e+000 -3.166830e+000 -6.379796e+000 5.390125e-001 -5.939271e-001 -1.970575e+000 -4.564300e+000 -6.041481e+000 6.278261e+001 -8.496913e-001 1.943778e+000 1.499160e+000 1.667572e+000 -4.630013e-001 -1.561111e+000 -4.803744e-001 3.483935e-001 -2.743636e-001 4.245194e-002 -1.023839e-001 7.369710e-001 -2.178786e+000 -5.740155e-001 4.318879e-001 4.194127e-001 3.560039e-001 1.726595e-001 1.664698e-001 1.083204e-001 -3.302203e-001 -1.791068e-001 6.937305e-003 1.607789e-001 1.859992e-001 -5.876272e-001
<VARIANCE> 39
 1.503284e+001 3.766732e+001 4.396167e+001 5.440723e+001 5.356726e+001 8.917775e+001 8.266366e+001 7.886469e+001 7.400301e+001 5.891071e+001 6.638351e+001 4.736936e+001 3.119910e+001 3.064416e+000 3.490655e+000 3.289296e+000 4.152947e+000 4.059325e+000 4.297363e+000 5.065024e+000 5.283073e+000 4.452963e+000 4.139445e+000 3.857497e+000 3.411138e+000 4.186366e+000 4.790921e-001 4.828321e-001 4.033202e-001 6.173058e-001 6.308756e-001 8.338791e-001 7.768965e-001 8.176689e-001 7.200288e-001 7.247102e-001 6.514457e-001 5.728924e-001 5.019104e-001
<GCONST> 1.347016e+002
<TRANSP> 5
 0.000000e+000 1.000000e+000 0.000000e+000 0.000000e+000 0.000000e+000
 0.000000e+000 6.357028e-001 3.642972e-001 0.000000e+000 0.000000e+000
 0.000000e+000 0.000000e+000 8.584294e-001 1.415706e-001 0.000000e+000
 0.000000e+000 0.000000e+000 0.000000e+000 6.319679e-001 3.680321e-001
 0.000000e+000 0.000000e+000 0.000000e+000 0.000000e+000 0.000000e+000
<ENDHMM>
