~o
<STREAMINFO> 1 39
<VECSIZE> 39<NULLD><MFCC_D_A_0><DIAGC>
~h "ae"
<BEGINHMM>
<NUMSTATES> 5
<STATE> 2
<MEAN> 39
 -4.419503e+000 -1.664801e+001 -5.088159e+000 -1.361103e+001 -1.483213e+001 -7.992369e+000 -3.951526e+000 5.612437e+000 -1.938007e+000 -3.126866e+000 -5.334407e+000 -4.702623e+000 6.609323e+001 -4.343712e-002 -1.286962e+000 4.423000e-003 -7.632280e-001 -1.625649e-001 5.448923e-001 8.696600e-001 9.387900e-001 1.139744e-001 -6.131806e-001 -3.674652e-001 -1.457442e-001 1.120386e+000 -2.944721e-001 4.835435e-001 -7.756585e-002 3.198090e-001 4.348072e-001 1.596515e-001 1.053861e-001 -4.525715e-001 -1.061768e-001 3.851926e-002 8.125445e-002 1.575934e-001 -5.289249e-001
<VARIANCE> 39
 1.454717e+001 3.013205e+001 4.799240e+001 4.777644e+001 5.103757e+001 5.681466e+001 7.811935e+001 6.381778e+001 8.458128e+001 4.899464e+001 4.824877e+001 3.897916e+001 2.005069e+001 1.051357e+000 1.853860e+000 2.125419e+000 2.161254e+000 2.651649e+000 2.678785e+000 3.425653e+000 3.760840e+000 2.965255e+000 2.610486e+000 2.418349e+000 2.252743e+000 1.032058e+000 3.018004e-001 2.667783e-001 3.061590e-001 3.779377e-001 4.654270e-001 4.921568e-001 6.357422e-001 5.557497e-001 5.689542e-001 4.894483e-001 4.622248e-001 3.906660e-001 2.178888e-001
<GCONST> 1.196293e+002
<STATE> 3
<MEAN> 39
 -4.899952e+000 -1.729290e+001 -6.742418e+000 -1.328233e+001 -1.282623e+001 -6.512672e+000 -7.313735e-001 4.710819e+000 -2.154116e+000 -5.163409e+000 -6.403035e+000 -4.057342e+000 6.609054e+001 3.127649e-003 3.167612e-002 -1.761368e-001 5.517685e-002 2.281729e-001 9.606499e-003 2.125449e-002 -6.612386e-002 9.484119e-003 -7.707143e-002 -9.028052e-002 2.213436e-002 -8.036541e-002 2.946901e-002 1.921725e-001 1.526826e-002 6.795647e-002 -5.305727e-003 -1.283433e-001 -1.762924e-001 -7.223759e-002 -1.603580e-002 1.166598e-001 5.994765e-002 3.544442e-004 -1.722489e-001
<VARIANCE> 39
 1.294975e+001 3.034489e+001 4.713482e+001 4.334917e+001 5.484146e+001 5.525513e+001 6.248602e+001 6.220358e+001 8.595756e+001 4.369980e+001 4.171748e+001 4.180320e+001 2.306571e+001 2.511167e-001 6.287096e-001 9.385217e-001 8.316132e-001 1.222569e+000 1.274332e+000 1.454081e+000 1.319287e+000 1.250173e+000 1.213258e+000 1.166373e+000 9.759367e-001 2.362649e-001 5.000000e-002 1.186999e-001 1.336315e-001 1.472428e-001 1.883115e-001 1.928220e-001 2.232609e-001 2.337369e-001 2.219405e-001 2.019454e-001 2.000895e-001 1.758572e-001 5.586841e-002
<GCONST> 9.383204e+001
<STATE> 4
<MEAN> 39
 -4.615324e+000 -1.375970e+001 -6.441851e+000 -1.195977e+001 -1.220606e+001 -9.503472e+000 -3.634421e+000 4.048971e+000 -2.571462e+000 -3.393507e+000 -5.682384e+000 -3.976443e+000 6.267497e+001 -7.301815e-001 2.533981e+000 6.203747e-001 1.335265e+000 6.520426e-001 -3.792102e-001 -6.503081e-001 -1.096785e+000 -5.998058e-001 5.169002e-001 4.851584e-001 1.922874e-001 -2.678717e+000 -5.682203e-001 4.967328e-001 1.322394e-001 4.032605e-001 3.867198e-001 3.445740e-001 1.499533e-001 -3.393406e-001 -1.010287e-001 -3.259916e-002 9.084500e-002 6.876831e-002 -6.755733e-001
<VARIANCE> 39
 1.299226e+001 3.677359e+001 6.048889e+001 4.634647e+001 6.025041e+001 6.273190e+001 7.149319e+001 6.623885e+001 8.134561e+001 5.713266e+001 6.268415e+001 4.512147e+001 4.104007e+001 3.073536e+000 3.419916e+000 3.041071e+000 3.584233e+000 4.316641e+000 4.226816e+000 4.640695e+000 4.825122e+000 5.085826e+000 4.093920e+000 3.801969e+000 3.180369e+000 4.132130e+000 4.721786e-001 5.100405e-001 5.025840e-001 5.370075e-001 6.587123e-001 7.158191e-001 7.543449e-001 7.801647e-001 8.545538e-001 7.772079e-001 7.739658e-001 5.581141e-001 4.911421e-001
<GCONST> 1.343174e+002
<TRANSP> 5
 0.000000e+000 1.000000e+000 0.000000e+000 0.000000e+000 0.000000e+000
 0.000000e+000 5.964264e-001 4.035736e-001 0.000000e+000 0.000000e+000
 0.000000e+000 0.000000e+000 8.775257e-001 1.224743e-001 0.000000e+000
 0.000000e+000 0.000000e+000 0.000000e+000 7.341700e-001 2.658300e-001
 0.000000e+000 0.000000e+000 0.000000e+000 0.000000e+000 0.000000e+000
<ENDHMM>
