~o
<STREAMINFO> 1 39
<VECSIZE> 39<NULLD><MFCC_D_A_0><DIAGC>
~h "ah"
<BEGINHMM>
<NUMSTATES> 5
<STATE> 2
<MEAN> 39
 -3.426054e+000 -1.273726e+001 -8.657540e+000 -1.550352e+001 -9.315475e+000 -4.622323e+000 -1.059501e+001 2.182892e-002 -1.380624e-001 2.066833e-001 -4.131946e+000 -5.565350e+000 6.353074e+001 1.361543e+000 -1.703689e+000 -5.633982e-001 -1.209889e+000 -1.872647e-001 6.066332e-001 -8.280403e-001 6.491764e-001 9.353410e-001 9.131553e-002 -5.594932e-001 -9.261467e-001 1.371256e+000 -7.551304e-001 5.190132e-001 1.333124e-001 5.339154e-001 4.024134e-001 6.480275e-002 5.169951e-001 -1.814240e-001 -2.565872e-001 -1.160576e-001 1.031384e-001 2.754848e-001 -7.264369e-001
<VARIANCE> 39
 2.414024e+001 3.425253e+001 5.027514e+001 5.369371e+001 5.528928e+001 8.784528e+001 6.773692e+001 6.450353e+001 6.030477e+001 6.343249e+001 7.979967e+001 4.600117e+001 2.923897e+001 3.771256e+000 2.901218e+000 3.092185e+000 4.534825e+000 4.621222e+000 5.460151e+000 4.973807e+000 5.068583e+000 4.685455e+000 4.201741e+000 4.443148e+000 3.498274e+000 2.760871e+000 5.878210e-001 4.472184e-001 4.876179e-001 6.683241e-001 6.988440e-001 9.793536e-001 8.646567e-001 8.917989e-001 7.815325e-001 7.368755e-001 8.427023e-001 6.376891e-001 4.669365e-001
<GCONST> 1.361962e+002
<STATE> 3
<MEAN> 39
 -2.859576e+000 -1.454960e+001 -1.040099e+001 -1.652372e+001 -7.123193e+000 -3.195636e+000 -9.733790e+000 7.054704e-001 1.008330e+000 -8.744874e-001 -5.670129e+000 -6.130891e+000 6.449432e+001 2.744104e-002 3.719121e-001 9.800390e-002 2.085589e-001 1.226663e-001 -2.091140e-001 -2.726230e-002 -1.905039e-001 -1.403425e-001 -1.637612e-002 -4.631746e-002 5.515737e-002 -4.401231e-001 -1.900881e-001 5.232882e-001 2.316261e-001 3.647302e-001 -4.485607e-002 -1.918492e-001 1.020091e-001 -2.668180e-001 -3.415920e-001 2.604224e-002 1.373707e-001 1.954495e-001 -5.310552e-001
<VARIANCE> 39
 1.462162e+001 2.999139e+001 3.932318e+001 5.078817e+001 5.159680e+001 8.303225e+001 7.001777e+001 5.854519e+001 6.568163e+001 7.009964e+001 6.835045e+001 5.069334e+001 2.719390e+001 6.047296e-001 1.253372e+000 1.584713e+000 1.839661e+000 2.065765e+000 2.850585e+000 2.383462e+000 2.622622e+000 2.330893e+000 2.156458e+000 2.256543e+000 2.049609e+000 1.104127e+000 2.353553e-001 2.828915e-001 2.562558e-001 3.782505e-001 4.087754e-001 5.004179e-001 5.526257e-001 5.707362e-001 5.167341e-001 4.585459e-001 4.247096e-001 4.164450e-001 2.482726e-001
<GCONST> 1.172239e+002
<STATE> 4
<MEAN> 39
 -3.485263e+000 -9.537702e+000 -7.929211e+000 -1.327632e+001 -7.967681e+000 -6.375834e+000 -1.013473e+001 -1.593265e+000 -1.304529e+000 1.598507e-002 -4.099884e+000 -4.538455e+000 5.921690e+001 -1.385563e+000 2.770614e+000 1.179180e+000 2.344426e+000 6.207791e-001 -2.491768e-001 7.964100e-001 -1.367184e+000 -1.451790e+000 -4.239044e-001 2.063511e-001 6.889215e-001 -3.223616e+000 -7.254180e-001 2.221348e-001 9.987209e-002 3.223842e-001 2.484902e-001 3.304823e-001 4.327153e-001 -6.140409e-002 -1.097989e-001 -1.286242e-001 -1.900462e-002 5.720711e-002 -3.938908e-001
<VARIANCE> 39
 2.341701e+001 4.013051e+001 4.652502e+001 5.874141e+001 5.067597e+001 8.047054e+001 6.687231e+001 6.588410e+001 6.279453e+001 6.900004e+001 7.199594e+001 4.671816e+001 4.720236e+001 3.987552e+000 3.136312e+000 3.212806e+000 4.473898e+000 4.957006e+000 5.844472e+000 5.685443e+000 5.919328e+000 5.706756e+000 5.532911e+000 4.930838e+000 4.161542e+000 4.775899e+000 5.357168e-001 6.509347e-001 4.809371e-001 8.025786e-001 6.576260e-001 8.949159e-001 7.977157e-001 1.067802e+000 8.277206e-001 8.447195e-001 8.390548e-001 6.357127e-001 7.480526e-001
<GCONST> 1.396279e+002
<TRANSP> 5
 0.000000e+000 1.000000e+000 0.000000e+000 0.000000e+000 0.000000e+000
 0.000000e+000 4.255522e-001 5.744477e-001 0.000000e+000 0.000000e+000
 0.000000e+000 0.000000e+000 7.537753e-001 2.462247e-001 0.000000e+000
 0.000000e+000 0.000000e+000 0.000000e+000 5.030764e-001 4.969236e-001
 0.000000e+000 0.000000e+000 0.000000e+000 0.000000e+000 0.000000e+000
<ENDHMM>
