~o
<STREAMINFO> 1 39
<VECSIZE> 39<NULLD><MFCC_D_A_0><DIAGC>
~h "ao"
<BEGINHMM>
<NUMSTATES> 5
<STATE> 2
<MEAN> 39
 6.536419e-001 -9.283373e+000 -1.379420e+001 -2.180898e+001 -1.144102e+001 2.053269e+000 -4.292530e+000 -2.189790e+000 -4.810906e+000 -1.046709e+000 3.156531e-001 -3.427268e+000 6.049012e+001 7.100848e-001 -5.780385e-001 -7.013549e-001 -1.462180e+000 3.921667e-002 1.320831e+000 5.225874e-001 -9.782714e-002 -1.695962e-001 -1.588091e-001 3.579094e-001 5.905777e-002 8.374265e-001 -4.805745e-001 1.177513e-001 1.309983e-001 5.693319e-001 3.690276e-001 -2.438708e-001 -3.150561e-002 3.520387e-002 1.154436e-001 -7.048410e-002 -8.074751e-002 1.570033e-001 -3.150307e-001
<VARIANCE> 39
 1.200749e+001 4.651043e+001 3.981413e+001 6.469312e+001 7.836256e+001 7.741929e+001 8.733097e+001 6.802491e+001 7.300494e+001 7.152757e+001 7.151621e+001 4.572740e+001 2.697312e+001 1.796021e+000 2.175647e+000 2.387846e+000 4.248346e+000 4.460835e+000 4.129213e+000 4.191023e+000 3.917388e+000 3.837411e+000 3.635087e+000 3.423331e+000 3.021085e+000 1.428422e+000 4.500224e-001 3.694018e-001 3.551640e-001 5.543113e-001 6.454162e-001 6.324663e-001 8.261561e-001 6.768451e-001 7.750729e-001 6.466829e-001 6.512074e-001 5.102390e-001 2.470085e-001
<GCONST> 1.298367e+002
<STATE> 3
<MEAN> 39
 8.294933e-001 -1.048404e+001 -1.536438e+001 -2.489639e+001 -8.948470e+000 5.968005e+000 -1.850746e+000 -3.539432e+000 -3.590749e+000 -2.586361e+000 1.130636e-001 -2.779190e+000 6.192396e+001 -2.287033e-002 -1.900654e-001 -1.321658e-001 2.570277e-001 3.990862e-001 -1.582730e-001 -2.676891e-001 -2.936327e-002 1.537215e-001 8.252022e-002 2.322063e-002 -8.158451e-002 1.278383e-001 -2.712713e-002 4.327260e-002 6.465006e-002 2.389462e-001 -1.492541e-002 -2.637696e-001 -1.864188e-001 4.676482e-002 3.966746e-002 7.775125e-002 -4.363173e-002 -5.107001e-002 -8.497428e-002
<VARIANCE> 39
 1.025969e+001 4.147104e+001 3.633276e+001 6.790621e+001 8.619419e+001 7.180271e+001 8.082800e+001 6.116078e+001 6.314805e+001 6.194168e+001 6.034440e+001 4.524976e+001 2.221644e+001 1.975298e-001 9.221607e-001 7.998187e-001 1.684213e+000 1.530317e+000 1.634427e+000 1.734414e+000 1.448256e+000 1.498207e+000 1.550678e+000 1.436011e+000 1.437879e+000 3.028504e-001 5.000000e-002 1.050575e-001 1.184078e-001 1.771391e-001 2.274603e-001 2.321670e-001 2.558667e-001 2.510316e-001 2.547871e-001 2.514901e-001 2.465432e-001 2.261256e-001 5.000000e-002
<GCONST> 9.943864e+001
<STATE> 4
<MEAN> 39
 6.643900e-002 -1.248320e+001 -1.492440e+001 -1.730186e+001 -7.338157e+000 -4.587687e-001 -6.118003e+000 -1.608047e+000 -2.657104e+000 -1.040802e-001 -5.368884e-001 -5.089171e+000 6.191245e+001 -6.699546e-001 5.892258e-001 8.124474e-001 2.351974e+000 2.526586e-001 -1.897334e+000 -9.043169e-001 3.941315e-001 4.988708e-001 7.798904e-002 -6.357549e-001 2.419933e-001 -1.021314e+000 -3.759556e-001 3.144504e-001 3.632994e-001 2.253001e-001 -3.305820e-002 -6.885590e-002 8.648414e-002 -7.647076e-002 -2.309624e-002 -1.249341e-001 -9.902477e-002 2.403166e-001 -3.501568e-001
<VARIANCE> 39
 1.321802e+001 3.993482e+001 4.017290e+001 7.323225e+001 5.979471e+001 8.186207e+001 8.273483e+001 7.035744e+001 7.388928e+001 6.900347e+001 8.466225e+001 5.410147e+001 2.526492e+001 2.294582e+000 3.274279e+000 3.391255e+000 3.762044e+000 4.937247e+000 3.959038e+000 5.596136e+000 4.611185e+000 4.711212e+000 4.331379e+000 4.015975e+000 3.887228e+000 2.261659e+000 4.413206e-001 3.317897e-001 3.449771e-001 5.936496e-001 6.184220e-001 7.415107e-001 8.265375e-001 7.602394e-001 7.458286e-001 7.298151e-001 7.915334e-001 6.688225e-001 2.638469e-001
<GCONST> 1.333319e+002
<TRANSP> 5
 0.000000e+000 1.000000e+000 0.000000e+000 0.000000e+000 0.000000e+000
 0.000000e+000 6.343619e-001 3.656380e-001 0.000000e+000 0.000000e+000
 0.000000e+000 0.000000e+000 8.601763e-001 1.398237e-001 0.000000e+000
 0.000000e+000 0.000000e+000 0.000000e+000 6.318258e-001 3.681742e-001
 0.000000e+000 0.000000e+000 0.000000e+000 0.000000e+000 0.000000e+000
<ENDHMM>
