~o
<STREAMINFO> 1 39
<VECSIZE> 39<NULLD><MFCC_D_A_0><DIAGC>
~h "aw"
<BEGINHMM>
<NUMSTATES> 5
<STATE> 2
<MEAN> 39
 -4.001997e+000 -1.804831e+001 -9.242514e+000 -1.383589e+001 -9.266130e+000 -4.848358e+000 -3.930589e+000 3.093896e+000 -2.140188e+000 -3.708360e+000 -7.116652e+000 -4.601456e+000 6.667255e+001 3.543376e-001 -1.393988e+000 -8.153628e-001 -3.629570e-001 7.251338e-001 9.321145e-001 1.184984e-002 1.293049e-001 4.850160e-001 -4.580924e-001 -5.418153e-001 -3.595362e-001 9.626229e-001 -2.948669e-001 4.972919e-001 2.777479e-002 2.230932e-001 3.093261e-001 1.713860e-001 9.638920e-003 -4.171690e-001 -1.001555e-001 1.108222e-001 2.042082e-001 1.037334e-001 -5.542131e-001
<VARIANCE> 39
 1.340386e+001 2.843979e+001 5.036569e+001 4.647627e+001 6.327368e+001 6.413077e+001 7.828294e+001 7.133366e+001 7.478815e+001 5.175933e+001 4.398870e+001 4.255844e+001 1.671897e+001 1.188607e+000 2.062129e+000 2.014677e+000 2.389850e+000 3.016262e+000 2.822539e+000 3.901829e+000 3.705976e+000 2.808622e+000 2.470277e+000 2.414109e+000 2.394823e+000 1.268428e+000 3.495917e-001 2.873918e-001 2.986498e-001 4.077741e-001 5.263252e-001 4.947334e-001 6.662613e-001 6.652588e-001 6.022649e-001 4.746737e-001 4.486125e-001 4.221236e-001 2.138071e-001
<GCONST> 1.211166e+002
<STATE> 3
<MEAN> 39
 -2.250757e+000 -1.761539e+001 -1.352847e+001 -1.526962e+001 -4.732372e+000 -6.246016e-002 -4.741603e+000 -1.864268e+000 2.163101e-001 -4.095569e+000 -5.615378e+000 -5.438142e+000 6.550099e+001 2.552381e-001 3.903131e-001 -3.969905e-001 -4.726390e-001 2.507965e-001 5.590453e-001 -2.249413e-001 -4.779431e-001 -1.730807e-002 2.501306e-001 3.787444e-001 -3.835781e-002 -3.377919e-001 1.217572e-002 1.747677e-001 7.748135e-002 -9.119107e-003 -1.728247e-001 -1.135361e-001 -1.730405e-002 3.055045e-002 -7.622210e-002 7.798945e-002 7.000222e-002 5.719573e-002 -1.293109e-001
<VARIANCE> 39
 1.325823e+001 3.161940e+001 3.983784e+001 5.481675e+001 5.697021e+001 7.954090e+001 8.309727e+001 6.595736e+001 6.599248e+001 5.544771e+001 5.388230e+001 4.520682e+001 2.276820e+001 2.356687e-001 7.037984e-001 7.439190e-001 1.279588e+000 1.543597e+000 1.499712e+000 1.656761e+000 1.650262e+000 1.615093e+000 1.460451e+000 1.479286e+000 1.359396e+000 2.331132e-001 5.000000e-002 1.009979e-001 1.189122e-001 1.790835e-001 2.104778e-001 2.327048e-001 2.714924e-001 2.557968e-001 2.536027e-001 2.161682e-001 2.398991e-001 2.255040e-001 5.000000e-002
<GCONST> 9.802286e+001
<STATE> 4
<MEAN> 39
 -7.359981e-001 -1.155477e+001 -1.435320e+001 -1.911516e+001 -6.985510e+000 1.358054e+000 -6.371978e+000 -3.820430e+000 -1.704697e+000 -1.612830e-001 -2.620071e+000 -4.952096e+000 6.073753e+001 -4.950244e-001 1.661933e+000 1.015998e+000 1.240827e+000 -7.830586e-001 -1.202906e+000 -1.113466e-001 -2.957852e-001 -5.819082e-001 4.362148e-001 1.548941e-001 3.353896e-001 -1.858986e+000 -4.359247e-001 1.529469e-001 3.877369e-001 6.530727e-001 1.394175e-001 -2.925000e-001 9.401789e-002 -3.192382e-002 -9.331625e-002 -1.453656e-001 -1.664742e-001 5.763389e-002 -3.398497e-001
<VARIANCE> 39
 1.227172e+001 4.134528e+001 3.605751e+001 6.995538e+001 6.246441e+001 8.137526e+001 8.606386e+001 5.664548e+001 6.267032e+001 6.285597e+001 7.214700e+001 4.393795e+001 3.581393e+001 2.234599e+000 2.974206e+000 2.763889e+000 5.686012e+000 4.325927e+000 4.053265e+000 4.558362e+000 4.692075e+000 4.236105e+000 4.045034e+000 4.018016e+000 3.299215e+000 2.767203e+000 3.264125e-001 4.124752e-001 3.653650e-001 6.161135e-001 7.099130e-001 6.707383e-001 7.569744e-001 7.052532e-001 6.999868e-001 7.043254e-001 6.610211e-001 5.451372e-001 3.541488e-001
<GCONST> 1.320708e+002
<TRANSP> 5
 0.000000e+000 1.000000e+000 0.000000e+000 0.000000e+000 0.000000e+000
 0.000000e+000 6.820024e-001 3.179976e-001 0.000000e+000 0.000000e+000
 0.000000e+000 0.000000e+000 8.888739e-001 1.111261e-001 0.000000e+000
 0.000000e+000 0.000000e+000 0.000000e+000 7.517172e-001 2.482828e-001
 0.000000e+000 0.000000e+000 0.000000e+000 0.000000e+000 0.000000e+000
<ENDHMM>
