~o
<STREAMINFO> 1 39
<VECSIZE> 39<NULLD><MFCC_D_A_0><DIAGC>
~h "ax"
<BEGINHMM>
<NUMSTATES> 5
<STATE> 2
<MEAN> 39
 -1.588963e+000 -1.047697e+001 -8.991484e+000 -1.105433e+001 -8.655843e+000 -9.037905e+000 -1.275395e+001 -8.160318e-001 -1.052787e+000 -4.748698e-001 -3.057621e+000 -3.017900e+000 5.928567e+001 2.066808e+000 -8.476838e-001 -8.375853e-001 -5.584829e-001 -3.891180e-002 -3.890327e-001 -1.825331e+000 4.620099e-001 4.470551e-001 8.841258e-002 -1.161515e-001 -1.604575e-001 5.747820e-001 -7.099366e-001 4.865706e-001 7.933531e-002 3.409268e-001 3.088753e-001 2.796416e-001 5.444936e-001 -1.226551e-001 -2.542272e-001 -1.326921e-001 1.195884e-001 1.612737e-001 -6.500100e-001
<VARIANCE> 39
 2.096542e+001 3.110728e+001 5.755033e+001 6.842525e+001 5.236438e+001 8.566365e+001 6.919843e+001 7.024129e+001 6.181718e+001 5.957515e+001 5.867900e+001 3.942634e+001 2.214283e+001 5.414227e+000 2.787119e+000 4.076664e+000 4.605194e+000 4.730446e+000 5.653333e+000 6.311615e+000 5.874029e+000 4.961758e+000 4.002123e+000 3.865600e+000 3.159420e+000 1.996084e+000 7.000356e-001 4.766819e-001 4.700711e-001 7.787611e-001 6.383234e-001 8.290220e-001 9.291928e-001 8.159603e-001 8.233023e-001 7.622574e-001 7.356021e-001 5.541038e-001 5.927132e-001
<GCONST> 1.362148e+002
<STATE> 3
<MEAN> 39
 -6.600746e-001 -1.125264e+001 -9.781707e+000 -1.157868e+001 -8.205199e+000 -8.401601e+000 -1.370081e+001 2.721623e-001 -6.491921e-001 -3.905827e-001 -3.098576e+000 -3.304912e+000 5.940841e+001 5.439199e-001 3.418970e-001 -4.965428e-001 2.539886e-001 5.553192e-001 -8.599130e-002 -4.687461e-001 -5.608263e-002 -1.078392e-001 -1.309636e-001 5.415992e-002 1.360826e-001 -5.799620e-001 -7.777233e-001 6.809650e-001 2.605862e-001 4.744483e-001 2.405468e-001 1.562049e-001 7.087117e-001 -3.397110e-001 -3.482975e-001 -1.614200e-001 4.555610e-002 1.484337e-001 -6.958703e-001
<VARIANCE> 39
 1.655844e+001 3.019652e+001 5.888207e+001 6.820309e+001 5.328262e+001 9.444600e+001 8.040237e+001 7.815689e+001 6.788326e+001 6.313307e+001 5.973691e+001 4.458051e+001 2.061411e+001 2.505028e+000 2.031122e+000 3.081774e+000 3.539661e+000 3.357871e+000 3.981977e+000 4.883903e+000 4.364721e+000 3.990418e+000 3.251845e+000 3.116554e+000 2.620264e+000 1.747632e+000 6.782783e-001 4.822574e-001 4.826545e-001 7.468405e-001 6.797959e-001 8.871811e-001 1.012726e+000 9.358549e-001 8.521481e-001 7.743243e-001 7.183160e-001 5.739539e-001 4.908650e-001
<GCONST> 1.329154e+002
<STATE> 4
<MEAN> 39
 -8.388757e-001 -8.874996e+000 -9.979690e+000 -1.037976e+001 -6.893683e+000 -8.617971e+000 -1.331483e+001 -1.358042e+000 -1.518160e+000 -7.270352e-001 -2.567519e+000 -2.579323e+000 5.711866e+001 -7.635071e-001 1.571684e+000 1.171575e-001 1.274590e+000 9.256297e-001 1.303722e-001 7.011921e-001 -5.391864e-001 -6.635627e-001 -5.610141e-001 -9.978683e-004 3.626607e-001 -1.832798e+000 -7.921703e-001 3.347254e-001 3.032567e-001 2.942947e-001 7.654747e-002 2.264368e-001 6.300572e-001 -8.839556e-002 -1.635347e-001 -1.065486e-001 -4.703978e-002 4.386673e-002 -3.957626e-001
<VARIANCE> 39
 2.119028e+001 3.766485e+001 6.148264e+001 6.434447e+001 5.313060e+001 9.214112e+001 8.282536e+001 8.218404e+001 6.848889e+001 5.942616e+001 5.560442e+001 4.067988e+001 2.526315e+001 4.039049e+000 3.377595e+000 3.498010e+000 5.559729e+000 3.893673e+000 4.658601e+000 5.981490e+000 5.197397e+000 5.289613e+000 4.262020e+000 3.954562e+000 3.039032e+000 4.665868e+000 5.785155e-001 4.879903e-001 5.248556e-001 6.103517e-001 6.408113e-001 8.340394e-001 9.512941e-001 9.199083e-001 7.550301e-001 7.192433e-001 6.742259e-001 5.454941e-001 4.193975e-001
<GCONST> 1.366442e+002
<TRANSP> 5
 0.000000e+000 1.000000e+000 0.000000e+000 0.000000e+000 0.000000e+000
 0.000000e+000 1.306440e-001 8.693561e-001 0.000000e+000 0.000000e+000
 0.000000e+000 0.000000e+000 2.438904e-001 7.561095e-001 0.000000e+000
 0.000000e+000 0.000000e+000 0.000000e+000 1.872156e-001 8.127844e-001
 0.000000e+000 0.000000e+000 0.000000e+000 0.000000e+000 0.000000e+000
<ENDHMM>
