~o
<STREAMINFO> 1 39
<VECSIZE> 39<NULLD><MFCC_D_A_0><DIAGC>
~h "ay"
<BEGINHMM>
<NUMSTATES> 5
<STATE> 2
<MEAN> 39
 -1.508916e+000 -1.611315e+001 -1.405103e+001 -1.795752e+001 -5.286551e+000 1.165311e+000 -5.450996e+000 -2.203476e+000 3.845726e-001 -2.864553e-001 -4.350321e+000 -7.548079e+000 6.502738e+001 1.109177e-001 -1.710787e+000 -7.566787e-002 2.384717e-001 3.450716e-001 8.160047e-002 3.127123e-002 6.269124e-001 8.123726e-001 -4.848933e-001 -9.149221e-001 -5.288872e-001 1.035928e+000 -4.267313e-001 5.064380e-001 4.656095e-001 5.138516e-001 -1.165983e-001 -4.925497e-001 9.279417e-002 1.080284e-001 -2.656070e-001 -1.860046e-001 9.801760e-002 4.430592e-001 -4.839065e-001
<VARIANCE> 39
 1.091365e+001 3.064805e+001 3.457903e+001 5.067690e+001 5.315033e+001 8.106927e+001 6.555571e+001 6.455312e+001 6.167392e+001 6.151710e+001 6.873470e+001 4.384374e+001 1.902919e+001 1.425181e+000 1.796238e+000 2.584214e+000 3.664123e+000 3.101059e+000 4.791572e+000 3.322388e+000 4.018188e+000 3.098919e+000 2.812863e+000 2.885866e+000 3.136586e+000 1.153666e+000 3.972352e-001 2.781436e-001 3.155050e-001 5.338342e-001 6.244144e-001 5.989380e-001 6.228456e-001 6.862723e-001 6.028128e-001 5.637447e-001 6.621864e-001 5.398920e-001 1.996710e-001
<GCONST> 1.243281e+002
<STATE> 3
<MEAN> 39
 -2.716830e+000 -1.829766e+001 -1.208484e+001 -1.383880e+001 -6.000470e+000 -2.858330e+000 -4.378301e+000 7.189882e-001 7.907746e-001 -4.332780e+000 -6.590857e+000 -5.567258e+000 6.565230e+001 -2.287330e-001 9.206410e-002 8.270168e-001 4.093312e-001 -8.369689e-001 -9.811007e-001 2.336563e-001 7.757607e-001 -2.048914e-001 -3.079401e-001 2.432946e-002 3.826156e-001 -6.662372e-002 -4.907226e-003 2.471302e-001 1.306507e-001 -4.725812e-002 -1.834875e-001 -8.886798e-002 -2.035331e-002 -6.883477e-002 -1.592559e-001 1.224589e-001 1.846018e-001 5.598345e-002 -1.449416e-001
<VARIANCE> 39
 1.194430e+001 2.953641e+001 4.076223e+001 4.066859e+001 6.041746e+001 7.482915e+001 6.900071e+001 7.166474e+001 7.397292e+001 5.189325e+001 4.690831e+001 4.798432e+001 2.079548e+001 2.496947e-001 7.704169e-001 1.247788e+000 1.294106e+000 2.068084e+000 2.069776e+000 2.059696e+000 2.226147e+000 1.715528e+000 1.608473e+000 1.655609e+000 1.539443e+000 2.186267e-001 5.000000e-002 1.263624e-001 1.377556e-001 1.702287e-001 2.526123e-001 2.357835e-001 2.848233e-001 3.480575e-001 3.117512e-001 2.786186e-001 2.897320e-001 2.656102e-001 5.015877e-002
<GCONST> 1.011738e+002
<STATE> 4
<MEAN> 39
 -5.198468e+000 -1.223224e+001 -2.041474e+000 -1.179503e+001 -1.552741e+001 -1.157014e+001 -3.170055e+000 3.303555e+000 -4.227884e+000 -2.356612e+000 -3.433480e+000 -2.242647e+000 6.154056e+001 -8.165529e-001 2.337993e+000 1.305612e+000 1.326401e+000 -2.024725e-001 -4.889445e-001 -2.331816e-001 -1.231475e+000 -1.164980e+000 4.065485e-001 7.678397e-001 3.868045e-001 -2.419904e+000 -3.270803e-001 2.739001e-001 -4.725611e-001 2.668323e-001 8.716514e-001 6.320751e-001 -3.623766e-002 -4.341258e-001 1.851581e-001 1.777499e-003 -1.617583e-001 -1.617924e-001 -5.904317e-001
<VARIANCE> 39
 1.337952e+001 4.500205e+001 5.178876e+001 6.108319e+001 5.497763e+001 5.887655e+001 7.518843e+001 7.565519e+001 7.437584e+001 4.949559e+001 5.437632e+001 3.631498e+001 4.075791e+001 2.055435e+000 2.633550e+000 3.521662e+000 4.652165e+000 7.087289e+000 5.005547e+000 4.890502e+000 5.138592e+000 5.283792e+000 4.369046e+000 3.908290e+000 3.708439e+000 4.418109e+000 3.650472e-001 5.345497e-001 5.484758e-001 6.784460e-001 7.555096e-001 7.567616e-001 8.586915e-001 1.103676e+000 1.021319e+000 7.749195e-001 7.141944e-001 5.873648e-001 4.691476e-001
<GCONST> 1.358542e+002
<TRANSP> 5
 0.000000e+000 1.000000e+000 0.000000e+000 0.000000e+000 0.000000e+000
 0.000000e+000 6.541278e-001 3.458722e-001 0.000000e+000 0.000000e+000
 0.000000e+000 0.000000e+000 8.661137e-001 1.338863e-001 0.000000e+000
 0.000000e+000 0.000000e+000 0.000000e+000 7.457420e-001 2.542580e-001
 0.000000e+000 0.000000e+000 0.000000e+000 0.000000e+000 0.000000e+000
<ENDHMM>
