~o
<STREAMINFO> 1 39
<VECSIZE> 39<NULLD><MFCC_D_A_0><DIAGC>
~h "b"
<BEGINHMM>
<NUMSTATES> 5
<STATE> 2
<MEAN> 39
 -6.005372e+000 4.537903e+000 -1.648455e+000 -5.692988e-001 -2.346210e+000 -2.707316e+000 -7.431453e+000 -8.655389e+000 -8.960538e+000 -5.040069e+000 -3.994543e+000 -4.717126e+000 3.953001e+001 -1.172935e+000 7.484744e-001 4.670386e-001 8.829551e-001 7.864375e-001 5.067753e-001 6.983482e-001 1.302503e-001 8.329279e-002 -2.669060e-001 -2.052119e-001 9.734654e-002 -1.181712e+000 -5.379209e-002 -1.168040e+000 -3.375419e-001 -9.063382e-001 -5.909211e-001 -3.213562e-001 -8.493075e-002 5.762169e-001 5.373977e-001 4.284481e-001 2.390266e-001 2.447867e-001 1.570386e+000
<VARIANCE> 39
 2.456644e+001 1.675052e+001 1.826650e+001 2.736087e+001 2.328174e+001 3.110329e+001 3.275335e+001 2.945090e+001 3.031951e+001 2.906686e+001 3.079218e+001 2.516246e+001 1.636386e+001 2.678675e+000 5.839392e+000 3.256593e+000 5.119445e+000 3.318726e+000 3.511053e+000 3.690386e+000 4.363781e+000 4.490033e+000 3.524107e+000 3.016300e+000 2.483126e+000 8.772909e+000 4.125904e-001 6.239547e-001 7.422909e-001 8.111762e-001 7.004573e-001 6.659446e-001 8.759866e-001 8.334902e-001 7.938451e-001 7.261190e-001 6.395062e-001 5.248857e-001 7.732449e-001
<GCONST> 1.265009e+002
<STATE> 3
<MEAN> 39
 -1.440350e+001 -9.429165e-001 -3.618722e+000 -1.432678e+000 -1.441494e+000 -1.150171e+000 -2.954423e+000 -2.803596e+000 -3.219790e+000 -1.708043e+000 -1.983977e+000 -1.806790e+000 3.901305e+001 3.731979e-001 -2.054487e+000 -8.853375e-001 -1.924421e+000 -1.231032e+000 -8.620024e-001 -1.579460e-001 7.909889e-001 9.989609e-001 7.127703e-001 5.723857e-001 4.758293e-001 3.667407e+000 8.765668e-001 -3.843953e-001 -1.279927e-001 -8.755289e-001 -6.732202e-001 -3.625957e-001 -5.054793e-001 -1.322416e-001 -1.770825e-001 2.562463e-002 3.302678e-002 -9.142164e-002 1.357891e+000
<VARIANCE> 39
 3.618802e+001 2.314255e+001 1.965788e+001 2.408237e+001 1.766394e+001 2.293526e+001 2.342587e+001 2.815141e+001 2.937938e+001 2.573435e+001 2.026504e+001 1.753782e+001 6.490311e+001 4.358653e+000 3.886497e+000 3.937009e+000 5.642399e+000 3.749591e+000 3.990921e+000 4.159635e+000 4.328112e+000 4.475223e+000 3.687655e+000 3.112179e+000 2.479078e+000 1.124669e+001 6.781476e-001 6.703249e-001 8.397028e-001 8.968954e-001 7.262250e-001 8.510501e-001 7.490153e-001 8.047411e-001 8.451922e-001 7.345030e-001 6.767679e-001 4.904437e-001 1.215350e+000
<GCONST> 1.290870e+002
<STATE> 4
<MEAN> 39
 -6.503805e+000 -7.109939e+000 -6.661763e+000 -1.115562e+001 -8.366081e+000 -6.181805e+000 -6.989722e+000 -3.196362e+000 -2.419367e+000 -3.643879e-001 -7.132099e-001 -1.545028e+000 5.779465e+001 2.528038e+000 -2.578973e+000 -8.971242e-001 -3.718230e+000 -2.524126e+000 -7.111030e-001 -1.234577e+000 5.704002e-001 2.511531e-001 7.234725e-001 3.757179e-001 -2.950621e-002 4.782859e+000 3.019623e-002 4.901110e-001 2.969981e-001 4.000066e-001 2.600381e-001 4.517397e-001 2.117426e-002 -1.103069e-001 -3.923370e-001 -2.303282e-001 -2.442503e-001 -2.361069e-001 -1.190489e+000
<VARIANCE> 39
 4.324035e+001 2.769662e+001 5.140649e+001 6.510363e+001 3.873149e+001 5.787163e+001 4.657666e+001 3.922068e+001 3.896796e+001 3.473307e+001 3.493274e+001 2.552997e+001 3.236898e+001 5.235852e+000 5.328360e+000 8.432330e+000 7.392243e+000 6.598193e+000 8.244157e+000 7.901512e+000 7.584139e+000 7.500907e+000 5.706526e+000 5.646650e+000 4.224008e+000 6.248911e+000 8.098148e-001 5.866074e-001 5.201834e-001 9.412228e-001 7.407945e-001 7.521164e-001 8.534682e-001 8.584278e-001 8.202041e-001 7.001261e-001 6.536945e-001 5.155210e-001 6.663408e-001
<GCONST> 1.394957e+002
<TRANSP> 5
 0.000000e+000 1.000000e+000 0.000000e+000 0.000000e+000 0.000000e+000
 0.000000e+000 7.021156e-001 2.978844e-001 0.000000e+000 0.000000e+000
 0.000000e+000 0.000000e+000 5.611440e-001 4.388560e-001 0.000000e+000
 0.000000e+000 0.000000e+000 0.000000e+000 4.784308e-001 5.215692e-001
 0.000000e+000 0.000000e+000 0.000000e+000 0.000000e+000 0.000000e+000
<ENDHMM>
