~o
<STREAMINFO> 1 39
<VECSIZE> 39<NULLD><MFCC_D_A_0><DIAGC>
~h "ch"
<BEGINHMM>
<NUMSTATES> 5
<STATE> 2
<MEAN> 39
 -2.984324e+001 -5.790547e+000 1.006630e+000 -1.248945e+001 -4.062979e+000 1.576913e+000 -3.760046e+000 1.958132e-001 9.905722e-002 -1.232509e+000 4.841088e-001 1.075168e-001 5.694767e+001 -2.104902e+000 8.699638e-001 1.251747e+000 -1.519761e-001 -7.307732e-001 -3.208303e-003 8.236941e-001 1.513218e-001 2.227108e-001 4.928805e-002 1.416048e-001 1.012542e-001 2.886144e+000 8.644382e-001 1.718840e-001 -1.395146e-002 7.668192e-001 -1.790670e-001 -4.776627e-001 9.967646e-002 -1.082158e-001 -3.014134e-001 -4.543524e-002 -2.426895e-001 -1.161467e-001 -9.211162e-001
<VARIANCE> 39
 2.234052e+001 3.248381e+001 3.408908e+001 2.616160e+001 3.539989e+001 2.155045e+001 2.168486e+001 2.223412e+001 1.872810e+001 1.513888e+001 1.263278e+001 1.043296e+001 2.281273e+001 2.945464e+000 3.047076e+000 2.628478e+000 2.885066e+000 2.517629e+000 2.471897e+000 2.109559e+000 2.145953e+000 1.767702e+000 1.808248e+000 1.436503e+000 1.345062e+000 3.738265e+000 6.810376e-001 7.439115e-001 6.550293e-001 6.163163e-001 5.129693e-001 4.787909e-001 4.834673e-001 4.660614e-001 3.929213e-001 3.844782e-001 3.212767e-001 2.913653e-001 6.942487e-001
<GCONST> 1.131221e+002
<STATE> 3
<MEAN> 39
 -3.042674e+001 -6.040962e+000 2.883258e+000 -1.062909e+001 -7.733919e+000 -7.153286e-001 -8.696823e-001 -3.621131e-001 -5.971045e-001 -8.326291e-001 -2.476083e-001 1.384741e-001 6.092213e+001 1.340614e+000 -4.452964e-001 -1.588309e-001 6.204995e-001 -8.268551e-001 -1.069365e+000 1.790504e-001 -3.967665e-002 -3.477694e-001 -9.768725e-002 -2.856342e-001 -1.215519e-001 1.914580e-002 1.017986e+000 -1.410528e-001 -2.510076e-001 1.196097e-001 8.154428e-002 -2.726646e-001 -3.956900e-001 -1.648769e-002 -1.410846e-001 -1.516376e-001 -1.167588e-001 -7.816520e-002 -6.728877e-001
<VARIANCE> 39
 1.381559e+001 2.447186e+001 2.268274e+001 2.356935e+001 3.885620e+001 2.252629e+001 2.308186e+001 2.163173e+001 1.937540e+001 1.721957e+001 1.578148e+001 1.375608e+001 1.432918e+001 2.655471e+000 1.259586e+000 1.910603e+000 1.872359e+000 2.324723e+000 2.268423e+000 1.892903e+000 2.059165e+000 1.653923e+000 1.649129e+000 1.564023e+000 1.280589e+000 1.987822e+000 5.438288e-001 3.015575e-001 4.538049e-001 3.379987e-001 4.767237e-001 4.723181e-001 4.818643e-001 4.172719e-001 3.867936e-001 3.782410e-001 3.466492e-001 2.952417e-001 3.641152e-001
<GCONST> 1.065231e+002
<STATE> 4
<MEAN> 39
 -1.805260e+001 -8.283634e+000 1.129145e+000 -7.092292e+000 -1.041395e+001 -7.116279e+000 -3.489079e+000 -2.829161e-001 -2.580635e+000 -2.887270e+000 -2.080628e+000 -1.007941e+000 5.817989e+001 5.057159e+000 -6.574439e-001 -6.628043e-001 1.521216e-001 -6.850519e-001 -1.843303e+000 -2.181054e+000 1.212218e-001 -8.151118e-001 -7.408151e-001 -5.110044e-001 -4.061554e-001 -6.216112e-001 1.603514e-002 -1.571838e-001 -2.236686e-001 -5.252413e-001 1.210836e-001 3.721448e-001 -3.815388e-001 9.767916e-002 8.813021e-002 1.677391e-001 1.687047e-001 -6.828827e-004 1.916742e-001
<VARIANCE> 39
 7.258531e+001 2.484145e+001 3.213457e+001 3.785348e+001 4.096407e+001 3.915558e+001 4.229137e+001 3.135859e+001 3.345185e+001 2.427681e+001 2.464572e+001 1.772821e+001 2.358443e+001 3.929136e+000 3.027734e+000 4.353110e+000 4.045408e+000 5.980147e+000 5.927531e+000 6.760854e+000 4.738757e+000 4.864115e+000 3.866926e+000 3.817061e+000 2.686805e+000 4.412334e+000 1.173073e+000 4.297063e-001 4.976921e-001 4.932158e-001 7.377082e-001 7.865310e-001 9.912012e-001 7.561991e-001 6.931314e-001 6.274607e-001 5.437447e-001 4.119818e-001 5.880503e-001
<GCONST> 1.301329e+002
<TRANSP> 5
 0.000000e+000 1.000000e+000 0.000000e+000 0.000000e+000 0.000000e+000
 0.000000e+000 5.624999e-001 4.375000e-001 0.000000e+000 0.000000e+000
 0.000000e+000 0.000000e+000 7.374241e-001 2.625760e-001 0.000000e+000
 0.000000e+000 0.000000e+000 0.000000e+000 6.072301e-001 3.927698e-001
 0.000000e+000 0.000000e+000 0.000000e+000 0.000000e+000 0.000000e+000
<ENDHMM>
