~o
<STREAMINFO> 1 39
<VECSIZE> 39<NULLD><MFCC_D_A_0><DIAGC>
~h "d"
<BEGINHMM>
<NUMSTATES> 5
<STATE> 2
<MEAN> 39
 -8.418531e+000 8.059371e-001 1.429700e+000 -9.148781e-003 -6.735237e+000 -7.021216e+000 -7.745041e+000 -5.269016e+000 -5.756702e+000 -5.293257e+000 -6.312283e+000 -4.092813e+000 4.290789e+001 -1.479703e+000 4.626711e-001 -3.038176e-002 3.321461e-001 1.459235e+000 1.149452e+000 5.966495e-001 -2.424002e-001 1.285937e-001 9.083402e-002 8.937222e-002 -2.796889e-002 -1.069208e+000 -9.777351e-002 -1.152468e+000 -2.908076e-001 -1.174481e+000 -5.543827e-001 -1.059614e-001 -7.872836e-002 5.635116e-001 2.552598e-001 3.582891e-001 4.959715e-001 3.363051e-001 1.753908e+000
<VARIANCE> 39
 3.019629e+001 4.737246e+001 3.903619e+001 4.816402e+001 4.940854e+001 3.956020e+001 3.602509e+001 4.005466e+001 4.368637e+001 3.425004e+001 3.197408e+001 2.589302e+001 5.998993e+001 3.153745e+000 8.097013e+000 3.936896e+000 7.316679e+000 5.362664e+000 5.435776e+000 4.978507e+000 5.265127e+000 4.640403e+000 3.938836e+000 3.914435e+000 3.337911e+000 1.109893e+001 5.108436e-001 8.518232e-001 6.022148e-001 8.562033e-001 1.008523e+000 8.525332e-001 9.954975e-001 8.882385e-001 8.375131e-001 7.813490e-001 7.156349e-001 5.766809e-001 1.116524e+000
<GCONST> 1.376127e+002
<STATE> 3
<MEAN> 39
 -1.401929e+001 -6.069708e+000 -1.766715e+000 -5.293451e+000 -5.054111e+000 -3.344391e+000 -4.834545e+000 -2.398302e+000 -3.116656e+000 -2.321707e+000 -2.493213e+000 -1.604423e+000 4.792375e+001 -8.025727e-001 -1.804266e+000 -3.206478e-001 -2.200183e+000 -8.132385e-001 -3.682080e-001 -7.253934e-002 8.190352e-001 5.761436e-001 5.643333e-001 8.512038e-001 7.647238e-001 3.669963e+000 6.560104e-001 -3.069589e-002 8.299425e-002 -3.586918e-001 -7.911053e-001 -6.060859e-001 -4.467631e-001 1.499794e-001 -1.027393e-001 1.444120e-002 -6.534841e-002 -6.057206e-002 8.812835e-001
<VARIANCE> 39
 5.328619e+001 4.930885e+001 4.961522e+001 5.147057e+001 5.221888e+001 4.678370e+001 4.301495e+001 3.387639e+001 3.550170e+001 3.003749e+001 2.460105e+001 2.021832e+001 1.092475e+002 4.825454e+000 4.799269e+000 3.952906e+000 5.561207e+000 4.517646e+000 4.992225e+000 4.867145e+000 4.589167e+000 4.483876e+000 3.626993e+000 3.384462e+000 2.582884e+000 1.096263e+001 7.601153e-001 8.656048e-001 8.859644e-001 1.068864e+000 1.098038e+000 1.142931e+000 1.061799e+000 1.007556e+000 9.007239e-001 7.888531e-001 8.145049e-001 6.030688e-001 1.441918e+000
<GCONST> 1.392976e+002
<STATE> 4
<MEAN> 39
 -1.164741e+001 -8.221630e+000 -1.542005e+000 -1.005582e+001 -1.035516e+001 -8.463713e+000 -7.701437e+000 -1.155074e+000 -2.307679e+000 -1.934232e+000 -2.103219e+000 -5.670913e-001 5.898950e+001 1.370275e+000 -1.091594e+000 -6.934540e-002 -1.392893e+000 -1.778606e+000 -1.188321e+000 -1.242683e+000 9.234396e-001 3.087350e-001 3.977554e-001 9.875848e-002 1.076654e-002 2.766180e+000 4.880823e-001 2.516032e-001 -1.396637e-001 4.546397e-001 1.165179e-001 2.472854e-001 -1.273242e-002 -3.987962e-002 -1.734462e-001 -1.931143e-002 -1.727879e-001 -3.180817e-001 -9.296749e-001
<VARIANCE> 39
 6.483331e+001 4.072204e+001 5.444278e+001 4.737549e+001 5.572828e+001 5.398014e+001 5.467839e+001 4.221293e+001 4.522081e+001 3.154842e+001 2.902105e+001 2.320075e+001 3.857181e+001 8.368105e+000 3.964356e+000 5.035719e+000 5.377580e+000 6.095006e+000 6.374573e+000 7.241634e+000 5.771964e+000 5.537567e+000 4.410933e+000 5.166466e+000 3.704568e+000 7.458213e+000 7.500601e-001 8.025420e-001 7.368961e-001 9.422526e-001 1.153276e+000 1.295282e+000 1.013107e+000 8.653566e-001 8.223196e-001 6.912622e-001 7.089960e-001 5.694165e-001 1.147060e+000
<GCONST> 1.410047e+002
<TRANSP> 5
 0.000000e+000 1.000000e+000 0.000000e+000 0.000000e+000 0.000000e+000
 0.000000e+000 5.432920e-001 4.567080e-001 0.000000e+000 0.000000e+000
 0.000000e+000 0.000000e+000 3.134708e-001 6.865292e-001 0.000000e+000
 0.000000e+000 0.000000e+000 0.000000e+000 3.621672e-001 6.378328e-001
 0.000000e+000 0.000000e+000 0.000000e+000 0.000000e+000 0.000000e+000
<ENDHMM>
