~o
<STREAMINFO> 1 39
<VECSIZE> 39<NULLD><MFCC_D_A_0><DIAGC>
~h "dh"
<BEGINHMM>
<NUMSTATES> 5
<STATE> 2
<MEAN> 39
 -1.511017e+001 -1.288095e+000 -6.351923e+000 -3.846405e+000 -4.192972e+000 -4.551539e+000 -4.023217e+000 -3.086203e+000 -2.093368e+000 -1.318653e+000 -2.751841e+000 -2.046692e+000 4.592133e+001 1.042393e+000 -3.818038e-001 -7.027147e-002 -6.541967e-001 -9.566308e-001 -1.046305e+000 -5.268039e-001 1.330631e-001 3.423306e-001 -1.832583e-001 -1.936914e-001 -6.820486e-002 2.672143e+000 6.515125e-001 -5.413692e-001 6.785739e-002 -5.100083e-001 -5.808703e-001 -4.392431e-001 -3.401561e-001 1.810010e-001 1.302432e-001 1.231490e-001 -2.579275e-002 -1.230883e-002 8.693328e-001
<VARIANCE> 39
 4.347995e+001 2.824076e+001 2.425183e+001 2.749155e+001 2.321377e+001 3.053687e+001 3.980962e+001 3.736616e+001 3.025597e+001 2.490576e+001 2.604454e+001 2.570683e+001 7.096844e+001 5.413310e+000 2.885113e+000 3.122277e+000 3.607409e+000 3.831544e+000 4.352341e+000 4.214853e+000 3.776291e+000 3.532507e+000 2.816507e+000 2.792737e+000 2.814792e+000 9.879174e+000 6.705601e-001 6.849672e-001 7.837167e-001 7.768198e-001 6.547697e-001 7.494406e-001 8.622679e-001 7.667317e-001 7.256619e-001 6.137423e-001 6.296737e-001 5.751447e-001 1.348830e+000
<GCONST> 1.300307e+002
<STATE> 3
<MEAN> 39
 -9.741642e+000 -2.845501e+000 -6.775678e+000 -6.888007e+000 -8.616217e+000 -9.493587e+000 -6.713491e+000 -2.864481e+000 -6.630266e-001 -1.494940e+000 -3.314723e+000 -2.174916e+000 5.608281e+001 2.817354e+000 -1.559915e+000 6.222481e-001 -1.840180e+000 -2.338405e+000 -2.059320e+000 -1.850826e+000 5.057918e-001 4.800055e-001 1.751120e-001 -4.076635e-001 -3.300957e-001 3.980899e+000 -4.645707e-002 -3.882444e-001 3.361423e-001 -1.340852e-001 -2.246165e-003 3.356265e-001 1.525057e-002 1.871102e-001 -1.960907e-001 1.616426e-001 2.066834e-002 -1.804240e-002 -6.059367e-001
<VARIANCE> 39
 2.602959e+001 2.107931e+001 2.529524e+001 2.577784e+001 2.969286e+001 3.362360e+001 4.470417e+001 3.369204e+001 3.253698e+001 3.024688e+001 2.567205e+001 2.789425e+001 2.696457e+001 4.028077e+000 3.388837e+000 4.624200e+000 4.200033e+000 4.533481e+000 5.395538e+000 5.934432e+000 5.653385e+000 5.833194e+000 4.254248e+000 4.590588e+000 4.077538e+000 4.680597e+000 5.232119e-001 3.936152e-001 4.834047e-001 4.929445e-001 5.316803e-001 5.394469e-001 6.671408e-001 6.123372e-001 5.824427e-001 5.122342e-001 5.325676e-001 4.552154e-001 7.409282e-001
<GCONST> 1.273382e+002
<STATE> 4
<MEAN> 39
 -5.399598e+000 -7.152222e+000 -5.073257e+000 -1.075892e+001 -1.253326e+001 -1.237920e+001 -9.933938e+000 -1.571688e+000 -1.775863e-001 -4.210208e-001 -4.230323e+000 -2.955725e+000 6.106039e+001 1.854665e+000 -2.075052e+000 8.681936e-001 -1.788410e+000 -1.767509e+000 -9.787285e-001 -1.085740e+000 8.723432e-001 4.301624e-002 3.030334e-001 -3.003326e-001 -2.098231e-001 2.437087e+000 -7.282083e-001 2.068415e-001 2.827031e-002 4.253896e-001 6.192966e-001 7.781277e-001 5.952635e-001 -4.066451e-003 -3.442501e-001 -9.156825e-002 1.207181e-001 9.084783e-002 -1.190064e+000
<VARIANCE> 39
 1.308976e+001 2.833505e+001 4.143351e+001 4.408418e+001 4.567253e+001 4.956215e+001 6.113487e+001 5.092947e+001 5.666589e+001 4.668772e+001 4.166107e+001 3.995110e+001 2.309100e+001 2.787725e+000 2.717054e+000 3.894113e+000 3.695195e+000 4.004155e+000 4.747064e+000 6.012683e+000 4.935884e+000 4.898629e+000 3.760781e+000 4.377210e+000 3.218973e+000 2.688329e+000 5.163851e-001 3.720864e-001 4.777463e-001 5.847845e-001 6.160026e-001 6.237002e-001 6.915850e-001 6.890714e-001 7.133515e-001 6.060605e-001 5.539871e-001 5.763468e-001 5.924107e-001
<GCONST> 1.297571e+002
<TRANSP> 5
 0.000000e+000 1.000000e+000 0.000000e+000 0.000000e+000 0.000000e+000
 0.000000e+000 5.985640e-001 4.014360e-001 0.000000e+000 0.000000e+000
 0.000000e+000 0.000000e+000 1.787984e-001 8.212016e-001 0.000000e+000
 0.000000e+000 0.000000e+000 0.000000e+000 1.953771e-001 8.046228e-001
 0.000000e+000 0.000000e+000 0.000000e+000 0.000000e+000 0.000000e+000
<ENDHMM>
