~o
<STREAMINFO> 1 39
<VECSIZE> 39<NULLD><MFCC_D_A_0><DIAGC>
~h "ea"
<BEGINHMM>
<NUMSTATES> 5
<STATE> 2
<MEAN> 39
 -2.338837e+000 -1.644401e+001 -1.631018e+000 -1.292966e+001 -1.551272e+001 -1.212917e+001 -1.103771e+001 6.108911e+000 -3.165713e+000 -1.183038e+000 -2.088553e+000 -3.456422e+000 6.464246e+001 8.101622e-001 -1.879564e+000 4.645719e-001 -5.385714e-001 -1.270778e+000 -9.620171e-001 -8.335289e-001 2.029232e+000 9.126424e-002 -1.568178e-001 2.738623e-001 4.701520e-002 1.200595e+000 -5.462192e-001 5.746709e-001 -3.101679e-001 4.475769e-001 6.688761e-001 3.846427e-001 5.286009e-001 -1.479793e-001 4.312513e-002 9.994269e-003 9.450606e-002 3.050691e-001 -6.523166e-001
<VARIANCE> 39
 1.807211e+001 2.757716e+001 5.510699e+001 6.080895e+001 5.354415e+001 3.798413e+001 8.747485e+001 7.171313e+001 7.328751e+001 5.654097e+001 6.561892e+001 2.798584e+001 1.708206e+001 2.312380e+000 2.196334e+000 1.863962e+000 3.830468e+000 2.626918e+000 2.246409e+000 6.579387e+000 3.696240e+000 3.040900e+000 3.459712e+000 3.108008e+000 2.236675e+000 1.427995e+000 5.660750e-001 3.705024e-001 3.646833e-001 5.149146e-001 3.603849e-001 4.996302e-001 7.476299e-001 5.886807e-001 7.161430e-001 5.977132e-001 6.545388e-001 4.112090e-001 2.366073e-001
<GCONST> 1.248840e+002
<STATE> 3
<MEAN> 39
 -3.558395e+000 -1.729654e+001 -1.846507e+000 -1.488832e+001 -1.832651e+001 -1.370714e+001 -3.402851e+000 7.156360e+000 -6.942111e+000 -3.514151e-002 -2.174288e+000 -3.837663e+000 6.562952e+001 4.907227e-001 -5.008115e-001 -1.062729e+000 9.702547e-001 5.670071e-001 -7.345022e-001 -1.251721e-002 1.286466e+000 2.268455e-002 -6.297956e-001 1.771627e-001 1.843524e-001 -1.369728e-001 6.374389e-002 1.979496e-001 -2.698308e-001 1.337468e-001 2.902132e-001 1.291411e-002 -2.874849e-001 -1.182272e-001 9.338252e-002 -9.574988e-002 -9.697457e-002 4.151905e-002 -1.699263e-001
<VARIANCE> 39
 1.220290e+001 2.143585e+001 4.620024e+001 4.307789e+001 4.185046e+001 4.261200e+001 1.149238e+002 6.576355e+001 1.029503e+002 4.623671e+001 5.060469e+001 3.311349e+001 1.831801e+001 2.542849e-001 4.847957e-001 1.487792e+000 1.065533e+000 1.178815e+000 2.001226e+000 1.939744e+000 1.821838e+000 1.684141e+000 1.476048e+000 1.303659e+000 1.345408e+000 1.939028e-001 5.000000e-002 1.079404e-001 1.721296e-001 2.397167e-001 1.526662e-001 2.870397e-001 2.684793e-001 3.285827e-001 2.909717e-001 2.734307e-001 1.966493e-001 2.010639e-001 5.000000e-002
<GCONST> 9.765388e+001
<STATE> 4
<MEAN> 39
 1.367155e+000 -1.722514e+001 -1.157721e+001 -6.690422e+000 -9.269363e+000 -1.538230e+001 -1.732240e+001 1.330901e+001 1.153509e+000 -3.184389e+000 -1.143799e+000 -1.878080e+000 6.290718e+001 3.049394e-001 3.243695e-001 -7.764407e-001 3.479687e-001 6.612905e-001 -4.660680e-003 -8.441578e-001 -1.390891e-001 3.901250e-001 3.828517e-002 -2.425711e-001 1.207326e-001 -3.859441e-001 -5.095598e-002 8.741016e-002 1.809919e-001 -9.276831e-002 -8.289050e-002 1.110352e-001 1.119703e-001 -2.783479e-001 -1.243545e-001 7.920963e-002 3.169094e-002 -2.250208e-002 -5.067663e-002
<VARIANCE> 39
 6.314491e+000 2.892822e+001 5.554026e+001 2.862959e+001 4.268163e+001 6.656522e+001 1.460674e+002 5.635281e+001 7.678353e+001 5.264104e+001 4.351100e+001 3.256670e+001 1.851298e+001 2.496787e-001 4.250282e-001 1.533912e+000 8.043854e-001 1.357136e+000 1.177250e+000 1.790784e+000 1.225997e+000 1.138295e+000 1.109732e+000 9.119887e-001 8.274271e-001 1.787675e-001 5.000000e-002 1.035456e-001 1.762358e-001 1.546015e-001 2.132426e-001 1.955331e-001 2.980679e-001 2.020381e-001 2.205380e-001 2.215056e-001 1.660847e-001 1.323055e-001 5.000000e-002
<GCONST> 9.246967e+001
<TRANSP> 5
 0.000000e+000 1.000000e+000 0.000000e+000 0.000000e+000 0.000000e+000
 0.000000e+000 5.581241e-001 4.418759e-001 0.000000e+000 0.000000e+000
 0.000000e+000 0.000000e+000 7.522848e-001 2.477152e-001 0.000000e+000
 0.000000e+000 0.000000e+000 0.000000e+000 8.626209e-001 1.373790e-001
 0.000000e+000 0.000000e+000 0.000000e+000 0.000000e+000 0.000000e+000
<ENDHMM>
