~o
<STREAMINFO> 1 39
<VECSIZE> 39<NULLD><MFCC_D_A_0><DIAGC>
~h "eh"
<BEGINHMM>
<NUMSTATES> 5
<STATE> 2
<MEAN> 39
 -4.247725e+000 -1.412798e+001 -2.420577e+000 -1.330302e+001 -1.582106e+001 -1.115321e+001 -7.952549e+000 4.326434e+000 -2.471582e+000 -1.749290e+000 -3.565723e+000 -2.791302e+000 6.490102e+001 9.707866e-001 -1.946417e+000 -3.278035e-001 -7.871026e-001 -7.899289e-001 -2.487811e-001 -3.367816e-001 1.660568e+000 5.495439e-001 -2.902741e-001 -1.182974e-001 -1.653258e-001 1.498531e+000 -6.187388e-001 5.162359e-001 -2.282982e-001 3.017238e-001 6.516921e-001 4.162937e-001 3.667275e-001 -3.163541e-001 -4.564704e-002 2.689938e-002 6.126623e-002 9.010287e-002 -6.228205e-001
<VARIANCE> 39
 1.306351e+001 2.816803e+001 5.111723e+001 5.430863e+001 5.011433e+001 5.774702e+001 8.456686e+001 6.357063e+001 7.986842e+001 5.052539e+001 5.853286e+001 3.948389e+001 1.741299e+001 2.735775e+000 2.255816e+000 2.827707e+000 2.939460e+000 3.708836e+000 3.976195e+000 5.851297e+000 4.249921e+000 3.988261e+000 3.336078e+000 3.030555e+000 2.449168e+000 1.593152e+000 4.834846e-001 3.759415e-001 3.857329e-001 4.991936e-001 5.473252e-001 6.306421e-001 7.793700e-001 7.495831e-001 7.852535e-001 5.853965e-001 6.041079e-001 4.714864e-001 2.943791e-001
<GCONST> 1.276706e+002
<STATE> 3
<MEAN> 39
 -3.825959e+000 -1.585664e+001 -4.783023e+000 -1.322657e+001 -1.461908e+001 -1.070498e+001 -6.063828e+000 6.505873e+000 -1.745932e+000 -3.235265e+000 -4.277007e+000 -2.723950e+000 6.545580e+001 1.753109e-001 -1.486727e-003 -4.549381e-001 1.369958e-001 3.998806e-001 1.772229e-002 -2.126441e-001 1.234253e-001 1.146425e-001 -1.209266e-001 -9.912778e-002 -3.583189e-002 -1.553690e-001 -1.617797e-002 3.687379e-001 3.939662e-002 1.564252e-001 1.410744e-001 -2.039437e-002 -1.394180e-001 -3.689902e-001 -1.459172e-001 9.352686e-002 6.643879e-002 2.931760e-002 -3.579321e-001
<VARIANCE> 39
 1.551929e+001 2.767820e+001 4.648296e+001 5.357851e+001 5.546828e+001 7.034779e+001 9.938488e+001 6.792328e+001 8.850962e+001 5.141802e+001 5.556871e+001 3.979227e+001 1.929140e+001 4.076256e-001 7.957125e-001 1.651838e+000 1.218380e+000 1.656577e+000 1.767308e+000 2.262366e+000 2.099396e+000 1.956078e+000 1.589640e+000 1.463331e+000 1.301889e+000 3.791141e-001 8.285704e-002 1.924432e-001 2.084880e-001 2.399437e-001 2.853071e-001 2.869830e-001 3.793519e-001 3.927211e-001 3.596812e-001 2.956835e-001 2.826519e-001 2.525251e-001 1.415442e-001
<GCONST> 1.063695e+002
<STATE> 4
<MEAN> 39
 -3.595351e+000 -1.310076e+001 -4.899359e+000 -1.187219e+001 -1.301459e+001 -1.115761e+001 -8.579948e+000 4.065819e+000 -1.893836e+000 -2.439561e+000 -4.126584e+000 -2.863014e+000 6.251160e+001 -5.748194e-001 2.250550e+000 1.815840e-001 1.470906e+000 1.305851e+000 2.448168e-001 -1.748789e-001 -1.796003e+000 -7.665663e-001 5.854953e-002 2.105858e-001 1.688246e-001 -2.658410e+000 -5.443801e-001 4.844671e-001 6.926692e-002 2.856628e-001 3.428209e-001 3.878096e-001 3.661909e-001 -3.681419e-001 -1.474861e-001 2.896823e-004 3.137084e-002 7.266884e-003 -5.928366e-001
<VARIANCE> 39
 1.690351e+001 3.439302e+001 6.010252e+001 5.388757e+001 5.908905e+001 7.032564e+001 9.203716e+001 7.099998e+001 8.385869e+001 5.779231e+001 5.994513e+001 4.246180e+001 3.139915e+001 2.920816e+000 3.036397e+000 3.537903e+000 3.874655e+000 4.319067e+000 4.393645e+000 5.651635e+000 5.154562e+000 4.984087e+000 3.996968e+000 3.892537e+000 3.301049e+000 4.119047e+000 4.198700e-001 4.939964e-001 4.784454e-001 5.740293e-001 6.920235e-001 7.346511e-001 7.905883e-001 9.202005e-001 8.748657e-001 7.016236e-001 6.771579e-001 5.394500e-001 5.625358e-001
<GCONST> 1.351633e+002
<TRANSP> 5
 0.000000e+000 1.000000e+000 0.000000e+000 0.000000e+000 0.000000e+000
 0.000000e+000 5.204086e-001 4.795914e-001 0.000000e+000 0.000000e+000
 0.000000e+000 0.000000e+000 7.845057e-001 2.154942e-001 0.000000e+000
 0.000000e+000 0.000000e+000 0.000000e+000 5.766285e-001 4.233715e-001
 0.000000e+000 0.000000e+000 0.000000e+000 0.000000e+000 0.000000e+000
<ENDHMM>
