~o
<STREAMINFO> 1 39
<VECSIZE> 39<NULLD><MFCC_D_A_0><DIAGC>
~h "er"
<BEGINHMM>
<NUMSTATES> 5
<STATE> 2
<MEAN> 39
 1.126138e+000 -1.461883e+001 -1.091288e+001 -7.963913e+000 -8.616314e+000 -1.403663e+001 -1.629930e+001 4.715939e+000 -1.736167e+000 -3.587834e+000 -1.287699e+000 -8.158635e-001 6.118922e+001 1.730613e+000 -1.102921e+000 -1.614668e+000 -3.360979e-002 7.052747e-001 -8.411597e-001 -2.179560e+000 1.397387e+000 9.780553e-001 -2.516161e-001 4.457426e-002 2.241585e-001 5.429750e-001 -8.465288e-001 3.909942e-001 2.484120e-001 8.940762e-002 2.055643e-001 4.012396e-001 5.664125e-001 -2.820002e-001 1.229644e-002 1.399178e-001 -6.453228e-002 -3.968700e-002 -3.212244e-001
<VARIANCE> 39
 1.589088e+001 2.822635e+001 8.707155e+001 5.280244e+001 7.480012e+001 8.364123e+001 1.005456e+002 7.830811e+001 9.475026e+001 5.697658e+001 5.325256e+001 3.848499e+001 1.831464e+001 3.362013e+000 2.164783e+000 2.925138e+000 2.720261e+000 3.963473e+000 3.893999e+000 6.350668e+000 4.814380e+000 4.400982e+000 3.513366e+000 2.984427e+000 2.465745e+000 1.219814e+000 5.287068e-001 3.435335e-001 5.586570e-001 4.531793e-001 6.572542e-001 6.127158e-001 8.765450e-001 7.455956e-001 6.476709e-001 5.891173e-001 5.338591e-001 4.522295e-001 1.918601e-001
<GCONST> 1.297546e+002
<STATE> 3
<MEAN> 39
 2.794904e+000 -1.479603e+001 -1.528268e+001 -6.884560e+000 -5.287790e+000 -1.455246e+001 -1.906193e+001 6.345689e+000 1.896191e+000 -3.589053e+000 -1.649620e+000 -5.784324e-001 6.031321e+001 -2.223042e-002 1.255281e-001 -2.152970e-002 1.898744e-001 1.304902e-001 -7.311399e-002 -1.368642e-001 1.442698e-002 7.474256e-002 -7.872485e-002 -1.405819e-001 1.533921e-002 -2.145855e-001 -1.668423e-001 1.256064e-001 3.121660e-001 8.229031e-003 -2.077780e-001 1.220675e-001 3.246836e-001 -2.224126e-001 -2.256849e-001 -1.920945e-002 8.626465e-003 -2.110153e-002 -1.082734e-001
<VARIANCE> 39
 1.069228e+001 2.719900e+001 6.631226e+001 4.336774e+001 7.024517e+001 8.660191e+001 1.235202e+002 8.723672e+001 1.039698e+002 5.110070e+001 4.377246e+001 3.410473e+001 2.027281e+001 2.955846e-001 5.640630e-001 1.742630e+000 9.645844e-001 1.867231e+000 1.560438e+000 2.115297e+000 1.822621e+000 1.792661e+000 1.493633e+000 1.303431e+000 1.144748e+000 2.714836e-001 6.858235e-002 1.248446e-001 1.673164e-001 1.708975e-001 2.354623e-001 2.563538e-001 3.851836e-001 3.732056e-001 2.902443e-001 2.642100e-001 2.233330e-001 2.001362e-001 6.143371e-002
<GCONST> 1.019083e+002
<STATE> 4
<MEAN> 39
 -4.428035e-002 -1.244485e+001 -1.008238e+001 -5.129744e+000 -7.313544e+000 -1.467186e+001 -1.553409e+001 4.022840e+000 -1.504268e+000 -4.768387e+000 -3.083605e+000 -2.704381e-001 5.741980e+001 -1.788222e+000 1.573852e+000 1.646507e+000 5.137372e-001 -2.068852e-001 1.243291e+000 2.288661e+000 -1.577712e+000 -8.631299e-001 -1.340785e-002 -2.535385e-001 -2.759012e-001 -1.716963e+000 -6.126488e-001 3.910572e-001 1.757409e-001 -8.778930e-002 2.038997e-001 4.774173e-001 4.278972e-001 -2.357263e-001 -5.866323e-002 2.001300e-001 4.345462e-002 -1.381422e-001 -3.638993e-001
<VARIANCE> 39
 1.830344e+001 3.323204e+001 8.719202e+001 5.850785e+001 8.099866e+001 7.977877e+001 1.141290e+002 7.661232e+001 9.732527e+001 5.772025e+001 4.608377e+001 3.518938e+001 3.511612e+001 3.301975e+000 3.746121e+000 3.805269e+000 4.224970e+000 5.173097e+000 5.344420e+000 7.504346e+000 5.910790e+000 5.146131e+000 4.538415e+000 3.938260e+000 2.861027e+000 3.713664e+000 4.013177e-001 5.273160e-001 5.867293e-001 6.109165e-001 7.548892e-001 7.741430e-001 1.065594e+000 8.778024e-001 7.605662e-001 6.772162e-001 6.264507e-001 4.861035e-001 4.393225e-001
<GCONST> 1.374897e+002
<TRANSP> 5
 0.000000e+000 1.000000e+000 0.000000e+000 0.000000e+000 0.000000e+000
 0.000000e+000 5.986100e-001 4.013900e-001 0.000000e+000 0.000000e+000
 0.000000e+000 0.000000e+000 8.386373e-001 1.613628e-001 0.000000e+000
 0.000000e+000 0.000000e+000 0.000000e+000 6.937849e-001 3.062151e-001
 0.000000e+000 0.000000e+000 0.000000e+000 0.000000e+000 0.000000e+000
<ENDHMM>
