~o
<STREAMINFO> 1 39
<VECSIZE> 39<NULLD><MFCC_D_A_0><DIAGC>
~h "ey"
<BEGINHMM>
<NUMSTATES> 5
<STATE> 2
<MEAN> 39
 -4.578713e+000 -1.456018e+001 -1.254130e+000 -1.339458e+001 -1.685943e+001 -1.107785e+001 -7.793032e+000 4.942701e+000 -1.328030e+000 -1.910114e+000 -3.070331e+000 -2.734984e+000 6.533337e+001 -8.489356e-002 -7.793998e-001 1.385833e+000 -6.536051e-001 -1.712186e+000 -4.564005e-001 5.970020e-001 9.984164e-001 -6.909462e-001 -2.689241e-001 6.105198e-001 4.643826e-001 9.070969e-001 -3.929677e-001 5.865912e-001 1.817499e-002 1.974597e-001 3.428191e-001 3.438974e-001 1.948534e-001 -6.164361e-001 -3.482074e-001 1.656502e-001 2.732270e-001 7.478960e-003 -5.558037e-001
<VARIANCE> 39
 1.229599e+001 2.595958e+001 4.594505e+001 5.344344e+001 4.698228e+001 5.074212e+001 7.867850e+001 5.696760e+001 7.535821e+001 5.103753e+001 5.839929e+001 3.719742e+001 1.851020e+001 1.464136e+000 2.220109e+000 2.110848e+000 2.892124e+000 2.585651e+000 3.333717e+000 4.042214e+000 4.253018e+000 3.348280e+000 3.523473e+000 2.924664e+000 2.366530e+000 1.404130e+000 3.806649e-001 2.692365e-001 2.937914e-001 4.513733e-001 4.838022e-001 5.205779e-001 7.044216e-001 6.333126e-001 7.327684e-001 5.477940e-001 5.666636e-001 4.824738e-001 2.053941e-001
<GCONST> 1.227416e+002
<STATE> 3
<MEAN> 39
 -6.691932e+000 -1.214543e+001 3.999034e+000 -1.512968e+001 -2.098782e+001 -1.026254e+001 -5.074166e+000 1.870907e+000 -6.284720e+000 -7.074084e-001 -6.623337e-001 -2.021330e+000 6.462661e+001 -1.743230e-001 5.208589e-001 7.698954e-001 2.064624e-002 -3.752063e-001 1.214765e-001 -1.204106e-001 -6.763750e-001 -6.948372e-001 1.674286e-001 3.006507e-001 -1.463283e-002 -3.635785e-001 4.419770e-002 1.141268e-001 -1.565631e-001 1.914238e-001 2.595254e-001 -1.366234e-002 -1.305337e-001 -8.070011e-002 3.746247e-002 -7.073767e-002 -1.304065e-001 -4.351296e-002 -2.051084e-001
<VARIANCE> 39
 1.263210e+001 2.945732e+001 4.271624e+001 7.322333e+001 3.933565e+001 5.709481e+001 6.874394e+001 7.104823e+001 5.940760e+001 5.197554e+001 6.991094e+001 3.069225e+001 2.067050e+001 2.690432e-001 6.640012e-001 1.073810e+000 9.515376e-001 1.052995e+000 1.230396e+000 1.525276e+000 1.636872e+000 1.848957e+000 1.449418e+000 1.347014e+000 1.075716e+000 2.901783e-001 5.592635e-002 1.239499e-001 1.636606e-001 1.851244e-001 2.254127e-001 2.339914e-001 2.799284e-001 2.934367e-001 2.655262e-001 2.506350e-001 2.380167e-001 1.952277e-001 7.598768e-002
<GCONST> 9.791685e+001
<STATE> 4
<MEAN> 39
 -6.971542e+000 -8.317404e+000 6.794283e+000 -1.146628e+001 -1.991551e+001 -1.103734e+001 -7.497501e+000 -1.545403e+000 -9.812131e+000 -1.619951e+000 -2.204924e-001 -1.971972e+000 5.973420e+001 -6.299967e-001 1.587463e+000 -9.801690e-001 1.799288e+000 2.252943e+000 3.328522e-001 2.090717e-001 -7.047082e-001 1.006356e-001 -5.514424e-001 -5.653442e-001 -1.677804e-001 -2.408799e+000 -4.412777e-001 1.615859e-001 -6.428946e-001 1.717950e-001 7.592772e-001 3.464995e-001 2.881281e-001 6.874079e-002 4.758758e-001 6.274708e-002 -1.318351e-001 -6.438734e-003 -3.753772e-001
<VARIANCE> 39
 1.509898e+001 3.991847e+001 4.271507e+001 7.940110e+001 4.265940e+001 5.453871e+001 6.122932e+001 7.782069e+001 5.501917e+001 5.906946e+001 6.973904e+001 3.409507e+001 3.851485e+001 3.258190e+000 2.963130e+000 3.848528e+000 3.890455e+000 5.015407e+000 4.430395e+000 5.037586e+000 4.702037e+000 4.870805e+000 3.937726e+000 3.876974e+000 2.813609e+000 4.029685e+000 4.590363e-001 5.307145e-001 4.680388e-001 6.961177e-001 6.516136e-001 6.987646e-001 7.030738e-001 8.682827e-001 7.613444e-001 6.891081e-001 6.468374e-001 4.841268e-001 5.697575e-001
<GCONST> 1.337344e+002
<TRANSP> 5
 0.000000e+000 1.000000e+000 0.000000e+000 0.000000e+000 0.000000e+000
 0.000000e+000 6.319431e-001 3.680569e-001 0.000000e+000 0.000000e+000
 0.000000e+000 0.000000e+000 8.436820e-001 1.563180e-001 0.000000e+000
 0.000000e+000 0.000000e+000 0.000000e+000 6.984588e-001 3.015412e-001
 0.000000e+000 0.000000e+000 0.000000e+000 0.000000e+000 0.000000e+000
<ENDHMM>
