~o
<STREAMINFO> 1 39
<VECSIZE> 39<NULLD><MFCC_D_A_0><DIAGC>
~h "f"
<BEGINHMM>
<NUMSTATES> 5
<STATE> 2
<MEAN> 39
 -1.852324e+001 -5.151875e+000 -6.275815e+000 -4.951930e+000 -3.130816e+000 -3.089437e+000 -2.131429e+000 -6.128982e-001 -1.898596e+000 -1.356691e+000 -2.632731e+000 -1.057624e+000 5.230568e+001 -3.854109e+000 -5.710267e-001 -4.273566e-001 6.426019e-001 3.521800e-001 3.858028e-001 6.222652e-001 6.076652e-001 6.981149e-001 3.922030e-001 4.328494e-001 6.018558e-001 -7.300489e-001 6.130042e-001 -4.372807e-001 -2.255520e-001 -5.448073e-001 -4.833144e-001 -2.715987e-001 -4.060432e-001 -8.342262e-002 -1.135894e-001 6.539133e-002 1.345252e-002 -7.901310e-002 3.801465e-001
<VARIANCE> 39
 3.618251e+001 1.737927e+001 1.577463e+001 1.628069e+001 1.596573e+001 2.021825e+001 1.881561e+001 1.942064e+001 2.019347e+001 1.913020e+001 1.603873e+001 1.445764e+001 3.619615e+001 5.433657e+000 2.908894e+000 3.968789e+000 4.394635e+000 3.497809e+000 4.149149e+000 4.099371e+000 3.646433e+000 3.674066e+000 3.262404e+000 3.247990e+000 2.515283e+000 3.123248e+000 7.607694e-001 5.901629e-001 5.616165e-001 6.614354e-001 5.833372e-001 5.683879e-001 6.503788e-001 6.221403e-001 6.100693e-001 5.545394e-001 5.061522e-001 4.387641e-001 5.387702e-001
<GCONST> 1.200545e+002
<STATE> 3
<MEAN> 39
 -2.387817e+001 -8.684054e+000 -9.452716e+000 -6.523994e+000 -4.989348e+000 -4.027129e+000 -3.025815e+000 -2.822001e-001 -1.042698e+000 -1.662505e-001 -1.706120e+000 -1.211606e-001 5.319038e+001 2.989402e-001 -1.345591e-001 -1.242639e-001 -1.401482e-001 -7.244015e-002 -7.736269e-002 -9.682489e-002 -8.322381e-002 1.562532e-002 5.868360e-002 1.557027e-002 -3.097754e-002 1.384965e-001 8.885996e-001 1.597959e-001 1.451727e-001 -1.168089e-001 -3.427619e-002 -6.009245e-002 -1.324578e-001 -9.835983e-002 -1.086082e-001 -8.875909e-002 -6.423174e-002 -1.145151e-001 1.014700e-001
<VARIANCE> 39
 1.024310e+001 1.240205e+001 1.085792e+001 1.231113e+001 1.281787e+001 1.380067e+001 1.456376e+001 1.413222e+001 1.403612e+001 1.392178e+001 1.308838e+001 1.173468e+001 2.271808e+001 2.805525e+000 1.050592e+000 1.230856e+000 1.299708e+000 1.385720e+000 1.488566e+000 1.563194e+000 1.616733e+000 1.590379e+000 1.531823e+000 1.475838e+000 1.323130e+000 1.608041e+000 5.096019e-001 2.539639e-001 3.131123e-001 3.724654e-001 3.707025e-001 4.094645e-001 4.463507e-001 4.079833e-001 4.048528e-001 3.690160e-001 3.691735e-001 3.170277e-001 3.044922e-001
<GCONST> 9.757134e+001
<STATE> 4
<MEAN> 39
 -1.387556e+001 -6.989306e+000 -7.968291e+000 -8.022771e+000 -5.598100e+000 -4.610656e+000 -3.702872e+000 -1.503075e+000 -1.872164e+000 -8.801818e-001 -2.296445e+000 -1.297377e+000 5.437961e+001 5.289289e+000 -3.518245e-002 6.515479e-002 -1.752698e+000 -1.426894e+000 -6.419476e-001 -1.502544e+000 -5.216896e-001 -6.723853e-001 -4.521087e-001 -1.008545e-001 -5.710999e-001 1.227192e+000 1.424411e-001 -3.581697e-001 -1.397157e-001 -3.680488e-001 -3.395022e-001 -3.087789e-002 -3.369969e-001 1.121396e-001 -5.632342e-002 -1.302691e-002 1.006577e-001 1.351512e-004 2.794258e-001
<VARIANCE> 39
 7.152974e+001 2.049074e+001 2.849976e+001 3.117564e+001 2.830166e+001 3.132506e+001 2.863212e+001 2.530332e+001 2.414631e+001 1.993152e+001 1.922249e+001 1.635867e+001 2.766063e+001 4.457674e+000 4.119850e+000 5.690951e+000 5.854776e+000 5.236740e+000 6.495970e+000 6.251756e+000 4.891814e+000 4.874401e+000 3.889280e+000 4.100006e+000 3.025995e+000 4.089633e+000 1.309622e+000 4.791917e-001 4.971673e-001 6.602851e-001 6.776513e-001 6.953372e-001 7.902170e-001 6.880602e-001 6.518015e-001 5.824738e-001 4.984453e-001 4.201367e-001 4.533242e-001
<GCONST> 1.283450e+002
<TRANSP> 5
 0.000000e+000 1.000000e+000 0.000000e+000 0.000000e+000 0.000000e+000
 0.000000e+000 5.341380e-001 4.658620e-001 0.000000e+000 0.000000e+000
 0.000000e+000 0.000000e+000 8.336557e-001 1.663444e-001 0.000000e+000
 0.000000e+000 0.000000e+000 0.000000e+000 5.699629e-001 4.300371e-001
 0.000000e+000 0.000000e+000 0.000000e+000 0.000000e+000 0.000000e+000
<ENDHMM>
