~o
<STREAMINFO> 1 39
<VECSIZE> 39<NULLD><MFCC_D_A_0><DIAGC>
~h "g"
<BEGINHMM>
<NUMSTATES> 5
<STATE> 2
<MEAN> 39
 -9.695126e+000 1.988612e+000 7.433975e-001 5.633923e-001 -7.005277e+000 -9.110210e+000 -5.979135e+000 -4.664056e+000 -9.528596e+000 -4.831681e+000 -3.190453e+000 -3.665679e+000 4.093070e+001 -1.215780e+000 -4.890858e-001 -1.539205e+000 3.627002e-001 2.213597e+000 1.187638e+000 -8.752073e-002 -1.165233e-001 1.409598e+000 3.124814e-001 -4.298466e-001 2.721621e-001 -7.971813e-001 1.511776e-001 -1.293890e+000 -5.694507e-001 -1.029778e+000 -2.646669e-001 -5.565672e-002 -6.164396e-002 3.626834e-001 3.241437e-001 5.807701e-001 1.852749e-001 1.838034e-001 1.804367e+000
<VARIANCE> 39
 2.896817e+001 2.694657e+001 3.237304e+001 3.164351e+001 5.160112e+001 5.017962e+001 4.067586e+001 5.491596e+001 4.351765e+001 3.800537e+001 4.012236e+001 2.801418e+001 3.454871e+001 2.725977e+000 1.184141e+001 6.230316e+000 7.290501e+000 6.702507e+000 6.260056e+000 6.311287e+000 8.556805e+000 5.854237e+000 6.343708e+000 4.851372e+000 3.460343e+000 1.179920e+001 5.618604e-001 9.350512e-001 8.306231e-001 9.136878e-001 1.088316e+000 1.149991e+000 1.069306e+000 1.055564e+000 9.996314e-001 9.124234e-001 8.010043e-001 5.979218e-001 1.023782e+000
<GCONST> 1.413583e+002
<STATE> 3
<MEAN> 39
 -1.293489e+001 -1.092801e+001 -1.001023e+001 -5.534338e+000 -1.032228e+000 -6.118647e+000 -5.961469e+000 -1.511606e+000 -2.832336e+000 9.333671e-001 -3.075492e+000 -9.101427e-001 5.069530e+001 7.106431e-001 -1.420958e+000 -9.016283e-001 -1.791451e+000 -2.698092e-001 -5.506691e-001 -8.529232e-001 5.848631e-002 5.737366e-001 9.501011e-001 2.194410e-001 3.580893e-001 3.342621e+000 7.925579e-001 1.007374e+000 9.732378e-001 1.563810e-003 -9.510696e-001 -4.585089e-001 -3.076849e-001 -2.547419e-001 -6.367238e-001 -4.186607e-001 1.709971e-001 -2.014214e-001 -6.765559e-002
<VARIANCE> 39
 3.350887e+001 5.311765e+001 6.808960e+001 5.208075e+001 5.603363e+001 6.391354e+001 5.755864e+001 4.964348e+001 4.445006e+001 3.681034e+001 3.027664e+001 2.307706e+001 6.632855e+001 4.131039e+000 8.976537e+000 7.629001e+000 6.612522e+000 6.682168e+000 6.713249e+000 5.752548e+000 6.179646e+000 5.838305e+000 4.874387e+000 3.763283e+000 2.959130e+000 7.359504e+000 6.007171e-001 1.437708e+000 1.091675e+000 1.445500e+000 1.138294e+000 1.230698e+000 1.239377e+000 1.303293e+000 1.110036e+000 1.152072e+000 9.685597e-001 6.607863e-001 1.568056e+000
<GCONST> 1.456591e+002
<STATE> 4
<MEAN> 39
 -7.022400e+000 -5.810535e+000 -3.712720e+000 -7.055911e+000 -7.292037e+000 -1.071282e+001 -1.002841e+001 -4.043161e+000 -6.311543e+000 -4.321323e-001 -1.786928e+000 -1.470987e+000 5.598342e+001 2.385272e+000 4.739270e-001 8.913378e-001 -1.150020e+000 -1.925877e+000 -1.005179e+000 -1.566551e+000 1.010193e-001 -5.533005e-001 -5.180363e-001 7.467203e-001 -1.178377e-001 1.588404e+000 1.002818e-003 -2.803502e-001 -2.561109e-001 3.633747e-002 3.993580e-002 2.601373e-001 1.509888e-001 4.202284e-001 8.630633e-002 -1.911844e-001 -3.275632e-003 -8.085465e-002 -4.351608e-001
<VARIANCE> 39
 3.427435e+001 3.178086e+001 7.474353e+001 5.683205e+001 8.048480e+001 6.323954e+001 5.939895e+001 5.821707e+001 4.986704e+001 4.377574e+001 4.317108e+001 2.541600e+001 2.905118e+001 4.097659e+000 4.541743e+000 4.666374e+000 6.922289e+000 5.796484e+000 6.872274e+000 7.063983e+000 6.059795e+000 6.636430e+000 6.675745e+000 5.000890e+000 3.488529e+000 2.430258e+000 4.519944e-001 8.493623e-001 8.261123e-001 6.406834e-001 9.713643e-001 8.947404e-001 9.410472e-001 9.099585e-001 9.341146e-001 8.646494e-001 6.380207e-001 5.535610e-001 6.295283e-001
<GCONST> 1.395384e+002
<TRANSP> 5
 0.000000e+000 1.000000e+000 0.000000e+000 0.000000e+000 0.000000e+000
 0.000000e+000 6.645975e-001 3.354025e-001 0.000000e+000 0.000000e+000
 0.000000e+000 0.000000e+000 6.109905e-001 3.890096e-001 0.000000e+000
 0.000000e+000 0.000000e+000 0.000000e+000 4.202234e-001 5.797766e-001
 0.000000e+000 0.000000e+000 0.000000e+000 0.000000e+000 0.000000e+000
<ENDHMM>
