~o
<STREAMINFO> 1 39
<VECSIZE> 39<NULLD><MFCC_D_A_0><DIAGC>
~h "hh"
<BEGINHMM>
<NUMSTATES> 5
<STATE> 2
<MEAN> 39
 -1.313216e+001 -8.711070e+000 -2.629250e+000 -9.558309e+000 -6.329159e+000 -1.517836e+000 1.385804e+000 -8.279439e-001 -3.657696e+000 -2.578527e+000 -4.240771e+000 -9.480838e-001 5.562125e+001 -3.387319e-002 -2.312803e-001 -1.410400e-001 -2.850814e-003 2.680416e-001 4.331360e-001 6.342230e-001 -7.141110e-002 2.777361e-002 -1.569590e-001 -2.349073e-001 -1.530007e-001 2.741541e-001 4.433142e-001 1.571769e-001 -1.235363e-002 -1.137855e-001 -3.493572e-001 -3.019747e-001 -4.656460e-001 -1.607739e-001 -1.862088e-001 -5.243375e-002 1.435852e-002 -1.545705e-001 1.732146e-001
<VARIANCE> 39
 2.555480e+001 4.144819e+001 7.119637e+001 5.019732e+001 6.609794e+001 5.190790e+001 4.989397e+001 6.529063e+001 5.109982e+001 4.331508e+001 4.098144e+001 2.859440e+001 3.130043e+001 2.117310e+000 1.797142e+000 2.489575e+000 2.272983e+000 2.954689e+000 2.981750e+000 3.634109e+000 3.216188e+000 3.177313e+000 2.735185e+000 2.554800e+000 2.068039e+000 1.034377e+000 2.562204e-001 4.083738e-001 4.031007e-001 4.723448e-001 5.536964e-001 5.501344e-001 6.427211e-001 6.012486e-001 6.029938e-001 5.627643e-001 5.448801e-001 4.178191e-001 1.815793e-001
<GCONST> 1.225080e+002
<STATE> 3
<MEAN> 39
 -1.110134e+001 -6.316106e+000 -1.136574e+000 -8.704344e+000 -7.700934e+000 -2.432176e+000 7.678418e-001 -2.135980e+000 -5.280373e+000 -3.170395e+000 -5.027586e+000 -2.076262e+000 5.594974e+001 2.076911e+000 3.505163e-001 -9.249118e-002 -7.236796e-001 -1.414046e+000 -9.771657e-001 -1.185093e+000 -4.522922e-001 -7.372630e-001 -4.810890e-001 -2.974639e-001 -5.988034e-001 1.468528e+000 2.950948e-001 -4.327218e-001 -2.426434e-001 -4.452581e-001 -3.941406e-001 -3.074746e-001 -4.903275e-001 1.363728e-001 3.703504e-002 6.288358e-002 2.035200e-001 1.212467e-002 4.497380e-001
<VARIANCE> 39
 2.434624e+001 3.912990e+001 7.369724e+001 5.447102e+001 7.109177e+001 5.745342e+001 5.647005e+001 7.293905e+001 5.160876e+001 4.882316e+001 4.562381e+001 2.990503e+001 3.561850e+001 2.334294e+000 2.334061e+000 3.980057e+000 2.771462e+000 3.461363e+000 3.377284e+000 4.260609e+000 3.690475e+000 3.908896e+000 2.847486e+000 3.254418e+000 2.236063e+000 1.612506e+000 2.536288e-001 3.266795e-001 3.363835e-001 3.354738e-001 4.526779e-001 4.664005e-001 6.224328e-001 5.225897e-001 5.249434e-001 5.576856e-001 4.351641e-001 3.873717e-001 1.557745e-001
<GCONST> 1.240588e+002
<STATE> 4
<MEAN> 39
 -6.756996e+000 -7.478262e+000 -2.651704e+000 -1.313198e+001 -1.278018e+001 -6.400508e+000 -9.424660e-001 -2.877676e+000 -7.054509e+000 -4.018343e+000 -5.907944e+000 -2.938297e+000 6.175134e+001 1.469317e+000 -1.509010e+000 -9.997000e-001 -9.940460e-001 -1.062817e+000 -9.371126e-001 -9.091735e-001 5.681686e-001 4.605004e-002 -1.355316e-002 2.477234e-001 -1.986157e-001 1.701764e+000 -3.098633e-001 -4.240871e-001 5.127053e-002 3.741499e-002 1.768953e-001 1.636247e-001 -2.921594e-002 2.556897e-001 2.801017e-001 1.264254e-001 1.811324e-001 7.693353e-002 -3.761144e-002
<VARIANCE> 39
 1.635126e+001 3.028553e+001 7.709570e+001 6.508910e+001 6.693195e+001 6.060413e+001 6.131799e+001 8.060920e+001 5.706382e+001 4.787171e+001 5.786017e+001 2.854879e+001 2.415393e+001 1.512924e+000 2.054424e+000 3.099871e+000 2.677679e+000 3.535002e+000 3.161791e+000 4.532176e+000 3.543838e+000 3.378963e+000 3.199219e+000 2.590688e+000 2.228218e+000 1.283659e+000 2.209215e-001 2.327459e-001 3.367111e-001 3.145981e-001 3.886214e-001 3.644178e-001 4.917623e-001 4.500335e-001 4.053553e-001 4.167776e-001 3.691460e-001 3.100598e-001 1.242618e-001
<GCONST> 1.198408e+002
<TRANSP> 5
 0.000000e+000 1.000000e+000 0.000000e+000 0.000000e+000 0.000000e+000
 0.000000e+000 6.859986e-001 3.140014e-001 0.000000e+000 0.000000e+000
 0.000000e+000 0.000000e+000 3.622949e-001 6.377051e-001 0.000000e+000
 0.000000e+000 0.000000e+000 0.000000e+000 4.798366e-001 5.201634e-001
 0.000000e+000 0.000000e+000 0.000000e+000 0.000000e+000 0.000000e+000
<ENDHMM>
