~o
<STREAMINFO> 1 39
<VECSIZE> 39<NULLD><MFCC_D_A_0><DIAGC>
~h "ia"
<BEGINHMM>
<NUMSTATES> 5
<STATE> 2
<MEAN> 39
 -1.111397e+001 -5.603333e+000 1.254565e+001 -9.308722e+000 -1.722028e+001 -7.931757e+000 -7.801353e+000 -5.621165e+000 -1.138756e+001 -4.901621e+000 -1.601588e+000 -2.638299e+000 5.671158e+001 1.647040e+000 -1.401422e+000 3.542439e-001 9.684252e-001 -1.773359e+000 -2.854743e+000 -6.847776e-002 1.332994e+000 -1.355635e+000 6.744013e-002 1.096346e+000 3.576508e-001 1.489243e+000 6.366591e-001 -2.741818e-001 -9.569205e-001 4.410988e-001 5.385813e-001 -5.734535e-001 -3.069516e-001 8.622827e-001 1.841452e-001 -2.248456e-001 1.845301e-001 1.244717e-001 -3.553860e-001
<VARIANCE> 39
 1.700926e+001 1.779848e+001 1.951332e+001 7.618992e+001 3.057701e+001 4.665767e+001 3.115425e+001 3.460170e+001 3.295970e+001 4.495837e+001 3.489529e+001 2.474352e+001 1.880385e+001 2.705465e+000 2.128910e+000 3.749436e+000 3.625817e+000 3.515705e+000 6.202408e+000 4.864581e+000 4.420508e+000 3.627814e+000 5.643660e+000 2.722835e+000 1.946716e+000 1.562169e+000 4.123256e-001 2.777986e-001 4.093342e-001 6.120278e-001 6.522229e-001 8.063052e-001 8.258615e-001 7.329685e-001 6.721925e-001 6.267211e-001 4.132124e-001 4.002489e-001 2.996864e-001
<GCONST> 1.230158e+002
<STATE> 3
<MEAN> 39
 -5.414504e+000 -1.174878e+001 9.383121e+000 -5.454977e+000 -1.847494e+001 -1.639688e+001 -9.298134e+000 1.994602e+000 -1.460303e+001 -6.169082e+000 2.880681e+000 -1.226761e+000 5.974784e+001 2.304162e+000 -2.015108e+000 -2.127321e+000 8.574046e-001 6.210883e-001 -2.978129e+000 -1.891974e+000 3.146118e+000 3.753561e-001 -1.071818e+000 1.058897e+000 1.105630e+000 9.174400e-001 -1.768115e-001 2.282684e-001 -6.422669e-001 -2.381024e-001 8.157202e-001 7.589156e-001 -5.011301e-001 -1.307646e-001 9.739917e-001 -1.018785e-001 -5.227001e-001 1.267255e-001 -3.706863e-001
<VARIANCE> 39
 8.549117e+000 1.813754e+001 3.068402e+001 6.192480e+001 2.937515e+001 4.190638e+001 4.961049e+001 3.873693e+001 4.993294e+001 8.737853e+001 3.421008e+001 2.964267e+001 1.492675e+001 1.517693e+000 1.286494e+000 2.973802e+000 2.030959e+000 2.970480e+000 3.857786e+000 5.913081e+000 3.800427e+000 4.349419e+000 3.443869e+000 2.638512e+000 2.436555e+000 5.398591e-001 2.569720e-001 2.494038e-001 4.758897e-001 4.582332e-001 4.560797e-001 6.653547e-001 6.427216e-001 5.331507e-001 5.645767e-001 9.901390e-001 3.653199e-001 3.212141e-001 1.484127e-001
<GCONST> 1.177567e+002
<STATE> 4
<MEAN> 39
 -1.043410e+000 -1.478459e+001 1.963342e+000 -3.605757e+000 -1.381941e+001 -1.937380e+001 -1.715309e+001 8.343260e+000 -7.771274e+000 -9.701092e+000 2.818616e+000 2.361055e+000 6.079902e+001 1.283941e+000 -7.450792e-001 -2.318844e+000 1.068269e-001 1.486759e+000 -3.514004e-001 -2.121437e+000 1.066861e+000 1.878492e+000 -1.558611e-001 -5.755764e-001 5.497798e-001 9.688801e-002 -5.077304e-001 5.164039e-001 3.777429e-001 -4.735738e-002 -1.199449e-001 9.147322e-001 6.066709e-001 -1.019914e+000 -1.193145e-003 2.955011e-001 -3.971974e-001 -3.147857e-001 -3.886434e-001
<VARIANCE> 39
 9.141602e+000 2.052711e+001 4.509016e+001 4.420152e+001 4.437594e+001 4.464567e+001 8.454870e+001 4.739736e+001 7.036564e+001 6.276922e+001 3.334882e+001 2.815186e+001 1.220183e+001 6.636694e-001 8.144106e-001 2.826779e+000 1.553291e+000 2.424446e+000 2.317036e+000 3.377894e+000 2.747490e+000 2.745691e+000 2.753515e+000 1.791154e+000 1.320337e+000 3.340220e-001 1.812830e-001 2.189070e-001 3.768299e-001 3.948381e-001 4.546037e-001 6.180264e-001 8.606881e-001 5.073084e-001 6.214596e-001 5.965955e-001 3.927188e-001 3.123645e-001 1.015186e-001
<GCONST> 1.121329e+002
<TRANSP> 5
 0.000000e+000 1.000000e+000 0.000000e+000 0.000000e+000 0.000000e+000
 0.000000e+000 5.814219e-001 4.185781e-001 0.000000e+000 0.000000e+000
 0.000000e+000 0.000000e+000 4.857459e-001 5.142541e-001 0.000000e+000
 0.000000e+000 0.000000e+000 0.000000e+000 5.986892e-001 4.013108e-001
 0.000000e+000 0.000000e+000 0.000000e+000 0.000000e+000 0.000000e+000
<ENDHMM>
