~o
<STREAMINFO> 1 39
<VECSIZE> 39<NULLD><MFCC_D_A_0><DIAGC>
~h "ih"
<BEGINHMM>
<NUMSTATES> 5
<STATE> 2
<MEAN> 39
 -5.578000e+000 -1.100693e+001 1.805933e+000 -1.218167e+001 -1.698165e+001 -1.228720e+001 -9.359692e+000 1.922553e+000 -5.679417e+000 -2.760430e+000 -2.391894e+000 -1.466700e+000 6.215819e+001 4.801787e-001 -4.444997e-001 2.234365e-001 -1.864322e-001 -4.517983e-001 -2.141192e-001 -2.714382e-001 4.907637e-001 -1.630188e-001 -1.597667e-001 -1.167301e-002 1.148347e-002 2.827074e-001 -3.921724e-001 5.470660e-001 -3.118191e-001 3.754994e-001 6.325243e-001 2.897063e-001 2.752441e-001 -4.031478e-001 -3.401202e-002 7.151305e-002 -4.888551e-002 -6.199239e-002 -6.756859e-001
<VARIANCE> 39
 1.252633e+001 2.913364e+001 4.928276e+001 6.323819e+001 4.984507e+001 5.680863e+001 7.492818e+001 6.234440e+001 7.134647e+001 5.344714e+001 5.623713e+001 3.655815e+001 2.256967e+001 1.812058e+000 1.895863e+000 2.679176e+000 2.390426e+000 3.546782e+000 2.941566e+000 3.761860e+000 3.458726e+000 3.593486e+000 2.896004e+000 2.664331e+000 2.035783e+000 1.555659e+000 4.887049e-001 3.554130e-001 3.988029e-001 4.987656e-001 5.684832e-001 6.608621e-001 8.024812e-001 7.094370e-001 6.884539e-001 5.856436e-001 5.232230e-001 4.192979e-001 3.744692e-001
<GCONST> 1.251724e+002
<STATE> 3
<MEAN> 39
 -4.942333e+000 -1.083271e+001 1.565914e+000 -1.096977e+001 -1.573777e+001 -1.253459e+001 -1.078251e+001 1.967516e+000 -6.306932e+000 -3.011495e+000 -2.698644e+000 -1.774092e+000 6.075447e+001 -3.015781e-001 1.642476e+000 -4.595600e-001 1.198729e+000 1.221743e+000 2.785355e-001 4.862314e-001 -1.108163e+000 -3.612817e-001 -4.456982e-003 -2.782704e-001 -2.768611e-001 -1.976285e+000 -6.741283e-001 8.435509e-001 -4.270601e-001 5.055976e-001 8.254751e-001 5.035659e-001 5.564198e-001 -6.183018e-001 6.334056e-002 1.431414e-001 -5.356716e-002 -8.640443e-002 -9.471571e-001
<VARIANCE> 39
 1.324474e+001 3.021795e+001 5.424228e+001 6.161411e+001 5.414338e+001 6.120671e+001 7.742646e+001 6.945362e+001 8.291135e+001 6.031676e+001 6.413927e+001 4.208868e+001 2.131928e+001 1.876372e+000 2.484976e+000 3.394058e+000 3.554425e+000 4.026937e+000 3.792320e+000 4.820064e+000 4.671885e+000 5.059203e+000 4.013771e+000 3.543134e+000 2.874930e+000 3.381424e+000 6.314634e-001 4.798076e-001 6.112050e-001 7.664624e-001 8.882512e-001 9.896249e-001 1.058783e+000 1.107563e+000 1.156854e+000 9.411557e-001 8.312064e-001 6.494606e-001 5.975806e-001
<GCONST> 1.354094e+002
<STATE> 4
<MEAN> 39
 -6.273834e+000 -5.694633e+000 -5.272378e-001 -7.846088e+000 -1.211586e+001 -1.207941e+001 -8.765955e+000 -1.290177e+000 -5.781854e+000 -3.042237e+000 -3.434802e+000 -2.028906e+000 5.581965e+001 -1.634781e+000 2.422287e+000 -9.616672e-001 1.580883e+000 2.337772e+000 1.275537e+000 1.235649e+000 -1.537104e+000 -1.025425e-001 2.246968e-001 -2.933074e-001 -3.442653e-001 -2.853435e+000 -5.521118e-001 -9.121442e-002 -1.864030e-001 -9.381152e-002 2.177873e-001 4.320163e-001 2.766491e-001 5.324854e-002 1.149117e-001 1.643918e-001 1.148352e-001 6.131006e-002 -4.847768e-002
<VARIANCE> 39
 2.055346e+001 3.719185e+001 5.068493e+001 5.058952e+001 5.421933e+001 5.452537e+001 6.296852e+001 6.679898e+001 7.510834e+001 5.318999e+001 5.311721e+001 4.050385e+001 3.920865e+001 5.161301e+000 3.394650e+000 3.693812e+000 5.393003e+000 4.913124e+000 5.840949e+000 6.305006e+000 6.723115e+000 6.144116e+000 5.174798e+000 4.586256e+000 3.763762e+000 6.195563e+000 4.829508e-001 4.738705e-001 5.361395e-001 5.285469e-001 6.898066e-001 7.380387e-001 7.433686e-001 8.945990e-001 9.344923e-001 7.052142e-001 6.356995e-001 5.171691e-001 3.757852e-001
<GCONST> 1.369009e+002
<TRANSP> 5
 0.000000e+000 1.000000e+000 0.000000e+000 0.000000e+000 0.000000e+000
 0.000000e+000 6.239108e-001 3.760892e-001 0.000000e+000 0.000000e+000
 0.000000e+000 0.000000e+000 3.186319e-001 6.813682e-001 0.000000e+000
 0.000000e+000 0.000000e+000 0.000000e+000 2.260154e-001 7.739846e-001
 0.000000e+000 0.000000e+000 0.000000e+000 0.000000e+000 0.000000e+000
<ENDHMM>
