~o
<STREAMINFO> 1 39
<VECSIZE> 39<NULLD><MFCC_D_A_0><DIAGC>
~h "iy"
<BEGINHMM>
<NUMSTATES> 5
<STATE> 2
<MEAN> 39
 -6.799737e+000 -9.635835e+000 7.634352e+000 -1.020589e+001 -1.961027e+001 -1.246329e+001 -9.756626e+000 -2.945866e-001 -1.122208e+001 -4.482056e+000 -1.030762e-001 -1.806859e+000 6.136463e+001 6.458158e-003 -1.804301e-001 2.609020e+000 -1.280618e+000 -2.405066e+000 7.595859e-001 2.338755e-001 -5.474679e-001 -1.742325e+000 3.461361e-001 5.302172e-001 -3.738118e-001 5.827612e-001 -3.419417e-001 4.271257e-001 -6.721857e-001 3.425008e-002 8.464182e-001 5.230588e-001 1.240277e-001 -3.511994e-001 4.181545e-001 3.446157e-001 -2.018957e-001 -1.125675e-001 -4.497808e-001
<VARIANCE> 39
 1.395776e+001 3.336152e+001 4.879234e+001 6.816833e+001 3.738829e+001 6.165359e+001 6.251344e+001 7.919494e+001 6.466075e+001 6.409505e+001 5.948014e+001 3.348201e+001 1.686703e+001 3.371586e+000 2.462189e+000 2.615538e+000 4.078094e+000 3.621307e+000 4.454696e+000 6.165677e+000 5.397163e+000 4.246493e+000 4.855547e+000 4.154719e+000 2.944208e+000 1.240732e+000 5.085820e-001 3.412102e-001 4.626523e-001 5.683981e-001 5.426042e-001 6.574882e-001 9.418336e-001 9.981647e-001 8.065823e-001 6.533628e-001 6.031714e-001 4.595380e-001 2.500017e-001
<GCONST> 1.299576e+002
<STATE> 3
<MEAN> 39
 -8.915894e+000 -6.237835e+000 1.085669e+001 -1.439732e+001 -2.135285e+001 -7.461346e+000 -8.609688e+000 -5.069242e+000 -1.187083e+001 -1.760244e+000 -1.795661e+000 -3.103587e+000 6.048777e+001 -9.994200e-002 3.340843e-001 9.273216e-002 -7.006075e-003 4.235625e-002 3.092777e-001 1.833723e-001 -2.951446e-001 -3.835287e-002 1.594469e-001 -1.790445e-001 -1.320828e-001 -2.958235e-001 4.709803e-002 1.968056e-002 -5.308944e-001 3.821191e-001 4.427032e-001 -2.383841e-001 8.159709e-002 1.787341e-001 2.440411e-001 -1.185377e-001 -4.586069e-002 7.152838e-002 -2.012597e-001
<VARIANCE> 39
 1.250635e+001 3.470651e+001 3.753455e+001 8.753310e+001 3.666108e+001 6.068994e+001 5.410120e+001 7.400173e+001 5.194649e+001 6.883434e+001 8.041858e+001 3.739368e+001 2.185715e+001 4.926156e-001 1.175341e+000 1.391050e+000 1.604919e+000 1.302933e+000 2.171949e+000 2.033283e+000 2.243680e+000 1.920333e+000 1.795669e+000 1.524439e+000 1.283421e+000 5.292014e-001 1.357512e-001 2.144939e-001 3.358131e-001 3.559379e-001 4.600652e-001 3.846588e-001 4.278895e-001 4.019492e-001 4.377905e-001 4.180434e-001 3.640700e-001 2.707539e-001 1.472225e-001
<GCONST> 1.101289e+002
<STATE> 4
<MEAN> 39
 -8.158381e+000 -5.813867e+000 7.754042e+000 -9.034420e+000 -1.762677e+001 -1.017452e+001 -7.817898e+000 -3.673544e+000 -1.186375e+001 -3.101431e+000 -1.655608e+000 -3.001304e+000 5.724232e+001 -4.039550e-001 9.899062e-001 -2.540079e+000 1.376549e+000 2.649143e+000 -5.748037e-002 6.584553e-001 8.540705e-002 1.219631e+000 -7.563524e-002 -2.741472e-001 1.894053e-001 -1.641741e+000 -2.956129e-001 1.087948e-001 -6.043243e-001 -7.643945e-002 5.650224e-001 3.775030e-001 9.854502e-002 3.476791e-002 3.631706e-001 9.115677e-002 -2.103808e-002 8.876609e-002 -2.227267e-001
<VARIANCE> 39
 1.964155e+001 3.876108e+001 4.877771e+001 7.454662e+001 4.785410e+001 6.527203e+001 6.537408e+001 7.983905e+001 5.543010e+001 5.885592e+001 6.812200e+001 3.490421e+001 3.941723e+001 3.900651e+000 3.587915e+000 3.402151e+000 4.889465e+000 4.474596e+000 5.677211e+000 6.003187e+000 5.449898e+000 4.597274e+000 4.980152e+000 4.012781e+000 2.815907e+000 3.740723e+000 3.727324e-001 5.463270e-001 6.238332e-001 7.870504e-001 8.144075e-001 8.764104e-001 8.232462e-001 9.826619e-001 7.632691e-001 6.888634e-001 6.149150e-001 4.588903e-001 4.230613e-001
<GCONST> 1.360838e+002
<TRANSP> 5
 0.000000e+000 1.000000e+000 0.000000e+000 0.000000e+000 0.000000e+000
 0.000000e+000 5.404107e-001 4.595894e-001 0.000000e+000 0.000000e+000
 0.000000e+000 0.000000e+000 7.807588e-001 2.192412e-001 0.000000e+000
 0.000000e+000 0.000000e+000 0.000000e+000 6.051795e-001 3.948204e-001
 0.000000e+000 0.000000e+000 0.000000e+000 0.000000e+000 0.000000e+000
<ENDHMM>
