~o
<STREAMINFO> 1 39
<VECSIZE> 39<NULLD><MFCC_D_A_0><DIAGC>
~h "jh"
<BEGINHMM>
<NUMSTATES> 5
<STATE> 2
<MEAN> 39
 -2.809873e+001 -4.469119e+000 2.349972e+000 -1.207892e+001 -4.752079e+000 5.045081e-001 -4.410873e+000 -9.874758e-001 -9.455438e-001 -2.204856e+000 -3.219936e-001 -2.168216e-001 5.706273e+001 -2.049239e+000 6.562674e-001 9.206577e-001 -3.090108e-001 -1.138605e+000 -3.209740e-001 7.785216e-001 2.134975e-001 3.362059e-001 3.590334e-001 4.432728e-001 3.753563e-001 2.349300e+000 1.744133e+000 3.278258e-001 2.242696e-001 9.245205e-001 -4.485587e-001 -9.203205e-001 -3.249501e-001 -2.983510e-001 -5.837269e-001 -3.692097e-001 -4.444509e-001 -2.278599e-001 -8.763198e-001
<VARIANCE> 39
 3.061533e+001 3.177436e+001 4.335686e+001 3.320192e+001 3.496825e+001 2.777938e+001 2.396574e+001 2.645665e+001 2.279428e+001 1.922257e+001 1.653016e+001 1.268251e+001 1.837187e+001 3.919494e+000 3.294048e+000 3.237457e+000 3.245572e+000 3.221552e+000 3.689267e+000 2.386807e+000 2.620657e+000 2.325201e+000 2.011779e+000 1.809145e+000 1.468360e+000 3.178341e+000 9.540821e-001 8.071437e-001 7.820165e-001 7.098006e-001 7.802109e-001 7.667050e-001 6.541238e-001 7.690299e-001 6.195031e-001 5.403772e-001 4.789311e-001 3.625558e-001 5.169765e-001
<GCONST> 1.208385e+002
<STATE> 3
<MEAN> 39
 -2.850072e+001 -4.633142e+000 5.562060e+000 -9.527928e+000 -7.996883e+000 -1.385530e+000 -2.451217e+000 -1.422952e+000 -1.218573e+000 -2.419944e+000 -1.127858e+000 -8.028515e-002 5.883758e+001 2.266094e+000 -4.304092e-002 4.576550e-001 7.426221e-001 -1.460887e+000 -2.071751e+000 -5.192213e-001 -2.977201e-001 -7.399668e-001 -4.637485e-001 -3.045004e-001 -6.473980e-002 4.057827e-001 1.577953e+000 -3.324565e-001 -3.617124e-001 1.570949e-001 -3.452362e-002 -5.034501e-001 -6.083038e-001 2.398053e-002 -2.813454e-001 -1.853703e-001 -9.377641e-002 -9.038562e-002 -6.441406e-001
<VARIANCE> 39
 2.637780e+001 2.926613e+001 2.865876e+001 3.212072e+001 3.496262e+001 2.836145e+001 2.866563e+001 2.727989e+001 2.621780e+001 2.079783e+001 1.628160e+001 1.432548e+001 1.458831e+001 5.779871e+000 1.798219e+000 2.816272e+000 2.614658e+000 4.112958e+000 4.444508e+000 2.956744e+000 2.840381e+000 2.743964e+000 2.062984e+000 1.857617e+000 1.441871e+000 2.230698e+000 9.474011e-001 5.223327e-001 4.934600e-001 4.804837e-001 6.641746e-001 7.882529e-001 7.181034e-001 6.240852e-001 5.627632e-001 5.092994e-001 4.263121e-001 3.611281e-001 3.912183e-001
<GCONST> 1.183868e+002
<STATE> 4
<MEAN> 39
 -1.392683e+001 -5.790935e+000 5.171455e+000 -7.925728e+000 -1.356301e+001 -1.128875e+001 -8.153159e+000 -2.780807e+000 -5.089639e+000 -4.937803e+000 -1.953802e+000 -3.801303e-001 6.001886e+001 4.790821e+000 -1.763559e+000 -8.868736e-001 8.353078e-002 -1.234075e+000 -2.313129e+000 -1.849267e+000 7.750694e-001 -6.850929e-001 -2.552828e-001 9.822296e-002 1.537537e-002 1.618095e-002 -3.445631e-001 -3.242553e-001 -5.203730e-001 -3.160611e-001 6.430498e-001 8.255157e-001 1.140445e-001 3.564415e-001 2.855286e-001 2.641080e-001 8.736254e-002 -3.897837e-002 -2.989377e-001
<VARIANCE> 39
 5.588113e+001 3.154960e+001 3.358207e+001 5.219786e+001 3.808683e+001 4.003136e+001 3.947399e+001 3.387759e+001 3.998970e+001 2.658090e+001 2.157357e+001 1.685520e+001 2.436876e+001 3.753169e+000 3.507620e+000 4.335806e+000 3.699974e+000 6.200922e+000 6.851202e+000 6.250954e+000 5.335735e+000 4.768622e+000 4.610134e+000 3.554844e+000 2.655625e+000 3.487731e+000 1.020872e+000 5.273979e-001 4.407305e-001 5.017824e-001 6.955048e-001 7.306560e-001 9.577393e-001 7.778848e-001 6.354002e-001 5.383999e-001 4.565743e-001 3.980414e-001 2.869452e-001
<GCONST> 1.292751e+002
<TRANSP> 5
 0.000000e+000 1.000000e+000 0.000000e+000 0.000000e+000 0.000000e+000
 0.000000e+000 4.087308e-001 5.912692e-001 0.000000e+000 0.000000e+000
 0.000000e+000 0.000000e+000 5.741672e-001 4.258328e-001 0.000000e+000
 0.000000e+000 0.000000e+000 0.000000e+000 5.300623e-001 4.699378e-001
 0.000000e+000 0.000000e+000 0.000000e+000 0.000000e+000 0.000000e+000
<ENDHMM>
