~o
<STREAMINFO> 1 39
<VECSIZE> 39<NULLD><MFCC_D_A_0><DIAGC>
~h "k"
<BEGINHMM>
<NUMSTATES> 5
<STATE> 2
<MEAN> 39
 -1.838617e+001 -3.160649e+000 -4.409121e+000 -3.216285e-001 -1.588361e+000 -2.656739e+000 -2.657858e+000 -2.009231e-001 -2.456622e+000 7.158882e-002 -1.118625e+000 -7.565466e-001 3.588972e+001 -1.111637e+000 -1.112362e+000 -1.174126e+000 -3.709269e-001 7.446743e-001 1.293209e+000 5.545056e-001 8.902533e-002 8.858951e-001 5.963174e-001 6.776448e-002 3.182702e-001 -3.445805e-001 6.452993e-001 -6.964529e-001 -1.852023e-001 -9.427543e-001 -6.213921e-001 -7.038251e-001 -2.888850e-001 1.376181e-001 -2.555688e-001 2.919283e-002 -9.248812e-002 -4.695754e-002 2.270903e+000
<VARIANCE> 39
 2.012581e+001 2.207153e+001 2.733685e+001 2.165487e+001 3.198606e+001 3.727689e+001 3.361632e+001 3.626454e+001 3.765632e+001 2.735104e+001 2.336646e+001 1.915159e+001 3.042486e+001 6.205457e+000 5.793679e+000 5.761448e+000 6.522279e+000 7.352657e+000 7.424528e+000 5.749139e+000 5.806913e+000 6.339507e+000 4.121894e+000 4.072137e+000 2.795363e+000 2.121068e+001 6.927768e-001 9.403654e-001 9.279313e-001 8.079241e-001 9.714338e-001 1.051813e+000 9.763265e-001 1.026018e+000 1.015404e+000 7.531182e-001 7.360047e-001 5.153375e-001 1.460399e+000
<GCONST> 1.367167e+002
<STATE> 3
<MEAN> 39
 -1.609319e+001 -1.315046e+001 -1.057726e+001 -9.034075e+000 -3.398792e+000 -5.080340e+000 -4.331213e+000 6.555960e-001 -2.695541e+000 2.766057e+000 -2.157007e+000 -1.830932e-001 5.406968e+001 1.545316e-001 -2.246344e-001 -1.050485e-001 -1.637362e+000 -6.603733e-001 -8.571519e-001 -4.019316e-002 -8.998595e-002 3.871976e-003 2.159682e-001 -1.724316e-001 5.426892e-002 3.872551e+000 8.615994e-003 1.153393e+000 7.936477e-001 5.354199e-001 -4.919938e-002 2.845896e-002 1.430077e-001 -1.271342e-001 -8.986599e-002 -4.190860e-001 8.498745e-002 -1.117995e-001 -9.754382e-001
<VARIANCE> 39
 2.745053e+001 3.309690e+001 6.427965e+001 4.729707e+001 5.389865e+001 4.969794e+001 5.117329e+001 4.500290e+001 4.172496e+001 3.419363e+001 2.871264e+001 2.247229e+001 5.150257e+001 4.523814e+000 5.838136e+000 4.843150e+000 4.921940e+000 4.232351e+000 4.460346e+000 4.223304e+000 3.917549e+000 4.167856e+000 3.318786e+000 2.950311e+000 2.386661e+000 1.067462e+001 7.800553e-001 7.428435e-001 8.498910e-001 9.605580e-001 1.004212e+000 1.038026e+000 9.555284e-001 9.099840e-001 9.795877e-001 7.624653e-001 6.816896e-001 5.782215e-001 1.795019e+000
<GCONST> 1.374693e+002
<STATE> 4
<MEAN> 39
 -1.584147e+001 -6.876190e+000 -4.395207e+000 -9.315619e+000 -5.313510e+000 -5.130712e+000 -1.465141e+000 -1.199361e+000 -3.098416e+000 2.970248e-001 -2.534840e+000 -7.234260e-001 5.535847e+001 1.861869e+000 7.365428e-001 8.355032e-001 -7.943565e-002 -1.069072e+000 -5.205449e-001 -2.407341e-001 -2.189280e-001 -7.647075e-001 -1.124679e+000 -5.490585e-002 -5.013919e-001 5.027540e-001 4.976165e-001 -3.741312e-001 -2.397209e-001 -7.616318e-002 -2.509413e-001 -6.203739e-002 -3.771631e-001 1.181701e-001 -1.126794e-001 -4.634038e-002 7.637958e-002 -8.751355e-002 -2.667740e-002
<VARIANCE> 39
 4.349378e+001 2.613689e+001 5.825734e+001 4.339349e+001 5.373136e+001 4.872577e+001 4.410637e+001 4.465147e+001 3.834823e+001 3.182362e+001 3.044537e+001 2.262145e+001 4.078418e+001 6.481713e+000 3.986363e+000 3.577192e+000 4.513669e+000 5.044512e+000 5.201335e+000 5.378676e+000 5.143115e+000 5.180600e+000 3.837319e+000 4.063451e+000 2.994091e+000 3.167873e+000 5.739153e-001 5.576387e-001 5.506183e-001 7.283667e-001 7.277802e-001 8.262233e-001 7.807522e-001 8.164596e-001 8.047588e-001 6.874007e-001 6.425727e-001 4.929054e-001 1.027820e+000
<GCONST> 1.338902e+002
<TRANSP> 5
 0.000000e+000 1.000000e+000 0.000000e+000 0.000000e+000 0.000000e+000
 0.000000e+000 7.338464e-001 2.661536e-001 0.000000e+000 0.000000e+000
 0.000000e+000 0.000000e+000 6.289034e-001 3.710966e-001 0.000000e+000
 0.000000e+000 0.000000e+000 0.000000e+000 6.256489e-001 3.743512e-001
 0.000000e+000 0.000000e+000 0.000000e+000 0.000000e+000 0.000000e+000
<ENDHMM>
