~o
<STREAMINFO> 1 39
<VECSIZE> 39<NULLD><MFCC_D_A_0><DIAGC>
~h "l"
<BEGINHMM>
<NUMSTATES> 5
<STATE> 2
<MEAN> 39
 -1.749223e+000 -5.315834e+000 -1.053796e+001 -2.199170e+001 -7.733142e+000 4.088703e-002 -8.985970e+000 -7.773452e+000 -3.637924e+000 6.890229e-001 -4.556570e-001 -3.591439e+000 5.977725e+001 1.143870e+000 6.023229e-001 -3.957241e-001 -2.204388e+000 -2.266989e-001 1.262131e+000 -2.792923e-001 -8.305036e-001 -6.729516e-001 2.525532e-002 6.296677e-001 2.985833e-001 9.896453e-002 -4.228227e-001 -2.441617e-001 1.452783e-001 5.903888e-001 2.020688e-002 -3.505949e-001 1.338879e-001 5.551919e-001 1.639196e-001 -1.585833e-001 -1.723630e-001 1.057496e-001 -9.762686e-002
<VARIANCE> 39
 1.328949e+001 4.733942e+001 4.793763e+001 6.661256e+001 5.693176e+001 7.136687e+001 7.634538e+001 6.030932e+001 6.327654e+001 5.893737e+001 6.644529e+001 4.114810e+001 2.994422e+001 2.543708e+000 3.163189e+000 2.720618e+000 5.472537e+000 4.545125e+000 5.172148e+000 5.609206e+000 5.210440e+000 4.691506e+000 4.628486e+000 4.048374e+000 3.716196e+000 2.460389e+000 4.686820e-001 5.307399e-001 4.302077e-001 7.995655e-001 7.878134e-001 7.710781e-001 8.510282e-001 8.406037e-001 9.882396e-001 8.587966e-001 7.416484e-001 6.495939e-001 2.934309e-001
<GCONST> 1.350668e+002
<STATE> 3
<MEAN> 39
 -4.545299e-001 -2.794878e+000 -1.115081e+001 -2.640948e+001 -8.963654e+000 2.581870e+000 -6.765330e+000 -6.381658e+000 -4.975286e+000 -1.549189e+000 2.676361e-001 -1.360857e+000 5.817519e+001 -1.440347e-001 -8.008326e-002 3.245206e-002 3.400759e-001 2.805268e-001 -2.944954e-001 -2.678291e-001 1.768854e-001 2.001471e-001 1.522950e-001 -1.426946e-001 -2.282271e-001 -4.299294e-002 -3.073854e-001 -3.051286e-001 1.129123e-001 7.040047e-001 1.453077e-001 -3.444847e-001 -7.132997e-002 1.842032e-001 2.808088e-001 1.042186e-001 -2.189705e-001 -2.072476e-001 2.459081e-002
<VARIANCE> 39
 9.613944e+000 3.861551e+001 4.682629e+001 6.449800e+001 6.468221e+001 6.357071e+001 7.606084e+001 6.328551e+001 5.683456e+001 5.756126e+001 5.278528e+001 3.818753e+001 2.675489e+001 6.195335e-001 2.941746e+000 1.480068e+000 3.444042e+000 2.609533e+000 2.736560e+000 3.226611e+000 3.005673e+000 3.516616e+000 3.405152e+000 2.560965e+000 2.547459e+000 1.662976e+000 2.244894e-001 3.313682e-001 3.061263e-001 5.814227e-001 5.510975e-001 5.844300e-001 5.745267e-001 7.095522e-001 6.414787e-001 6.121786e-001 5.575073e-001 4.652591e-001 2.399045e-001
<GCONST> 1.226636e+002
<STATE> 4
<MEAN> 39
 -2.807926e+000 -7.014552e+000 -9.480691e+000 -1.888433e+001 -6.601663e+000 -3.388942e+000 -1.170664e+001 -4.903951e+000 -8.326316e-001 1.220384e+000 -2.546025e+000 -4.760908e+000 5.998916e+001 -1.121706e+000 -8.935323e-001 1.308216e+000 2.597545e+000 -4.570327e-001 -2.039816e+000 -1.093451e-002 1.696905e+000 6.767743e-001 -6.244322e-001 -1.081788e+000 4.925364e-003 -9.597928e-003 -2.657900e-001 1.304913e-001 4.239348e-001 1.486086e-001 -3.735293e-001 1.927989e-002 5.542422e-001 1.854673e-001 -5.018255e-001 -4.197491e-001 1.407947e-001 3.790230e-001 -2.399316e-001
<VARIANCE> 39
 1.224616e+001 4.198076e+001 5.076290e+001 6.832511e+001 4.983187e+001 8.346487e+001 8.025538e+001 6.692929e+001 6.945858e+001 6.453001e+001 6.531104e+001 4.212904e+001 4.065864e+001 2.068913e+000 3.646333e+000 3.859946e+000 5.738465e+000 6.220901e+000 5.417500e+000 5.560669e+000 5.872028e+000 6.584016e+000 5.474840e+000 4.130568e+000 4.544165e+000 3.655239e+000 3.351858e-001 4.231152e-001 4.015457e-001 8.171283e-001 7.528029e-001 9.032415e-001 8.069866e-001 1.025516e+000 1.175573e+000 9.728946e-001 8.138139e-001 6.392965e-001 2.711114e-001
<GCONST> 1.374944e+002
<TRANSP> 5
 0.000000e+000 1.000000e+000 0.000000e+000 0.000000e+000 0.000000e+000
 0.000000e+000 4.845893e-001 5.154107e-001 0.000000e+000 0.000000e+000
 0.000000e+000 0.000000e+000 7.066919e-001 2.933081e-001 0.000000e+000
 0.000000e+000 0.000000e+000 0.000000e+000 5.333597e-001 4.666403e-001
 0.000000e+000 0.000000e+000 0.000000e+000 0.000000e+000 0.000000e+000
<ENDHMM>
