~o
<STREAMINFO> 1 39
<VECSIZE> 39<NULLD><MFCC_D_A_0><DIAGC>
~h "m"
<BEGINHMM>
<NUMSTATES> 5
<STATE> 2
<MEAN> 39
 -3.467857e+000 -3.606029e+000 -4.977507e+000 -4.419099e+000 -7.296244e+000 -7.899561e+000 -7.114508e+000 -8.938962e+000 -1.180572e+001 -2.196659e+000 -1.868706e+000 -6.347336e+000 5.162627e+001 1.051600e-001 1.159935e+000 1.032946e+000 1.616297e+000 7.635731e-002 -1.025549e+000 9.266064e-002 -2.059777e+000 -2.224342e+000 3.461973e-001 2.317428e-001 -7.087610e-001 -7.046891e-001 -3.064462e-001 -5.006904e-001 8.015180e-003 -4.933351e-001 -1.743343e-001 2.626235e-001 -4.151025e-002 6.772990e-001 6.517906e-001 -6.155454e-002 -1.235879e-001 2.613742e-001 4.511633e-001
<VARIANCE> 39
 1.079147e+001 2.802046e+001 3.308607e+001 4.955814e+001 4.627057e+001 6.067466e+001 6.095784e+001 6.330270e+001 6.618613e+001 5.767272e+001 7.384467e+001 4.735375e+001 2.516211e+001 3.686725e+000 3.136641e+000 3.524291e+000 4.009790e+000 4.568534e+000 4.025670e+000 5.672562e+000 5.075451e+000 5.663587e+000 4.660935e+000 4.712198e+000 3.693272e+000 4.880988e+000 4.072407e-001 3.779156e-001 6.295303e-001 6.031529e-001 6.602147e-001 6.600664e-001 7.728997e-001 8.087765e-001 9.508730e-001 7.318487e-001 7.597421e-001 5.928845e-001 2.747277e-001
<GCONST> 1.331127e+002
<STATE> 3
<MEAN> 39
 -4.113125e+000 -3.288344e+000 -2.970273e+000 -3.260255e+000 -7.576933e+000 -8.566524e+000 -7.316418e+000 -1.069919e+001 -1.345657e+001 -1.154271e+000 -2.347866e+000 -7.005431e+000 5.153905e+001 -9.287345e-002 -1.465565e-001 6.795359e-002 -2.357124e-001 -1.106961e-001 1.701045e-001 -5.753499e-002 2.474368e-001 3.894594e-001 -1.840645e-001 -1.646261e-001 1.728041e-001 2.715510e-001 -9.832899e-002 -4.057367e-001 -2.718716e-001 -6.497756e-001 -1.200108e-001 3.545860e-001 -3.633288e-003 7.629032e-001 7.901139e-001 -1.613776e-001 -7.777983e-002 2.983598e-001 3.463218e-001
<VARIANCE> 39
 8.400673e+000 2.359487e+001 3.100647e+001 4.936234e+001 5.093164e+001 7.076327e+001 6.555856e+001 6.631583e+001 6.222985e+001 6.183895e+001 8.450999e+001 5.387909e+001 2.010284e+001 9.141957e-001 1.954474e+000 1.587059e+000 2.263706e+000 2.124458e+000 1.998350e+000 2.406278e+000 2.792569e+000 3.322871e+000 2.391420e+000 2.409446e+000 2.041369e+000 2.198240e+000 3.094215e-001 2.856587e-001 4.929589e-001 4.959551e-001 5.719894e-001 5.526195e-001 6.625640e-001 7.028841e-001 8.567300e-001 6.692467e-001 6.991373e-001 5.774793e-001 2.351594e-001
<GCONST> 1.215493e+002
<STATE> 4
<MEAN> 39
 -4.196655e+000 -5.591432e+000 -4.899817e+000 -6.828380e+000 -8.499392e+000 -7.056549e+000 -7.682562e+000 -6.655149e+000 -8.184275e+000 -3.068247e+000 -3.105326e+000 -5.066212e+000 5.442526e+001 -4.159898e-001 -1.587519e+000 -3.218361e-001 -2.394037e+000 -8.571039e-001 1.110151e+000 -6.043539e-002 2.632878e+000 2.397264e+000 -6.090874e-001 -3.597428e-001 1.000423e+000 1.705298e+000 -2.854060e-001 -1.224601e-001 1.394575e-001 -2.440457e-001 -6.735992e-002 1.744743e-001 1.757432e-001 3.126807e-001 -6.363096e-003 1.274523e-001 5.533306e-002 6.763689e-002 6.188893e-002
<VARIANCE> 39
 1.457183e+001 3.515914e+001 3.804484e+001 5.724487e+001 4.779310e+001 6.054252e+001 5.524654e+001 6.210374e+001 6.950623e+001 4.816143e+001 6.125087e+001 3.935762e+001 4.130445e+001 2.960327e+000 3.482358e+000 6.174653e+000 5.273662e+000 6.513592e+000 5.120547e+000 5.658791e+000 5.453199e+000 6.780621e+000 5.444944e+000 5.694479e+000 4.224067e+000 3.847134e+000 3.346251e-001 5.002493e-001 5.719674e-001 7.176394e-001 6.790693e-001 6.623464e-001 7.304101e-001 9.055565e-001 1.152306e+000 6.678435e-001 6.776348e-001 5.153174e-001 4.287673e-001
<GCONST> 1.361758e+002
<TRANSP> 5
 0.000000e+000 1.000000e+000 0.000000e+000 0.000000e+000 0.000000e+000
 0.000000e+000 3.817486e-001 6.182514e-001 0.000000e+000 0.000000e+000
 0.000000e+000 0.000000e+000 6.747701e-001 3.252300e-001 0.000000e+000
 0.000000e+000 0.000000e+000 0.000000e+000 4.153261e-001 5.846739e-001
 0.000000e+000 0.000000e+000 0.000000e+000 0.000000e+000 0.000000e+000
<ENDHMM>
