~o
<STREAMINFO> 1 39
<VECSIZE> 39<NULLD><MFCC_D_A_0><DIAGC>
~h "n"
<BEGINHMM>
<NUMSTATES> 5
<STATE> 2
<MEAN> 39
 -4.188531e+000 -4.649661e+000 -2.975832e+000 -6.216426e+000 -1.125181e+001 -8.850316e+000 -4.784648e+000 -7.062892e+000 -9.322099e+000 -8.297828e-001 -6.415904e+000 -4.878460e+000 5.316182e+001 1.466082e-001 1.687269e+000 2.209374e-001 1.488094e+000 -1.429364e-001 -4.771041e-001 1.331994e+000 -2.970910e+000 -1.487718e+000 1.257407e+000 -7.319278e-001 -2.076899e-001 -1.718173e+000 -2.939463e-001 -3.345554e-001 1.569060e-002 -4.411820e-001 2.954841e-002 3.093602e-001 -2.181941e-001 6.352512e-001 4.186386e-001 -3.068444e-001 2.073665e-001 1.695371e-001 4.122950e-001
<VARIANCE> 39
 9.617024e+000 3.197783e+001 3.528716e+001 5.253174e+001 4.861115e+001 5.157438e+001 5.511753e+001 7.668620e+001 7.251548e+001 6.083283e+001 6.137840e+001 5.220187e+001 2.598164e+001 1.621513e+000 2.827338e+000 3.914206e+000 3.540971e+000 4.358783e+000 4.700948e+000 4.873417e+000 6.229203e+000 5.987551e+000 4.367080e+000 3.948796e+000 3.395705e+000 2.512082e+000 3.295702e-001 4.037659e-001 4.754406e-001 5.189389e-001 6.885695e-001 6.255234e-001 7.347167e-001 1.029892e+000 8.438140e-001 7.242500e-001 6.326578e-001 5.617307e-001 2.969894e-001
<GCONST> 1.309153e+002
<STATE> 3
<MEAN> 39
 -4.294495e+000 -1.997998e+000 -2.390103e+000 -4.952799e+000 -1.217588e+001 -8.622315e+000 -2.648783e+000 -1.118851e+001 -1.098509e+001 2.059775e-001 -7.302278e+000 -4.273794e+000 5.080199e+001 -3.236211e-001 4.591651e-001 1.509020e-001 1.824723e-001 3.043660e-001 1.718363e-001 -1.341384e-001 -3.100108e-002 6.377903e-002 -2.910650e-001 1.616873e-003 9.998422e-002 -4.771247e-001 -3.383603e-001 -4.942316e-001 -8.021573e-002 -4.491454e-001 2.621874e-001 2.265939e-001 -4.289241e-001 1.056244e+000 5.662798e-001 -4.121142e-001 2.926459e-001 1.058228e-001 4.386559e-001
<VARIANCE> 39
 8.821236e+000 2.965574e+001 2.894236e+001 5.105876e+001 4.635360e+001 5.008477e+001 5.556922e+001 7.277141e+001 6.527064e+001 6.264035e+001 6.605404e+001 5.407758e+001 2.362998e+001 1.036025e+000 2.154709e+000 1.643101e+000 1.996158e+000 2.478452e+000 2.226807e+000 2.731990e+000 3.797575e+000 3.015562e+000 2.649128e+000 2.307514e+000 2.040062e+000 1.856351e+000 3.364209e-001 5.368845e-001 5.360802e-001 6.477584e-001 7.159104e-001 7.370637e-001 8.057829e-001 1.120104e+000 1.022392e+000 7.912575e-001 7.267412e-001 6.005229e-001 4.184309e-001
<GCONST> 1.251176e+002
<STATE> 4
<MEAN> 39
 -6.156295e+000 -4.112310e+000 -2.561982e+000 -6.407316e+000 -1.002707e+001 -7.834125e+000 -6.065138e+000 -6.318350e+000 -7.947969e+000 -2.540999e+000 -6.541017e+000 -4.032735e+000 5.234996e+001 -1.343495e+000 -1.120080e+000 -3.889126e-001 -1.144282e+000 9.424965e-001 8.920917e-001 -9.055436e-001 2.461441e+000 1.602233e+000 -8.142713e-001 7.345172e-001 3.047361e-001 9.222611e-001 -2.617513e-001 -3.352770e-001 -2.374919e-001 -3.603091e-001 9.900825e-003 2.532147e-001 1.384476e-001 4.324234e-001 2.671311e-001 1.031609e-001 2.358616e-001 1.207292e-001 3.642041e-001
<VARIANCE> 39
 1.856647e+001 5.610435e+001 3.562010e+001 5.412010e+001 4.842131e+001 4.462191e+001 5.383427e+001 7.324891e+001 6.717103e+001 5.321991e+001 4.890404e+001 4.403136e+001 4.982834e+001 4.080923e+000 4.457588e+000 4.433271e+000 4.769076e+000 5.665889e+000 4.966449e+000 5.849722e+000 7.253843e+000 6.531099e+000 5.358088e+000 4.845468e+000 4.080750e+000 4.541564e+000 4.851039e-001 8.212255e-001 5.573164e-001 7.002110e-001 7.438030e-001 7.060729e-001 8.975372e-001 1.287108e+000 1.076750e+000 8.203546e-001 6.810808e-001 6.008872e-001 6.891271e-001
<GCONST> 1.392521e+002
<TRANSP> 5
 0.000000e+000 1.000000e+000 0.000000e+000 0.000000e+000 0.000000e+000
 0.000000e+000 3.322643e-001 6.677357e-001 0.000000e+000 0.000000e+000
 0.000000e+000 0.000000e+000 5.900596e-001 4.099404e-001 0.000000e+000
 0.000000e+000 0.000000e+000 0.000000e+000 4.034821e-001 5.965179e-001
 0.000000e+000 0.000000e+000 0.000000e+000 0.000000e+000 0.000000e+000
<ENDHMM>
