~o
<STREAMINFO> 1 39
<VECSIZE> 39<NULLD><MFCC_D_A_0><DIAGC>
~h "ng"
<BEGINHMM>
<NUMSTATES> 5
<STATE> 2
<MEAN> 39
 -5.772097e+000 -4.591764e+000 9.933743e-001 -1.262155e+001 -1.640085e+001 -4.137162e+000 -2.680539e+000 -6.453403e+000 -1.509875e+001 1.118036e+000 -1.952839e+000 -7.575812e+000 5.540270e+001 7.703715e-001 1.298603e+000 -1.860931e+000 2.003306e+000 1.183366e+000 -7.897782e-001 5.590577e-001 -2.059781e+000 -3.274178e-001 8.646780e-001 -7.461330e-001 -3.943253e-001 -1.832481e+000 4.119836e-003 -2.172619e-001 -1.844165e-001 2.660908e-001 1.045694e-001 -3.021585e-001 -1.856913e-001 2.968198e-001 5.051409e-001 -3.837179e-001 -1.545020e-001 3.529326e-001 9.777725e-002
<VARIANCE> 39
 1.050525e+001 2.076007e+001 4.689870e+001 8.685300e+001 5.678356e+001 6.662768e+001 5.311045e+001 9.045158e+001 5.935841e+001 6.703465e+001 1.269934e+002 4.798771e+001 2.060273e+001 8.123722e-001 1.654646e+000 3.788715e+000 3.915277e+000 4.955131e+000 5.594304e+000 4.398836e+000 5.629321e+000 4.512339e+000 4.724885e+000 4.076789e+000 3.190212e+000 8.281077e-001 1.596288e-001 2.078984e-001 5.981629e-001 7.210284e-001 7.093345e-001 9.217586e-001 5.869406e-001 8.179508e-001 7.584593e-001 6.980407e-001 7.720163e-001 5.133018e-001 1.682081e-001
<GCONST> 1.283304e+002
<STATE> 3
<MEAN> 39
 -3.544833e+000 -2.132535e+000 -4.560748e+000 -5.826958e+000 -1.416077e+001 -7.717052e+000 -1.297743e+000 -1.021314e+001 -1.348054e+001 8.584995e-001 -3.965475e+000 -6.181498e+000 5.135592e+001 -2.020418e-002 6.997057e-001 -2.929478e-001 6.570191e-001 5.324317e-001 -1.618199e-001 -3.233840e-002 -2.027052e-001 1.556221e-001 -3.703761e-001 -1.900989e-001 2.446919e-001 -8.809884e-001 -3.686872e-001 -2.273172e-001 3.759336e-001 -4.537170e-001 1.940631e-001 2.575984e-001 -2.930694e-001 6.176683e-001 2.238146e-001 -2.574121e-001 1.537344e-001 1.332469e-001 2.170622e-001
<VARIANCE> 39
 7.512369e+000 2.123575e+001 2.912683e+001 5.604168e+001 5.224538e+001 5.286621e+001 5.504308e+001 8.009718e+001 5.062041e+001 6.416960e+001 9.851978e+001 4.672968e+001 1.878381e+001 6.334698e-001 1.199880e+000 1.907936e+000 2.219046e+000 2.864837e+000 2.613791e+000 2.601013e+000 3.407514e+000 2.677819e+000 2.801837e+000 2.682699e+000 2.055087e+000 9.930515e-001 2.041112e-001 3.220715e-001 5.512646e-001 5.463180e-001 8.022022e-001 6.806330e-001 7.105126e-001 8.527077e-001 7.325408e-001 6.925588e-001 6.387972e-001 4.841374e-001 1.940109e-001
<GCONST> 1.204748e+002
<STATE> 4
<MEAN> 39
 -6.309264e+000 -4.611960e-001 -3.254933e+000 -5.779026e+000 -1.063963e+001 -6.845766e+000 -2.525506e+000 -7.479441e+000 -1.266693e+001 -1.945679e+000 -3.452179e+000 -5.283306e+000 4.899467e+001 -1.695162e+000 -4.509715e-001 6.775361e-002 -6.065552e-002 1.921337e+000 3.572667e-001 -6.121204e-001 1.621676e+000 1.564443e+000 -7.258080e-001 -4.857401e-002 8.809425e-001 -4.525196e-001 -3.920171e-001 -6.785339e-001 -1.276066e-001 -2.761870e-001 1.752343e-002 1.180627e-001 -5.625855e-002 4.506082e-001 5.186283e-001 1.802111e-001 9.806584e-002 1.895425e-001 4.755480e-001
<VARIANCE> 39
 1.808950e+001 2.667179e+001 3.439626e+001 5.663363e+001 6.501955e+001 5.082492e+001 5.685190e+001 8.149380e+001 5.452506e+001 5.626343e+001 7.792723e+001 4.164128e+001 3.546243e+001 2.825996e+000 3.221690e+000 4.043459e+000 4.859928e+000 6.252190e+000 5.034467e+000 6.068264e+000 6.188338e+000 5.033510e+000 4.758867e+000 5.262691e+000 3.601519e+000 3.478332e+000 5.187526e-001 6.852853e-001 6.182081e-001 6.873448e-001 1.035776e+000 8.395445e-001 1.042340e+000 1.030410e+000 8.504924e-001 7.958263e-001 7.126426e-001 5.805682e-001 4.667961e-001
<GCONST> 1.372902e+002
<TRANSP> 5
 0.000000e+000 1.000000e+000 0.000000e+000 0.000000e+000 0.000000e+000
 0.000000e+000 5.853760e-001 4.146240e-001 0.000000e+000 0.000000e+000
 0.000000e+000 0.000000e+000 6.850621e-001 3.149379e-001 0.000000e+000
 0.000000e+000 0.000000e+000 0.000000e+000 4.991169e-001 5.008830e-001
 0.000000e+000 0.000000e+000 0.000000e+000 0.000000e+000 0.000000e+000
<ENDHMM>
