~o
<STREAMINFO> 1 39
<VECSIZE> 39<NULLD><MFCC_D_A_0><DIAGC>
~h "oh"
<BEGINHMM>
<NUMSTATES> 5
<STATE> 2
<MEAN> 39
 1.408811e+000 -1.658920e+001 -1.742502e+001 -1.348628e+001 -9.111507e+000 9.575857e-002 -4.621307e+000 1.627326e+000 -1.896950e+000 -1.860344e+000 1.700210e+000 -5.605376e+000 6.271786e+001 -7.830933e-001 -5.898439e-002 9.307107e-001 -1.603633e+000 2.884892e-001 1.808612e+000 1.096414e+000 -1.104824e+000 -6.823305e-001 4.367234e-001 1.836089e-001 -1.461174e+000 5.935256e-001 1.209169e-001 1.130747e-001 1.437429e-003 4.086521e-002 2.868845e-001 -3.590295e-001 -5.118303e-001 -6.213338e-002 2.885284e-001 2.036473e-001 -4.397113e-001 3.055691e-001 -1.467744e-001
<VARIANCE> 39
 7.530125e+000 4.197488e+001 2.636529e+001 4.844094e+001 6.518033e+001 7.380730e+001 5.805680e+001 6.012365e+001 9.301125e+001 3.530629e+001 5.672184e+001 5.301998e+001 1.833732e+001 2.219823e-001 4.580876e-001 7.404938e-001 2.459970e+000 2.080179e+000 2.171270e+000 3.575622e+000 2.700590e+000 2.902662e+000 1.900561e+000 2.439746e+000 2.587401e+000 1.499034e-001 5.000000e-002 7.093360e-002 1.613238e-001 2.701374e-001 2.232139e-001 3.021944e-001 4.594687e-001 3.530159e-001 3.308546e-001 2.564674e-001 2.883990e-001 3.501841e-001 5.000000e-002
<GCONST> 1.029330e+002
<STATE> 3
<MEAN> 39
 -7.975157e-001 -1.696500e+001 -1.523226e+001 -1.944750e+001 -5.270409e+000 4.748060e+000 -2.284343e+000 -1.921127e+000 -4.428244e+000 9.465458e-001 -2.585021e+000 -5.017930e+000 6.335137e+001 -2.862478e-002 1.893142e-001 4.688285e-001 -5.103865e-001 3.396871e-002 -1.912347e-003 -2.461129e-002 -2.048336e-001 1.759326e-001 1.465977e-001 -3.565970e-001 3.885513e-001 -9.186535e-002 5.639075e-002 8.604336e-002 6.874988e-002 2.586249e-001 -1.598264e-001 -3.098797e-001 -1.860192e-001 1.645215e-001 1.272754e-001 2.971255e-002 5.935449e-002 2.500916e-002 -1.064854e-001
<VARIANCE> 39
 1.597795e+001 5.568397e+001 6.088558e+001 4.801060e+001 5.916419e+001 4.240048e+001 2.855947e+001 4.089098e+001 5.384243e+001 3.548425e+001 5.864500e+001 4.789172e+001 3.276601e+001 1.519200e-001 3.175090e-001 7.986779e-001 8.138871e-001 7.051859e-001 7.656357e-001 1.831512e+000 1.174546e+000 1.557027e+000 8.726173e-001 1.107919e+000 1.099526e+000 1.285795e-001 5.000000e-002 5.572685e-002 1.014991e-001 1.569123e-001 1.369817e-001 1.942609e-001 3.361179e-001 2.700818e-001 2.093892e-001 1.830198e-001 1.590713e-001 2.355454e-001 5.000000e-002
<GCONST> 8.987357e+001
<STATE> 4
<MEAN> 39
 -3.872212e-001 -1.557626e+001 -7.047139e+000 -1.919380e+001 -8.802223e+000 -1.025459e+000 -7.130324e+000 -2.068519e-001 8.385493e-001 1.520620e-001 -3.755359e+000 -3.251694e+000 6.269356e+001 -2.375278e-001 1.994267e+000 1.735414e+000 1.430586e+000 -3.927468e-001 -1.185906e+000 -1.146193e+000 -4.325755e-001 -6.385911e-001 4.377128e-001 -5.089630e-001 -3.049002e-002 -2.134347e+000 -2.632456e-001 7.281932e-001 -7.383551e-002 8.473631e-001 3.818139e-001 -3.969827e-002 8.269622e-002 -3.447592e-001 -6.191800e-001 -2.051357e-001 -2.310582e-002 -1.651868e-001 -7.429760e-001
<VARIANCE> 39
 9.293053e+000 5.854401e+001 5.760574e+001 6.462731e+001 4.872144e+001 4.818105e+001 8.534757e+001 6.415643e+001 7.565041e+001 3.630422e+001 3.973021e+001 4.604526e+001 2.740128e+001 7.685657e-001 4.793031e+000 1.607446e+000 5.957340e+000 4.480385e+000 2.815278e+000 5.634458e+000 2.482855e+000 3.443079e+000 3.070442e+000 3.807132e+000 1.660886e+000 3.846167e+000 1.194143e-001 4.413823e-001 3.111941e-001 7.059516e-001 6.135682e-001 5.306977e-001 1.087894e+000 4.473599e-001 5.145734e-001 7.043182e-001 3.285884e-001 2.582141e-001 3.072843e-001
<GCONST> 1.246312e+002
<TRANSP> 5
 0.000000e+000 1.000000e+000 0.000000e+000 0.000000e+000 0.000000e+000
 0.000000e+000 7.562290e-001 2.437710e-001 0.000000e+000 0.000000e+000
 0.000000e+000 0.000000e+000 8.242113e-001 1.757887e-001 0.000000e+000
 0.000000e+000 0.000000e+000 0.000000e+000 5.783961e-001 4.216039e-001
 0.000000e+000 0.000000e+000 0.000000e+000 0.000000e+000 0.000000e+000
<ENDHMM>
