~o
<STREAMINFO> 1 39
<VECSIZE> 39<NULLD><MFCC_D_A_0><DIAGC>
~h "ow"
<BEGINHMM>
<NUMSTATES> 5
<STATE> 2
<MEAN> 39
 -1.879189e+000 -1.364608e+001 -9.199764e+000 -1.714002e+001 -1.046301e+001 -3.669596e+000 -1.141160e+001 -2.243693e-001 -5.134975e-001 1.991874e+000 -3.070288e+000 -5.399776e+000 6.459068e+001 9.481290e-001 -6.494824e-001 -1.136773e+000 -1.591588e+000 1.757458e-001 2.032702e+000 -1.315945e-001 -6.233501e-001 2.998658e-002 5.726146e-001 6.003724e-001 -5.321891e-001 5.077280e-001 -4.925563e-001 5.442712e-001 1.615790e-001 2.402558e-001 2.159234e-001 1.225934e-001 4.598477e-001 -2.865601e-001 -3.902745e-001 -2.607519e-001 1.695977e-001 3.734435e-001 -5.671873e-001
<VARIANCE> 39
 1.152169e+001 2.852737e+001 3.985043e+001 6.001080e+001 5.513665e+001 8.792754e+001 7.054726e+001 6.785072e+001 6.281152e+001 6.356214e+001 9.818472e+001 4.403876e+001 1.907863e+001 1.493796e+000 2.431205e+000 2.381751e+000 2.990135e+000 4.310237e+000 3.786898e+000 4.624881e+000 4.659284e+000 4.424778e+000 4.296634e+000 4.105989e+000 3.599638e+000 1.364999e+000 3.819812e-001 2.840208e-001 3.702910e-001 5.473422e-001 7.226366e-001 8.712837e-001 8.980833e-001 9.204798e-001 7.948392e-001 7.986091e-001 7.597385e-001 6.366438e-001 2.327841e-001
<GCONST> 1.297810e+002
<STATE> 3
<MEAN> 39
 -1.677659e-001 -9.465975e+000 -1.132375e+001 -2.177150e+001 -1.085666e+001 2.360909e+000 -8.543473e+000 -4.037801e+000 -3.546354e+000 1.135667e-001 2.221627e-001 -2.969625e+000 6.158210e+001 4.642544e-002 5.146735e-001 1.304693e-001 -1.071517e-001 -1.619283e-001 1.099901e-001 7.098528e-003 -3.188601e-001 -4.377081e-001 -2.679301e-001 6.542164e-002 2.919907e-001 -4.153720e-001 -8.423554e-002 4.426909e-002 1.241605e-001 3.212879e-001 4.258638e-002 -3.189279e-001 -8.085154e-002 1.423108e-002 1.146660e-002 2.875564e-004 -1.440030e-001 -4.640319e-002 -1.073043e-001
<VARIANCE> 39
 1.014668e+001 4.107173e+001 3.340350e+001 7.186387e+001 6.898500e+001 8.298016e+001 7.005958e+001 6.402116e+001 6.332681e+001 7.440140e+001 9.125983e+001 4.562296e+001 2.334740e+001 2.607414e-001 7.961295e-001 8.532179e-001 1.760351e+000 1.424536e+000 2.051009e+000 2.079038e+000 1.922639e+000 2.092516e+000 2.269315e+000 1.901316e+000 1.774974e+000 3.180881e-001 5.218375e-002 1.464316e-001 1.466121e-001 2.381877e-001 2.801061e-001 3.386047e-001 3.269407e-001 3.519098e-001 3.342433e-001 3.996623e-001 3.434809e-001 3.100618e-001 6.173950e-002
<GCONST> 1.056335e+002
<STATE> 4
<MEAN> 39
 -9.088184e-001 -7.760433e+000 -9.646981e+000 -1.764938e+001 -1.038832e+001 -7.681405e-001 -1.047785e+001 -5.988289e+000 -5.631005e+000 9.735349e-002 -8.097256e-001 -2.992792e+000 5.902950e+001 -1.137605e+000 9.456493e-001 7.237245e-001 2.350053e+000 7.562984e-001 -1.429844e+000 4.901384e-001 -3.342196e-001 -9.052504e-002 -4.387220e-001 -9.258854e-001 -9.815027e-002 -1.552130e+000 -5.768463e-001 1.054440e-001 1.560299e-001 4.122151e-001 2.446891e-001 -1.242967e-001 3.154647e-001 1.979820e-001 1.662455e-001 -5.572115e-002 -1.298520e-001 4.052404e-003 -2.653295e-001
<VARIANCE> 39
 1.269156e+001 4.614043e+001 4.083710e+001 8.284677e+001 5.991760e+001 8.642498e+001 8.071120e+001 6.129075e+001 6.982665e+001 7.195871e+001 9.209367e+001 4.678814e+001 3.451991e+001 2.695383e+000 3.279121e+000 2.461476e+000 4.470049e+000 5.274320e+000 4.745563e+000 5.166140e+000 5.431084e+000 5.270777e+000 5.734985e+000 5.180092e+000 3.841475e+000 3.013612e+000 3.880776e-001 4.575430e-001 3.734395e-001 7.915801e-001 6.723675e-001 7.828845e-001 8.454205e-001 8.306348e-001 9.345053e-001 8.650011e-001 8.173426e-001 6.292179e-001 3.545607e-001
<GCONST> 1.364445e+002
<TRANSP> 5
 0.000000e+000 1.000000e+000 0.000000e+000 0.000000e+000 0.000000e+000
 0.000000e+000 6.617947e-001 3.382053e-001 0.000000e+000 0.000000e+000
 0.000000e+000 0.000000e+000 8.511215e-001 1.488785e-001 0.000000e+000
 0.000000e+000 0.000000e+000 0.000000e+000 6.626211e-001 3.373789e-001
 0.000000e+000 0.000000e+000 0.000000e+000 0.000000e+000 0.000000e+000
<ENDHMM>
