~o
<STREAMINFO> 1 39
<VECSIZE> 39<NULLD><MFCC_D_A_0><DIAGC>
~h "oy"
<BEGINHMM>
<NUMSTATES> 5
<STATE> 2
<MEAN> 39
 1.509895e+000 -7.971056e+000 -1.257599e+001 -2.306958e+001 -1.402604e+001 5.215050e+000 -3.509129e+000 -3.299900e+000 -5.869843e+000 -2.198832e+000 7.470533e-001 -1.417685e+000 5.894884e+001 2.763694e-001 -5.213708e-001 -9.050757e-002 -3.396682e-001 1.606156e-001 4.159487e-001 -2.321647e-001 -2.172679e-001 -1.551126e-001 5.435709e-001 6.112912e-001 -2.935647e-002 5.468071e-001 -2.323602e-001 -1.969659e-001 1.649871e-001 5.828833e-001 2.623782e-001 -4.839052e-001 -3.211483e-001 2.404882e-002 2.915209e-001 2.633162e-001 -1.627224e-001 -2.596354e-001 -8.152241e-003
<VARIANCE> 39
 8.395755e+000 3.238779e+001 3.244768e+001 6.315420e+001 7.072562e+001 5.448289e+001 6.270583e+001 5.830308e+001 5.444471e+001 5.732625e+001 5.932206e+001 3.988670e+001 1.740131e+001 5.099815e-001 1.781820e+000 1.144237e+000 3.757610e+000 2.912132e+000 2.761048e+000 3.632902e+000 2.471914e+000 2.648044e+000 3.348360e+000 2.729208e+000 2.492783e+000 6.788882e-001 1.342297e-001 2.051834e-001 2.484592e-001 3.197702e-001 4.578997e-001 4.775994e-001 5.011009e-001 5.163199e-001 5.554301e-001 4.584506e-001 5.575970e-001 4.338565e-001 1.168376e-001
<GCONST> 1.154641e+002
<STATE> 3
<MEAN> 39
 4.228882e-001 -1.469896e+001 -1.132223e+001 -1.675213e+001 -8.858822e+000 -1.333560e+000 -1.187795e+001 -2.010068e+000 -1.458456e+000 4.972575e+000 -2.606933e-001 -6.942719e+000 6.291502e+001 -6.386967e-001 -8.457728e-001 1.307632e+000 1.747541e+000 -2.865363e-002 -2.933074e+000 -1.207142e+000 1.756618e+000 1.572331e+000 -7.644504e-002 -1.528635e+000 -6.941679e-001 5.365312e-001 -1.285402e-001 3.814592e-001 3.491220e-001 -2.136678e-001 -5.117498e-001 -1.313177e-001 5.403632e-001 2.457809e-001 -3.147427e-001 -7.219614e-001 -9.193877e-002 5.698302e-001 -1.537803e-001
<VARIANCE> 39
 8.569689e+000 2.146358e+001 3.225407e+001 5.318607e+001 5.328742e+001 7.465476e+001 5.959247e+001 6.722184e+001 6.508205e+001 6.051647e+001 1.039338e+002 3.495768e+001 1.587521e+001 2.654969e-001 8.572598e-001 1.229691e+000 1.881212e+000 2.280704e+000 2.655402e+000 3.838034e+000 2.923504e+000 2.512973e+000 4.218706e+000 2.243211e+000 3.516366e+000 2.278552e-001 5.000000e-002 1.311241e-001 2.198693e-001 2.843370e-001 3.392135e-001 6.317426e-001 4.972535e-001 7.155800e-001 6.722660e-001 5.057703e-001 7.749882e-001 4.196194e-001 5.000000e-002
<GCONST> 1.111180e+002
<STATE> 4
<MEAN> 39
 -3.563868e+000 -1.375576e+001 -3.546866e+000 -1.368534e+001 -1.343336e+001 -1.196361e+001 -9.640015e+000 3.289933e+000 -2.117202e+000 -4.091861e-001 -4.457977e+000 -3.252668e+000 6.348046e+001 -6.290032e-001 1.258331e+000 8.826550e-001 -9.540720e-004 -2.670223e-001 -2.643814e-001 3.937193e-001 -8.986204e-001 -6.142385e-001 -3.706337e-001 2.277092e-001 3.984353e-001 -5.530500e-001 2.768143e-002 3.879582e-001 -4.165125e-001 -2.193602e-001 4.638563e-001 6.955781e-001 -2.126585e-002 -6.565608e-001 -1.346250e-001 2.866937e-001 2.425648e-001 -1.339161e-001 -2.975459e-001
<VARIANCE> 39
 1.102912e+001 2.388280e+001 5.090451e+001 5.118611e+001 4.825079e+001 6.256310e+001 8.001394e+001 6.330811e+001 7.668120e+001 5.737458e+001 7.899899e+001 4.022486e+001 1.878967e+001 8.886976e-001 1.504430e+000 3.228291e+000 2.223209e+000 4.599106e+000 3.850110e+000 4.498561e+000 4.858757e+000 4.295021e+000 3.594286e+000 2.639213e+000 2.716143e+000 9.533828e-001 2.144682e-001 2.227324e-001 3.197323e-001 3.977538e-001 4.987478e-001 5.293176e-001 7.110987e-001 7.604044e-001 8.467159e-001 5.790642e-001 5.471938e-001 4.744544e-001 1.263631e-001
<GCONST> 1.227441e+002
<TRANSP> 5
 0.000000e+000 1.000000e+000 0.000000e+000 0.000000e+000 0.000000e+000
 0.000000e+000 8.586697e-001 1.413303e-001 0.000000e+000 0.000000e+000
 0.000000e+000 0.000000e+000 7.473875e-001 2.526125e-001 0.000000e+000
 0.000000e+000 0.000000e+000 0.000000e+000 7.799130e-001 2.200870e-001
 0.000000e+000 0.000000e+000 0.000000e+000 0.000000e+000 0.000000e+000
<ENDHMM>
