~o
<STREAMINFO> 1 39
<VECSIZE> 39<NULLD><MFCC_D_A_0><DIAGC>
~h "p"
<BEGINHMM>
<NUMSTATES> 5
<STATE> 2
<MEAN> 39
 -1.225603e+001 1.406521e+000 -3.274552e+000 -1.767994e+000 -2.379768e+000 -2.396399e+000 -4.776304e+000 -5.201351e+000 -6.022019e+000 -2.970991e+000 -3.231789e+000 -3.041194e+000 3.795177e+001 -3.172066e+000 4.982621e-001 5.627042e-002 1.668041e+000 1.337714e+000 1.439352e+000 1.543254e+000 8.345224e-001 9.916472e-001 4.027830e-001 2.059462e-001 5.534244e-001 -4.080529e+000 1.763996e-002 -1.061730e+000 -3.237633e-001 -7.836133e-001 -5.088161e-001 -2.529607e-001 -6.014062e-002 5.347438e-001 4.510078e-001 4.105815e-001 2.861831e-001 1.797414e-001 1.491986e+000
<VARIANCE> 39
 3.433509e+001 1.961568e+001 2.190415e+001 2.730800e+001 2.255983e+001 2.445724e+001 2.907230e+001 3.246200e+001 3.431120e+001 2.839429e+001 2.632958e+001 2.196885e+001 2.659713e+001 5.670972e+000 5.241672e+000 5.345415e+000 6.949957e+000 4.496718e+000 5.033753e+000 4.571322e+000 5.229091e+000 5.606770e+000 4.562598e+000 4.210994e+000 3.146568e+000 8.996870e+000 8.736658e-001 7.450262e-001 8.012002e-001 9.735951e-001 8.012519e-001 7.558722e-001 8.095105e-001 8.783779e-001 8.985527e-001 7.711338e-001 6.707661e-001 5.596920e-001 1.181664e+000
<GCONST> 1.328927e+002
<STATE> 3
<MEAN> 39
 -1.954269e+001 -2.267328e+000 -5.236681e+000 -1.254065e+000 -1.502283e+000 1.978161e-001 -1.024022e+000 9.655207e-002 -3.029378e-001 1.048618e+000 8.346669e-002 4.587973e-002 3.279431e+001 -2.036860e-001 -1.092959e+000 -4.842951e-001 -5.598544e-001 -2.041783e-001 -2.272117e-001 2.138275e-001 5.334885e-001 7.097924e-001 4.292251e-001 3.162161e-001 2.919071e-001 1.913020e+000 8.408744e-001 -2.916845e-001 -3.915954e-002 -5.705879e-001 -2.765504e-001 -4.716150e-001 -3.720346e-001 -2.328540e-001 -2.467910e-001 -2.105856e-001 -1.778299e-001 -1.790622e-001 1.961459e+000
<VARIANCE> 39
 4.382775e+000 6.157865e+000 6.429062e+000 9.301088e+000 9.769776e+000 1.155998e+001 1.184186e+001 1.410120e+001 1.370647e+001 1.373892e+001 1.188472e+001 1.159577e+001 1.462997e+001 2.681980e+000 2.029665e+000 1.618943e+000 2.454447e+000 1.781962e+000 2.468693e+000 2.381402e+000 2.897806e+000 2.993402e+000 2.426126e+000 2.104347e+000 1.869981e+000 1.333836e+001 6.083190e-001 3.530121e-001 4.110144e-001 5.345134e-001 4.495030e-001 5.435619e-001 5.239609e-001 5.021234e-001 5.247983e-001 4.640950e-001 4.309290e-001 3.641446e-001 1.069496e+000
<GCONST> 1.051903e+002
<STATE> 4
<MEAN> 39
 -1.411367e+001 -8.812890e+000 -7.786683e+000 -7.559491e+000 -3.296954e+000 -3.194638e+000 -1.968683e+000 -4.209927e-001 -4.726741e-001 1.106758e-001 -1.387145e+000 -8.774961e-001 5.390228e+001 2.133922e+000 -7.838594e-001 -5.827700e-001 -1.403460e+000 -7.270156e-001 -6.372107e-001 -8.142527e-001 -2.812801e-001 -5.251720e-001 -4.732833e-001 -4.844710e-001 -3.737107e-001 2.845567e+000 3.883175e-001 2.892816e-001 1.701040e-002 -3.239929e-002 -2.069039e-001 8.067354e-003 -3.227563e-001 -1.147759e-001 -2.804920e-001 -1.384967e-001 -5.223621e-002 -8.900886e-002 -6.710979e-001
<VARIANCE> 39
 2.680661e+001 2.479615e+001 3.104583e+001 3.631448e+001 3.041729e+001 3.372949e+001 3.411915e+001 3.139993e+001 3.100495e+001 2.640721e+001 2.464251e+001 1.913635e+001 3.950342e+001 4.749957e+000 3.761482e+000 3.610005e+000 4.301288e+000 4.272595e+000 4.643837e+000 4.976069e+000 4.274389e+000 4.387158e+000 3.297956e+000 3.219769e+000 2.395514e+000 9.925863e+000 6.270122e-001 6.015519e-001 5.152876e-001 6.564777e-001 6.860244e-001 7.136180e-001 7.807379e-001 8.106524e-001 8.248709e-001 6.719037e-001 6.195641e-001 4.762653e-001 1.417502e+000
<GCONST> 1.296428e+002
<TRANSP> 5
 0.000000e+000 1.000000e+000 0.000000e+000 0.000000e+000 0.000000e+000
 0.000000e+000 5.368867e-001 4.631133e-001 0.000000e+000 0.000000e+000
 0.000000e+000 0.000000e+000 7.144743e-001 2.855258e-001 0.000000e+000
 0.000000e+000 0.000000e+000 0.000000e+000 7.742857e-001 2.257143e-001
 0.000000e+000 0.000000e+000 0.000000e+000 0.000000e+000 0.000000e+000
<ENDHMM>
