~o
<STREAMINFO> 1 39
<VECSIZE> 39<NULLD><MFCC_D_A_0><DIAGC>
~h "r"
<BEGINHMM>
<NUMSTATES> 5
<STATE> 2
<MEAN> 39
 3.366947e+000 -1.042225e+001 -1.657585e+001 -6.864121e+000 -3.296782e+000 -1.102648e+001 -1.782016e+001 5.089388e-001 -1.408805e-002 -2.742420e+000 -1.478579e+000 3.406861e-001 5.689838e+001 5.356460e-001 -2.785521e-001 -4.879037e-001 2.033893e-001 1.455522e-001 -4.088534e-001 -7.432153e-001 4.224771e-001 5.175727e-001 -9.899222e-002 -2.106750e-001 4.975767e-002 1.714974e-001 -5.211222e-001 -1.310081e-001 6.064601e-001 7.721829e-002 -4.294327e-001 4.204895e-002 6.110017e-001 1.874347e-001 -1.709503e-001 -5.272064e-002 2.329287e-002 -8.096203e-002 9.449727e-003
<VARIANCE> 39
 1.210265e+001 3.193682e+001 6.535704e+001 4.191982e+001 5.632523e+001 7.333466e+001 8.713933e+001 9.349715e+001 8.584081e+001 4.573364e+001 4.003027e+001 3.518600e+001 2.485526e+001 2.167925e+000 2.418308e+000 3.166000e+000 2.384068e+000 3.444388e+000 4.087675e+000 5.186119e+000 4.775218e+000 3.706287e+000 3.136822e+000 2.526043e+000 2.095095e+000 1.805837e+000 4.080037e-001 3.541837e-001 3.771248e-001 3.535990e-001 4.554756e-001 6.164076e-001 8.739762e-001 7.489757e-001 6.136836e-001 5.096923e-001 4.281959e-001 3.855385e-001 2.267644e-001
<GCONST> 1.257725e+002
<STATE> 3
<MEAN> 39
 2.197384e+000 -1.465218e+001 -1.282918e+001 -5.100645e+000 -7.130289e+000 -1.508081e+001 -1.720837e+001 6.577259e+000 -7.949089e-002 -4.626312e+000 -2.101211e+000 9.074932e-002 5.960502e+001 -8.006096e-001 -2.755726e-001 1.852452e+000 2.746626e-001 -1.516430e+000 -2.852484e-001 1.568711e+000 5.830533e-001 -9.149820e-001 -5.267992e-001 1.509979e-001 -9.318138e-002 3.774184e-002 -5.592197e-001 3.693366e-001 5.330598e-001 -2.629628e-001 -1.345097e-001 6.122754e-001 7.847394e-001 -5.805351e-001 -4.403904e-001 2.031319e-001 1.064319e-001 -1.906386e-001 -2.729816e-001
<VARIANCE> 39
 1.060003e+001 2.667384e+001 7.167007e+001 4.782609e+001 6.678099e+001 8.250172e+001 1.103765e+002 8.287086e+001 9.324654e+001 5.404922e+001 4.449135e+001 3.574466e+001 2.278780e+001 1.088809e+000 2.853971e+000 2.991580e+000 2.725130e+000 4.174770e+000 4.117559e+000 4.940910e+000 5.787873e+000 4.064584e+000 3.444621e+000 3.259125e+000 2.513169e+000 2.582405e+000 3.760452e-001 2.645124e-001 3.589354e-001 4.363492e-001 5.426114e-001 6.102074e-001 8.861545e-001 6.868545e-001 6.680921e-001 5.454541e-001 4.549235e-001 3.993254e-001 2.266832e-001
<GCONST> 1.273775e+002
<STATE> 4
<MEAN> 39
 -1.199557e+000 -1.239138e+001 -8.652227e+000 -4.400653e+000 -8.587298e+000 -1.390687e+001 -1.161414e+001 4.357656e+000 -3.044555e+000 -4.732169e+000 -2.778855e+000 -5.819656e-001 5.654715e+001 -2.124809e+000 1.163903e+000 2.249429e+000 9.636221e-002 -5.760942e-001 1.472299e+000 2.360743e+000 -1.247663e+000 -1.031470e+000 1.646728e-001 -1.669002e-002 -5.059807e-001 -1.458505e+000 -4.361764e-001 2.618391e-001 -3.778605e-002 -3.286470e-001 3.020121e-001 5.900413e-001 9.911537e-002 -3.231492e-001 8.426086e-002 2.701682e-001 4.483319e-002 -1.236776e-001 -1.957448e-001
<VARIANCE> 39
 1.986787e+001 3.926797e+001 7.602194e+001 6.056197e+001 8.502449e+001 8.440792e+001 9.860404e+001 7.740502e+001 9.273138e+001 5.879751e+001 5.124972e+001 3.679430e+001 4.997810e+001 3.509130e+000 4.811006e+000 3.869968e+000 5.321238e+000 5.746962e+000 5.139333e+000 6.696301e+000 6.068020e+000 5.360250e+000 4.079815e+000 3.869601e+000 3.125254e+000 6.552552e+000 4.453629e-001 5.885334e-001 4.916466e-001 6.379175e-001 8.190191e-001 9.636905e-001 1.054468e+000 9.955782e-001 7.924889e-001 7.154444e-001 6.815068e-001 5.243546e-001 4.732081e-001
<GCONST> 1.400154e+002
<TRANSP> 5
 0.000000e+000 1.000000e+000 0.000000e+000 0.000000e+000 0.000000e+000
 0.000000e+000 6.234181e-001 3.765819e-001 0.000000e+000 0.000000e+000
 0.000000e+000 0.000000e+000 4.527550e-001 5.472450e-001 0.000000e+000
 0.000000e+000 0.000000e+000 0.000000e+000 3.376928e-001 6.623072e-001
 0.000000e+000 0.000000e+000 0.000000e+000 0.000000e+000 0.000000e+000
<ENDHMM>
