~o
<STREAMINFO> 1 39
<VECSIZE> 39<NULLD><MFCC_D_A_0><DIAGC>
~h "s"
<BEGINHMM>
<NUMSTATES> 5
<STATE> 2
<MEAN> 39
 -2.524234e+001 8.825219e-001 -5.981305e+000 -8.120498e+000 -1.080877e+000 -6.549071e+000 -1.178004e+000 6.105023e-001 -2.055950e+000 -1.493562e+000 -2.238786e+000 -3.483006e-002 5.789734e+001 -4.217795e+000 9.938958e-001 -1.142022e+000 9.102860e-002 1.575859e+000 1.028529e+000 1.233754e+000 8.835089e-001 4.504240e-001 4.002771e-001 8.133210e-001 6.206407e-001 1.654436e-001 9.562758e-001 -5.470048e-001 7.449876e-003 -1.373856e-001 -5.113579e-001 -7.305738e-002 -4.708737e-001 -9.970998e-002 -1.134717e-001 6.305723e-002 -1.108235e-001 -1.430391e-001 -3.554915e-002
<VARIANCE> 39
 3.965211e+001 2.415317e+001 4.111392e+001 3.311599e+001 3.761894e+001 3.622277e+001 3.489585e+001 3.407556e+001 2.665802e+001 2.454019e+001 2.091461e+001 1.769318e+001 2.054601e+001 4.792722e+000 3.194968e+000 3.650568e+000 4.162914e+000 3.826500e+000 4.222186e+000 4.149982e+000 3.725819e+000 3.703943e+000 3.455431e+000 3.299300e+000 2.418311e+000 1.595023e+000 7.103841e-001 5.510385e-001 6.431382e-001 6.842448e-001 6.376869e-001 7.538284e-001 7.189642e-001 7.047851e-001 5.908821e-001 6.097441e-001 5.527579e-001 4.736980e-001 3.273429e-001
<GCONST> 1.248908e+002
<STATE> 3
<MEAN> 39
 -3.016783e+001 1.429615e+000 -9.476450e+000 -7.892802e+000 1.477403e-002 -5.076026e+000 -2.816300e-001 1.546525e+000 -1.496989e+000 -2.556759e-001 -1.156108e+000 7.090523e-001 5.791739e+001 2.876929e-002 -1.367778e-001 2.850921e-002 -1.134631e-001 -9.940911e-003 -2.493556e-002 -1.010971e-001 2.511771e-002 4.645057e-002 3.534828e-002 -1.967900e-002 -2.781953e-002 -4.029879e-002 5.931930e-001 -2.116271e-001 2.545953e-001 -2.982993e-002 -1.785115e-001 -1.394303e-001 -1.813643e-001 -1.137635e-001 -2.936238e-002 -6.690863e-002 -9.742225e-002 -9.568523e-002 -1.601471e-001
<VARIANCE> 39
 8.056643e+000 2.065039e+001 3.018849e+001 3.924094e+001 3.505353e+001 3.160073e+001 2.879823e+001 2.504923e+001 1.937606e+001 1.701839e+001 1.622261e+001 1.332935e+001 1.726398e+001 9.140319e-001 1.221049e+000 1.184260e+000 1.300480e+000 1.461778e+000 1.636521e+000 1.558171e+000 1.577276e+000 1.506869e+000 1.463933e+000 1.320260e+000 1.215973e+000 6.896997e-001 3.626220e-001 2.276726e-001 2.641804e-001 3.087811e-001 3.302146e-001 3.759695e-001 3.711760e-001 3.577114e-001 3.417322e-001 3.294570e-001 3.049934e-001 2.681298e-001 1.880712e-001
<GCONST> 9.922473e+001
<STATE> 4
<MEAN> 39
 -2.452990e+001 -1.826648e+000 -5.788208e+000 -9.198663e+000 -1.271611e+000 -6.409627e+000 -3.045616e+000 1.066163e+000 -1.102010e+000 -7.563233e-001 -2.148357e+000 -3.585528e-001 5.633659e+001 3.611222e+000 -1.309979e+000 1.090799e+000 8.418437e-002 -1.286018e+000 -2.392371e-001 -1.434526e+000 -7.682940e-001 -1.581375e-001 -7.586520e-002 -3.522689e-001 -5.839190e-001 -1.391072e+000 5.412743e-001 -1.913946e-001 -7.415491e-002 8.438024e-002 -3.179790e-001 1.178034e-001 -1.441376e-001 -1.127769e-001 -1.388602e-001 5.221152e-002 3.114955e-002 -6.738892e-002 -2.252644e-001
<VARIANCE> 39
 5.204028e+001 2.752906e+001 3.960009e+001 3.349718e+001 4.346944e+001 4.336389e+001 4.349537e+001 3.615825e+001 2.922945e+001 2.455811e+001 2.279405e+001 1.923500e+001 3.286275e+001 5.349085e+000 2.906034e+000 3.916999e+000 5.072078e+000 4.936075e+000 5.898876e+000 5.375860e+000 3.977328e+000 3.839829e+000 3.116914e+000 3.420329e+000 2.548104e+000 6.962412e+000 9.131793e-001 5.343816e-001 5.991750e-001 6.808426e-001 7.159624e-001 8.113176e-001 9.725868e-001 7.319424e-001 6.337252e-001 5.713104e-001 5.796170e-001 4.422036e-001 9.060434e-001
<GCONST> 1.309702e+002
<TRANSP> 5
 0.000000e+000 1.000000e+000 0.000000e+000 0.000000e+000 0.000000e+000
 0.000000e+000 6.207398e-001 3.792602e-001 0.000000e+000 0.000000e+000
 0.000000e+000 0.000000e+000 8.335770e-001 1.664230e-001 0.000000e+000
 0.000000e+000 0.000000e+000 0.000000e+000 6.691655e-001 3.308345e-001
 0.000000e+000 0.000000e+000 0.000000e+000 0.000000e+000 0.000000e+000
<ENDHMM>
