~o
<STREAMINFO> 1 39
<VECSIZE> 39<NULLD><MFCC_D_A_0><DIAGC>
~h "sh"
<BEGINHMM>
<NUMSTATES> 5
<STATE> 2
<MEAN> 39
 -2.395855e+001 -6.806407e+000 3.334677e+000 -7.720905e+000 -6.974957e+000 -3.612839e+000 -1.837149e+000 7.005445e-001 -1.321065e+000 -2.818483e+000 -1.199361e+000 -4.234476e-001 5.755369e+001 -4.573079e+000 1.826305e-001 7.264194e-001 -3.167484e-001 4.469877e-001 1.281377e+000 8.162934e-001 -1.815589e-001 6.101944e-001 4.726106e-001 6.676846e-001 2.102352e-001 1.157855e+000 7.400883e-001 -2.336988e-001 -5.042940e-001 -1.755549e-001 -2.275733e-001 -8.708219e-002 -3.262421e-001 -3.731493e-002 -1.046601e-001 1.281065e-001 -1.586463e-002 -1.181794e-001 -2.635113e-002
<VARIANCE> 39
 5.135116e+001 2.616114e+001 2.498012e+001 3.887647e+001 3.213842e+001 3.361810e+001 2.879450e+001 2.751034e+001 3.269101e+001 2.387345e+001 2.043077e+001 1.648662e+001 2.751494e+001 4.502728e+000 2.613620e+000 3.733608e+000 2.628833e+000 4.161225e+000 3.718786e+000 3.811303e+000 3.917427e+000 3.836693e+000 3.052210e+000 2.937172e+000 2.162863e+000 2.637180e+000 9.043201e-001 5.866750e-001 4.935144e-001 6.524931e-001 6.155186e-001 6.815366e-001 7.127379e-001 6.746054e-001 6.176903e-001 5.838099e-001 5.275908e-001 4.351251e-001 3.612373e-001
<GCONST> 1.238060e+002
<STATE> 3
<MEAN> 39
 -3.101087e+001 -6.010469e+000 3.338899e+000 -1.011075e+001 -7.108696e+000 -1.062496e+000 -1.029999e+000 -2.141080e-001 -7.861881e-001 -1.451377e+000 7.130688e-002 -2.642243e-001 6.048924e+001 7.458755e-002 -1.108751e-001 -1.346953e-001 5.255947e-002 -2.104707e-001 -1.107556e-001 3.617440e-003 -7.583210e-002 9.811195e-003 2.052212e-002 -8.567894e-002 -3.126069e-002 1.615184e-001 7.638788e-001 -3.723817e-002 -6.148051e-002 1.196223e-001 -7.955751e-002 -2.791135e-001 -1.787247e-001 -1.610816e-002 -1.195357e-001 -9.005177e-002 -1.298475e-001 -4.784075e-002 -2.815940e-001
<VARIANCE> 39
 1.064349e+001 2.767458e+001 2.211413e+001 2.796209e+001 3.469402e+001 2.474258e+001 2.320612e+001 2.125847e+001 1.976458e+001 1.775294e+001 1.501464e+001 1.282250e+001 1.422234e+001 1.378588e+000 8.407043e-001 1.073553e+000 1.147114e+000 1.355237e+000 1.583151e+000 1.462677e+000 1.495684e+000 1.478351e+000 1.453549e+000 1.339861e+000 1.168784e+000 8.642210e-001 3.567911e-001 1.789086e-001 2.933658e-001 2.268102e-001 3.373514e-001 3.352123e-001 3.518654e-001 3.580138e-001 3.549629e-001 3.407573e-001 2.930008e-001 2.533811e-001 9.827091e-002
<GCONST> 9.674546e+001
<STATE> 4
<MEAN> 39
 -2.184551e+001 -7.378370e+000 2.116861e+000 -7.739754e+000 -9.424642e+000 -5.352770e+000 -3.744816e+000 -9.408137e-001 -1.970307e+000 -2.638712e+000 -2.018908e+000 -1.032652e+000 5.805784e+001 4.581677e+000 -2.287259e-001 -3.055919e-001 3.604212e-002 -9.282154e-001 -1.527522e+000 -1.964849e+000 -4.350765e-001 -1.015236e+000 -4.871219e-001 -5.148845e-001 -4.511009e-001 -6.800336e-001 4.177518e-001 -1.280398e-001 -3.770872e-002 -3.268468e-001 -1.051329e-001 1.136313e-001 -2.215103e-001 -1.704692e-002 -2.109948e-001 7.210784e-002 1.392322e-001 -4.287724e-002 1.250254e-001
<VARIANCE> 39
 6.830201e+001 2.995858e+001 3.985016e+001 3.853357e+001 3.538588e+001 3.694126e+001 3.570118e+001 3.091521e+001 3.411043e+001 2.471332e+001 2.095935e+001 1.665051e+001 2.334288e+001 4.163534e+000 2.852448e+000 5.850639e+000 3.487753e+000 5.964288e+000 4.319753e+000 4.503547e+000 4.306378e+000 4.803733e+000 3.971851e+000 3.191036e+000 2.236072e+000 2.226330e+000 1.136358e+000 4.246110e-001 5.334652e-001 5.125282e-001 7.708046e-001 7.828455e-001 8.939529e-001 7.225956e-001 6.713017e-001 6.401952e-001 5.282583e-001 4.064153e-001 4.200458e-001
<GCONST> 1.277622e+002
<TRANSP> 5
 0.000000e+000 1.000000e+000 0.000000e+000 0.000000e+000 0.000000e+000
 0.000000e+000 6.502792e-001 3.497208e-001 0.000000e+000 0.000000e+000
 0.000000e+000 0.000000e+000 8.394514e-001 1.605485e-001 0.000000e+000
 0.000000e+000 0.000000e+000 0.000000e+000 6.702023e-001 3.297977e-001
 0.000000e+000 0.000000e+000 0.000000e+000 0.000000e+000 0.000000e+000
<ENDHMM>
