~o
<STREAMINFO> 1 39
<VECSIZE> 39<NULLD><MFCC_D_A_0><DIAGC>
~h "sil"
<BEGINHMM>
<NUMSTATES> 5
<STATE> 2
<MEAN> 39
 -1.539451e+001 -7.631857e+000 -8.605988e+000 -5.438750e+000 -3.031298e+000 -3.745550e+000 -1.512143e+000 1.009521e+000 -1.554396e+000 -2.394600e+000 -2.547489e+000 2.561614e-001 4.108848e+001 -2.010646e-001 2.022069e-001 -9.901716e-002 1.529648e-001 7.405055e-002 2.268203e-001 7.336253e-002 -3.787665e-002 4.337723e-002 1.148964e-001 1.061095e-001 3.485918e-002 -6.615416e-001 -2.780129e-002 8.959540e-002 6.641617e-002 1.207375e-002 -1.187656e-002 -1.025625e-002 -2.259662e-002 -2.205121e-002 -2.581621e-003 3.949944e-002 1.948113e-002 -1.879011e-002 3.444597e-002
<VARIANCE> 39
 2.017532e+001 2.826207e+001 2.757890e+001 3.051703e+001 3.033963e+001 3.395840e+001 3.378255e+001 3.512506e+001 3.266362e+001 3.340891e+001 2.861987e+001 2.300426e+001 3.331668e+001 1.019677e+000 1.337635e+000 1.432072e+000 1.620532e+000 1.751171e+000 2.055516e+000 2.126925e+000 2.156891e+000 2.156804e+000 2.194405e+000 1.904610e+000 1.683313e+000 9.938424e-001 1.442108e-001 1.861727e-001 2.298643e-001 2.697475e-001 3.130101e-001 3.602346e-001 3.895319e-001 3.829548e-001 3.918425e-001 3.935901e-001 3.462854e-001 3.152165e-001 1.136558e-001
<GCONST> 1.056936e+002
<STATE> 3
<MEAN> 39
 -1.921384e+001 -2.348195e+000 -6.264290e+000 -2.463073e+000 -2.150656e+000 -9.798851e-001 -5.775828e-001 9.431681e-002 -1.024016e+000 6.066534e-001 -5.606340e-001 2.937464e-001 3.407152e+001 -1.318593e-001 1.163964e-001 1.370374e-001 1.037821e-001 6.852851e-002 7.525715e-002 9.196552e-003 -3.014450e-002 4.302513e-003 8.202183e-002 4.533592e-002 -3.018943e-002 -1.491157e-001 5.795515e-002 -5.332137e-002 -1.851039e-002 -5.246415e-002 -2.766791e-002 -4.116470e-002 -1.497129e-002 1.212836e-003 -1.779854e-002 -3.675303e-002 -2.970294e-002 -6.868335e-003 1.073213e-001
<VARIANCE> 39
 7.788308e+000 9.408486e+000 1.050834e+001 1.453476e+001 1.323762e+001 1.695711e+001 1.560009e+001 1.697432e+001 1.754527e+001 1.760909e+001 1.576584e+001 1.305108e+001 1.617077e+001 3.199578e-001 5.070763e-001 7.187512e-001 9.044516e-001 1.065905e+000 1.253260e+000 1.368860e+000 1.488473e+000 1.542435e+000 1.590535e+000 1.431109e+000 1.283534e+000 2.505573e-001 6.562526e-002 1.036507e-001 1.388661e-001 1.847835e-001 2.122075e-001 2.487923e-001 2.748765e-001 2.978539e-001 3.077681e-001 3.160512e-001 2.846988e-001 2.561672e-001 6.943247e-002
<GCONST> 8.299625e+001
<STATE> 4
<MEAN> 39
 -1.819507e+001 -4.008845e+000 -6.276021e+000 -3.852354e+000 -2.999102e+000 -1.290418e+000 -9.459960e-001 2.799865e-001 -1.195032e+000 -6.056599e-002 -9.430161e-001 -5.349281e-002 3.642238e+001 3.880525e-001 -1.067745e-001 2.050426e-001 -4.285945e-001 -2.873738e-001 -2.674507e-001 -1.542518e-001 -1.967662e-001 -2.778725e-001 -1.949779e-001 -2.036678e-001 -1.626231e-001 1.099080e+000 1.257953e-001 -6.557160e-002 1.697586e-002 -1.563355e-001 -1.220725e-001 -1.140444e-001 -1.060311e-001 -6.251261e-002 -6.308845e-002 -6.530274e-002 -3.417213e-002 -1.876343e-002 4.405600e-001
<VARIANCE> 39
 1.866979e+001 2.589212e+001 2.429605e+001 2.683669e+001 2.602920e+001 2.709397e+001 2.426242e+001 2.636026e+001 2.474084e+001 2.358076e+001 2.082729e+001 1.743599e+001 3.407474e+001 2.765360e+000 2.549734e+000 2.390996e+000 2.905744e+000 2.688797e+000 2.612299e+000 2.609280e+000 2.707345e+000 2.626910e+000 2.353784e+000 2.135995e+000 1.799775e+000 4.410843e+000 4.586212e-001 4.727348e-001 4.165220e-001 5.289064e-001 4.817556e-001 4.949538e-001 5.032815e-001 4.816264e-001 4.672121e-001 4.398247e-001 3.893338e-001 3.302181e-001 7.443702e-001
<GCONST> 1.157769e+002
<TRANSP> 5
 0.000000e+000 1.000000e+000 0.000000e+000 0.000000e+000 0.000000e+000
 0.000000e+000 8.584793e-001 1.415207e-001 0.000000e+000 0.000000e+000
 0.000000e+000 0.000000e+000 8.478118e-001 1.521881e-001 0.000000e+000
 0.000000e+000 0.000000e+000 0.000000e+000 7.221960e-001 2.778039e-001
 0.000000e+000 0.000000e+000 0.000000e+000 0.000000e+000 0.000000e+000
<ENDHMM>
