~o
<STREAMINFO> 1 39
<VECSIZE> 39<NULLD><MFCC_D_A_0><DIAGC>
~h "sp"
<BEGINHMM>
<NUMSTATES> 5
<STATE> 2
<MEAN> 39
 -1.823638e+001 -9.836225e+000 -8.883619e+000 -6.083950e+000 -2.195693e+000 -2.784179e+000 -4.324891e+000 -1.758442e+000 -2.695895e-001 1.525190e+000 -5.098162e-001 -1.161367e+000 4.994743e+001 2.635085e+000 6.773976e-001 -7.782876e-001 -1.708096e-001 -1.451891e-002 6.962340e-001 4.701431e-001 -8.872992e-001 -1.346472e+000 -9.778910e-002 1.761010e-001 -3.591936e-002 -2.513945e+000 4.143860e-001 7.621310e-001 3.816987e-001 -4.659083e-001 -6.457261e-001 -1.659967e-001 5.165003e-002 8.617631e-003 -4.804660e-001 -4.827579e-001 -1.443109e-001 -7.184779e-003 4.551140e-001
<VARIANCE> 39
 2.319866e+001 3.530573e+001 3.066497e+001 2.406875e+001 2.357994e+001 2.524061e+001 3.201642e+001 2.709613e+001 3.104550e+001 2.283860e+001 2.144495e+001 1.858311e+001 5.125103e+001 5.117031e+000 4.028153e+000 3.400525e+000 4.587204e+000 4.526029e+000 3.888739e+000 3.979274e+000 4.186820e+000 3.839562e+000 3.570097e+000 2.884787e+000 2.571516e+000 2.451093e+000 4.910827e-001 5.745457e-001 6.617320e-001 6.837534e-001 9.143131e-001 7.785240e-001 8.728882e-001 8.643089e-001 7.897415e-001 6.654280e-001 5.435462e-001 4.998823e-001 8.798844e-001
<GCONST> 1.268503e+002
<STATE> 3
<MEAN> 39
 -1.335180e+001 -3.586622e+000 -7.158461e+000 -6.013809e+000 -2.823299e+000 -1.762148e+000 -1.698576e+000 -2.732821e+000 -4.731428e+000 -9.858450e-001 -2.240637e+000 -1.681178e+000 4.404987e+001 3.840104e+000 1.773707e+000 2.365326e-001 -1.135981e+000 -2.105841e+000 -6.137193e-001 -5.775971e-001 -9.689211e-001 -1.863032e+000 -1.029791e+000 -4.726164e-001 -5.508770e-001 1.838346e-001 7.249744e-002 -2.415555e-001 1.301511e-002 -6.530623e-001 -5.649650e-001 -3.669442e-001 -4.963263e-001 7.126030e-002 8.382981e-002 1.191492e-002 8.871683e-002 -4.920019e-002 1.455175e+000
<VARIANCE> 39
 3.429388e+001 3.013342e+001 3.180537e+001 3.228288e+001 2.704553e+001 3.288083e+001 3.244778e+001 3.509815e+001 3.203205e+001 2.732394e+001 2.664291e+001 2.388271e+001 3.464424e+001 9.637586e+000 5.243762e+000 3.741866e+000 8.127726e+000 6.374829e+000 4.699430e+000 4.974866e+000 6.270165e+000 5.722750e+000 4.254447e+000 4.088650e+000 3.140678e+000 4.093273e+000 5.934112e-001 5.640368e-001 6.101416e-001 7.412080e-001 7.824768e-001 7.428116e-001 8.214349e-001 8.075960e-001 7.210882e-001 6.798766e-001 5.888016e-001 4.953193e-001 6.117310e-001
<GCONST> 1.322099e+002
<STATE> 4
<MEAN> 39
 -5.775658e+000 1.688316e-001 -6.553092e+000 -9.761868e+000 -8.289005e+000 -4.741778e+000 -4.600945e+000 -4.989000e+000 -7.853100e+000 -3.262286e+000 -3.125899e+000 -2.647654e+000 4.775767e+001 3.469849e+000 7.407805e-001 4.232189e-002 -1.987853e+000 -2.494343e+000 -7.858028e-001 -1.160999e+000 -7.448980e-001 -1.516232e+000 -6.738790e-001 -1.535706e-001 -4.800371e-001 1.964221e+000 -8.658901e-001 -8.600366e-001 -1.132440e-001 -2.411252e-001 1.484264e-001 8.050515e-002 -7.915749e-002 4.083717e-001 5.902123e-001 3.496416e-001 2.246623e-001 1.147752e-001 9.015183e-001
<VARIANCE> 39
 6.255410e+001 2.642724e+001 3.490466e+001 5.955102e+001 4.528765e+001 3.652206e+001 3.755764e+001 4.416108e+001 3.853475e+001 3.087082e+001 3.110422e+001 2.539866e+001 2.696462e+001 9.178086e+000 4.108909e+000 3.969075e+000 9.008222e+000 7.058801e+000 5.197941e+000 5.298419e+000 6.344199e+000 5.461586e+000 4.861979e+000 4.459578e+000 3.411577e+000 3.726297e+000 6.951017e-001 6.873531e-001 5.309320e-001 6.690992e-001 7.215602e-001 6.308800e-001 8.091418e-001 8.637092e-001 7.271800e-001 7.164586e-001 5.734606e-001 4.952231e-001 5.626802e-001
<GCONST> 1.348360e+002
<TRANSP> 5
 0.000000e+000 1.000000e+000 0.000000e+000 0.000000e+000 0.000000e+000
 0.000000e+000 6.006644e-001 3.993356e-001 0.000000e+000 0.000000e+000
 0.000000e+000 0.000000e+000 1.880506e-001 8.119494e-001 0.000000e+000
 0.000000e+000 0.000000e+000 0.000000e+000 8.682909e-002 9.131708e-001
 0.000000e+000 0.000000e+000 0.000000e+000 0.000000e+000 0.000000e+000
<ENDHMM>
