~o
<STREAMINFO> 1 39
<VECSIZE> 39<NULLD><MFCC_D_A_0><DIAGC>
~h "t"
<BEGINHMM>
<NUMSTATES> 5
<STATE> 2
<MEAN> 39
 -1.443478e+001 -1.859801e+000 -3.456741e+000 -4.640695e+000 -5.966484e+000 -5.450273e+000 -4.981732e+000 -2.439690e+000 -3.049042e+000 -1.250964e+000 -3.202586e+000 -2.395813e+000 4.192989e+001 -1.938020e+000 2.020259e-001 -3.789182e-001 8.518785e-001 1.475393e+000 1.726322e+000 1.187112e+000 3.118062e-001 5.522333e-001 4.080112e-001 6.365692e-001 2.976502e-001 -2.582653e+000 2.298322e-001 -7.364074e-001 -1.771979e-001 -7.259450e-001 -3.253604e-001 -3.750264e-002 1.898394e-002 2.190536e-001 -3.824075e-002 5.775068e-002 1.133185e-001 1.126382e-001 1.407491e+000
<VARIANCE> 39
 4.934890e+001 3.951300e+001 5.336246e+001 5.866118e+001 5.912736e+001 5.364505e+001 4.904315e+001 5.834947e+001 6.196194e+001 5.021473e+001 4.457493e+001 3.634411e+001 6.557483e+001 6.384009e+000 5.818344e+000 5.459829e+000 7.227480e+000 6.568977e+000 6.005122e+000 5.568949e+000 6.790727e+000 6.570997e+000 5.005202e+000 4.759184e+000 3.835833e+000 1.116466e+001 7.465644e-001 8.845295e-001 7.848949e-001 1.147897e+000 1.184202e+000 1.093590e+000 1.033671e+000 1.219137e+000 1.218959e+000 1.048839e+000 9.586276e-001 7.368071e-001 1.678496e+000
<GCONST> 1.467337e+002
<STATE> 3
<MEAN> 39
 -2.004281e+001 -5.318391e+000 -5.326934e+000 -6.652146e+000 -3.631586e+000 -2.258843e+000 -1.244733e+000 2.690241e-001 -1.029167e+000 5.605908e-001 -2.283005e-001 1.672189e-001 4.532751e+001 7.792346e-002 -8.207607e-001 -1.515883e-001 -1.098597e+000 -5.554644e-001 -4.128286e-001 2.542300e-001 1.959863e-001 -7.937998e-002 -8.133546e-002 1.803800e-002 1.938379e-001 2.522250e+000 6.018087e-001 3.936493e-002 1.731281e-001 -1.546048e-001 -3.858258e-001 -4.381186e-001 -3.255604e-001 -1.598897e-001 -2.583596e-001 -2.237252e-001 -2.860439e-001 -1.651853e-001 6.288772e-001
<VARIANCE> 39
 3.395888e+001 3.429902e+001 3.094378e+001 4.825273e+001 3.395212e+001 3.389592e+001 2.729452e+001 2.587053e+001 2.370777e+001 2.124418e+001 1.970835e+001 1.770759e+001 1.555122e+002 4.569180e+000 3.856340e+000 3.587193e+000 5.390748e+000 3.902662e+000 4.506105e+000 3.607570e+000 3.906506e+000 3.676760e+000 3.116901e+000 3.034366e+000 2.440472e+000 1.336233e+001 7.950212e-001 7.868795e-001 7.193992e-001 1.285475e+000 8.215992e-001 8.293608e-001 7.141978e-001 7.016191e-001 6.590560e-001 5.684309e-001 5.442950e-001 4.649693e-001 3.748737e+000
<GCONST> 1.324989e+002
<STATE> 4
<MEAN> 39
 -1.345330e+001 -7.609285e+000 -4.546238e+000 -1.046808e+001 -8.598746e+000 -6.567537e+000 -2.972929e+000 -8.882204e-001 -3.538948e+000 -1.824314e+000 -3.275297e+000 -1.328118e+000 5.440199e+001 2.397935e+000 -6.592460e-001 2.288924e-001 -8.090858e-001 -1.157640e+000 -7.138101e-001 -1.035580e+000 -2.231800e-001 -6.257156e-001 -4.813107e-001 -5.455865e-001 -5.029472e-001 1.938348e+000 1.402479e-001 4.687914e-003 -3.084105e-002 1.046845e-001 4.589448e-002 1.669136e-001 -2.339330e-001 6.756458e-002 8.800086e-002 1.227846e-001 1.610755e-001 -3.322449e-002 -2.451758e-001
<VARIANCE> 39
 6.072701e+001 4.057755e+001 6.435506e+001 6.106580e+001 6.260841e+001 6.097001e+001 5.469926e+001 5.378618e+001 4.815595e+001 3.945498e+001 3.713380e+001 2.954666e+001 5.822650e+001 7.631799e+000 3.562514e+000 4.641341e+000 6.044353e+000 5.954025e+000 5.733801e+000 6.226763e+000 4.967529e+000 4.911746e+000 4.217021e+000 4.257590e+000 3.205295e+000 8.697504e+000 8.375360e-001 6.852773e-001 6.415176e-001 8.765252e-001 8.550234e-001 8.521709e-001 9.215192e-001 8.549349e-001 7.467152e-001 7.029923e-001 6.608261e-001 5.456108e-001 1.258569e+000
<GCONST> 1.408976e+002
<TRANSP> 5
 0.000000e+000 1.000000e+000 0.000000e+000 0.000000e+000 0.000000e+000
 0.000000e+000 4.743601e-001 5.256399e-001 0.000000e+000 0.000000e+000
 0.000000e+000 0.000000e+000 6.789213e-001 3.210787e-001 0.000000e+000
 0.000000e+000 0.000000e+000 0.000000e+000 4.833959e-001 5.166042e-001
 0.000000e+000 0.000000e+000 0.000000e+000 0.000000e+000 0.000000e+000
<ENDHMM>
