~o
<STREAMINFO> 1 39
<VECSIZE> 39<NULLD><MFCC_D_A_0><DIAGC>
~h "th"
<BEGINHMM>
<NUMSTATES> 5
<STATE> 2
<MEAN> 39
 -1.808274e+001 3.566719e-001 -6.236816e+000 -4.016039e+000 -2.948788e+000 -3.697555e+000 -1.820548e+000 -1.874314e+000 -1.484211e+000 -1.527665e+000 -2.697527e+000 -9.336673e-001 4.844927e+001 -3.236591e+000 -1.698620e-001 -5.846472e-001 9.504595e-001 7.425802e-001 1.147490e+000 1.334375e+000 9.852606e-001 4.924054e-001 2.971584e-001 7.968621e-001 7.823640e-001 -2.073809e+000 6.497630e-001 -8.071653e-001 -1.791864e-001 -6.961144e-001 -5.671346e-001 -1.806813e-001 -4.978937e-001 1.102910e-003 -9.242555e-002 1.291951e-001 5.639895e-002 -6.525268e-002 7.741486e-001
<VARIANCE> 39
 3.081288e+001 1.823854e+001 2.107161e+001 2.211080e+001 2.130360e+001 2.389542e+001 2.402732e+001 2.309849e+001 2.561838e+001 2.333141e+001 1.952694e+001 1.677116e+001 7.411178e+001 4.698191e+000 3.842000e+000 4.073896e+000 4.759835e+000 4.089707e+000 5.047827e+000 4.808126e+000 3.807223e+000 4.486791e+000 4.072820e+000 4.049572e+000 3.059328e+000 8.116703e+000 6.166486e-001 6.319063e-001 6.291109e-001 7.189575e-001 6.556072e-001 8.235078e-001 7.510202e-001 7.156838e-001 7.082327e-001 6.810328e-001 6.407935e-001 5.016975e-001 1.583754e+000
<GCONST> 1.281259e+002
<STATE> 3
<MEAN> 39
 -2.246154e+001 -3.874393e+000 -9.105184e+000 -5.422562e+000 -4.332606e+000 -2.604827e+000 -1.076324e+000 -1.694412e-001 -4.195056e-001 -4.113354e-001 -7.659282e-001 6.815420e-001 4.868750e+001 2.604156e-001 -4.872927e-001 -7.881229e-002 -3.837445e-001 -2.677655e-001 -2.564161e-001 -2.540885e-002 7.928305e-003 9.299612e-002 -3.046013e-002 -6.366596e-002 3.636327e-002 8.954043e-001 7.518325e-001 5.862466e-002 2.581151e-001 -1.099324e-001 -1.577890e-001 -3.089987e-001 -2.628850e-001 -1.569772e-001 -8.898184e-002 -8.307628e-002 -2.042662e-001 -1.934396e-001 4.015170e-001
<VARIANCE> 39
 1.575627e+001 1.839550e+001 1.488519e+001 1.724293e+001 1.696383e+001 1.665022e+001 1.508067e+001 1.489634e+001 1.506269e+001 1.470617e+001 1.423403e+001 1.243401e+001 7.404967e+001 2.683436e+000 1.808548e+000 2.009460e+000 1.991931e+000 1.922571e+000 2.079558e+000 1.866765e+000 1.859937e+000 1.796280e+000 1.820377e+000 1.849237e+000 1.620236e+000 7.337968e+000 5.332214e-001 3.905059e-001 4.890873e-001 4.800020e-001 4.741461e-001 5.288226e-001 5.346633e-001 4.441046e-001 4.356907e-001 4.483655e-001 4.545211e-001 3.989379e-001 1.274382e+000
<GCONST> 1.097685e+002
<STATE> 4
<MEAN> 39
 -1.466317e+001 -5.081377e+000 -6.560337e+000 -7.350320e+000 -6.984436e+000 -7.077627e+000 -3.610101e+000 -1.472719e+000 -7.492694e-001 -1.211757e+000 -2.861063e+000 -1.053113e+000 5.569464e+001 3.709040e+000 -9.594408e-001 9.431466e-001 -6.893539e-001 -1.588681e+000 -1.617911e+000 -2.267702e+000 -2.026543e-001 -4.616900e-001 -2.291874e-001 -4.541261e-001 -8.201151e-001 1.683194e+000 1.186915e-001 -2.732810e-001 8.541866e-003 -8.234106e-002 -1.625506e-001 1.279929e-001 -3.456593e-001 1.603083e-001 -1.737890e-001 4.490317e-003 1.756505e-001 1.561846e-002 -3.007217e-001
<VARIANCE> 39
 5.316084e+001 2.734435e+001 2.945351e+001 2.755065e+001 3.634958e+001 3.784574e+001 4.162857e+001 2.508779e+001 2.820064e+001 2.539408e+001 2.238878e+001 2.404735e+001 4.082105e+001 4.699775e+000 3.799521e+000 5.342193e+000 5.103518e+000 5.682104e+000 5.794867e+000 6.416892e+000 4.336723e+000 4.460826e+000 3.816024e+000 4.142529e+000 3.410039e+000 7.069883e+000 1.047634e+000 5.625217e-001 7.335111e-001 7.256147e-001 7.748659e-001 8.433439e-001 1.121625e+000 7.257429e-001 6.638967e-001 6.371054e-001 6.428134e-001 5.814039e-001 9.928018e-001
<GCONST> 1.332116e+002
<TRANSP> 5
 0.000000e+000 1.000000e+000 0.000000e+000 0.000000e+000 0.000000e+000
 0.000000e+000 5.490116e-001 4.509884e-001 0.000000e+000 0.000000e+000
 0.000000e+000 0.000000e+000 8.010319e-001 1.989681e-001 0.000000e+000
 0.000000e+000 0.000000e+000 0.000000e+000 5.894536e-001 4.105464e-001
 0.000000e+000 0.000000e+000 0.000000e+000 0.000000e+000 0.000000e+000
<ENDHMM>
