~o
<STREAMINFO> 1 39
<VECSIZE> 39<NULLD><MFCC_D_A_0><DIAGC>
~h "ua"
<BEGINHMM>
<NUMSTATES> 5
<STATE> 2
<MEAN> 39
 -2.533587e+000 -1.063745e+001 -1.137228e+000 -7.190918e+000 -1.342243e+001 -7.585736e+000 -2.004885e+001 -3.896609e+000 -5.365427e+000 -2.166806e+000 1.783206e+000 -4.292788e+000 6.091623e+001 1.296659e+000 2.824606e-001 -1.882604e+000 -1.745725e+000 3.569917e-001 1.613979e+000 -1.036381e+000 -1.727235e+000 -2.925206e-001 2.291801e+000 1.068147e+000 -9.049382e-001 1.888054e-001 -5.720707e-001 2.647779e-001 6.052457e-002 -4.186315e-001 -2.286181e-002 4.580247e-001 1.009146e+000 -4.923940e-002 -1.715506e-001 1.418383e-003 1.622572e-001 2.952865e-001 -1.300401e-001
<VARIANCE> 39
 1.323428e+001 1.959989e+001 3.948190e+001 4.791068e+001 3.935613e+001 6.507718e+001 4.251680e+001 9.016211e+001 5.188553e+001 6.852502e+001 6.529787e+001 3.794606e+001 2.465253e+001 1.677897e+000 1.996366e+000 2.227247e+000 1.831957e+000 5.529527e+000 3.323015e+000 6.480690e+000 5.460805e+000 5.533677e+000 3.083689e+000 3.013283e+000 2.275001e+000 8.499948e-001 4.467336e-001 3.484580e-001 3.932242e-001 4.534369e-001 8.116737e-001 7.759401e-001 6.360848e-001 1.364766e+000 1.091235e+000 8.699811e-001 6.333061e-001 5.059676e-001 1.318147e-001
<GCONST> 1.263641e+002
<STATE> 3
<MEAN> 39
 -3.467664e-001 -8.178477e+000 -8.009434e+000 -1.817924e+001 -1.229782e+001 9.863809e-001 -1.509298e+001 -6.510791e+000 -6.796995e+000 3.927363e+000 5.173514e+000 -3.779241e+000 6.049014e+001 9.522946e-003 3.381658e-002 -3.391995e-001 -1.096972e+000 2.732823e-001 4.523027e-001 7.265334e-001 9.735873e-002 4.525059e-001 3.517282e-001 -2.613925e-001 5.559148e-002 1.069195e-001 -1.176622e-001 9.715166e-003 2.106570e-001 3.108634e-001 7.791805e-002 -3.127843e-001 -2.938554e-002 1.590053e-001 8.539766e-002 -2.850527e-001 -2.347189e-001 1.874798e-002 -6.072325e-002
<VARIANCE> 39
 8.523257e+000 2.533922e+001 3.458517e+001 6.092026e+001 3.637704e+001 7.294898e+001 4.822574e+001 5.073144e+001 4.550217e+001 5.357013e+001 6.975842e+001 4.843424e+001 3.194072e+001 3.013392e-001 1.045753e+000 7.505586e-001 2.039674e+000 1.405663e+000 1.909497e+000 1.653546e+000 1.695610e+000 3.256055e+000 2.284427e+000 1.731265e+000 1.940326e+000 3.600400e-001 5.000000e-002 1.908461e-001 1.248832e-001 2.217075e-001 3.101748e-001 2.839755e-001 3.201985e-001 4.041750e-001 6.378492e-001 4.356303e-001 2.351030e-001 3.346508e-001 7.543036e-002
<GCONST> 1.041450e+002
<STATE> 4
<MEAN> 39
 -2.192318e+000 -8.856313e+000 -7.508296e+000 -1.567687e+001 -8.975928e+000 -5.782403e+000 -1.135880e+001 -4.628663e+000 -2.586296e+000 4.006874e+000 -1.732938e+000 -3.423301e+000 6.048308e+001 -1.033282e+000 1.603906e+000 6.677207e-001 1.595556e+000 8.632162e-001 -2.693899e-001 1.127864e+000 6.349040e-002 -5.345511e-001 -1.802278e+000 -5.834283e-001 3.871207e-001 -1.763260e+000 -4.578198e-001 4.730712e-001 1.183077e-001 5.167567e-001 1.257322e-001 3.469084e-001 3.272256e-001 -1.530035e-001 -3.726310e-001 -2.748617e-001 1.508832e-001 2.173739e-002 -6.859044e-001
<VARIANCE> 39
 1.794364e+001 3.546617e+001 3.280161e+001 9.189091e+001 4.070837e+001 1.114706e+002 5.622636e+001 5.639436e+001 5.515927e+001 6.814950e+001 9.096896e+001 4.588394e+001 3.516000e+001 1.853061e+000 3.084185e+000 2.661433e+000 4.164050e+000 2.483580e+000 4.174759e+000 4.739413e+000 5.772432e+000 4.551877e+000 3.880665e+000 3.938441e+000 3.740289e+000 4.587247e+000 3.123277e-001 4.072914e-001 3.570959e-001 6.014989e-001 4.118837e-001 7.061856e-001 5.836571e-001 8.199173e-001 7.018241e-001 8.829963e-001 6.802843e-001 5.989960e-001 5.832018e-001
<GCONST> 1.321482e+002
<TRANSP> 5
 0.000000e+000 1.000000e+000 0.000000e+000 0.000000e+000 0.000000e+000
 0.000000e+000 7.142771e-001 2.857229e-001 0.000000e+000 0.000000e+000
 0.000000e+000 0.000000e+000 8.612136e-001 1.387865e-001 0.000000e+000
 0.000000e+000 0.000000e+000 0.000000e+000 6.470768e-001 3.529231e-001
 0.000000e+000 0.000000e+000 0.000000e+000 0.000000e+000 0.000000e+000
<ENDHMM>
