~o
<STREAMINFO> 1 39
<VECSIZE> 39<NULLD><MFCC_D_A_0><DIAGC>
~h "uh"
<BEGINHMM>
<NUMSTATES> 5
<STATE> 2
<MEAN> 39
 -2.427506e+000 -9.683491e+000 -4.919097e+000 -1.487755e+001 -1.234154e+001 -8.220726e+000 -1.339198e+001 -3.833532e+000 -4.516735e+000 1.024298e+000 -1.044728e+000 -2.713068e+000 6.210365e+001 1.452345e+000 -1.383937e+000 3.720228e-002 -1.107347e+000 -1.034864e+000 -4.828710e-001 -1.398018e+000 4.902548e-001 5.440320e-001 5.613011e-001 -2.951971e-002 -4.548945e-001 1.173679e+000 -8.510712e-001 2.149264e-001 -1.257364e-002 4.155747e-001 5.105477e-001 2.492789e-001 6.371468e-001 1.660268e-001 7.043015e-002 -1.329832e-001 -6.395696e-002 1.426040e-001 -5.878097e-001
<VARIANCE> 39
 1.320554e+001 2.724385e+001 5.526028e+001 7.996339e+001 5.409570e+001 1.098493e+002 6.885886e+001 7.270500e+001 6.264455e+001 6.684255e+001 8.706602e+001 3.786964e+001 1.792051e+001 3.298223e+000 2.171017e+000 3.293570e+000 5.673398e+000 5.244914e+000 5.415677e+000 5.005178e+000 5.396760e+000 4.611657e+000 4.739591e+000 4.648810e+000 2.814161e+000 1.295478e+000 5.452359e-001 4.965335e-001 4.872783e-001 7.523081e-001 7.351579e-001 9.528960e-001 7.932276e-001 9.600278e-001 9.058171e-001 9.517599e-001 9.266288e-001 5.025164e-001 3.392376e-001
<GCONST> 1.350128e+002
<STATE> 3
<MEAN> 39
 -2.581790e+000 -1.140087e+001 -5.046154e+000 -1.621915e+001 -1.218059e+001 -8.718550e+000 -1.294851e+001 -1.447060e+000 -2.756131e+000 2.178433e+000 -1.717793e+000 -3.357887e+000 6.307428e+001 -1.070133e-001 -8.154075e-002 2.448293e-001 3.249201e-001 1.418528e-002 -2.827259e-001 4.990421e-002 1.938797e-001 9.047686e-002 -2.310462e-001 -2.695811e-001 7.092162e-002 -2.912196e-001 -2.990208e-001 5.084891e-001 6.707255e-002 4.838367e-001 3.061120e-001 1.249079e-001 2.723185e-001 -2.406966e-001 -2.339560e-001 -2.368416e-001 -9.470753e-002 8.818721e-002 -6.644616e-001
<VARIANCE> 39
 1.234662e+001 2.508916e+001 4.837637e+001 7.938251e+001 5.399737e+001 1.125261e+002 7.324450e+001 6.998656e+001 6.162182e+001 5.734466e+001 9.532519e+001 4.466648e+001 1.816186e+001 4.253705e-001 9.290751e-001 1.776226e+000 2.140397e+000 1.958538e+000 2.663023e+000 2.397574e+000 2.678274e+000 2.691586e+000 2.585232e+000 2.470092e+000 1.808414e+000 7.903472e-001 2.598359e-001 3.500726e-001 2.566655e-001 4.807233e-001 5.384201e-001 6.352730e-001 7.099704e-001 6.400027e-001 5.364466e-001 5.050354e-001 5.398300e-001 3.883539e-001 4.103599e-001
<GCONST> 1.193559e+002
<STATE> 4
<MEAN> 39
 -3.821477e+000 -9.031214e+000 -3.089920e+000 -1.093743e+001 -1.106987e+001 -1.036815e+001 -1.373212e+001 -2.867144e+000 -4.238013e+000 -2.290624e-001 -2.998068e+000 -2.474149e+000 5.806905e+001 -1.398577e+000 2.336839e+000 1.982090e-001 2.669889e+000 1.704557e+000 5.903597e-001 1.147487e+000 -7.898366e-001 -1.638442e-001 -9.626467e-001 -7.158018e-001 -3.436229e-002 -3.880284e+000 -6.227130e-001 4.060028e-001 -1.635882e-001 2.024013e-001 4.229517e-001 4.949188e-001 5.483593e-001 -2.194249e-002 5.221419e-002 7.771721e-003 8.285336e-002 -7.522848e-002 -5.999389e-001
<VARIANCE> 39
 1.517020e+001 3.414225e+001 5.417149e+001 8.197485e+001 6.329485e+001 8.249222e+001 6.803107e+001 5.541685e+001 6.109821e+001 5.748406e+001 7.650898e+001 4.363819e+001 4.503373e+001 3.242709e+000 3.448805e+000 3.129305e+000 5.405656e+000 4.855897e+000 6.138960e+000 6.240270e+000 5.500525e+000 4.566356e+000 5.014802e+000 6.050669e+000 3.757508e+000 6.015349e+000 4.142121e-001 7.692489e-001 5.034909e-001 9.981174e-001 8.396500e-001 9.055808e-001 9.252214e-001 9.115846e-001 9.291632e-001 7.971463e-001 8.827276e-001 6.527755e-001 9.337550e-001
<GCONST> 1.402325e+002
<TRANSP> 5
 0.000000e+000 1.000000e+000 0.000000e+000 0.000000e+000 0.000000e+000
 0.000000e+000 3.869756e-001 6.130243e-001 0.000000e+000 0.000000e+000
 0.000000e+000 0.000000e+000 6.778231e-001 3.221770e-001 0.000000e+000
 0.000000e+000 0.000000e+000 0.000000e+000 5.426099e-001 4.573901e-001
 0.000000e+000 0.000000e+000 0.000000e+000 0.000000e+000 0.000000e+000
<ENDHMM>
