~o
<STREAMINFO> 1 39
<VECSIZE> 39<NULLD><MFCC_D_A_0><DIAGC>
~h "uw"
<BEGINHMM>
<NUMSTATES> 5
<STATE> 2
<MEAN> 39
 -5.493459e+000 -9.765787e+000 4.304118e+000 -8.533025e+000 -1.591300e+001 -1.269378e+001 -1.449069e+001 -1.181700e+000 -8.990128e+000 -4.545938e+000 -1.349185e+000 -2.430587e+000 6.122244e+001 1.942837e+000 -1.346767e+000 5.463492e-001 -3.341456e-001 -1.461992e+000 -2.249465e-001 -1.945855e+000 2.232957e-001 -5.039651e-001 -3.789354e-002 5.705765e-001 -3.634698e-001 6.756991e-001 -9.412159e-001 4.207042e-001 -5.599791e-001 -3.049377e-002 7.457693e-001 5.243325e-001 7.095476e-001 -6.259617e-003 2.708297e-001 3.162098e-001 3.038238e-002 6.274652e-002 -3.681452e-001
<VARIANCE> 39
 1.573905e+001 2.701375e+001 5.483081e+001 6.398658e+001 4.502122e+001 6.401733e+001 6.713526e+001 6.580392e+001 6.719597e+001 6.078403e+001 5.784015e+001 3.509806e+001 1.813789e+001 4.146697e+000 2.733103e+000 4.492125e+000 3.660459e+000 5.998503e+000 4.467018e+000 5.568615e+000 4.804144e+000 4.502270e+000 5.229862e+000 3.972553e+000 2.801610e+000 1.249561e+000 4.892471e-001 3.923316e-001 4.391342e-001 6.130601e-001 6.202970e-001 7.024375e-001 6.983794e-001 9.179505e-001 7.138572e-001 6.395454e-001 6.147361e-001 4.533238e-001 1.967362e-001
<GCONST> 1.307491e+002
<STATE> 3
<MEAN> 39
 -3.866323e+000 -9.714701e+000 2.206674e+000 -9.045693e+000 -1.483643e+001 -1.103605e+001 -1.551255e+001 -1.705164e+000 -9.168347e+000 -2.840978e+000 -5.554579e-001 -3.364125e+000 6.010459e+001 1.499042e-001 1.979390e-001 -2.514393e-001 1.014022e-001 3.146672e-001 2.371666e-001 -7.013747e-002 -2.697185e-001 -1.030034e-001 1.202064e-001 -8.336823e-002 -1.324627e-001 -4.116487e-001 -1.411557e-001 1.482145e-001 -3.242618e-002 6.367216e-002 1.256644e-001 4.355518e-002 2.145069e-001 -1.203742e-001 7.339486e-002 -1.796369e-002 -1.037886e-001 3.332424e-002 -1.601552e-001
<VARIANCE> 39
 1.346703e+001 2.648543e+001 5.670297e+001 6.759391e+001 4.526556e+001 8.158536e+001 7.669614e+001 7.133004e+001 7.015519e+001 7.537395e+001 7.441673e+001 4.301393e+001 2.027722e+001 3.085370e-001 5.551457e-001 1.231695e+000 1.152839e+000 1.500209e+000 1.663874e+000 1.746397e+000 1.777659e+000 1.862992e+000 1.764533e+000 1.520982e+000 1.280776e+000 2.939574e-001 1.129346e-001 1.617658e-001 1.929006e-001 2.252933e-001 3.422450e-001 3.317096e-001 4.096153e-001 3.703675e-001 3.652797e-001 3.497923e-001 3.151651e-001 2.475671e-001 1.001420e-001
<GCONST> 1.054376e+002
<STATE> 4
<MEAN> 39
 -4.141832e+000 -7.661165e+000 1.258673e+000 -7.114678e+000 -1.321904e+001 -9.809690e+000 -1.472185e+001 -4.401583e+000 -9.411079e+000 -3.364701e+000 -1.771598e+000 -3.282737e+000 5.635212e+001 -1.014000e+000 1.319241e+000 -7.485357e-001 7.396885e-001 1.214703e+000 5.478340e-001 1.603950e+000 -7.602249e-001 7.867720e-001 1.169016e-001 -5.856001e-001 1.084967e-001 -1.874780e+000 -5.634392e-001 2.316906e-001 -1.170949e-001 8.263013e-002 3.231579e-001 2.026171e-001 5.098684e-001 1.790103e-001 1.522795e-001 4.686307e-002 -2.344667e-002 4.188171e-002 -3.136972e-001
<VARIANCE> 39
 1.789258e+001 3.266745e+001 6.887337e+001 7.139057e+001 5.475124e+001 7.653931e+001 6.387950e+001 6.536461e+001 6.199192e+001 7.028957e+001 6.926281e+001 4.269638e+001 2.945670e+001 2.538229e+000 3.189842e+000 3.079860e+000 4.476868e+000 5.377984e+000 5.820901e+000 5.862433e+000 5.726276e+000 5.378757e+000 5.495786e+000 4.878343e+000 3.344968e+000 4.196042e+000 3.188039e-001 4.925115e-001 5.141278e-001 6.409552e-001 7.996795e-001 8.877083e-001 8.409672e-001 8.410957e-001 8.302218e-001 7.948841e-001 7.157676e-001 5.426371e-001 5.216867e-001
<GCONST> 1.366036e+002
<TRANSP> 5
 0.000000e+000 1.000000e+000 0.000000e+000 0.000000e+000 0.000000e+000
 0.000000e+000 5.248132e-001 4.751869e-001 0.000000e+000 0.000000e+000
 0.000000e+000 0.000000e+000 8.162634e-001 1.837366e-001 0.000000e+000
 0.000000e+000 0.000000e+000 0.000000e+000 6.275415e-001 3.724585e-001
 0.000000e+000 0.000000e+000 0.000000e+000 0.000000e+000 0.000000e+000
<ENDHMM>
