~o
<STREAMINFO> 1 39
<VECSIZE> 39<NULLD><MFCC_D_A_0><DIAGC>
~h "v"
<BEGINHMM>
<NUMSTATES> 5
<STATE> 2
<MEAN> 39
 -5.535983e+000 -3.296288e+000 -7.340805e+000 -7.144202e+000 -5.659890e+000 -6.391537e+000 -1.014506e+001 -6.855121e+000 -4.979054e+000 -1.376509e+000 -1.595466e+000 -3.058830e+000 5.241757e+001 -2.312335e+000 1.836574e+000 4.109338e-001 1.330682e+000 1.260389e+000 8.443678e-001 1.124025e+000 -4.797622e-001 -5.091463e-001 -6.642694e-001 -4.197909e-001 1.741818e-001 -1.811019e+000 -1.723709e-001 -5.974542e-001 2.002391e-001 -2.739765e-001 -3.532090e-001 -8.288684e-002 1.385179e-001 6.051860e-001 2.515747e-001 4.071088e-002 -1.390926e-001 -5.183128e-003 5.788879e-001
<VARIANCE> 39
 2.702786e+001 1.928902e+001 2.814927e+001 2.844711e+001 1.971920e+001 3.488337e+001 2.988304e+001 2.838701e+001 2.947276e+001 2.914357e+001 3.242828e+001 2.484579e+001 2.802363e+001 3.181859e+000 2.358659e+000 3.032831e+000 3.462555e+000 2.816501e+000 3.792867e+000 4.136590e+000 4.296402e+000 3.413626e+000 3.229609e+000 3.093872e+000 2.305712e+000 2.098863e+000 4.458939e-001 3.984471e-001 4.146743e-001 4.384209e-001 4.789096e-001 4.816693e-001 6.380553e-001 6.049538e-001 5.693161e-001 5.247914e-001 4.925755e-001 4.272807e-001 3.596287e-001
<GCONST> 1.197556e+002
<STATE> 3
<MEAN> 39
 -1.373549e+001 -2.095642e+000 -5.228889e+000 -4.195808e+000 -3.572352e+000 -4.189983e+000 -5.667372e+000 -4.406980e+000 -4.849967e+000 -2.972635e+000 -3.499963e+000 -2.440979e+000 4.985278e+001 -9.153624e-001 -4.783685e-001 -1.450992e-001 -1.368144e-001 -4.588745e-002 -3.095303e-002 5.341288e-001 6.404104e-001 4.739006e-001 1.136503e-001 6.741505e-002 2.000303e-001 4.843338e-001 1.118783e+000 -6.714323e-001 -2.519597e-001 -7.336825e-001 -6.175298e-001 -4.440711e-001 -4.652992e-001 1.790890e-001 1.537833e-001 2.648644e-001 1.956361e-001 -1.063975e-002 8.142207e-001
<VARIANCE> 39
 4.848235e+001 2.181346e+001 2.504147e+001 2.570085e+001 1.959189e+001 2.597746e+001 2.998402e+001 2.708850e+001 2.558331e+001 2.285077e+001 2.232678e+001 1.847311e+001 3.672228e+001 5.896727e+000 2.113095e+000 2.254253e+000 2.951147e+000 2.472023e+000 2.956116e+000 3.057832e+000 2.639833e+000 2.400780e+000 2.240638e+000 2.217198e+000 1.768918e+000 3.031307e+000 7.128717e-001 6.635380e-001 6.878219e-001 7.143660e-001 6.095713e-001 7.527180e-001 8.616745e-001 8.604274e-001 7.467789e-001 6.323122e-001 5.731184e-001 4.516553e-001 5.947102e-001
<GCONST> 1.215306e+002
<STATE> 4
<MEAN> 39
 -9.568167e+000 -4.849599e+000 -7.361356e+000 -7.765447e+000 -6.396546e+000 -6.742393e+000 -7.235517e+000 -3.827474e+000 -3.397625e+000 -1.730965e+000 -2.130756e+000 -2.083538e+000 5.439379e+001 1.923378e+000 -1.385133e+000 -3.461711e-001 -1.484658e+000 -1.160174e+000 -8.404080e-001 -6.898821e-001 7.187189e-001 3.947076e-001 4.248135e-001 2.638968e-001 2.134332e-002 1.576219e+000 3.541256e-001 -2.267494e-001 1.497200e-001 -1.693332e-001 -1.543562e-001 5.354208e-002 -1.776907e-001 1.602054e-001 -5.355845e-002 1.821392e-002 -2.673697e-002 -6.988430e-002 3.462208e-002
<VARIANCE> 39
 6.223801e+001 2.440396e+001 3.596286e+001 3.351418e+001 2.656660e+001 3.696038e+001 3.902495e+001 3.130294e+001 2.941637e+001 2.581651e+001 2.501082e+001 2.089937e+001 3.231879e+001 7.145778e+000 3.970459e+000 4.285995e+000 5.213578e+000 4.506052e+000 5.168546e+000 5.879826e+000 4.768868e+000 4.257943e+000 3.444833e+000 3.103272e+000 2.661342e+000 5.826055e+000 7.299364e-001 5.253070e-001 4.368189e-001 5.659018e-001 5.560050e-001 6.351789e-001 7.487090e-001 6.804938e-001 5.948326e-001 5.211363e-001 4.662166e-001 3.944769e-001 5.296738e-001
<GCONST> 1.283837e+002
<TRANSP> 5
 0.000000e+000 1.000000e+000 0.000000e+000 0.000000e+000 0.000000e+000
 0.000000e+000 4.886133e-001 5.113866e-001 0.000000e+000 0.000000e+000
 0.000000e+000 0.000000e+000 5.452152e-001 4.547848e-001 0.000000e+000
 0.000000e+000 0.000000e+000 0.000000e+000 3.572739e-001 6.427261e-001
 0.000000e+000 0.000000e+000 0.000000e+000 0.000000e+000 0.000000e+000
<ENDHMM>
