~o
<STREAMINFO> 1 39
<VECSIZE> 39<NULLD><MFCC_D_A_0><DIAGC>
~h "w"
<BEGINHMM>
<NUMSTATES> 5
<STATE> 2
<MEAN> 39
 5.995567e-001 -5.380099e-001 -8.914671e+000 -1.553119e+001 -1.088639e+001 -2.479738e+000 -7.575069e+000 -6.071085e+000 -1.180521e+001 -3.385578e+000 -1.049452e+000 -2.115685e+000 5.117447e+001 1.568461e+000 1.155732e+000 -5.271837e-001 -2.285290e+000 -1.636816e+000 7.245181e-001 8.374417e-001 3.215925e-002 -5.678952e-001 -6.506890e-001 -6.453235e-002 1.511621e-001 2.680130e-001 -5.390901e-001 -6.218822e-001 2.833769e-001 2.087628e-001 -1.055261e-001 -2.917554e-001 -5.984093e-002 4.899993e-001 5.528050e-001 2.233396e-001 -8.342497e-002 -8.572675e-002 3.406710e-001
<VARIANCE> 39
 1.239371e+001 2.851374e+001 2.686621e+001 5.196041e+001 4.450917e+001 4.258021e+001 5.000469e+001 4.542444e+001 5.192814e+001 4.427179e+001 5.100846e+001 2.843923e+001 2.677413e+001 3.170809e+000 3.511797e+000 3.748785e+000 4.829737e+000 4.508902e+000 5.348249e+000 7.083813e+000 5.115499e+000 5.190934e+000 4.578478e+000 4.193732e+000 3.071295e+000 5.416759e+000 4.519280e-001 5.095094e-001 6.105211e-001 6.977303e-001 1.213344e+000 8.680741e-001 1.056637e+000 8.214766e-001 8.350378e-001 8.720139e-001 6.646283e-001 5.370881e-001 2.526706e-001
<GCONST> 1.327269e+002
<STATE> 3
<MEAN> 39
 2.558888e+000 2.532767e-001 -9.036024e+000 -2.236658e+001 -1.762697e+001 -6.719280e-001 -4.212205e+000 -1.998326e+000 -7.902475e+000 -4.430676e+000 -1.292702e+000 -2.164409e+000 5.313760e+001 1.922775e-001 -1.056763e+000 -4.327909e-001 -1.091237e+000 -1.238781e-001 8.434477e-001 6.310803e-002 9.647475e-002 3.145739e-001 4.614830e-001 5.406355e-001 2.092692e-001 1.183728e+000 -2.907841e-001 -4.870190e-001 -1.021103e-001 4.126951e-001 5.983912e-001 6.249447e-002 -1.955607e-001 -1.519304e-001 6.331560e-002 2.615849e-001 1.712143e-001 -2.183744e-003 1.683854e-001
<VARIANCE> 39
 6.687426e+000 2.854931e+001 3.235981e+001 5.236446e+001 5.067697e+001 5.122756e+001 4.449379e+001 4.560409e+001 5.589682e+001 4.324149e+001 4.157249e+001 2.974075e+001 1.978037e+001 5.106055e-001 2.160890e+000 1.553123e+000 2.444847e+000 3.452782e+000 3.261188e+000 3.252003e+000 2.794336e+000 3.195329e+000 3.016665e+000 2.830068e+000 2.212127e+000 1.500056e+000 2.601225e-001 2.326954e-001 2.632457e-001 5.310316e-001 4.763972e-001 5.546490e-001 5.918306e-001 5.419884e-001 6.609742e-001 5.612224e-001 4.971176e-001 4.466003e-001 1.900759e-001
<GCONST> 1.169054e+002
<STATE> 4
<MEAN> 39
 1.454019e+000 -8.477988e+000 -1.171058e+001 -2.081689e+001 -1.067200e+001 1.635448e+000 -9.157189e+000 -4.858097e+000 -7.962696e+000 1.727933e+000 2.309106e+000 -2.281956e+000 5.952046e+001 -6.307786e-001 -2.134197e+000 1.686216e-001 1.375167e+000 1.168959e+000 -1.126150e+000 -1.451556e+000 4.934447e-001 1.663379e+000 1.210724e+000 -2.936077e-001 -9.993195e-001 1.556029e+000 -3.095626e-001 2.823195e-001 3.985530e-001 5.248316e-001 -2.053802e-001 -6.547077e-001 2.832977e-001 4.862239e-001 3.087782e-001 -4.923621e-001 -5.961926e-001 -1.231609e-001 -3.466524e-001
<VARIANCE> 39
 8.806248e+000 2.859656e+001 4.443434e+001 7.608541e+001 6.039473e+001 8.268470e+001 9.049256e+001 6.110293e+001 6.852881e+001 8.266682e+001 8.226913e+001 4.430981e+001 1.847352e+001 4.984425e-001 1.460471e+000 2.716512e+000 3.063212e+000 3.693367e+000 5.942460e+000 4.928215e+000 5.259244e+000 4.039854e+000 4.621675e+000 4.688685e+000 3.143054e+000 8.057562e-001 2.110060e-001 2.801009e-001 3.348838e-001 5.609804e-001 7.133786e-001 7.462326e-001 1.035458e+000 7.572799e-001 9.511214e-001 1.027530e+000 7.539879e-001 7.500395e-001 1.687513e-001
<GCONST> 1.280250e+002
<TRANSP> 5
 0.000000e+000 1.000000e+000 0.000000e+000 0.000000e+000 0.000000e+000
 0.000000e+000 5.438645e-001 4.561355e-001 0.000000e+000 0.000000e+000
 0.000000e+000 0.000000e+000 7.361076e-001 2.638924e-001 0.000000e+000
 0.000000e+000 0.000000e+000 0.000000e+000 5.446289e-001 4.553711e-001
 0.000000e+000 0.000000e+000 0.000000e+000 0.000000e+000 0.000000e+000
<ENDHMM>
