~o
<STREAMINFO> 1 39
<VECSIZE> 39<NULLD><MFCC_D_A_0><DIAGC>
~h "y"
<BEGINHMM>
<NUMSTATES> 5
<STATE> 2
<MEAN> 39
 -9.539040e+000 -3.608963e+000 1.143839e+001 -1.163911e+001 -1.561491e+001 -7.906139e+000 -1.058526e+001 -4.150184e+000 -1.178904e+001 -4.288955e+000 -2.979244e+000 -2.569008e+000 5.564070e+001 -6.126921e-002 4.026299e-001 2.127560e+000 -3.206809e-001 -1.253104e+000 4.012153e-001 -2.492649e-001 -3.826917e-001 -1.349419e+000 -4.977826e-001 3.106369e-001 -1.464657e-001 9.373778e-002 8.885609e-002 -2.287893e-001 -7.976246e-001 -6.253430e-002 3.741758e-001 1.008826e-001 5.092627e-002 9.883510e-002 4.413849e-001 2.846321e-001 4.240519e-002 -2.772759e-002 5.266800e-002
<VARIANCE> 39
 1.884835e+001 4.499568e+001 4.402062e+001 7.299586e+001 4.856992e+001 5.772917e+001 4.213278e+001 6.559218e+001 4.520565e+001 5.291990e+001 5.742905e+001 3.169357e+001 3.094560e+001 3.609830e+000 3.605477e+000 4.995913e+000 3.463445e+000 6.041043e+000 5.154443e+000 4.608352e+000 4.596757e+000 5.202604e+000 4.513449e+000 3.006007e+000 2.367793e+000 3.212218e+000 3.650303e-001 3.769257e-001 4.910143e-001 8.140497e-001 9.231096e-001 1.159463e+000 7.386758e-001 9.271475e-001 7.403487e-001 6.771387e-001 5.197496e-001 4.797800e-001 2.732274e-001
<GCONST> 1.326837e+002
<STATE> 3
<MEAN> 39
 -9.206738e+000 -4.094658e+000 1.397184e+001 -1.273128e+001 -1.885489e+001 -7.082087e+000 -1.062836e+001 -5.785556e+000 -1.267116e+001 -3.234250e+000 -2.121600e+000 -2.371105e+000 5.722243e+001 3.773901e-001 -6.770816e-001 -3.680179e-001 3.189780e-001 -5.993635e-001 -6.532385e-001 3.286436e-001 2.860067e-001 -6.838802e-002 2.348811e-001 4.089253e-001 1.166262e-001 4.589356e-001 8.027704e-002 -1.233163e-001 -3.302586e-001 1.532634e-001 1.220152e-001 -2.408654e-001 5.016779e-002 2.093070e-001 1.037206e-001 -9.112181e-003 6.035908e-002 4.494498e-002 2.241179e-003
<VARIANCE> 39
 1.117712e+001 3.698437e+001 3.606524e+001 8.099397e+001 4.042194e+001 4.396806e+001 4.493504e+001 5.847993e+001 4.221464e+001 6.195643e+001 5.618610e+001 2.984361e+001 2.001189e+001 5.081674e-001 9.144851e-001 1.030439e+000 1.102740e+000 1.352397e+000 1.948110e+000 1.737471e+000 1.794593e+000 1.446528e+000 1.322883e+000 1.192658e+000 1.025983e+000 4.912075e-001 8.041170e-002 1.218259e-001 2.120989e-001 1.764756e-001 3.484374e-001 2.606321e-001 2.749021e-001 2.753930e-001 2.923516e-001 2.564857e-001 2.109844e-001 1.866325e-001 8.412338e-002
<GCONST> 9.974409e+001
<STATE> 4
<MEAN> 39
 -4.797120e+000 -1.141946e+001 6.783616e+000 -7.132748e+000 -2.009615e+001 -1.596153e+001 -8.026032e+000 2.454285e+000 -1.180013e+001 -4.096359e+000 2.733192e+000 -4.211677e-001 6.008858e+001 8.938414e-001 -8.670746e-001 -2.234874e+000 8.511485e-001 1.031828e+000 -1.497442e+000 -6.404599e-001 1.864783e+000 1.096623e+000 -5.434773e-001 6.486291e-002 5.885021e-001 1.601649e-001 -2.771036e-002 2.126054e-001 -2.647920e-001 -1.448923e-001 4.956002e-001 3.669424e-001 -3.428925e-001 -1.811333e-001 4.254816e-001 -3.374614e-003 -3.658595e-001 -5.234338e-002 -1.760419e-001
<VARIANCE> 39
 1.215279e+001 2.647711e+001 4.872205e+001 6.105460e+001 3.728982e+001 5.922525e+001 6.871223e+001 6.454535e+001 5.844650e+001 7.024668e+001 4.431718e+001 3.335920e+001 1.803131e+001 4.883924e-001 8.889567e-001 1.507322e+000 1.490168e+000 1.788889e+000 2.363773e+000 2.992909e+000 2.418117e+000 2.860049e+000 2.079977e+000 2.053045e+000 1.618367e+000 4.894415e-001 8.468901e-002 1.287746e-001 2.595925e-001 2.470043e-001 3.461573e-001 4.210548e-001 4.011321e-001 4.622110e-001 3.944818e-001 4.297998e-001 2.860740e-001 2.924828e-001 6.599007e-002
<GCONST> 1.078724e+002
<TRANSP> 5
 0.000000e+000 1.000000e+000 0.000000e+000 0.000000e+000 0.000000e+000
 0.000000e+000 6.922637e-001 3.077363e-001 0.000000e+000 0.000000e+000
 0.000000e+000 0.000000e+000 8.214367e-001 1.785633e-001 0.000000e+000
 0.000000e+000 0.000000e+000 0.000000e+000 6.911062e-001 3.088938e-001
 0.000000e+000 0.000000e+000 0.000000e+000 0.000000e+000 0.000000e+000
<ENDHMM>
