~o
<STREAMINFO> 1 39
<VECSIZE> 39<NULLD><MFCC_D_A_0><DIAGC>
~h "z"
<BEGINHMM>
<NUMSTATES> 5
<STATE> 2
<MEAN> 39
 -2.025000e+001 5.014821e+000 -3.207275e+000 -8.133022e+000 -2.007578e+000 -1.041876e+001 -6.808581e+000 -3.434572e+000 -3.748493e+000 -2.756253e+000 -4.036169e+000 -1.028683e+000 5.681190e+001 -4.341303e+000 1.253208e+000 -8.168452e-001 3.479873e-001 2.198662e+000 1.517261e+000 1.758678e+000 1.203855e+000 5.931576e-001 2.187217e-001 5.884639e-001 3.465844e-001 -2.874429e-001 5.748070e-001 -9.572735e-001 -4.821047e-002 -1.272295e-001 -5.201067e-001 2.282639e-001 4.692919e-003 2.608134e-001 1.934719e-002 1.868243e-001 8.818093e-002 -1.678951e-002 7.167157e-002
<VARIANCE> 39
 4.284829e+001 2.526588e+001 4.449379e+001 4.081072e+001 4.827968e+001 5.144474e+001 4.743847e+001 3.766595e+001 3.099911e+001 3.210517e+001 2.200840e+001 2.065582e+001 1.985899e+001 3.229172e+000 4.534812e+000 3.170166e+000 4.477886e+000 3.441299e+000 4.827093e+000 3.822569e+000 3.840970e+000 3.597830e+000 3.255462e+000 2.881436e+000 2.745874e+000 1.291703e+000 9.313774e-001 5.312312e-001 5.346521e-001 6.847944e-001 7.043604e-001 9.094650e-001 7.741582e-001 7.649114e-001 5.868299e-001 6.060719e-001 5.088647e-001 4.971790e-001 2.038673e-001
<GCONST> 1.264279e+002
<STATE> 3
<MEAN> 39
 -2.892893e+001 1.835190e+000 -7.704101e+000 -8.406878e+000 4.038980e-001 -5.464088e+000 -1.205561e+000 1.303818e+000 -1.418067e+000 -6.777126e-001 -1.683282e+000 2.348632e-001 5.607998e+001 1.106550e-001 -7.650174e-001 -1.885442e-001 -2.733373e-001 -2.407368e-001 -8.042524e-003 4.809260e-002 2.286373e-001 2.171982e-001 1.665135e-001 1.114260e-001 3.248571e-002 6.845786e-002 1.171446e+000 -2.289479e-001 3.129602e-001 -3.318977e-002 -4.443065e-001 -3.900170e-001 -5.077765e-001 -3.739670e-001 -1.456083e-001 -9.627847e-002 -1.803107e-001 -1.375232e-001 -1.439094e-001
<VARIANCE> 39
 1.390979e+001 2.596620e+001 4.171363e+001 4.086491e+001 3.713594e+001 3.472095e+001 3.811113e+001 2.930671e+001 2.131794e+001 1.967081e+001 1.817364e+001 1.464475e+001 1.701359e+001 3.157130e+000 1.588527e+000 1.937630e+000 1.698419e+000 2.026074e+000 2.778841e+000 2.439615e+000 2.218263e+000 2.041909e+000 1.868755e+000 1.684673e+000 1.462485e+000 1.089219e+000 6.796077e-001 3.799678e-001 3.944823e-001 4.914639e-001 5.314658e-001 6.506727e-001 6.016929e-001 5.290105e-001 4.697087e-001 4.261229e-001 4.064909e-001 3.456433e-001 3.200400e-001
<GCONST> 1.122798e+002
<STATE> 4
<MEAN> 39
 -1.985745e+001 -1.269523e+000 -4.659894e+000 -9.093734e+000 -2.814037e+000 -8.460602e+000 -5.878209e+000 -1.106263e+000 -1.643642e+000 -1.077683e+000 -3.056269e+000 -9.624937e-001 5.566558e+001 3.806481e+000 -1.782780e+000 3.403864e-001 8.603487e-003 -1.593443e+000 -3.733369e-001 -1.226384e+000 -7.039947e-001 -1.429567e-001 1.708000e-001 -2.830749e-001 -4.037749e-001 -1.072314e+000 2.109824e-001 -9.024457e-002 -9.820292e-002 8.067312e-002 -1.234178e-001 2.645789e-001 8.058215e-002 3.744246e-002 -1.265148e-001 2.370540e-002 5.659492e-002 -4.287524e-002 -2.468004e-001
<VARIANCE> 39
 5.915915e+001 3.671059e+001 4.106181e+001 3.552574e+001 5.057451e+001 5.839270e+001 5.134536e+001 4.163713e+001 3.375592e+001 3.130670e+001 2.574786e+001 2.187745e+001 4.307704e+001 4.471402e+000 3.920746e+000 3.953833e+000 5.381191e+000 5.113379e+000 6.116707e+000 5.687821e+000 4.531511e+000 4.103284e+000 3.534813e+000 3.423681e+000 2.814970e+000 6.551974e+000 1.099656e+000 6.469037e-001 5.325276e-001 6.634957e-001 7.809637e-001 9.320444e-001 8.980008e-001 8.082930e-001 6.782622e-001 6.068369e-001 5.480265e-001 4.625970e-001 6.293483e-001
<GCONST> 1.340555e+002
<TRANSP> 5
 0.000000e+000 1.000000e+000 0.000000e+000 0.000000e+000 0.000000e+000
 0.000000e+000 6.630133e-001 3.369866e-001 0.000000e+000 0.000000e+000
 0.000000e+000 0.000000e+000 7.485813e-001 2.514187e-001 0.000000e+000
 0.000000e+000 0.000000e+000 0.000000e+000 6.146435e-001 3.853565e-001
 0.000000e+000 0.000000e+000 0.000000e+000 0.000000e+000 0.000000e+000
<ENDHMM>
