~o
<STREAMINFO> 1 39
<VECSIZE> 39<NULLD><MFCC_D_A_0><DIAGC>
~h "zh"
<BEGINHMM>
<NUMSTATES> 5
<STATE> 2
<MEAN> 39
 -1.835196e+001 -1.574398e+000 7.545335e+000 -6.713750e+000 -9.854428e+000 -8.720579e+000 -7.657016e+000 -3.124681e+000 -4.806240e+000 -5.839509e+000 -3.170588e+000 -4.335354e-001 5.855590e+001 -4.288018e+000 9.676400e-001 4.586046e-001 6.947724e-002 1.483778e+000 2.035361e+000 1.613137e+000 8.969238e-002 8.001121e-001 5.762900e-001 1.565334e-001 1.072526e-001 -2.752420e-001 3.672982e-001 -7.278214e-001 -4.526721e-001 -1.120558e-001 -1.735647e-001 1.039429e-001 7.977372e-003 3.884098e-001 1.377105e-001 2.430426e-001 1.991149e-001 -6.700000e-002 1.789086e-001
<VARIANCE> 39
 4.788246e+001 2.611370e+001 2.664362e+001 4.175567e+001 3.692525e+001 4.062298e+001 2.986869e+001 2.452577e+001 3.453008e+001 2.421874e+001 1.839177e+001 1.695883e+001 1.554163e+001 3.018730e+000 3.329977e+000 2.730273e+000 2.340640e+000 3.399592e+000 3.971317e+000 3.542251e+000 3.469820e+000 3.230352e+000 3.282370e+000 2.474685e+000 1.963641e+000 1.050303e+000 9.185238e-001 3.533572e-001 3.394972e-001 3.728158e-001 5.563570e-001 8.112687e-001 6.756124e-001 5.972609e-001 5.114075e-001 5.203280e-001 4.799905e-001 3.821567e-001 1.781101e-001
<GCONST> 1.185727e+002
<STATE> 3
<MEAN> 39
 -2.926136e+001 -3.969697e+000 5.094084e+000 -8.270933e+000 -6.464395e+000 -1.746606e+000 -2.187578e+000 1.236953e-001 -1.320651e+000 -2.596435e+000 -7.714509e-001 -1.465690e-001 5.868008e+001 2.156138e-001 -6.058064e-001 -5.305154e-001 8.439425e-002 -3.889878e-001 -2.789969e-001 2.778634e-001 1.605469e-001 3.092249e-002 2.485552e-001 1.620299e-001 -1.339284e-002 1.181053e-001 1.377776e+000 -6.030870e-003 -8.133831e-002 9.406170e-002 -3.803474e-001 -7.678024e-001 -5.686079e-001 -2.147223e-001 -3.330731e-001 -2.291952e-001 -1.264870e-001 -6.384060e-002 -9.447017e-002
<VARIANCE> 39
 2.467343e+001 2.996638e+001 2.989487e+001 4.139154e+001 4.073636e+001 3.480764e+001 2.958827e+001 2.453646e+001 2.565035e+001 2.198706e+001 1.647533e+001 1.507887e+001 1.221637e+001 4.457458e+000 1.344387e+000 1.652188e+000 1.498206e+000 2.652381e+000 3.198490e+000 2.387062e+000 1.975690e+000 2.168013e+000 1.813668e+000 1.467960e+000 1.242020e+000 8.335925e-001 5.432326e-001 3.027218e-001 3.455107e-001 3.098556e-001 5.365288e-001 5.887768e-001 5.321351e-001 4.032978e-001 4.142354e-001 4.375075e-001 3.383036e-001 3.084086e-001 1.986005e-001
<GCONST> 1.094596e+002
<STATE> 4
<MEAN> 39
 -1.777744e+001 -5.098886e+000 3.966171e+000 -5.621445e+000 -1.044336e+001 -9.039494e+000 -5.894288e+000 -2.056532e+000 -3.776903e+000 -3.874643e+000 -2.303770e+000 -9.384368e-001 5.848135e+001 4.452894e+000 -7.570471e-001 -1.284637e+000 2.666035e-003 -6.055543e-001 -1.716590e+000 -1.881907e+000 -1.172044e-001 -4.620481e-001 -3.392679e-001 -2.325484e-001 -1.409637e-001 -5.182148e-001 3.219463e-001 -1.785948e-001 -2.460691e-001 -1.852353e-001 1.881924e-001 3.570347e-001 -2.991989e-001 1.505180e-001 1.284078e-001 3.620228e-002 6.194747e-002 2.873809e-002 -1.495156e-001
<VARIANCE> 39
 5.566462e+001 2.666211e+001 3.270529e+001 4.540598e+001 4.789361e+001 3.955334e+001 3.762010e+001 2.649253e+001 4.116204e+001 2.645712e+001 1.885832e+001 1.722488e+001 2.078125e+001 4.859724e+000 2.895429e+000 3.648018e+000 2.997942e+000 5.093463e+000 5.955710e+000 5.672480e+000 3.085389e+000 4.115796e+000 3.420255e+000 3.057897e+000 2.416137e+000 2.242250e+000 9.597295e-001 4.433779e-001 3.986710e-001 4.843717e-001 7.717778e-001 7.503840e-001 9.548785e-001 5.319667e-001 6.585696e-001 5.710501e-001 4.400166e-001 3.953350e-001 3.066683e-001
<GCONST> 1.256757e+002
<TRANSP> 5
 0.000000e+000 1.000000e+000 0.000000e+000 0.000000e+000 0.000000e+000
 0.000000e+000 7.013293e-001 2.986707e-001 0.000000e+000 0.000000e+000
 0.000000e+000 0.000000e+000 7.405031e-001 2.594969e-001 0.000000e+000
 0.000000e+000 0.000000e+000 0.000000e+000 6.012254e-001 3.987746e-001
 0.000000e+000 0.000000e+000 0.000000e+000 0.000000e+000 0.000000e+000
<ENDHMM>
